~o
<STREAMINFO> 1 25
<VECSIZE> 25<NULLD><MFCC_D_N_Z_0><DIAGC>
~s "silst"
<MEAN> 25
 -1.543165e+01 3.317595e+00 -2.799463e+00 5.752972e+00 1.873186e+00 4.490180e+00 5.112391e+00 4.312490e+00 6.827358e+00 1.712970e+00 3.535100e+00 4.188290e+00 -7.077835e-03 2.030146e-03 1.902451e-02 2.285407e-02 1.811264e-02 1.874006e-02 -1.524712e-04 -5.794341e-02 -6.042843e-02 -3.376348e-02 6.199566e-04 -8.004234e-03 -2.380165e-03
<VARIANCE> 25
 6.467088e+00 5.387788e+00 9.866446e+00 8.632935e+00 9.247536e+00 9.327085e+00 1.133636e+01 1.465006e+01 1.328780e+01 1.025583e+01 9.504034e+00 7.308864e+00 3.847915e-02 1.296970e-01 2.225048e-01 3.611334e-01 4.954112e-01 4.775630e-01 8.001391e-01 1.126137e+00 1.348050e+00 1.011399e+00 7.821690e-01 8.706097e-01 3.817413e-02
<GCONST> 5.996078e+01
~h "b"
<BEGINHMM>
<NUMSTATES> 5
<STATE> 2
<MEAN> 25
 2.026928e+01 -4.928496e+00 3.241558e+00 -8.331937e+00 -3.388517e+00 7.085620e+00 -9.338320e+00 -1.609106e+01 -4.241993e+00 6.682394e+00 -1.389060e+00 -1.798411e+00 2.360111e-01 3.720108e-01 -1.735191e-01 -1.342922e+00 -2.214916e-01 4.014835e-01 7.131873e-02 -1.617655e-01 -5.416239e-01 3.933375e-01 2.253403e-01 -7.472446e-02 1.535699e-01
<VARIANCE> 25
 9.656260e+00 4.694152e+01 5.826971e+01 1.976328e+02 6.886637e+01 7.025552e+01 9.629660e+01 8.083732e+01 5.883508e+01 2.892583e+01 6.900805e+01 2.487472e+01 5.751851e-01 4.967916e+00 4.055707e+00 8.528082e+00 6.898036e+00 5.731480e+00 6.645394e+00 7.040708e+00 5.192863e+00 2.766582e+00 4.176540e+00 2.375317e+00 2.457143e+00
<GCONST> 1.117214e+02
<STATE> 3
<MEAN> 25
 2.204615e+01 1.018296e+01 -8.854509e+00 -1.343400e+01 -5.639797e-02 6.073940e+00 -3.922178e+00 -1.369068e+01 -1.019736e+01 2.977647e+00 3.222583e+00 1.384089e+00 -6.353936e-01 2.319225e+00 -1.223412e+00 9.813445e-01 8.511556e-01 -4.449757e-01 7.937241e-01 1.667445e+00 8.209474e-02 -1.607216e+00 8.178115e-01 9.220219e-01 -2.073009e+00
<VARIANCE> 25
 6.239208e+00 1.917031e+01 1.651356e+01 8.567757e+01 2.847292e+01 1.812621e+01 2.844286e+01 6.759173e+01 3.544926e+01 2.620064e+01 2.612551e+01 1.074219e+01 1.299940e+00 1.434979e+00 5.013128e+00 6.660112e+00 5.769103e+00 3.936599e+00 4.483301e+00 4.276893e+00 2.965806e+00 2.269111e+00 4.746575e+00 1.946111e+00 6.206453e-01
<GCONST> 9.812547e+01
<STATE> 4
<MEAN> 25
 1.596812e+01 1.577485e+01 -5.748314e+00 -9.736761e+00 -4.067867e+00 3.941345e+00 8.401314e-01 -6.550013e+00 -8.100824e+00 -3.673840e+00 2.040646e+00 1.797143e+00 -2.691991e+00 1.653373e-01 1.714159e+00 1.732378e+00 -7.406002e-01 -1.021677e+00 5.411513e-01 1.485180e+00 1.578200e+00 -5.787361e-01 -3.870996e-01 -7.991750e-02 -1.997838e+00
<VARIANCE> 25
 1.939224e+01 1.002595e+01 2.094876e+01 5.668449e+01 7.582014e+01 6.062944e+01 2.115130e+01 5.280837e+01 2.599040e+01 4.009187e+01 3.558580e+01 3.328080e+01 2.151757e+00 1.625350e+00 1.644118e+00 2.257571e+00 2.727172e+00 4.145767e+00 2.100368e+00 5.078638e+00 2.190862e+00 1.764569e+00 1.761411e+00 1.382438e+00 8.658064e-01
<GCONST> 9.722800e+01
<TRANSP> 5
 0.000000e+00 1.000000e+00 0.000000e+00 0.000000e+00 0.000000e+00
 0.000000e+00 9.213300e-01 7.867002e-02 0.000000e+00 0.000000e+00
 0.000000e+00 0.000000e+00 7.827148e-01 2.172852e-01 0.000000e+00
 0.000000e+00 0.000000e+00 0.000000e+00 7.141743e-01 2.858258e-01
 0.000000e+00 0.000000e+00 0.000000e+00 0.000000e+00 0.000000e+00
<ENDHMM>
~h "d"
<BEGINHMM>
<NUMSTATES> 5
<STATE> 2
<MEAN> 25
 -1.663010e+01 1.514449e+00 -2.689208e-01 7.436982e+00 1.274632e+00 3.736273e+00 4.681245e+00 3.614050e+00 4.778210e+00 1.666741e+00 5.004632e+00 3.593235e+00 -1.348295e-02 7.386930e-03 1.960073e-04 7.618559e-03 2.134836e-02 -6.109728e-03 -5.651078e-02 -9.768851e-03 7.390331e-02 5.358566e-02 4.878428e-03 -2.530632e-02 -1.371685e-02
<VARIANCE> 25
 6.634854e+00 4.705516e+00 3.842243e+00 6.500616e+00 6.423082e+00 7.575450e+00 9.618369e+00 1.372369e+01 1.099253e+01 9.575872e+00 9.795260e+00 8.514452e+00 4.682494e-02 1.508400e-01 2.358290e-01 3.754530e-01 4.628167e-01 4.999200e-01 7.180614e-01 1.220506e+00 1.243320e+00 1.048032e+00 7.836702e-01 8.645967e-01 3.817413e-02
<GCONST> 5.809072e+01
<STATE> 3
<MEAN> 25
 -1.304066e+01 5.601182e+00 -1.450534e+00 2.278471e+00 1.604491e+00 2.440590e+00 5.733006e-01 2.074802e+00 1.211059e+00 -1.992568e+00 7.064122e-01 2.057993e+00 -1.083861e-02 7.493279e-03 1.295034e-02 6.580178e-03 -6.582862e-03 2.617542e-02 1.353913e-02 -3.394397e-02 -7.644502e-02 -5.542468e-02 4.131296e-02 -1.393672e-03 -1.410234e-02
<VARIANCE> 25
 4.360177e+00 4.579100e+00 1.241208e+01 1.845900e+01 1.021280e+01 1.073890e+01 1.467978e+01 1.474189e+01 1.211275e+01 1.145034e+01 1.094790e+01 1.094546e+01 1.102026e-01 2.645752e-01 4.178965e-01 6.822589e-01 8.053619e-01 8.711141e-01 1.035779e+00 9.099160e-01 1.238202e+00 1.086536e+00 1.186588e+00 1.173642e+00 3.817413e-02
<GCONST> 6.632681e+01
<STATE> 4
<MEAN> 25
 -1.048466e+01 4.275859e+00 4.788535e-01 3.460185e+00 1.022789e+00 1.834837e+00 7.743763e-01 1.024753e+00 1.293732e+00 -1.546393e+00 -1.082803e+00 -2.327308e-03 1.026579e-01 2.463125e-02 7.534308e-02 9.355724e-02 3.066444e-02 1.195725e-02 6.497154e-02 -1.850897e-01 -2.147038e-01 9.401049e-02 -2.382590e-02 -1.689995e-01 1.076670e-01
<VARIANCE> 25
 1.542852e+01 6.459604e+00 1.701144e+01 1.569258e+01 1.212669e+01 1.105042e+01 1.823514e+01 1.899119e+01 2.132931e+01 1.241063e+01 2.348002e+01 1.873709e+01 1.255222e+00 5.870548e-01 6.729687e-01 1.017066e+00 1.280199e+00 1.194436e+00 1.295675e+00 2.015051e+00 2.558672e+00 1.226372e+00 1.522267e+00 1.727975e+00 1.254309e+00
<GCONST> 8.158348e+01
<TRANSP> 5
 0.000000e+00 1.000000e+00 0.000000e+00 0.000000e+00 0.000000e+00
 0.000000e+00 8.972447e-01 1.027553e-01 0.000000e+00 0.000000e+00
 0.000000e+00 0.000000e+00 8.952035e-01 1.047965e-01 0.000000e+00
 0.000000e+00 0.000000e+00 0.000000e+00 5.615135e-01 4.384865e-01
 0.000000e+00 0.000000e+00 0.000000e+00 0.000000e+00 0.000000e+00
<ENDHMM>
~h "f"
<BEGINHMM>
<NUMSTATES> 5
<STATE> 2
<MEAN> 25
 -1.909081e+01 3.158587e+00 -1.378314e+00 5.225955e+00 1.556433e+00 5.753230e+00 5.689579e+00 4.767272e+00 5.431342e+00 8.220770e-01 5.456674e+00 3.770536e+00 -1.783464e-04 -7.196915e-03 3.001599e-03 1.717983e-02 3.967319e-02 -3.329191e-02 -8.379523e-02 -4.849454e-03 1.020406e-01 7.895555e-02 4.569238e-03 -1.390168e-02 -3.858862e-03
<VARIANCE> 25
 5.583269e+00 6.090697e+00 6.716302e+00 1.618420e+01 9.378079e+00 9.785413e+00 9.536427e+00 1.677423e+01 1.230768e+01 1.014261e+01 8.261773e+00 8.841777e+00 4.185805e-02 1.497663e-01 2.165518e-01 3.372229e-01 4.503041e-01 4.468922e-01 6.920803e-01 1.088410e+00 1.053858e+00 1.081908e+00 8.196275e-01 9.882170e-01 3.817413e-02
<GCONST> 5.995350e+01
<STATE> 3
<MEAN> 25
 -1.475014e+01 5.173477e+00 -1.506129e+00 3.018307e+00 3.401760e+00 5.375239e+00 2.420410e+00 1.165241e+00 2.257950e+00 -5.577750e-01 2.569961e+00 2.787138e+00 -1.448552e-02 7.634211e-02 1.673128e-01 -5.223076e-02 -6.881848e-02 1.302543e-01 2.178880e-01 -3.560352e-01 -7.137177e-01 -2.790340e-01 -2.606263e-02 2.079392e-02 3.098580e-03
<VARIANCE> 25
 1.482451e+01 1.119253e+01 9.214163e+00 1.607720e+01 8.429635e+00 1.070394e+01 1.048961e+01 1.786718e+01 1.201757e+01 1.035380e+01 1.376359e+01 1.185270e+01 6.089030e-02 1.837380e-01 2.275350e-01 3.131123e-01 6.807829e-01 6.329996e-01 8.597714e-01 9.638578e-01 9.177160e-01 9.101924e-01 5.937918e-01 7.933650e-01 3.817413e-02
<GCONST> 6.334809e+01
<STATE> 4
<MEAN> 25
 -1.446786e+01 4.475177e+00 3.708759e-02 -7.386380e-01 2.465845e+00 3.630136e+00 1.331556e+00 2.972814e+00 6.935160e-01 -1.019491e+00 2.723995e+00 3.317727e+00 2.371622e-01 2.821314e-02 2.623962e-03 -1.490528e-01 -1.410073e-01 -2.365016e-01 -5.982689e-02 -2.921630e-02 -1.752309e-01 -3.180566e-02 -9.800909e-02 -5.775137e-02 2.131652e-01
<VARIANCE> 25
 8.324423e+00 7.181705e+00 7.652971e+00 1.572727e+01 1.131942e+01 1.466347e+01 1.727809e+01 2.222592e+01 1.453235e+01 9.886177e+00 1.180117e+01 9.693564e+00 9.433681e-01 5.764712e-01 7.463265e-01 1.041553e+00 1.330965e+00 1.619322e+00 1.705151e+00 1.286455e+00 1.444800e+00 1.007499e+00 1.069545e+00 1.155477e+00 1.955588e+00
<GCONST> 7.754824e+01
<TRANSP> 5
 0.000000e+00 1.000000e+00 0.000000e+00 0.000000e+00 0.000000e+00
 0.000000e+00 9.329029e-01 6.709709e-02 0.000000e+00 0.000000e+00
 0.000000e+00 0.000000e+00 4.813168e-01 5.186831e-01 0.000000e+00
 0.000000e+00 0.000000e+00 0.000000e+00 8.246921e-01 1.753079e-01
 0.000000e+00 0.000000e+00 0.000000e+00 0.000000e+00 0.000000e+00
<ENDHMM>
~h "g"
<BEGINHMM>
<NUMSTATES> 5
<STATE> 2
<MEAN> 25
 1.755807e+01 -1.340141e+01 8.547830e+00 1.512036e-01 -9.899317e+00 -8.573007e+00 -4.619009e+00 -5.441943e-01 -5.581882e+00 3.462745e+00 8.740219e-01 -6.842717e-01 2.522762e-01 8.681760e-02 9.957899e-01 -1.655616e-01 -1.344182e+00 2.213268e-01 9.444279e-01 -2.300885e-01 -9.805922e-01 2.905501e-01 1.682334e-01 1.123514e-01 1.731570e-01
<VARIANCE> 25
 1.644277e+01 3.020059e+01 9.498402e+01 1.537854e+02 9.342048e+01 8.208067e+01 7.158228e+01 6.682630e+01 8.785554e+01 5.034988e+01 4.739126e+01 3.460478e+01 2.298610e+00 3.591570e+00 8.044348e+00 1.120329e+01 5.939689e+00 4.327307e+00 7.041877e+00 7.247780e+00 4.641910e+00 5.529698e+00 4.995660e+00 3.917401e+00 2.296954e+00
<GCONST> 1.158009e+02
<STATE> 3
<MEAN> 25
 1.825456e+01 -2.412422e+00 5.948392e+00 5.664969e-01 -1.029086e+01 -3.512304e+00 5.323255e-01 -5.490281e+00 -8.463149e+00 1.044647e+00 -2.352639e-01 -3.549456e-01 2.768742e-01 3.935313e+00 -2.533993e+00 2.491227e+00 1.227751e-01 2.858581e-01 1.576206e+00 -2.330810e+00 5.739530e-01 -9.249991e-01 -3.064066e-01 -2.262657e-01 -2.950898e+00
<VARIANCE> 25
 1.843730e+01 8.769727e+01 8.140437e+01 1.464490e+02 1.091212e+02 6.103611e+01 1.436155e+02 1.142797e+02 1.165904e+02 7.007148e+01 3.523452e+01 3.005024e+01 8.180192e-01 7.041961e+00 4.113775e+00 1.177310e+01 6.946575e+00 3.344529e+00 8.385672e+00 8.477375e+00 5.355533e+00 7.973774e+00 2.959517e+00 2.571766e+00 3.323714e+00
<GCONST> 1.172298e+02
<STATE> 4
<MEAN> 25
 2.069570e+01 -1.578970e+00 -6.454518e+00 -6.439802e-01 -3.980812e+00 -1.870084e+00 -1.809294e+00 -1.285444e+01 -2.504356e+00 6.497240e+00 -2.794333e+00 -6.051617e+00 -4.415177e-02 1.639213e+00 -7.871934e-01 -1.904394e-01 7.246956e-01 1.001574e-01 -5.999073e-01 -3.883228e-01 3.183078e-01 -3.730718e-01 7.819054e-02 1.110500e-01 -9.423406e-01
<VARIANCE> 25
 8.804801e+00 8.674190e+01 6.086949e+01 7.903840e+01 6.760878e+01 2.415768e+01 6.586836e+01 4.756990e+01 4.280484e+01 4.274305e+01 3.398413e+01 3.163517e+01 4.220705e-01 4.564350e+00 2.456091e+00 4.746737e+00 2.964784e+00 2.363382e+00 3.947124e+00 3.397859e+00 3.223437e+00 2.205319e+00 3.202148e+00 1.502485e+00 1.799775e+00
<GCONST> 1.027787e+02
<TRANSP> 5
 0.000000e+00 1.000000e+00 0.000000e+00 0.000000e+00 0.000000e+00
 0.000000e+00 7.755374e-01 2.244625e-01 0.000000e+00 0.000000e+00
 0.000000e+00 0.000000e+00 6.001805e-01 3.998195e-01 0.000000e+00
 0.000000e+00 0.000000e+00 0.000000e+00 6.475940e-01 3.524061e-01
 0.000000e+00 0.000000e+00 0.000000e+00 0.000000e+00 0.000000e+00
<ENDHMM>
~h "k"
<BEGINHMM>
<NUMSTATES> 5
<STATE> 2
<MEAN> 25
 -1.263973e+00 2.060684e+00 4.985476e-01 -5.820818e+00 9.513831e+00 -7.819026e+00 -4.684987e+00 2.015999e+00 3.440714e+00 7.515874e-01 -3.700377e-01 9.958250e-01 -2.453571e+00 8.179050e-01 -1.254711e-01 9.241293e-02 6.903919e-01 -8.762401e-02 -5.439904e-02 3.345485e-01 5.025955e-01 -5.852474e-01 6.590978e-01 2.567559e-01 -1.254188e+00
<VARIANCE> 25
 1.955109e+02 5.181827e+01 5.353954e+01 9.914769e+01 9.531866e+01 6.537722e+01 6.967663e+01 3.933286e+01 4.017296e+01 3.599409e+01 3.489288e+01 3.135973e+01 1.052393e+01 8.488493e+00 6.665402e+00 5.959793e+00 6.528855e+00 5.988550e+00 6.725658e+00 5.404107e+00 4.319496e+00 4.287726e+00 3.650481e+00 2.717380e+00 4.715954e+00
<GCONST> 1.168729e+02
<STATE> 3
<MEAN> 25
 1.633148e+00 -4.141822e+00 -5.751988e+00 -6.286222e+00 1.202378e+01 -2.567355e+00 -7.278213e+00 2.824940e+00 2.016282e+00 1.686067e+00 1.195722e+00 2.049053e+00 2.783446e+00 -9.037114e-01 -1.382992e+00 -1.502313e+00 1.971890e-01 1.125969e+00 4.494873e-01 -2.694575e-01 -1.443598e+00 8.732464e-01 6.320833e-02 -8.480608e-01 1.290418e+00
<VARIANCE> 25
 8.100118e+01 7.409446e+01 7.518723e+01 9.478300e+01 1.101495e+02 1.165941e+02 8.220901e+01 6.890053e+01 6.041355e+01 5.266783e+01 4.676240e+01 3.659317e+01 9.414870e+00 9.504230e+00 9.745996e+00 1.269479e+01 1.990944e+01 8.811868e+00 9.744695e+00 8.350921e+00 6.414918e+00 5.818083e+00 5.107195e+00 5.000314e+00 2.349255e+01
<GCONST> 1.260258e+02
<STATE> 4
<MEAN> 25
 1.805964e+01 -7.480801e+00 -5.594035e+00 -1.779432e+01 7.476948e+00 1.232333e+00 -6.199326e+00 1.383429e+00 -5.677600e+00 7.552038e+00 1.342109e-01 -2.113138e+00 2.640164e+00 -1.340739e-01 7.172834e-01 -1.702767e+00 -9.474676e-01 8.035261e-01 -2.543205e-01 -5.923942e-01 -1.342185e+00 2.553084e-01 5.121656e-01 -3.632746e-01 1.869082e+00
<VARIANCE> 25
 1.801489e+01 6.106588e+01 1.114332e+02 7.322768e+01 4.879281e+01 7.287301e+01 4.713806e+01 4.506035e+01 5.388284e+01 5.921919e+01 5.249625e+01 2.633464e+01 5.100597e+00 3.693308e+00 6.041891e+00 7.243912e+00 4.847904e+00 6.357683e+00 5.797222e+00 5.611225e+00 4.850032e+00 4.078006e+00 4.385270e+00 2.870833e+00 4.858094e+00
<GCONST> 1.138173e+02
<TRANSP> 5
 0.000000e+00 1.000000e+00 0.000000e+00 0.000000e+00 0.000000e+00
 0.000000e+00 8.845940e-01 1.154060e-01 0.000000e+00 0.000000e+00
 0.000000e+00 0.000000e+00 8.297006e-01 1.702994e-01 0.000000e+00
 0.000000e+00 0.000000e+00 0.000000e+00 7.007696e-01 2.992304e-01
 0.000000e+00 0.000000e+00 0.000000e+00 0.000000e+00 0.000000e+00
<ENDHMM>
~h "l"
<BEGINHMM>
<NUMSTATES> 5
<STATE> 2
<MEAN> 25
 6.619416e-01 7.200896e+00 -1.646398e+00 -5.149404e-01 -3.564849e-01 -2.074628e-01 -8.358029e-01 -1.793099e+00 1.611597e+00 3.570440e-01 1.312991e+00 1.686793e+00 -1.168609e+00 -1.740963e+00 3.585006e-01 5.659898e-01 -2.849446e-01 -8.066980e-01 4.647034e-01 9.071973e-01 3.132164e-01 -1.863246e-01 6.857730e-02 2.850815e-01 2.120021e-01
<VARIANCE> 25
 1.266559e+02 7.342018e+01 4.870912e+01 5.797083e+01 3.756947e+01 5.575119e+01 3.230488e+01 3.452973e+01 2.713293e+01 2.547754e+01 2.531613e+01 1.968948e+01 8.395472e+00 4.375633e+00 4.209343e+00 2.871115e+00 4.292343e+00 5.438653e+00 3.449891e+00 3.167187e+00 2.230801e+00 1.897997e+00 2.053757e+00 1.760066e+00 1.025408e+01
<GCONST> 1.071378e+02
<STATE> 3
<MEAN> 25
 2.363884e+00 2.470497e+00 -3.560421e-01 2.750005e-01 7.360592e-02 -3.753051e-01 -8.428996e-01 -1.870850e+00 1.303504e+00 -6.927148e-01 5.509939e-01 8.589308e-01 1.002011e+00 -3.678272e+00 7.775610e-01 4.621861e-01 -6.873868e-01 -2.012022e+00 3.761241e-01 8.729315e-01 -2.888423e-02 -4.310943e-01 -4.309060e-01 1.424802e-01 3.565082e+00
<VARIANCE> 25
 1.283929e+02 1.407806e+02 5.114239e+01 7.769639e+01 5.660688e+01 5.170028e+01 3.538577e+01 4.459905e+01 3.776959e+01 2.499205e+01 2.850712e+01 2.164964e+01 1.176876e+01 8.594736e+00 6.823887e+00 6.022517e+00 8.163055e+00 7.479830e+00 4.400422e+00 4.584648e+00 3.293108e+00 3.439755e+00 3.507397e+00 2.130018e+00 1.783242e+01
<GCONST> 1.154255e+02
<STATE> 4
<MEAN> 25
 6.699084e+00 -6.758034e+00 9.441866e-01 1.811123e+00 -3.084838e-04 -6.085350e+00 -1.029375e+00 8.706564e-01 2.002989e+00 -1.376531e+00 -1.539837e+00 1.365931e+00 2.224965e+00 -2.504577e+00 1.312507e+00 3.209375e-01 -1.357975e+00 -1.359374e+00 -2.103434e-01 2.721606e-01 -6.080459e-01 -3.038531e-01 -4.769268e-02 -2.912084e-01 3.370007e+00
<VARIANCE> 25
 9.371754e+01 1.031453e+02 7.758763e+01 9.409507e+01 6.266019e+01 9.334052e+01 5.683212e+01 5.317840e+01 4.821570e+01 3.330280e+01 3.441523e+01 2.938731e+01 1.023755e+01 1.129136e+01 7.551437e+00 5.777177e+00 9.200612e+00 6.100854e+00 6.986894e+00 4.668591e+00 5.702397e+00 4.602072e+00 5.126486e+00 3.071007e+00 1.264121e+01
<GCONST> 1.196063e+02
<TRANSP> 5
 0.000000e+00 1.000000e+00 0.000000e+00 0.000000e+00 0.000000e+00
 0.000000e+00 5.102565e-01 4.897435e-01 0.000000e+00 0.000000e+00
 0.000000e+00 0.000000e+00 1.471200e-02 9.852880e-01 0.000000e+00
 0.000000e+00 0.000000e+00 0.000000e+00 5.101874e-01 4.898126e-01
 0.000000e+00 0.000000e+00 0.000000e+00 0.000000e+00 0.000000e+00
<ENDHMM>
~h "m"
<BEGINHMM>
<NUMSTATES> 5
<STATE> 2
<MEAN> 25
 2.030185e+00 6.891428e+00 7.240047e+00 -3.756577e+00 6.032890e+00 -1.568335e+01 -1.733376e-01 2.121751e+00 1.181532e+00 -4.208270e+00 -5.179554e+00 2.597725e+00 6.807293e-01 -7.214945e-01 1.362420e+00 -1.262265e+00 4.376620e-01 -1.021420e+00 -1.127536e+00 3.003991e-01 -3.898803e-01 -3.268323e-01 -6.589249e-02 -7.367141e-02 3.631700e+00
<VARIANCE> 25
 6.600851e+01 9.984005e+01 7.769386e+01 9.669150e+01 1.630635e+02 1.282665e+02 1.182654e+02 7.399097e+01 6.604957e+01 4.979762e+01 5.015128e+01 2.913117e+01 1.106575e+01 9.612046e+00 7.631895e+00 9.376310e+00 1.497789e+01 1.173874e+01 9.082458e+00 8.556133e+00 9.484523e+00 6.896296e+00 5.637283e+00 4.183586e+00 4.137408e+00
<GCONST> 1.252961e+02
<STATE> 3
<MEAN> 25
 1.540102e+01 -1.059293e+01 1.223425e+01 -1.395718e+01 3.022451e+00 -7.227953e+00 -1.425005e+01 -2.882981e+00 -2.142001e+00 3.801426e+00 -4.347841e-01 -1.938897e+00 3.160769e+00 -1.884020e+00 -3.134327e-01 -8.259436e-01 -1.076124e+00 2.345044e+00 -2.123449e-01 -1.324294e+00 -6.822448e-01 1.586935e+00 8.516861e-01 -2.547215e-01 1.216539e-01
<VARIANCE> 25
 5.727635e+01 4.606926e+01 3.256961e+01 7.272066e+01 3.102606e+01 6.053124e+01 6.580325e+01 8.909900e+01 3.389733e+01 5.738946e+01 3.569827e+01 1.260758e+01 2.786998e+00 2.751625e+00 3.439801e+00 7.595555e+00 7.218857e+00 8.283068e+00 7.626058e+00 7.936861e+00 4.368093e+00 6.373423e+00 1.938324e+00 2.610868e+00 1.865026e+00
<GCONST> 1.105573e+02
<STATE> 4
<MEAN> 25
 2.096943e+01 -4.163766e+00 6.983986e+00 -4.803831e+00 -7.960601e+00 8.253745e-02 1.887076e-01 -7.173415e+00 -9.305219e+00 1.271562e+00 1.333217e+00 -1.725247e+00 -2.548180e-01 9.049607e-01 -4.714774e-01 6.561275e-01 -1.089997e-01 -1.091595e-01 4.206729e-01 -3.580728e-02 4.891833e-02 -2.041630e-01 -8.730436e-02 -8.187166e-02 -1.008302e+00
<VARIANCE> 25
 4.094516e+01 1.341155e+02 1.496982e+02 1.742361e+02 5.504049e+01 9.188135e+01 1.056912e+02 1.641163e+02 7.810354e+01 7.127547e+01 4.110795e+01 2.983804e+01 2.377751e+00 7.063811e+00 7.958215e+00 8.932855e+00 3.468570e+00 5.008635e+00 5.648559e+00 1.111128e+01 6.737965e+00 7.991275e+00 2.979970e+00 3.149984e+00 5.245235e+00
<GCONST> 1.207152e+02
<TRANSP> 5
 0.000000e+00 1.000000e+00 0.000000e+00 0.000000e+00 0.000000e+00
 0.000000e+00 8.879151e-01 1.120849e-01 0.000000e+00 0.000000e+00
 0.000000e+00 0.000000e+00 8.144246e-01 1.855754e-01 0.000000e+00
 0.000000e+00 0.000000e+00 0.000000e+00 9.571317e-01 4.286830e-02
 0.000000e+00 0.000000e+00 0.000000e+00 0.000000e+00 0.000000e+00
<ENDHMM>
~h "n"
<BEGINHMM>
<NUMSTATES> 5
<STATE> 2
<MEAN> 25
 1.766511e-01 1.061922e+01 4.384471e+00 6.839912e+00 -1.445116e+00 -1.319641e+00 -1.360377e+00 -2.969347e+00 -1.851188e+00 -4.520343e+00 -4.165471e+00 -2.473175e+00 -1.752942e+00 -1.444620e+00 -6.815119e-01 2.156787e-01 4.361601e-01 2.122041e-01 1.016892e-01 1.007739e-01 1.689558e-01 2.354563e-01 2.493287e-01 -9.046745e-02 -9.112046e-01
<VARIANCE> 25
 5.428375e+01 3.844618e+01 4.520491e+01 2.306286e+01 1.531707e+01 2.228704e+01 2.045994e+01 1.916453e+01 2.793301e+01 2.277066e+01 1.426682e+01 1.535421e+01 3.181857e+00 2.717429e+00 2.766585e+00 2.959720e+00 1.695254e+00 2.103164e+00 1.763249e+00 1.650381e+00 1.632546e+00 2.116059e+00 9.745090e-01 9.300978e-01 8.738552e-01
<GCONST> 9.179485e+01
<STATE> 3
<MEAN> 25
 -7.627869e+00 6.271046e+00 1.288686e+00 7.801984e+00 2.600833e+00 2.471855e+00 -7.847013e-01 -2.046309e+00 -1.725490e+00 -4.268124e+00 -9.038080e-01 -1.493605e+00 -4.533789e-01 -3.083293e-01 -1.874669e-01 -1.139792e-01 -9.869209e-02 5.012009e-03 7.687125e-02 1.403412e-01 1.647473e-01 2.362049e-01 2.053006e-01 1.669482e-01 -2.503600e-01
<VARIANCE> 25
 1.179290e+01 2.108045e+01 2.675566e+01 1.854546e+01 1.071846e+01 1.243631e+01 1.124750e+01 1.500642e+01 1.959036e+01 1.357254e+01 1.878602e+01 1.652513e+01 2.653572e-01 6.001070e-01 9.994437e-01 9.822962e-01 6.752223e-01 1.051782e+00 1.152797e+00 1.614204e+00 1.204218e+00 1.505500e+00 1.904148e+00 2.039733e+00 8.569694e-02
<GCONST> 7.692997e+01
<STATE> 4
<MEAN> 25
 -8.553780e+00 1.764903e+00 -8.000773e-01 2.068350e+00 4.341171e-01 1.764181e+00 2.997155e-01 5.178732e-01 -8.666857e-02 -9.986706e-01 -6.559953e-01 1.360896e-01 -2.032400e-02 2.383265e-02 5.947601e-03 -4.077724e-02 6.489009e-03 2.090877e-02 5.460095e-03 4.677538e-02 4.011955e-02 -1.081561e-02 6.341488e-03 4.146184e-02 -1.700483e-02
<VARIANCE> 25
 5.510030e+00 5.606632e+00 1.305864e+01 9.804049e+00 8.376504e+00 1.230877e+01 1.388313e+01 1.249101e+01 1.613280e+01 1.348958e+01 1.376027e+01 1.342000e+01 1.290485e-01 2.799865e-01 4.185635e-01 5.950454e-01 6.800453e-01 9.392058e-01 1.137401e+00 1.320041e+00 1.421023e+00 1.475503e+00 1.417764e+00 1.318285e+00 3.817413e-02
<GCONST> 6.797009e+01
<TRANSP> 5
 0.000000e+00 1.000000e+00 0.000000e+00 0.000000e+00 0.000000e+00
 0.000000e+00 7.902845e-01 2.097155e-01 0.000000e+00 0.000000e+00
 0.000000e+00 0.000000e+00 8.061187e-01 1.938813e-01 0.000000e+00
 0.000000e+00 0.000000e+00 0.000000e+00 9.526936e-01 4.730637e-02
 0.000000e+00 0.000000e+00 0.000000e+00 0.000000e+00 0.000000e+00
<ENDHMM>
~h "r"
<BEGINHMM>
<NUMSTATES> 5
<STATE> 2
<MEAN> 25
 1.517740e+00 6.350734e+00 -1.706610e+00 -3.904288e-01 -3.910438e-01 -8.846096e-01 1.836743e+00 -1.370512e+00 -5.443437e-02 5.328835e-01 9.289168e-01 8.510586e-01 -1.181439e+00 2.548268e-01 4.204313e-01 1.981978e-01 -4.563797e-01 -1.287010e-01 2.207304e-01 3.328870e-03 -2.278158e-02 -5.094415e-01 -3.949815e-02 1.675409e-01 -1.128790e+00
<VARIANCE> 25
 1.810260e+02 1.060587e+02 5.219434e+01 5.222882e+01 5.645259e+01 4.627442e+01 4.139014e+01 4.034537e+01 4.003557e+01 3.433194e+01 2.144970e+01 2.255565e+01 5.774746e+00 4.754006e+00 4.317411e+00 3.205433e+00 4.809735e+00 2.954519e+00 5.169632e+00 4.383130e+00 3.827155e+00 3.189199e+00 2.183596e+00 1.958182e+00 3.491563e+00
<GCONST> 1.093360e+02
<STATE> 3
<MEAN> 25
 9.258227e-01 6.419226e+00 -2.340689e-03 1.495812e+00 -2.487024e+00 -7.883016e-01 -9.906162e-02 -2.305412e+00 -2.261425e-01 -2.098672e+00 -8.415976e-01 3.258448e-01 -1.896970e-01 -1.472497e-01 4.162512e-01 1.897350e-01 3.013193e-01 9.234820e-02 3.153057e-02 5.447068e-02 4.523876e-02 -2.296569e-01 -2.017374e-01 6.093131e-02 4.208811e-02
<VARIANCE> 25
 1.579291e+02 1.263806e+02 5.799178e+01 4.541343e+01 3.924414e+01 3.293963e+01 3.655478e+01 3.298880e+01 2.857895e+01 2.711953e+01 2.000962e+01 1.833816e+01 3.104159e+00 3.836709e+00 3.114426e+00 1.935747e+00 1.998257e+00 1.350236e+00 1.981918e+00 2.719400e+00 1.930710e+00 1.585972e+00 1.303481e+00 1.393523e+00 1.927291e+00
<GCONST> 9.986505e+01
<STATE> 4
<MEAN> 25
 2.636185e+00 2.385466e+00 -6.280760e-01 1.379520e+00 -1.666853e+00 -1.467367e+00 1.037686e+00 -2.246738e+00 -1.352536e-02 -4.490747e-01 -1.094949e+00 4.766925e-01 1.417691e+00 -1.754739e+00 8.073511e-01 -1.399980e-01 2.460547e-01 -7.561577e-01 -1.210861e-01 -2.298386e-01 3.612486e-01 2.486749e-01 -1.050929e-01 3.622811e-01 2.912995e+00
<VARIANCE> 25
 1.744773e+02 1.376278e+02 5.357206e+01 5.462796e+01 5.948029e+01 6.248927e+01 4.716131e+01 4.735253e+01 3.545332e+01 3.357537e+01 2.241817e+01 2.020439e+01 8.221185e+00 1.382959e+01 8.798747e+00 5.366421e+00 4.896755e+00 6.683934e+00 5.549999e+00 5.380236e+00 4.999018e+00 2.805031e+00 2.773065e+00 2.095961e+00 1.344135e+01
<GCONST> 1.156165e+02
<TRANSP> 5
 0.000000e+00 1.000000e+00 0.000000e+00 0.000000e+00 0.000000e+00
 0.000000e+00 4.172511e-01 5.827489e-01 0.000000e+00 0.000000e+00
 0.000000e+00 0.000000e+00 3.305683e-01 6.694316e-01 0.000000e+00
 0.000000e+00 0.000000e+00 0.000000e+00 2.171542e-01 7.828457e-01
 0.000000e+00 0.000000e+00 0.000000e+00 0.000000e+00 0.000000e+00
<ENDHMM>
~h "s"
<BEGINHMM>
<NUMSTATES> 5
<STATE> 2
<MEAN> 25
 1.532768e+01 -1.017540e+01 9.062370e+00 1.481872e+00 -6.119457e+00 -1.082707e+01 -2.743448e+00 3.908362e+00 -2.046326e+00 -1.554009e+00 -1.430463e+00 8.079605e-01 2.226285e+00 -1.892519e+00 1.211050e+00 -1.194040e+00 -9.121490e-01 -4.714404e-01 -1.802309e+00 1.398343e+00 -1.378985e+00 -3.422019e-01 1.050957e+00 -3.676905e-02 2.370887e+00
<VARIANCE> 25
 3.295316e+01 4.738680e+01 6.917577e+01 9.312914e+01 7.245908e+01 5.829324e+01 7.326546e+01 5.534151e+01 7.583106e+01 4.435543e+01 4.764450e+01 3.488860e+01 5.109560e+00 1.186128e+01 1.351265e+01 1.160844e+01 7.592113e+00 9.112123e+00 8.209407e+00 4.791817e+00 1.240185e+01 4.849444e+00 5.978657e+00 3.428940e+00 8.849067e+00
<GCONST> 1.206299e+02
<STATE> 3
<MEAN> 25
 1.859032e+01 -1.654412e+01 8.652919e+00 -3.417234e+00 -6.654280e+00 -8.049801e+00 -7.286137e+00 4.836030e+00 2.637559e-01 -1.374605e+00 -1.077292e+00 -5.584315e-01 5.880697e-01 -9.849795e-01 -6.127380e-01 -1.179984e+00 7.138016e-02 7.467158e-01 6.007703e-02 -1.073291e-01 3.754355e-01 5.267251e-01 -1.898606e-01 -7.753372e-01 9.928853e-01
<VARIANCE> 25
 3.469825e+01 2.707554e+01 1.008404e+02 7.400985e+01 7.883956e+01 6.285771e+01 5.700460e+01 9.082262e+01 1.047926e+02 6.094658e+01 4.020849e+01 3.209268e+01 3.273319e+00 2.725086e+00 7.005528e+00 7.459072e+00 7.067213e+00 6.492705e+00 8.014718e+00 6.562813e+00 6.528825e+00 6.266608e+00 4.104979e+00 4.217842e+00 1.633309e+00
<GCONST> 1.156819e+02
<STATE> 4
<MEAN> 25
 1.956624e+01 -1.367187e+01 4.271309e+00 -1.387328e+01 -1.593745e+00 -2.114572e+00 -5.455440e+00 2.442587e-02 -1.594593e+00 5.325205e+00 -1.402739e-02 -3.457398e+00 -3.213777e-02 6.674722e-01 -3.568760e-01 -4.452295e-01 7.179553e-01 3.156349e-01 -1.906859e-01 -4.157411e-01 -8.415640e-02 6.018260e-01 -2.577296e-01 1.198356e-01 -2.646549e-01
<VARIANCE> 25
 2.423577e+01 3.456322e+01 1.404247e+02 1.102583e+02 9.233722e+01 6.242187e+01 9.976086e+01 1.064865e+02 5.136154e+01 4.261999e+01 4.730698e+01 4.821064e+01 5.821344e-01 1.337313e+00 2.123032e+00 2.487755e+00 2.642320e+00 3.006719e+00 3.093451e+00 2.973183e+00 3.017513e+00 2.165580e+00 2.407752e+00 2.555647e+00 4.466470e-01
<GCONST> 1.042721e+02
<TRANSP> 5
 0.000000e+00 1.000000e+00 0.000000e+00 0.000000e+00 0.000000e+00
 0.000000e+00 4.678459e-01 5.321541e-01 0.000000e+00 0.000000e+00
 0.000000e+00 0.000000e+00 7.586101e-01 2.413898e-01 0.000000e+00
 0.000000e+00 0.000000e+00 0.000000e+00 9.019830e-01 9.801703e-02
 0.000000e+00 0.000000e+00 0.000000e+00 0.000000e+00 0.000000e+00
<ENDHMM>
~h "t"
<BEGINHMM>
<NUMSTATES> 5
<STATE> 2
<MEAN> 25
 8.027060e+00 -8.313502e+00 3.375749e+00 -1.321995e+00 9.065032e-03 -1.393431e+01 1.924448e+00 1.243227e+00 1.889182e+00 -3.788162e-01 -3.163970e+00 2.939272e+00 1.495583e+00 -1.336510e+00 2.022068e+00 -2.100536e+00 3.989904e-01 -5.347607e-01 -1.486259e+00 5.962415e-02 -1.071052e+00 1.874803e-01 7.979408e-01 -1.993374e-01 3.843173e+00
<VARIANCE> 25
 7.659898e+01 6.553635e+01 6.363990e+01 8.059480e+01 8.247125e+01 8.167596e+01 6.898640e+01 7.404592e+01 8.594465e+01 4.035346e+01 5.723781e+01 3.990173e+01 2.183072e+01 1.546286e+01 1.045838e+01 6.925231e+00 8.880316e+00 6.615801e+00 9.060784e+00 6.842257e+00 9.400270e+00 4.888480e+00 5.491681e+00 4.313535e+00 1.668640e+01
<GCONST> 1.243615e+02
<STATE> 3
<MEAN> 25
 1.472501e+01 -1.369356e+01 1.030212e+01 -6.837090e+00 -4.355011e+00 -8.240715e+00 -7.772627e+00 3.735586e+00 -1.431025e+00 4.808089e-01 1.421279e+00 -2.038127e-01 1.009894e+00 -4.020399e-01 -4.379244e-01 -1.374633e+00 -7.562813e-02 1.799398e+00 -6.771554e-01 -3.461421e-01 -9.956998e-02 8.200205e-01 -1.648726e-01 -8.130426e-01 7.416100e-01
<VARIANCE> 25
 4.270401e+01 4.372095e+01 1.222892e+02 6.973692e+01 5.311681e+01 6.250801e+01 6.269989e+01 1.294283e+02 1.069195e+02 4.329480e+01 4.932629e+01 3.877489e+01 5.928348e+00 4.638756e+00 7.589888e+00 7.602482e+00 6.023804e+00 7.340542e+00 8.821577e+00 8.582637e+00 9.883070e+00 4.793410e+00 4.839191e+00 3.081765e+00 2.232266e+00
<GCONST> 1.184847e+02
<STATE> 4
<MEAN> 25
 1.897095e+01 -5.027445e+00 -9.817294e-01 -1.544078e+01 1.366048e+00 5.052990e+00 -7.163610e+00 -4.557179e+00 -3.394416e+00 4.717119e+00 -2.759316e-01 -1.360567e+00 -2.704561e-01 1.377170e+00 -6.882606e-01 2.407441e-01 2.832634e-01 2.949099e-01 3.351858e-01 -4.082119e-01 -1.560286e-01 -4.231794e-02 1.803634e-01 2.345554e-01 -1.162517e+00
<VARIANCE> 25
 2.717353e+01 1.300632e+02 9.210872e+01 1.181190e+02 7.709357e+01 5.237935e+01 9.687156e+01 1.005182e+02 7.392515e+01 4.422943e+01 3.292605e+01 3.581061e+01 1.564868e+00 2.145615e+00 4.169911e+00 5.473253e+00 3.120219e+00 3.501797e+00 4.085352e+00 3.664724e+00 4.244451e+00 3.165283e+00 2.254624e+00 2.026613e+00 1.525983e+00
<GCONST> 1.100402e+02
<TRANSP> 5
 0.000000e+00 1.000000e+00 0.000000e+00 0.000000e+00 0.000000e+00
 0.000000e+00 4.142209e-01 5.857792e-01 0.000000e+00 0.000000e+00
 0.000000e+00 0.000000e+00 7.926343e-01 2.073657e-01 0.000000e+00
 0.000000e+00 0.000000e+00 0.000000e+00 9.056509e-01 9.434909e-02
 0.000000e+00 0.000000e+00 0.000000e+00 0.000000e+00 0.000000e+00
<ENDHMM>
~h "w"
<BEGINHMM>
<NUMSTATES> 5
<STATE> 2
<MEAN> 25
 2.555667e+01 -1.585970e+00 -6.670922e+00 -1.672187e+01 -2.170880e+00 3.776119e+00 -6.917722e-01 -4.458653e+00 -1.112900e+01 2.000487e+00 8.106088e+00 -1.452865e-01 6.365753e-01 -3.281881e+00 7.398973e-01 1.150848e+00 2.792166e-02 -1.761579e+00 2.382037e-02 -8.749442e-02 3.443410e-02 1.659694e+00 9.855646e-01 -1.410079e+00 2.388248e+00
<VARIANCE> 25
 1.390961e+01 6.525733e+01 7.429653e+01 7.570273e+01 5.248454e+01 4.110112e+01 4.835878e+01 5.095673e+01 5.018030e+01 4.912227e+01 3.442018e+01 2.949274e+01 2.777815e+00 3.460633e+00 7.754940e+00 7.258982e+00 9.259009e+00 7.749916e+00 6.162996e+00 4.754362e+00 8.516922e+00 4.581030e+00 6.108176e+00 5.086746e+00 1.571462e+00
<GCONST> 1.131085e+02
<STATE> 3
<MEAN> 25
 2.249804e+01 -1.486220e+01 -4.531010e+00 -9.974667e+00 1.309313e+00 -5.432948e+00 -2.262934e+00 1.054468e-01 -4.164017e+00 6.980904e+00 4.534934e+00 -8.548793e+00 -1.057135e+00 -1.906231e+00 6.337139e-01 1.754082e+00 4.243819e-02 -1.992203e+00 2.836552e-01 1.748595e+00 2.618618e+00 -1.097264e+00 -2.571934e+00 -1.392342e+00 1.004029e+00
<VARIANCE> 25
 2.504704e+01 2.007714e+01 5.595375e+01 1.035801e+02 4.837871e+01 5.820107e+01 7.617842e+01 6.789762e+01 6.983819e+01 4.615466e+01 5.096431e+01 3.581933e+01 4.926405e-01 2.112632e+00 2.157872e+00 2.052821e+00 3.624258e+00 2.745023e+00 3.683157e+00 2.904336e+00 3.672053e+00 3.495919e+00 2.195932e+00 3.103040e+00 4.858829e-01
<GCONST> 1.028592e+02
<STATE> 4
<MEAN> 25
 1.777312e+01 -1.923775e+01 2.025576e+00 -9.894339e+00 -4.484262e-01 -7.768866e+00 -8.356507e-01 1.021423e+01 3.688134e-01 6.601269e-01 -2.349383e+00 -8.612691e+00 1.973406e-01 -2.820685e-01 4.405080e-01 9.825031e-01 -1.092806e+00 1.725404e-01 1.625246e-01 1.269304e-01 2.860096e-01 -3.502325e-01 -1.274247e+00 3.993443e-01 -4.500163e-01
<VARIANCE> 25
 1.933484e+01 1.894350e+01 4.067246e+01 6.811404e+01 4.818108e+01 5.744952e+01 5.455204e+01 6.368119e+01 4.179223e+01 3.480067e+01 3.269247e+01 2.701833e+01 8.858083e-01 1.356103e+00 1.470005e+00 1.674421e+00 1.765932e+00 3.180513e+00 3.107621e+00 4.959254e+00 3.132831e+00 4.138941e+00 2.665852e+00 2.891935e+00 6.843712e-01
<GCONST> 9.969246e+01
<TRANSP> 5
 0.000000e+00 1.000000e+00 0.000000e+00 0.000000e+00 0.000000e+00
 0.000000e+00 7.208248e-01 2.791752e-01 0.000000e+00 0.000000e+00
 0.000000e+00 0.000000e+00 6.997108e-01 3.002891e-01 0.000000e+00
 0.000000e+00 0.000000e+00 0.000000e+00 7.563929e-01 2.436071e-01
 0.000000e+00 0.000000e+00 0.000000e+00 0.000000e+00 0.000000e+00
<ENDHMM>
~h "z"
<BEGINHMM>
<NUMSTATES> 5
<STATE> 2
<MEAN> 25
 -6.439582e+00 1.072415e+00 -2.587686e+00 9.705119e-01 1.022982e+00 7.991500e-01 -8.665040e-01 2.225862e+00 1.128511e+00 2.661025e-02 3.533407e-01 7.133218e-01 -1.130137e-02 -5.266313e-03 -6.139494e-02 -2.195957e-02 2.312673e-02 1.500306e-02 -9.559884e-04 8.195621e-02 5.858959e-02 -2.219884e-02 -5.037535e-02 -7.804277e-03 -2.540775e-02
<VARIANCE> 25
 2.119449e+00 2.026392e+00 5.216101e+00 1.230300e+01 1.459948e+01 9.544272e+00 1.298765e+01 1.127720e+01 1.295693e+01 1.119590e+01 1.078474e+01 8.129160e+00 1.101137e-01 2.498794e-01 3.504601e-01 8.322667e-01 7.318352e-01 7.550516e-01 1.214991e+00 1.188947e+00 1.304430e+00 1.195034e+00 9.347269e-01 8.295128e-01 3.817413e-02
<GCONST> 6.281385e+01
<STATE> 3
<MEAN> 25
 -7.266046e+00 -7.304590e-01 -2.728868e+00 1.454484e+00 -8.198581e-01 1.520413e-02 4.883427e-01 2.571666e+00 3.326760e+00 -8.751696e-02 -1.110946e+00 3.490087e-02 3.872170e-01 3.479330e-01 4.908231e-01 1.316733e-01 2.711843e-01 -3.685197e-04 -1.345193e-01 -1.495431e-01 -1.377192e-01 5.777046e-02 -2.625434e-01 -3.318401e-01 2.686458e-01
<VARIANCE> 25
 7.038893e+00 1.352691e+01 2.692125e+01 9.913805e+00 9.556983e+00 1.325530e+01 1.711037e+01 1.188465e+01 3.144798e+01 9.146263e+00 1.377239e+01 1.290923e+01 1.022832e+00 1.737083e+00 4.020694e+00 1.465535e+00 1.429792e+00 1.278769e+00 2.366453e+00 1.433185e+00 4.335168e+00 1.286906e+00 1.558958e+00 1.650012e+00 9.097210e-01
<GCONST> 8.383115e+01
<STATE> 4
<MEAN> 25
 1.430370e+01 -6.180270e-01 6.082171e-01 -1.298771e+01 7.866096e+00 1.547412e+00 -7.777223e+00 -5.101444e+00 -2.134519e+00 9.575649e-01 -1.524310e+00 -6.988168e-01 2.399719e-01 -5.540712e-02 -1.075082e-01 -1.065586e-01 2.094079e-02 1.687047e-01 -9.976059e-02 -3.708062e-01 -2.955912e-01 2.724830e-02 2.304985e-01 -3.333968e-03 1.833146e-01
<VARIANCE> 25
 1.958121e+02 1.295798e+02 8.855124e+01 1.264699e+02 3.668682e+01 1.476584e+02 7.320966e+01 6.279103e+01 3.698825e+01 5.170581e+01 4.398721e+01 2.797425e+01 7.531079e+00 9.033680e+00 6.979436e+00 9.600026e+00 3.947572e+00 6.277771e+00 7.778921e+00 6.325416e+00 5.160870e+00 6.845599e+00 5.158753e+00 3.129174e+00 8.977952e+00
<GCONST> 1.211856e+02
<TRANSP> 5
 0.000000e+00 1.000000e+00 0.000000e+00 0.000000e+00 0.000000e+00
 0.000000e+00 9.519706e-01 4.802935e-02 0.000000e+00 0.000000e+00
 0.000000e+00 0.000000e+00 8.037684e-01 1.962316e-01 0.000000e+00
 0.000000e+00 0.000000e+00 0.000000e+00 9.067021e-01 9.329790e-02
 0.000000e+00 0.000000e+00 0.000000e+00 0.000000e+00 0.000000e+00
<ENDHMM>
~h "ae"
<BEGINHMM>
<NUMSTATES> 5
<STATE> 2
<MEAN> 25
 1.909023e+01 -2.232956e+01 -2.369030e+00 -5.904042e+00 -1.191902e+00 -8.419052e-01 -5.250381e-01 3.866157e+00 2.817972e+00 2.943584e+00 -3.968727e+00 -5.104908e+00 -9.166469e-02 -1.684153e+00 4.922247e-01 -1.121000e-01 7.569395e-03 -1.389420e+00 1.578059e+00 1.148807e+00 -9.436403e-01 -1.256576e-01 -1.769634e+00 -3.044977e-01 1.281290e+00
<VARIANCE> 25
 2.491114e+01 1.617874e+01 6.718478e+01 1.157459e+02 6.272300e+01 8.281782e+01 5.508980e+01 4.084454e+01 2.088465e+01 3.328662e+01 2.968608e+01 1.878672e+01 3.322997e+00 3.105507e+00 5.401191e+00 6.376559e+00 8.637805e+00 5.205617e+00 4.300566e+00 5.397434e+00 4.425786e+00 2.771943e+00 1.957521e+00 2.715788e+00 1.234593e+00
<GCONST> 1.072592e+02
<STATE> 3
<MEAN> 25
 1.831007e+01 -2.361197e+01 9.363131e-01 1.432209e+00 -8.499970e+00 -8.212539e+00 8.230331e+00 5.912308e+00 -3.019620e+00 -1.715038e+00 -8.256330e+00 -1.850246e+00 -4.986604e-01 4.704357e-01 1.135594e+00 -2.856056e-01 -5.984339e-01 -4.451281e-01 1.003868e+00 1.086763e+00 -1.492835e+00 -7.184271e-01 8.174642e-01 -1.324918e-01 -2.399474e-01
<VARIANCE> 25
 1.498118e+01 2.677164e+01 4.531375e+01 9.841697e+01 5.899948e+01 2.878638e+01 5.820885e+01 4.788036e+01 2.946043e+01 2.208963e+01 2.615422e+01 1.617358e+01 5.729894e-01 2.010738e+00 4.041924e+00 2.591412e+00 3.837078e+00 1.886533e+00 2.680607e+00 2.668980e+00 1.543418e+00 1.444804e+00 1.409164e+00 1.606107e+00 1.191354e+00
<GCONST> 9.647121e+01
<STATE> 4
<MEAN> 25
 1.329371e+01 -2.069095e+01 1.540983e+01 -1.169517e+01 -9.594261e+00 -5.495516e+00 1.107157e+00 1.560670e+01 -9.193828e+00 -6.996194e-01 2.919532e+00 -4.906347e+00 -4.153210e-02 9.161189e-01 6.463680e-01 2.884102e-01 -6.245759e-01 1.869482e-01 4.640445e-01 -3.006656e-01 -1.230763e+00 1.705483e-01 6.022415e-01 -2.254620e-01 -5.594007e-01
<VARIANCE> 25
 8.048285e+00 1.739264e+01 4.738179e+01 3.686733e+01 5.208450e+01 2.648076e+01 4.051005e+01 3.134329e+01 4.275355e+01 3.311690e+01 3.041386e+01 2.628640e+01 3.016418e-01 1.874908e+00 2.138813e+00 1.403887e+00 2.628173e+00 1.380218e+00 2.236569e+00 2.479546e+00 3.013970e+00 2.135637e+00 2.139336e+00 1.331006e+00 7.426796e-01
<GCONST> 9.281135e+01
<TRANSP> 5
 0.000000e+00 1.000000e+00 0.000000e+00 0.000000e+00 0.000000e+00
 0.000000e+00 7.278901e-01 2.721099e-01 0.000000e+00 0.000000e+00
 0.000000e+00 0.000000e+00 7.837898e-01 2.162102e-01 0.000000e+00
 0.000000e+00 0.000000e+00 0.000000e+00 8.727684e-01 1.272316e-01
 0.000000e+00 0.000000e+00 0.000000e+00 0.000000e+00 0.000000e+00
<ENDHMM>
~h "ah"
<BEGINHMM>
<NUMSTATES> 5
<STATE> 2
<MEAN> 25
 2.186242e+01 -6.638894e+00 -5.287283e+00 -7.131700e+00 -2.072070e+00 1.746930e-03 -3.519499e+00 -7.464223e+00 -3.790362e+00 6.843729e+00 -3.165422e+00 -5.438913e+00 -5.279278e-02 1.317383e+00 -1.232073e-01 6.407394e-01 -6.658869e-01 6.560831e-01 -6.002430e-02 -1.072868e+00 1.013919e-01 -2.938184e-01 -3.463599e-01 2.769001e-01 -1.049984e+00
<VARIANCE> 25
 1.666917e+01 5.117350e+01 6.778964e+01 1.847985e+02 7.602689e+01 7.915340e+01 7.944171e+01 9.170811e+01 5.663585e+01 4.063908e+01 7.470946e+01 3.949559e+01 6.098953e-01 2.637414e+00 1.886586e+00 5.129902e+00 4.586368e+00 3.735599e+00 3.905574e+00 5.954589e+00 2.772634e+00 3.218234e+00 2.276034e+00 1.587304e+00 1.201169e+00
<GCONST> 1.078478e+02
<STATE> 3
<MEAN> 25
 2.007892e+01 4.029891e+00 -7.749943e+00 -3.788666e+00 3.526166e+00 1.879445e+00 -7.574255e+00 -8.429073e+00 -9.461971e-02 2.208280e+00 -4.193806e+00 -3.278009e+00 -8.561386e-01 3.800789e+00 -4.185411e-01 1.088819e+00 4.823110e-01 2.562219e-01 3.083200e-01 1.770433e-01 6.449605e-02 -1.539448e+00 8.363900e-01 2.842206e-01 -2.977386e+00
<VARIANCE> 25
 2.201897e+01 6.481096e+01 5.437219e+01 1.165396e+02 6.603613e+01 5.432562e+01 4.701004e+01 6.286603e+01 4.747602e+01 6.674384e+01 4.430470e+01 3.118070e+01 2.148603e+00 3.930183e+00 9.279306e+00 1.024386e+01 8.611056e+00 6.324831e+00 7.531520e+00 7.060947e+00 5.348105e+00 5.368055e+00 4.815711e+00 3.083705e+00 2.126374e+00
<GCONST> 1.149017e+02
<STATE> 4
<MEAN> 25
 1.417698e+01 1.137974e+01 -4.910146e+00 -3.690197e+00 1.036121e+00 4.326806e+00 -4.544867e+00 -8.054658e+00 -1.708812e+00 -2.971610e-01 -9.642090e-01 -2.667788e+00 -1.980692e+00 6.248475e-01 1.666362e+00 3.724124e-01 -1.078447e+00 -1.772996e-01 9.198567e-01 6.078422e-01 -8.013881e-04 -4.067452e-01 4.832249e-01 5.981204e-01 -1.468596e+00
<VARIANCE> 25
 4.797669e+01 6.895180e+01 9.732504e+01 6.595876e+01 6.626501e+01 5.496056e+01 4.356818e+01 2.724293e+01 3.775014e+01 3.169435e+01 2.655593e+01 1.883417e+01 3.238697e+00 3.263802e+00 4.162205e+00 3.019818e+00 3.675193e+00 2.331027e+00 3.237354e+00 2.878103e+00 2.618933e+00 2.417389e+00 2.000939e+00 1.817204e+00 1.982410e+00
<GCONST> 1.044894e+02
<TRANSP> 5
 0.000000e+00 1.000000e+00 0.000000e+00 0.000000e+00 0.000000e+00
 0.000000e+00 7.850173e-01 2.149827e-01 0.000000e+00 0.000000e+00
 0.000000e+00 0.000000e+00 6.146746e-01 3.853254e-01 0.000000e+00
 0.000000e+00 0.000000e+00 0.000000e+00 6.760473e-01 3.239526e-01
 0.000000e+00 0.000000e+00 0.000000e+00 0.000000e+00 0.000000e+00
<ENDHMM>
~h "ao"
<BEGINHMM>
<NUMSTATES> 5
<STATE> 2
<MEAN> 25
 -6.101563e+00 8.906035e+00 5.280828e+00 8.158796e+00 4.458624e+00 2.670215e+00 4.307547e+00 2.461168e+00 1.609936e+00 -6.369801e-01 2.218854e+00 2.909739e+00 6.568079e+00 2.069844e-01 2.042530e+00 -1.336452e+00 -1.144615e+00 -2.317165e+00 -1.580830e+00 -1.171115e+00 9.151340e-01 -2.250738e-01 -1.144090e+00 2.594535e-02 7.481990e+00
<VARIANCE> 25
 3.130969e+01 3.170773e+01 3.721112e+01 4.043531e+01 1.824893e+01 1.845077e+01 3.479694e+01 2.374871e+01 2.141921e+01 1.703218e+01 1.029071e+01 1.019367e+01 4.269194e+00 2.145004e+01 1.247936e+01 6.632660e+00 1.941015e+00 5.078116e+00 5.618594e+00 2.299136e+00 3.015162e+00 2.969472e+00 3.170762e+00 1.618201e+00 1.746811e+01
<GCONST> 1.037201e+02
<STATE> 3
<MEAN> 25
 8.837957e+00 1.551804e+01 1.059671e+01 4.190301e+00 -2.143246e+00 -1.723043e+00 -1.441209e+00 -2.688555e+00 3.561601e+00 -3.472699e+00 -2.241631e+00 2.269322e+00 5.610202e+00 -1.081919e+00 -2.186162e-01 -1.478987e+00 -1.095183e+00 -3.158075e+00 -1.398150e+00 -6.387020e-01 -7.265411e-02 4.602959e-02 -1.394075e+00 -6.268429e-01 5.713248e+00
<VARIANCE> 25
 2.049606e+01 2.180267e+02 1.015207e+02 5.382439e+01 2.424346e+01 4.998507e+01 4.413441e+01 2.280536e+01 2.245523e+01 1.455976e+01 1.411290e+01 1.520111e+01 8.906302e+00 1.873318e+01 6.697312e+00 6.050190e+00 3.348107e+00 4.045388e+00 5.980112e+00 3.770794e+00 5.451124e+00 3.538847e+00 3.700794e+00 3.084348e+00 1.449116e+01
<GCONST> 1.107387e+02
<STATE> 4
<MEAN> 25
 1.318735e+01 2.991556e+00 4.034773e+00 1.745128e+00 -2.727317e-01 -9.720282e+00 -1.625944e+00 -2.959377e+00 2.095664e+00 -9.627746e-01 -4.888224e+00 4.408290e-01 3.125981e+00 -6.557966e+00 -1.421533e+00 -2.515333e+00 6.110983e-01 -3.859782e+00 -1.623798e+00 1.890363e-01 -3.229698e-01 1.094664e+00 -1.230801e+00 -3.188280e-01 6.365101e+00
<VARIANCE> 25
 1.755814e+01 2.153709e+02 8.839272e+01 8.306879e+01 5.077913e+01 4.704438e+01 5.268405e+01 4.064255e+01 4.690309e+01 4.446478e+01 1.800288e+01 2.772721e+01 1.073422e+01 8.384325e+00 1.053315e+01 9.074067e+00 7.300777e+00 7.354447e+00 1.247466e+01 7.973177e+00 9.185831e+00 3.975250e+00 4.007311e+00 5.683694e+00 3.058572e+00
<GCONST> 1.178739e+02
<TRANSP> 5
 0.000000e+00 1.000000e+00 0.000000e+00 0.000000e+00 0.000000e+00
 0.000000e+00 2.738962e-05 9.999726e-01 0.000000e+00 0.000000e+00
 0.000000e+00 0.000000e+00 4.016036e-01 5.983964e-01 0.000000e+00
 0.000000e+00 0.000000e+00 0.000000e+00 3.361912e-01 6.638088e-01
 0.000000e+00 0.000000e+00 0.000000e+00 0.000000e+00 0.000000e+00
<ENDHMM>
~h "aw"
<BEGINHMM>
<NUMSTATES> 5
<STATE> 2
<MEAN> 25
 2.235718e+01 -1.144629e+01 -7.852648e+00 -1.147170e+01 5.464697e+00 7.836896e+00 -4.402748e+00 -8.303307e-01 1.961153e+00 -8.429515e-02 2.364595e-01 -2.793709e+00 1.045768e+00 -1.691738e+00 2.307384e-01 -1.062542e+00 4.049639e-01 6.486264e-01 -1.086939e+00 3.241372e-01 6.469494e-02 -5.013849e-01 -4.802371e-01 -2.987251e-01 1.808846e+00
<VARIANCE> 25
 3.383680e+01 8.433597e+01 8.563766e+01 1.408510e+02 5.141029e+01 4.679490e+01 8.430946e+01 2.630645e+01 2.009892e+01 6.509355e+01 2.148474e+01 3.983731e+01 3.480704e+00 1.411519e+01 7.577558e+00 5.809809e+00 8.704639e+00 4.764006e+00 6.773157e+00 6.187669e+00 3.516293e+00 5.860364e+00 3.552163e+00 5.256271e+00 1.059780e+01
<GCONST> 1.161726e+02
<STATE> 3
<MEAN> 25
 2.526305e+01 -1.469105e+01 -1.732454e+00 -1.112648e+01 -2.259038e+00 8.820754e+00 -5.619355e+00 2.659559e-01 -1.758627e+00 2.320923e+00 5.636351e+00 -7.851422e+00 -3.662434e-01 1.912877e+00 -9.329798e-01 9.589298e-01 3.782552e-01 -6.656517e-01 6.128432e-01 -1.586030e-01 3.462027e-01 4.370246e-01 1.761157e-01 2.112410e-01 -1.537220e+00
<VARIANCE> 25
 1.163335e+01 1.324565e+02 1.034632e+02 8.349734e+01 3.105251e+01 5.480979e+01 5.661528e+01 6.373900e+01 2.447506e+01 2.160644e+01 2.751669e+01 1.500576e+01 1.193512e+00 3.682895e+00 8.230633e+00 4.293853e+00 5.571851e+00 1.210892e+00 1.043539e+01 2.940645e+00 2.918974e+00 2.096876e+00 3.230021e+00 2.388930e+00 4.083372e+00
<GCONST> 1.059161e+02
<STATE> 4
<MEAN> 25
 1.050490e+01 4.142549e+00 -1.201729e+01 -5.384632e+00 1.024909e+00 4.019779e+00 2.846197e-01 -3.180178e+00 -6.132763e-01 3.438581e+00 3.781285e+00 -5.773492e-01 -3.607382e+00 3.015048e-01 1.466525e+00 3.139498e-01 -1.415760e+00 -3.084435e-01 3.936955e-01 5.714369e-01 7.078670e-03 -3.847109e-01 6.405153e-01 1.033685e+00 -2.650930e+00
<VARIANCE> 25
 5.233799e+01 5.168889e+00 4.763860e+01 4.903914e+01 3.942083e+01 1.570881e+01 2.647086e+01 1.008391e+01 2.099084e+01 2.236713e+01 3.315236e+01 2.161872e+01 2.511326e+00 3.884664e+00 2.654567e+00 3.157166e+00 3.322606e+00 2.283784e+00 2.457527e+00 1.032417e+00 1.936467e+00 1.435291e+00 2.855821e+00 2.174356e+00 2.148889e+00
<GCONST> 9.502016e+01
<TRANSP> 5
 0.000000e+00 1.000000e+00 0.000000e+00 0.000000e+00 0.000000e+00
 0.000000e+00 8.685333e-01 1.314667e-01 0.000000e+00 0.000000e+00
 0.000000e+00 0.000000e+00 8.544094e-01 1.455907e-01 0.000000e+00
 0.000000e+00 0.000000e+00 0.000000e+00 7.945501e-01 2.054499e-01
 0.000000e+00 0.000000e+00 0.000000e+00 0.000000e+00 0.000000e+00
<ENDHMM>
~h "ay"
<BEGINHMM>
<NUMSTATES> 5
<STATE> 2
<MEAN> 25
 8.454453e+00 -2.069355e+00 -4.038943e+00 -7.696602e+00 8.388347e+00 -3.405025e+00 -6.024570e+00 -2.950543e+00 4.653506e+00 1.599021e+00 -1.101287e+00 -3.904792e-01 -1.161793e+00 7.425466e-01 -5.307755e-01 9.371675e-01 1.529274e+00 -1.035602e+00 7.770666e-01 1.179013e-01 1.831983e+00 -1.097961e+00 1.955070e-01 1.055034e+00 -2.827010e-01
<VARIANCE> 25
 1.065035e+02 8.733147e+01 8.049229e+01 1.278307e+02 6.708879e+01 7.844854e+01 1.268130e+02 7.581519e+01 4.777945e+01 5.858594e+01 3.369012e+01 5.338157e+01 1.006981e+01 1.326348e+01 5.424818e+00 1.302258e+01 9.285237e+00 1.301926e+01 1.270590e+01 1.000676e+01 4.408628e+00 5.868354e+00 3.639846e+00 4.856396e+00 2.002046e+01
<GCONST> 1.254095e+02
<STATE> 3
<MEAN> 25
 4.910085e-01 -6.015593e+00 5.216378e-01 -5.615773e+00 5.043033e+00 -1.027411e+01 3.297516e+00 -6.978285e-01 5.492903e+00 8.073598e-01 -3.933297e-01 2.511820e+00 1.806170e+00 -2.428301e+00 2.397397e+00 -1.445239e+00 -5.693792e-01 6.269111e-01 -9.041114e-01 1.271416e+00 -4.276623e-01 9.127035e-01 -5.405121e-01 -9.381916e-01 2.671264e+00
<VARIANCE> 25
 6.896147e+01 6.285154e+01 7.263614e+01 6.248276e+01 6.989654e+01 7.665863e+01 6.409530e+01 4.338213e+01 4.577398e+01 3.526639e+01 4.535575e+01 3.397685e+01 1.238410e+01 5.223436e+00 1.336047e+01 1.207737e+01 8.729599e+00 1.270963e+01 1.341992e+01 4.385284e+00 5.909799e+00 7.152487e+00 5.867123e+00 4.465820e+00 1.122712e+01
<GCONST> 1.214508e+02
<STATE> 4
<MEAN> 25
 1.487800e+01 -1.421772e+01 3.893178e+00 -7.813200e+00 6.397994e-01 -6.630093e-02 -7.776683e+00 3.468090e+00 4.226399e+00 2.829087e+00 -1.473033e+00 -2.434331e+00 2.855996e+00 -2.051557e+00 -1.603084e+00 1.679370e+00 -2.273870e+00 1.266330e+00 -2.828664e-01 -3.087194e-02 -2.121976e-01 -4.013314e-01 3.136211e-01 -4.654768e-01 7.005011e-01
<VARIANCE> 25
 4.515429e+01 3.796165e+01 1.760607e+02 6.612925e+01 6.836950e+01 4.427862e+01 2.774659e+01 3.374989e+01 3.752485e+01 4.989511e+01 2.143631e+01 2.135419e+01 7.046842e+00 3.901957e+00 1.337211e+01 6.588835e+00 6.834406e+00 1.108803e+01 6.508883e+00 3.757355e+00 5.645652e+00 5.545828e+00 5.932884e+00 2.933034e+00 3.487831e+00
<GCONST> 1.141419e+02
<TRANSP> 5
 0.000000e+00 1.000000e+00 0.000000e+00 0.000000e+00 0.000000e+00
 0.000000e+00 6.249108e-01 3.750891e-01 0.000000e+00 0.000000e+00
 0.000000e+00 0.000000e+00 7.321090e-01 2.678910e-01 0.000000e+00
 0.000000e+00 0.000000e+00 0.000000e+00 6.997223e-01 3.002777e-01
 0.000000e+00 0.000000e+00 0.000000e+00 0.000000e+00 0.000000e+00
<ENDHMM>
~h "eh"
<BEGINHMM>
<NUMSTATES> 5
<STATE> 2
<MEAN> 25
 2.150228e+01 -1.811978e+01 -4.553863e-01 3.268466e+00 -1.133339e+01 -4.967482e+00 2.924546e+00 -1.556764e+00 8.861381e-01 4.835826e+00 -5.906510e+00 -4.394730e+00 8.393623e-02 7.053005e-01 -4.378163e-01 7.635937e-01 1.895852e-02 -3.422912e-01 2.314687e-01 -3.448978e-01 -2.388397e-01 2.186085e-01 -2.554642e-01 2.715099e-01 -7.494717e-01
<VARIANCE> 25
 1.780327e+01 2.264512e+01 4.069747e+01 6.082245e+01 2.872635e+01 4.102602e+01 3.842923e+01 8.435153e+01 4.500864e+01 5.149626e+01 4.105320e+01 3.026544e+01 1.948621e+00 2.577428e+00 5.348451e+00 6.103088e+00 3.790874e+00 3.921640e+00 3.744952e+00 7.740357e+00 4.360270e+00 4.319205e+00 3.408063e+00 2.584900e+00 2.998677e+00
<GCONST> 1.071645e+02
<STATE> 3
<MEAN> 25
 1.939147e+01 -5.064291e+00 -6.914293e+00 6.964643e+00 -2.837015e+00 -8.877353e+00 5.324225e-01 1.000367e+00 1.558287e+00 -1.259118e-01 -5.592097e+00 -1.507050e+00 -1.395070e+00 3.848799e+00 -1.311655e+00 -3.485039e-01 2.369077e+00 5.246344e-01 -1.171018e+00 1.634691e+00 1.211937e+00 -2.099450e+00 5.612425e-01 7.608067e-01 -3.308428e+00
<VARIANCE> 25
 2.712020e+01 4.228602e+01 5.735830e+01 6.076116e+01 5.667960e+01 3.239128e+01 4.803033e+01 6.589320e+01 5.569443e+01 5.304519e+01 4.791356e+01 3.499636e+01 2.178806e+00 4.470788e+00 4.632219e+00 8.032213e+00 6.278045e+00 5.742284e+00 4.799570e+00 6.981431e+00 3.860121e+00 4.964079e+00 4.898035e+00 2.345070e+00 2.708411e+00
<GCONST> 1.115187e+02
<STATE> 4
<MEAN> 25
 6.013705e+00 6.494533e+00 -6.072995e+00 6.708503e-01 -1.452485e+00 -3.344394e+00 -1.308041e+00 4.078338e+00 5.185241e+00 -3.115950e+00 -4.120263e+00 -6.081468e-01 -2.515459e+00 8.524762e-01 7.656839e-01 -7.315081e-01 -3.470805e-01 1.152279e+00 1.291497e-01 -7.749744e-01 -1.317755e-01 5.053049e-01 6.961643e-01 1.339987e-01 -1.996693e+00
<VARIANCE> 25
 1.110315e+02 6.119630e+01 7.481370e+01 3.038518e+01 3.721714e+01 3.017084e+01 4.064097e+01 3.832218e+01 2.778506e+01 3.659823e+01 2.049098e+01 1.738902e+01 2.851944e+00 6.072984e+00 5.428257e+00 4.492908e+00 3.507013e+00 2.262154e+00 2.818877e+00 3.045912e+00 2.634069e+00 3.005669e+00 2.246752e+00 2.078249e+00 3.610835e+00
<GCONST> 1.048357e+02
<TRANSP> 5
 0.000000e+00 1.000000e+00 0.000000e+00 0.000000e+00 0.000000e+00
 0.000000e+00 8.859938e-01 1.140062e-01 0.000000e+00 0.000000e+00
 0.000000e+00 0.000000e+00 7.170752e-01 2.829247e-01 0.000000e+00
 0.000000e+00 0.000000e+00 0.000000e+00 7.447089e-01 2.552911e-01
 0.000000e+00 0.000000e+00 0.000000e+00 0.000000e+00 0.000000e+00
<ENDHMM>
~h "er"
<BEGINHMM>
<NUMSTATES> 5
<STATE> 2
<MEAN> 25
 1.158865e+01 -2.105068e+00 4.099561e+00 -9.206448e+00 8.666018e+00 -6.066880e+00 -5.742760e+00 1.868477e+00 1.480163e+00 2.076965e+00 -3.396951e+00 -3.828154e-01 -4.730974e+00 3.212971e+00 2.247450e-01 9.619523e-01 1.605835e+00 -1.404240e+00 2.517177e+00 7.311497e-01 1.043943e+00 -2.500881e+00 6.664511e-01 1.341651e+00 -8.860632e-01
<VARIANCE> 25
 1.022095e+02 7.289507e+01 8.241873e+01 6.818882e+01 6.924603e+01 8.174853e+01 8.545897e+01 7.771333e+01 6.386288e+01 7.361992e+01 4.836269e+01 5.051481e+01 8.545840e+00 6.493851e+00 1.176392e+01 9.031983e+00 1.110998e+01 5.520466e+00 9.614738e+00 1.103007e+01 7.481741e+00 6.308420e+00 5.936235e+00 6.474171e+00 1.773450e+00
<GCONST> 1.227346e+02
<STATE> 3
<MEAN> 25
 -9.480459e+00 3.977944e+00 4.657777e+00 -6.873499e+00 4.682954e+00 -1.017056e+01 7.721798e+00 1.145923e+00 -2.227637e-02 -3.740604e+00 1.503147e+00 4.253003e+00 1.538680e+00 -1.236750e+00 4.968018e-01 4.824579e-01 -1.631587e+00 -3.224179e-01 1.448134e-01 -1.596125e-01 -5.705549e-01 1.609674e-01 2.560118e-01 -3.501894e-01 3.526606e-01
<VARIANCE> 25
 8.757445e+01 4.639258e+01 5.899805e+01 4.000879e+01 6.898647e+01 5.421651e+01 5.442682e+01 7.148006e+01 3.911604e+01 3.970397e+01 3.595585e+01 2.787885e+01 2.092707e+01 5.611944e+00 5.654920e+00 4.155325e+00 4.918461e+00 4.719870e+00 7.943246e+00 5.694060e+00 3.965979e+00 3.951111e+00 4.068932e+00 3.169758e+00 3.178503e+00
<GCONST> 1.141191e+02
<STATE> 4
<MEAN> 25
 1.674766e+01 -1.424174e+01 8.987923e+00 1.035619e+00 -8.099693e+00 -8.887291e+00 -4.431808e+00 2.623219e+00 -3.840195e-01 9.776590e-01 -2.401880e+00 1.117672e-01 2.678612e-01 8.300617e-02 -9.928644e-01 1.092784e+00 2.948410e-01 2.479155e-01 -8.220238e-01 -1.650876e-01 6.973637e-01 2.022902e-01 -6.367719e-01 2.449971e-01 -1.042479e+00
<VARIANCE> 25
 3.245939e+01 2.175341e+01 8.038134e+01 7.538000e+01 4.366789e+01 7.313344e+01 4.814946e+01 5.751633e+01 6.320511e+01 4.984847e+01 6.407787e+01 3.314271e+01 5.362506e+00 6.308726e+00 8.867860e+00 6.670650e+00 5.756564e+00 7.691896e+00 6.006606e+00 7.124121e+00 6.338507e+00 5.867507e+00 5.569129e+00 3.599022e+00 4.231455e+00
<GCONST> 1.161325e+02
<TRANSP> 5
 0.000000e+00 1.000000e+00 0.000000e+00 0.000000e+00 0.000000e+00
 0.000000e+00 7.984045e-01 2.015954e-01 0.000000e+00 0.000000e+00
 0.000000e+00 0.000000e+00 9.022951e-01 9.770497e-02 0.000000e+00
 0.000000e+00 0.000000e+00 0.000000e+00 9.203396e-01 7.966033e-02
 0.000000e+00 0.000000e+00 0.000000e+00 0.000000e+00 0.000000e+00
<ENDHMM>
~h "ey"
<BEGINHMM>
<NUMSTATES> 5
<STATE> 2
<MEAN> 25
 1.555269e+00 1.011820e+01 6.448469e+00 3.686376e+00 -2.076260e+00 2.987978e+00 2.109269e+00 1.853850e-01 3.100479e+00 -2.091248e+00 3.516180e+00 6.372354e-01 4.384456e+00 1.177786e-01 5.378821e+00 -2.314779e+00 -4.711449e+00 -1.626506e+00 1.724645e-01 9.564191e-01 -2.714512e+00 -1.014286e-01 1.302276e+00 -5.161575e-01 5.067811e+00
<VARIANCE> 25
 6.500171e+01 2.988591e+01 3.707965e+01 3.500449e+01 5.016525e+01 9.240530e+00 2.275926e+01 2.120598e+01 1.749952e+01 1.367797e+01 1.091160e+01 1.520788e+01 8.621519e+00 5.635113e+00 1.139288e+01 5.935096e+00 7.254477e+00 5.681077e+00 7.933668e+00 5.286083e+00 6.686442e+00 5.200881e+00 1.876689e+00 2.890942e+00 1.769338e+01
<GCONST> 1.072604e+02
<STATE> 3
<MEAN> 25
 9.440008e+00 2.127201e+00 2.489776e+01 -6.701771e+00 -1.587781e+01 -2.745079e+00 1.456374e+00 3.072989e+00 -1.523199e+01 -1.439806e+00 5.244520e+00 -4.749413e-01 1.556769e+00 -3.339939e+00 2.747085e+00 -1.853776e+00 -7.769220e-01 -1.117939e+00 -1.064862e+00 2.721218e-01 -2.800697e+00 6.445547e-01 -3.661721e-01 2.657727e-01 3.879740e+00
<VARIANCE> 25
 1.952645e+01 5.594916e+01 1.131994e+02 9.235932e+01 3.655010e+01 7.297466e+01 7.236312e+01 4.395437e+01 9.411994e+01 7.317844e+01 1.745683e+01 2.879243e+01 6.020436e+00 2.041884e+00 1.233274e+01 7.860196e+00 1.023020e+01 5.431846e+00 5.311828e+00 3.787552e+00 1.000354e+01 3.743626e+00 3.005703e+00 2.834227e+00 7.889476e+00
<GCONST> 1.151421e+02
<STATE> 4
<MEAN> 25
 1.537881e+01 -1.558690e+01 2.200327e+01 -8.344987e+00 -1.137747e+01 -7.186632e+00 -5.979577e+00 8.814270e+00 -9.263276e+00 1.513520e+00 2.938203e+00 2.168400e+00 4.738581e-01 -8.061165e-01 -9.835442e-01 1.010871e-01 -1.323156e-03 -2.485097e-01 9.293510e-02 4.757785e-01 9.020352e-01 3.523787e-01 -2.119711e-01 1.835160e-01 5.557824e-01
<VARIANCE> 25
 1.745338e+01 2.716394e+01 5.922007e+01 5.831662e+01 2.753760e+01 2.850584e+01 2.930172e+01 4.476736e+01 5.337532e+01 3.775339e+01 2.489609e+01 1.374570e+01 1.094321e+00 1.455823e+00 2.449200e+00 3.767784e+00 3.063073e+00 3.198315e+00 2.132050e+00 3.738702e+00 3.689420e+00 2.653067e+00 2.734046e+00 1.418991e+00 1.726531e+00
<GCONST> 9.877298e+01
<TRANSP> 5
 0.000000e+00 1.000000e+00 0.000000e+00 0.000000e+00 0.000000e+00
 0.000000e+00 3.290179e-01 6.709821e-01 0.000000e+00 0.000000e+00
 0.000000e+00 0.000000e+00 7.642035e-01 2.357965e-01 0.000000e+00
 0.000000e+00 0.000000e+00 0.000000e+00 8.894433e-01 1.105566e-01
 0.000000e+00 0.000000e+00 0.000000e+00 0.000000e+00 0.000000e+00
<ENDHMM>
~h "ih"
<BEGINHMM>
<NUMSTATES> 5
<STATE> 2
<MEAN> 25
 -9.936608e+00 5.612079e+00 -4.768811e+00 4.092606e+00 2.061573e+00 3.308474e+00 2.714121e+00 -2.726827e+00 5.829326e-02 -1.285266e+00 6.326382e-01 1.358393e+00 3.616556e-01 1.318021e-01 4.906695e-03 -1.873569e-01 -2.980503e-01 -4.693687e-02 -1.219468e-01 -1.424694e-01 -2.421731e-01 -2.869964e-03 -2.293105e-01 -1.688347e-01 2.171187e-01
<VARIANCE> 25
 3.643766e+01 1.328517e+01 2.011503e+01 1.851983e+01 1.769970e+01 1.177764e+01 1.281477e+01 1.691282e+01 1.457336e+01 1.228459e+01 1.738016e+01 1.220363e+01 1.759852e+00 9.291285e-01 7.373821e-01 1.637647e+00 1.767089e+00 1.323099e+00 1.334689e+00 1.785323e+00 1.932106e+00 1.269384e+00 1.909899e+00 1.450135e+00 1.927383e+00
<GCONST> 8.428246e+01
<STATE> 3
<MEAN> 25
 -7.907338e+00 3.727554e+00 -1.929237e+00 2.110039e+00 1.015374e+00 3.275464e-01 2.283183e+00 2.127931e-01 -3.704190e-01 -1.481836e+00 -2.028455e+00 3.972345e-02 1.507225e-01 -2.304008e-01 1.522156e-01 2.449403e-01 2.281113e-01 -9.843912e-02 6.018813e-02 1.587678e-01 4.453424e-02 3.460555e-02 -1.492972e-01 -4.610052e-02 2.856153e-01
<VARIANCE> 25
 3.032710e+01 1.871589e+01 1.186822e+01 2.409246e+01 2.030177e+01 2.227477e+01 1.569424e+01 1.726914e+01 1.292628e+01 1.381202e+01 1.819919e+01 1.211654e+01 6.440663e-01 8.355435e-01 7.798136e-01 1.383822e+00 1.720560e+00 1.512129e+00 1.440593e+00 1.482887e+00 1.345599e+00 1.615921e+00 1.377618e+00 1.032829e+00 3.822996e-01
<GCONST> 8.158083e+01
<STATE> 4
<MEAN> 25
 -6.201334e+00 2.194122e+00 -1.274273e+00 4.448166e+00 2.156111e+00 -3.933749e-01 9.653931e-01 3.351575e-01 2.040529e+00 -1.443457e+00 -1.331209e+00 7.955347e-01 7.333999e-01 -7.319803e-01 7.012669e-01 1.482364e-01 3.843524e-01 -6.780381e-01 -2.776872e-01 1.083731e-01 2.106715e-01 1.259957e-01 -1.842257e-01 -7.603516e-02 1.468530e+00
<VARIANCE> 25
 4.546757e+01 6.539157e+01 2.757237e+01 1.737800e+01 2.057130e+01 3.935250e+01 2.108653e+01 1.978476e+01 2.426004e+01 1.927005e+01 1.892135e+01 1.549314e+01 5.266304e+00 5.773310e+00 2.992204e+00 2.450427e+00 3.273711e+00 3.950620e+00 2.687884e+00 1.554921e+00 2.993625e+00 1.830147e+00 1.367778e+00 1.891059e+00 4.850537e+00
<GCONST> 9.830150e+01
<TRANSP> 5
 0.000000e+00 1.000000e+00 0.000000e+00 0.000000e+00 0.000000e+00
 0.000000e+00 5.659502e-01 4.340499e-01 0.000000e+00 0.000000e+00
 0.000000e+00 0.000000e+00 7.204230e-01 2.795770e-01 0.000000e+00
 0.000000e+00 0.000000e+00 0.000000e+00 6.943792e-01 3.056208e-01
 0.000000e+00 0.000000e+00 0.000000e+00 0.000000e+00 0.000000e+00
<ENDHMM>
~h "iy"
<BEGINHMM>
<NUMSTATES> 5
<STATE> 2
<MEAN> 25
 2.694241e+00 1.606646e+01 5.339608e+00 6.746338e+00 -2.780961e+00 -1.143448e+00 -1.056934e+00 -5.516875e+00 -2.421654e+00 -4.083688e+00 -1.863151e+00 -1.175143e+00 -1.801874e+00 -1.230342e+00 -6.692789e-01 3.987384e-01 1.067581e+00 6.201204e-01 1.281423e-02 1.374822e-01 1.005062e-01 2.114593e-02 9.151485e-02 6.211692e-02 -1.025110e+00
<VARIANCE> 25
 5.201113e+01 3.379961e+01 2.247198e+01 1.305330e+01 2.084822e+01 2.077821e+01 1.618491e+01 2.543483e+01 1.382587e+01 1.839863e+01 1.942566e+01 1.820045e+01 1.335160e+00 1.703230e+00 1.999745e+00 1.114565e+00 1.264586e+00 1.218584e+00 1.656019e+00 2.283453e+00 1.571800e+00 1.803962e+00 1.638105e+00 1.409045e+00 3.214557e-01
<GCONST> 8.672777e+01
<STATE> 3
<MEAN> 25
 -8.175692e+00 6.871588e+00 -2.800768e-01 7.422982e+00 1.572989e+00 1.575894e+00 1.467912e+00 -3.034417e+00 -2.408036e+00 -4.361993e+00 -1.215587e+00 -3.735999e-01 -4.353735e-01 -3.486368e-01 -3.301581e-01 -1.615232e-01 9.903599e-02 1.385413e-01 2.022591e-01 3.591073e-01 2.805975e-01 1.197502e-01 4.920931e-02 4.603098e-02 -2.199553e-01
<VARIANCE> 25
 7.205791e+00 6.532936e+00 1.288749e+01 1.758916e+01 1.105750e+01 1.531904e+01 1.265384e+01 1.445517e+01 1.360812e+01 1.280185e+01 1.621247e+01 1.638646e+01 3.167099e-01 6.660245e-01 7.975699e-01 8.202405e-01 1.125013e+00 1.197048e+00 1.027817e+00 1.011167e+00 1.544256e+00 1.527972e+00 1.346517e+00 1.608353e+00 7.861722e-02
<GCONST> 7.374963e+01
<STATE> 4
<MEAN> 25
 -9.961837e+00 5.045629e+00 -6.130791e+00 4.877472e+00 2.693284e+00 3.357534e+00 2.422541e+00 -2.255022e+00 1.059899e+00 -2.067980e+00 -4.325034e-01 -6.545108e-01 -3.010111e-02 -3.019837e-02 -1.871603e-02 -5.018434e-03 1.291493e-02 4.902757e-02 6.381248e-02 3.741602e-02 4.867147e-02 3.558886e-03 -2.132881e-02 -4.233943e-02 -1.342585e-02
<VARIANCE> 25
 6.110641e+00 4.592404e+00 4.899602e+00 8.639794e+00 1.087442e+01 1.253769e+01 1.168054e+01 1.305750e+01 1.146439e+01 1.137030e+01 1.256108e+01 1.172612e+01 1.120598e-01 2.526481e-01 4.186893e-01 6.202555e-01 7.147125e-01 9.016194e-01 1.060181e+00 1.281356e+00 1.175406e+00 1.147531e+00 1.262827e+00 1.089250e+00 3.817413e-02
<GCONST> 6.513867e+01
<TRANSP> 5
 0.000000e+00 1.000000e+00 0.000000e+00 0.000000e+00 0.000000e+00
 0.000000e+00 8.052667e-01 1.947332e-01 0.000000e+00 0.000000e+00
 0.000000e+00 0.000000e+00 8.463109e-01 1.536892e-01 0.000000e+00
 0.000000e+00 0.000000e+00 0.000000e+00 9.504132e-01 4.958669e-02
 0.000000e+00 0.000000e+00 0.000000e+00 0.000000e+00 0.000000e+00
<ENDHMM>
~h "ng"
<BEGINHMM>
<NUMSTATES> 5
<STATE> 2
<MEAN> 25
 1.917354e+01 -9.462714e-01 2.467960e+00 1.948912e+00 -1.063066e+01 -1.003443e+00 9.428391e+00 -7.409904e+00 -1.406675e+01 2.873749e+00 1.437125e+00 -2.989008e+00 5.976834e-01 3.099329e+00 -1.640997e+00 6.439077e-01 3.075629e-01 8.821282e-01 -4.570591e-01 -2.878676e+00 5.201373e-01 3.806492e-01 9.207737e-02 6.114975e-01 -1.693929e+00
<VARIANCE> 25
 1.092556e+01 8.980832e+01 8.818915e+01 1.025890e+02 6.355882e+01 3.854018e+01 6.522032e+01 1.472876e+02 4.761805e+01 3.508067e+01 2.352923e+01 3.083148e+01 9.669575e-01 3.381642e+00 5.674475e+00 9.187241e+00 4.681639e+00 3.085632e+00 7.779029e+00 8.792001e+00 6.080502e+00 3.709154e+00 2.552191e+00 2.401907e+00 1.128969e+00
<GCONST> 1.100120e+02
<STATE> 3
<MEAN> 25
 1.697663e+01 5.039309e-01 1.154714e-01 -3.559085e+00 3.575309e-01 -4.897598e+00 -5.837029e+00 -2.404632e+00 -4.108729e+00 1.745254e+00 -2.377245e+00 -2.722212e+00 -7.329655e-01 -3.665406e+00 9.266906e-01 -3.388345e+00 3.013888e+00 -7.501957e-01 -4.008337e+00 3.772310e+00 2.452515e+00 7.688935e-01 -1.287880e+00 -9.175996e-01 2.537670e+00
<VARIANCE> 25
 1.564653e+01 1.360507e+02 6.077612e+01 1.268632e+02 1.333340e+02 7.032082e+01 1.335752e+02 1.477088e+02 7.713730e+01 3.953342e+01 5.376281e+01 3.195703e+01 1.885156e+00 8.165008e+00 7.371828e+00 1.261424e+01 9.678435e+00 1.092285e+01 7.365735e+00 1.354478e+01 4.696674e+00 7.301993e+00 4.848800e+00 3.578490e+00 3.154865e+00
<GCONST> 1.211356e+02
<STATE> 4
<MEAN> 25
 1.679847e+01 -1.133615e+01 4.364089e+00 -2.341918e+01 5.502880e+00 3.351884e+00 -1.499818e+01 3.115397e+00 1.731141e+00 1.169615e+01 -3.594537e+00 -4.084312e+00 2.513167e-01 3.032202e-01 -3.491189e-01 -2.025494e-01 -3.087629e-01 9.148273e-01 -3.255689e-01 -1.157651e+00 2.317495e-01 2.786182e-01 1.550936e-01 3.543206e-01 -1.885118e-01
<VARIANCE> 25
 4.602630e+00 2.033403e+01 2.220920e+01 3.390176e+01 4.725450e+01 2.831262e+01 3.774825e+01 5.241777e+01 2.773924e+01 2.773707e+01 4.225161e+01 2.528320e+01 2.909453e-01 1.230958e+00 1.151283e+00 3.140509e+00 3.001144e+00 2.853103e+00 1.897332e+00 3.166191e+00 1.545797e+00 1.900951e+00 2.352464e+00 1.626273e+00 6.040131e-01
<GCONST> 9.163256e+01
<TRANSP> 5
 0.000000e+00 1.000000e+00 0.000000e+00 0.000000e+00 0.000000e+00
 0.000000e+00 8.703737e-01 1.296263e-01 0.000000e+00 0.000000e+00
 0.000000e+00 0.000000e+00 8.007566e-01 1.992434e-01 0.000000e+00
 0.000000e+00 0.000000e+00 0.000000e+00 8.586513e-01 1.413486e-01
 0.000000e+00 0.000000e+00 0.000000e+00 0.000000e+00 0.000000e+00
<ENDHMM>
~h "sp"
<BEGINHMM>
<NUMSTATES> 3
<STATE> 2
~s "silst"
<TRANSP> 3
 0.000000e+00 1.396243e-02 9.860376e-01
 0.000000e+00 5.617461e-01 4.382539e-01
 0.000000e+00 0.000000e+00 0.000000e+00
<ENDHMM>
~h "th"
<BEGINHMM>
<NUMSTATES> 5
<STATE> 2
<MEAN> 25
 1.504388e+01 -1.054637e+01 2.011436e+01 -5.530652e-01 -1.687254e+01 -4.644190e+00 -2.217522e+00 -1.145280e+00 -9.007111e+00 -3.801672e+00 1.677682e+00 1.740864e+00 3.625542e-02 1.127131e+00 8.949996e-01 3.610489e-01 -1.751238e+00 3.039728e-01 9.878464e-01 -8.064843e-01 -1.354076e+00 -8.807348e-02 3.270386e-01 -6.612907e-02 -8.463670e-01
<VARIANCE> 25
 1.988764e+01 4.121054e+01 7.150791e+01 7.694266e+01 9.484483e+01 5.606357e+01 1.027117e+02 4.797655e+01 1.126916e+02 4.400191e+01 5.030562e+01 3.568114e+01 2.275491e+00 4.802045e+00 4.410472e+00 5.587927e+00 5.339839e+00 7.248234e+00 6.964445e+00 4.619210e+00 6.801978e+00 4.224040e+00 5.461208e+00 4.913769e+00 2.470348e+00
<GCONST> 1.146265e+02
<STATE> 3
<MEAN> 25
 1.289404e+01 1.276610e+01 1.816088e+01 1.926744e+00 -2.466329e+01 -7.438451e+00 7.306431e+00 -7.840547e+00 -1.160831e+01 1.832608e+00 1.528559e-01 -1.896667e+00 -1.301200e+00 3.376346e+00 -2.183105e+00 1.338251e-01 3.276106e+00 -6.184287e-01 -2.404053e+00 7.913651e-01 2.902827e+00 6.066492e-01 -2.083339e-01 -1.655210e-01 -2.874652e+00
<VARIANCE> 25
 1.095241e+01 4.440582e+01 3.709450e+01 1.163297e+02 4.783629e+01 5.681838e+01 1.114342e+02 7.033247e+01 5.112920e+01 5.065628e+01 3.117669e+01 1.844037e+01 1.152291e+00 2.759764e+00 5.792921e+00 6.135069e+00 5.688029e+00 3.566881e+00 9.235782e+00 3.476205e+00 3.373348e+00 6.357213e+00 3.602079e+00 1.905278e+00 4.393889e-01
<GCONST> 1.069676e+02
<STATE> 4
<MEAN> 25
 3.860242e+00 1.327526e+01 8.922295e+00 6.018574e-01 -1.353505e+01 -3.306364e+00 2.380664e-01 -6.860607e+00 -4.546825e+00 3.422062e-01 -1.136144e+00 -1.739031e+00 -2.265428e+00 -1.526717e+00 -2.105978e+00 -6.341980e-02 1.694837e+00 1.100969e+00 2.594741e-01 2.150537e-01 1.895728e-01 -6.760945e-01 -1.247307e-01 1.558724e-01 -1.497528e+00
<VARIANCE> 25
 3.116520e+01 4.616278e+01 4.928570e+01 1.323162e+01 1.631410e+01 2.655995e+01 2.415530e+01 1.622756e+01 1.475116e+01 1.414542e+01 2.107524e+01 1.028831e+01 1.885235e+00 1.670708e+00 2.573994e+00 2.737763e+00 5.431146e+00 2.460001e+00 5.012900e+00 1.335059e+00 3.128558e+00 1.918420e+00 2.490420e+00 6.124860e-01 1.047843e+00
<GCONST> 9.231535e+01
<TRANSP> 5
 0.000000e+00 1.000000e+00 0.000000e+00 0.000000e+00 0.000000e+00
 0.000000e+00 9.274829e-01 7.251709e-02 0.000000e+00 0.000000e+00
 0.000000e+00 0.000000e+00 7.686248e-01 2.313751e-01 0.000000e+00
 0.000000e+00 0.000000e+00 0.000000e+00 7.266629e-01 2.733371e-01
 0.000000e+00 0.000000e+00 0.000000e+00 0.000000e+00 0.000000e+00
<ENDHMM>
~h "uw"
<BEGINHMM>
<NUMSTATES> 5
<STATE> 2
<MEAN> 25
 3.057235e-02 8.265647e+00 -2.380495e+00 7.353418e-01 -1.164829e+00 1.623017e+00 9.802520e-02 -4.104435e+00 -5.029100e+00 -3.881593e+00 1.619213e+00 1.800791e+00 -2.099816e+00 -9.892175e-01 3.330454e-01 8.150438e-01 7.310910e-02 -2.747059e-01 4.892524e-01 7.801263e-01 1.934492e-01 -4.470562e-01 -5.230522e-01 -2.289071e-01 -1.200300e+00
<VARIANCE> 25
 4.511226e+01 2.358191e+01 2.444202e+01 2.773490e+01 2.097417e+01 2.543035e+01 1.997277e+01 2.592087e+01 2.020644e+01 2.125391e+01 2.197917e+01 2.724722e+01 2.172138e+00 1.488267e+00 2.283150e+00 1.971882e+00 2.282099e+00 2.488698e+00 1.558647e+00 1.973327e+00 1.937646e+00 1.513251e+00 1.615630e+00 1.596568e+00 8.590668e-01
<GCONST> 9.183148e+01
<STATE> 3
<MEAN> 25
 -5.584563e+00 3.238844e+00 8.128648e-01 5.428357e+00 -1.111192e+00 -2.623877e-01 4.579726e-01 -1.175430e+00 -2.354876e+00 -3.212134e+00 -1.601536e+00 -1.454069e+00 -9.347786e-02 -1.327716e-02 1.012953e-01 1.167632e-01 5.248267e-02 3.754045e-02 6.033627e-02 6.571811e-02 6.815770e-02 2.127332e-02 -8.274591e-03 5.681910e-03 -4.955593e-02
<VARIANCE> 25
 3.572373e+00 6.342584e+00 1.175843e+01 1.215086e+01 1.072203e+01 1.098531e+01 1.124246e+01 1.168746e+01 1.289521e+01 1.425207e+01 1.289025e+01 1.190348e+01 1.464342e-01 2.681487e-01 4.832279e-01 5.656925e-01 8.336050e-01 9.645637e-01 1.276646e+00 1.193162e+00 1.076703e+00 1.157806e+00 1.088364e+00 9.366715e-01 3.884112e-02
<GCONST> 6.658336e+01
<STATE> 4
<MEAN> 25
 -7.572805e+00 6.018392e+00 -1.419492e+00 3.392359e+00 -3.035500e-01 1.254711e+00 2.247183e+00 1.239062e+00 -1.365790e-01 -3.692200e+00 -1.730215e-01 1.453145e+00 -2.905777e-01 -8.815102e-02 1.329267e-01 2.143864e-01 2.181996e-01 -4.372007e-01 -4.042535e-03 4.692435e-01 7.887429e-01 8.326299e-01 -5.349851e-02 -2.551648e-03 -1.419562e-02
<VARIANCE> 25
 1.322639e+01 1.668525e+01 3.484206e+01 5.142572e+01 1.852560e+01 4.198632e+01 1.786291e+01 2.520431e+01 1.216846e+01 1.949600e+01 1.458162e+01 1.762340e+01 1.222273e+00 1.277116e+00 1.795186e+00 1.895678e+00 1.763771e+00 2.438895e+00 1.884742e+00 2.110440e+00 1.949504e+00 1.877671e+00 1.698415e+00 1.945171e+00 8.149264e-01
<GCONST> 8.941660e+01
<TRANSP> 5
 0.000000e+00 1.000000e+00 0.000000e+00 0.000000e+00 0.000000e+00
 0.000000e+00 7.782513e-01 2.217487e-01 0.000000e+00 0.000000e+00
 0.000000e+00 0.000000e+00 9.257706e-01 7.422934e-02 0.000000e+00
 0.000000e+00 0.000000e+00 0.000000e+00 5.148198e-01 4.851802e-01
 0.000000e+00 0.000000e+00 0.000000e+00 0.000000e+00 0.000000e+00
<ENDHMM>
~h "sil"
<BEGINHMM>
<NUMSTATES> 5
<STATE> 2
<MEAN> 25
 -9.940678e+00 5.223300e+00 -2.158777e+00 4.411384e+00 8.930507e-01 2.295916e+00 1.811920e+00 -6.432230e-01 4.375150e-01 -2.484434e+00 -4.176139e-01 3.879627e-02 -2.398969e-02 -4.886875e-03 1.533711e-02 3.056712e-02 3.346007e-02 1.785000e-02 2.446414e-02 8.470953e-03 -2.129029e-02 -2.466742e-02 -4.212317e-03 1.426430e-02 -1.376374e-02
<VARIANCE> 25
 7.610273e+00 5.885044e+00 9.396404e+00 1.438834e+01 1.057350e+01 1.283022e+01 1.394766e+01 1.640281e+01 1.357765e+01 1.323064e+01 1.404420e+01 1.274063e+01 1.140625e-01 2.405645e-01 4.151585e-01 6.249878e-01 7.922010e-01 9.351135e-01 1.065849e+00 1.164573e+00 1.157562e+00 1.235989e+00 1.238982e+00 1.179362e+00 4.121180e-02
<GCONST> 6.789608e+01
<STATE> 3
~s "silst"
<STATE> 4
<MEAN> 25
 -8.051667e+00 4.211824e+00 -9.630603e-01 4.508321e+00 2.448117e+00 2.702118e+00 1.962139e+00 -5.221232e-01 6.954861e-02 -1.830869e+00 -9.075432e-02 6.762206e-01 4.194294e-01 4.180408e-02 2.019788e-02 -7.553586e-02 -7.157029e-02 -2.363234e-01 -2.868007e-01 -1.364324e-01 -9.929392e-02 -5.061463e-02 -1.828365e-01 -1.980909e-01 3.255306e-01
<VARIANCE> 25
 3.808554e+01 2.871333e+01 2.827892e+01 2.540897e+01 2.595537e+01 2.748087e+01 2.325589e+01 2.424526e+01 1.885523e+01 2.211468e+01 1.695537e+01 1.462180e+01 3.129837e+00 2.359971e+00 1.845748e+00 1.949683e+00 2.173182e+00 2.617191e+00 2.013149e+00 1.721216e+00 1.704054e+00 1.624763e+00 1.522230e+00 1.268306e+00 4.722648e+00
<GCONST> 9.346192e+01
<TRANSP> 5
 0.000000e+00 1.000000e+00 0.000000e+00 0.000000e+00 0.000000e+00
 0.000000e+00 9.381927e-01 1.189498e-02 4.991230e-02 0.000000e+00
 0.000000e+00 0.000000e+00 9.643399e-01 3.566014e-02 0.000000e+00
 0.000000e+00 9.493420e-02 0.000000e+00 7.133837e-01 1.916821e-01
 0.000000e+00 0.000000e+00 0.000000e+00 0.000000e+00 0.000000e+00
<ENDHMM>
