~o
<STREAMINFO> 1 25
<VECSIZE> 25<NULLD><MFCC_D_N_Z_0><DIAGC>
~h "b"
<BEGINHMM>
<NUMSTATES> 5
<STATE> 2
<MEAN> 25
 2.056136e+01 1.796324e+00 -2.886563e+00 -6.353111e+00 -1.219432e+00 5.190013e+00 -6.596954e+00 -1.678847e+01 -5.772463e+00 6.198054e+00 -1.960149e+00 -2.480770e+00 -2.641988e-02 7.822454e-01 -5.704325e-01 1.353221e-01 1.610055e-01 4.424639e-03 5.126488e-01 -2.231182e-01 -2.221841e-01 3.807345e-02 1.897449e-01 2.460160e-01 -5.316327e-01
<VARIANCE> 25
 1.135696e+01 9.723394e+01 6.172543e+01 1.392755e+02 7.966070e+01 5.868933e+01 6.557371e+01 6.364483e+01 4.400989e+01 3.789437e+01 4.217445e+01 2.775731e+01 8.551747e-01 7.640348e+00 5.701595e+00 5.553250e+00 6.522807e+00 4.505629e+00 3.897916e+00 5.367599e+00 2.604459e+00 3.577097e+00 2.978829e+00 1.876280e+00 3.396836e+00
<GCONST> 1.102131e+02
<STATE> 3
<MEAN> 25
 1.994194e+01 1.201313e+01 -8.523131e+00 -9.892881e+00 -5.023181e-02 5.819097e+00 -1.615904e+00 -1.306562e+01 -8.892814e+00 2.318706e+00 3.123358e+00 1.721351e+00 -1.563661e+00 1.388918e+00 2.860563e-01 6.838022e-01 2.013846e-01 5.775369e-02 6.326820e-01 1.712232e+00 5.617734e-01 -1.095943e+00 9.374684e-01 6.097381e-01 -1.957267e+00
<VARIANCE> 25
 1.423277e+01 2.735141e+01 2.262364e+01 7.035670e+01 5.273698e+01 2.757537e+01 3.264497e+01 6.035115e+01 2.808261e+01 3.540724e+01 2.363917e+01 1.868394e+01 1.925579e+00 2.259603e+00 3.557387e+00 2.979654e+00 3.800005e+00 3.175676e+00 2.721282e+00 5.319049e+00 3.027368e+00 2.235483e+00 2.567744e+00 1.386440e+00 7.236733e-01
<GCONST> 9.899723e+01
<STATE> 4
<MEAN> 25
 1.630069e+01 1.490438e+01 -7.155068e+00 -8.660275e+00 -1.889090e+00 5.710084e+00 6.980067e-01 -8.796856e+00 -8.113636e+00 -1.922568e+00 3.488206e+00 1.976607e+00 -2.490764e+00 2.964958e-01 1.341732e+00 1.447069e+00 -4.439001e-01 -5.078403e-01 4.281076e-01 1.391308e+00 9.916663e-01 -8.472776e-01 -4.687764e-02 1.214325e-01 -2.012130e+00
<VARIANCE> 25
 2.653152e+01 1.696033e+01 2.115740e+01 5.421413e+01 4.456401e+01 2.834592e+01 2.014422e+01 3.301826e+01 3.483498e+01 3.283729e+01 2.001522e+01 2.169000e+01 1.778364e+00 2.246132e+00 2.408161e+00 2.499537e+00 3.258699e+00 2.758540e+00 1.942600e+00 4.245581e+00 2.245129e+00 2.252118e+00 1.468533e+00 1.127623e+00 5.428362e-01
<GCONST> 9.485784e+01
<TRANSP> 5
 0.000000e+00 1.000000e+00 0.000000e+00 0.000000e+00 0.000000e+00
 0.000000e+00 9.262827e-01 7.371731e-02 0.000000e+00 0.000000e+00
 0.000000e+00 0.000000e+00 6.011744e-01 3.988256e-01 0.000000e+00
 0.000000e+00 0.000000e+00 0.000000e+00 5.472392e-01 4.527608e-01
 0.000000e+00 0.000000e+00 0.000000e+00 0.000000e+00 0.000000e+00
<ENDHMM>
~h "d"
<BEGINHMM>
<NUMSTATES> 5
<STATE> 2
<MEAN> 25
 -1.605892e+01 2.505227e+00 -1.360998e+00 6.717463e+00 1.150403e+00 3.090590e+00 4.863182e+00 4.449417e+00 5.723596e+00 1.792076e+00 4.181222e+00 4.022099e+00 -5.533535e-02 -2.495967e-03 3.934210e-02 8.128424e-02 3.609966e-02 3.447681e-02 -5.274402e-02 -6.868509e-02 8.630469e-03 4.263854e-03 2.697370e-02 -2.607759e-02 -4.462328e-02
<VARIANCE> 25
 1.138476e+01 7.865518e+00 7.664371e+00 1.173308e+01 9.638479e+00 8.910688e+00 1.178681e+01 1.448496e+01 1.322688e+01 1.236200e+01 1.188839e+01 9.531046e+00 1.064010e-01 1.926901e-01 2.298449e-01 4.085352e-01 5.078025e-01 5.338664e-01 8.374001e-01 1.113287e+00 1.194554e+00 1.142939e+00 8.611783e-01 9.668885e-01 7.813682e-02
<GCONST> 6.431159e+01
<STATE> 3
<MEAN> 25
 -1.452364e+01 4.150467e+00 -1.426365e+00 4.804355e+00 1.363815e+00 2.766785e+00 2.567388e+00 2.680868e+00 3.593974e+00 -2.837483e-01 2.673403e+00 2.505330e+00 -3.147109e-02 3.241847e-02 7.212216e-02 4.383297e-02 6.864975e-02 6.910039e-02 9.013180e-03 -2.717609e-01 -3.215863e-01 -1.566867e-01 -1.928213e-02 -1.905517e-02 -2.140165e-02
<VARIANCE> 25
 1.300765e+01 5.404037e+00 8.148086e+00 2.139485e+01 9.711526e+00 1.139808e+01 1.843935e+01 1.793272e+01 2.166455e+01 1.363168e+01 1.197477e+01 1.074951e+01 1.303525e-01 1.918033e-01 2.350984e-01 4.341653e-01 6.631301e-01 7.974629e-01 1.211240e+00 1.053082e+00 1.143808e+00 1.038635e+00 9.784157e-01 9.307202e-01 1.179213e-01
<GCONST> 6.799045e+01
<STATE> 4
<MEAN> 25
 -9.323288e+00 4.846507e+00 9.185112e-02 4.254660e+00 1.246275e+00 1.288855e+00 4.090602e-01 3.832443e-01 3.565264e-02 -2.188442e+00 -5.776112e-01 7.675915e-01 1.826165e-01 3.606845e-02 4.018862e-02 -1.260465e-02 -1.508519e-02 -5.531654e-02 -9.621480e-02 -7.848356e-02 -5.764338e-02 -4.092099e-02 -9.555134e-02 -7.246983e-02 1.403908e-01
<VARIANCE> 25
 2.230120e+01 7.681826e+00 1.407730e+01 2.174701e+01 1.403415e+01 1.320329e+01 1.788283e+01 1.657669e+01 1.732968e+01 1.198716e+01 1.520580e+01 1.446596e+01 1.234187e+00 8.051887e-01 8.277435e-01 1.198367e+00 1.099836e+00 1.321178e+00 1.251642e+00 1.219897e+00 1.386836e+00 1.129521e+00 1.350767e+00 1.357758e+00 1.960787e+00
<GCONST> 8.096922e+01
<TRANSP> 5
 0.000000e+00 1.000000e+00 0.000000e+00 0.000000e+00 0.000000e+00
 0.000000e+00 9.128018e-01 8.719813e-02 0.000000e+00 0.000000e+00
 0.000000e+00 0.000000e+00 8.062414e-01 1.937586e-01 0.000000e+00
 0.000000e+00 0.000000e+00 0.000000e+00 9.284995e-01 7.150057e-02
 0.000000e+00 0.000000e+00 0.000000e+00 0.000000e+00 0.000000e+00
<ENDHMM>
~h "f"
<BEGINHMM>
<NUMSTATES> 5
<STATE> 2
<MEAN> 25
 -1.791184e+01 3.523634e+00 -2.649354e+00 4.913795e+00 1.995397e+00 5.553330e+00 5.745151e+00 4.459060e+00 6.586758e+00 1.386356e+00 4.447851e+00 4.044016e+00 -2.651669e-03 -2.105329e-03 8.277038e-03 2.419919e-02 2.194951e-02 -2.466962e-03 -2.884191e-02 -3.740576e-02 2.078076e-02 2.248369e-02 1.430613e-02 -7.443924e-03 -1.529492e-03
<VARIANCE> 25
 5.744096e+00 5.095809e+00 9.591082e+00 1.207426e+01 8.486398e+00 8.407912e+00 9.675806e+00 1.560789e+01 1.283746e+01 9.639288e+00 1.050529e+01 8.451868e+00 3.796009e-02 1.406395e-01 2.095424e-01 3.506072e-01 4.458896e-01 4.491114e-01 7.380036e-01 1.117891e+00 1.110351e+00 1.082927e+00 8.298191e-01 9.966996e-01 3.817413e-02
<GCONST> 5.974961e+01
<STATE> 3
<MEAN> 25
 -1.714800e+01 4.379077e+00 -2.129878e+00 4.512636e+00 2.226422e+00 5.914711e+00 4.921099e+00 2.817889e+00 4.828885e+00 4.630992e-02 3.606424e+00 3.298074e+00 1.572919e-01 -9.328466e-02 6.529193e-02 -5.256005e-02 1.368197e-01 1.425077e-01 2.277798e-01 -2.623321e-01 -7.149407e-01 -3.832167e-01 -1.955010e-01 3.478739e-02 1.906573e-01
<VARIANCE> 25
 1.077396e+01 7.005655e+00 8.830676e+00 1.384717e+01 1.011172e+01 9.471884e+00 1.267556e+01 1.844059e+01 1.639459e+01 1.006301e+01 8.803041e+00 7.730486e+00 2.899277e-01 2.159420e-01 2.382058e-01 3.686616e-01 7.804241e-01 5.068827e-01 1.025253e+00 9.552083e-01 1.236773e+00 1.046293e+00 7.724995e-01 7.313966e-01 3.449790e-01
<GCONST> 6.689035e+01
<STATE> 4
<MEAN> 25
 -1.167892e+01 4.695776e+00 -2.391329e+00 1.927232e+00 2.656209e+00 3.556625e+00 2.434721e+00 6.025350e-02 4.832103e-01 -1.507682e+00 3.119200e-01 1.242087e+00 1.996480e-01 1.599414e-02 1.557012e-02 -5.122408e-02 -3.166872e-02 -1.387326e-01 -1.145878e-01 -9.308565e-02 -9.820627e-02 -4.398474e-02 -1.108315e-01 -8.719958e-02 1.709189e-01
<VARIANCE> 25
 1.149288e+01 8.263056e+00 1.317990e+01 1.609633e+01 1.123679e+01 1.425919e+01 1.479597e+01 2.464178e+01 1.545038e+01 1.185593e+01 1.481666e+01 1.217587e+01 1.155753e+00 5.333343e-01 6.707284e-01 8.726252e-01 1.152309e+00 1.519094e+00 1.384198e+00 1.311708e+00 1.580742e+00 1.134135e+00 1.201132e+00 1.262911e+00 2.257904e+00
<GCONST> 7.919053e+01
<TRANSP> 5
 0.000000e+00 1.000000e+00 0.000000e+00 0.000000e+00 0.000000e+00
 0.000000e+00 9.543649e-01 4.563508e-02 0.000000e+00 0.000000e+00
 0.000000e+00 0.000000e+00 5.479577e-01 4.520423e-01 0.000000e+00
 0.000000e+00 0.000000e+00 0.000000e+00 9.329764e-01 6.702361e-02
 0.000000e+00 0.000000e+00 0.000000e+00 0.000000e+00 0.000000e+00
<ENDHMM>
~h "g"
<BEGINHMM>
<NUMSTATES> 5
<STATE> 2
<MEAN> 25
 1.715349e+01 -6.649796e+00 4.975678e+00 1.011493e+00 -7.099898e+00 -7.475684e+00 -3.438731e+00 -2.700964e+00 -5.479562e+00 2.445329e+00 -7.671652e-01 -1.028240e+00 -1.324965e-02 4.172367e-01 2.363665e-01 3.777388e-01 -4.193505e-01 -5.420659e-02 4.433925e-01 -2.674180e-01 -3.994386e-01 -2.485070e-01 1.287467e-01 5.991552e-02 -3.065544e-01
<VARIANCE> 25
 2.812687e+01 1.465928e+02 1.323158e+02 1.288415e+02 1.251832e+02 7.984172e+01 8.179998e+01 9.908681e+01 8.933439e+01 5.206696e+01 4.097144e+01 3.002972e+01 2.514075e+00 1.733451e+01 1.043576e+01 1.132346e+01 7.857507e+00 5.758274e+00 7.361280e+00 8.200608e+00 6.250901e+00 6.436622e+00 3.599172e+00 3.246654e+00 7.848495e+00
<GCONST> 1.224578e+02
<STATE> 3
<MEAN> 25
 1.825170e+01 1.271190e+00 9.384314e-01 -6.838591e-01 -5.987099e+00 -2.343631e+00 -2.911920e+00 -8.037844e+00 -4.598733e+00 1.545873e+00 -1.406303e+00 -1.602482e+00 -2.386826e-01 2.181103e+00 -7.131264e-01 4.400738e-01 3.210532e-01 1.743211e-01 8.109891e-02 -2.598263e-01 4.051430e-01 -6.840702e-01 3.579102e-02 -1.461208e-01 -1.547574e+00
<VARIANCE> 25
 1.911078e+01 1.385208e+02 1.067728e+02 1.214531e+02 1.292207e+02 6.016800e+01 1.153761e+02 9.386710e+01 7.868354e+01 6.615477e+01 3.982233e+01 3.075075e+01 1.192794e+00 1.061069e+01 6.646175e+00 8.586575e+00 7.463797e+00 3.360744e+00 8.139280e+00 7.334921e+00 5.152192e+00 5.149234e+00 3.326997e+00 2.710320e+00 4.607862e+00
<GCONST> 1.181141e+02
<STATE> 4
<MEAN> 25
 1.693495e+01 6.320998e+00 -6.091995e-01 -1.451558e+00 -3.846387e+00 2.129125e-01 -4.540187e+00 -9.024388e+00 -2.152745e+00 1.482085e+00 -1.100293e+00 -2.312654e+00 -5.376356e-01 1.075592e+00 1.628624e-01 -1.356079e-01 1.103850e-01 6.566463e-02 -2.704419e-01 4.540047e-01 4.723501e-01 -2.053160e-01 1.858157e-01 4.332926e-02 -8.657278e-01
<VARIANCE> 25
 2.532134e+01 1.579279e+02 9.158897e+01 1.013863e+02 8.378888e+01 5.427575e+01 8.288254e+01 6.363795e+01 5.032718e+01 5.321889e+01 4.735588e+01 2.209992e+01 1.774650e+00 9.500511e+00 4.726467e+00 6.196359e+00 5.231183e+00 2.687523e+00 5.587443e+00 5.129853e+00 4.222355e+00 3.759744e+00 2.853240e+00 2.221392e+00 4.093410e+00
<GCONST> 1.134378e+02
<TRANSP> 5
 0.000000e+00 1.000000e+00 0.000000e+00 0.000000e+00 0.000000e+00
 0.000000e+00 8.446077e-01 1.553924e-01 0.000000e+00 0.000000e+00
 0.000000e+00 0.000000e+00 6.029903e-01 3.970097e-01 0.000000e+00
 0.000000e+00 0.000000e+00 0.000000e+00 6.522488e-01 3.477513e-01
 0.000000e+00 0.000000e+00 0.000000e+00 0.000000e+00 0.000000e+00
<ENDHMM>
~h "k"
<BEGINHMM>
<NUMSTATES> 5
<STATE> 2
<MEAN> 25
 7.401794e+00 -3.949221e+00 -1.822979e-01 -7.217370e+00 7.927916e+00 -6.596350e+00 -7.286860e+00 2.210169e+00 2.436379e+00 3.372488e+00 -2.308404e+00 6.646508e-02 -3.040379e-01 2.430488e-01 -5.477337e-01 -6.338568e-01 6.629117e-01 6.534543e-01 -1.393978e-01 -8.414258e-02 -1.239375e-01 8.889195e-02 3.118910e-01 -2.187927e-02 -2.167129e-01
<VARIANCE> 25
 1.982841e+02 9.721545e+01 7.652758e+01 1.279498e+02 1.265146e+02 8.943385e+01 7.420784e+01 5.744085e+01 7.045465e+01 6.017437e+01 4.289011e+01 3.527938e+01 1.222117e+01 8.868068e+00 7.489173e+00 8.329240e+00 8.268113e+00 7.268578e+00 7.737296e+00 5.715221e+00 6.272721e+00 5.333409e+00 4.276572e+00 3.377027e+00 1.150753e+01
<GCONST> 1.236958e+02
<STATE> 3
<MEAN> 25
 7.856092e+00 -4.110407e+00 -3.273518e+00 -8.894764e+00 9.129353e+00 -3.064452e+00 -7.699295e+00 1.413027e+00 1.069202e+00 3.707753e+00 -6.029955e-01 -6.143659e-02 9.763963e-01 -1.698931e-01 -6.325999e-01 -6.649034e-01 -1.114169e-01 7.531309e-01 6.911737e-02 -2.637301e-01 -6.705454e-01 3.169334e-01 3.140388e-01 -2.607868e-01 2.116580e-01
<VARIANCE> 25
 1.799202e+02 8.927161e+01 8.020088e+01 1.307068e+02 1.303950e+02 9.463607e+01 7.468369e+01 6.605358e+01 7.575903e+01 5.986473e+01 4.905656e+01 3.942048e+01 1.236495e+01 8.330876e+00 8.160784e+00 9.885617e+00 1.065653e+01 7.924169e+00 8.076661e+00 6.478752e+00 6.902689e+00 5.138759e+00 4.537802e+00 3.746031e+00 1.424225e+01
<GCONST> 1.252768e+02
<STATE> 4
<MEAN> 25
 1.472971e+01 -6.508938e+00 -3.203623e+00 -1.022301e+01 3.509352e+00 -1.452347e+00 -4.734964e+00 -1.965902e-01 -1.654548e+00 4.420606e+00 5.570843e-01 -1.989563e+00 5.375137e-01 -1.098637e-01 1.068606e-01 -1.141831e-02 -3.476075e-01 1.620601e-02 1.319596e-01 -1.990384e-01 -1.851447e-01 7.760094e-03 8.607402e-02 -1.449621e-01 3.651445e-01
<VARIANCE> 25
 1.280614e+02 9.224509e+01 8.268407e+01 1.138484e+02 1.014247e+02 8.112843e+01 6.972975e+01 8.846532e+01 8.835665e+01 4.947070e+01 5.964258e+01 4.376884e+01 9.011726e+00 6.900613e+00 7.662663e+00 8.110268e+00 8.058378e+00 7.408529e+00 7.022010e+00 7.582807e+00 7.029918e+00 5.148571e+00 5.293904e+00 4.205539e+00 1.067270e+01
<GCONST> 1.238499e+02
<TRANSP> 5
 0.000000e+00 1.000000e+00 0.000000e+00 0.000000e+00 0.000000e+00
 0.000000e+00 7.907454e-01 2.092545e-01 0.000000e+00 0.000000e+00
 0.000000e+00 0.000000e+00 7.943580e-01 2.056420e-01 0.000000e+00
 0.000000e+00 0.000000e+00 0.000000e+00 9.311325e-01 6.886754e-02
 0.000000e+00 0.000000e+00 0.000000e+00 0.000000e+00 0.000000e+00
<ENDHMM>
~h "l"
<BEGINHMM>
<NUMSTATES> 5
<STATE> 2
<MEAN> 25
 5.762118e+00 3.503161e+00 -3.432897e+00 -2.364993e+00 -1.375908e+00 1.605208e+00 -8.138847e-01 -3.253722e+00 -2.060884e-02 -3.328021e-01 2.106884e-01 9.975673e-01 -4.700803e-01 -6.443481e-01 4.856163e-01 4.860881e-01 -1.392803e-01 -6.612376e-01 4.349152e-03 4.861455e-01 1.225092e-01 -3.956122e-01 2.877062e-02 2.975465e-01 1.112961e-01
<VARIANCE> 25
 1.770338e+02 1.028013e+02 6.376760e+01 8.842977e+01 4.559752e+01 6.921185e+01 4.105786e+01 4.911959e+01 4.634811e+01 3.430705e+01 3.304041e+01 2.609632e+01 6.769578e+00 4.687266e+00 3.223069e+00 3.091089e+00 4.198548e+00 5.467219e+00 3.230187e+00 2.948584e+00 3.371752e+00 2.440753e+00 2.131371e+00 1.768738e+00 7.279663e+00
<GCONST> 1.107542e+02
<STATE> 3
<MEAN> 25
 5.363837e+00 1.779968e+00 -2.778816e+00 -1.309262e+00 -9.596735e-01 7.608863e-02 -8.957247e-01 -2.245409e+00 -2.153953e-01 -1.150420e+00 9.085509e-02 1.224554e+00 -2.246201e-02 -9.491389e-01 5.936360e-01 4.285640e-01 -1.251725e-01 -7.116550e-01 -4.533162e-03 4.475484e-01 -1.409437e-01 -2.550169e-01 -1.509676e-01 -2.238682e-02 7.158012e-01
<VARIANCE> 25
 1.620732e+02 1.169771e+02 6.698055e+01 9.612401e+01 5.257096e+01 7.848317e+01 4.192933e+01 5.480379e+01 4.766025e+01 3.328567e+01 3.417639e+01 2.418541e+01 7.964237e+00 5.175230e+00 3.025251e+00 3.080136e+00 3.817962e+00 5.159162e+00 2.854599e+00 2.667787e+00 3.215044e+00 2.340509e+00 2.015384e+00 1.860291e+00 1.040001e+01
<GCONST> 1.113614e+02
<STATE> 4
<MEAN> 25
 6.087054e+00 6.357989e-01 -1.570968e+00 -2.870703e-01 -9.415424e-01 -1.267894e+00 -1.193307e+00 -1.304213e+00 -3.842488e-01 -1.752178e+00 -7.930908e-01 5.319974e-01 1.718832e-01 -9.518303e-01 7.352533e-01 4.757287e-01 -4.623861e-01 -6.085634e-01 1.028926e-01 2.477741e-01 -2.016916e-01 -1.700411e-01 -1.540413e-01 -1.249618e-01 8.081809e-01
<VARIANCE> 25
 1.508788e+02 1.244140e+02 6.838616e+01 1.005408e+02 5.322940e+01 8.123022e+01 4.296153e+01 5.922995e+01 4.677797e+01 3.224501e+01 3.151629e+01 2.515174e+01 8.404229e+00 5.147895e+00 3.738335e+00 3.889340e+00 4.463233e+00 5.384805e+00 2.975980e+00 3.265336e+00 3.186789e+00 2.392318e+00 2.550869e+00 2.296787e+00 1.091301e+01
<GCONST> 1.129174e+02
<TRANSP> 5
 0.000000e+00 1.000000e+00 0.000000e+00 0.000000e+00 0.000000e+00
 0.000000e+00 3.288400e-01 6.711600e-01 0.000000e+00 0.000000e+00
 0.000000e+00 0.000000e+00 3.363650e-01 6.636351e-01 0.000000e+00
 0.000000e+00 0.000000e+00 0.000000e+00 3.931403e-01 6.068596e-01
 0.000000e+00 0.000000e+00 0.000000e+00 0.000000e+00 0.000000e+00
<ENDHMM>
~h "m"
<BEGINHMM>
<NUMSTATES> 5
<STATE> 2
<MEAN> 25
 2.461674e+00 6.975900e+00 6.002851e+00 -3.379303e+00 7.495247e+00 -1.443634e+01 -1.534031e+00 -5.644798e-03 1.752030e+00 -3.252074e+00 -4.025797e+00 1.878372e+00 1.612690e+00 -6.733269e-01 8.157514e-01 -7.975149e-01 2.251828e-01 -7.754250e-01 -1.103681e+00 -3.324159e-01 -9.751326e-02 1.081232e-01 -1.614580e-01 -1.204404e-01 3.209536e+00
<VARIANCE> 25
 8.124974e+01 1.040960e+02 5.261137e+01 7.852736e+01 9.525717e+01 1.393100e+02 1.252876e+02 6.818657e+01 5.499829e+01 4.229910e+01 4.249280e+01 2.954531e+01 1.279918e+01 9.756213e+00 5.254042e+00 7.793477e+00 1.202913e+01 1.294151e+01 9.327800e+00 8.358636e+00 9.048754e+00 6.409988e+00 5.146591e+00 4.252605e+00 4.599254e+00
<GCONST> 1.233655e+02
<STATE> 3
<MEAN> 25
 1.388569e+01 -5.177678e+00 9.399231e+00 -8.472907e+00 3.836727e+00 -7.895760e+00 -9.405376e+00 -4.445547e+00 -7.600970e-01 3.455422e-01 -4.057944e+00 -1.289210e+00 1.863950e+00 -1.650948e+00 8.102851e-02 -6.311762e-01 -8.343087e-01 1.467428e+00 -2.836686e-01 -1.068263e+00 -5.918630e-01 1.036921e+00 3.677788e-01 -4.418644e-01 1.022297e+00
<VARIANCE> 25
 9.182000e+01 6.919756e+01 6.219178e+01 1.205875e+02 9.396915e+01 1.440030e+02 1.140086e+02 1.705112e+02 5.912089e+01 9.663152e+01 4.424841e+01 3.289882e+01 8.306820e+00 5.001449e+00 6.393873e+00 1.105410e+01 1.198443e+01 1.037156e+01 9.720416e+00 1.285110e+01 8.534833e+00 9.834780e+00 3.369397e+00 3.725016e+00 5.423308e+00
<GCONST> 1.252338e+02
<STATE> 4
<MEAN> 25
 1.926745e+01 -4.308320e+00 6.938634e+00 -5.980964e+00 -6.788022e+00 1.655653e-01 -1.361413e+00 -6.061328e+00 -8.283051e+00 1.685207e+00 1.744621e+00 -1.675910e+00 -1.281149e-01 4.725778e-01 -2.347666e-01 3.037159e-01 -6.701915e-02 6.996641e-02 2.960154e-01 1.614922e-01 -6.669484e-02 -2.267735e-01 3.468174e-02 -6.944146e-04 -6.745883e-01
<VARIANCE> 25
 5.607990e+01 1.444763e+02 1.441656e+02 1.702949e+02 6.121106e+01 9.487806e+01 1.111484e+02 1.431785e+02 7.242920e+01 6.631312e+01 3.965327e+01 2.927902e+01 2.899252e+00 8.195617e+00 8.417901e+00 8.782631e+00 3.923634e+00 5.767260e+00 5.146262e+00 9.388202e+00 6.015172e+00 6.991083e+00 2.848215e+00 3.181163e+00 6.971014e+00
<GCONST> 1.212840e+02
<TRANSP> 5
 0.000000e+00 1.000000e+00 0.000000e+00 0.000000e+00 0.000000e+00
 0.000000e+00 8.725931e-01 1.274069e-01 0.000000e+00 0.000000e+00
 0.000000e+00 0.000000e+00 8.167253e-01 1.832747e-01 0.000000e+00
 0.000000e+00 0.000000e+00 0.000000e+00 9.650686e-01 3.493138e-02
 0.000000e+00 0.000000e+00 0.000000e+00 0.000000e+00 0.000000e+00
<ENDHMM>
~h "n"
<BEGINHMM>
<NUMSTATES> 5
<STATE> 2
<MEAN> 25
 -3.672926e+00 5.400007e+00 -3.742431e-01 5.316165e+00 -5.860604e-01 -3.895736e-02 -1.351206e+00 -1.859551e+00 -1.812659e+00 -3.505789e+00 -2.204523e+00 -8.431036e-01 -5.293714e-01 -4.308750e-01 -2.052076e-01 1.012796e-01 1.291524e-01 -1.418298e-02 -1.716940e-02 3.693885e-02 6.739319e-02 8.121324e-02 1.756750e-01 -2.503565e-02 -2.881822e-01
<VARIANCE> 25
 3.326344e+01 2.486081e+01 4.000887e+01 2.021714e+01 1.396639e+01 1.587514e+01 1.754790e+01 1.756798e+01 2.450860e+01 1.623938e+01 1.640879e+01 1.774267e+01 3.637187e+00 1.672413e+00 1.854212e+00 2.035146e+00 1.403374e+00 1.413838e+00 1.509526e+00 1.509968e+00 1.562481e+00 1.648768e+00 1.321298e+00 1.247395e+00 2.224487e+00
<GCONST> 8.904106e+01
<STATE> 3
<MEAN> 25
 -7.555107e+00 5.831733e+00 1.619431e+00 7.279284e+00 1.792476e+00 1.706394e+00 -6.204730e-01 -1.595726e+00 -1.151889e+00 -3.506157e+00 -1.136667e+00 -1.362969e+00 -4.225378e-01 -3.336483e-01 -2.398599e-01 -1.773670e-01 -3.041404e-02 8.181421e-02 1.079692e-01 7.850331e-02 9.457399e-02 3.960549e-02 5.185089e-02 6.169632e-02 -2.283762e-01
<VARIANCE> 25
 1.515323e+01 2.058079e+01 2.317949e+01 2.166293e+01 1.536314e+01 1.462427e+01 1.265709e+01 1.383759e+01 1.683520e+01 1.660664e+01 1.591243e+01 1.251738e+01 5.746894e-01 7.088234e-01 9.874585e-01 1.006866e+00 7.897409e-01 1.205137e+00 1.306913e+00 1.828297e+00 1.397822e+00 1.774489e+00 1.546414e+00 1.514948e+00 1.857606e-01
<GCONST> 7.941030e+01
<STATE> 4
<MEAN> 25
 -8.161309e+00 2.926736e+00 -1.162356e+00 3.445882e+00 9.188369e-01 1.778749e+00 2.655410e-01 -3.204604e-01 -2.154124e-01 -2.272514e+00 -1.950789e+00 -5.156806e-01 -9.295136e-02 -4.341909e-02 -5.359632e-02 -7.259822e-02 -2.937937e-03 6.169518e-02 4.037905e-02 8.672915e-02 4.975159e-02 6.146744e-03 5.539681e-02 3.957906e-02 -4.525390e-02
<VARIANCE> 25
 6.951141e+00 1.467797e+01 1.767826e+01 1.851648e+01 1.046757e+01 1.338893e+01 1.526823e+01 1.236008e+01 1.553559e+01 1.356361e+01 1.411353e+01 1.386683e+01 2.097030e-01 5.933117e-01 6.870539e-01 7.439716e-01 7.279367e-01 9.591061e-01 1.278269e+00 1.366934e+00 1.342877e+00 1.377909e+00 1.617760e+00 1.423288e+00 1.341420e-01
<GCONST> 7.405741e+01
<TRANSP> 5
 0.000000e+00 1.000000e+00 0.000000e+00 0.000000e+00 0.000000e+00
 0.000000e+00 8.181555e-01 1.818445e-01 0.000000e+00 0.000000e+00
 0.000000e+00 0.000000e+00 6.336597e-01 3.663403e-01 0.000000e+00
 0.000000e+00 0.000000e+00 0.000000e+00 9.286340e-01 7.136599e-02
 0.000000e+00 0.000000e+00 0.000000e+00 0.000000e+00 0.000000e+00
<ENDHMM>
~h "r"
<BEGINHMM>
<NUMSTATES> 5
<STATE> 2
<MEAN> 25
 2.406629e+00 4.642821e+00 3.044951e-01 2.317350e+00 -2.198277e+00 -1.548925e+00 4.329141e-01 -1.503417e+00 4.223388e-01 -1.485065e+00 -1.943390e-01 8.354735e-01 -3.929113e-01 8.441203e-02 2.970980e-01 -1.397617e-01 1.052526e-01 1.810426e-01 -3.146132e-01 -4.230787e-02 5.795647e-02 -1.471055e-01 -4.779958e-02 7.485085e-02 -3.744190e-01
<VARIANCE> 25
 1.976235e+02 1.520214e+02 5.634547e+01 4.402341e+01 7.038642e+01 4.631846e+01 4.229959e+01 4.008258e+01 3.696259e+01 2.987414e+01 2.386457e+01 1.817645e+01 5.069103e+00 4.487609e+00 3.637478e+00 2.612628e+00 2.968571e+00 2.829557e+00 3.157475e+00 2.757677e+00 2.912894e+00 2.607067e+00 1.773361e+00 1.675322e+00 3.853755e+00
<GCONST> 1.068120e+02
<STATE> 3
<MEAN> 25
 1.622759e+00 4.793929e+00 7.200143e-01 2.246579e+00 -2.167629e+00 -1.148412e+00 3.698051e-03 -2.167361e+00 3.935181e-02 -1.637905e+00 -3.182185e-01 7.930341e-01 -1.219287e-01 -1.248082e-02 3.754630e-01 9.469829e-03 2.078325e-01 1.632510e-01 -1.815374e-01 -1.206969e-01 -5.552654e-02 -1.593843e-01 -1.327784e-01 -7.895479e-03 -1.187790e-01
<VARIANCE> 25
 1.673468e+02 1.509078e+02 6.332243e+01 4.146295e+01 5.611247e+01 4.554373e+01 3.931046e+01 3.655426e+01 3.546521e+01 2.724914e+01 2.406394e+01 1.925795e+01 5.790722e+00 5.090766e+00 3.963779e+00 2.492242e+00 3.162417e+00 2.563688e+00 2.814639e+00 2.607745e+00 2.646109e+00 2.402952e+00 1.746034e+00 1.467205e+00 3.909345e+00
<GCONST> 1.059993e+02
<STATE> 4
<MEAN> 25
 9.532544e-01 5.412859e+00 1.179050e+00 2.896319e+00 -1.355569e+00 -4.787371e-01 -1.139125e-01 -2.746854e+00 -3.418558e-01 -2.656817e+00 -1.147294e+00 4.621961e-01 2.463671e-01 -4.096255e-01 2.459041e-01 -3.263087e-02 2.673513e-01 6.489640e-02 8.302470e-02 2.422825e-02 2.223588e-02 -2.363019e-02 -3.560254e-02 -1.015090e-02 4.663991e-01
<VARIANCE> 25
 1.435235e+02 1.395904e+02 6.174869e+01 4.419328e+01 4.733640e+01 4.256807e+01 3.753411e+01 3.936805e+01 3.439719e+01 2.485464e+01 2.406068e+01 1.951985e+01 6.885112e+00 5.708938e+00 4.509020e+00 2.788491e+00 3.569924e+00 3.564736e+00 3.225190e+00 3.274924e+00 2.758643e+00 2.497045e+00 2.061105e+00 1.706943e+00 5.874659e+00
<GCONST> 1.076357e+02
<TRANSP> 5
 0.000000e+00 1.000000e+00 0.000000e+00 0.000000e+00 0.000000e+00
 0.000000e+00 2.847150e-01 7.152851e-01 0.000000e+00 0.000000e+00
 0.000000e+00 0.000000e+00 2.847207e-01 7.152792e-01 0.000000e+00
 0.000000e+00 0.000000e+00 0.000000e+00 4.169252e-01 5.830748e-01
 0.000000e+00 0.000000e+00 0.000000e+00 0.000000e+00 0.000000e+00
<ENDHMM>
~h "s"
<BEGINHMM>
<NUMSTATES> 5
<STATE> 2
<MEAN> 25
 4.374602e+00 -4.683796e+00 4.137316e+00 -1.196210e+00 3.984317e-01 -8.490132e+00 3.230238e-01 1.874000e+00 5.111389e-01 -6.757877e-01 -1.635584e+00 9.929260e-01 1.618330e+00 -1.687337e+00 6.445018e-01 -7.605265e-01 -4.481141e-01 -9.405800e-01 -8.071278e-01 2.106715e-01 -3.876142e-01 3.926813e-02 -1.419509e-01 -6.726281e-02 2.383707e+00
<VARIANCE> 25
 1.790590e+02 1.423111e+02 8.915103e+01 7.250671e+01 7.783248e+01 5.257580e+01 6.146254e+01 4.730806e+01 5.305364e+01 3.492473e+01 3.479652e+01 2.792551e+01 1.081853e+01 1.115782e+01 9.135883e+00 7.061956e+00 5.777230e+00 7.974785e+00 7.743299e+00 4.871762e+00 5.702158e+00 3.445551e+00 4.257957e+00 2.665055e+00 1.505102e+01
<GCONST> 1.201014e+02
<STATE> 3
<MEAN> 25
 1.197269e+01 -1.062687e+01 8.723628e+00 -3.370687e+00 -2.819039e+00 -9.010139e+00 -3.880488e+00 3.989788e+00 -1.835355e+00 -5.381485e-01 -9.781152e-01 4.250506e-01 8.907393e-01 -9.524859e-01 3.937691e-01 -1.014742e+00 -1.257023e-01 -1.065742e-01 -6.770923e-01 3.047506e-01 -1.074261e-01 9.039620e-02 1.380093e-01 -4.463933e-02 1.351781e+00
<VARIANCE> 25
 1.482773e+02 9.666930e+01 1.271239e+02 7.998882e+01 8.747441e+01 5.167768e+01 8.408727e+01 6.312676e+01 7.026833e+01 4.681564e+01 5.053685e+01 2.969445e+01 7.451560e+00 9.132597e+00 8.519587e+00 6.889393e+00 6.579786e+00 6.408266e+00 7.014744e+00 4.805460e+00 6.737891e+00 3.830949e+00 4.723389e+00 3.128344e+00 7.242802e+00
<GCONST> 1.206258e+02
<STATE> 4
<MEAN> 25
 1.163446e+01 -9.925425e+00 5.934057e+00 -1.026359e+01 1.149518e+00 -5.756244e+00 -4.564161e+00 3.102812e+00 -4.484266e-02 1.894692e+00 3.126824e-01 -8.840508e-01 -6.024729e-01 4.702175e-01 -3.944919e-01 -3.792585e-01 5.964959e-01 1.678711e-01 5.393975e-02 -1.806322e-01 2.307109e-01 1.141381e-01 5.929904e-02 -7.637127e-03 -7.855645e-02
<VARIANCE> 25
 1.695279e+02 8.985817e+01 1.114568e+02 8.981784e+01 9.995905e+01 5.996157e+01 9.017987e+01 7.012337e+01 5.875350e+01 4.521687e+01 4.668319e+01 4.049988e+01 6.910476e+00 4.826728e+00 4.192661e+00 4.691959e+00 4.803559e+00 3.930327e+00 5.171756e+00 4.123344e+00 4.250605e+00 3.894147e+00 3.262441e+00 2.812550e+00 2.122145e+00
<GCONST> 1.159295e+02
<TRANSP> 5
 0.000000e+00 1.000000e+00 0.000000e+00 0.000000e+00 0.000000e+00
 0.000000e+00 6.310015e-01 3.689985e-01 0.000000e+00 0.000000e+00
 0.000000e+00 0.000000e+00 6.435897e-01 3.564103e-01 0.000000e+00
 0.000000e+00 0.000000e+00 0.000000e+00 8.972000e-01 1.028000e-01
 0.000000e+00 0.000000e+00 0.000000e+00 0.000000e+00 0.000000e+00
<ENDHMM>
~h "t"
<BEGINHMM>
<NUMSTATES> 5
<STATE> 2
<MEAN> 25
 1.092687e+00 2.371337e+00 -1.234490e+00 7.959611e-01 1.018895e+00 -2.582679e+00 5.672217e-01 -9.500882e-01 9.090072e-01 -1.407488e+00 2.746143e-01 2.802136e+00 -1.260216e-01 -6.000478e-01 9.208257e-01 -2.710460e-01 -7.139863e-01 -6.519354e-01 -1.125750e-02 2.334665e-01 -8.995883e-02 -6.399005e-02 3.776790e-01 2.681930e-02 6.517587e-01
<VARIANCE> 25
 1.388718e+02 1.114056e+02 7.313022e+01 7.796503e+01 4.373957e+01 7.217662e+01 4.516536e+01 4.394320e+01 4.567446e+01 2.071016e+01 2.882882e+01 2.025056e+01 1.416745e+01 5.928346e+00 6.286846e+00 6.093518e+00 5.379887e+00 6.064860e+00 4.013636e+00 4.248512e+00 3.870332e+00 2.405319e+00 2.099188e+00 1.918482e+00 1.368740e+01
<GCONST> 1.137529e+02
<STATE> 3
<MEAN> 25
 4.426085e+00 -1.433428e+00 2.718216e+00 -2.813134e+00 -2.864569e-01 -5.188366e+00 -7.462358e-01 -1.848410e-01 -2.039443e-01 -1.146986e+00 1.353640e+00 2.731169e+00 3.388295e-01 -6.425139e-01 9.765764e-01 -5.159960e-01 -6.228094e-01 -1.730843e-01 -3.930702e-01 1.971852e-01 -5.733238e-01 -1.082145e-01 1.288627e-01 -2.225483e-01 7.807448e-01
<VARIANCE> 25
 1.391293e+02 1.344443e+02 1.246042e+02 9.946774e+01 5.961048e+01 1.063952e+02 6.076594e+01 6.751981e+01 6.515141e+01 2.831071e+01 2.985132e+01 2.500380e+01 1.192920e+01 4.852808e+00 7.716374e+00 7.070250e+00 5.143033e+00 7.020763e+00 5.589108e+00 5.036316e+00 5.092565e+00 2.637655e+00 2.186556e+00 2.368498e+00 1.124969e+01
<GCONST> 1.180625e+02
<STATE> 4
<MEAN> 25
 1.108688e+01 -1.783661e+00 -1.359305e-01 -1.059738e+01 1.076593e+00 3.314654e+00 -4.687966e+00 -1.913243e+00 -2.338676e+00 8.275284e-01 1.269736e+00 6.529104e-01 -3.926263e-01 2.551069e-01 -1.775158e-01 6.137285e-01 -5.283479e-02 4.862232e-02 1.343111e-01 -1.015423e-01 4.598339e-02 1.416607e-02 -9.000711e-02 -1.014579e-01 -7.025315e-01
<VARIANCE> 25
 1.280959e+02 1.692675e+02 1.101267e+02 1.515875e+02 7.040892e+01 1.157519e+02 5.828279e+01 8.325369e+01 4.679664e+01 3.738955e+01 2.076760e+01 2.981978e+01 3.249034e+00 3.973813e+00 4.092092e+00 3.370478e+00 3.099726e+00 4.215869e+00 2.932086e+00 3.391151e+00 2.553817e+00 2.082284e+00 1.744911e+00 1.685869e+00 2.310215e+00
<GCONST> 1.106794e+02
<TRANSP> 5
 0.000000e+00 1.000000e+00 0.000000e+00 0.000000e+00 0.000000e+00
 0.000000e+00 3.338857e-01 6.661143e-01 0.000000e+00 0.000000e+00
 0.000000e+00 0.000000e+00 3.937576e-01 6.062424e-01 0.000000e+00
 0.000000e+00 0.000000e+00 0.000000e+00 7.083532e-01 2.916469e-01
 0.000000e+00 0.000000e+00 0.000000e+00 0.000000e+00 0.000000e+00
<ENDHMM>
~h "w"
<BEGINHMM>
<NUMSTATES> 5
<STATE> 2
<MEAN> 25
 1.802466e+01 -6.178526e+00 -3.602690e+00 -1.298155e+01 -3.045349e-01 8.188081e-01 -2.617511e+00 -1.296975e+00 -3.876808e+00 1.424981e+00 3.193321e+00 -3.364968e+00 6.691034e-02 -1.219994e+00 1.708162e-02 9.065561e-01 -2.769207e-01 -2.271132e-01 3.915320e-01 -1.103278e-01 2.965917e-01 1.507545e-01 -2.273866e-01 -8.623196e-01 5.583050e-01
<VARIANCE> 25
 1.408387e+02 1.098543e+02 7.308794e+01 1.071869e+02 6.888590e+01 6.731447e+01 5.587012e+01 8.968462e+01 6.117646e+01 4.018526e+01 4.584605e+01 5.035845e+01 4.148213e+00 5.835390e+00 4.117191e+00 6.137986e+00 5.835918e+00 6.647324e+00 4.373181e+00 4.067154e+00 5.089295e+00 4.683040e+00 4.802298e+00 4.595022e+00 3.557064e+00
<GCONST> 1.175599e+02
<STATE> 3
<MEAN> 25
 1.986233e+01 -1.024622e+01 -3.589919e+00 -8.531178e+00 -1.744943e+00 -1.223406e+00 -1.184714e+00 -1.115992e+00 -3.107438e+00 2.181948e+00 1.194952e+00 -6.257257e+00 -9.453163e-02 -9.135708e-01 2.957771e-01 1.296978e+00 -4.076490e-01 -7.016526e-01 3.210719e-01 3.008316e-01 4.337848e-01 -1.535262e-01 -8.644241e-01 -3.568399e-01 1.644356e-01
<VARIANCE> 25
 7.985623e+01 1.006765e+02 7.389468e+01 1.079468e+02 6.191781e+01 6.470247e+01 5.645199e+01 9.916511e+01 6.182322e+01 4.453927e+01 5.497694e+01 5.014082e+01 3.453977e+00 5.807872e+00 3.813342e+00 5.455161e+00 4.346461e+00 5.671824e+00 3.907361e+00 5.294250e+00 5.287786e+00 4.381900e+00 4.072967e+00 3.823671e+00 3.568373e+00
<GCONST> 1.161203e+02
<STATE> 4
<MEAN> 25
 1.921757e+01 -1.090086e+01 -2.614309e+00 -2.881938e+00 -3.852914e+00 -4.776152e+00 1.037912e+00 -3.336917e-01 -1.827830e+00 2.408767e+00 -2.329373e+00 -6.563954e+00 -1.886262e-01 3.232391e-01 1.853612e-01 1.157704e+00 -3.969811e-01 -2.985208e-01 1.905892e-01 -6.321259e-02 3.071259e-01 -2.740943e-01 -6.944293e-01 2.282177e-01 -7.320366e-01
<VARIANCE> 25
 7.201203e+01 9.494511e+01 5.760871e+01 1.456075e+02 7.267638e+01 5.746347e+01 5.843623e+01 8.767503e+01 6.055127e+01 4.612384e+01 5.962247e+01 4.323144e+01 2.363670e+00 5.053580e+00 3.578742e+00 5.332421e+00 4.014872e+00 4.383369e+00 4.029028e+00 6.606169e+00 5.385317e+00 3.979516e+00 3.822748e+00 3.167855e+00 3.505048e+00
<GCONST> 1.148714e+02
<TRANSP> 5
 0.000000e+00 1.000000e+00 0.000000e+00 0.000000e+00 0.000000e+00
 0.000000e+00 6.790193e-01 3.209808e-01 0.000000e+00 0.000000e+00
 0.000000e+00 0.000000e+00 6.208448e-01 3.791552e-01 0.000000e+00
 0.000000e+00 0.000000e+00 0.000000e+00 7.801552e-01 2.198449e-01
 0.000000e+00 0.000000e+00 0.000000e+00 0.000000e+00 0.000000e+00
<ENDHMM>
~h "z"
<BEGINHMM>
<NUMSTATES> 5
<STATE> 2
<MEAN> 25
 -6.846011e+00 8.614799e-01 -2.287599e+00 9.009864e-01 1.032313e+00 9.001348e-01 -2.065191e-01 2.467166e+00 1.472564e+00 2.696393e-01 4.159834e-01 9.898247e-01 1.157393e-01 7.939497e-03 -2.042690e-02 -1.165221e-02 -1.469711e-02 -8.045814e-02 -3.689779e-02 -7.849479e-02 -1.328563e-01 -1.022482e-01 -8.021577e-02 -7.246694e-02 9.491595e-02
<VARIANCE> 25
 7.579359e+00 2.756902e+00 6.424955e+00 1.415086e+01 1.402559e+01 1.275385e+01 1.603738e+01 1.225043e+01 1.512532e+01 1.075607e+01 1.069030e+01 8.058887e+00 7.747412e-01 3.216484e-01 4.590385e-01 1.113879e+00 7.842960e-01 1.484228e+00 1.290102e+00 1.184630e+00 1.367877e+00 1.178067e+00 8.734500e-01 8.570099e-01 1.541485e+00
<GCONST> 7.264766e+01
<STATE> 3
<MEAN> 25
 -8.036780e+00 -8.904017e-01 -2.688740e+00 1.992408e+00 1.004553e-02 4.067338e-01 5.155984e-01 2.028795e+00 2.569974e+00 -3.815724e-01 -5.941539e-01 2.560531e-01 2.444632e-01 3.676512e-02 9.866427e-02 -6.685652e-02 2.658493e-02 -9.534493e-02 -3.151283e-03 6.685000e-02 9.523346e-02 1.091797e-01 -6.620483e-02 -2.034657e-01 2.194253e-01
<VARIANCE> 25
 8.013800e+00 1.220953e+01 2.085875e+01 1.346548e+01 1.091354e+01 1.128382e+01 2.323085e+01 1.331762e+01 2.688033e+01 1.018166e+01 1.442915e+01 1.147393e+01 7.823211e-01 1.381441e+00 3.097456e+00 1.365261e+00 1.083970e+00 1.174745e+00 2.102092e+00 1.527758e+00 4.028112e+00 1.081792e+00 1.605440e+00 1.634527e+00 1.157120e+00
<GCONST> 8.294806e+01
<STATE> 4
<MEAN> 25
 -3.363176e+00 2.133732e+00 -2.056624e+00 1.453819e+00 3.027940e+00 -7.319137e-01 1.335307e+00 2.480511e+00 2.447686e+00 -1.528519e+00 -3.488410e+00 -6.704921e-01 1.034091e+00 4.677321e-01 6.466504e-01 -7.748936e-01 1.874726e-01 -7.607930e-01 -1.077554e+00 -5.245597e-01 -7.945843e-01 -3.844082e-01 -4.645393e-01 -1.143999e-01 1.120629e+00
<VARIANCE> 25
 2.750706e+01 2.152717e+01 3.122368e+01 1.979253e+01 2.575278e+01 2.683731e+01 3.266442e+01 1.752278e+01 3.005943e+01 1.204430e+01 2.277193e+01 6.135268e+00 3.326432e+00 1.400522e+00 2.900716e+00 1.407235e+00 3.752933e+00 2.508805e+00 2.719491e+00 1.876488e+00 4.092681e+00 1.960172e+00 3.039218e+00 8.343222e-01 7.028701e+00
<GCONST> 9.425687e+01
<TRANSP> 5
 0.000000e+00 1.000000e+00 0.000000e+00 0.000000e+00 0.000000e+00
 0.000000e+00 9.519334e-01 4.806659e-02 0.000000e+00 0.000000e+00
 0.000000e+00 0.000000e+00 8.087060e-01 1.912940e-01 0.000000e+00
 0.000000e+00 0.000000e+00 0.000000e+00 6.604941e-01 3.395059e-01
 0.000000e+00 0.000000e+00 0.000000e+00 0.000000e+00 0.000000e+00
<ENDHMM>
~h "ae"
<BEGINHMM>
<NUMSTATES> 5
<STATE> 2
<MEAN> 25
 1.706163e+01 -2.014438e+01 -2.409184e-02 -3.941180e+00 -2.691720e+00 -3.745222e+00 6.838473e-01 3.727203e+00 1.264683e+00 1.745797e+00 -4.766482e+00 -3.047769e+00 1.363363e-01 -8.131728e-01 3.965614e-01 2.380549e-01 -5.456903e-01 -6.160349e-01 9.226483e-01 7.984056e-01 -7.300302e-01 -4.538328e-01 -3.477636e-01 -9.986378e-02 5.120888e-01
<VARIANCE> 25
 3.741109e+01 5.429237e+01 8.293153e+01 1.155344e+02 7.212724e+01 6.955473e+01 6.786671e+01 7.655045e+01 3.574880e+01 3.916912e+01 3.665773e+01 2.537756e+01 4.099397e+00 4.612828e+00 8.160698e+00 6.447864e+00 7.943813e+00 6.677913e+00 5.604863e+00 5.215894e+00 4.100543e+00 3.479551e+00 4.021236e+00 2.637879e+00 2.845408e+00
<GCONST> 1.142014e+02
<STATE> 3
<MEAN> 25
 1.695281e+01 -2.218496e+01 2.328644e+00 -3.335503e+00 -4.974708e+00 -5.948982e+00 3.802707e+00 7.376379e+00 -2.175179e+00 -4.416993e-01 -4.985177e+00 -3.460037e+00 -2.540988e-01 1.522304e-01 9.770058e-01 -8.414339e-02 -7.135836e-01 -4.283687e-01 6.506147e-01 8.815032e-01 -1.287546e+00 -4.376765e-01 5.014603e-01 -1.361523e-01 -1.051655e-01
<VARIANCE> 25
 2.277329e+01 3.862009e+01 6.981178e+01 1.247107e+02 5.903922e+01 5.349864e+01 6.542338e+01 7.444810e+01 4.098101e+01 3.346730e+01 4.055714e+01 2.309683e+01 1.543381e+00 3.310873e+00 4.700068e+00 3.943622e+00 5.242625e+00 3.652035e+00 3.793670e+00 4.038440e+00 2.814084e+00 2.546770e+00 2.933244e+00 2.119671e+00 1.723910e+00
<GCONST> 1.069866e+02
<STATE> 4
<MEAN> 25
 1.459035e+01 -1.899806e+01 1.198933e+01 -8.005840e+00 -9.956689e+00 -5.250307e+00 3.471832e+00 1.170438e+01 -8.948713e+00 -2.278380e-01 1.362827e+00 -4.477551e+00 -4.237510e-03 1.016430e+00 3.766065e-01 2.373343e-01 -4.740195e-01 2.348172e-01 5.288184e-01 -5.067502e-01 -1.030057e+00 1.241656e-01 4.272968e-01 -1.725821e-01 -6.137637e-01
<VARIANCE> 25
 1.352167e+01 5.218768e+01 8.843545e+01 9.062763e+01 5.720437e+01 3.208273e+01 7.087097e+01 7.484953e+01 5.227611e+01 3.335348e+01 4.460442e+01 2.588977e+01 6.674228e-01 3.165974e+00 3.980369e+00 4.013211e+00 3.228186e+00 2.250504e+00 3.246449e+00 5.646717e+00 3.673459e+00 2.420486e+00 2.231595e+00 1.784568e+00 1.487677e+00
<GCONST> 1.044768e+02
<TRANSP> 5
 0.000000e+00 1.000000e+00 0.000000e+00 0.000000e+00 0.000000e+00
 0.000000e+00 7.064270e-01 2.935731e-01 0.000000e+00 0.000000e+00
 0.000000e+00 0.000000e+00 7.023216e-01 2.976784e-01 0.000000e+00
 0.000000e+00 0.000000e+00 0.000000e+00 8.961251e-01 1.038749e-01
 0.000000e+00 0.000000e+00 0.000000e+00 0.000000e+00 0.000000e+00
<ENDHMM>
~h "ah"
<BEGINHMM>
<NUMSTATES> 5
<STATE> 2
<MEAN> 25
 1.640768e+01 -2.146092e+00 -3.135545e+00 -6.061852e+00 7.822182e-01 3.230163e-01 -5.242006e+00 -6.289623e+00 -1.189688e+00 4.217090e+00 -2.164886e+00 -2.772904e+00 -3.162783e-01 7.604794e-01 2.039908e-01 2.999291e-01 -5.601763e-01 3.051308e-01 3.392744e-01 -3.936089e-01 -7.176176e-02 -3.639870e-01 1.152457e-01 3.132200e-01 -7.871336e-01
<VARIANCE> 25
 9.208466e+01 1.072276e+02 9.181110e+01 1.417874e+02 6.347636e+01 7.986361e+01 9.111871e+01 8.301553e+01 6.468615e+01 5.833721e+01 5.784016e+01 3.660503e+01 5.065164e+00 1.020101e+01 7.357516e+00 6.875703e+00 6.895140e+00 5.717637e+00 7.029342e+00 7.395942e+00 4.049253e+00 4.802021e+00 4.046348e+00 2.649162e+00 8.184815e+00
<GCONST> 1.209104e+02
<STATE> 3
<MEAN> 25
 1.705774e+01 3.867780e-01 -3.412101e+00 -4.822258e+00 -9.442822e-01 1.339859e+00 -4.264037e+00 -7.203274e+00 -1.967965e+00 2.539531e+00 -1.610255e+00 -2.542799e+00 -5.056045e-01 8.956389e-01 1.997847e-01 2.266983e-01 -3.921528e-01 1.671741e-01 3.057816e-01 -2.023384e-02 -3.259188e-02 -5.554820e-01 3.275038e-01 3.030335e-01 -8.443878e-01
<VARIANCE> 25
 7.390398e+01 1.284648e+02 8.700781e+01 1.187478e+02 6.477341e+01 7.522438e+01 5.868563e+01 7.833320e+01 5.762929e+01 5.904221e+01 5.309068e+01 3.297496e+01 5.178748e+00 9.959674e+00 6.636181e+00 6.780399e+00 6.364298e+00 5.255343e+00 5.245525e+00 6.856804e+00 4.871291e+00 4.357356e+00 4.881454e+00 2.472754e+00 6.267932e+00
<GCONST> 1.190966e+02
<STATE> 4
<MEAN> 25
 1.517714e+01 4.941670e+00 -1.794434e+00 -2.667982e+00 -2.195886e+00 1.484136e+00 -3.005854e+00 -6.203757e+00 -2.457921e+00 2.398812e-01 -1.648965e+00 -2.594341e+00 -1.275043e+00 1.475272e-01 1.612521e-01 1.584381e-01 -2.012538e-01 2.064474e-01 2.365923e-01 4.162441e-01 1.732082e-01 -3.108183e-01 1.838714e-01 3.857363e-01 -1.110927e+00
<VARIANCE> 25
 8.665147e+01 1.498222e+02 1.101361e+02 1.225452e+02 4.952286e+01 6.545290e+01 4.777612e+01 5.608283e+01 4.696729e+01 5.295864e+01 3.732042e+01 2.866940e+01 4.152771e+00 7.039395e+00 5.182032e+00 4.955472e+00 4.233284e+00 3.541094e+00 4.120028e+00 4.343119e+00 3.563697e+00 3.665922e+00 3.062994e+00 1.944994e+00 2.640781e+00
<GCONST> 1.132384e+02
<TRANSP> 5
 0.000000e+00 1.000000e+00 0.000000e+00 0.000000e+00 0.000000e+00
 0.000000e+00 6.951659e-01 3.048340e-01 0.000000e+00 0.000000e+00
 0.000000e+00 0.000000e+00 5.948939e-01 4.051062e-01 0.000000e+00
 0.000000e+00 0.000000e+00 0.000000e+00 6.673269e-01 3.326731e-01
 0.000000e+00 0.000000e+00 0.000000e+00 0.000000e+00 0.000000e+00
<ENDHMM>
~h "ao"
<BEGINHMM>
<NUMSTATES> 5
<STATE> 2
<MEAN> 25
 -8.914678e+00 8.069670e+00 1.513969e+00 6.065151e+00 1.727611e+00 2.510042e+00 2.407149e+00 4.576765e-01 1.594095e+00 -1.297093e+00 8.166819e-01 1.724095e+00 2.449180e+00 6.509274e-04 5.631030e-01 -9.679449e-02 -4.600572e-01 -1.112195e+00 -2.270603e-01 -1.504651e-01 2.556982e-01 -1.526121e-01 -1.953003e-01 8.379829e-02 2.788241e+00
<VARIANCE> 25
 7.811356e+01 5.942909e+01 5.005260e+01 1.896803e+01 1.509989e+01 1.524632e+01 2.377736e+01 1.995590e+01 1.169020e+01 1.335713e+01 1.699181e+01 1.483627e+01 8.872568e+00 5.531625e+00 3.372442e+00 2.552538e+00 2.190349e+00 2.745602e+00 2.365617e+00 2.289001e+00 1.791113e+00 1.358646e+00 1.705419e+00 1.645539e+00 1.517054e+01
<GCONST> 9.759753e+01
<STATE> 3
<MEAN> 25
 -1.338953e+00 1.076778e+01 5.559482e+00 7.233618e+00 2.633506e-01 5.424273e-01 2.288084e+00 -9.465843e-02 2.041299e+00 -1.559686e+00 2.999589e-01 1.511061e+00 5.004470e+00 -1.659750e+00 2.352832e-01 -1.058298e+00 -7.014289e-01 -2.776411e+00 -1.049302e+00 -5.566819e-01 1.845335e-01 2.750224e-01 -7.625241e-01 2.351136e-02 6.426361e+00
<VARIANCE> 25
 1.161274e+02 1.183029e+02 6.176573e+01 2.905416e+01 2.047798e+01 2.997094e+01 5.111686e+01 1.986506e+01 1.807369e+01 1.402386e+01 1.730227e+01 1.544775e+01 9.376492e+00 1.293618e+01 7.121367e+00 5.734604e+00 2.724219e+00 5.517727e+00 5.326229e+00 3.560373e+00 3.670590e+00 2.979182e+00 3.020585e+00 3.419183e+00 2.257693e+01
<GCONST> 1.094378e+02
<STATE> 4
<MEAN> 25
 9.602489e+00 2.167951e+00 3.018538e+00 2.691030e+00 -4.438019e-01 -5.804529e+00 -2.371615e+00 6.829184e-02 2.614568e+00 -1.684164e+00 -2.225080e+00 4.516369e-01 4.224136e+00 -3.346041e+00 -3.333325e-01 -2.216694e+00 -1.812610e-01 -2.104886e+00 -1.732266e+00 9.082054e-02 1.269839e-01 4.813572e-01 -1.038540e+00 -5.575874e-01 5.683612e+00
<VARIANCE> 25
 9.001366e+01 2.035740e+02 8.899013e+01 9.680509e+01 3.978166e+01 7.838042e+01 7.914267e+01 4.029445e+01 2.345120e+01 1.960907e+01 1.937304e+01 3.164831e+01 1.474643e+01 1.599479e+01 1.120949e+01 6.360256e+00 2.811034e+00 1.067939e+01 9.617983e+00 4.589346e+00 6.158317e+00 3.343316e+00 4.506193e+00 3.777922e+00 1.710068e+01
<GCONST> 1.191039e+02
<TRANSP> 5
 0.000000e+00 1.000000e+00 0.000000e+00 0.000000e+00 0.000000e+00
 0.000000e+00 3.746272e-01 6.253729e-01 0.000000e+00 0.000000e+00
 0.000000e+00 0.000000e+00 8.677272e-02 9.132273e-01 0.000000e+00
 0.000000e+00 0.000000e+00 0.000000e+00 3.342699e-01 6.657302e-01
 0.000000e+00 0.000000e+00 0.000000e+00 0.000000e+00 0.000000e+00
<ENDHMM>
~h "aw"
<BEGINHMM>
<NUMSTATES> 5
<STATE> 2
<MEAN> 25
 2.382156e+01 -1.032130e+01 -6.254539e+00 -1.259413e+01 4.300009e+00 8.940096e+00 -4.835019e+00 -2.105804e+00 -4.127748e-01 -2.752088e-01 1.119588e+00 -2.976631e+00 -2.711025e-02 1.128979e-01 -3.172153e-01 -3.511119e-01 2.409556e-02 -1.601221e-01 -2.153758e-01 2.157168e-01 4.409540e-01 7.687079e-02 -3.356885e-03 -2.320253e-02 -1.135797e-01
<VARIANCE> 25
 2.014291e+01 1.249458e+02 8.773923e+01 1.214828e+02 4.905216e+01 4.038330e+01 7.143372e+01 5.907089e+01 4.642952e+01 4.950219e+01 2.605106e+01 3.794097e+01 2.936355e+00 7.819124e+00 7.285131e+00 6.363937e+00 6.833716e+00 2.036301e+00 7.716052e+00 5.575218e+00 3.875344e+00 5.229088e+00 3.786669e+00 3.970853e+00 6.595699e+00
<GCONST> 1.145973e+02
<STATE> 3
<MEAN> 25
 2.377385e+01 -8.445063e+00 -5.993153e+00 -7.969890e+00 -4.039297e-01 5.582019e+00 -3.645563e+00 -1.078617e+00 -5.269358e-01 2.657913e+00 4.252620e+00 -6.816071e+00 -1.025385e+00 1.862234e+00 -3.082311e-01 4.776800e-01 5.121242e-02 -4.127502e-01 5.289025e-02 -1.847945e-01 4.201430e-01 1.257837e-01 -1.821835e-01 5.008458e-01 -1.801698e+00
<VARIANCE> 25
 3.856372e+01 1.353661e+02 1.276046e+02 8.117206e+01 4.714548e+01 4.774001e+01 5.547140e+01 4.651313e+01 2.185643e+01 3.000070e+01 3.463414e+01 1.789202e+01 4.495162e+00 4.349692e+00 7.293195e+00 3.295103e+00 7.294612e+00 1.798552e+00 9.414659e+00 2.965627e+00 3.381902e+00 2.584971e+00 2.770694e+00 2.588511e+00 4.548048e+00
<GCONST> 1.099512e+02
<STATE> 4
<MEAN> 25
 1.464538e+01 2.672732e-02 -7.454424e+00 -7.157723e+00 2.306640e-02 7.300463e+00 -1.151798e+00 -1.612658e+00 1.052415e-02 1.554822e+00 2.320771e+00 -3.029316e+00 -2.555147e+00 5.912063e-01 2.030228e-01 -3.715344e-02 -8.666297e-01 -1.326043e-01 5.431443e-01 2.246155e-01 2.381342e-01 1.691227e-01 6.492752e-01 1.222600e+00 -2.203475e+00
<VARIANCE> 25
 7.167063e+01 1.293365e+02 1.329894e+02 8.076009e+01 3.620758e+01 2.150750e+01 4.578926e+01 2.484003e+01 2.097922e+01 1.490881e+01 3.545640e+01 2.075009e+01 3.565375e+00 3.824615e+00 5.733646e+00 3.626905e+00 3.412761e+00 1.915076e+00 3.468307e+00 1.521782e+00 2.197249e+00 1.983221e+00 3.151098e+00 2.040686e+00 2.102028e+00
<GCONST> 1.036679e+02
<TRANSP> 5
 0.000000e+00 1.000000e+00 0.000000e+00 0.000000e+00 0.000000e+00
 0.000000e+00 8.922220e-01 1.077780e-01 0.000000e+00 0.000000e+00
 0.000000e+00 0.000000e+00 8.054740e-01 1.945260e-01 0.000000e+00
 0.000000e+00 0.000000e+00 0.000000e+00 6.666677e-01 3.333323e-01
 0.000000e+00 0.000000e+00 0.000000e+00 0.000000e+00 0.000000e+00
<ENDHMM>
~h "ay"
<BEGINHMM>
<NUMSTATES> 5
<STATE> 2
<MEAN> 25
 1.155916e+01 -5.879873e+00 1.686333e+00 -1.030987e+01 4.194503e+00 -3.353091e+00 -6.932590e+00 1.189033e-01 2.691391e+00 2.385626e+00 -1.610860e+00 -4.218374e-01 5.760040e-01 -4.715982e-01 -1.065177e-02 -5.609257e-01 2.488786e-01 -2.117594e-02 -1.319866e-01 1.327437e-01 1.437294e-02 2.558310e-01 5.259851e-02 -1.994514e-01 9.482780e-01
<VARIANCE> 25
 1.045936e+02 1.154676e+02 9.602094e+01 1.372588e+02 7.227367e+01 1.000383e+02 1.169243e+02 9.348720e+01 8.324564e+01 5.337048e+01 4.382051e+01 3.941891e+01 9.627551e+00 9.684473e+00 7.239087e+00 7.860207e+00 7.256539e+00 9.394592e+00 8.326979e+00 5.260299e+00 9.089826e+00 5.156620e+00 4.285435e+00 3.233908e+00 1.147497e+01
<GCONST> 1.243659e+02
<STATE> 3
<MEAN> 25
 1.123744e+01 -8.278348e+00 1.676057e+00 -7.927386e+00 3.296529e+00 -4.681467e+00 -3.634570e+00 5.733036e-01 2.145493e+00 2.688382e+00 -1.058682e+00 -1.396009e+00 9.860954e-01 -9.905269e-01 -8.600578e-02 8.639013e-02 -5.108093e-01 2.832786e-01 3.347699e-02 7.088037e-02 -2.344525e-01 2.604101e-01 -1.129906e-01 -2.994958e-01 8.901571e-01
<VARIANCE> 25
 9.222010e+01 9.768113e+01 1.129604e+02 1.044981e+02 7.918195e+01 7.777654e+01 9.072934e+01 7.413654e+01 6.827264e+01 4.828720e+01 3.808135e+01 4.183944e+01 1.100588e+01 7.707322e+00 1.021839e+01 1.055240e+01 8.095883e+00 8.852968e+00 1.040099e+01 5.259418e+00 7.531739e+00 5.457786e+00 4.900335e+00 3.437433e+00 8.553889e+00
<GCONST> 1.235244e+02
<STATE> 4
<MEAN> 25
 1.426999e+01 -1.125988e+01 1.976748e+00 -8.284210e+00 -1.254645e+00 -1.717514e+00 -4.002229e+00 4.635410e-01 8.761466e-02 3.845228e+00 -4.437454e-01 -2.061651e+00 1.866132e-01 -4.239205e-01 -2.267803e-01 5.329629e-02 -1.064728e-01 1.082413e-01 1.625198e-01 9.977868e-02 7.515663e-02 -1.349196e-02 -2.176838e-01 -7.939405e-02 1.886199e-01
<VARIANCE> 25
 5.762276e+01 1.289766e+02 1.410633e+02 9.496909e+01 6.535590e+01 7.083492e+01 8.147482e+01 9.127727e+01 5.409296e+01 3.952019e+01 3.789091e+01 3.457139e+01 5.101316e+00 7.142956e+00 8.707426e+00 7.806840e+00 6.370837e+00 6.645830e+00 6.600171e+00 5.551581e+00 4.155715e+00 4.250380e+00 4.071984e+00 3.208885e+00 7.204110e+00
<GCONST> 1.191408e+02
<TRANSP> 5
 0.000000e+00 1.000000e+00 0.000000e+00 0.000000e+00 0.000000e+00
 0.000000e+00 8.943253e-01 1.056747e-01 0.000000e+00 0.000000e+00
 0.000000e+00 0.000000e+00 8.015767e-01 1.984233e-01 0.000000e+00
 0.000000e+00 0.000000e+00 0.000000e+00 9.195974e-01 8.040258e-02
 0.000000e+00 0.000000e+00 0.000000e+00 0.000000e+00 0.000000e+00
<ENDHMM>
~h "eh"
<BEGINHMM>
<NUMSTATES> 5
<STATE> 2
<MEAN> 25
 2.060305e+01 -1.269590e+01 -3.437520e+00 1.686029e+00 -7.325167e+00 -5.853426e+00 1.771749e+00 -1.083383e+00 -3.681713e-02 2.660031e+00 -5.204868e+00 -4.270172e+00 -1.313166e-01 7.721504e-01 -4.569875e-01 6.555079e-01 4.547674e-02 -3.198226e-01 3.265344e-01 1.530486e-01 1.255347e-01 -1.844824e-01 -3.652713e-01 1.433346e-01 -8.248453e-01
<VARIANCE> 25
 4.128307e+01 9.059899e+01 6.334856e+01 7.276167e+01 6.287032e+01 5.124554e+01 4.597260e+01 7.349183e+01 5.374122e+01 5.539665e+01 5.231507e+01 2.739304e+01 4.456672e+00 6.953060e+00 5.646263e+00 6.662469e+00 6.137297e+00 4.674703e+00 4.979668e+00 8.108215e+00 5.429822e+00 5.920897e+00 4.362446e+00 2.542189e+00 6.291140e+00
<GCONST> 1.159103e+02
<STATE> 3
<MEAN> 25
 1.861050e+01 -7.365605e+00 -4.865571e+00 3.996346e+00 -7.215413e+00 -6.255069e+00 2.360578e+00 -8.567268e-01 6.105491e-01 8.192220e-01 -5.351270e+00 -3.026836e+00 -9.502308e-01 1.471431e+00 -1.104899e-01 -7.859978e-02 1.626736e-01 3.443223e-01 -2.092175e-02 5.770797e-02 1.392673e-01 -3.726299e-01 6.023382e-02 3.736765e-01 -1.538043e+00
<VARIANCE> 25
 6.295003e+01 1.384269e+02 5.780688e+01 6.469670e+01 6.350264e+01 4.411846e+01 4.278292e+01 7.602896e+01 6.091538e+01 6.017572e+01 4.260146e+01 2.760667e+01 3.983644e+00 6.888833e+00 5.455306e+00 5.713736e+00 6.354191e+00 4.119605e+00 4.229360e+00 5.901992e+00 4.562856e+00 5.046043e+00 4.028051e+00 2.269828e+00 4.743748e+00
<GCONST> 1.146885e+02
<STATE> 4
<MEAN> 25
 1.551875e+01 -8.062310e-01 -2.388410e+00 3.702666e+00 -6.418404e+00 -3.523076e+00 2.216218e+00 -2.723825e+00 -5.578526e-01 8.204917e-01 -3.997147e+00 -1.404131e+00 -1.274461e+00 8.922873e-01 2.534066e-01 -5.298405e-01 3.862108e-01 6.894592e-01 -2.020976e-01 6.556560e-02 2.508295e-02 -8.219189e-02 4.299291e-01 3.285207e-01 -1.256779e+00
<VARIANCE> 25
 1.126382e+02 2.108479e+02 7.026468e+01 7.085844e+01 6.088925e+01 4.119244e+01 3.764753e+01 6.976474e+01 5.467437e+01 5.631114e+01 3.645585e+01 2.651553e+01 3.410479e+00 1.008396e+01 5.351976e+00 5.291860e+00 5.261087e+00 3.346235e+00 3.815287e+00 4.710645e+00 3.732968e+00 3.594261e+00 2.975998e+00 1.993130e+00 4.131745e+00
<GCONST> 1.135760e+02
<TRANSP> 5
 0.000000e+00 1.000000e+00 0.000000e+00 0.000000e+00 0.000000e+00
 0.000000e+00 8.011808e-01 1.988192e-01 0.000000e+00 0.000000e+00
 0.000000e+00 0.000000e+00 7.060904e-01 2.939096e-01 0.000000e+00
 0.000000e+00 0.000000e+00 0.000000e+00 7.817748e-01 2.182252e-01
 0.000000e+00 0.000000e+00 0.000000e+00 0.000000e+00 0.000000e+00
<ENDHMM>
~h "er"
<BEGINHMM>
<NUMSTATES> 5
<STATE> 2
<MEAN> 25
 8.984679e+00 -7.768880e+00 6.327840e+00 -9.566336e+00 1.506488e+00 -5.444236e+00 -2.815498e+00 2.775831e+00 2.473555e-01 2.818241e-01 5.034511e-01 -2.666500e-01 -9.138449e-02 2.568960e-02 3.742162e-02 -6.828939e-02 -1.700092e-01 5.725082e-02 2.187041e-01 6.609173e-03 -2.237838e-01 2.358977e-02 1.242634e-01 -9.261689e-02 1.695991e-01
<VARIANCE> 25
 1.877236e+02 1.073518e+02 8.215717e+01 1.072061e+02 8.861213e+01 9.610979e+01 1.289377e+02 8.181950e+01 5.276803e+01 7.321344e+01 4.650214e+01 7.556639e+01 1.387344e+01 7.325069e+00 6.649671e+00 6.598389e+00 6.824536e+00 6.597384e+00 1.039581e+01 7.999494e+00 6.246742e+00 6.874693e+00 4.909651e+00 5.464030e+00 2.106218e+00
<GCONST> 1.241036e+02
<STATE> 3
<MEAN> 25
 7.749709e+00 -6.954239e+00 7.149835e+00 -8.752693e+00 4.401379e-01 -6.697097e+00 -1.320748e+00 2.505600e+00 -7.057504e-01 7.504221e-01 4.906402e-01 3.193305e-01 1.719503e-01 -1.189372e-01 5.717075e-02 4.726421e-01 -4.407296e-01 -2.479987e-01 2.122546e-01 -1.037303e-01 -3.580130e-02 1.620006e-02 -1.161188e-01 3.854474e-02 -6.921968e-02
<VARIANCE> 25
 2.013906e+02 9.857817e+01 8.126820e+01 1.130451e+02 1.152578e+02 9.875839e+01 1.180657e+02 8.177762e+01 5.102954e+01 6.688322e+01 5.049350e+01 5.861647e+01 1.683730e+01 7.640522e+00 6.761308e+00 6.031534e+00 8.348659e+00 7.236856e+00 9.526379e+00 7.465519e+00 6.436455e+00 5.974942e+00 5.312017e+00 5.463667e+00 2.684256e+00
<GCONST> 1.245478e+02
<STATE> 4
<MEAN> 25
 1.132169e+01 -8.298692e+00 5.334119e+00 -2.115228e+00 -2.266192e+00 -8.967447e+00 -2.036470e+00 1.122022e+00 5.898179e-01 6.758686e-01 -1.814567e+00 6.377832e-01 -3.567135e-02 1.939097e-01 -4.680851e-01 3.170108e-01 3.908372e-01 -1.009407e-01 -2.538413e-01 8.596823e-02 1.997499e-01 1.200509e-01 -1.936884e-01 1.068475e-02 -5.777028e-01
<VARIANCE> 25
 1.417552e+02 8.791118e+01 9.452858e+01 1.279172e+02 1.124283e+02 8.049454e+01 8.503249e+01 8.107009e+01 5.414872e+01 6.560920e+01 5.337877e+01 4.522972e+01 1.205568e+01 7.674438e+00 8.972111e+00 9.208735e+00 1.041723e+01 7.102786e+00 7.225863e+00 7.423429e+00 5.803528e+00 6.731199e+00 5.497942e+00 4.549186e+00 5.839969e+00
<GCONST> 1.245683e+02
<TRANSP> 5
 0.000000e+00 1.000000e+00 0.000000e+00 0.000000e+00 0.000000e+00
 0.000000e+00 8.609410e-01 1.390591e-01 0.000000e+00 0.000000e+00
 0.000000e+00 0.000000e+00 8.562270e-01 1.437730e-01 0.000000e+00
 0.000000e+00 0.000000e+00 0.000000e+00 9.477507e-01 5.224928e-02
 0.000000e+00 0.000000e+00 0.000000e+00 0.000000e+00 0.000000e+00
<ENDHMM>
~h "ey"
<BEGINHMM>
<NUMSTATES> 5
<STATE> 2
<MEAN> 25
 1.038736e+00 1.077680e+01 6.860741e+00 2.612458e+00 -4.625866e+00 2.000570e+00 1.966096e+00 2.687477e-01 7.082776e-01 -8.398266e-01 3.048913e+00 -9.770490e-01 2.530767e+00 -1.166245e+00 3.693104e+00 -1.155551e+00 -3.136479e+00 -1.686517e+00 -1.387758e-02 1.277789e+00 -2.383360e+00 -7.677694e-02 1.348443e+00 8.436946e-02 3.409739e+00
<VARIANCE> 25
 9.868404e+01 4.833166e+01 6.967326e+01 5.098378e+01 6.747201e+01 2.031875e+01 1.465895e+01 1.681664e+01 3.233304e+01 1.338796e+01 1.474071e+01 1.526740e+01 8.949834e+00 7.414136e+00 1.670107e+01 5.357366e+00 7.956938e+00 5.493657e+00 6.951591e+00 3.582666e+00 7.066411e+00 5.592393e+00 1.238332e+00 3.031084e+00 1.368910e+01
<GCONST> 1.101074e+02
<STATE> 3
<MEAN> 25
 6.263068e+00 6.179709e+00 1.347339e+01 -9.540585e-01 -1.096845e+01 -2.740958e+00 4.126117e-01 2.510084e+00 -5.605575e+00 -1.012601e+00 5.738695e+00 -2.339436e-01 2.379374e+00 -2.323447e+00 3.830741e+00 -1.628015e+00 -2.869969e+00 -1.816793e+00 -3.011209e-01 1.152419e+00 -3.165109e+00 -1.248098e-01 9.696038e-01 -1.757807e-01 4.232124e+00
<VARIANCE> 25
 6.069698e+01 6.973302e+01 1.078492e+02 6.873922e+01 6.288409e+01 6.614076e+01 5.965781e+01 3.391825e+01 6.105189e+01 5.673486e+01 1.310738e+01 2.307482e+01 9.895778e+00 4.488812e+00 2.015435e+01 8.780931e+00 7.344026e+00 4.966822e+00 7.281911e+00 3.528839e+00 1.041369e+01 5.415176e+00 1.982982e+00 2.922320e+00 1.513097e+01
<GCONST> 1.173350e+02
<STATE> 4
<MEAN> 25
 1.567670e+01 -1.331983e+01 1.878988e+01 -5.701419e+00 -1.315941e+01 -6.208611e+00 -3.732890e+00 6.100265e+00 -8.129676e+00 2.423865e-01 1.615201e+00 1.558750e+00 6.413453e-01 -1.212990e+00 -2.624328e-01 -2.252654e-01 2.856545e-02 -2.484578e-01 -2.344882e-01 2.300353e-01 2.171124e-01 2.580560e-01 -3.638992e-01 1.296435e-01 1.150240e+00
<VARIANCE> 25
 2.864808e+01 8.249437e+01 1.090088e+02 8.556834e+01 3.938385e+01 4.353817e+01 4.412832e+01 6.179263e+01 8.855181e+01 4.388241e+01 3.048938e+01 1.735255e+01 2.341158e+00 2.878891e+00 6.676096e+00 5.813869e+00 4.780048e+00 4.495599e+00 2.970142e+00 3.841035e+00 6.503612e+00 2.948055e+00 2.650561e+00 1.929585e+00 4.534735e+00
<GCONST> 1.099157e+02
<TRANSP> 5
 0.000000e+00 1.000000e+00 0.000000e+00 0.000000e+00 0.000000e+00
 0.000000e+00 2.199464e-01 7.800535e-01 0.000000e+00 0.000000e+00
 0.000000e+00 0.000000e+00 3.668218e-01 6.331782e-01 0.000000e+00
 0.000000e+00 0.000000e+00 0.000000e+00 9.451153e-01 5.488468e-02
 0.000000e+00 0.000000e+00 0.000000e+00 0.000000e+00 0.000000e+00
<ENDHMM>
~h "ih"
<BEGINHMM>
<NUMSTATES> 5
<STATE> 2
<MEAN> 25
 -1.006103e+01 5.873478e+00 -2.063867e+00 3.197520e+00 1.614281e+00 2.315863e+00 1.577574e+00 -1.750546e+00 4.452103e-01 -2.527227e+00 4.509287e-01 1.561804e+00 2.544265e-01 -3.464669e-02 -3.082508e-02 -1.142769e-01 -9.036556e-02 -1.495210e-01 -1.722692e-01 -1.146606e-02 -6.103702e-02 -1.963655e-02 -1.009326e-01 -6.978039e-02 2.467771e-01
<VARIANCE> 25
 2.919433e+01 1.903854e+01 1.557206e+01 3.502084e+01 1.646496e+01 2.191656e+01 1.571141e+01 2.277739e+01 1.843656e+01 1.554666e+01 1.784589e+01 1.557593e+01 1.775893e+00 1.032076e+00 1.286573e+00 1.702268e+00 1.617981e+00 2.163092e+00 1.571532e+00 1.807903e+00 1.501768e+00 1.322462e+00 1.508343e+00 1.392889e+00 2.182042e+00
<GCONST> 8.751865e+01
<STATE> 3
<MEAN> 25
 -9.068209e+00 4.038738e+00 -1.782639e+00 2.911841e+00 1.262304e+00 1.882223e+00 2.047390e+00 2.336649e-01 1.043686e+00 -1.563571e+00 -6.471739e-01 6.636618e-01 3.065996e-01 -1.700511e-01 7.160295e-02 3.715666e-02 -5.127013e-02 -5.497988e-02 5.036016e-02 8.286254e-02 -6.434796e-02 4.573227e-02 -1.985043e-01 -8.015081e-02 3.721774e-01
<VARIANCE> 25
 3.512999e+01 2.235054e+01 1.525941e+01 2.590390e+01 1.613456e+01 2.308210e+01 1.604995e+01 2.049288e+01 1.575616e+01 1.286573e+01 1.935992e+01 1.312280e+01 1.788252e+00 1.380723e+00 1.142066e+00 1.633981e+00 1.738563e+00 1.739154e+00 1.382464e+00 1.577135e+00 1.418438e+00 1.448595e+00 1.344617e+00 1.208855e+00 1.343405e+00
<GCONST> 8.607236e+01
<STATE> 4
<MEAN> 25
 -6.144371e+00 4.668073e+00 -1.271794e+00 3.407751e+00 7.359586e-01 -1.868683e-01 1.013530e+00 -8.475463e-01 1.157381e+00 -1.151916e+00 -1.840422e+00 3.836226e-01 4.932432e-01 -5.988586e-01 2.961826e-01 7.718860e-02 1.412212e-01 -5.470655e-01 -1.004431e-01 -8.527526e-02 -6.285936e-02 1.454509e-01 -2.430510e-01 -6.093176e-02 1.044593e+00
<VARIANCE> 25
 4.258086e+01 4.858534e+01 2.223739e+01 2.223061e+01 1.898564e+01 2.994670e+01 2.032043e+01 1.706265e+01 1.748847e+01 1.622300e+01 2.199289e+01 1.302632e+01 3.379801e+00 3.418545e+00 2.035771e+00 1.936575e+00 2.226969e+00 2.751717e+00 2.319763e+00 1.270806e+00 2.678569e+00 1.815373e+00 1.422509e+00 1.497135e+00 2.681254e+00
<GCONST> 9.331884e+01
<TRANSP> 5
 0.000000e+00 1.000000e+00 0.000000e+00 0.000000e+00 0.000000e+00
 0.000000e+00 7.171063e-01 2.828936e-01 0.000000e+00 0.000000e+00
 0.000000e+00 0.000000e+00 6.129107e-01 3.870893e-01 0.000000e+00
 0.000000e+00 0.000000e+00 0.000000e+00 5.551565e-01 4.448435e-01
 0.000000e+00 0.000000e+00 0.000000e+00 0.000000e+00 0.000000e+00
<ENDHMM>
~h "iy"
<BEGINHMM>
<NUMSTATES> 5
<STATE> 2
<MEAN> 25
 -3.743600e+00 9.994854e+00 1.716602e+00 7.054840e+00 -2.973354e-01 8.198606e-01 -2.133667e-02 -4.798047e+00 -2.782785e+00 -4.549806e+00 -1.656048e+00 -7.371488e-01 -9.656686e-01 -7.380043e-01 -4.897469e-01 7.950039e-02 3.661787e-01 2.257755e-01 1.816024e-01 3.977875e-01 1.125616e-01 -2.231194e-02 -1.913249e-02 -9.950113e-02 -5.736880e-01
<VARIANCE> 25
 2.440846e+01 2.160433e+01 1.908090e+01 1.850751e+01 1.541380e+01 2.208057e+01 1.547255e+01 2.251344e+01 1.372757e+01 1.661575e+01 1.858346e+01 2.328472e+01 1.028751e+00 1.418042e+00 1.671237e+00 1.203999e+00 1.519327e+00 1.309510e+00 1.683334e+00 1.824536e+00 1.322712e+00 1.328877e+00 1.242064e+00 1.609377e+00 2.592575e-01
<GCONST> 8.405814e+01
<STATE> 3
<MEAN> 25
 -7.516238e+00 7.110301e+00 -3.954118e-01 5.350015e+00 2.838310e-01 1.272440e+00 5.589871e-01 -3.208883e+00 -2.231225e+00 -3.960479e+00 -9.780428e-01 -1.540429e-01 -6.123492e-01 -4.216752e-01 -4.538142e-01 -1.437196e-01 2.623558e-01 2.549504e-01 1.486183e-01 3.359599e-01 2.202125e-01 -3.113747e-02 -1.250005e-02 -1.163261e-02 -3.379387e-01
<VARIANCE> 25
 9.699930e+00 1.191333e+01 1.277799e+01 1.670085e+01 1.137137e+01 1.529065e+01 1.363154e+01 1.473593e+01 1.387492e+01 1.434459e+01 1.825134e+01 2.271499e+01 4.180307e-01 6.459978e-01 6.097293e-01 8.267220e-01 1.061466e+00 1.090661e+00 1.140006e+00 1.202312e+00 1.374054e+00 1.616409e+00 1.079160e+00 1.678829e+00 9.701477e-02
<GCONST> 7.536851e+01
<STATE> 4
<MEAN> 25
 -8.619127e+00 4.983423e+00 -4.022609e+00 5.541758e+00 3.168265e+00 3.472936e+00 1.429486e+00 -2.687449e+00 -1.185798e-01 -2.176999e+00 -1.029615e+00 -1.002334e+00 -6.249608e-02 -3.599957e-02 -4.091822e-02 -2.225330e-02 2.918380e-02 3.080584e-02 2.501658e-02 4.664163e-02 5.635954e-02 2.633446e-02 1.641832e-02 5.861979e-03 -3.568576e-02
<VARIANCE> 25
 7.906752e+00 7.274116e+00 2.257406e+01 1.359151e+01 2.187687e+01 1.828525e+01 1.328693e+01 1.669395e+01 1.289256e+01 2.019518e+01 1.564000e+01 1.182511e+01 2.258824e-01 4.489771e-01 7.580649e-01 7.938570e-01 1.037031e+00 1.121644e+00 1.064842e+00 1.175324e+00 1.191035e+00 1.305685e+00 1.421894e+00 1.101246e+00 7.816023e-02
<GCONST> 7.382088e+01
<TRANSP> 5
 0.000000e+00 1.000000e+00 0.000000e+00 0.000000e+00 0.000000e+00
 0.000000e+00 6.247560e-01 3.752440e-01 0.000000e+00 0.000000e+00
 0.000000e+00 0.000000e+00 5.175149e-01 4.824851e-01 0.000000e+00
 0.000000e+00 0.000000e+00 0.000000e+00 9.629844e-01 3.701558e-02
 0.000000e+00 0.000000e+00 0.000000e+00 0.000000e+00 0.000000e+00
<ENDHMM>
~h "ng"
<BEGINHMM>
<NUMSTATES> 5
<STATE> 2
<MEAN> 25
 1.749913e+01 -5.543324e+00 4.945930e+00 1.658454e-01 -9.863521e+00 -3.133589e+00 8.434233e+00 -1.580495e+00 -1.333397e+01 1.942332e+00 4.673797e-01 -4.546525e+00 3.698471e-01 1.825048e+00 -1.063004e+00 2.636425e-01 5.428494e-01 4.688362e-01 -6.737276e-01 -1.906836e+00 5.160218e-01 5.882736e-01 -9.740484e-02 3.341577e-01 -9.329308e-01
<VARIANCE> 25
 1.410439e+01 1.118137e+02 8.802601e+01 1.065120e+02 9.108481e+01 3.939909e+01 1.120574e+02 1.408325e+02 6.713467e+01 3.863681e+01 3.468708e+01 3.248522e+01 1.679532e+00 1.027589e+01 8.092326e+00 1.213283e+01 7.930682e+00 5.193913e+00 1.262960e+01 1.444807e+01 7.108110e+00 4.290064e+00 3.492737e+00 2.550024e+00 3.943838e+00
<GCONST> 1.185328e+02
<STATE> 3
<MEAN> 25
 1.826841e+01 -1.602666e+00 1.035276e+00 -1.814622e+00 -4.898556e+00 -2.179151e+00 1.252855e+00 -5.709767e+00 -7.672554e+00 3.821378e+00 -1.054572e+00 -3.446466e+00 1.125886e-01 -5.252576e-02 -6.753557e-01 -1.127038e+00 1.181123e+00 2.462771e-01 -1.819935e+00 -2.134258e-01 1.483726e+00 5.225520e-01 -4.093708e-01 1.945811e-02 3.367811e-01
<VARIANCE> 25
 1.442015e+01 1.191889e+02 6.708041e+01 1.359705e+02 1.168970e+02 5.259360e+01 1.438076e+02 1.440697e+02 9.103402e+01 3.881100e+01 4.379109e+01 3.273994e+01 1.924416e+00 1.525331e+01 8.106232e+00 1.234353e+01 9.999628e+00 7.598024e+00 1.316697e+01 1.815405e+01 5.241024e+00 4.848788e+00 4.452465e+00 2.883228e+00 5.528640e+00
<GCONST> 1.219050e+02
<STATE> 4
<MEAN> 25
 1.784645e+01 -7.622318e+00 1.646354e+00 -1.506202e+01 1.149285e+00 2.269525e+00 -9.758278e+00 -1.947742e+00 -9.218361e-01 8.385448e+00 -2.259177e+00 -3.100972e+00 2.558255e-02 3.781697e-02 -2.154481e-01 -3.773556e-01 3.384160e-01 2.215077e-01 -5.911644e-01 -1.627900e-01 3.778371e-01 1.509400e-01 -1.410789e-01 5.426001e-02 1.576817e-02
<VARIANCE> 25
 1.091607e+01 9.189944e+01 5.142799e+01 1.700036e+02 8.723357e+01 4.850230e+01 9.565520e+01 1.415215e+02 5.385099e+01 4.810556e+01 4.368951e+01 3.010025e+01 9.976826e-01 6.482463e+00 3.382385e+00 8.809238e+00 5.654265e+00 4.124633e+00 5.628046e+00 1.098678e+01 3.463909e+00 3.793679e+00 3.150445e+00 2.532762e+00 3.011760e+00
<GCONST> 1.131286e+02
<TRANSP> 5
 0.000000e+00 1.000000e+00 0.000000e+00 0.000000e+00 0.000000e+00
 0.000000e+00 7.754977e-01 2.245023e-01 0.000000e+00 0.000000e+00
 0.000000e+00 0.000000e+00 7.927818e-01 2.072181e-01 0.000000e+00
 0.000000e+00 0.000000e+00 0.000000e+00 9.244239e-01 7.557610e-02
 0.000000e+00 0.000000e+00 0.000000e+00 0.000000e+00 0.000000e+00
<ENDHMM>
~h "th"
<BEGINHMM>
<NUMSTATES> 5
<STATE> 2
<MEAN> 25
 1.423512e+01 -4.132468e+00 2.035167e+01 1.392515e-01 -2.022925e+01 -5.422464e+00 8.366514e-01 -3.142344e+00 -1.100993e+01 -2.487886e+00 1.704029e+00 1.053843e+00 -2.939543e-01 1.809549e+00 9.053952e-02 2.208794e-01 -4.513801e-01 1.882528e-02 2.784992e-01 -3.695810e-01 -4.102953e-01 2.228908e-01 1.598252e-01 -1.649046e-01 -1.347716e+00
<VARIANCE> 25
 2.034834e+01 1.336500e+02 6.870865e+01 9.093376e+01 8.355090e+01 5.970325e+01 1.300754e+02 6.536691e+01 9.384152e+01 5.139056e+01 4.577143e+01 3.380730e+01 2.268412e+00 5.906191e+00 6.218235e+00 6.014493e+00 9.974092e+00 6.354315e+00 9.725747e+00 4.881102e+00 9.767460e+00 4.180004e+00 5.350969e+00 3.881418e+00 3.608703e+00
<GCONST> 1.182357e+02
<STATE> 3
<MEAN> 25
 7.726449e+00 1.618683e+01 1.198858e+01 2.057078e+00 -1.440983e+01 -5.254510e+00 4.814038e-01 -6.255169e+00 -4.317878e+00 1.324200e+00 -1.862143e-01 -1.131184e+00 -2.526577e+00 -1.997889e-01 -2.555610e+00 -1.197781e-01 2.760707e+00 4.132695e-01 -1.172761e+00 7.295524e-01 1.241557e+00 -7.865323e-01 -2.970596e-01 2.945881e-01 -2.262225e+00
<VARIANCE> 25
 2.193573e+01 4.417987e+01 4.439853e+01 2.573318e+01 3.097252e+01 4.673411e+01 3.456777e+01 3.464175e+01 1.600096e+01 2.059309e+01 2.602255e+01 1.298671e+01 1.520018e+00 4.794034e+00 3.658522e+00 4.371224e+00 7.683018e+00 5.725767e+00 1.040633e+01 3.125734e+00 5.281505e+00 3.572429e+00 2.553400e+00 1.116760e+00 6.983497e-01
<GCONST> 1.015009e+02
<STATE> 4
<MEAN> 25
 2.600176e+00 1.245837e+01 5.914501e+00 1.207765e+00 -1.215241e+01 -3.842821e+00 4.606311e-01 -5.170987e+00 -4.443811e+00 -1.451906e+00 -1.447170e+00 -8.017386e-01 -2.150282e+00 -1.434642e+00 -2.000665e+00 -5.166041e-01 1.658359e+00 9.799423e-01 -3.413270e-01 2.206016e-01 3.258668e-01 -5.725412e-01 -2.366641e-01 1.690063e-01 -1.373633e+00
<VARIANCE> 25
 2.131274e+01 3.899909e+01 3.895169e+01 1.594190e+01 2.822261e+01 1.875686e+01 2.015462e+01 1.814980e+01 1.743439e+01 9.825329e+00 2.368167e+01 1.209836e+01 2.934074e+00 1.588350e+00 2.202513e+00 1.733150e+00 5.122623e+00 2.683314e+00 4.754803e+00 1.747381e+00 2.685258e+00 1.548053e+00 1.978031e+00 5.791938e-01 1.292779e+00
<GCONST> 9.151018e+01
<TRANSP> 5
 0.000000e+00 1.000000e+00 0.000000e+00 0.000000e+00 0.000000e+00
 0.000000e+00 9.352506e-01 6.474938e-02 0.000000e+00 0.000000e+00
 0.000000e+00 0.000000e+00 4.845695e-01 5.154306e-01 0.000000e+00
 0.000000e+00 0.000000e+00 0.000000e+00 5.358363e-01 4.641637e-01
 0.000000e+00 0.000000e+00 0.000000e+00 0.000000e+00 0.000000e+00
<ENDHMM>
~h "uw"
<BEGINHMM>
<NUMSTATES> 5
<STATE> 2
<MEAN> 25
 -4.312166e+00 6.579072e+00 -2.042419e-01 2.820200e+00 -8.259402e-01 -3.442466e-03 1.050594e+00 -9.130329e-01 -3.636667e+00 -4.244514e+00 -5.683593e-01 -5.947440e-01 -9.483390e-01 -5.357189e-01 4.116929e-02 4.734766e-01 1.431122e-01 -3.819089e-02 1.188138e-01 2.336259e-01 1.390336e-01 -5.190993e-02 -3.446733e-01 -2.619347e-01 -4.372343e-01
<VARIANCE> 25
 1.646306e+01 1.655043e+01 1.738678e+01 2.940465e+01 1.663908e+01 2.290807e+01 2.174007e+01 2.211423e+01 1.809810e+01 1.887314e+01 1.688505e+01 2.120128e+01 1.353073e+00 1.293025e+00 1.097821e+00 1.063347e+00 1.142666e+00 1.566616e+00 1.440212e+00 1.575050e+00 1.664482e+00 1.735978e+00 1.688989e+00 1.287261e+00 4.501197e-01
<GCONST> 8.477895e+01
<STATE> 3
<MEAN> 25
 -6.368577e+00 5.813797e+00 2.502393e-01 4.053622e+00 -7.118922e-02 -2.566336e-01 4.890621e-01 -4.868419e-01 -2.525835e+00 -4.032807e+00 -1.035946e+00 -6.626436e-01 -5.412150e-01 -2.742973e-01 1.261015e-01 3.161323e-01 3.834555e-01 1.441345e-01 2.586425e-01 2.672238e-01 3.316747e-01 -9.636336e-02 -2.827817e-01 -9.133313e-02 -1.743813e-01
<VARIANCE> 25
 1.072543e+01 1.285288e+01 2.565901e+01 3.867789e+01 1.889407e+01 2.327728e+01 1.708601e+01 2.344996e+01 1.601357e+01 1.794135e+01 1.422019e+01 1.982846e+01 8.284344e-01 9.031331e-01 1.261950e+00 8.600283e-01 1.248477e+00 1.697046e+00 1.933650e+00 2.040731e+00 1.471370e+00 1.743712e+00 1.582258e+00 1.252188e+00 4.042084e-01
<GCONST> 8.379050e+01
<STATE> 4
<MEAN> 25
 2.265151e+00 1.213050e+00 3.329936e-02 -2.572826e+00 1.600275e+00 -7.909337e-01 -2.150220e+00 -1.560851e+00 -1.596202e+00 -1.371865e+00 -1.071793e+00 -4.523969e-01 -6.587115e-02 -5.523553e-02 3.695028e-02 8.669934e-02 1.021257e-01 2.616328e-02 1.149467e-01 7.643156e-02 1.355113e-01 5.798264e-02 2.840448e-02 -1.450157e-03 1.039968e-02
<VARIANCE> 25
 1.744299e+02 6.253501e+01 4.431750e+01 1.340600e+02 4.938801e+01 6.606243e+01 5.131153e+01 3.094650e+01 2.189866e+01 3.384616e+01 2.498293e+01 1.759839e+01 2.834724e+00 4.258987e+00 3.006987e+00 4.920527e+00 2.387360e+00 3.260269e+00 4.140135e+00 3.129809e+00 2.582858e+00 3.748804e+00 3.028214e+00 1.898471e+00 3.811946e+00
<GCONST> 1.072451e+02
<TRANSP> 5
 0.000000e+00 1.000000e+00 0.000000e+00 0.000000e+00 0.000000e+00
 0.000000e+00 7.023958e-01 2.976041e-01 0.000000e+00 0.000000e+00
 0.000000e+00 0.000000e+00 6.044493e-01 3.955506e-01 0.000000e+00
 0.000000e+00 0.000000e+00 0.000000e+00 8.121716e-01 1.878284e-01
 0.000000e+00 0.000000e+00 0.000000e+00 0.000000e+00 0.000000e+00
<ENDHMM>
~h "sil"
<BEGINHMM>
<NUMSTATES> 5
<STATE> 2
<MEAN> 25
 -1.099307e+01 4.635756e+00 -1.978004e+00 4.450584e+00 9.672879e-01 2.875516e+00 2.454540e+00 3.533900e-01 1.372879e+00 -1.622721e+00 7.188218e-01 8.413406e-01 -3.943589e-02 -1.920175e-02 1.344916e-02 5.142903e-02 7.180204e-02 3.301575e-02 2.782276e-02 4.067959e-02 1.612367e-02 -5.501267e-03 -2.426413e-03 3.074795e-03 -2.220419e-02
<VARIANCE> 25
 1.205213e+01 6.756711e+00 9.494272e+00 1.428625e+01 1.011538e+01 1.284999e+01 1.411154e+01 1.903758e+01 1.705682e+01 1.453770e+01 1.557119e+01 1.405108e+01 1.128521e-01 2.432981e-01 3.913818e-01 5.907311e-01 7.639834e-01 8.598475e-01 9.929446e-01 1.200390e+00 1.168219e+00 1.203304e+00 1.141334e+00 1.115680e+00 4.703554e-02
<GCONST> 6.884001e+01
<STATE> 3
<MEAN> 25
 -1.253518e+01 3.694907e+00 -2.206153e+00 4.976315e+00 1.728433e+00 3.571487e+00 3.318218e+00 2.224314e+00 3.294715e+00 -5.015793e-01 1.603608e+00 1.894850e+00 1.680877e-02 3.870844e-02 1.315529e-02 -5.423516e-02 -7.087864e-02 -9.070793e-02 -5.415388e-02 1.444601e-02 1.699852e-02 4.309225e-02 -4.706558e-03 9.158421e-03 3.850069e-03
<VARIANCE> 25
 1.676472e+01 8.779623e+00 1.078997e+01 1.282939e+01 9.522552e+00 1.252056e+01 1.474995e+01 1.959226e+01 2.357821e+01 1.540891e+01 1.448033e+01 1.451239e+01 1.434112e-01 3.163388e-01 4.321411e-01 5.809504e-01 7.693097e-01 7.670001e-01 9.916298e-01 1.247383e+00 1.407471e+00 1.189136e+00 1.067775e+00 1.069703e+00 1.286668e-01
<GCONST> 7.136694e+01
<STATE> 4
<MEAN> 25
 -9.247808e+00 4.744735e+00 -1.642129e+00 4.693999e+00 8.191361e-01 1.856258e+00 1.629001e+00 -3.368042e-01 1.553524e-01 -2.427314e+00 -5.378550e-01 1.984936e-01 9.023137e-02 4.036677e-02 3.463347e-02 -1.059694e-02 -5.352321e-02 -6.030907e-02 -4.813305e-02 -6.082420e-02 -5.299801e-02 -2.402836e-02 -4.117379e-02 -4.492964e-02 5.988359e-02
<VARIANCE> 25
 1.546367e+01 1.389110e+01 1.663345e+01 1.516517e+01 1.322054e+01 1.558663e+01 1.586604e+01 1.650316e+01 1.660188e+01 1.634747e+01 1.469246e+01 1.345585e+01 6.819215e-01 6.804884e-01 6.422554e-01 8.696616e-01 1.081310e+00 1.278866e+00 1.305434e+00 1.237889e+00 1.371305e+00 1.348740e+00 1.243137e+00 1.140697e+00 8.141665e-01
<GCONST> 7.884584e+01
<TRANSP> 5
 0.000000e+00 1.000000e+00 0.000000e+00 0.000000e+00 0.000000e+00
 0.000000e+00 9.530485e-01 4.695140e-02 0.000000e+00 0.000000e+00
 0.000000e+00 0.000000e+00 7.266065e-01 2.733935e-01 0.000000e+00
 0.000000e+00 0.000000e+00 0.000000e+00 8.817911e-01 1.182090e-01
 0.000000e+00 0.000000e+00 0.000000e+00 0.000000e+00 0.000000e+00
<ENDHMM>
