~o
<STREAMINFO> 1 25
<VECSIZE> 25<NULLD><MFCC_D_N_Z_0><DIAGC>
~s "silst"
<MEAN> 25
 -1.470234e+01 3.134868e+00 -2.225714e+00 5.895318e+00 1.536705e+00 4.321468e+00 4.628657e+00 4.318666e+00 6.147538e+00 1.643884e+00 3.666910e+00 3.899447e+00 -9.460459e-03 5.686336e-03 1.870479e-02 3.041267e-02 1.428188e-02 6.932701e-03 3.294542e-03 -7.081748e-02 -9.494480e-02 -2.570813e-02 1.283322e-02 9.276707e-03 -5.240278e-03
<VARIANCE> 25
 8.523809e+00 6.501907e+00 9.645573e+00 9.241812e+00 1.005370e+01 1.032626e+01 1.125049e+01 1.479485e+01 1.586312e+01 1.092138e+01 1.018454e+01 8.189890e+00 5.055577e-02 1.414466e-01 2.424507e-01 3.852248e-01 5.624193e-01 5.068969e-01 7.908639e-01 1.125147e+00 1.365724e+00 1.003039e+00 8.191628e-01 8.616246e-01 3.817413e-02
<GCONST> 6.180559e+01
~h "b"
<BEGINHMM>
<NUMSTATES> 5
<STATE> 2
<MEAN> 25
 2.034065e+01 -4.448279e+00 2.616560e+00 -8.023489e+00 -3.196537e+00 6.817253e+00 -8.950634e+00 -1.615197e+01 -4.409987e+00 6.440120e+00 -1.295799e+00 -1.613745e+00 2.472562e-01 2.734844e-01 -2.205880e-01 -1.128049e+00 -2.100666e-01 2.909253e-01 1.010048e-01 -2.456453e-01 -4.495092e-01 3.679170e-01 1.704783e-01 -1.273384e-02 1.817260e-01
<VARIANCE> 25
 9.622869e+00 5.434827e+01 6.130218e+01 1.949856e+02 7.147947e+01 7.019054e+01 9.263347e+01 8.035081e+01 5.837398e+01 2.926911e+01 6.664175e+01 2.488056e+01 6.557203e-01 6.574924e+00 4.834337e+00 8.766665e+00 7.452598e+00 5.731865e+00 6.683932e+00 6.901299e+00 5.078047e+00 2.898916e+00 4.245686e+00 2.378645e+00 3.195070e+00
<GCONST> 1.128450e+02
<STATE> 3
<MEAN> 25
 2.188934e+01 1.130596e+01 -9.529834e+00 -1.258602e+01 2.078436e-01 5.971114e+00 -3.479394e+00 -1.343143e+01 -1.006939e+01 2.315755e+00 2.982864e+00 1.763026e+00 -8.691630e-01 2.162417e+00 -9.550794e-01 9.756693e-01 8.333137e-01 -3.605833e-01 7.104868e-01 1.753967e+00 2.118288e-01 -1.586879e+00 9.162385e-01 8.316872e-01 -2.086924e+00
<VARIANCE> 25
 6.916676e+00 1.405948e+01 1.260555e+01 7.680307e+01 2.857438e+01 1.921119e+01 2.711286e+01 5.377747e+01 3.151453e+01 2.355006e+01 1.861821e+01 9.988482e+00 1.347706e+00 1.360348e+00 4.713496e+00 4.575042e+00 5.010780e+00 3.258976e+00 4.037008e+00 4.431561e+00 2.899885e+00 2.298183e+00 4.265102e+00 1.998343e+00 5.602989e-01
<GCONST> 9.564229e+01
<STATE> 4
<MEAN> 25
 1.526507e+01 1.581019e+01 -6.213359e+00 -8.273913e+00 -2.420210e+00 5.320772e+00 1.037861e+00 -7.787717e+00 -7.784689e+00 -2.470061e+00 3.480107e+00 2.872971e+00 -2.970998e+00 3.326509e-02 1.816268e+00 1.734639e+00 -9.158319e-01 -1.116774e+00 6.321184e-01 1.706287e+00 1.650302e+00 -6.779113e-01 -3.954401e-01 4.217408e-02 -2.137814e+00
<VARIANCE> 25
 2.132453e+01 1.031047e+01 1.951278e+01 5.395517e+01 6.270227e+01 4.563144e+01 2.116305e+01 4.040652e+01 3.134503e+01 4.297370e+01 2.974158e+01 2.841446e+01 2.110786e+00 1.737415e+00 1.771354e+00 2.020529e+00 3.469134e+00 3.842601e+00 1.979043e+00 4.999260e+00 2.217043e+00 2.009819e+00 1.693923e+00 1.200427e+00 7.777331e-01
<GCONST> 9.636358e+01
<TRANSP> 5
 0.000000e+00 1.000000e+00 0.000000e+00 0.000000e+00 0.000000e+00
 0.000000e+00 9.279279e-01 7.207212e-02 0.000000e+00 0.000000e+00
 0.000000e+00 0.000000e+00 7.486350e-01 2.513650e-01 0.000000e+00
 0.000000e+00 0.000000e+00 0.000000e+00 6.692778e-01 3.307222e-01
 0.000000e+00 0.000000e+00 0.000000e+00 0.000000e+00 0.000000e+00
<ENDHMM>
~h "d"
<BEGINHMM>
<NUMSTATES> 5
<STATE> 2
<MEAN> 25
 -1.683744e+01 2.121849e+00 -5.867448e-01 7.223617e+00 1.680179e+00 3.569600e+00 4.955409e+00 4.136708e+00 5.129424e+00 1.538866e+00 4.750038e+00 3.892225e+00 -1.422278e-02 6.196832e-03 -3.139636e-03 2.949349e-03 1.519029e-02 -9.935123e-03 -4.360167e-02 9.958001e-03 9.457438e-02 3.960413e-02 -3.874833e-03 -2.794103e-02 -1.052888e-02
<VARIANCE> 25
 6.416266e+00 6.237417e+00 5.422952e+00 7.762955e+00 7.132553e+00 8.394050e+00 1.093295e+01 1.448527e+01 1.097760e+01 9.806200e+00 9.819098e+00 8.428465e+00 4.478738e-02 1.502875e-01 2.421671e-01 3.771299e-01 4.541585e-01 5.158490e-01 7.490939e-01 1.157651e+00 1.239470e+00 1.091679e+00 7.923375e-01 8.924785e-01 3.817413e-02
<GCONST> 5.933046e+01
<STATE> 3
<MEAN> 25
 -1.319083e+01 5.701644e+00 -1.568003e+00 2.405729e+00 1.584215e+00 2.575493e+00 5.623745e-01 1.868870e+00 1.324155e+00 -1.955978e+00 9.260793e-01 1.946758e+00 -6.954056e-03 2.035053e-02 3.592354e-02 2.553231e-02 3.300314e-02 6.119410e-02 1.623275e-02 -7.942542e-02 -1.349256e-01 -7.135854e-02 1.101788e-02 -1.440573e-02 -1.314850e-02
<VARIANCE> 25
 4.672487e+00 3.775401e+00 1.206908e+01 1.950637e+01 1.042788e+01 1.059546e+01 1.478646e+01 1.456548e+01 1.133120e+01 1.090730e+01 1.056060e+01 1.028147e+01 1.118626e-01 2.502623e-01 3.709752e-01 6.432716e-01 7.778414e-01 8.789619e-01 1.083288e+00 9.792590e-01 1.210577e+00 1.038656e+00 1.213599e+00 1.185191e+00 3.817413e-02
<GCONST> 6.585743e+01
<STATE> 4
<MEAN> 25
 -1.081321e+01 4.490336e+00 2.544383e-01 2.962777e+00 1.916337e+00 1.502628e+00 1.457942e+00 1.340507e+00 4.338968e-01 -1.745623e+00 -1.130382e+00 9.963771e-01 2.434032e-01 4.805712e-02 9.933102e-02 8.228708e-02 3.544959e-02 -6.105126e-02 -8.808874e-02 -2.268161e-01 -1.580130e-01 7.411353e-02 -7.228257e-02 -1.251057e-01 2.012455e-01
<VARIANCE> 25
 1.581628e+01 7.011823e+00 1.901502e+01 2.531232e+01 1.467581e+01 1.488855e+01 2.495646e+01 1.734398e+01 2.573741e+01 1.416336e+01 2.103592e+01 2.155373e+01 1.519904e+00 6.716514e-01 6.391230e-01 1.460925e+00 1.339665e+00 1.610721e+00 1.314000e+00 1.385471e+00 2.879284e+00 1.478057e+00 1.361833e+00 1.799399e+00 2.280882e+00
<GCONST> 8.479403e+01
<TRANSP> 5
 0.000000e+00 1.000000e+00 0.000000e+00 0.000000e+00 0.000000e+00
 0.000000e+00 9.132978e-01 8.670215e-02 0.000000e+00 0.000000e+00
 0.000000e+00 0.000000e+00 8.855529e-01 1.144471e-01 0.000000e+00
 0.000000e+00 0.000000e+00 0.000000e+00 6.378667e-01 3.621332e-01
 0.000000e+00 0.000000e+00 0.000000e+00 0.000000e+00 0.000000e+00
<ENDHMM>
~h "f"
<BEGINHMM>
<NUMSTATES> 5
<STATE> 2
<MEAN> 25
 -1.797948e+01 3.426297e+00 -2.551371e+00 5.070141e+00 1.981668e+00 5.555106e+00 5.799930e+00 4.479857e+00 6.450106e+00 1.232456e+00 4.500337e+00 4.006282e+00 5.702093e-03 8.352232e-03 7.173397e-03 7.303650e-03 1.653653e-02 -1.818953e-02 -7.206368e-02 -7.817417e-03 1.040239e-01 5.683484e-02 1.435709e-03 -1.220736e-02 -3.445218e-03
<VARIANCE> 25
 5.574403e+00 4.974008e+00 9.672470e+00 1.196743e+01 8.722899e+00 8.414833e+00 9.491497e+00 1.560519e+01 1.275578e+01 9.586458e+00 1.006851e+01 8.256898e+00 3.726481e-02 1.366019e-01 2.154562e-01 3.554028e-01 4.481212e-01 4.399775e-01 7.348067e-01 1.145448e+00 1.080673e+00 1.043251e+00 8.176034e-01 9.757609e-01 3.817413e-02
<GCONST> 5.952400e+01
<STATE> 3
<MEAN> 25
 -1.665545e+01 5.230689e+00 -1.691761e+00 3.995051e+00 2.112961e+00 6.257439e+00 4.316700e+00 1.300036e+00 4.095852e+00 6.295037e-02 3.295190e+00 3.484848e+00 6.760128e-03 -6.938106e-02 1.434090e-01 -5.205819e-02 -3.944115e-02 3.281583e-01 6.039318e-01 -2.292248e-01 -1.302878e+00 -5.998174e-01 -1.485642e-01 -1.785855e-02 6.810577e-02
<VARIANCE> 25
 1.110324e+01 3.909136e+00 7.276574e+00 1.235549e+01 8.362448e+00 7.710249e+00 1.155435e+01 1.335584e+01 8.541972e+00 8.193100e+00 7.214547e+00 6.502608e+00 1.056628e-01 1.091630e-01 1.652166e-01 2.822940e-01 8.793230e-01 4.215404e-01 8.496102e-01 8.370221e-01 5.558140e-01 7.141686e-01 4.675626e-01 4.551674e-01 6.357064e-02
<GCONST> 5.743022e+01
<STATE> 4
<MEAN> 25
 -1.177118e+01 3.990454e+00 -2.210728e+00 1.275559e+00 2.618389e+00 3.567364e+00 2.224791e+00 7.117572e-01 5.150266e-01 -1.362691e+00 5.825510e-01 1.399374e+00 2.339375e-01 2.506077e-02 4.724208e-03 -6.707433e-02 -4.794177e-02 -1.600130e-01 -1.194509e-01 -1.168745e-01 -1.482441e-01 -6.786602e-02 -1.181991e-01 -9.582893e-02 1.977631e-01
<VARIANCE> 25
 1.117994e+01 6.053247e+00 1.396514e+01 1.559064e+01 1.136383e+01 1.458468e+01 1.449863e+01 2.502658e+01 1.593480e+01 1.143743e+01 1.458000e+01 1.204829e+01 1.197631e+00 5.765034e-01 6.426089e-01 8.940945e-01 1.246250e+00 1.556912e+00 1.409388e+00 1.278533e+00 1.596630e+00 1.119931e+00 1.109514e+00 1.278816e+00 2.387154e+00
<GCONST> 7.905147e+01
<TRANSP> 5
 0.000000e+00 1.000000e+00 0.000000e+00 0.000000e+00 0.000000e+00
 0.000000e+00 9.581425e-01 4.185750e-02 0.000000e+00 0.000000e+00
 0.000000e+00 0.000000e+00 4.392382e-01 5.607619e-01 0.000000e+00
 0.000000e+00 0.000000e+00 0.000000e+00 9.186072e-01 8.139285e-02
 0.000000e+00 0.000000e+00 0.000000e+00 0.000000e+00 0.000000e+00
<ENDHMM>
~h "g"
<BEGINHMM>
<NUMSTATES> 5
<STATE> 2
<MEAN> 25
 1.721694e+01 -1.304825e+01 7.978028e+00 4.372457e-01 -9.131254e+00 -9.315545e+00 -4.136705e+00 -8.399540e-02 -6.109844e+00 3.055327e+00 6.504026e-01 -6.815607e-01 3.792823e-01 2.186227e-01 5.507758e-01 4.845691e-01 -1.382619e+00 2.901888e-02 1.057994e+00 -5.150214e-01 -8.672203e-01 2.524921e-02 2.769094e-01 3.912864e-02 2.249041e-02
<VARIANCE> 25
 1.830031e+01 3.366764e+01 1.139516e+02 1.343195e+02 9.964508e+01 7.513194e+01 6.808706e+01 7.218323e+01 9.025932e+01 5.037474e+01 4.650323e+01 3.420463e+01 2.250830e+00 7.180079e+00 9.313658e+00 1.306006e+01 6.329981e+00 4.674612e+00 7.701644e+00 8.966269e+00 5.393755e+00 6.817279e+00 5.150196e+00 3.799925e+00 4.799922e+00
<GCONST> 1.185746e+02
<STATE> 3
<MEAN> 25
 1.907642e+01 1.981391e-01 2.889902e+00 3.601302e+00 -1.039664e+01 -3.304586e+00 2.398615e+00 -9.024386e+00 -8.429057e+00 1.326543e+00 -8.961831e-01 -1.614718e+00 8.172393e-03 3.758984e+00 -2.035206e+00 1.472276e+00 4.741229e-01 2.173712e-01 9.387391e-01 -1.673955e+00 5.334934e-01 -6.370420e-01 -2.355360e-01 -3.826185e-01 -2.459696e+00
<VARIANCE> 25
 1.261089e+01 8.464261e+01 7.447932e+01 1.105775e+02 1.159968e+02 4.548325e+01 1.279664e+02 9.224484e+01 8.661823e+01 7.392568e+01 3.021507e+01 4.064794e+01 5.440674e-01 7.940005e+00 4.508708e+00 1.180897e+01 6.864304e+00 3.859912e+00 8.275586e+00 8.806503e+00 5.801406e+00 5.916493e+00 3.487887e+00 2.465645e+00 3.601199e+00
<GCONST> 1.157339e+02
<STATE> 4
<MEAN> 25
 1.989561e+01 3.225414e+00 -6.063237e+00 -6.749400e-01 -3.064163e+00 -1.894297e+00 -2.786637e+00 -1.191651e+01 -2.338780e+00 4.066076e+00 -2.645526e+00 -5.297880e+00 -4.407150e-01 1.820127e+00 -8.639768e-02 7.097269e-03 6.834825e-01 8.023186e-02 -6.977995e-01 1.294449e-01 6.671340e-01 -4.849520e-01 1.137740e-01 2.483145e-01 -1.241400e+00
<VARIANCE> 25
 1.572380e+01 1.444323e+02 7.094450e+01 4.268287e+01 6.001463e+01 2.277138e+01 5.348553e+01 4.399651e+01 2.505003e+01 5.421846e+01 2.721052e+01 2.289384e+01 7.212245e-01 3.938747e+00 3.874969e+00 4.761408e+00 3.499150e+00 2.388147e+00 4.303899e+00 4.159273e+00 2.970638e+00 2.640791e+00 2.261227e+00 1.457620e+00 1.753340e+00
<GCONST> 1.031037e+02
<TRANSP> 5
 0.000000e+00 1.000000e+00 0.000000e+00 0.000000e+00 0.000000e+00
 0.000000e+00 8.088422e-01 1.911577e-01 0.000000e+00 0.000000e+00
 0.000000e+00 0.000000e+00 5.794789e-01 4.205211e-01 0.000000e+00
 0.000000e+00 0.000000e+00 0.000000e+00 6.770468e-01 3.229532e-01
 0.000000e+00 0.000000e+00 0.000000e+00 0.000000e+00 0.000000e+00
<ENDHMM>
~h "k"
<BEGINHMM>
<NUMSTATES> 5
<STATE> 2
<MEAN> 25
 -2.039448e+00 2.352254e+00 7.029293e-01 -6.142264e+00 1.028987e+01 -7.941065e+00 -5.545574e+00 2.337600e+00 3.814174e+00 5.562001e-01 -1.989080e-01 1.034250e+00 -2.415229e+00 3.895485e-01 -7.458162e-03 -1.113048e-01 8.523289e-01 6.451184e-02 -1.334397e-01 3.977901e-01 3.831762e-01 -4.527874e-01 6.160805e-01 2.350115e-01 -9.459224e-01
<VARIANCE> 25
 1.864289e+02 5.204009e+01 5.336676e+01 9.167638e+01 9.731045e+01 6.958673e+01 6.214844e+01 3.685365e+01 3.887482e+01 3.546342e+01 3.574255e+01 3.015249e+01 1.155212e+01 9.122140e+00 6.840050e+00 6.704239e+00 7.483198e+00 5.938603e+00 6.456090e+00 5.465375e+00 4.353967e+00 4.741577e+00 3.941583e+00 2.914343e+00 6.488687e+00
<GCONST> 1.175703e+02
<STATE> 3
<MEAN> 25
 1.491627e+00 -4.634225e+00 -5.667933e+00 -7.160628e+00 1.316031e+01 -1.687095e+00 -7.832889e+00 2.568053e+00 1.924605e+00 2.100243e+00 1.299566e+00 1.798225e+00 3.074268e+00 -7.522081e-01 -1.505505e+00 -1.599879e+00 -3.568619e-03 1.308892e+00 3.885620e-01 -4.447834e-01 -1.526393e+00 8.190946e-01 7.197937e-02 -8.216456e-01 1.179232e+00
<VARIANCE> 25
 8.718035e+01 7.075619e+01 7.945626e+01 8.956361e+01 1.064333e+02 1.058921e+02 8.699409e+01 7.107365e+01 5.907551e+01 5.515612e+01 4.558381e+01 3.630691e+01 9.135569e+00 9.090025e+00 9.113730e+00 1.246732e+01 1.865197e+01 8.577929e+00 9.675076e+00 7.068112e+00 6.008479e+00 5.875548e+00 4.698466e+00 4.898646e+00 2.364436e+01
<GCONST> 1.254202e+02
<STATE> 4
<MEAN> 25
 1.826417e+01 -7.353302e+00 -5.189412e+00 -1.780956e+01 7.352512e+00 1.607746e+00 -5.972801e+00 1.306268e+00 -6.491477e+00 7.773768e+00 1.019975e+00 -2.199380e+00 2.247625e+00 -1.520967e-01 8.352357e-01 -1.028292e+00 -1.249168e+00 4.703366e-01 1.169136e-01 -6.134920e-01 -1.209596e+00 2.110401e-01 6.626356e-01 -4.914732e-01 1.685679e+00
<VARIANCE> 25
 2.518948e+01 7.064722e+01 1.015577e+02 8.564109e+01 4.783881e+01 7.233359e+01 4.490170e+01 4.464034e+01 5.723789e+01 5.792288e+01 5.529011e+01 3.067892e+01 4.812860e+00 4.124246e+00 7.340716e+00 8.791999e+00 5.435353e+00 6.613407e+00 6.443348e+00 6.810109e+00 5.743600e+00 4.115365e+00 4.762434e+00 3.427555e+00 5.366594e+00
<GCONST> 1.159511e+02
<TRANSP> 5
 0.000000e+00 1.000000e+00 0.000000e+00 0.000000e+00 0.000000e+00
 0.000000e+00 8.704877e-01 1.295123e-01 0.000000e+00 0.000000e+00
 0.000000e+00 0.000000e+00 8.103018e-01 1.896982e-01 0.000000e+00
 0.000000e+00 0.000000e+00 0.000000e+00 7.508800e-01 2.491200e-01
 0.000000e+00 0.000000e+00 0.000000e+00 0.000000e+00 0.000000e+00
<ENDHMM>
~h "l"
<BEGINHMM>
<NUMSTATES> 5
<STATE> 2
<MEAN> 25
 1.769614e+00 7.149339e+00 -2.789903e+00 -1.214447e+00 -4.814039e-01 7.027702e-01 -6.373298e-01 -2.659621e+00 1.373075e+00 1.370127e-01 1.110832e+00 1.486457e+00 -1.410537e+00 -1.530710e+00 6.123111e-01 5.654290e-01 -3.477969e-01 -8.993594e-01 3.216757e-01 7.788679e-01 1.246660e-01 -2.740207e-01 1.981805e-01 4.315663e-01 -1.293020e-02
<VARIANCE> 25
 1.315961e+02 7.863226e+01 4.986449e+01 5.134968e+01 4.396912e+01 5.753834e+01 2.955206e+01 3.544180e+01 2.990406e+01 2.739319e+01 2.884292e+01 2.101142e+01 8.685605e+00 4.236340e+00 4.045769e+00 2.730632e+00 4.023252e+00 5.087738e+00 3.511398e+00 2.860474e+00 2.428078e+00 2.017657e+00 2.110348e+00 1.654183e+00 9.866669e+00
<GCONST> 1.074065e+02
<STATE> 3
<MEAN> 25
 1.547998e+00 3.330334e+00 -8.971751e-01 3.933057e-01 1.969826e-01 -4.118500e-01 -7.418526e-01 -1.654284e+00 8.424785e-01 -8.403517e-01 9.223459e-01 1.340917e+00 4.433985e-01 -2.920301e+00 7.491993e-01 6.433027e-01 -4.144625e-01 -1.593481e+00 4.006555e-01 8.973092e-01 -4.782716e-02 -3.855304e-01 -4.114400e-01 6.926111e-02 2.594190e+00
<VARIANCE> 25
 1.362698e+02 1.293116e+02 4.929527e+01 6.017152e+01 5.806487e+01 5.032943e+01 3.202116e+01 4.386713e+01 3.819048e+01 2.753809e+01 3.264374e+01 2.182852e+01 1.022299e+01 8.034500e+00 4.689828e+00 4.490068e+00 5.796104e+00 6.969529e+00 3.391380e+00 3.825552e+00 3.133854e+00 2.567247e+00 2.292239e+00 1.998099e+00 1.712595e+01
<GCONST> 1.126383e+02
<STATE> 4
<MEAN> 25
 5.817140e+00 -5.890307e+00 1.008515e+00 1.122905e+00 -3.150823e-01 -4.918400e+00 -1.074030e+00 1.322316e-02 1.538710e+00 -1.094572e+00 -1.461639e+00 1.546424e+00 1.856048e+00 -2.652855e+00 1.155641e+00 6.673210e-01 -1.312224e+00 -1.247649e+00 -4.687396e-02 2.280765e-01 -2.921371e-01 -1.849089e-01 -3.844417e-01 -2.549121e-01 3.081873e+00
<VARIANCE> 25
 1.147936e+02 1.120982e+02 7.187346e+01 7.963058e+01 6.284931e+01 8.489664e+01 5.014841e+01 5.484459e+01 4.576336e+01 3.125984e+01 3.350629e+01 2.806328e+01 1.009733e+01 1.097413e+01 7.987958e+00 5.376208e+00 9.055885e+00 6.321134e+00 6.008136e+00 4.116934e+00 4.736094e+00 3.858662e+00 4.796716e+00 3.081108e+00 1.393266e+01
<GCONST> 1.186317e+02
<TRANSP> 5
 0.000000e+00 1.000000e+00 0.000000e+00 0.000000e+00 0.000000e+00
 0.000000e+00 4.599920e-01 5.400080e-01 0.000000e+00 0.000000e+00
 0.000000e+00 0.000000e+00 1.002326e-01 8.997673e-01 0.000000e+00
 0.000000e+00 0.000000e+00 0.000000e+00 4.351025e-01 5.648975e-01
 0.000000e+00 0.000000e+00 0.000000e+00 0.000000e+00 0.000000e+00
<ENDHMM>
~h "m"
<BEGINHMM>
<NUMSTATES> 5
<STATE> 2
<MEAN> 25
 2.047465e+00 7.830222e+00 6.446536e+00 -2.594446e+00 6.344056e+00 -1.577185e+01 2.725551e-01 1.731959e+00 1.354662e+00 -4.005793e+00 -5.151477e+00 2.780937e+00 7.377932e-01 -6.201311e-01 1.289269e+00 -1.247220e+00 4.283735e-01 -1.206820e+00 -1.177234e+00 4.112049e-01 -4.257869e-01 -2.726666e-01 -1.498533e-01 -8.931151e-02 3.694063e+00
<VARIANCE> 25
 6.990728e+01 8.705614e+01 6.519549e+01 8.242230e+01 1.474468e+02 1.369708e+02 1.137402e+02 7.108479e+01 6.012529e+01 4.172733e+01 4.866529e+01 2.950034e+01 1.187679e+01 9.904184e+00 7.643319e+00 9.210907e+00 1.517787e+01 1.196599e+01 9.226234e+00 7.607268e+00 9.280420e+00 6.654515e+00 5.792952e+00 4.399780e+00 4.129107e+00
<GCONST> 1.245122e+02
<STATE> 3
<MEAN> 25
 1.410735e+01 -9.191425e+00 1.211107e+01 -1.347670e+01 3.881080e+00 -8.471310e+00 -1.386181e+01 -2.807667e+00 -9.638299e-01 2.023938e+00 -1.975716e+00 -1.909235e+00 3.150652e+00 -2.255464e+00 -2.440815e-01 -8.118504e-01 -1.215086e+00 2.283622e+00 -2.536702e-01 -1.585772e+00 -4.363170e-01 1.486547e+00 9.556291e-01 -3.782930e-01 3.996155e-01
<VARIANCE> 25
 5.944958e+01 4.301063e+01 3.226324e+01 8.218945e+01 5.872741e+01 6.275019e+01 7.305193e+01 9.361152e+01 3.613673e+01 8.359662e+01 3.116339e+01 1.247806e+01 3.202691e+00 2.678447e+00 4.653053e+00 8.406157e+00 7.694324e+00 8.658966e+00 7.922051e+00 9.494828e+00 5.500837e+00 8.061600e+00 2.053551e+00 2.473010e+00 2.863483e+00
<GCONST> 1.134996e+02
<STATE> 4
<MEAN> 25
 2.081210e+01 -4.749440e+00 7.489627e+00 -5.291068e+00 -7.997801e+00 -1.743669e-01 -1.722326e-01 -6.772084e+00 -9.357845e+00 1.516308e+00 1.479165e+00 -1.691231e+00 -1.758175e-01 8.408809e-01 -4.319409e-01 6.096835e-01 -4.784868e-02 -1.944298e-02 4.295239e-01 -2.461208e-02 -4.908299e-02 -2.219108e-01 -8.140002e-02 -5.290637e-02 -9.163792e-01
<VARIANCE> 25
 4.317935e+01 1.376703e+02 1.500910e+02 1.776092e+02 5.442636e+01 9.059086e+01 1.105719e+02 1.666510e+02 7.654923e+01 7.008805e+01 4.209792e+01 2.953145e+01 2.252441e+00 7.369540e+00 7.862020e+00 8.882276e+00 3.631754e+00 5.216604e+00 5.609743e+00 1.090140e+01 6.605860e+00 7.777751e+00 2.934567e+00 3.106040e+00 5.496596e+00
<GCONST> 1.208296e+02
<TRANSP> 5
 0.000000e+00 1.000000e+00 0.000000e+00 0.000000e+00 0.000000e+00
 0.000000e+00 8.794929e-01 1.205071e-01 0.000000e+00 0.000000e+00
 0.000000e+00 0.000000e+00 8.085855e-01 1.914145e-01 0.000000e+00
 0.000000e+00 0.000000e+00 0.000000e+00 9.581246e-01 4.187538e-02
 0.000000e+00 0.000000e+00 0.000000e+00 0.000000e+00 0.000000e+00
<ENDHMM>
~h "n"
<BEGINHMM>
<NUMSTATES> 5
<STATE> 2
<MEAN> 25
 -2.258007e+00 6.866798e+00 2.159196e-01 5.156938e+00 -1.164094e+00 -5.999870e-01 -1.259773e+00 -1.852160e+00 -1.407582e+00 -3.587246e+00 -2.620258e+00 -7.508738e-01 -1.084852e+00 -9.126113e-01 -4.309769e-01 9.899895e-02 2.472662e-01 7.669416e-02 7.751854e-02 1.010721e-01 2.081301e-01 1.628125e-01 7.165585e-02 -7.560241e-02 -5.633432e-01
<VARIANCE> 25
 4.261633e+01 3.884000e+01 4.065980e+01 1.989416e+01 1.302626e+01 1.652255e+01 1.783212e+01 2.135389e+01 2.822778e+01 1.784586e+01 1.619603e+01 1.724774e+01 5.387947e+00 2.995376e+00 2.237994e+00 2.286696e+00 1.633560e+00 2.009382e+00 1.733835e+00 1.477449e+00 1.739656e+00 1.914063e+00 1.163996e+00 1.088600e+00 2.480647e+00
<GCONST> 9.211410e+01
<STATE> 3
<MEAN> 25
 -7.889894e+00 6.650403e+00 2.181145e+00 8.362007e+00 2.801269e+00 2.384600e+00 -7.874645e-01 -1.562927e+00 -1.308390e+00 -4.245510e+00 -1.551974e+00 -2.090789e+00 -4.846106e-01 -3.823724e-01 -2.589459e-01 -1.812780e-01 -1.294953e-01 1.072271e-01 2.054102e-01 1.771757e-01 1.542769e-01 2.442093e-01 2.725167e-01 2.046981e-01 -2.565977e-01
<VARIANCE> 25
 1.110922e+01 1.976801e+01 2.230622e+01 1.675977e+01 1.116466e+01 1.328476e+01 1.126122e+01 1.282219e+01 1.480998e+01 1.431211e+01 1.921651e+01 1.615058e+01 2.895042e-01 6.252454e-01 9.859135e-01 8.561615e-01 6.837172e-01 1.119133e+00 1.166664e+00 1.763098e+00 1.283801e+00 1.581421e+00 1.986047e+00 2.062331e+00 8.093253e-02
<GCONST> 7.650755e+01
<STATE> 4
<MEAN> 25
 -8.426187e+00 1.850428e+00 -7.803175e-01 2.363416e+00 5.134708e-01 1.860043e+00 2.657429e-01 3.937376e-01 -1.052168e-01 -1.095535e+00 -9.083571e-01 -1.044854e-01 -2.413975e-02 1.274197e-02 -5.405221e-03 -2.807292e-02 1.432776e-02 2.062412e-02 1.063247e-02 3.408402e-02 1.724125e-02 -1.105043e-02 2.454789e-02 5.809641e-02 -1.661557e-02
<VARIANCE> 25
 5.183912e+00 6.003763e+00 1.318989e+01 1.021158e+01 8.373224e+00 1.231048e+01 1.381134e+01 1.218135e+01 1.512428e+01 1.320391e+01 1.363123e+01 1.300801e+01 1.327661e-01 2.841937e-01 4.180846e-01 5.713215e-01 6.736524e-01 9.499811e-01 1.158175e+00 1.332245e+00 1.302717e+00 1.427080e+00 1.390791e+00 1.293836e+00 3.858346e-02
<GCONST> 6.775432e+01
<TRANSP> 5
 0.000000e+00 1.000000e+00 0.000000e+00 0.000000e+00 0.000000e+00
 0.000000e+00 8.480462e-01 1.519538e-01 0.000000e+00 0.000000e+00
 0.000000e+00 0.000000e+00 7.702245e-01 2.297755e-01 0.000000e+00
 0.000000e+00 0.000000e+00 0.000000e+00 9.549246e-01 4.507539e-02
 0.000000e+00 0.000000e+00 0.000000e+00 0.000000e+00 0.000000e+00
<ENDHMM>
~h "r"
<BEGINHMM>
<NUMSTATES> 5
<STATE> 2
<MEAN> 25
 2.221786e-01 6.094235e+00 -1.313933e+00 1.263771e+00 -5.420467e-01 -1.417470e+00 1.501073e+00 -1.404549e+00 5.465910e-01 -2.270788e-02 5.147980e-01 7.418376e-01 -9.286828e-01 -8.480386e-02 7.995860e-02 4.323043e-02 -1.919145e-01 -1.098656e-02 -1.034877e-02 -1.439089e-01 -1.472264e-01 -1.833396e-01 -4.984726e-02 1.662896e-01 -8.936203e-01
<VARIANCE> 25
 1.701022e+02 1.212660e+02 5.647872e+01 3.946436e+01 6.804473e+01 5.139322e+01 3.863409e+01 4.143147e+01 3.656325e+01 3.352196e+01 2.248625e+01 2.235936e+01 5.090740e+00 3.749334e+00 3.311467e+00 2.417136e+00 3.715279e+00 2.707949e+00 4.125580e+00 3.606499e+00 3.301022e+00 3.077906e+00 2.091339e+00 1.621983e+00 2.999270e+00
<GCONST> 1.071357e+02
<STATE> 3
<MEAN> 25
 1.084512e+00 6.421554e+00 2.388286e-01 1.949008e+00 -2.509833e+00 -7.789179e-01 -2.277803e-01 -2.899784e+00 -2.027861e-01 -7.881087e-01 -1.142198e-01 3.968778e-01 -2.226371e-01 -1.548100e-01 3.504578e-01 2.498470e-01 3.892341e-01 1.493917e-01 -9.476669e-02 -1.679161e-01 -4.680446e-02 -2.692479e-01 -3.175573e-01 -3.599953e-02 -2.287786e-02
<VARIANCE> 25
 1.490675e+02 1.325096e+02 6.247723e+01 3.861343e+01 4.542405e+01 3.771854e+01 3.486260e+01 3.320145e+01 3.303464e+01 3.233480e+01 2.066747e+01 1.805606e+01 3.995956e+00 4.404167e+00 3.367308e+00 2.159201e+00 2.406959e+00 1.455590e+00 1.959927e+00 2.781163e+00 2.174666e+00 1.755984e+00 1.331487e+00 1.426777e+00 2.240050e+00
<GCONST> 1.016117e+02
<STATE> 4
<MEAN> 25
 2.196722e+00 4.020834e+00 -1.477853e-01 1.665578e+00 -1.108185e+00 -4.380204e-01 4.112503e-01 -2.114707e+00 4.641880e-01 -1.054912e+00 -1.148694e+00 3.710371e-01 9.724801e-01 -1.560724e+00 5.407239e-01 -5.724123e-02 5.369191e-01 -4.599582e-01 -1.712418e-02 1.132900e-01 1.648144e-01 3.645452e-02 -1.481381e-01 2.438185e-01 2.093379e+00
<VARIANCE> 25
 1.624511e+02 1.279151e+02 6.246708e+01 4.587395e+01 5.370589e+01 4.493891e+01 4.616669e+01 4.052403e+01 3.236976e+01 3.129620e+01 2.229446e+01 1.841068e+01 7.217024e+00 1.349751e+01 7.284477e+00 4.402635e+00 4.254230e+00 5.704922e+00 4.841772e+00 4.522049e+00 3.971405e+00 2.551326e+00 1.981065e+00 1.944732e+00 1.027770e+01
<GCONST> 1.124270e+02
<TRANSP> 5
 0.000000e+00 1.000000e+00 0.000000e+00 0.000000e+00 0.000000e+00
 0.000000e+00 3.642533e-01 6.357467e-01 0.000000e+00 0.000000e+00
 0.000000e+00 0.000000e+00 2.758782e-01 7.241218e-01 0.000000e+00
 0.000000e+00 0.000000e+00 0.000000e+00 2.100113e-01 7.899888e-01
 0.000000e+00 0.000000e+00 0.000000e+00 0.000000e+00 0.000000e+00
<ENDHMM>
~h "s"
<BEGINHMM>
<NUMSTATES> 5
<STATE> 2
<MEAN> 25
 8.009748e+00 -5.281938e+00 3.592046e+00 2.246657e+00 -1.669022e+00 -9.865424e+00 7.848508e-01 1.188343e+00 2.043158e+00 -7.638381e-01 -2.910409e+00 7.768991e-01 1.588530e+00 -8.853952e-01 2.230303e-01 -1.524879e-01 -5.071933e-01 -9.893519e-01 -4.342387e-01 4.039217e-01 -7.423146e-01 -3.288348e-01 2.337397e-01 -4.868852e-02 1.697799e+00
<VARIANCE> 25
 1.243699e+02 1.046265e+02 6.422679e+01 8.328765e+01 6.355744e+01 5.452203e+01 7.127341e+01 4.809086e+01 5.636970e+01 2.928726e+01 3.548298e+01 3.108790e+01 1.115128e+01 1.593029e+01 1.173071e+01 7.783784e+00 6.496796e+00 8.381085e+00 8.943457e+00 5.525564e+00 9.222508e+00 4.112066e+00 4.278945e+00 3.065317e+00 1.038915e+01
<GCONST> 1.208522e+02
<STATE> 3
<MEAN> 25
 1.733858e+01 -1.500098e+01 9.502323e+00 -1.246524e+00 -6.784629e+00 -9.503514e+00 -6.096264e+00 4.692161e+00 -1.113815e+00 -1.973611e+00 -7.090833e-01 8.721663e-02 9.309535e-01 -1.311074e+00 -2.730489e-03 -1.310757e+00 -3.976584e-01 6.890371e-01 -5.688245e-01 2.377492e-01 -6.880954e-02 4.155470e-01 2.713205e-01 -5.701622e-01 1.234542e+00
<VARIANCE> 25
 4.580034e+01 3.760939e+01 1.000206e+02 6.487408e+01 7.491247e+01 6.594831e+01 6.496564e+01 7.997921e+01 1.054212e+02 6.320562e+01 4.581053e+01 3.234999e+01 3.884368e+00 4.140774e+00 9.853974e+00 9.173259e+00 7.060959e+00 7.260180e+00 8.585526e+00 7.187432e+00 8.152982e+00 6.533383e+00 5.333624e+00 4.536123e+00 3.204217e+00
<GCONST> 1.190099e+02
<STATE> 4
<MEAN> 25
 1.937572e+01 -1.332457e+01 3.941675e+00 -1.359100e+01 -1.043878e+00 -2.336386e+00 -5.799882e+00 9.920293e-02 -1.372939e+00 5.311461e+00 -4.043991e-01 -3.233816e+00 -1.500638e-01 7.942350e-01 -4.340724e-01 -5.516122e-01 9.148187e-01 2.930709e-01 -5.602541e-02 -3.939651e-01 -4.086091e-02 5.395268e-01 -2.320333e-01 8.593854e-02 -2.580697e-01
<VARIANCE> 25
 3.586186e+01 4.199864e+01 1.452118e+02 1.059991e+02 8.901929e+01 6.007151e+01 9.991936e+01 1.085942e+02 5.501091e+01 4.444256e+01 4.815651e+01 4.850206e+01 1.067260e+00 1.735363e+00 2.323763e+00 2.791477e+00 3.050237e+00 3.100649e+00 3.688116e+00 3.129958e+00 3.466094e+00 2.493818e+00 2.502046e+00 2.510949e+00 6.185197e-01
<GCONST> 1.070332e+02
<TRANSP> 5
 0.000000e+00 1.000000e+00 0.000000e+00 0.000000e+00 0.000000e+00
 0.000000e+00 5.175088e-01 4.824912e-01 0.000000e+00 0.000000e+00
 0.000000e+00 0.000000e+00 7.628956e-01 2.371044e-01 0.000000e+00
 0.000000e+00 0.000000e+00 0.000000e+00 9.048464e-01 9.515354e-02
 0.000000e+00 0.000000e+00 0.000000e+00 0.000000e+00 0.000000e+00
<ENDHMM>
~h "t"
<BEGINHMM>
<NUMSTATES> 5
<STATE> 2
<MEAN> 25
 2.692601e+00 -2.505361e+00 3.885770e-01 2.573364e+00 3.674182e-01 -9.528576e+00 2.811537e+00 8.317426e-01 4.097578e+00 -1.032867e+00 -2.907394e+00 2.430636e+00 1.521923e+00 -1.656635e+00 1.702480e+00 -1.770617e+00 3.272843e-02 -9.416019e-01 -5.369982e-01 3.656574e-01 -4.009236e-02 -2.168628e-01 3.078878e-01 -6.149818e-02 4.130850e+00
<VARIANCE> 25
 1.165776e+02 6.014249e+01 3.949150e+01 5.574890e+01 4.350170e+01 9.645847e+01 5.735396e+01 4.889108e+01 4.531114e+01 2.266504e+01 3.242721e+01 2.667864e+01 2.131448e+01 1.473284e+01 1.037446e+01 6.606517e+00 1.187775e+01 6.474529e+00 7.747184e+00 6.579741e+00 5.879468e+00 4.480310e+00 5.944489e+00 3.704949e+00 1.677194e+01
<GCONST> 1.199109e+02
<STATE> 3
<MEAN> 25
 1.255463e+01 -1.145941e+01 6.711194e+00 -4.490828e+00 -2.983688e+00 -8.147266e+00 -5.929441e+00 2.293385e-01 1.921216e+00 -3.987553e-01 -8.330239e-02 -1.918734e-01 2.176528e+00 -7.149556e-01 5.917954e-01 -1.778111e+00 -5.954230e-01 1.563980e+00 -1.138106e+00 -5.887554e-01 -1.272185e+00 7.945608e-01 4.702721e-01 -6.721395e-01 2.010380e+00
<VARIANCE> 25
 7.616467e+01 6.834258e+01 1.012579e+02 7.569544e+01 7.786953e+01 7.784820e+01 8.609530e+01 1.243862e+02 1.092486e+02 5.080365e+01 5.844192e+01 3.864108e+01 1.045988e+01 7.934467e+00 1.155358e+01 1.020098e+01 7.545845e+00 1.078356e+01 1.174729e+01 1.106575e+01 1.068051e+01 5.809947e+00 5.423222e+00 3.841529e+00 8.097986e+00
<GCONST> 1.254922e+02
<STATE> 4
<MEAN> 25
 1.795564e+01 -4.422321e+00 8.930909e-01 -1.395782e+01 1.665901e-01 3.689111e+00 -7.170689e+00 -3.134803e+00 -4.208311e+00 3.808019e+00 7.590309e-01 -6.381115e-02 -4.958307e-01 1.078833e+00 -5.458620e-01 2.584668e-01 1.552715e-01 2.758387e-01 3.120391e-01 -1.676220e-01 6.210557e-02 -7.173294e-02 5.156229e-02 1.260421e-01 -1.138764e+00
<VARIANCE> 25
 3.476454e+01 1.525396e+02 1.327164e+02 1.121327e+02 7.530816e+01 7.624041e+01 8.668848e+01 1.152667e+02 7.104443e+01 4.368202e+01 3.415136e+01 3.507878e+01 2.424659e+00 2.567146e+00 4.126113e+00 5.288514e+00 3.586823e+00 3.666343e+00 3.946436e+00 3.748362e+00 4.462625e+00 3.010699e+00 2.425623e+00 1.932960e+00 1.707301e+00
<GCONST> 1.119844e+02
<TRANSP> 5
 0.000000e+00 1.000000e+00 0.000000e+00 0.000000e+00 0.000000e+00
 0.000000e+00 2.868911e-01 7.131090e-01 0.000000e+00 0.000000e+00
 0.000000e+00 0.000000e+00 7.317877e-01 2.682123e-01 0.000000e+00
 0.000000e+00 0.000000e+00 0.000000e+00 9.183674e-01 8.163252e-02
 0.000000e+00 0.000000e+00 0.000000e+00 0.000000e+00 0.000000e+00
<ENDHMM>
~h "w"
<BEGINHMM>
<NUMSTATES> 5
<STATE> 2
<MEAN> 25
 2.449376e+01 -1.973983e+00 -5.838070e+00 -1.751937e+01 -3.298390e+00 5.159193e+00 -1.110174e+00 -4.340831e+00 -9.184144e+00 1.367663e+00 7.450875e+00 -3.435612e-01 4.243762e-01 -2.820890e+00 2.556175e-01 1.008971e+00 3.967758e-01 -1.414046e+00 -1.291302e-01 8.321218e-03 2.961820e-01 1.509038e+00 7.085686e-01 -1.467446e+00 1.974774e+00
<VARIANCE> 25
 2.410980e+01 6.222625e+01 8.154520e+01 8.224112e+01 6.122197e+01 4.457115e+01 5.514146e+01 4.823175e+01 5.449669e+01 4.785714e+01 3.979300e+01 2.927897e+01 2.411335e+00 4.673259e+00 5.467861e+00 6.892325e+00 8.148579e+00 7.673997e+00 6.248046e+00 3.836255e+00 6.666375e+00 4.819351e+00 5.289722e+00 4.645864e+00 1.701509e+00
<GCONST> 1.133623e+02
<STATE> 3
<MEAN> 25
 2.220810e+01 -1.441390e+01 -4.782515e+00 -8.990109e+00 1.324960e+00 -5.082244e+00 -2.678553e+00 7.931566e-02 -4.601191e+00 6.802249e+00 4.236057e+00 -8.991078e+00 -9.613618e-01 -1.948782e+00 8.159056e-01 1.716034e+00 -2.366478e-01 -1.897513e+00 2.235450e-01 1.832417e+00 2.348076e+00 -1.165392e+00 -2.457426e+00 -1.135083e+00 9.456953e-01
<VARIANCE> 25
 3.128677e+01 2.490237e+01 5.846731e+01 9.737228e+01 5.251563e+01 5.646199e+01 7.261763e+01 8.285182e+01 6.833359e+01 4.916644e+01 5.139794e+01 3.712161e+01 5.365368e-01 2.545197e+00 2.106281e+00 2.130896e+00 3.301956e+00 2.995421e+00 4.100808e+00 2.751472e+00 3.929296e+00 3.291240e+00 2.145900e+00 2.967739e+00 6.760169e-01
<GCONST> 1.041700e+02
<STATE> 4
<MEAN> 25
 1.902744e+01 -1.672011e+01 4.228321e-01 -4.758882e+00 -3.096849e+00 -7.911187e+00 8.496493e-01 5.793988e+00 -7.511240e-01 1.801431e+00 -4.423641e+00 -8.834807e+00 1.084978e-01 1.649631e-01 3.309973e-01 1.157515e+00 -1.127546e+00 2.327218e-01 2.351952e-01 -3.401251e-01 3.824455e-01 -3.350845e-01 -1.256983e+00 4.376848e-01 -7.148660e-01
<VARIANCE> 25
 2.375979e+01 5.712142e+01 4.923251e+01 1.260201e+02 6.228850e+01 4.978370e+01 6.099395e+01 1.201384e+02 4.134641e+01 3.556444e+01 4.062601e+01 2.250804e+01 8.689843e-01 2.021501e+00 1.621295e+00 3.357017e+00 2.245660e+00 3.300937e+00 2.845947e+00 6.727292e+00 3.399012e+00 3.728770e+00 2.412337e+00 2.667102e+00 1.159353e+00
<GCONST> 1.047056e+02
<TRANSP> 5
 0.000000e+00 1.000000e+00 0.000000e+00 0.000000e+00 0.000000e+00
 0.000000e+00 7.229741e-01 2.770259e-01 0.000000e+00 0.000000e+00
 0.000000e+00 0.000000e+00 7.084533e-01 2.915467e-01 0.000000e+00
 0.000000e+00 0.000000e+00 0.000000e+00 8.019048e-01 1.980952e-01
 0.000000e+00 0.000000e+00 0.000000e+00 0.000000e+00 0.000000e+00
<ENDHMM>
~h "z"
<BEGINHMM>
<NUMSTATES> 5
<STATE> 2
<MEAN> 25
 -6.465557e+00 9.886830e-01 -2.400495e+00 5.650485e-01 9.423790e-01 7.293114e-01 -8.425233e-01 2.343939e+00 8.965128e-01 1.289522e-01 2.834020e-01 7.823220e-01 -3.240369e-02 3.272098e-02 -7.059016e-02 2.027094e-02 -1.654996e-02 2.603284e-02 -4.713748e-02 -6.929243e-02 -8.478373e-02 -7.484476e-02 -3.164814e-02 1.730603e-02 -1.047212e-01
<VARIANCE> 25
 2.565244e+00 2.138878e+00 4.809427e+00 1.170353e+01 1.518975e+01 9.335936e+00 1.419453e+01 1.151387e+01 1.180617e+01 1.093237e+01 9.676986e+00 7.676272e+00 2.239856e-01 2.725464e-01 4.361071e-01 8.861403e-01 8.006142e-01 9.269684e-01 1.188115e+00 1.180884e+00 1.229733e+00 1.123783e+00 9.361532e-01 8.141888e-01 4.417557e-01
<GCONST> 6.642738e+01
<STATE> 3
<MEAN> 25
 -7.800825e+00 -7.967581e-01 -3.268698e+00 1.843739e+00 -3.043281e-01 4.117303e-01 9.818710e-01 2.511343e+00 3.619894e+00 -3.264421e-01 -9.042460e-01 1.199841e-01 2.981598e-01 1.456088e-01 1.487567e-01 -5.028744e-02 1.393609e-02 -6.510024e-02 -1.504841e-02 -1.636977e-02 2.198636e-01 1.720513e-01 -1.018101e-01 -2.802657e-01 1.779627e-01
<VARIANCE> 25
 7.658713e+00 1.302227e+01 2.503073e+01 1.305825e+01 1.001688e+01 1.249287e+01 1.935142e+01 1.126963e+01 2.754382e+01 1.057331e+01 1.570601e+01 1.166301e+01 9.648079e-01 1.649545e+00 3.797231e+00 1.398406e+00 2.028435e+00 1.302475e+00 2.223020e+00 1.482944e+00 4.707282e+00 1.232942e+00 1.569296e+00 1.599972e+00 1.668830e+00
<GCONST> 8.492780e+01
<STATE> 4
<MEAN> 25
 1.291420e+01 -6.976074e-01 5.173646e-01 -1.169599e+01 7.402602e+00 1.284854e+00 -6.857129e+00 -4.651630e+00 -1.836636e+00 9.075564e-01 -1.463916e+00 -5.867819e-01 3.546587e-01 -1.998509e-02 5.817556e-02 -1.380973e-01 1.915322e-02 5.608812e-03 -2.202285e-01 -4.017999e-01 -3.756304e-01 -4.944878e-02 1.184210e-01 8.352276e-03 3.180823e-01
<VARIANCE> 25
 2.045619e+02 1.200861e+02 8.431229e+01 1.361075e+02 3.761773e+01 1.396893e+02 7.726489e+01 6.145717e+01 3.855252e+01 4.825451e+01 4.329211e+01 2.617745e+01 7.719435e+00 8.608700e+00 6.893842e+00 9.046651e+00 3.998204e+00 6.325581e+00 7.430326e+00 5.950204e+00 4.878289e+00 6.537879e+00 5.139184e+00 3.000206e+00 9.500802e+00
<GCONST> 1.207962e+02
<TRANSP> 5
 0.000000e+00 1.000000e+00 0.000000e+00 0.000000e+00 0.000000e+00
 0.000000e+00 9.503695e-01 4.963047e-02 0.000000e+00 0.000000e+00
 0.000000e+00 0.000000e+00 8.065227e-01 1.934773e-01 0.000000e+00
 0.000000e+00 0.000000e+00 0.000000e+00 9.146266e-01 8.537337e-02
 0.000000e+00 0.000000e+00 0.000000e+00 0.000000e+00 0.000000e+00
<ENDHMM>
~h "ae"
<BEGINHMM>
<NUMSTATES> 5
<STATE> 2
<MEAN> 25
 1.908926e+01 -2.205354e+01 -2.477760e+00 -5.191730e+00 -1.777667e+00 -1.252685e+00 -4.808370e-01 3.421336e+00 3.140709e+00 2.859255e+00 -3.863333e+00 -4.727706e+00 1.838180e-01 -1.808967e+00 2.040826e-01 1.081759e-01 -2.024913e-01 -1.399746e+00 1.591493e+00 1.051477e+00 -8.625494e-01 -5.094278e-02 -1.839679e+00 -2.762607e-01 1.344932e+00
<VARIANCE> 25
 2.533132e+01 1.543351e+01 6.915514e+01 1.192640e+02 6.896700e+01 8.359203e+01 5.423536e+01 3.750412e+01 2.195589e+01 3.499836e+01 2.970617e+01 2.037888e+01 4.365695e+00 3.145520e+00 7.602590e+00 7.287767e+00 9.317695e+00 5.723004e+00 4.530063e+00 5.782072e+00 4.888615e+00 2.846278e+00 2.035804e+00 2.821496e+00 1.262691e+00
<GCONST> 1.087514e+02
<STATE> 3
<MEAN> 25
 1.818124e+01 -2.400122e+01 1.054599e+00 1.643896e-01 -6.900486e+00 -7.537126e+00 6.660342e+00 6.933044e+00 -2.621221e+00 -1.481211e+00 -7.902447e+00 -2.474303e+00 -5.209320e-01 4.921731e-01 1.043416e+00 -1.953006e-01 -5.918723e-01 -6.327497e-01 1.096231e+00 1.146558e+00 -1.485109e+00 -7.724222e-01 8.102918e-01 -1.037330e-01 -2.601474e-01
<VARIANCE> 25
 1.560465e+01 2.283237e+01 4.463866e+01 1.143766e+02 5.610618e+01 3.551750e+01 5.526604e+01 5.308715e+01 2.575333e+01 2.158648e+01 2.651720e+01 1.832127e+01 5.466055e-01 1.744841e+00 3.689376e+00 2.350456e+00 3.895720e+00 1.931809e+00 2.192262e+00 2.460610e+00 1.406647e+00 1.394844e+00 1.510204e+00 1.606922e+00 9.058310e-01
<GCONST> 9.572665e+01
<STATE> 4
<MEAN> 25
 1.330929e+01 -2.042583e+01 1.554160e+01 -1.145059e+01 -1.011812e+01 -5.558277e+00 1.478546e+00 1.538970e+01 -9.558583e+00 -6.440317e-01 3.063742e+00 -4.774174e+00 -3.740920e-02 9.812693e-01 6.144098e-01 2.765324e-01 -5.924077e-01 2.707072e-01 4.636253e-01 -3.745643e-01 -1.234596e+00 1.869861e-01 5.942327e-01 -2.476940e-01 -5.991818e-01
<VARIANCE> 25
 8.180834e+00 1.835351e+01 4.784267e+01 3.969855e+01 5.103773e+01 2.665364e+01 4.784030e+01 3.381190e+01 4.332777e+01 3.329869e+01 3.044192e+01 2.715197e+01 2.925025e-01 1.959686e+00 2.172796e+00 1.556967e+00 2.548490e+00 1.314380e+00 2.227486e+00 2.539749e+00 3.072921e+00 2.002924e+00 1.985182e+00 1.322571e+00 7.897739e-01
<GCONST> 9.325410e+01
<TRANSP> 5
 0.000000e+00 1.000000e+00 0.000000e+00 0.000000e+00 0.000000e+00
 0.000000e+00 7.168921e-01 2.831079e-01 0.000000e+00 0.000000e+00
 0.000000e+00 0.000000e+00 8.011395e-01 1.988605e-01 0.000000e+00
 0.000000e+00 0.000000e+00 0.000000e+00 8.701574e-01 1.298427e-01
 0.000000e+00 0.000000e+00 0.000000e+00 0.000000e+00 0.000000e+00
<ENDHMM>
~h "ah"
<BEGINHMM>
<NUMSTATES> 5
<STATE> 2
<MEAN> 25
 2.145916e+01 -6.352221e+00 -5.791261e+00 -7.654011e+00 -1.808735e-01 9.122695e-01 -6.082167e+00 -7.202515e+00 -1.683876e+00 6.784801e+00 -3.178908e+00 -5.748743e+00 -8.578493e-02 1.549348e+00 -2.902253e-01 1.076375e+00 -7.762043e-01 7.978962e-01 2.532175e-01 -1.397635e+00 3.268634e-01 -3.876502e-01 -3.405245e-01 4.181280e-01 -1.460106e+00
<VARIANCE> 25
 1.636904e+01 5.732111e+01 6.901675e+01 1.455744e+02 7.083488e+01 8.395459e+01 8.377305e+01 9.133964e+01 5.470848e+01 4.653017e+01 7.373045e+01 3.570880e+01 1.254870e+00 4.250180e+00 3.880046e+00 7.148311e+00 5.216457e+00 5.063672e+00 6.289542e+00 6.572438e+00 3.239333e+00 4.986004e+00 2.979032e+00 2.330936e+00 2.788112e+00
<GCONST> 1.130949e+02
<STATE> 3
<MEAN> 25
 1.994986e+01 4.497794e+00 -8.297247e+00 -3.064602e+00 2.405558e+00 1.668852e+00 -5.808263e+00 -9.761289e+00 -5.157960e-01 2.660706e+00 -3.518348e+00 -3.539048e+00 -1.059083e+00 3.441426e+00 -9.402987e-02 4.496539e-01 4.037757e-01 1.741653e-01 2.865859e-01 3.858601e-01 -4.846053e-02 -1.194043e+00 7.116868e-01 3.576210e-01 -2.674093e+00
<VARIANCE> 25
 2.699878e+01 6.932113e+01 5.019341e+01 1.031646e+02 6.788712e+01 5.151679e+01 3.850851e+01 5.552555e+01 4.981079e+01 5.856668e+01 4.303277e+01 3.219461e+01 2.597445e+00 5.007837e+00 9.303170e+00 6.781037e+00 9.445107e+00 5.830701e+00 6.201193e+00 5.932317e+00 5.324115e+00 5.291192e+00 4.925079e+00 2.151796e+00 2.150191e+00
<GCONST> 1.138616e+02
<STATE> 4
<MEAN> 25
 1.559442e+01 1.056363e+01 -4.661355e+00 -2.561206e+00 -8.218199e-02 2.685350e+00 -3.250799e+00 -8.074746e+00 -3.176826e+00 -6.573040e-01 -1.618578e+00 -3.134041e+00 -1.732849e+00 7.319445e-01 1.211831e+00 1.016558e-01 -6.904924e-01 1.501755e-01 6.321735e-01 5.834811e-01 1.732671e-02 -3.881316e-01 4.786671e-01 5.178717e-01 -1.426115e+00
<VARIANCE> 25
 6.217101e+01 8.048277e+01 1.074273e+02 7.479631e+01 6.489190e+01 5.614540e+01 4.295524e+01 2.608027e+01 4.801788e+01 3.834146e+01 3.088309e+01 1.882823e+01 3.287884e+00 3.850379e+00 4.477537e+00 3.585253e+00 3.857074e+00 2.502470e+00 3.342105e+00 2.654127e+00 2.406406e+00 2.294988e+00 1.895593e+00 1.777846e+00 1.596006e+00
<GCONST> 1.057176e+02
<TRANSP> 5
 0.000000e+00 1.000000e+00 0.000000e+00 0.000000e+00 0.000000e+00
 0.000000e+00 6.822461e-01 3.177538e-01 0.000000e+00 0.000000e+00
 0.000000e+00 0.000000e+00 5.335025e-01 4.664975e-01 0.000000e+00
 0.000000e+00 0.000000e+00 0.000000e+00 6.993750e-01 3.006251e-01
 0.000000e+00 0.000000e+00 0.000000e+00 0.000000e+00 0.000000e+00
<ENDHMM>
~h "ao"
<BEGINHMM>
<NUMSTATES> 5
<STATE> 2
<MEAN> 25
 -8.916181e+00 8.303967e+00 3.241591e+00 7.387461e+00 4.241240e+00 3.913051e+00 1.544682e+00 1.208431e+00 1.515279e+00 -9.895060e-01 1.094892e+00 2.048747e+00 3.974960e+00 4.761123e-01 1.476650e+00 -2.934794e-01 -4.930298e-01 -1.195456e+00 -4.373059e-01 -3.485313e-01 3.573312e-01 -4.676466e-01 -5.237939e-01 1.775599e-01 4.278353e+00
<VARIANCE> 25
 4.907002e+01 4.439481e+01 3.216013e+01 2.313088e+01 1.907383e+01 1.191946e+01 2.274151e+01 2.197525e+01 1.491588e+01 1.739961e+01 1.717824e+01 1.211665e+01 9.299989e+00 1.350415e+01 1.006334e+01 3.528169e+00 2.467698e+00 2.487811e+00 4.223622e+00 2.335818e+00 2.632097e+00 1.574560e+00 2.105814e+00 1.098427e+00 1.528686e+01
<GCONST> 1.002766e+02
<STATE> 3
<MEAN> 25
 4.124814e+00 1.470116e+01 8.706484e+00 6.853616e+00 -1.970866e-01 8.355291e-01 -1.850863e-01 -1.363793e+00 2.554424e+00 -2.864182e+00 -6.871740e-01 2.339184e+00 5.544230e+00 -7.686398e-01 4.369517e-01 -1.532466e+00 -1.099782e+00 -3.250020e+00 -1.004295e+00 -7.716513e-01 9.888148e-02 3.166503e-01 -1.112685e+00 -2.802039e-01 6.333056e+00
<VARIANCE> 25
 7.337827e+01 1.519308e+02 1.011687e+02 3.079678e+01 2.999502e+01 3.027127e+01 4.571498e+01 2.783933e+01 1.670979e+01 1.522752e+01 1.852300e+01 1.351084e+01 7.341044e+00 1.769914e+01 7.773237e+00 6.312941e+00 2.985344e+00 4.089181e+00 5.827273e+00 3.255293e+00 4.733408e+00 3.928884e+00 3.016685e+00 3.378035e+00 2.050684e+01
<GCONST> 1.108023e+02
<STATE> 4
<MEAN> 25
 1.105926e+01 4.155515e+00 5.309966e+00 1.461355e+00 1.116686e-01 -8.481959e+00 -1.484110e+00 -2.045957e+00 1.886795e+00 -1.490436e+00 -3.468517e+00 6.956017e-01 4.132998e+00 -5.742711e+00 -1.307840e+00 -2.667922e+00 9.326801e-02 -3.886373e+00 -1.928922e+00 -5.139740e-02 3.417306e-01 8.657443e-01 -1.521395e+00 -4.137177e-01 6.974557e+00
<VARIANCE> 25
 4.205872e+01 2.209372e+02 1.104388e+02 8.407888e+01 5.113427e+01 7.498096e+01 6.836756e+01 3.543648e+01 3.383017e+01 3.537941e+01 2.308450e+01 2.435965e+01 1.397848e+01 9.826659e+00 9.210476e+00 8.207214e+00 5.972559e+00 7.682384e+00 1.298091e+01 6.677260e+00 8.333755e+00 3.440455e+00 5.168795e+00 4.534370e+00 8.792115e+00
<GCONST> 1.199044e+02
<TRANSP> 5
 0.000000e+00 1.000000e+00 0.000000e+00 0.000000e+00 0.000000e+00
 0.000000e+00 2.376136e-01 7.623864e-01 0.000000e+00 0.000000e+00
 0.000000e+00 0.000000e+00 2.560285e-01 7.439715e-01 0.000000e+00
 0.000000e+00 0.000000e+00 0.000000e+00 4.334085e-01 5.665916e-01
 0.000000e+00 0.000000e+00 0.000000e+00 0.000000e+00 0.000000e+00
<ENDHMM>
~h "aw"
<BEGINHMM>
<NUMSTATES> 5
<STATE> 2
<MEAN> 25
 2.265133e+01 -1.117095e+01 -7.026870e+00 -1.207713e+01 5.309708e+00 9.280210e+00 -4.965156e+00 -1.664529e+00 8.919913e-01 -2.409670e-01 4.463646e-01 -2.836561e+00 4.653977e-01 -1.053978e+00 1.591258e-01 -9.639635e-01 2.848865e-01 4.105521e-01 -8.466815e-01 5.746294e-01 3.283512e-01 -2.176738e-01 -2.544800e-01 -3.181251e-01 1.058358e+00
<VARIANCE> 25
 1.961035e+01 1.120600e+02 8.381223e+01 1.376991e+02 4.411410e+01 3.708057e+01 8.436196e+01 4.235781e+01 3.068187e+01 6.546105e+01 1.972396e+01 3.997831e+01 3.969709e+00 1.307012e+01 8.413524e+00 7.436388e+00 7.987521e+00 3.915087e+00 7.736663e+00 5.998423e+00 4.070266e+00 5.895896e+00 3.720237e+00 5.254529e+00 1.160493e+01
<GCONST> 1.168198e+02
<STATE> 3
<MEAN> 25
 2.528334e+01 -1.287191e+01 -2.909144e+00 -9.927838e+00 -1.457657e+00 7.247650e+00 -4.884916e+00 6.776135e-01 -1.105996e+00 2.032770e+00 5.274589e+00 -7.773797e+00 -4.356669e-01 1.992404e+00 -6.198984e-01 7.288942e-01 3.734780e-01 -4.773514e-01 1.164909e-01 -3.168602e-01 5.475978e-01 3.098268e-01 -5.043489e-02 3.128321e-01 -1.510450e+00
<VARIANCE> 25
 1.828689e+01 1.376145e+02 1.131264e+02 8.065013e+01 4.233950e+01 5.750176e+01 5.262228e+01 4.863713e+01 2.385391e+01 2.697075e+01 3.258550e+01 1.286399e+01 2.407231e+00 3.985211e+00 7.521657e+00 2.902087e+00 6.071111e+00 1.516947e+00 1.000496e+01 2.758665e+00 2.972153e+00 2.305939e+00 2.957489e+00 2.204697e+00 4.236690e+00
<GCONST> 1.071721e+02
<STATE> 4
<MEAN> 25
 1.069836e+01 4.513219e+00 -1.262732e+01 -6.019078e+00 5.410306e-01 4.882369e+00 7.389401e-01 -3.400210e+00 -6.074428e-01 3.275461e+00 3.952077e+00 -8.277253e-01 -3.761549e+00 -9.134680e-02 1.183722e+00 8.311634e-02 -1.797198e+00 -3.725915e-01 7.332306e-01 5.623909e-01 -1.342221e-01 -1.278747e-01 9.519109e-01 1.259003e+00 -2.654073e+00
<VARIANCE> 25
 4.778210e+01 6.811771e+00 5.893316e+01 4.385396e+01 3.453964e+01 1.220976e+01 2.550510e+01 1.056228e+01 2.110373e+01 1.522746e+01 3.060719e+01 2.257093e+01 2.370663e+00 2.221123e+00 2.429959e+00 3.434794e+00 2.160693e+00 2.189113e+00 1.832848e+00 9.471729e-01 1.980476e+00 1.545858e+00 2.295834e+00 1.776072e+00 1.772088e+00
<GCONST> 9.252554e+01
<TRANSP> 5
 0.000000e+00 1.000000e+00 0.000000e+00 0.000000e+00 0.000000e+00
 0.000000e+00 8.767228e-01 1.232772e-01 0.000000e+00 0.000000e+00
 0.000000e+00 0.000000e+00 8.551452e-01 1.448548e-01 0.000000e+00
 0.000000e+00 0.000000e+00 0.000000e+00 7.602953e-01 2.397047e-01
 0.000000e+00 0.000000e+00 0.000000e+00 0.000000e+00 0.000000e+00
<ENDHMM>
~h "ay"
<BEGINHMM>
<NUMSTATES> 5
<STATE> 2
<MEAN> 25
 1.005846e+01 -5.921320e+00 -8.720966e-01 -1.005930e+01 6.969956e+00 -3.026987e+00 -6.054888e+00 4.192138e-02 2.762445e+00 1.813587e+00 -1.409949e+00 -2.388747e+00 -6.248423e-01 2.564855e-01 -2.814012e-01 -4.139357e-01 1.425272e+00 -3.134803e-01 1.404577e-01 1.216817e-01 1.351927e+00 -4.870781e-01 2.593402e-01 6.432242e-01 2.529548e-01
<VARIANCE> 25
 9.738899e+01 1.069997e+02 6.504282e+01 1.324247e+02 5.423569e+01 7.470299e+01 1.004663e+02 9.026299e+01 7.228306e+01 6.184894e+01 3.056050e+01 5.658948e+01 8.338232e+00 1.102283e+01 4.843442e+00 9.181902e+00 5.270591e+00 8.169844e+00 8.830429e+00 7.288337e+00 6.289756e+00 6.216533e+00 3.500304e+00 5.380747e+00 1.449988e+01
<GCONST> 1.230584e+02
<STATE> 3
<MEAN> 25
 2.710974e+00 -7.240895e+00 1.857818e+00 -6.759775e+00 5.344389e+00 -8.383881e+00 1.246630e+00 1.108398e-01 4.932019e+00 1.576257e+00 -9.414158e-01 1.604522e+00 2.248647e+00 -2.296513e+00 1.500344e+00 -4.443189e-01 -1.110960e+00 6.352849e-01 -7.679667e-01 8.432319e-01 -3.636446e-01 7.100991e-01 -4.909407e-01 -1.018153e+00 2.268104e+00
<VARIANCE> 25
 9.034717e+01 5.904566e+01 1.210769e+02 6.242324e+01 6.676746e+01 7.930736e+01 8.867654e+01 4.226939e+01 3.805705e+01 2.944845e+01 3.928292e+01 3.638600e+01 1.348621e+01 5.535572e+00 1.739181e+01 1.366254e+01 1.071502e+01 1.544423e+01 1.582732e+01 5.951284e+00 6.200557e+00 5.661911e+00 5.613113e+00 3.969913e+00 1.134487e+01
<GCONST> 1.230783e+02
<STATE> 4
<MEAN> 25
 1.527978e+01 -1.243670e+01 4.303312e-02 -1.013110e+01 1.649271e+00 -1.052134e+00 -5.371142e+00 1.248903e+00 3.817418e+00 4.077718e+00 -1.523239e-01 -2.984881e+00 1.482154e+00 -1.343859e+00 -9.426415e-01 1.076406e+00 -1.451933e+00 9.269842e-01 -6.890774e-02 -5.569411e-02 -1.947981e-01 -3.375452e-01 3.308503e-01 -2.012677e-01 2.397856e-01
<VARIANCE> 25
 3.249550e+01 5.411306e+01 1.622798e+02 8.455750e+01 5.332172e+01 5.640709e+01 5.597937e+01 4.926863e+01 3.021679e+01 5.089157e+01 2.812772e+01 2.796269e+01 4.940052e+00 5.041087e+00 1.122198e+01 7.917971e+00 5.300254e+00 9.521817e+00 5.979621e+00 3.764798e+00 3.934985e+00 6.862504e+00 5.651402e+00 3.373769e+00 4.690764e+00
<GCONST> 1.154097e+02
<TRANSP> 5
 0.000000e+00 1.000000e+00 0.000000e+00 0.000000e+00 0.000000e+00
 0.000000e+00 7.448054e-01 2.551946e-01 0.000000e+00 0.000000e+00
 0.000000e+00 0.000000e+00 7.709423e-01 2.290576e-01 0.000000e+00
 0.000000e+00 0.000000e+00 0.000000e+00 7.131307e-01 2.868693e-01
 0.000000e+00 0.000000e+00 0.000000e+00 0.000000e+00 0.000000e+00
<ENDHMM>
~h "eh"
<BEGINHMM>
<NUMSTATES> 5
<STATE> 2
<MEAN> 25
 2.156123e+01 -1.823899e+01 -4.477724e-01 3.484062e+00 -1.129920e+01 -4.924382e+00 2.866972e+00 -1.719145e+00 9.183847e-01 4.652794e+00 -6.050303e+00 -3.991252e+00 1.325004e-01 6.728213e-01 -4.893240e-01 8.564131e-01 -2.995301e-03 -5.151544e-01 2.673652e-01 -2.022541e-01 -3.115806e-01 1.753833e-01 -1.964425e-01 2.200836e-01 -6.936995e-01
<VARIANCE> 25
 1.812378e+01 2.168239e+01 4.032048e+01 5.908289e+01 3.411938e+01 4.278203e+01 3.616682e+01 8.740114e+01 4.554930e+01 5.583616e+01 4.117575e+01 2.891161e+01 2.000206e+00 2.888698e+00 5.479343e+00 6.008649e+00 3.893597e+00 3.830591e+00 3.619711e+00 7.689171e+00 4.517179e+00 4.636664e+00 3.547693e+00 2.605820e+00 3.132216e+00
<GCONST> 1.076489e+02
<STATE> 3
<MEAN> 25
 1.979842e+01 -5.360851e+00 -7.662478e+00 7.616140e+00 -3.426296e+00 -8.850577e+00 8.163762e-01 8.876060e-01 1.172111e+00 5.781651e-02 -5.081719e+00 -1.762094e+00 -1.359294e+00 3.520259e+00 -9.754679e-01 -5.885675e-01 2.124092e+00 7.083579e-01 -1.135638e+00 1.411304e+00 9.918922e-01 -1.917497e+00 5.826956e-01 7.531953e-01 -3.028611e+00
<VARIANCE> 25
 2.820678e+01 4.308743e+01 4.543162e+01 5.120142e+01 5.361718e+01 3.289282e+01 5.291616e+01 6.606709e+01 6.131270e+01 5.589848e+01 4.973923e+01 3.372964e+01 2.331757e+00 4.702982e+00 4.406003e+00 6.892401e+00 6.175694e+00 5.106418e+00 4.028625e+00 7.119610e+00 3.864017e+00 5.183666e+00 4.770756e+00 2.195620e+00 2.867107e+00
<GCONST> 1.110160e+02
<STATE> 4
<MEAN> 25
 6.241475e+00 6.369279e+00 -4.731138e+00 1.461574e-01 -1.780242e+00 -2.504294e+00 -1.100266e+00 3.183262e+00 4.680705e+00 -2.736533e+00 -3.675649e+00 -4.004436e-01 -2.492931e+00 1.122960e+00 8.163713e-01 -7.967789e-01 -3.193158e-01 9.626871e-01 1.505666e-01 -5.541943e-01 -9.506501e-03 4.069501e-01 6.255355e-01 1.692512e-01 -2.150995e+00
<VARIANCE> 25
 1.081015e+02 8.399658e+01 8.419562e+01 3.789274e+01 4.761679e+01 3.143767e+01 4.034800e+01 4.408904e+01 3.038452e+01 3.790923e+01 1.964495e+01 1.855492e+01 2.764418e+00 7.241657e+00 6.315629e+00 4.737231e+00 5.134540e+00 2.953325e+00 3.650840e+00 3.354112e+00 2.610345e+00 2.945775e+00 2.385546e+00 1.973074e+00 3.146081e+00
<GCONST> 1.072256e+02
<TRANSP> 5
 0.000000e+00 1.000000e+00 0.000000e+00 0.000000e+00 0.000000e+00
 0.000000e+00 8.738865e-01 1.261135e-01 0.000000e+00 0.000000e+00
 0.000000e+00 0.000000e+00 7.290664e-01 2.709336e-01 0.000000e+00
 0.000000e+00 0.000000e+00 0.000000e+00 7.521896e-01 2.478104e-01
 0.000000e+00 0.000000e+00 0.000000e+00 0.000000e+00 0.000000e+00
<ENDHMM>
~h "er"
<BEGINHMM>
<NUMSTATES> 5
<STATE> 2
<MEAN> 25
 1.070315e+01 -2.029265e+00 3.233599e+00 -9.520292e+00 8.164824e+00 -4.791816e+00 -5.355563e+00 8.952672e-01 2.113212e+00 1.418675e+00 -2.223730e+00 -2.325302e-01 -4.289246e+00 2.761617e+00 3.218920e-01 1.033102e+00 1.442277e+00 -1.228322e+00 2.192389e+00 7.433265e-01 7.523525e-01 -2.341035e+00 6.860522e-01 1.044813e+00 -8.127147e-01
<VARIANCE> 25
 1.212829e+02 7.158170e+01 7.194187e+01 6.737767e+01 6.778738e+01 9.665472e+01 9.059078e+01 7.754472e+01 6.313728e+01 8.182983e+01 5.969017e+01 7.292277e+01 8.686044e+00 6.996461e+00 1.170611e+01 8.802520e+00 1.066884e+01 6.428404e+00 1.001613e+01 1.135878e+01 7.562900e+00 7.473609e+00 6.157600e+00 7.336225e+00 1.525481e+00
<GCONST> 1.240473e+02
<STATE> 3
<MEAN> 25
 -7.687971e+00 2.642763e+00 6.597844e+00 -7.096073e+00 3.917972e+00 -1.046585e+01 6.855690e+00 1.978018e+00 -1.223662e+00 -3.523484e+00 1.820406e+00 3.533411e+00 1.531004e+00 -1.350511e+00 6.609455e-01 4.647320e-01 -1.750310e+00 -4.214870e-01 -2.189626e-02 1.624564e-01 -6.267055e-01 1.476902e-01 3.399976e-01 -2.752005e-01 4.720772e-01
<VARIANCE> 25
 1.144680e+02 6.196972e+01 6.234444e+01 4.133785e+01 8.654848e+01 5.592637e+01 6.371103e+01 7.071114e+01 3.753492e+01 4.003969e+01 3.802337e+01 2.801026e+01 2.277633e+01 6.380857e+00 5.536764e+00 4.140100e+00 5.056506e+00 4.637496e+00 9.563082e+00 6.542690e+00 4.400566e+00 4.207217e+00 4.421659e+00 3.446044e+00 3.069551e+00
<GCONST> 1.160180e+02
<STATE> 4
<MEAN> 25
 1.674741e+01 -1.351272e+01 7.428287e+00 2.085494e+00 -7.500132e+00 -9.045041e+00 -4.492487e+00 2.373489e+00 4.867706e-01 9.406238e-01 -2.948180e+00 4.359654e-01 -4.583093e-02 4.613920e-01 -1.155559e+00 1.046985e+00 4.947728e-01 1.660071e-01 -6.758961e-01 -2.529868e-01 8.761226e-01 1.557954e-01 -6.217447e-01 2.635666e-01 -1.272964e+00
<VARIANCE> 25
 3.518092e+01 3.214890e+01 8.568970e+01 8.122935e+01 4.643652e+01 7.224334e+01 4.735964e+01 5.995636e+01 6.266775e+01 4.767774e+01 5.941534e+01 3.580878e+01 5.267703e+00 6.313768e+00 8.838660e+00 6.996962e+00 5.730539e+00 8.210171e+00 5.193697e+00 6.782524e+00 5.798557e+00 5.749554e+00 5.485209e+00 3.706325e+00 4.507964e+00
<GCONST> 1.166270e+02
<TRANSP> 5
 0.000000e+00 1.000000e+00 0.000000e+00 0.000000e+00 0.000000e+00
 0.000000e+00 7.882313e-01 2.117687e-01 0.000000e+00 0.000000e+00
 0.000000e+00 0.000000e+00 9.039096e-01 9.609039e-02 0.000000e+00
 0.000000e+00 0.000000e+00 0.000000e+00 9.214535e-01 7.854647e-02
 0.000000e+00 0.000000e+00 0.000000e+00 0.000000e+00 0.000000e+00
<ENDHMM>
~h "ey"
<BEGINHMM>
<NUMSTATES> 5
<STATE> 2
<MEAN> 25
 7.026746e-01 9.998131e+00 6.114022e+00 3.774390e+00 -1.847503e+00 2.632840e+00 2.501181e+00 5.663046e-02 2.708517e+00 -1.845541e+00 3.126089e+00 5.451142e-01 4.209421e+00 -3.241078e-01 5.369985e+00 -2.138466e+00 -4.663251e+00 -1.695894e+00 2.562264e-02 1.193771e+00 -2.783132e+00 -1.249279e-01 1.546079e+00 -3.124354e-01 4.989748e+00
<VARIANCE> 25
 6.677007e+01 3.544304e+01 4.855548e+01 3.572589e+01 4.766375e+01 9.224008e+00 1.939435e+01 1.787522e+01 1.720861e+01 1.190487e+01 1.172744e+01 1.544766e+01 8.033061e+00 7.593648e+00 1.423913e+01 7.677091e+00 6.914495e+00 6.277841e+00 8.611461e+00 5.325460e+00 6.956341e+00 5.828392e+00 1.817881e+00 3.300802e+00 1.648652e+01
<GCONST> 1.083289e+02
<STATE> 3
<MEAN> 25
 9.149660e+00 4.166304e+00 2.081941e+01 -3.753821e+00 -1.568877e+01 -4.182658e+00 1.806286e+00 3.924181e+00 -1.134350e+01 -2.210503e+00 5.868870e+00 -1.046638e+00 1.860970e+00 -3.334612e+00 3.641284e+00 -2.112751e+00 -1.693340e+00 -1.320825e+00 -5.730637e-01 3.834807e-01 -3.716969e+00 5.627776e-01 -2.213731e-01 6.494883e-02 4.310758e+00
<VARIANCE> 25
 2.511567e+01 5.298497e+01 1.323455e+02 8.345354e+01 3.154215e+01 7.583132e+01 8.058915e+01 4.689721e+01 7.295632e+01 7.426107e+01 1.501713e+01 3.260239e+01 7.493387e+00 2.526552e+00 1.303092e+01 8.517237e+00 8.993209e+00 5.507321e+00 6.111928e+00 4.406425e+00 7.299945e+00 4.471124e+00 3.009029e+00 2.884897e+00 9.399076e+00
<GCONST> 1.159917e+02
<STATE> 4
<MEAN> 25
 1.576939e+01 -1.490867e+01 2.042031e+01 -7.225112e+00 -1.253450e+01 -6.344833e+00 -4.848424e+00 7.291982e+00 -9.079817e+00 1.300369e+00 2.028467e+00 2.147347e+00 4.641861e-01 -9.102546e-01 -8.336704e-01 1.682207e-01 2.086814e-01 -1.969865e-01 -2.549960e-01 1.711022e-01 8.492413e-01 1.819753e-01 -3.157099e-01 1.400101e-01 6.641073e-01
<VARIANCE> 25
 1.977678e+01 4.093935e+01 7.887389e+01 7.855842e+01 3.684546e+01 3.544646e+01 3.534004e+01 6.002245e+01 7.746252e+01 3.936107e+01 2.426200e+01 1.260695e+01 1.154470e+00 2.165956e+00 2.314304e+00 3.782538e+00 3.496027e+00 3.483725e+00 2.585329e+00 3.626196e+00 4.050163e+00 2.817569e+00 2.597037e+00 1.679915e+00 1.989103e+00
<GCONST> 1.023746e+02
<TRANSP> 5
 0.000000e+00 1.000000e+00 0.000000e+00 0.000000e+00 0.000000e+00
 0.000000e+00 2.920409e-01 7.079592e-01 0.000000e+00 0.000000e+00
 0.000000e+00 0.000000e+00 6.926761e-01 3.073239e-01 0.000000e+00
 0.000000e+00 0.000000e+00 0.000000e+00 9.272532e-01 7.274674e-02
 0.000000e+00 0.000000e+00 0.000000e+00 0.000000e+00 0.000000e+00
<ENDHMM>
~h "ih"
<BEGINHMM>
<NUMSTATES> 5
<STATE> 2
<MEAN> 25
 -9.750638e+00 6.777512e+00 -3.225079e+00 4.128912e+00 2.483753e+00 3.082245e+00 1.855394e+00 -3.307351e+00 2.518139e-01 -2.806546e+00 6.450647e-01 1.903362e+00 3.337476e-01 4.616074e-02 -3.341312e-02 -1.660604e-01 -1.930734e-01 -1.509750e-01 -1.880657e-01 -9.190626e-02 -9.308108e-02 -1.349009e-02 -9.326652e-02 -8.165351e-02 2.550586e-01
<VARIANCE> 25
 3.041279e+01 1.613924e+01 2.090376e+01 3.112935e+01 1.536470e+01 1.690957e+01 1.498073e+01 1.823092e+01 1.500648e+01 1.579992e+01 1.722009e+01 1.502769e+01 2.003574e+00 9.152623e-01 1.231356e+00 1.608792e+00 1.689539e+00 1.786315e+00 1.614474e+00 1.681616e+00 1.710608e+00 1.200622e+00 1.588962e+00 1.286504e+00 2.536999e+00
<GCONST> 8.657446e+01
<STATE> 3
<MEAN> 25
 -8.368432e+00 3.376019e+00 -1.979891e+00 2.038979e+00 1.151841e+00 7.353016e-01 2.062568e+00 4.370286e-01 2.030172e-01 -1.427812e+00 -1.601398e+00 2.945212e-01 8.477782e-02 -3.180337e-01 1.201804e-01 1.742046e-01 2.395663e-01 -5.433883e-02 9.445753e-02 1.662394e-01 4.866859e-02 8.210831e-02 -1.895065e-01 -8.530359e-02 2.894439e-01
<VARIANCE> 25
 2.893687e+01 1.967271e+01 1.199842e+01 2.301355e+01 2.044691e+01 2.076686e+01 1.475606e+01 1.691543e+01 1.447711e+01 1.256566e+01 1.849825e+01 1.179760e+01 9.206314e-01 1.080631e+00 9.697445e-01 1.483949e+00 1.608220e+00 1.407467e+00 1.327627e+00 1.652893e+00 1.267075e+00 1.579198e+00 1.332938e+00 1.033528e+00 5.887129e-01
<GCONST> 8.251815e+01
<STATE> 4
<MEAN> 25
 -5.745429e+00 2.472118e+00 -1.232176e+00 4.428349e+00 1.852062e+00 -6.001441e-01 9.348196e-01 -2.161573e-01 1.959954e+00 -1.160584e+00 -1.706174e+00 5.407941e-01 6.471206e-01 -7.017426e-01 4.909404e-01 1.186106e-01 3.176671e-01 -6.775956e-01 -2.591766e-01 5.135554e-02 9.283685e-02 1.370666e-01 -2.017805e-01 -7.003906e-02 1.269419e+00
<VARIANCE> 25
 4.003540e+01 5.994482e+01 2.365041e+01 1.554777e+01 1.828021e+01 3.587800e+01 2.130141e+01 1.994127e+01 2.338621e+01 1.777278e+01 1.924058e+01 1.401233e+01 4.446469e+00 5.357935e+00 2.543765e+00 2.264492e+00 3.155729e+00 3.772554e+00 2.611192e+00 1.547608e+00 3.180242e+00 1.944385e+00 1.517669e+00 1.902918e+00 4.217840e+00
<GCONST> 9.691868e+01
<TRANSP> 5
 0.000000e+00 1.000000e+00 0.000000e+00 0.000000e+00 0.000000e+00
 0.000000e+00 7.475444e-01 2.524556e-01 0.000000e+00 0.000000e+00
 0.000000e+00 0.000000e+00 7.419989e-01 2.580011e-01 0.000000e+00
 0.000000e+00 0.000000e+00 0.000000e+00 6.822629e-01 3.177371e-01
 0.000000e+00 0.000000e+00 0.000000e+00 0.000000e+00 0.000000e+00
<ENDHMM>
~h "iy"
<BEGINHMM>
<NUMSTATES> 5
<STATE> 2
<MEAN> 25
 7.877647e-01 1.423413e+01 4.616882e+00 7.722978e+00 -1.469442e+00 -1.723636e-01 -1.243198e+00 -6.035451e+00 -2.637930e+00 -4.893802e+00 -2.119585e+00 -9.166934e-01 -1.537727e+00 -1.127201e+00 -8.563499e-01 1.751772e-01 8.362281e-01 5.864831e-01 1.942563e-01 2.328125e-01 9.105165e-02 -3.365646e-02 -1.515274e-02 -6.143698e-02 -8.851981e-01
<VARIANCE> 25
 4.412431e+01 2.655746e+01 2.130323e+01 1.326061e+01 2.061047e+01 2.197865e+01 1.717919e+01 2.208084e+01 1.128723e+01 1.769261e+01 1.927797e+01 2.078337e+01 1.477161e+00 1.935603e+00 2.019665e+00 1.164245e+00 1.255325e+00 1.169360e+00 1.736484e+00 2.076392e+00 1.482752e+00 1.561956e+00 1.510525e+00 1.327255e+00 3.452251e-01
<GCONST> 8.604486e+01
<STATE> 3
<MEAN> 25
 -8.612107e+00 7.118192e+00 -1.217074e+00 7.550924e+00 1.649973e+00 1.917588e+00 1.296472e+00 -3.952631e+00 -1.774420e+00 -4.148580e+00 -7.631568e-01 -1.222503e-01 -6.138858e-01 -4.814178e-01 -4.629673e-01 -2.197810e-01 1.737842e-01 1.946098e-01 1.926552e-01 4.584415e-01 3.598341e-01 2.984552e-02 2.042434e-01 1.600918e-01 -3.139719e-01
<VARIANCE> 25
 5.833380e+00 6.433470e+00 1.075734e+01 2.125627e+01 1.044819e+01 1.612442e+01 1.308790e+01 1.720662e+01 1.556770e+01 1.558880e+01 1.844565e+01 1.373128e+01 3.122490e-01 6.660281e-01 6.844279e-01 7.492896e-01 8.608029e-01 1.273059e+00 1.079678e+00 1.106938e+00 1.825438e+00 1.642580e+00 1.150438e+00 1.274539e+00 6.970072e-02
<GCONST> 7.342316e+01
<STATE> 4
<MEAN> 25
 -9.419279e+00 5.016469e+00 -5.836097e+00 5.012231e+00 3.243314e+00 3.698872e+00 1.951463e+00 -2.514639e+00 3.298439e-01 -2.336427e+00 -7.743549e-01 -1.082308e+00 -3.562645e-02 -1.146659e-02 -8.724742e-03 -1.675184e-02 9.697767e-03 7.001812e-03 1.087479e-02 4.844336e-03 1.690551e-02 2.038968e-02 -3.649200e-02 -6.377070e-02 -1.861767e-02
<VARIANCE> 25
 5.964969e+00 4.446988e+00 8.780525e+00 9.269577e+00 1.071985e+01 1.239165e+01 1.098689e+01 1.291684e+01 1.159190e+01 1.196061e+01 1.277013e+01 1.117213e+01 1.146296e-01 2.883146e-01 4.903544e-01 5.750855e-01 7.894143e-01 9.382773e-01 9.629922e-01 1.219707e+00 1.191406e+00 1.115415e+00 1.290236e+00 1.109772e+00 4.110542e-02
<GCONST> 6.599798e+01
<TRANSP> 5
 0.000000e+00 1.000000e+00 0.000000e+00 0.000000e+00 0.000000e+00
 0.000000e+00 7.831321e-01 2.168679e-01 0.000000e+00 0.000000e+00
 0.000000e+00 0.000000e+00 7.536990e-01 2.463010e-01 0.000000e+00
 0.000000e+00 0.000000e+00 0.000000e+00 9.380257e-01 6.197425e-02
 0.000000e+00 0.000000e+00 0.000000e+00 0.000000e+00 0.000000e+00
<ENDHMM>
~h "ng"
<BEGINHMM>
<NUMSTATES> 5
<STATE> 2
<MEAN> 25
 1.872681e+01 -3.375288e+00 4.102458e+00 3.369306e+00 -1.223198e+01 -2.237704e+00 1.127763e+01 -6.494511e+00 -1.498510e+01 3.481096e+00 1.302392e+00 -3.840619e+00 7.220467e-01 3.248466e+00 -1.909895e+00 8.863432e-01 3.036813e-01 1.026804e+00 -3.116841e-01 -3.387929e+00 5.164822e-01 5.960516e-01 6.386052e-02 6.470993e-01 -1.810402e+00
<VARIANCE> 25
 1.167993e+01 7.133101e+01 8.223106e+01 9.825063e+01 5.657108e+01 2.931051e+01 5.713686e+01 1.531480e+02 4.564519e+01 3.728243e+01 2.647090e+01 2.890806e+01 1.025078e+00 3.842356e+00 6.221136e+00 9.938086e+00 4.863613e+00 3.251784e+00 8.452929e+00 8.435298e+00 6.910125e+00 3.977172e+00 2.883734e+00 2.676739e+00 1.391558e+00
<GCONST> 1.104498e+02
<STATE> 3
<MEAN> 25
 1.774954e+01 3.466158e+00 -1.124701e+00 -3.275362e+00 -9.052031e-01 -2.678862e+00 -3.883904e+00 -5.263167e+00 -5.355424e+00 8.349649e-01 -1.197928e+00 -1.774439e+00 -6.687000e-01 -2.713493e+00 7.906681e-01 -2.807363e+00 2.611528e+00 -8.042646e-01 -3.663528e+00 3.216575e+00 2.184004e+00 4.046603e-01 -1.019273e+00 -6.331301e-01 1.955469e+00
<VARIANCE> 25
 1.582478e+01 1.255145e+02 5.765507e+01 1.014417e+02 1.148723e+02 8.254315e+01 1.122734e+02 1.406391e+02 6.978799e+01 3.476995e+01 4.717283e+01 3.185709e+01 1.616257e+00 1.185339e+01 6.554636e+00 1.199408e+01 9.676240e+00 8.777573e+00 7.574076e+00 1.328658e+01 4.354913e+00 6.619558e+00 4.193999e+00 3.338099e+00 4.363794e+00
<GCONST> 1.199929e+02
<STATE> 4
<MEAN> 25
 1.740445e+01 -1.068356e+01 3.568192e+00 -2.269062e+01 4.796599e+00 3.942582e+00 -1.470086e+01 1.859429e+00 1.790504e+00 1.092073e+01 -3.779159e+00 -3.321321e+00 2.327589e-01 2.977909e-01 -3.384746e-01 -1.066693e-01 -2.158020e-01 7.675065e-01 -2.038880e-01 -1.046842e+00 1.572095e-01 2.674074e-01 4.576650e-02 2.081490e-01 -2.053227e-01
<VARIANCE> 25
 6.009375e+00 2.952837e+01 3.240425e+01 4.604359e+01 5.203855e+01 3.691870e+01 3.852592e+01 7.730576e+01 3.821604e+01 2.980278e+01 4.784418e+01 3.048941e+01 3.193296e-01 1.661141e+00 1.255757e+00 4.131677e+00 3.166444e+00 3.204920e+00 2.067186e+00 3.423413e+00 1.892810e+00 2.186605e+00 2.756534e+00 1.830193e+00 8.217312e-01
<GCONST> 9.644546e+01
<TRANSP> 5
 0.000000e+00 1.000000e+00 0.000000e+00 0.000000e+00 0.000000e+00
 0.000000e+00 8.462021e-01 1.537979e-01 0.000000e+00 0.000000e+00
 0.000000e+00 0.000000e+00 8.296925e-01 1.703074e-01 0.000000e+00
 0.000000e+00 0.000000e+00 0.000000e+00 8.906837e-01 1.093163e-01
 0.000000e+00 0.000000e+00 0.000000e+00 0.000000e+00 0.000000e+00
<ENDHMM>
~h "sp"
<BEGINHMM>
<NUMSTATES> 3
<STATE> 2
~s "silst"
<TRANSP> 3
 0.000000e+00 5.159843e-02 9.484015e-01
 0.000000e+00 7.369554e-01 2.630446e-01
 0.000000e+00 0.000000e+00 0.000000e+00
<ENDHMM>
~h "th"
<BEGINHMM>
<NUMSTATES> 5
<STATE> 2
<MEAN> 25
 1.513994e+01 -8.452059e+00 1.984241e+01 4.679934e-01 -1.843910e+01 -6.003158e+00 1.320565e+00 -2.148634e+00 -1.047530e+01 -3.331424e+00 1.249289e+00 1.516228e+00 -1.216793e-02 1.766294e+00 7.585776e-01 3.564446e-01 -1.450686e+00 9.913987e-03 7.781722e-01 -6.741009e-01 -1.028294e+00 1.356023e-01 2.993885e-01 -3.134585e-01 -1.055091e+00
<VARIANCE> 25
 2.276652e+01 8.426207e+01 7.236790e+01 9.574043e+01 1.298932e+02 6.168397e+01 1.166957e+02 6.404659e+01 1.098061e+02 5.116501e+01 4.008624e+01 3.664383e+01 2.458848e+00 5.998399e+00 4.771569e+00 6.008378e+00 6.980647e+00 7.184940e+00 8.109147e+00 5.090117e+00 9.455567e+00 4.751195e+00 5.185154e+00 4.576621e+00 3.486911e+00
<GCONST> 1.180867e+02
<STATE> 3
<MEAN> 25
 1.125480e+01 1.787276e+01 1.566398e+01 1.779722e+00 -1.781154e+01 -6.989349e+00 1.910023e+00 -7.468338e+00 -6.423026e+00 3.012593e+00 -2.368271e-01 -2.198453e+00 -1.902601e+00 1.526746e+00 -2.331196e+00 2.424039e-01 3.485824e+00 5.934316e-02 -1.996356e+00 9.216686e-01 2.554232e+00 1.804531e-03 2.408472e-01 4.176984e-01 -2.572654e+00
<VARIANCE> 25
 1.169916e+01 1.883534e+01 3.290158e+01 7.068944e+01 7.126308e+01 4.075723e+01 7.605775e+01 3.484910e+01 2.181530e+01 3.306131e+01 3.017846e+01 1.218132e+01 1.236502e+00 4.847532e+00 5.722744e+00 6.325661e+00 6.227415e+00 4.473547e+00 1.123469e+01 2.483928e+00 3.672736e+00 5.230237e+00 2.080052e+00 1.315770e+00 6.757079e-01
<GCONST> 1.030446e+02
<STATE> 4
<MEAN> 25
 1.583169e+00 1.102346e+01 6.250640e+00 7.358153e-01 -1.233502e+01 -1.903865e+00 1.169052e+00 -6.456151e+00 -4.728657e+00 2.211530e-01 -1.071689e+00 -1.654507e+00 -2.292843e+00 -1.938151e+00 -2.349921e+00 -4.725479e-01 1.514414e+00 1.199164e+00 8.697455e-02 5.642117e-02 -5.006484e-02 -8.503649e-01 -3.541567e-01 2.328551e-01 -1.359347e+00
<VARIANCE> 25
 2.359291e+01 3.903590e+01 4.134492e+01 1.656676e+01 4.296403e+01 2.894680e+01 2.103072e+01 2.016960e+01 1.528539e+01 1.089948e+01 2.396902e+01 1.173867e+01 2.456722e+00 1.065919e+00 2.344295e+00 1.629584e+00 5.669910e+00 1.737658e+00 5.092895e+00 1.258851e+00 2.803733e+00 1.425111e+00 2.160535e+00 5.680044e-01 1.088849e+00
<GCONST> 9.135674e+01
<TRANSP> 5
 0.000000e+00 1.000000e+00 0.000000e+00 0.000000e+00 0.000000e+00
 0.000000e+00 9.236953e-01 7.630460e-02 0.000000e+00 0.000000e+00
 0.000000e+00 0.000000e+00 7.047956e-01 2.952045e-01 0.000000e+00
 0.000000e+00 0.000000e+00 0.000000e+00 6.536115e-01 3.463885e-01
 0.000000e+00 0.000000e+00 0.000000e+00 0.000000e+00 0.000000e+00
<ENDHMM>
~h "uw"
<BEGINHMM>
<NUMSTATES> 5
<STATE> 2
<MEAN> 25
 -2.058519e+00 7.504584e+00 -1.394344e+00 2.298401e+00 -1.629552e+00 3.237050e-01 4.596595e-01 -3.338871e+00 -4.846298e+00 -4.369964e+00 5.674995e-01 6.032931e-01 -1.557940e+00 -8.968275e-01 2.020332e-03 6.412451e-01 1.321841e-01 2.128595e-02 4.633175e-01 5.667582e-01 1.673554e-01 -3.042299e-01 -6.500361e-01 -4.051366e-01 -8.898726e-01
<VARIANCE> 25
 2.784491e+01 2.024149e+01 1.566237e+01 2.097598e+01 1.619004e+01 2.099447e+01 2.075280e+01 2.074675e+01 2.114817e+01 2.138681e+01 1.748198e+01 2.367262e+01 1.483312e+00 1.408374e+00 1.550053e+00 1.396919e+00 1.707714e+00 2.128960e+00 1.160285e+00 1.642385e+00 1.804693e+00 1.636080e+00 1.568052e+00 1.593786e+00 5.825045e-01
<GCONST> 8.701258e+01
<STATE> 3
<MEAN> 25
 -5.559226e+00 3.335600e+00 7.025675e-01 5.322115e+00 -1.184749e+00 -4.128068e-01 4.015368e-01 -1.028491e+00 -2.296132e+00 -3.160510e+00 -1.625644e+00 -1.428927e+00 -1.084578e-01 -2.664768e-02 9.028126e-02 1.248254e-01 5.762026e-02 1.799009e-02 2.864883e-02 8.152621e-02 1.010797e-01 3.252957e-02 -1.497842e-02 -4.966237e-03 -5.786284e-02
<VARIANCE> 25
 3.382617e+00 6.498979e+00 1.179978e+01 1.249599e+01 1.109949e+01 1.173426e+01 1.118889e+01 1.292134e+01 1.281445e+01 1.424078e+01 1.317474e+01 1.156152e+01 1.556274e-01 2.846188e-01 4.740598e-01 5.698385e-01 8.577330e-01 9.802907e-01 1.238060e+00 1.221096e+00 1.116579e+00 1.166412e+00 1.107304e+00 9.363508e-01 4.200646e-02
<GCONST> 6.705123e+01
<STATE> 4
<MEAN> 25
 -7.785142e+00 5.170029e+00 8.017063e-03 3.676487e+00 3.126500e-01 1.435550e+00 1.797748e+00 1.257508e+00 -4.458037e-02 -3.349842e+00 -6.915052e-01 8.792893e-01 -1.624625e-01 3.170437e-02 1.871546e-01 3.211815e-01 4.901218e-01 -3.315319e-01 1.388570e-01 2.762834e-01 6.955425e-01 7.745921e-01 5.754790e-02 1.619142e-01 1.234723e-01
<VARIANCE> 25
 1.397608e+01 1.451841e+01 2.698914e+01 4.614493e+01 1.600830e+01 3.165623e+01 1.311905e+01 2.336785e+01 1.439192e+01 2.488534e+01 1.500111e+01 1.801311e+01 1.568751e+00 1.473020e+00 2.210804e+00 2.326726e+00 1.652952e+00 2.798456e+00 2.106827e+00 2.492562e+00 2.254437e+00 1.788527e+00 1.517172e+00 2.119461e+00 1.119835e+00
<GCONST> 9.016155e+01
<TRANSP> 5
 0.000000e+00 1.000000e+00 0.000000e+00 0.000000e+00 0.000000e+00
 0.000000e+00 7.321741e-01 2.678259e-01 0.000000e+00 0.000000e+00
 0.000000e+00 0.000000e+00 9.272046e-01 7.279538e-02 0.000000e+00
 0.000000e+00 0.000000e+00 0.000000e+00 3.545990e-01 6.454010e-01
 0.000000e+00 0.000000e+00 0.000000e+00 0.000000e+00 0.000000e+00
<ENDHMM>
~h "sil"
<BEGINHMM>
<NUMSTATES> 5
<STATE> 2
<MEAN> 25
 -1.007827e+01 5.252551e+00 -2.275914e+00 4.463865e+00 8.059882e-01 2.207514e+00 1.930800e+00 -5.946233e-01 5.538182e-01 -2.440439e+00 -3.255726e-01 6.350327e-02 -3.165383e-02 -1.288801e-02 9.211380e-03 2.911207e-02 4.727724e-02 3.063321e-02 3.406990e-02 2.403918e-02 -2.129225e-03 -1.278558e-02 -9.237165e-03 6.185240e-03 -1.680607e-02
<VARIANCE> 25
 7.375701e+00 5.600393e+00 8.905104e+00 1.407860e+01 1.017079e+01 1.263048e+01 1.365777e+01 1.541702e+01 1.332869e+01 1.291199e+01 1.375654e+01 1.286404e+01 9.934255e-02 2.159791e-01 3.920386e-01 6.008185e-01 7.536267e-01 9.078709e-01 1.045875e+00 1.157438e+00 1.130910e+00 1.251688e+00 1.253188e+00 1.186157e+00 3.817413e-02
<GCONST> 6.703094e+01
<STATE> 3
~s "silst"
<STATE> 4
<MEAN> 25
 -6.341051e+00 3.560680e+00 2.981655e-01 3.101848e+00 9.770880e-01 1.614624e+00 1.450302e+00 -6.871170e-02 -4.811999e-01 -2.278735e+00 -2.301503e-01 2.173349e-01 2.769336e-01 5.561206e-02 4.935025e-02 -2.047301e-02 -6.694178e-02 -1.702491e-01 -1.939970e-01 -9.383373e-02 -7.368052e-02 -5.803050e-02 -9.282645e-02 -1.183589e-01 2.066913e-01
<VARIANCE> 25
 7.092578e+01 4.141729e+01 3.723749e+01 4.820758e+01 2.961664e+01 2.950620e+01 2.695810e+01 2.534934e+01 2.424135e+01 2.182914e+01 1.977696e+01 1.678126e+01 2.199847e+00 1.925310e+00 1.731114e+00 1.971399e+00 2.149786e+00 2.312713e+00 2.215062e+00 1.952843e+00 1.932542e+00 1.734024e+00 1.745024e+00 1.497486e+00 3.355356e+00
<GCONST> 9.592088e+01
<TRANSP> 5
 0.000000e+00 1.000000e+00 0.000000e+00 0.000000e+00 0.000000e+00
 0.000000e+00 9.145001e-01 1.741227e-02 6.808756e-02 0.000000e+00
 0.000000e+00 0.000000e+00 9.359625e-01 6.403752e-02 0.000000e+00
 0.000000e+00 1.411022e-01 0.000000e+00 6.976535e-01 1.612443e-01
 0.000000e+00 0.000000e+00 0.000000e+00 0.000000e+00 0.000000e+00
<ENDHMM>
