~o
<STREAMINFO> 1 25
<VECSIZE> 25<NULLD><MFCC_D_N_Z_0><DIAGC>
~s "silst"
<MEAN> 25
 -1.531128e+01 3.334806e+00 -2.556696e+00 5.718825e+00 1.867829e+00 4.403940e+00 4.981491e+00 4.386837e+00 6.621894e+00 1.706868e+00 3.522005e+00 4.167180e+00 -8.302801e-03 3.308559e-03 1.748412e-02 2.420771e-02 2.023854e-02 1.663802e-02 -7.950538e-05 -5.012519e-02 -6.166228e-02 -2.954590e-02 3.153493e-03 -3.905996e-03 -4.212549e-03
<VARIANCE> 25
 6.829775e+00 5.991506e+00 9.874839e+00 9.234758e+00 9.442266e+00 9.867182e+00 1.157591e+01 1.460868e+01 1.390985e+01 1.043346e+01 9.696341e+00 7.409443e+00 4.080863e-02 1.301337e-01 2.294601e-01 3.596224e-01 5.045724e-01 4.873079e-01 8.048860e-01 1.121704e+00 1.339194e+00 1.013811e+00 7.966741e-01 8.752612e-01 3.817413e-02
<GCONST> 6.053036e+01
~h "b"
<BEGINHMM>
<NUMSTATES> 5
<STATE> 2
<MEAN> 25
 2.027933e+01 -4.786228e+00 3.010467e+00 -8.233367e+00 -3.272227e+00 6.948491e+00 -9.204839e+00 -1.608102e+01 -4.293848e+00 6.640430e+00 -1.285922e+00 -1.788865e+00 2.520007e-01 3.571663e-01 -1.917457e-01 -1.315752e+00 -2.214061e-01 3.849061e-01 9.226010e-02 -1.742997e-01 -5.265722e-01 3.683288e-01 2.309650e-01 -5.207181e-02 1.669019e-01
<VARIANCE> 25
 9.652319e+00 4.920510e+01 5.939837e+01 1.969171e+02 6.976058e+01 6.974709e+01 9.658625e+01 8.084626e+01 5.901190e+01 2.901567e+01 6.874847e+01 2.475480e+01 6.193761e-01 5.340530e+00 4.347081e+00 8.559368e+00 7.069719e+00 5.661405e+00 6.657304e+00 7.118260e+00 5.202343e+00 2.939453e+00 4.224364e+00 2.380274e+00 2.657200e+00
<GCONST> 1.121885e+02
<STATE> 3
<MEAN> 25
 2.203556e+01 1.068720e+01 -9.157839e+00 -1.334237e+01 -2.368768e-02 6.141303e+00 -3.780887e+00 -1.355242e+01 -1.022915e+01 2.575151e+00 3.193156e+00 1.582639e+00 -7.224763e-01 2.254272e+00 -1.107622e+00 1.100736e+00 7.936936e-01 -4.645393e-01 8.260490e-01 1.649384e+00 1.497030e-01 -1.563976e+00 7.786648e-01 8.635175e-01 -2.083021e+00
<VARIANCE> 25
 6.198604e+00 1.683533e+01 1.461505e+01 8.381760e+01 2.795783e+01 1.733861e+01 2.744457e+01 6.234704e+01 3.476625e+01 2.434178e+01 2.366211e+01 9.832461e+00 1.313410e+00 1.384628e+00 4.998990e+00 5.942461e+00 5.671065e+00 3.803055e+00 4.285381e+00 4.277968e+00 2.956740e+00 2.246093e+00 4.794281e+00 2.016420e+00 5.946919e-01
<GCONST> 9.713593e+01
<STATE> 4
<MEAN> 25
 1.581011e+01 1.573351e+01 -5.806355e+00 -9.565403e+00 -3.800425e+00 3.955393e+00 8.414338e-01 -6.573599e+00 -7.961461e+00 -3.399689e+00 2.292819e+00 2.028529e+00 -2.748063e+00 1.037412e-01 1.693665e+00 1.626019e+00 -8.076567e-01 -1.023560e+00 5.673022e-01 1.510986e+00 1.604332e+00 -5.904167e-01 -4.118431e-01 -8.840681e-02 -1.999527e+00
<VARIANCE> 25
 1.952619e+01 1.047100e+01 1.993645e+01 5.783853e+01 7.699957e+01 6.269543e+01 2.131266e+01 5.250176e+01 2.647813e+01 4.055762e+01 3.536337e+01 3.360113e+01 2.279713e+00 1.684998e+00 1.701050e+00 2.159794e+00 2.864247e+00 4.047060e+00 2.118775e+00 5.085224e+00 2.260444e+00 1.819027e+00 1.803329e+00 1.387206e+00 8.832590e-01
<GCONST> 9.756021e+01
<TRANSP> 5
 0.000000e+00 1.000000e+00 0.000000e+00 0.000000e+00 0.000000e+00
 0.000000e+00 9.242035e-01 7.579654e-02 0.000000e+00 0.000000e+00
 0.000000e+00 0.000000e+00 7.749479e-01 2.250522e-01 0.000000e+00
 0.000000e+00 0.000000e+00 0.000000e+00 7.027999e-01 2.972001e-01
 0.000000e+00 0.000000e+00 0.000000e+00 0.000000e+00 0.000000e+00
<ENDHMM>
~h "d"
<BEGINHMM>
<NUMSTATES> 5
<STATE> 2
<MEAN> 25
 -1.662374e+01 1.502729e+00 -3.003932e-01 7.378664e+00 1.229885e+00 3.698967e+00 4.755080e+00 3.700785e+00 4.799981e+00 1.674385e+00 4.995571e+00 3.622905e+00 -1.452320e-02 8.500419e-03 -2.010582e-03 6.755354e-03 1.959750e-02 -1.499965e-02 -5.125263e-02 1.589764e-02 8.006407e-02 5.074887e-02 1.352903e-03 -3.083330e-02 -1.244515e-02
<VARIANCE> 25
 6.718372e+00 4.753972e+00 3.989259e+00 6.396971e+00 6.213405e+00 7.726510e+00 9.445683e+00 1.342790e+01 1.103466e+01 9.626987e+00 1.008998e+01 8.598428e+00 4.704542e-02 1.530527e-01 2.322246e-01 3.767390e-01 4.702088e-01 5.009670e-01 7.230124e-01 1.163208e+00 1.248216e+00 1.061792e+00 7.893569e-01 8.697398e-01 3.817413e-02
<GCONST> 5.814434e+01
<STATE> 3
<MEAN> 25
 -1.304749e+01 5.649170e+00 -1.437579e+00 2.395267e+00 1.624635e+00 2.414314e+00 5.340983e-01 1.974378e+00 1.166238e+00 -2.009194e+00 7.107228e-01 1.955794e+00 -1.023141e-02 1.302051e-02 1.904943e-02 1.897219e-02 1.277101e-02 3.941005e-02 -7.576238e-03 -6.263328e-02 -8.032598e-02 -6.001409e-02 3.642167e-02 -4.286468e-03 -1.509739e-02
<VARIANCE> 25
 4.298665e+00 4.247993e+00 1.235300e+01 1.925041e+01 1.047230e+01 1.073962e+01 1.450591e+01 1.513892e+01 1.163476e+01 1.114063e+01 1.078587e+01 1.054454e+01 1.112135e-01 2.609625e-01 4.184955e-01 6.744010e-01 8.055211e-01 8.776248e-01 1.021665e+00 9.814400e-01 1.230073e+00 1.074561e+00 1.186237e+00 1.170817e+00 3.817413e-02
<GCONST> 6.622912e+01
<STATE> 4
<MEAN> 25
 -1.054002e+01 4.243184e+00 3.235046e-01 3.210895e+00 1.064549e+00 1.879100e+00 8.741097e-01 1.101461e+00 1.256011e+00 -1.626612e+00 -1.103859e+00 5.488121e-01 1.339213e-01 3.717944e-02 6.682526e-02 1.073069e-01 7.305628e-03 -1.007682e-02 2.642790e-02 -2.072795e-01 -1.625966e-01 1.328481e-01 1.701295e-03 -9.579320e-02 1.106004e-01
<VARIANCE> 25
 1.512735e+01 6.696498e+00 1.732407e+01 1.627378e+01 1.230146e+01 1.154739e+01 1.987073e+01 1.774113e+01 2.197629e+01 1.341711e+01 2.385126e+01 2.076928e+01 1.289494e+00 6.177220e-01 6.875671e-01 9.830471e-01 1.179625e+00 1.168511e+00 1.202428e+00 1.757162e+00 2.583557e+00 1.248912e+00 1.565789e+00 1.784795e+00 1.277941e+00
<GCONST> 8.181397e+01
<TRANSP> 5
 0.000000e+00 1.000000e+00 0.000000e+00 0.000000e+00 0.000000e+00
 0.000000e+00 8.958899e-01 1.041101e-01 0.000000e+00 0.000000e+00
 0.000000e+00 0.000000e+00 8.950490e-01 1.049509e-01 0.000000e+00
 0.000000e+00 0.000000e+00 0.000000e+00 5.538461e-01 4.461539e-01
 0.000000e+00 0.000000e+00 0.000000e+00 0.000000e+00 0.000000e+00
<ENDHMM>
~h "f"
<BEGINHMM>
<NUMSTATES> 5
<STATE> 2
<MEAN> 25
 -1.882721e+01 3.371874e+00 -1.946539e+00 5.274376e+00 1.636301e+00 5.677437e+00 5.757947e+00 4.565042e+00 5.822045e+00 8.777920e-01 5.318743e+00 3.902393e+00 5.502510e-03 2.382337e-03 2.371496e-03 1.416982e-02 2.955221e-02 -3.023604e-02 -7.585047e-02 -8.546417e-03 1.102521e-01 7.156256e-02 -1.106012e-03 -2.215406e-02 -4.694894e-03
<VARIANCE> 25
 5.256453e+00 5.859803e+00 8.530004e+00 1.467842e+01 9.137303e+00 9.303344e+00 9.342278e+00 1.668752e+01 1.277207e+01 9.718388e+00 8.337033e+00 8.873873e+00 3.909766e-02 1.440985e-01 2.157434e-01 3.517005e-01 4.486282e-01 4.355109e-01 7.085315e-01 1.110845e+00 1.057997e+00 1.046629e+00 8.025389e-01 9.840637e-01 3.817413e-02
<GCONST> 5.979201e+01
<STATE> 3
<MEAN> 25
 -1.587184e+01 4.883395e+00 -2.087319e+00 4.117312e+00 2.490027e+00 5.583482e+00 3.600010e+00 6.662570e-01 3.835640e+00 -3.550739e-02 2.997705e+00 3.056243e+00 4.455469e-03 2.763095e-02 1.648951e-01 -7.026958e-02 -1.041631e-01 2.688880e-01 3.879109e-01 -5.062473e-01 -1.103738e+00 -5.549061e-01 -1.419306e-01 -1.359659e-02 2.485662e-02
<VARIANCE> 25
 1.512763e+01 5.151454e+00 7.342299e+00 1.438668e+01 9.153811e+00 1.150144e+01 9.374220e+00 1.398607e+01 1.186424e+01 8.988709e+00 1.062084e+01 8.123403e+00 5.451653e-02 1.289658e-01 1.796821e-01 3.034194e-01 6.946297e-01 4.628693e-01 9.246940e-01 6.811308e-01 7.771010e-01 7.517913e-01 4.841551e-01 4.873624e-01 3.817413e-02
<GCONST> 5.891158e+01
<STATE> 4
<MEAN> 25
 -1.277470e+01 3.928850e+00 -2.135171e+00 8.496745e-01 2.621546e+00 4.182772e+00 2.234037e+00 1.180557e+00 9.509065e-01 -1.328899e+00 1.761657e+00 1.981666e+00 2.339515e-01 3.184297e-02 1.229322e-02 -7.899949e-02 -5.825613e-02 -1.525904e-01 -7.316783e-02 -6.660083e-02 -1.622936e-01 -5.901577e-02 -9.928335e-02 -7.826221e-02 1.991219e-01
<VARIANCE> 25
 1.176388e+01 6.450437e+00 1.499808e+01 1.344021e+01 9.985957e+00 1.340382e+01 1.614909e+01 2.551651e+01 1.690361e+01 1.126023e+01 1.210306e+01 1.283256e+01 1.016703e+00 5.680318e-01 6.236367e-01 8.793249e-01 1.152276e+00 1.304239e+00 1.520545e+00 1.232848e+00 1.631320e+00 1.132555e+00 9.801587e-01 1.361183e+00 1.997133e+00
<GCONST> 7.827428e+01
<TRANSP> 5
 0.000000e+00 1.000000e+00 0.000000e+00 0.000000e+00 0.000000e+00
 0.000000e+00 9.404052e-01 5.959473e-02 0.000000e+00 0.000000e+00
 0.000000e+00 0.000000e+00 3.529080e-01 6.470920e-01 0.000000e+00
 0.000000e+00 0.000000e+00 0.000000e+00 8.684546e-01 1.315453e-01
 0.000000e+00 0.000000e+00 0.000000e+00 0.000000e+00 0.000000e+00
<ENDHMM>
~h "g"
<BEGINHMM>
<NUMSTATES> 5
<STATE> 2
<MEAN> 25
 1.738182e+01 -1.339326e+01 8.417354e+00 1.530114e-01 -9.507551e+00 -9.030491e+00 -4.291863e+00 -2.252839e-01 -5.827859e+00 3.278081e+00 6.206098e-01 -6.462806e-01 3.252474e-01 1.768301e-01 7.471548e-01 2.658429e-01 -1.377860e+00 9.175849e-02 1.009460e+00 -4.311069e-01 -9.195230e-01 1.763293e-01 2.266958e-01 6.336877e-02 7.617662e-02
<VARIANCE> 25
 1.704378e+01 3.061237e+01 1.045788e+02 1.405225e+02 9.409732e+01 8.005093e+01 6.734630e+01 7.423351e+01 9.080222e+01 5.066743e+01 4.991251e+01 3.456385e+01 2.265772e+00 5.078677e+00 8.690480e+00 1.246708e+01 6.102917e+00 4.586336e+00 7.251377e+00 7.793081e+00 4.872831e+00 6.161453e+00 5.099004e+00 3.778349e+00 3.598485e+00
<GCONST> 1.172659e+02
<STATE> 3
<MEAN> 25
 1.889535e+01 -9.338312e-01 4.382951e+00 2.962250e+00 -1.070968e+01 -3.598567e+00 2.069483e+00 -7.883497e+00 -9.129416e+00 1.109837e+00 -1.043968e+00 -1.228592e+00 1.154863e-01 3.790050e+00 -2.195241e+00 1.888068e+00 2.231196e-01 2.567936e-01 1.177514e+00 -2.074176e+00 5.989956e-01 -7.661136e-01 -2.905767e-01 -2.893956e-01 -2.582464e+00
<VARIANCE> 25
 1.355370e+01 8.408886e+01 7.313721e+01 1.221147e+02 1.096271e+02 4.933733e+01 1.304314e+02 1.063177e+02 9.359235e+01 7.273869e+01 3.565963e+01 3.650333e+01 5.523964e-01 8.009531e+00 4.170372e+00 1.266609e+01 7.174328e+00 3.616216e+00 8.292295e+00 9.862001e+00 5.605041e+00 6.996203e+00 3.314124e+00 2.540776e+00 3.654814e+00
<GCONST> 1.164228e+02
<STATE> 4
<MEAN> 25
 2.047815e+01 -2.127385e-02 -6.865266e+00 -7.912408e-01 -3.513265e+00 -1.953429e+00 -2.097882e+00 -1.267482e+01 -2.245435e+00 5.677237e+00 -2.501553e+00 -5.988247e+00 -1.972674e-01 1.828373e+00 -5.218313e-01 -1.565976e-01 7.424375e-01 2.362687e-01 -7.396291e-01 -2.045935e-01 5.496737e-01 -4.999994e-01 1.435074e-01 2.347440e-01 -1.133075e+00
<VARIANCE> 25
 1.337764e+01 1.104666e+02 5.773804e+01 5.061368e+01 6.196323e+01 2.339337e+01 5.737246e+01 4.241891e+01 2.910093e+01 4.731596e+01 2.960240e+01 2.412814e+01 4.964810e-01 3.887417e+00 3.257822e+00 5.210918e+00 3.225918e+00 2.110404e+00 4.047969e+00 3.847999e+00 3.157691e+00 2.306573e+00 2.658903e+00 1.521715e+00 1.888891e+00
<GCONST> 1.022729e+02
<TRANSP> 5
 0.000000e+00 1.000000e+00 0.000000e+00 0.000000e+00 0.000000e+00
 0.000000e+00 7.947154e-01 2.052846e-01 0.000000e+00 0.000000e+00
 0.000000e+00 0.000000e+00 5.976756e-01 4.023243e-01 0.000000e+00
 0.000000e+00 0.000000e+00 0.000000e+00 6.337762e-01 3.662238e-01
 0.000000e+00 0.000000e+00 0.000000e+00 0.000000e+00 0.000000e+00
<ENDHMM>
~h "k"
<BEGINHMM>
<NUMSTATES> 5
<STATE> 2
<MEAN> 25
 -2.291121e+00 2.496246e+00 6.255313e-01 -6.045225e+00 9.793949e+00 -7.984741e+00 -4.526449e+00 2.248898e+00 3.543227e+00 5.364818e-01 -1.052418e-01 1.128420e+00 -2.466809e+00 6.318223e-01 -1.002532e-01 2.853779e-02 7.334947e-01 -3.395960e-02 -5.635205e-02 3.552110e-01 4.508135e-01 -5.387552e-01 6.302531e-01 2.476905e-01 -1.137152e+00
<VARIANCE> 25
 1.785149e+02 4.986674e+01 5.234455e+01 9.167881e+01 9.491734e+01 6.656086e+01 6.921339e+01 3.796912e+01 3.852947e+01 3.378137e+01 3.306143e+01 3.024492e+01 1.088985e+01 8.792706e+00 6.628435e+00 6.189970e+00 6.820795e+00 6.058397e+00 6.696808e+00 5.412373e+00 4.289924e+00 4.353477e+00 3.707911e+00 2.728495e+00 5.178095e+00
<GCONST> 1.166949e+02
<STATE> 3
<MEAN> 25
 1.416331e+00 -4.341148e+00 -5.713966e+00 -6.650158e+00 1.255198e+01 -2.162708e+00 -7.483362e+00 2.761542e+00 2.063467e+00 1.888698e+00 1.208496e+00 2.010395e+00 2.902432e+00 -8.378119e-01 -1.468056e+00 -1.551589e+00 1.778481e-01 1.202872e+00 4.419354e-01 -3.441475e-01 -1.480077e+00 8.504271e-01 2.743705e-02 -8.451666e-01 1.228353e+00
<VARIANCE> 25
 7.959448e+01 7.238972e+01 7.475228e+01 9.176537e+01 1.075594e+02 1.104415e+02 8.429975e+01 6.990594e+01 5.926725e+01 5.385458e+01 4.726709e+01 3.603468e+01 9.327078e+00 9.353472e+00 9.282894e+00 1.255459e+01 1.941687e+01 8.656246e+00 9.597308e+00 7.731699e+00 6.252352e+00 5.899165e+00 4.946234e+00 5.009070e+00 2.399527e+01
<GCONST> 1.256657e+02
<STATE> 4
<MEAN> 25
 1.813699e+01 -7.502368e+00 -5.033753e+00 -1.823645e+01 7.609987e+00 1.445958e+00 -6.115582e+00 1.627183e+00 -6.255827e+00 7.768264e+00 5.343779e-01 -2.059102e+00 2.415629e+00 -1.666494e-01 8.672755e-01 -1.341145e+00 -1.097594e+00 5.738664e-01 -1.257304e-01 -5.168687e-01 -1.309524e+00 2.232073e-01 6.597357e-01 -4.189724e-01 1.762710e+00
<VARIANCE> 25
 1.964197e+01 6.698404e+01 1.059715e+02 7.346510e+01 4.696531e+01 7.325155e+01 4.532486e+01 4.352813e+01 5.466444e+01 5.979149e+01 5.272419e+01 2.872249e+01 4.858121e+00 3.962058e+00 6.948596e+00 7.982583e+00 5.200553e+00 6.444158e+00 6.043662e+00 6.113492e+00 5.381690e+00 4.071032e+00 4.556762e+00 3.194866e+00 5.195900e+00
<GCONST> 1.147420e+02
<TRANSP> 5
 0.000000e+00 1.000000e+00 0.000000e+00 0.000000e+00 0.000000e+00
 0.000000e+00 8.805107e-01 1.194892e-01 0.000000e+00 0.000000e+00
 0.000000e+00 0.000000e+00 8.212790e-01 1.787210e-01 0.000000e+00
 0.000000e+00 0.000000e+00 0.000000e+00 7.397652e-01 2.602348e-01
 0.000000e+00 0.000000e+00 0.000000e+00 0.000000e+00 0.000000e+00
<ENDHMM>
~h "l"
<BEGINHMM>
<NUMSTATES> 5
<STATE> 2
<MEAN> 25
 1.498845e+00 7.234479e+00 -2.087243e+00 -1.047178e+00 -3.756615e-01 4.162536e-01 -8.821815e-01 -2.296106e+00 1.526988e+00 4.149123e-01 1.366030e+00 1.589526e+00 -1.433552e+00 -1.635599e+00 5.296111e-01 6.210214e-01 -3.854584e-01 -8.866563e-01 4.499029e-01 9.207660e-01 2.246821e-01 -2.491232e-01 1.482414e-01 3.719671e-01 -1.454809e-02
<VARIANCE> 25
 1.262154e+02 7.809754e+01 5.063414e+01 5.102339e+01 4.135293e+01 5.686559e+01 3.111668e+01 3.664984e+01 2.882737e+01 2.617838e+01 2.837577e+01 2.062035e+01 8.577582e+00 4.178307e+00 4.084178e+00 2.833490e+00 4.306346e+00 5.188526e+00 3.596875e+00 3.156678e+00 2.458125e+00 1.972990e+00 2.186454e+00 1.762575e+00 1.016955e+01
<GCONST> 1.076111e+02
<STATE> 3
<MEAN> 25
 2.037967e+00 3.200883e+00 -5.020946e-01 5.347215e-01 1.343246e-01 -4.253870e-01 -9.813033e-01 -1.949347e+00 1.054580e+00 -8.014088e-01 6.134511e-01 8.777400e-01 6.963238e-01 -3.314353e+00 7.281617e-01 6.840740e-01 -5.633228e-01 -1.756666e+00 3.567365e-01 8.452823e-01 -4.315791e-02 -3.798569e-01 -4.700229e-01 1.435594e-01 3.004900e+00
<VARIANCE> 25
 1.342684e+02 1.337321e+02 5.061006e+01 6.707162e+01 5.790027e+01 4.901263e+01 3.644511e+01 4.567594e+01 3.813591e+01 2.680857e+01 3.199169e+01 2.083434e+01 1.087957e+01 8.216906e+00 5.465086e+00 5.208615e+00 6.663534e+00 7.450283e+00 3.695749e+00 4.170420e+00 2.982802e+00 2.992343e+00 2.662009e+00 1.966085e+00 1.748586e+01
<GCONST> 1.138600e+02
<STATE> 4
<MEAN> 25
 6.185473e+00 -6.517640e+00 7.600347e-01 1.369102e+00 -3.889582e-02 -5.377392e+00 -1.082951e+00 2.338445e-01 1.668505e+00 -1.028792e+00 -1.522004e+00 1.590811e+00 2.067063e+00 -2.810009e+00 1.265202e+00 5.363579e-01 -1.363193e+00 -1.357919e+00 -2.284002e-01 2.866625e-01 -3.609774e-01 -2.444496e-01 -2.635673e-01 -2.763886e-01 3.340443e+00
<VARIANCE> 25
 1.068900e+02 1.048068e+02 7.620732e+01 8.527050e+01 6.680124e+01 9.159709e+01 5.537328e+01 5.650312e+01 4.717777e+01 3.201504e+01 3.431085e+01 2.771184e+01 1.020683e+01 1.112990e+01 7.921146e+00 5.368476e+00 9.482671e+00 5.848842e+00 6.595465e+00 4.399814e+00 5.196959e+00 4.522854e+00 5.232206e+00 3.100086e+00 1.346492e+01
<GCONST> 1.194051e+02
<TRANSP> 5
 0.000000e+00 1.000000e+00 0.000000e+00 0.000000e+00 0.000000e+00
 0.000000e+00 4.706454e-01 5.293546e-01 0.000000e+00 0.000000e+00
 0.000000e+00 0.000000e+00 4.022181e-02 9.597782e-01 0.000000e+00
 0.000000e+00 0.000000e+00 0.000000e+00 4.446524e-01 5.553476e-01
 0.000000e+00 0.000000e+00 0.000000e+00 0.000000e+00 0.000000e+00
<ENDHMM>
~h "m"
<BEGINHMM>
<NUMSTATES> 5
<STATE> 2
<MEAN> 25
 2.082775e+00 7.251444e+00 7.070248e+00 -3.436792e+00 6.229781e+00 -1.573674e+01 -4.822901e-02 2.021897e+00 1.288713e+00 -4.180447e+00 -5.234780e+00 2.636065e+00 6.839541e-01 -7.293639e-01 1.345166e+00 -1.268583e+00 4.164416e-01 -1.070041e+00 -1.111307e+00 3.177418e-01 -3.793524e-01 -3.429039e-01 -8.059289e-02 -6.038739e-02 3.679404e+00
<VARIANCE> 25
 6.715779e+01 9.519887e+01 7.356431e+01 9.451027e+01 1.602020e+02 1.313431e+02 1.168088e+02 7.246604e+01 6.439726e+01 4.811701e+01 4.994435e+01 2.942279e+01 1.136430e+01 9.793139e+00 7.735872e+00 9.368376e+00 1.494399e+01 1.180984e+01 9.087283e+00 8.415186e+00 9.516232e+00 6.990045e+00 5.701317e+00 4.251926e+00 4.199230e+00
<GCONST> 1.252121e+02
<STATE> 3
<MEAN> 25
 1.475853e+01 -1.003260e+01 1.198622e+01 -1.328636e+01 3.158717e+00 -7.907242e+00 -1.394603e+01 -3.020930e+00 -1.520385e+00 3.151721e+00 -1.191156e+00 -1.993319e+00 3.280515e+00 -2.111997e+00 -3.556116e-01 -7.838420e-01 -1.110257e+00 2.297183e+00 -3.167900e-01 -1.418226e+00 -6.193820e-01 1.673714e+00 9.057004e-01 -3.711074e-01 2.197928e-01
<VARIANCE> 25
 5.716840e+01 4.114276e+01 3.449451e+01 8.082157e+01 3.894941e+01 5.958207e+01 7.109530e+01 9.423347e+01 3.149614e+01 6.485792e+01 3.055083e+01 1.197264e+01 2.561605e+00 2.659364e+00 3.788206e+00 7.923966e+00 7.953364e+00 8.730909e+00 8.157574e+00 8.617236e+00 4.646986e+00 6.532309e+00 1.990753e+00 2.513109e+00 2.063401e+00
<GCONST> 1.112876e+02
<STATE> 4
<MEAN> 25
 2.098137e+01 -4.594044e+00 7.264694e+00 -5.116650e+00 -7.936113e+00 -6.910175e-03 -5.530806e-02 -6.996934e+00 -9.381385e+00 1.436203e+00 1.425138e+00 -1.717667e+00 -2.138872e-01 9.029373e-01 -4.565897e-01 6.373132e-01 -1.010600e-01 -6.706602e-02 4.437938e-01 -3.765311e-02 -1.157376e-02 -2.256126e-01 -9.050635e-02 -6.613548e-02 -9.818487e-01
<VARIANCE> 25
 4.105398e+01 1.353371e+02 1.492833e+02 1.767141e+02 5.489783e+01 9.109519e+01 1.096178e+02 1.646929e+02 7.721606e+01 7.082163e+01 4.197308e+01 2.972639e+01 2.224897e+00 7.039104e+00 7.893957e+00 8.894128e+00 3.470956e+00 5.129425e+00 5.577853e+00 1.099131e+01 6.646877e+00 7.880002e+00 2.957749e+00 3.136029e+00 5.201643e+00
<GCONST> 1.206371e+02
<TRANSP> 5
 0.000000e+00 1.000000e+00 0.000000e+00 0.000000e+00 0.000000e+00
 0.000000e+00 8.852834e-01 1.147166e-01 0.000000e+00 0.000000e+00
 0.000000e+00 0.000000e+00 8.064771e-01 1.935229e-01 0.000000e+00
 0.000000e+00 0.000000e+00 0.000000e+00 9.575098e-01 4.249022e-02
 0.000000e+00 0.000000e+00 0.000000e+00 0.000000e+00 0.000000e+00
<ENDHMM>
~h "n"
<BEGINHMM>
<NUMSTATES> 5
<STATE> 2
<MEAN> 25
 -1.409081e+00 9.306274e+00 2.442127e+00 5.863297e+00 -1.070635e+00 -1.030909e+00 -8.572785e-01 -2.358425e+00 -1.813809e+00 -4.050860e+00 -3.410239e+00 -1.595164e+00 -1.650531e+00 -1.409992e+00 -7.168058e-01 1.354335e-01 3.943453e-01 1.422154e-01 1.302321e-01 1.168338e-01 2.344853e-01 2.268992e-01 1.673405e-01 -6.683663e-02 -8.490713e-01
<VARIANCE> 25
 4.769694e+01 3.930239e+01 4.186236e+01 2.363139e+01 1.515678e+01 1.993156e+01 2.001898e+01 2.137709e+01 2.949783e+01 2.051234e+01 1.547952e+01 1.823361e+01 4.468305e+00 3.117997e+00 2.274459e+00 2.634623e+00 1.961640e+00 2.409764e+00 1.794229e+00 1.670534e+00 1.710103e+00 2.296601e+00 1.073230e+00 1.018729e+00 1.299874e+00
<GCONST> 9.299310e+01
<STATE> 3
<MEAN> 25
 -7.780032e+00 6.498819e+00 1.781556e+00 8.202506e+00 2.723640e+00 2.362229e+00 -7.812573e-01 -1.785035e+00 -1.533767e+00 -4.304551e+00 -1.417844e+00 -2.046842e+00 -4.709215e-01 -3.605281e-01 -2.219814e-01 -1.553414e-01 -1.145435e-01 8.018755e-02 1.470173e-01 1.510850e-01 1.656098e-01 2.542134e-01 2.484803e-01 1.838908e-01 -2.555606e-01
<VARIANCE> 25
 1.145957e+01 1.964825e+01 2.428282e+01 1.666435e+01 1.067156e+01 1.316076e+01 1.099313e+01 1.417415e+01 1.680877e+01 1.382631e+01 1.896124e+01 1.654610e+01 2.662803e-01 6.005729e-01 9.985563e-01 8.994869e-01 6.625322e-01 1.139136e+00 1.094120e+00 1.691145e+00 1.193860e+00 1.528933e+00 1.935942e+00 2.121197e+00 7.727516e-02
<GCONST> 7.640475e+01
<STATE> 4
<MEAN> 25
 -8.557745e+00 1.830476e+00 -8.434820e-01 2.132543e+00 5.483494e-01 1.843351e+00 3.218147e-01 4.525754e-01 -9.991453e-02 -1.109329e+00 -6.841224e-01 6.532717e-02 -2.077293e-02 1.803656e-02 2.604486e-03 -3.464835e-02 4.948910e-03 1.545275e-02 3.476356e-03 3.781795e-02 3.166511e-02 -9.637814e-03 4.596923e-03 5.049572e-02 -1.605477e-02
<VARIANCE> 25
 5.476920e+00 5.844984e+00 1.331452e+01 9.609014e+00 8.641519e+00 1.230908e+01 1.390283e+01 1.235640e+01 1.593871e+01 1.348508e+01 1.353493e+01 1.313689e+01 1.331930e-01 2.872729e-01 4.208973e-01 5.903102e-01 6.839927e-01 9.491259e-01 1.140774e+00 1.302596e+00 1.395503e+00 1.447330e+00 1.410853e+00 1.292413e+00 3.871977e-02
<GCONST> 6.798939e+01
<TRANSP> 5
 0.000000e+00 1.000000e+00 0.000000e+00 0.000000e+00 0.000000e+00
 0.000000e+00 7.771662e-01 2.228337e-01 0.000000e+00 0.000000e+00
 0.000000e+00 0.000000e+00 7.851721e-01 2.148279e-01 0.000000e+00
 0.000000e+00 0.000000e+00 0.000000e+00 9.546520e-01 4.534809e-02
 0.000000e+00 0.000000e+00 0.000000e+00 0.000000e+00 0.000000e+00
<ENDHMM>
~h "r"
<BEGINHMM>
<NUMSTATES> 5
<STATE> 2
<MEAN> 25
 3.149498e-01 6.115465e+00 -1.319762e+00 2.027240e-01 -6.178560e-01 -1.301544e+00 1.940858e+00 -1.018953e+00 8.647421e-02 1.726532e-01 7.009205e-01 9.434089e-01 -1.089525e+00 4.353953e-02 2.226368e-01 1.363466e-01 -3.368824e-01 -1.249020e-01 8.954322e-02 -6.607793e-02 -3.623343e-02 -3.862572e-01 -8.703172e-02 1.810521e-01 -1.005543e+00
<VARIANCE> 25
 1.710406e+02 1.083210e+02 5.051603e+01 4.756581e+01 5.761227e+01 4.541314e+01 3.920096e+01 3.960936e+01 3.993500e+01 3.371391e+01 2.127090e+01 2.190825e+01 5.512716e+00 3.902288e+00 3.648670e+00 2.786446e+00 3.996548e+00 2.795126e+00 4.370059e+00 4.198822e+00 3.628630e+00 2.844326e+00 2.021374e+00 1.708521e+00 3.256635e+00
<GCONST> 1.075899e+02
<STATE> 3
<MEAN> 25
 1.137509e+00 6.487209e+00 2.733953e-01 1.490631e+00 -2.954284e+00 -1.051680e+00 -1.496276e-01 -2.737356e+00 -2.379000e-01 -1.492406e+00 -5.670232e-01 4.941098e-01 -1.946981e-01 -1.783174e-01 3.930161e-01 1.875330e-01 2.913254e-01 1.145320e-01 -2.701323e-02 -4.620352e-02 2.038978e-02 -2.307537e-01 -2.630892e-01 -2.457413e-02 1.549111e-02
<VARIANCE> 25
 1.574733e+02 1.290998e+02 5.608706e+01 4.147742e+01 3.818059e+01 3.178355e+01 3.340937e+01 3.180735e+01 3.010289e+01 2.877113e+01 1.958923e+01 1.642789e+01 3.341517e+00 3.833828e+00 3.208280e+00 2.043726e+00 2.015961e+00 1.381676e+00 1.898972e+00 2.777073e+00 2.203304e+00 1.626194e+00 1.285882e+00 1.364951e+00 1.885720e+00
<GCONST> 9.981756e+01
<STATE> 4
<MEAN> 25
 2.534443e+00 2.972199e+00 -3.722151e-01 1.282761e+00 -1.575594e+00 -1.083314e+00 8.544044e-01 -1.877140e+00 5.012196e-02 -5.986018e-01 -1.184115e+00 3.463831e-01 1.155030e+00 -1.727825e+00 7.018387e-01 -1.130171e-01 4.394463e-01 -5.684777e-01 -7.956401e-04 2.719383e-02 2.345489e-01 1.339797e-01 -8.335122e-02 2.967505e-01 2.432582e+00
<VARIANCE> 25
 1.714503e+02 1.319260e+02 5.476787e+01 4.947517e+01 5.065011e+01 4.613467e+01 4.814241e+01 4.477321e+01 3.120621e+01 3.227919e+01 2.104498e+01 1.840901e+01 7.223739e+00 1.333472e+01 7.953624e+00 4.644511e+00 4.414343e+00 5.986038e+00 5.320096e+00 4.901329e+00 4.646326e+00 2.656540e+00 2.204671e+00 1.844273e+00 1.077581e+01
<GCONST> 1.131903e+02
<TRANSP> 5
 0.000000e+00 1.000000e+00 0.000000e+00 0.000000e+00 0.000000e+00
 0.000000e+00 3.837430e-01 6.162570e-01 0.000000e+00 0.000000e+00
 0.000000e+00 0.000000e+00 3.044869e-01 6.955131e-01 0.000000e+00
 0.000000e+00 0.000000e+00 0.000000e+00 2.003513e-01 7.996486e-01
 0.000000e+00 0.000000e+00 0.000000e+00 0.000000e+00 0.000000e+00
<ENDHMM>
~h "s"
<BEGINHMM>
<NUMSTATES> 5
<STATE> 2
<MEAN> 25
 1.333736e+01 -8.244711e+00 6.066068e+00 2.999826e+00 -4.343400e+00 -1.017536e+01 -1.624765e+00 2.703592e+00 7.985514e-01 -1.153661e+00 -3.061862e+00 4.293305e-01 2.220461e+00 -1.395014e+00 6.890497e-01 -5.112149e-01 -6.419700e-01 -8.588141e-01 -9.933980e-01 9.284877e-01 -1.091017e+00 -3.157201e-01 5.176141e-01 -1.013568e-01 2.204620e+00
<VARIANCE> 25
 5.335615e+01 7.665499e+01 6.010447e+01 9.864934e+01 7.229208e+01 5.358805e+01 6.558141e+01 5.676166e+01 6.230187e+01 3.425233e+01 4.098593e+01 3.307124e+01 7.062872e+00 1.397791e+01 1.240755e+01 8.565668e+00 6.727105e+00 8.920394e+00 8.032344e+00 5.158151e+00 1.076850e+01 4.263518e+00 4.792002e+00 3.039813e+00 9.142329e+00
<GCONST> 1.201080e+02
<STATE> 3
<MEAN> 25
 1.795160e+01 -1.584027e+01 9.565352e+00 -2.501666e+00 -6.609111e+00 -8.819750e+00 -6.951576e+00 5.074969e+00 -6.944214e-01 -1.726517e+00 -6.473522e-01 -2.506189e-01 8.706882e-01 -1.296605e+00 -1.678015e-01 -1.336322e+00 -3.204857e-01 7.153898e-01 -3.553483e-01 1.904818e-01 3.800270e-02 4.280382e-01 1.674726e-01 -6.525571e-01 1.252721e+00
<VARIANCE> 25
 3.440561e+01 2.923594e+01 9.723937e+01 6.608350e+01 7.291502e+01 6.485574e+01 5.947687e+01 8.643583e+01 1.095183e+02 6.386034e+01 4.289697e+01 3.218844e+01 3.466114e+00 3.357709e+00 9.117081e+00 8.914180e+00 7.227566e+00 7.193499e+00 8.915078e+00 7.051488e+00 7.792597e+00 6.561680e+00 5.027668e+00 4.513415e+00 2.657671e+00
<GCONST> 1.176963e+02
<STATE> 4
<MEAN> 25
 1.962116e+01 -1.371524e+01 4.255332e+00 -1.382923e+01 -1.503356e+00 -2.228294e+00 -5.601364e+00 1.542334e-01 -1.546161e+00 5.314861e+00 -2.153395e-01 -3.434263e+00 -7.620982e-02 7.142840e-01 -3.875725e-01 -4.928946e-01 8.162223e-01 3.108582e-01 -1.425413e-01 -4.086637e-01 -6.790825e-02 5.828240e-01 -2.605828e-01 8.525968e-02 -2.555806e-01
<VARIANCE> 25
 2.451318e+01 3.598741e+01 1.404616e+02 1.089262e+02 9.204443e+01 6.155462e+01 9.818287e+01 1.067300e+02 5.284917e+01 4.331480e+01 4.762103e+01 4.777363e+01 7.026372e-01 1.471463e+00 2.168834e+00 2.696081e+00 2.915242e+00 2.988101e+00 3.327420e+00 3.045315e+00 3.201735e+00 2.273209e+00 2.422661e+00 2.571308e+00 5.171832e-01
<GCONST> 1.051645e+02
<TRANSP> 5
 0.000000e+00 1.000000e+00 0.000000e+00 0.000000e+00 0.000000e+00
 0.000000e+00 4.353241e-01 5.646758e-01 0.000000e+00 0.000000e+00
 0.000000e+00 0.000000e+00 7.625194e-01 2.374806e-01 0.000000e+00
 0.000000e+00 0.000000e+00 0.000000e+00 9.061913e-01 9.380864e-02
 0.000000e+00 0.000000e+00 0.000000e+00 0.000000e+00 0.000000e+00
<ENDHMM>
~h "t"
<BEGINHMM>
<NUMSTATES> 5
<STATE> 2
<MEAN> 25
 5.526684e+00 -4.963295e+00 1.094227e+00 1.408044e+00 -3.821240e-01 -1.198975e+01 2.879293e+00 3.658107e-01 3.523486e+00 -7.920461e-01 -3.605341e+00 3.013358e+00 1.308999e+00 -1.809855e+00 1.748610e+00 -2.057772e+00 4.269774e-01 -1.012499e+00 -9.103130e-01 2.948612e-01 -3.411370e-01 -1.878431e-01 4.883975e-01 -1.378540e-01 4.269596e+00
<VARIANCE> 25
 9.742708e+01 6.660810e+01 4.075117e+01 6.434703e+01 5.285067e+01 9.291893e+01 5.932635e+01 6.133729e+01 6.071775e+01 3.036177e+01 3.889241e+01 3.033382e+01 2.189228e+01 1.585614e+01 1.050459e+01 6.216300e+00 1.161540e+01 6.433013e+00 8.696260e+00 6.228812e+00 7.587895e+00 4.727465e+00 5.970323e+00 3.838590e+00 1.833650e+01
<GCONST> 1.218430e+02
<STATE> 3
<MEAN> 25
 1.334426e+01 -1.223106e+01 7.568074e+00 -4.787251e+00 -3.402887e+00 -8.230945e+00 -6.518010e+00 1.161132e+00 9.881176e-01 -5.790776e-01 2.105211e-01 -4.068573e-01 1.806357e+00 -6.739227e-01 2.767162e-01 -1.687192e+00 -4.571544e-01 1.644176e+00 -9.549981e-01 -4.857372e-01 -1.072345e+00 9.176761e-01 3.515458e-01 -8.122702e-01 1.613031e+00
<VARIANCE> 25
 6.525080e+01 5.439864e+01 1.008946e+02 7.285546e+01 7.422926e+01 7.542552e+01 7.435468e+01 1.278439e+02 1.107718e+02 5.150952e+01 5.679211e+01 3.812086e+01 9.385888e+00 7.294831e+00 1.086770e+01 9.624962e+00 6.979989e+00 9.963251e+00 1.109778e+01 1.057808e+01 1.083179e+01 5.858728e+00 5.357691e+00 3.832511e+00 6.104326e+00
<GCONST> 1.240089e+02
<STATE> 4
<MEAN> 25
 1.838677e+01 -5.058097e+00 8.631994e-01 -1.440529e+01 4.752585e-01 3.843029e+00 -7.429343e+00 -3.073672e+00 -4.205469e+00 4.209474e+00 4.080939e-01 -4.997613e-01 -4.256640e-01 1.162227e+00 -5.878104e-01 2.314531e-01 2.277547e-01 3.329994e-01 3.216745e-01 -2.605279e-01 4.157175e-02 -1.368562e-02 8.480336e-02 1.548188e-01 -1.122398e+00
<VARIANCE> 25
 2.975239e+01 1.464169e+02 1.291691e+02 1.130573e+02 7.584542e+01 7.250366e+01 8.667078e+01 1.174808e+02 7.164360e+01 4.171856e+01 3.451566e+01 3.674529e+01 2.181072e+00 2.468484e+00 4.074076e+00 5.303391e+00 3.445218e+00 3.597835e+00 3.904468e+00 3.663517e+00 4.460876e+00 3.043286e+00 2.453113e+00 1.949650e+00 1.623026e+00
<GCONST> 1.114960e+02
<TRANSP> 5
 0.000000e+00 1.000000e+00 0.000000e+00 0.000000e+00 0.000000e+00
 0.000000e+00 3.055044e-01 6.944955e-01 0.000000e+00 0.000000e+00
 0.000000e+00 0.000000e+00 7.473871e-01 2.526129e-01 0.000000e+00
 0.000000e+00 0.000000e+00 0.000000e+00 9.152935e-01 8.470659e-02
 0.000000e+00 0.000000e+00 0.000000e+00 0.000000e+00 0.000000e+00
<ENDHMM>
~h "w"
<BEGINHMM>
<NUMSTATES> 5
<STATE> 2
<MEAN> 25
 2.533792e+01 -1.787134e+00 -6.428062e+00 -1.678942e+01 -2.852231e+00 3.839578e+00 -4.346338e-01 -4.670236e+00 -1.042825e+01 1.743009e+00 7.866580e+00 -1.195510e-01 5.077804e-01 -3.186713e+00 4.092355e-01 1.140209e+00 2.770404e-01 -1.680361e+00 3.950346e-02 -1.017337e-01 2.302214e-01 1.691065e+00 9.006854e-01 -1.395684e+00 2.249679e+00
<VARIANCE> 25
 1.617085e+01 6.389803e+01 7.507250e+01 7.970831e+01 5.367822e+01 4.015851e+01 5.011106e+01 4.942008e+01 5.112153e+01 4.785033e+01 4.076298e+01 3.032372e+01 2.758362e+00 3.502170e+00 6.396405e+00 7.255279e+00 9.025292e+00 7.782943e+00 6.641145e+00 4.059335e+00 7.593452e+00 4.442076e+00 5.716156e+00 5.018252e+00 1.363197e+00
<GCONST> 1.128330e+02
<STATE> 3
<MEAN> 25
 2.233015e+01 -1.472666e+01 -4.605331e+00 -9.174522e+00 1.166691e+00 -5.773034e+00 -2.263125e+00 1.815910e-01 -4.120345e+00 6.634550e+00 4.321178e+00 -8.672865e+00 -1.044636e+00 -1.859853e+00 6.990889e-01 1.704370e+00 -1.517983e-01 -1.913671e+00 3.033404e-01 1.807019e+00 2.546814e+00 -1.243063e+00 -2.532681e+00 -1.204919e+00 9.664459e-01
<VARIANCE> 25
 2.614047e+01 2.135251e+01 5.642777e+01 9.784947e+01 4.865355e+01 5.604606e+01 7.669147e+01 7.878620e+01 7.146445e+01 4.882643e+01 5.301538e+01 3.881847e+01 5.085731e-01 2.414664e+00 2.118569e+00 2.055242e+00 3.304419e+00 2.841775e+00 3.959671e+00 2.781895e+00 3.767938e+00 3.257077e+00 2.185608e+00 3.026325e+00 5.519204e-01
<GCONST> 1.034101e+02
<STATE> 4
<MEAN> 25
 1.849636e+01 -1.861175e+01 1.044956e+00 -7.911012e+00 -1.820278e+00 -8.165123e+00 2.153646e-01 8.442344e+00 5.439589e-01 1.220190e+00 -3.075356e+00 -8.568102e+00 1.957128e-01 -6.649002e-02 3.634948e-01 1.005949e+00 -1.075325e+00 3.532500e-01 1.021259e-01 -1.040508e-01 4.076281e-01 -2.305635e-01 -1.209120e+00 4.570692e-01 -6.359954e-01
<VARIANCE> 25
 2.247773e+01 2.467325e+01 4.632070e+01 7.958213e+01 4.755565e+01 5.292759e+01 5.979812e+01 8.128292e+01 3.681837e+01 3.647257e+01 3.531311e+01 2.550924e+01 8.714520e-01 1.646109e+00 1.523237e+00 2.196081e+00 1.824621e+00 3.141234e+00 3.131826e+00 5.848929e+00 3.040735e+00 3.720236e+00 2.587792e+00 2.959034e+00 1.045018e+00
<GCONST> 1.015309e+02
<TRANSP> 5
 0.000000e+00 1.000000e+00 0.000000e+00 0.000000e+00 0.000000e+00
 0.000000e+00 7.157150e-01 2.842850e-01 0.000000e+00 0.000000e+00
 0.000000e+00 0.000000e+00 7.123259e-01 2.876741e-01 0.000000e+00
 0.000000e+00 0.000000e+00 0.000000e+00 7.805086e-01 2.194914e-01
 0.000000e+00 0.000000e+00 0.000000e+00 0.000000e+00 0.000000e+00
<ENDHMM>
~h "z"
<BEGINHMM>
<NUMSTATES> 5
<STATE> 2
<MEAN> 25
 -6.512901e+00 1.021851e+00 -2.480364e+00 8.988882e-01 9.995474e-01 8.031993e-01 -8.618704e-01 2.259173e+00 9.876474e-01 2.342597e-02 4.303235e-01 7.328252e-01 -1.995426e-03 1.647052e-02 -2.994127e-02 9.058224e-03 -1.710004e-03 8.193286e-03 -2.544855e-02 2.334560e-02 -1.861806e-02 -5.795461e-02 -4.525656e-02 -7.360114e-03 -2.956910e-02
<VARIANCE> 25
 2.119449e+00 2.055136e+00 4.629166e+00 1.245925e+01 1.493303e+01 9.531116e+00 1.344548e+01 1.145079e+01 1.219791e+01 1.083352e+01 1.005435e+01 7.935827e+00 1.385453e-01 2.557107e-01 3.712889e-01 8.545502e-01 8.245166e-01 8.088406e-01 1.214184e+00 1.178844e+00 1.187726e+00 1.130520e+00 9.607031e-01 8.145385e-01 9.610441e-02
<GCONST> 6.390387e+01
<STATE> 3
<MEAN> 25
 -7.411662e+00 -6.522262e-01 -3.313004e+00 1.613055e+00 -5.280226e-01 3.583580e-01 8.152766e-01 2.598131e+00 3.757471e+00 -2.570607e-01 -1.160247e+00 -1.560450e-02 3.571148e-01 2.689181e-01 2.679197e-01 1.334182e-02 9.666129e-02 -8.581121e-03 -7.855876e-02 -2.119646e-02 1.693805e-01 1.439752e-01 -1.501583e-01 -3.048420e-01 1.801781e-01
<VARIANCE> 25
 7.500714e+00 1.325597e+01 2.681834e+01 1.140141e+01 9.487870e+00 1.374579e+01 1.713176e+01 1.143285e+01 2.977855e+01 1.030820e+01 1.486765e+01 1.204979e+01 1.082143e+00 1.715556e+00 4.108698e+00 1.454912e+00 2.028047e+00 1.223027e+00 2.277318e+00 1.488843e+00 4.792100e+00 1.423739e+00 1.516558e+00 1.590582e+00 1.428561e+00
<GCONST> 8.502595e+01
<STATE> 4
<MEAN> 25
 1.392907e+01 -6.666310e-01 5.664823e-01 -1.260073e+01 7.790832e+00 1.521311e+00 -7.617650e+00 -4.942685e+00 -1.982811e+00 9.623097e-01 -1.457150e+00 -6.649388e-01 3.055338e-01 -4.857058e-02 -4.228540e-02 -1.226385e-01 5.368265e-02 9.330972e-02 -1.468444e-01 -4.062743e-01 -3.311802e-01 -4.473981e-03 1.838249e-01 1.180669e-02 2.595302e-01
<VARIANCE> 25
 1.990893e+02 1.266579e+02 8.703704e+01 1.308335e+02 3.733588e+01 1.448433e+02 7.238064e+01 6.289189e+01 3.692722e+01 5.068279e+01 4.363234e+01 2.768224e+01 7.803709e+00 8.888244e+00 6.981123e+00 9.447466e+00 4.003752e+00 6.373116e+00 7.774645e+00 6.293763e+00 5.100472e+00 6.779334e+00 5.134298e+00 3.109750e+00 9.234358e+00
<GCONST> 1.211672e+02
<TRANSP> 5
 0.000000e+00 1.000000e+00 0.000000e+00 0.000000e+00 0.000000e+00
 0.000000e+00 9.524608e-01 4.753928e-02 0.000000e+00 0.000000e+00
 0.000000e+00 0.000000e+00 8.116821e-01 1.883179e-01 0.000000e+00
 0.000000e+00 0.000000e+00 0.000000e+00 9.088671e-01 9.113293e-02
 0.000000e+00 0.000000e+00 0.000000e+00 0.000000e+00 0.000000e+00
<ENDHMM>
~h "ae"
<BEGINHMM>
<NUMSTATES> 5
<STATE> 2
<MEAN> 25
 1.912788e+01 -2.216147e+01 -2.459065e+00 -5.273481e+00 -1.681598e+00 -1.240976e+00 -4.497834e-01 3.565692e+00 3.038861e+00 2.858356e+00 -3.976385e+00 -4.828135e+00 1.081773e-01 -1.786680e+00 2.948195e-01 6.463830e-02 -1.570608e-01 -1.429365e+00 1.585013e+00 1.082763e+00 -8.863615e-01 -7.214161e-02 -1.840795e+00 -2.760189e-01 1.332316e+00
<VARIANCE> 25
 2.532704e+01 1.560496e+01 6.870393e+01 1.191691e+02 6.846539e+01 8.288407e+01 5.447325e+01 3.941236e+01 2.176348e+01 3.439120e+01 2.918191e+01 1.984811e+01 4.134093e+00 3.112043e+00 7.069674e+00 7.278446e+00 9.225168e+00 5.452277e+00 4.468925e+00 5.780233e+00 4.838928e+00 2.817450e+00 1.956612e+00 2.824318e+00 1.239802e+00
<GCONST> 1.084338e+02
<STATE> 3
<MEAN> 25
 1.811776e+01 -2.377978e+01 1.151735e+00 5.119047e-01 -7.716924e+00 -7.713916e+00 7.478797e+00 6.498013e+00 -2.897995e+00 -1.642612e+00 -7.988955e+00 -2.226068e+00 -5.186220e-01 4.720577e-01 1.097824e+00 -2.516817e-01 -5.913911e-01 -5.487887e-01 1.043510e+00 1.101481e+00 -1.471116e+00 -7.458169e-01 8.091180e-01 -1.212647e-01 -2.249200e-01
<VARIANCE> 25
 1.537554e+01 2.538441e+01 4.485052e+01 1.070104e+02 6.072353e+01 3.305661e+01 6.007566e+01 5.057595e+01 2.825351e+01 2.201523e+01 2.641652e+01 1.744284e+01 5.519797e-01 1.862386e+00 3.890255e+00 2.459139e+00 3.882585e+00 1.962799e+00 2.495663e+00 2.539218e+00 1.492887e+00 1.413118e+00 1.455975e+00 1.599894e+00 1.083780e+00
<GCONST> 9.641536e+01
<STATE> 4
<MEAN> 25
 1.328723e+01 -2.057813e+01 1.555760e+01 -1.162594e+01 -9.839290e+00 -5.515874e+00 1.151540e+00 1.556258e+01 -9.324949e+00 -6.814581e-01 3.089542e+00 -4.878379e+00 -3.521164e-02 9.256006e-01 6.344103e-01 2.830428e-01 -5.904610e-01 2.274283e-01 4.481976e-01 -3.363560e-01 -1.219927e+00 1.864065e-01 5.838290e-01 -2.346400e-01 -5.697393e-01
<VARIANCE> 25
 8.113051e+00 1.744109e+01 4.721767e+01 3.773376e+01 5.057093e+01 2.681293e+01 4.211685e+01 3.189228e+01 4.287677e+01 3.337823e+01 2.965955e+01 2.664944e+01 2.940714e-01 1.925683e+00 2.135268e+00 1.439353e+00 2.582829e+00 1.335205e+00 2.249274e+00 2.473210e+00 3.048138e+00 2.087881e+00 2.087518e+00 1.322857e+00 7.683325e-01
<GCONST> 9.284957e+01
<TRANSP> 5
 0.000000e+00 1.000000e+00 0.000000e+00 0.000000e+00 0.000000e+00
 0.000000e+00 7.202306e-01 2.797694e-01 0.000000e+00 0.000000e+00
 0.000000e+00 0.000000e+00 7.984151e-01 2.015850e-01 0.000000e+00
 0.000000e+00 0.000000e+00 0.000000e+00 8.699275e-01 1.300725e-01
 0.000000e+00 0.000000e+00 0.000000e+00 0.000000e+00 0.000000e+00
<ENDHMM>
~h "ah"
<BEGINHMM>
<NUMSTATES> 5
<STATE> 2
<MEAN> 25
 2.167299e+01 -6.629497e+00 -5.408103e+00 -6.759429e+00 -1.983392e+00 3.213508e-01 -4.491482e+00 -7.304455e+00 -2.761278e+00 6.672003e+00 -3.066379e+00 -5.669980e+00 -3.244552e-02 1.474150e+00 -2.075658e-01 9.519713e-01 -7.461436e-01 7.477889e-01 1.024233e-01 -1.360000e+00 1.669876e-01 -3.400941e-01 -4.109698e-01 3.001936e-01 -1.282490e+00
<VARIANCE> 25
 1.626364e+01 4.887392e+01 6.898515e+01 1.704618e+02 7.388860e+01 8.761114e+01 8.362051e+01 8.790503e+01 5.558810e+01 4.264394e+01 7.230263e+01 3.904515e+01 8.856861e-01 3.424001e+00 2.721917e+00 6.654939e+00 4.917185e+00 4.519062e+00 5.187902e+00 6.288195e+00 3.185341e+00 4.118748e+00 2.632286e+00 2.102087e+00 2.103089e+00
<GCONST> 1.110124e+02
<STATE> 3
<MEAN> 25
 1.991497e+01 5.066292e+00 -8.533644e+00 -2.917511e+00 3.445020e+00 1.791626e+00 -6.843559e+00 -9.365823e+00 8.542317e-02 2.194942e+00 -3.992918e+00 -3.330111e+00 -1.028273e+00 3.733363e+00 -2.352445e-01 6.845843e-01 5.001261e-01 1.200616e-01 3.338218e-01 4.110728e-01 -9.320314e-02 -1.387550e+00 8.521601e-01 2.947664e-01 -2.863115e+00
<VARIANCE> 25
 2.406658e+01 5.583875e+01 5.072923e+01 1.027755e+02 6.569540e+01 5.039880e+01 4.134630e+01 5.789897e+01 4.775406e+01 6.066666e+01 4.199827e+01 2.894725e+01 2.301018e+00 4.432537e+00 9.841299e+00 7.831057e+00 9.114322e+00 5.904233e+00 6.894319e+00 6.227215e+00 5.398739e+00 5.553690e+00 4.568367e+00 2.400015e+00 2.053365e+00
<GCONST> 1.135964e+02
<STATE> 4
<MEAN> 25
 1.513424e+01 1.129231e+01 -4.424149e+00 -2.686785e+00 2.073205e-01 3.126969e+00 -3.776294e+00 -8.186665e+00 -2.783248e+00 -7.327049e-01 -1.582104e+00 -3.085841e+00 -1.774964e+00 6.964286e-01 1.402172e+00 2.148289e-01 -8.033126e-01 2.961987e-02 6.813669e-01 6.015462e-01 -1.093330e-02 -3.845231e-01 4.772796e-01 5.047620e-01 -1.397390e+00
<VARIANCE> 25
 5.500304e+01 7.058464e+01 1.063003e+02 7.367322e+01 6.736456e+01 5.574980e+01 4.404748e+01 2.543639e+01 4.627299e+01 3.648340e+01 2.954720e+01 1.783732e+01 3.064509e+00 3.452302e+00 4.346209e+00 3.462119e+00 3.726793e+00 2.411684e+00 3.305055e+00 2.572798e+00 2.398394e+00 2.286232e+00 1.853009e+00 1.767444e+00 1.704290e+00
<GCONST> 1.049558e+02
<TRANSP> 5
 0.000000e+00 1.000000e+00 0.000000e+00 0.000000e+00 0.000000e+00
 0.000000e+00 7.488184e-01 2.511816e-01 0.000000e+00 0.000000e+00
 0.000000e+00 0.000000e+00 5.685675e-01 4.314325e-01 0.000000e+00
 0.000000e+00 0.000000e+00 0.000000e+00 6.964085e-01 3.035915e-01
 0.000000e+00 0.000000e+00 0.000000e+00 0.000000e+00 0.000000e+00
<ENDHMM>
~h "ao"
<BEGINHMM>
<NUMSTATES> 5
<STATE> 2
<MEAN> 25
 -8.615247e+00 8.266628e+00 4.021093e+00 8.001392e+00 4.615358e+00 3.671541e+00 3.183191e+00 1.756884e+00 1.346657e+00 -8.498994e-01 2.188911e+00 2.615449e+00 5.483873e+00 6.345741e-01 2.108134e+00 -6.307164e-01 -8.170266e-01 -1.625795e+00 -7.237802e-01 -7.986189e-01 6.684300e-01 -5.645686e-01 -7.137011e-01 2.026486e-01 6.033602e+00
<VARIANCE> 25
 4.665609e+01 3.955651e+01 3.264856e+01 2.970103e+01 1.711171e+01 1.559505e+01 2.390318e+01 2.209243e+01 1.871942e+01 1.571748e+01 1.471020e+01 1.126147e+01 4.959420e+00 1.911424e+01 1.247256e+01 4.475114e+00 2.497567e+00 2.974381e+00 4.462886e+00 2.612514e+00 2.553210e+00 1.777493e+00 2.410282e+00 1.241999e+00 1.200925e+01
<GCONST> 1.011246e+02
<STATE> 3
<MEAN> 25
 6.317944e+00 1.605052e+01 1.025932e+01 6.059880e+00 -1.401906e+00 4.422139e-01 -4.222068e-01 -2.175246e+00 3.233242e+00 -3.434892e+00 -1.223892e+00 2.545244e+00 5.567074e+00 -6.866543e-01 2.372247e-01 -1.387174e+00 -1.108890e+00 -3.203366e+00 -1.188543e+00 -7.894904e-01 -1.022449e-01 1.635403e-01 -1.146564e+00 -5.226636e-01 6.022791e+00
<VARIANCE> 25
 5.428952e+01 1.742544e+02 9.600258e+01 4.103111e+01 2.656462e+01 3.104448e+01 4.433757e+01 2.547926e+01 2.086074e+01 1.325551e+01 1.913813e+01 1.388691e+01 6.715209e+00 1.711237e+01 6.202911e+00 5.741908e+00 3.163838e+00 3.811828e+00 4.927233e+00 3.457227e+00 4.746221e+00 3.819934e+00 2.654798e+00 3.182433e+00 1.815267e+01
<GCONST> 1.099026e+02
<STATE> 4
<MEAN> 25
 1.210794e+01 3.850814e+00 5.082578e+00 1.298984e+00 -5.005487e-01 -9.323637e+00 -1.026901e+00 -2.222905e+00 1.863530e+00 -1.286246e+00 -3.944349e+00 5.951133e-01 4.015516e+00 -6.092737e+00 -1.437854e+00 -2.686177e+00 3.258312e-01 -4.008644e+00 -2.079858e+00 8.732288e-02 1.538046e-01 9.309368e-01 -1.589932e+00 -2.543970e-01 6.995145e+00
<VARIANCE> 25
 2.374654e+01 2.268525e+02 9.176263e+01 8.729792e+01 4.946723e+01 5.685943e+01 6.310374e+01 3.327681e+01 4.136384e+01 4.200352e+01 2.094315e+01 2.463541e+01 1.410795e+01 8.886987e+00 9.566251e+00 8.684290e+00 6.569661e+00 6.879790e+00 1.282882e+01 7.129703e+00 9.108588e+00 3.514771e+00 4.876764e+00 5.109381e+00 7.116192e+00
<GCONST> 1.190471e+02
<TRANSP> 5
 0.000000e+00 1.000000e+00 0.000000e+00 0.000000e+00 0.000000e+00
 0.000000e+00 6.792845e-02 9.320716e-01 0.000000e+00 0.000000e+00
 0.000000e+00 0.000000e+00 3.747211e-01 6.252789e-01 0.000000e+00
 0.000000e+00 0.000000e+00 0.000000e+00 4.208058e-01 5.791942e-01
 0.000000e+00 0.000000e+00 0.000000e+00 0.000000e+00 0.000000e+00
<ENDHMM>
~h "aw"
<BEGINHMM>
<NUMSTATES> 5
<STATE> 2
<MEAN> 25
 2.236664e+01 -1.072849e+01 -7.439719e+00 -1.170914e+01 5.166402e+00 8.535806e+00 -4.707874e+00 -1.743422e+00 1.419435e+00 -9.466676e-02 4.050606e-01 -2.656664e+00 7.061856e-01 -1.274544e+00 1.572496e-01 -9.272617e-01 3.479296e-01 5.373849e-01 -9.066454e-01 4.706121e-01 2.383249e-01 -3.563227e-01 -3.189402e-01 -3.631617e-01 1.328931e+00
<VARIANCE> 25
 2.806220e+01 1.005230e+02 8.081360e+01 1.406315e+02 4.840154e+01 4.304908e+01 8.606504e+01 3.774580e+01 2.443204e+01 6.498008e+01 1.995078e+01 3.932483e+01 4.143561e+00 1.452382e+01 8.479795e+00 7.451151e+00 8.332767e+00 4.477824e+00 7.787192e+00 6.049893e+00 3.896638e+00 5.855281e+00 3.758587e+00 5.263927e+00 1.211620e+01
<GCONST> 1.173152e+02
<STATE> 3
<MEAN> 25
 2.518803e+01 -1.382553e+01 -2.249181e+00 -1.048168e+01 -1.738691e+00 7.921968e+00 -5.237469e+00 9.314861e-01 -1.478594e+00 2.015760e+00 5.404296e+00 -7.950508e+00 -4.385586e-01 1.913742e+00 -6.732575e-01 7.242521e-01 3.864892e-01 -5.037841e-01 2.789432e-01 -2.372611e-01 4.846197e-01 4.102378e-01 2.465151e-02 3.414915e-01 -1.484480e+00
<VARIANCE> 25
 1.746759e+01 1.412184e+02 1.125551e+02 7.987617e+01 3.872861e+01 5.712287e+01 5.087345e+01 5.109376e+01 2.518874e+01 2.612814e+01 3.108244e+01 1.293117e+01 1.826516e+00 4.030435e+00 7.434478e+00 2.986698e+00 5.850874e+00 1.394066e+00 9.820098e+00 2.815315e+00 2.996112e+00 2.172952e+00 2.951118e+00 2.128514e+00 4.022774e+00
<GCONST> 1.065299e+02
<STATE> 4
<MEAN> 25
 1.044503e+01 4.356153e+00 -1.232152e+01 -5.849344e+00 5.987030e-01 4.538908e+00 5.562640e-01 -3.329763e+00 -6.153257e-01 3.456374e+00 4.027211e+00 -6.009012e-01 -3.691770e+00 1.424588e-02 1.303175e+00 1.941448e-01 -1.618422e+00 -3.489355e-01 5.939856e-01 5.605742e-01 -7.238325e-02 -1.919651e-01 8.224468e-01 1.163173e+00 -2.623208e+00
<VARIANCE> 25
 5.074532e+01 6.622606e+00 5.624195e+01 4.327926e+01 3.695287e+01 1.345061e+01 2.582301e+01 1.042275e+01 2.086084e+01 1.605558e+01 3.233147e+01 2.283127e+01 2.431533e+00 2.521572e+00 2.465441e+00 3.326812e+00 2.685728e+00 2.235553e+00 2.087894e+00 9.983948e-01 1.997928e+00 1.546545e+00 2.508614e+00 1.927876e+00 1.871381e+00
<GCONST> 9.355932e+01
<TRANSP> 5
 0.000000e+00 1.000000e+00 0.000000e+00 0.000000e+00 0.000000e+00
 0.000000e+00 8.749893e-01 1.250106e-01 0.000000e+00 0.000000e+00
 0.000000e+00 0.000000e+00 8.547122e-01 1.452878e-01 0.000000e+00
 0.000000e+00 0.000000e+00 0.000000e+00 7.766959e-01 2.233041e-01
 0.000000e+00 0.000000e+00 0.000000e+00 0.000000e+00 0.000000e+00
<ENDHMM>
~h "ay"
<BEGINHMM>
<NUMSTATES> 5
<STATE> 2
<MEAN> 25
 9.510658e+00 -4.747169e+00 -2.019266e+00 -9.413879e+00 7.721356e+00 -3.325841e+00 -6.411236e+00 -1.507780e+00 4.436889e+00 1.555371e+00 -9.739323e-01 -1.687620e+00 -8.825682e-01 7.786981e-01 -4.755013e-01 1.161857e-01 1.767004e+00 -4.505644e-01 3.328140e-01 1.478601e-02 1.835446e+00 -9.233220e-01 1.982901e-01 8.306597e-01 -1.343554e-01
<VARIANCE> 25
 1.064024e+02 1.054296e+02 6.107825e+01 1.349052e+02 5.845270e+01 8.122195e+01 1.203802e+02 8.501018e+01 5.148676e+01 5.599567e+01 3.232391e+01 5.545157e+01 8.991715e+00 1.072349e+01 4.461599e+00 1.071539e+01 5.949475e+00 8.551821e+00 9.933024e+00 8.765225e+00 3.995833e+00 5.839976e+00 3.720464e+00 5.362186e+00 1.666621e+01
<GCONST> 1.232343e+02
<STATE> 3
<MEAN> 25
 1.824889e+00 -6.605543e+00 1.450493e+00 -6.707826e+00 5.505989e+00 -8.853136e+00 1.919318e+00 -4.701466e-01 5.333593e+00 1.347272e+00 -6.900539e-01 1.991203e+00 2.038421e+00 -2.332785e+00 1.853288e+00 -8.608685e-01 -9.262518e-01 5.637344e-01 -7.754192e-01 9.306570e-01 -4.292449e-01 7.826853e-01 -4.888321e-01 -9.959316e-01 2.441205e+00
<VARIANCE> 25
 8.192400e+01 6.305684e+01 1.020805e+02 6.317358e+01 6.743953e+01 7.964235e+01 8.247030e+01 4.283266e+01 4.001963e+01 3.193255e+01 4.290873e+01 3.501908e+01 1.406569e+01 5.640775e+00 1.586171e+01 1.360037e+01 1.066203e+01 1.520034e+01 1.572732e+01 5.758838e+00 6.062315e+00 5.817002e+00 5.696168e+00 4.030937e+00 1.138659e+01
<GCONST> 1.229659e+02
<STATE> 4
<MEAN> 25
 1.508094e+01 -1.228110e+01 4.120871e-01 -9.530862e+00 1.648382e+00 -8.589588e-01 -5.999511e+00 1.679053e+00 3.975772e+00 3.657693e+00 -4.775462e-01 -2.765924e+00 1.815491e+00 -1.471651e+00 -1.112195e+00 1.238893e+00 -1.659116e+00 9.649561e-01 -1.675436e-01 8.754192e-02 -2.569285e-01 -3.430291e-01 3.498915e-01 -2.659053e-01 2.965162e-01
<VARIANCE> 25
 3.561574e+01 5.266806e+01 1.806673e+02 7.986340e+01 5.542032e+01 5.355556e+01 5.141662e+01 4.552033e+01 3.217651e+01 5.241298e+01 2.627001e+01 2.754869e+01 5.528115e+00 4.983817e+00 1.218470e+01 7.294898e+00 5.350008e+00 1.043172e+01 6.257235e+00 3.727273e+00 4.395313e+00 6.737107e+00 5.572587e+00 3.392191e+00 4.652299e+00
<GCONST> 1.156689e+02
<TRANSP> 5
 0.000000e+00 1.000000e+00 0.000000e+00 0.000000e+00 0.000000e+00
 0.000000e+00 6.792258e-01 3.207742e-01 0.000000e+00 0.000000e+00
 0.000000e+00 0.000000e+00 7.563158e-01 2.436842e-01 0.000000e+00
 0.000000e+00 0.000000e+00 0.000000e+00 7.385566e-01 2.614434e-01
 0.000000e+00 0.000000e+00 0.000000e+00 0.000000e+00 0.000000e+00
<ENDHMM>
~h "eh"
<BEGINHMM>
<NUMSTATES> 5
<STATE> 2
<MEAN> 25
 2.154842e+01 -1.817936e+01 -4.649279e-01 3.573639e+00 -1.147592e+01 -4.901294e+00 2.944149e+00 -1.633276e+00 9.078358e-01 4.685376e+00 -5.878785e+00 -4.179571e+00 9.815538e-02 6.771969e-01 -4.676401e-01 7.712983e-01 4.286348e-02 -4.614361e-01 2.629564e-01 -2.325191e-01 -3.231661e-01 2.074223e-01 -2.114993e-01 2.266226e-01 -7.262037e-01
<VARIANCE> 25
 1.740962e+01 2.150589e+01 4.134144e+01 5.997892e+01 2.946536e+01 4.170083e+01 3.650377e+01 8.661008e+01 4.597163e+01 5.461063e+01 4.103720e+01 3.014940e+01 1.998924e+00 2.730513e+00 5.623462e+00 6.072629e+00 3.893573e+00 3.855418e+00 3.726033e+00 7.565166e+00 4.368612e+00 4.425893e+00 3.487921e+00 2.572554e+00 3.072167e+00
<GCONST> 1.073637e+02
<STATE> 3
<MEAN> 25
 1.964166e+01 -5.130199e+00 -7.311872e+00 7.207493e+00 -3.156925e+00 -8.870273e+00 6.642185e-01 1.064510e+00 1.382926e+00 -4.165972e-02 -5.450259e+00 -1.715192e+00 -1.388808e+00 3.752846e+00 -1.191064e+00 -4.654509e-01 2.335264e+00 6.056755e-01 -1.202588e+00 1.533450e+00 1.159466e+00 -2.084064e+00 5.735167e-01 7.972271e-01 -3.178210e+00
<VARIANCE> 25
 2.535189e+01 4.201690e+01 5.287931e+01 5.567373e+01 5.225889e+01 3.238895e+01 4.972834e+01 6.591857e+01 5.859251e+01 5.394687e+01 4.847936e+01 3.457446e+01 2.217542e+00 4.540857e+00 4.466040e+00 7.739095e+00 6.226065e+00 5.599165e+00 4.544982e+00 7.148033e+00 3.812174e+00 5.021661e+00 4.886841e+00 2.341243e+00 2.903533e+00
<GCONST> 1.112569e+02
<STATE> 4
<MEAN> 25
 6.176593e+00 6.603862e+00 -5.672437e+00 2.833644e-01 -1.553423e+00 -3.069426e+00 -1.203058e+00 3.739260e+00 5.007205e+00 -2.980194e+00 -3.937339e+00 -4.593975e-01 -2.517078e+00 9.981628e-01 8.088036e-01 -7.573891e-01 -4.189130e-01 1.048542e+00 1.898925e-01 -6.614300e-01 -7.807168e-02 4.666494e-01 6.468972e-01 1.327598e-01 -2.068317e+00
<VARIANCE> 25
 1.116809e+02 6.631332e+01 7.758520e+01 3.320872e+01 4.134088e+01 2.987579e+01 4.031003e+01 4.062714e+01 2.850236e+01 3.655050e+01 1.990227e+01 1.786335e+01 2.771163e+00 6.481956e+00 5.986816e+00 4.540120e+00 4.093666e+00 2.464087e+00 3.076660e+00 3.236751e+00 2.692312e+00 2.940892e+00 2.294719e+00 2.012912e+00 3.584431e+00
<GCONST> 1.057297e+02
<TRANSP> 5
 0.000000e+00 1.000000e+00 0.000000e+00 0.000000e+00 0.000000e+00
 0.000000e+00 8.789191e-01 1.210809e-01 0.000000e+00 0.000000e+00
 0.000000e+00 0.000000e+00 7.202330e-01 2.797670e-01 0.000000e+00
 0.000000e+00 0.000000e+00 0.000000e+00 7.494799e-01 2.505202e-01
 0.000000e+00 0.000000e+00 0.000000e+00 0.000000e+00 0.000000e+00
<ENDHMM>
~h "er"
<BEGINHMM>
<NUMSTATES> 5
<STATE> 2
<MEAN> 25
 1.128081e+01 -2.026736e+00 4.164298e+00 -9.062028e+00 8.596385e+00 -6.040964e+00 -5.476060e+00 1.876065e+00 1.723347e+00 1.913035e+00 -3.163456e+00 -3.426641e-01 -4.802501e+00 3.200418e+00 2.444006e-01 9.839469e-01 1.588078e+00 -1.410050e+00 2.565497e+00 7.308193e-01 1.019987e+00 -2.507991e+00 6.555918e-01 1.353375e+00 -8.732822e-01
<VARIANCE> 25
 1.036653e+02 7.321513e+01 7.617783e+01 6.600672e+01 6.945718e+01 8.498730e+01 8.758187e+01 7.495038e+01 6.531461e+01 7.206256e+01 5.095767e+01 5.419252e+01 8.185936e+00 6.653162e+00 1.197560e+01 8.956532e+00 1.095336e+01 5.667548e+00 9.503604e+00 1.125318e+01 7.548288e+00 6.466127e+00 6.217219e+00 6.683948e+00 1.751464e+00
<GCONST> 1.229061e+02
<STATE> 3
<MEAN> 25
 -8.703376e+00 3.431928e+00 5.144871e+00 -6.782867e+00 4.181302e+00 -1.019854e+01 7.392482e+00 1.230900e+00 -3.295954e-01 -3.792106e+00 1.663912e+00 4.026879e+00 1.664931e+00 -1.359251e+00 5.815791e-01 4.591560e-01 -1.686017e+00 -3.295349e-01 -2.959229e-02 -1.813102e-02 -6.517096e-01 1.833798e-01 2.755765e-01 -3.577594e-01 4.250984e-01
<VARIANCE> 25
 1.017883e+02 5.283313e+01 6.424566e+01 4.056008e+01 7.562758e+01 5.531944e+01 5.694505e+01 7.042953e+01 3.942989e+01 4.095299e+01 3.660720e+01 2.861985e+01 2.082962e+01 5.748167e+00 5.703627e+00 4.205539e+00 4.908744e+00 4.664946e+00 8.683018e+00 6.191088e+00 4.274956e+00 4.067264e+00 4.324220e+00 3.177015e+00 3.204991e+00
<GCONST> 1.150984e+02
<STATE> 4
<MEAN> 25
 1.690021e+01 -1.383471e+01 7.956663e+00 1.572064e+00 -7.613731e+00 -8.938974e+00 -4.657922e+00 2.453031e+00 1.104709e-01 1.059258e+00 -2.801478e+00 2.184284e-01 4.623111e-02 3.364410e-01 -1.080997e+00 1.059860e+00 4.015005e-01 2.199686e-01 -7.260441e-01 -2.118320e-01 8.197959e-01 1.650325e-01 -5.894211e-01 2.579722e-01 -1.185975e+00
<VARIANCE> 25
 3.420715e+01 2.642391e+01 8.858765e+01 7.920123e+01 4.659248e+01 7.121103e+01 4.775201e+01 5.880543e+01 6.391389e+01 4.729366e+01 6.163511e+01 3.449858e+01 4.787939e+00 6.081609e+00 8.678445e+00 6.642097e+00 5.475037e+00 7.794390e+00 5.435629e+00 6.727727e+00 5.857862e+00 5.701229e+00 5.399592e+00 3.605265e+00 4.218189e+00
<GCONST> 1.160281e+02
<TRANSP> 5
 0.000000e+00 1.000000e+00 0.000000e+00 0.000000e+00 0.000000e+00
 0.000000e+00 7.951373e-01 2.048627e-01 0.000000e+00 0.000000e+00
 0.000000e+00 0.000000e+00 9.054762e-01 9.452379e-02 0.000000e+00
 0.000000e+00 0.000000e+00 0.000000e+00 9.223166e-01 7.768347e-02
 0.000000e+00 0.000000e+00 0.000000e+00 0.000000e+00 0.000000e+00
<ENDHMM>
~h "ey"
<BEGINHMM>
<NUMSTATES> 5
<STATE> 2
<MEAN> 25
 8.579903e-01 9.682655e+00 5.948751e+00 3.857415e+00 -1.788576e+00 2.738705e+00 2.307352e+00 2.188084e-01 2.867071e+00 -1.926923e+00 3.451592e+00 7.882581e-01 4.253848e+00 -3.074256e-02 5.549511e+00 -2.344877e+00 -4.688433e+00 -1.603774e+00 5.269765e-02 1.097360e+00 -2.625959e+00 -2.096510e-01 1.430328e+00 -4.119768e-01 5.063515e+00
<VARIANCE> 25
 6.724498e+01 2.793961e+01 4.514050e+01 3.556226e+01 4.799294e+01 9.815408e+00 2.284055e+01 2.041763e+01 1.666456e+01 1.251673e+01 1.112203e+01 1.582885e+01 8.614515e+00 5.337249e+00 1.177970e+01 5.932563e+00 7.126501e+00 5.750602e+00 8.211273e+00 5.218343e+00 6.900593e+00 5.601495e+00 1.990527e+00 3.205814e+00 1.764105e+01
<GCONST> 1.076015e+02
<STATE> 3
<MEAN> 25
 9.121799e+00 3.004940e+00 2.404821e+01 -5.686849e+00 -1.549348e+01 -3.552298e+00 1.331568e+00 3.716407e+00 -1.404189e+01 -1.995311e+00 5.268331e+00 -1.014867e+00 1.711308e+00 -3.385008e+00 3.280349e+00 -2.163834e+00 -1.097901e+00 -1.069918e+00 -8.854157e-01 2.791632e-01 -3.493637e+00 6.776134e-01 -3.214089e-01 2.840741e-01 4.176033e+00
<VARIANCE> 25
 2.092273e+01 5.605773e+01 1.211402e+02 9.277457e+01 2.853028e+01 7.439629e+01 7.861146e+01 4.454556e+01 9.157582e+01 7.704192e+01 1.838401e+01 3.003617e+01 6.688553e+00 2.286580e+00 1.182645e+01 7.626888e+00 1.003554e+01 5.718470e+00 5.721695e+00 4.066446e+00 7.386833e+00 3.930640e+00 3.313280e+00 3.095830e+00 8.311996e+00
<GCONST> 1.155786e+02
<STATE> 4
<MEAN> 25
 1.558091e+01 -1.484536e+01 2.136283e+01 -7.433808e+00 -1.231141e+01 -6.612943e+00 -5.135323e+00 7.565652e+00 -9.238939e+00 1.153011e+00 2.711577e+00 2.337177e+00 4.955112e-01 -9.454963e-01 -9.501874e-01 1.411146e-01 4.424734e-02 -2.676476e-01 -1.302151e-01 3.276044e-01 9.929616e-01 2.247561e-01 -2.476196e-01 1.561188e-01 6.479090e-01
<VARIANCE> 25
 1.815346e+01 3.278932e+01 6.846458e+01 7.338982e+01 3.643228e+01 3.496574e+01 3.543168e+01 5.149431e+01 6.610936e+01 3.815177e+01 2.434539e+01 1.296853e+01 1.060483e+00 1.597185e+00 2.287637e+00 3.773376e+00 3.270710e+00 3.526657e+00 2.410463e+00 3.746671e+00 3.829552e+00 2.916723e+00 2.607459e+00 1.415303e+00 1.804281e+00
<GCONST> 1.007422e+02
<TRANSP> 5
 0.000000e+00 1.000000e+00 0.000000e+00 0.000000e+00 0.000000e+00
 0.000000e+00 3.213496e-01 6.786504e-01 0.000000e+00 0.000000e+00
 0.000000e+00 0.000000e+00 7.292176e-01 2.707824e-01 0.000000e+00
 0.000000e+00 0.000000e+00 0.000000e+00 9.056911e-01 9.430886e-02
 0.000000e+00 0.000000e+00 0.000000e+00 0.000000e+00 0.000000e+00
<ENDHMM>
~h "ih"
<BEGINHMM>
<NUMSTATES> 5
<STATE> 2
<MEAN> 25
 -9.129205e+00 7.270016e+00 -3.793366e+00 5.444629e+00 2.657725e+00 2.833684e+00 2.185767e+00 -3.751341e+00 -1.117124e-01 -2.704007e+00 2.843012e-01 1.509745e+00 3.094297e-01 1.050347e-01 1.745710e-02 -1.669411e-01 -2.374809e-01 -9.715655e-02 -1.858946e-01 -9.718305e-02 -1.340148e-01 -3.750046e-02 -1.794321e-01 -1.084378e-01 2.050901e-01
<VARIANCE> 25
 2.932064e+01 1.578761e+01 1.865037e+01 1.913706e+01 1.532704e+01 1.264701e+01 1.336490e+01 1.770887e+01 1.468789e+01 1.639190e+01 1.625013e+01 1.287039e+01 1.852010e+00 9.598076e-01 9.288616e-01 1.518166e+00 1.621489e+00 1.598855e+00 1.525254e+00 1.670292e+00 1.832024e+00 1.300442e+00 1.655461e+00 1.344375e+00 2.008957e+00
<GCONST> 8.469502e+01
<STATE> 3
<MEAN> 25
 -8.134013e+00 3.677406e+00 -2.090496e+00 2.047078e+00 1.239684e+00 5.621026e-01 2.127959e+00 2.238519e-01 6.345153e-03 -1.493954e+00 -1.911852e+00 1.920114e-01 1.250778e-01 -2.965449e-01 1.128671e-01 1.675303e-01 2.414805e-01 -7.007585e-02 8.819857e-02 1.666314e-01 2.754057e-02 7.635539e-02 -1.624804e-01 -7.212129e-02 3.108975e-01
<VARIANCE> 25
 2.876576e+01 1.853933e+01 1.174575e+01 2.362202e+01 2.084092e+01 2.171695e+01 1.503619e+01 1.709995e+01 1.431144e+01 1.379800e+01 1.797089e+01 1.231344e+01 7.610684e-01 9.549217e-01 8.741326e-01 1.486590e+00 1.687054e+00 1.477774e+00 1.388690e+00 1.570590e+00 1.302231e+00 1.590176e+00 1.349969e+00 1.076602e+00 4.562061e-01
<GCONST> 8.215438e+01
<STATE> 4
<MEAN> 25
 -5.988095e+00 2.410626e+00 -1.400097e+00 4.466511e+00 1.951246e+00 -4.450702e-01 1.072575e+00 8.992837e-02 1.952185e+00 -1.421861e+00 -1.399689e+00 6.284283e-01 6.926631e-01 -7.125391e-01 6.223693e-01 1.393477e-01 3.657954e-01 -7.037041e-01 -3.008493e-01 6.256249e-02 1.688643e-01 1.237224e-01 -1.923002e-01 -5.855394e-02 1.388339e+00
<VARIANCE> 25
 4.558258e+01 6.468408e+01 2.789269e+01 1.656828e+01 1.925205e+01 3.894519e+01 2.163025e+01 1.982492e+01 2.412879e+01 1.909059e+01 1.849439e+01 1.474143e+01 5.251208e+00 5.729476e+00 3.014803e+00 2.417236e+00 3.266489e+00 3.927332e+00 2.716616e+00 1.599687e+00 3.085938e+00 1.913066e+00 1.372247e+00 1.933861e+00 4.695086e+00
<GCONST> 9.820249e+01
<TRANSP> 5
 0.000000e+00 1.000000e+00 0.000000e+00 0.000000e+00 0.000000e+00
 0.000000e+00 7.005613e-01 2.994386e-01 0.000000e+00 0.000000e+00
 0.000000e+00 0.000000e+00 7.432644e-01 2.567356e-01 0.000000e+00
 0.000000e+00 0.000000e+00 0.000000e+00 6.830096e-01 3.169904e-01
 0.000000e+00 0.000000e+00 0.000000e+00 0.000000e+00 0.000000e+00
<ENDHMM>
~h "iy"
<BEGINHMM>
<NUMSTATES> 5
<STATE> 2
<MEAN> 25
 1.852015e+00 1.528330e+01 5.276488e+00 7.146770e+00 -2.197866e+00 -6.894833e-01 -1.218632e+00 -5.505033e+00 -2.411557e+00 -4.576179e+00 -1.953110e+00 -1.039907e+00 -1.661848e+00 -1.163716e+00 -7.030934e-01 3.317372e-01 9.594668e-01 6.199035e-01 7.406342e-02 1.194180e-01 1.013816e-01 -8.297049e-03 6.804670e-02 2.880849e-02 -9.470224e-01
<VARIANCE> 25
 4.582598e+01 3.137266e+01 2.218154e+01 1.312418e+01 2.011028e+01 2.200244e+01 1.642795e+01 2.240940e+01 1.317823e+01 1.712446e+01 1.928635e+01 1.989654e+01 1.562461e+00 1.893946e+00 2.137174e+00 1.152162e+00 1.367146e+00 1.192457e+00 1.741234e+00 2.202588e+00 1.468171e+00 1.707177e+00 1.570983e+00 1.418827e+00 3.710538e-01
<GCONST> 8.680931e+01
<STATE> 3
<MEAN> 25
 -8.041606e+00 7.149947e+00 -3.212086e-01 7.558814e+00 1.614684e+00 1.758523e+00 1.464238e+00 -3.407869e+00 -2.286320e+00 -4.293589e+00 -9.218664e-01 -2.484968e-01 -4.593847e-01 -3.671416e-01 -3.343102e-01 -1.609626e-01 1.049365e-01 1.531262e-01 1.972544e-01 3.534268e-01 2.992023e-01 1.093129e-01 6.462391e-02 2.049606e-02 -2.329468e-01
<VARIANCE> 25
 7.372070e+00 6.120286e+00 1.373505e+01 1.759270e+01 1.116666e+01 1.526594e+01 1.300667e+01 1.458606e+01 1.496149e+01 1.252371e+01 1.594796e+01 1.412178e+01 3.425253e-01 6.892626e-01 7.850010e-01 7.946993e-01 1.051667e+00 1.209903e+00 1.017608e+00 1.019749e+00 1.683438e+00 1.573804e+00 1.284289e+00 1.489133e+00 8.321530e-02
<GCONST> 7.377686e+01
<STATE> 4
<MEAN> 25
 -9.552408e+00 4.844822e+00 -6.161858e+00 4.778663e+00 3.101837e+00 3.649762e+00 2.146789e+00 -2.453761e+00 7.323140e-01 -2.092869e+00 -6.747217e-01 -1.074467e+00 -3.318228e-02 -2.659209e-02 -2.557652e-02 -2.183714e-02 1.473732e-02 2.995053e-02 4.069293e-02 2.037735e-02 2.174399e-02 -5.319919e-04 -2.611574e-02 -5.247232e-02 -1.365951e-02
<VARIANCE> 25
 5.929558e+00 4.318872e+00 5.895500e+00 8.866871e+00 1.031125e+01 1.253870e+01 1.132391e+01 1.303426e+01 1.087336e+01 1.177199e+01 1.260789e+01 1.125198e+01 1.180010e-01 2.675881e-01 4.136771e-01 5.884596e-01 7.150958e-01 9.577253e-01 1.073621e+00 1.276560e+00 1.156057e+00 1.145157e+00 1.226665e+00 1.117251e+00 4.002925e-02
<GCONST> 6.525581e+01
<TRANSP> 5
 0.000000e+00 1.000000e+00 0.000000e+00 0.000000e+00 0.000000e+00
 0.000000e+00 8.085181e-01 1.914819e-01 0.000000e+00 0.000000e+00
 0.000000e+00 0.000000e+00 8.346153e-01 1.653846e-01 0.000000e+00
 0.000000e+00 0.000000e+00 0.000000e+00 9.401423e-01 5.985769e-02
 0.000000e+00 0.000000e+00 0.000000e+00 0.000000e+00 0.000000e+00
<ENDHMM>
~h "ng"
<BEGINHMM>
<NUMSTATES> 5
<STATE> 2
<MEAN> 25
 1.889944e+01 -2.525536e+00 3.566524e+00 3.011519e+00 -1.170376e+01 -1.957927e+00 1.064887e+01 -6.656281e+00 -1.473691e+01 3.367161e+00 1.389039e+00 -3.558654e+00 6.910266e-01 3.288467e+00 -1.884213e+00 8.178319e-01 3.197447e-01 1.002282e+00 -3.637301e-01 -3.242528e+00 5.257298e-01 5.039490e-01 9.299077e-02 6.449546e-01 -1.832688e+00
<VARIANCE> 25
 1.144810e+01 7.921894e+01 8.551267e+01 9.937283e+01 5.822694e+01 3.176814e+01 5.783593e+01 1.524674e+02 4.631784e+01 3.580309e+01 2.570563e+01 2.997775e+01 9.845200e-01 3.329123e+00 5.691084e+00 9.715050e+00 4.892168e+00 3.164641e+00 8.362642e+00 8.479856e+00 6.716411e+00 3.912112e+00 2.756367e+00 2.591311e+00 1.076548e+00
<GCONST> 1.099819e+02
<STATE> 3
<MEAN> 25
 1.760882e+01 2.482493e+00 -9.070019e-01 -3.618798e+00 -2.774782e-01 -3.204352e+00 -4.657930e+00 -4.452026e+00 -4.907059e+00 1.137576e+00 -1.706099e+00 -2.061973e+00 -6.779459e-01 -2.995315e+00 8.566014e-01 -2.977624e+00 2.641791e+00 -7.459926e-01 -3.677180e+00 3.320915e+00 2.208460e+00 5.433012e-01 -1.092206e+00 -7.230747e-01 2.129297e+00
<VARIANCE> 25
 1.592480e+01 1.295649e+02 5.882294e+01 1.090089e+02 1.184680e+02 8.154454e+01 1.181849e+02 1.452155e+02 7.245325e+01 3.583033e+01 4.962407e+01 3.179509e+01 1.683405e+00 1.047765e+01 6.656495e+00 1.219697e+01 9.786473e+00 9.521692e+00 7.603379e+00 1.349272e+01 4.579358e+00 6.723588e+00 4.282327e+00 3.337749e+00 3.934088e+00
<GCONST> 1.203856e+02
<STATE> 4
<MEAN> 25
 1.718053e+01 -1.116036e+01 4.190031e+00 -2.332745e+01 4.967649e+00 3.939129e+00 -1.468841e+01 2.687330e+00 1.412411e+00 1.099588e+01 -3.518623e+00 -3.466924e+00 2.337242e-01 2.636909e-01 -3.374555e-01 -8.903499e-02 -2.234983e-01 7.701746e-01 -2.012665e-01 -1.049444e+00 1.772894e-01 2.536807e-01 3.006799e-02 2.484109e-01 -1.887815e-01
<VARIANCE> 25
 5.478474e+00 2.581420e+01 2.553356e+01 4.229558e+01 5.051483e+01 3.391975e+01 3.854222e+01 6.239541e+01 3.436733e+01 3.037697e+01 4.614692e+01 3.042966e+01 3.165734e-01 1.484044e+00 1.177764e+00 3.608332e+00 3.203310e+00 3.110736e+00 1.991943e+00 3.301472e+00 1.723441e+00 2.115757e+00 2.679091e+00 1.838761e+00 6.872809e-01
<GCONST> 9.470015e+01
<TRANSP> 5
 0.000000e+00 1.000000e+00 0.000000e+00 0.000000e+00 0.000000e+00
 0.000000e+00 8.544917e-01 1.455083e-01 0.000000e+00 0.000000e+00
 0.000000e+00 0.000000e+00 8.247125e-01 1.752875e-01 0.000000e+00
 0.000000e+00 0.000000e+00 0.000000e+00 8.810197e-01 1.189804e-01
 0.000000e+00 0.000000e+00 0.000000e+00 0.000000e+00 0.000000e+00
<ENDHMM>
~h "sp"
<BEGINHMM>
<NUMSTATES> 3
<STATE> 2
~s "silst"
<TRANSP> 3
 0.000000e+00 2.006441e-02 9.799356e-01
 0.000000e+00 7.137001e-01 2.862999e-01
 0.000000e+00 0.000000e+00 0.000000e+00
<ENDHMM>
~h "th"
<BEGINHMM>
<NUMSTATES> 5
<STATE> 2
<MEAN> 25
 1.488589e+01 -9.353413e+00 2.020394e+01 -2.577625e-01 -1.795111e+01 -5.145862e+00 -8.208005e-01 -1.532617e+00 -9.977330e+00 -3.522379e+00 1.772166e+00 1.587945e+00 -3.717294e-03 1.410401e+00 7.146080e-01 3.620410e-01 -1.549027e+00 1.709673e-01 8.642443e-01 -7.369250e-01 -1.083367e+00 8.864632e-02 2.727281e-01 -1.720329e-01 -9.707618e-01
<VARIANCE> 25
 2.050056e+01 5.719548e+01 7.051664e+01 8.437946e+01 1.027710e+02 5.987817e+01 1.201393e+02 5.746431e+01 1.106559e+02 4.634841e+01 4.796597e+01 3.515582e+01 2.281004e+00 5.353884e+00 4.487545e+00 5.564396e+00 5.920290e+00 6.857769e+00 7.249157e+00 4.703223e+00 7.905098e+00 4.393657e+00 5.566749e+00 4.767856e+00 2.863152e+00
<GCONST> 1.160739e+02
<STATE> 3
<MEAN> 25
 1.215415e+01 1.658342e+01 1.661414e+01 1.463720e+00 -2.088443e+01 -7.439506e+00 3.647841e+00 -7.645171e+00 -8.324881e+00 2.465426e+00 -4.896357e-01 -2.248359e+00 -1.650295e+00 2.354133e+00 -2.321989e+00 2.512762e-01 3.778666e+00 -1.870721e-01 -2.416276e+00 9.483563e-01 2.814134e+00 1.701209e-01 7.071629e-02 2.064273e-01 -2.715419e+00
<VARIANCE> 25
 1.049463e+01 2.808002e+01 2.759255e+01 8.776477e+01 5.118642e+01 4.202770e+01 8.915101e+01 5.095952e+01 3.204720e+01 4.179289e+01 2.967184e+01 1.424305e+01 1.298211e+00 3.955319e+00 6.056309e+00 6.175486e+00 4.447390e+00 4.453771e+00 9.580162e+00 2.654625e+00 3.193612e+00 5.784044e+00 2.825328e+00 1.303463e+00 5.715644e-01
<GCONST> 1.039070e+02
<STATE> 4
<MEAN> 25
 2.418103e+00 1.162675e+01 7.391681e+00 5.250524e-01 -1.333302e+01 -2.356673e+00 1.042122e+00 -6.660404e+00 -4.373874e+00 2.998212e-01 -1.140747e+00 -1.647304e+00 -2.321503e+00 -1.810781e+00 -2.392734e+00 -3.137149e-01 1.653917e+00 1.133404e+00 1.376649e-01 1.277949e-01 -2.185922e-02 -9.134250e-01 -3.622240e-01 2.218288e-01 -1.444457e+00
<VARIANCE> 25
 2.498372e+01 3.796476e+01 4.372996e+01 1.402355e+01 1.792693e+01 2.415243e+01 2.137213e+01 1.986386e+01 1.552723e+01 1.171184e+01 2.480488e+01 1.166145e+01 2.296211e+00 1.777308e+00 2.250486e+00 2.201499e+00 5.726389e+00 2.384064e+00 5.234184e+00 1.578528e+00 2.794290e+00 1.627913e+00 2.248784e+00 5.498860e-01 1.112630e+00
<GCONST> 9.177896e+01
<TRANSP> 5
 0.000000e+00 1.000000e+00 0.000000e+00 0.000000e+00 0.000000e+00
 0.000000e+00 9.330366e-01 6.696334e-02 0.000000e+00 0.000000e+00
 0.000000e+00 0.000000e+00 7.365238e-01 2.634762e-01 0.000000e+00
 0.000000e+00 0.000000e+00 0.000000e+00 6.794900e-01 3.205100e-01
 0.000000e+00 0.000000e+00 0.000000e+00 0.000000e+00 0.000000e+00
<ENDHMM>
~h "uw"
<BEGINHMM>
<NUMSTATES> 5
<STATE> 2
<MEAN> 25
 -1.552463e+00 7.604766e+00 -1.754284e+00 1.711643e+00 -1.550592e+00 6.869790e-01 1.322466e-01 -3.680707e+00 -4.854875e+00 -4.311908e+00 9.534671e-01 1.225563e+00 -1.718602e+00 -9.291559e-01 8.895878e-02 6.202979e-01 1.006047e-01 -9.895948e-02 4.911150e-01 6.667089e-01 1.076231e-01 -4.284990e-01 -6.106393e-01 -3.345416e-01 -9.815419e-01
<VARIANCE> 25
 3.269523e+01 2.173502e+01 1.899138e+01 2.395704e+01 1.788837e+01 2.186756e+01 1.917554e+01 2.235432e+01 2.065105e+01 2.160828e+01 1.915803e+01 2.612629e+01 1.568988e+00 1.413989e+00 1.847447e+00 1.567978e+00 1.917931e+00 2.225456e+00 1.232381e+00 1.696036e+00 1.829079e+00 1.585111e+00 1.469840e+00 1.572646e+00 6.022748e-01
<GCONST> 8.842386e+01
<STATE> 3
<MEAN> 25
 -5.588732e+00 3.228984e+00 7.940372e-01 5.418244e+00 -1.094036e+00 -2.604019e-01 4.460759e-01 -1.165360e+00 -2.355141e+00 -3.195886e+00 -1.667791e+00 -1.427935e+00 -8.820522e-02 -9.762939e-03 9.602821e-02 1.192803e-01 5.879054e-02 3.301443e-02 5.258965e-02 6.185054e-02 6.413504e-02 2.636267e-02 -1.286615e-02 8.896219e-03 -4.774351e-02
<VARIANCE> 25
 3.525703e+00 6.186778e+00 1.172149e+01 1.205093e+01 1.082752e+01 1.119129e+01 1.126508e+01 1.165482e+01 1.284449e+01 1.406792e+01 1.312600e+01 1.181818e+01 1.438822e-01 2.652883e-01 4.813393e-01 5.665649e-01 8.424598e-01 9.613957e-01 1.270625e+00 1.193151e+00 1.071728e+00 1.149291e+00 1.095275e+00 9.267939e-01 3.858053e-02
<GCONST> 6.650435e+01
<STATE> 4
<MEAN> 25
 -7.472218e+00 5.578883e+00 -1.126526e+00 3.192700e+00 -8.569425e-02 1.758227e+00 2.464366e+00 1.537874e+00 -4.865398e-02 -3.569311e+00 -1.942295e-01 1.345634e+00 -2.448015e-01 -4.894805e-02 2.083014e-01 2.990915e-01 3.039983e-01 -4.314821e-01 2.920869e-02 4.076648e-01 7.794128e-01 8.442137e-01 -3.352805e-02 6.471289e-02 4.251710e-02
<VARIANCE> 25
 1.422579e+01 1.509343e+01 3.529519e+01 5.328025e+01 1.802148e+01 3.849072e+01 1.731331e+01 2.454227e+01 1.273405e+01 2.076967e+01 1.525724e+01 1.876922e+01 1.413448e+00 1.312729e+00 1.878860e+00 2.052319e+00 1.737756e+00 2.552428e+00 1.925169e+00 2.303878e+00 2.126584e+00 1.806523e+00 1.577675e+00 1.937604e+00 9.570720e-01
<GCONST> 9.005093e+01
<TRANSP> 5
 0.000000e+00 1.000000e+00 0.000000e+00 0.000000e+00 0.000000e+00
 0.000000e+00 7.642155e-01 2.357845e-01 0.000000e+00 0.000000e+00
 0.000000e+00 0.000000e+00 9.264219e-01 7.357807e-02 0.000000e+00
 0.000000e+00 0.000000e+00 0.000000e+00 4.779482e-01 5.220518e-01
 0.000000e+00 0.000000e+00 0.000000e+00 0.000000e+00 0.000000e+00
<ENDHMM>
~h "sil"
<BEGINHMM>
<NUMSTATES> 5
<STATE> 2
<MEAN> 25
 -1.000592e+01 5.223872e+00 -2.161464e+00 4.411987e+00 8.441052e-01 2.250748e+00 1.833655e+00 -5.731034e-01 4.596199e-01 -2.449928e+00 -4.048030e-01 5.507304e-02 -2.687296e-02 -5.977615e-03 1.408315e-02 2.881055e-02 3.368494e-02 1.841972e-02 2.804784e-02 1.024557e-02 -1.458635e-02 -1.907866e-02 -3.338051e-03 1.230526e-02 -1.522130e-02
<VARIANCE> 25
 7.669489e+00 5.642389e+00 9.253531e+00 1.451465e+01 1.044010e+01 1.274507e+01 1.386191e+01 1.605026e+01 1.341654e+01 1.306781e+01 1.408155e+01 1.271942e+01 1.098164e-01 2.353088e-01 4.122386e-01 6.248568e-01 7.874016e-01 9.246445e-01 1.053836e+00 1.163807e+00 1.146593e+00 1.236639e+00 1.252058e+00 1.175136e+00 4.028406e-02
<GCONST> 6.766310e+01
<STATE> 3
~s "silst"
<STATE> 4
<MEAN> 25
 -8.177109e+00 4.144958e+00 -8.143328e-01 4.360476e+00 2.336922e+00 2.677917e+00 1.864507e+00 -4.003559e-01 2.535805e-02 -1.775719e+00 -6.475356e-02 6.394207e-01 4.003696e-01 4.614332e-02 3.485827e-02 -5.412611e-02 -6.114519e-02 -2.259894e-01 -2.863844e-01 -1.227737e-01 -9.885550e-02 -4.774665e-02 -1.573350e-01 -1.784111e-01 3.116583e-01
<VARIANCE> 25
 3.896975e+01 2.775096e+01 2.839110e+01 2.683564e+01 2.630282e+01 2.772491e+01 2.421556e+01 2.460258e+01 1.924247e+01 2.233443e+01 1.740908e+01 1.499643e+01 2.837289e+00 2.274316e+00 1.817374e+00 1.965400e+00 2.119831e+00 2.572034e+00 2.017208e+00 1.740561e+00 1.678350e+00 1.595172e+00 1.542284e+00 1.270263e+00 4.453732e+00
<GCONST> 9.341930e+01
<TRANSP> 5
 0.000000e+00 1.000000e+00 0.000000e+00 0.000000e+00 0.000000e+00
 0.000000e+00 9.361418e-01 1.268314e-02 5.117504e-02 0.000000e+00
 0.000000e+00 0.000000e+00 9.609703e-01 3.902969e-02 0.000000e+00
 0.000000e+00 1.040749e-01 0.000000e+00 6.983464e-01 1.975787e-01
 0.000000e+00 0.000000e+00 0.000000e+00 0.000000e+00 0.000000e+00
<ENDHMM>
