~o
<STREAMINFO> 1 25
<VECSIZE> 25<NULLD><MFCC_D_N_Z_0><DIAGC>
~h "b"
<BEGINHMM>
<NUMSTATES> 5
<STATE> 2
<MEAN> 25
 8.418099e+00 4.220824e+00 -2.902786e+00 -1.962465e+00 -1.104503e+00 2.406117e+00 -2.397616e+00 -7.809645e+00 -3.384572e+00 8.707976e-01 -3.596024e-02 -3.127301e-01 -5.520881e-01 1.562867e-01 1.449839e-02 1.202853e-01 4.118822e-02 4.925583e-02 2.201651e-01 1.705452e-01 -7.448521e-03 -1.452280e-01 1.527629e-02 5.389296e-02 -5.286198e-01
<VARIANCE> 25
 2.026185e+02 9.680945e+01 4.482121e+01 1.109428e+02 5.308781e+01 4.973558e+01 5.629327e+01 9.115956e+01 4.528784e+01 4.533058e+01 3.744383e+01 2.390014e+01 2.316713e+00 5.554142e+00 3.900943e+00 4.412445e+00 4.832212e+00 3.603745e+00 3.316429e+00 4.255513e+00 3.247310e+00 2.718841e+00 2.735808e+00 1.790517e+00 2.684218e+00
<GCONST> 1.108474e+02
<STATE> 3
<MEAN> 25
 6.089603e+00 4.834662e+00 -2.855206e+00 -1.414082e+00 -9.052454e-01 2.539681e+00 -1.516975e+00 -7.014098e+00 -3.365835e+00 2.514292e-01 -1.252838e-02 -1.351915e-01 -5.821199e-01 1.269224e-01 3.319973e-02 1.456094e-01 5.090100e-02 4.144000e-02 2.254501e-01 2.273469e-01 1.883390e-02 -1.624054e-01 5.388275e-03 4.193530e-02 -5.350316e-01
<VARIANCE> 25
 2.124158e+02 8.028831e+01 3.995823e+01 1.045207e+02 4.598208e+01 4.328446e+01 5.176598e+01 8.791331e+01 4.282729e+01 4.457458e+01 3.382064e+01 2.182080e+01 2.175153e+00 4.721910e+00 3.395950e+00 3.851080e+00 4.059632e+00 3.164253e+00 2.957853e+00 3.786000e+00 2.879195e+00 2.566771e+00 2.478123e+00 1.677857e+00 2.287155e+00
<GCONST> 1.083272e+02
<STATE> 4
<MEAN> 25
 2.622620e+00 5.466261e+00 -2.604614e+00 -4.832128e-01 -5.065255e-01 2.534341e+00 -5.748498e-01 -5.564264e+00 -3.077290e+00 -5.422479e-01 -1.083589e-01 5.392356e-02 -5.710633e-01 9.149137e-02 4.240355e-02 1.830391e-01 6.513628e-02 1.458524e-02 1.937427e-01 2.586688e-01 6.342825e-02 -1.668849e-01 -2.506585e-02 1.513871e-02 -5.105699e-01
<VARIANCE> 25
 2.053284e+02 6.162149e+01 3.495752e+01 9.665567e+01 3.587587e+01 3.708610e+01 4.318440e+01 7.796183e+01 3.863369e+01 4.086514e+01 2.943435e+01 1.949874e+01 1.908768e+00 3.607626e+00 2.756057e+00 3.169706e+00 3.078036e+00 2.639427e+00 2.510776e+00 3.122450e+00 2.438721e+00 2.316674e+00 2.138092e+00 1.547559e+00 1.777584e+00
<GCONST> 1.043042e+02
<TRANSP> 5
 0.000000e+00 1.000000e+00 0.000000e+00 0.000000e+00 0.000000e+00
 0.000000e+00 7.545071e-01 2.454930e-01 0.000000e+00 0.000000e+00
 0.000000e+00 0.000000e+00 7.545074e-01 2.454927e-01 0.000000e+00
 0.000000e+00 0.000000e+00 0.000000e+00 8.857974e-01 1.142027e-01
 0.000000e+00 0.000000e+00 0.000000e+00 0.000000e+00 0.000000e+00
<ENDHMM>
~h "d"
<BEGINHMM>
<NUMSTATES> 5
<STATE> 2
<MEAN> 25
 -1.300196e+01 4.039340e+00 -1.768029e+00 5.118161e+00 1.215655e+00 2.806381e+00 3.225823e+00 2.294368e+00 3.232675e+00 -2.214065e-01 2.149468e+00 2.417068e+00 -5.837446e-03 3.359900e-02 2.994879e-02 2.589924e-02 9.087730e-03 -6.793560e-03 -5.099754e-02 -6.983258e-02 -3.728005e-02 -1.959647e-02 -1.336604e-02 -2.323901e-02 -1.709397e-02
<VARIANCE> 25
 2.974300e+01 1.323199e+01 1.203736e+01 1.738734e+01 1.129577e+01 1.347594e+01 1.730036e+01 2.275219e+01 2.154235e+01 1.683282e+01 1.706788e+01 1.433562e+01 5.517690e-01 5.565163e-01 5.131270e-01 7.514268e-01 7.388219e-01 9.060338e-01 1.147726e+00 1.365100e+00 1.284557e+00 1.308400e+00 1.124271e+00 1.152047e+00 8.408627e-01
<GCONST> 7.817844e+01
<STATE> 3
<MEAN> 25
 -1.297595e+01 4.172794e+00 -1.639203e+00 5.172805e+00 1.267680e+00 2.807567e+00 3.055542e+00 2.012131e+00 3.007708e+00 -4.046331e-01 2.040834e+00 2.320925e+00 2.145181e-02 2.885574e-02 3.242980e-02 8.100392e-03 8.425005e-03 -2.099852e-03 -3.868220e-02 -6.082114e-02 -5.490756e-02 -4.517948e-02 -2.808672e-02 -2.209390e-02 1.360272e-02
<VARIANCE> 25
 2.638164e+01 1.213767e+01 1.184545e+01 1.783521e+01 1.138708e+01 1.291691e+01 1.758959e+01 2.205590e+01 2.166787e+01 1.629987e+01 1.664668e+01 1.398982e+01 5.880151e-01 5.533221e-01 5.151803e-01 7.756463e-01 7.698366e-01 9.039871e-01 1.185629e+00 1.312062e+00 1.286133e+00 1.259097e+00 1.140129e+00 1.133566e+00 8.433584e-01
<GCONST> 7.794588e+01
<STATE> 4
<MEAN> 25
 -1.193123e+01 4.245714e+00 -1.452017e+00 5.040524e+00 1.202334e+00 2.575882e+00 2.639486e+00 1.515282e+00 2.461936e+00 -7.412677e-01 1.570806e+00 2.098454e+00 1.077273e-01 9.473498e-03 3.433615e-02 -3.128017e-02 -3.889308e-03 -2.354078e-02 -3.880814e-02 -5.346524e-02 -6.892127e-02 -4.199640e-02 -4.483318e-02 -2.648246e-02 1.065624e-01
<VARIANCE> 25
 3.795633e+01 1.482405e+01 1.368292e+01 2.090059e+01 1.261876e+01 1.444527e+01 1.979990e+01 2.285535e+01 2.313609e+01 1.634719e+01 1.735710e+01 1.452422e+01 1.018649e+00 7.855843e-01 7.034612e-01 9.731199e-01 9.207777e-01 1.113775e+00 1.371383e+00 1.322951e+00 1.394253e+00 1.270699e+00 1.265923e+00 1.161036e+00 1.432310e+00
<GCONST> 8.205663e+01
<TRANSP> 5
 0.000000e+00 1.000000e+00 0.000000e+00 0.000000e+00 0.000000e+00
 0.000000e+00 7.595316e-01 2.404684e-01 0.000000e+00 0.000000e+00
 0.000000e+00 0.000000e+00 7.595322e-01 2.404678e-01 0.000000e+00
 0.000000e+00 0.000000e+00 0.000000e+00 8.912660e-01 1.087340e-01
 0.000000e+00 0.000000e+00 0.000000e+00 0.000000e+00 0.000000e+00
<ENDHMM>
~h "f"
<BEGINHMM>
<NUMSTATES> 5
<STATE> 2
<MEAN> 25
 -1.548070e+01 4.315638e+00 -2.463872e+00 3.927333e+00 1.977205e+00 5.107008e+00 4.639893e+00 2.527901e+00 4.162789e+00 2.568447e-02 3.177459e+00 2.818011e+00 8.751885e-02 -3.594399e-03 2.471307e-02 6.428867e-03 2.153795e-04 -6.465823e-02 -6.560044e-02 -6.847145e-02 -7.528825e-02 -4.674355e-02 -4.506498e-02 -6.241407e-02 8.624958e-02
<VARIANCE> 25
 1.759822e+01 8.212259e+00 1.184563e+01 1.670292e+01 1.071590e+01 1.365587e+01 1.409330e+01 2.201853e+01 2.271286e+01 1.547232e+01 1.520635e+01 1.447872e+01 5.996756e-01 3.978433e-01 5.409204e-01 6.874341e-01 7.687908e-01 1.028934e+00 1.040472e+00 1.214542e+00 1.279744e+00 1.228280e+00 1.036656e+00 1.234824e+00 1.208789e+00
<GCONST> 7.665385e+01
<STATE> 3
<MEAN> 25
 -1.509285e+01 4.339132e+00 -2.351238e+00 3.947447e+00 1.983891e+00 4.875450e+00 4.357571e+00 2.234122e+00 3.774601e+00 -2.937078e-01 2.917432e+00 2.566305e+00 9.628386e-02 4.937951e-03 2.802322e-02 5.048359e-03 5.894496e-04 -5.522158e-02 -6.696162e-02 -6.493158e-02 -8.909786e-02 -7.883723e-02 -6.720257e-02 -5.838281e-02 8.670151e-02
<VARIANCE> 25
 1.954759e+01 9.463495e+00 1.218445e+01 1.804014e+01 1.116424e+01 1.429435e+01 1.459484e+01 2.211643e+01 2.370879e+01 1.570148e+01 1.601271e+01 1.431457e+01 6.819228e-01 4.835588e-01 5.433694e-01 7.227411e-01 8.232351e-01 1.131665e+00 1.104520e+00 1.274128e+00 1.321803e+00 1.225267e+00 1.073025e+00 1.224336e+00 1.310652e+00
<GCONST> 7.801613e+01
<STATE> 4
<MEAN> 25
 -1.374752e+01 4.237404e+00 -2.330605e+00 3.797937e+00 1.972355e+00 4.229377e+00 3.837898e+00 1.594912e+00 3.044178e+00 -8.548724e-01 2.044362e+00 2.158682e+00 1.507864e-01 -1.945191e-02 3.274150e-02 -2.348651e-02 -1.502447e-02 -7.513063e-02 -6.680214e-02 -5.633688e-02 -9.360567e-02 -6.757076e-02 -8.429406e-02 -4.521740e-02 1.474004e-01
<VARIANCE> 25
 3.049086e+01 1.415676e+01 1.492154e+01 1.969333e+01 1.229170e+01 1.715707e+01 1.679887e+01 2.306480e+01 2.501794e+01 1.590476e+01 1.788881e+01 1.388201e+01 1.006977e+00 7.349481e-01 6.547611e-01 8.551679e-01 9.865210e-01 1.324967e+00 1.244076e+00 1.410711e+00 1.489484e+00 1.247860e+00 1.143688e+00 1.212759e+00 1.664242e+00
<GCONST> 8.191531e+01
<TRANSP> 5
 0.000000e+00 1.000000e+00 0.000000e+00 0.000000e+00 0.000000e+00
 0.000000e+00 7.531723e-01 2.468278e-01 0.000000e+00 0.000000e+00
 0.000000e+00 0.000000e+00 7.531725e-01 2.468274e-01 0.000000e+00
 0.000000e+00 0.000000e+00 0.000000e+00 8.835217e-01 1.164782e-01
 0.000000e+00 0.000000e+00 0.000000e+00 0.000000e+00 0.000000e+00
<ENDHMM>
~h "g"
<BEGINHMM>
<NUMSTATES> 5
<STATE> 2
<MEAN> 25
 1.318736e+01 -2.841908e+00 1.617235e+00 -3.790037e+00 -3.225808e+00 -1.813944e+00 -2.820557e+00 -2.425301e+00 -3.023959e+00 2.285771e+00 -1.207217e+00 -1.969925e+00 -2.261038e-01 2.707731e-01 -3.025309e-02 4.016318e-02 3.930377e-02 9.714034e-02 -6.615863e-02 -9.766896e-02 6.075743e-02 -6.407750e-02 2.467932e-02 5.257203e-02 -3.501753e-01
<VARIANCE> 25
 9.829924e+01 1.745666e+02 9.487533e+01 1.469062e+02 9.893822e+01 6.419835e+01 9.957066e+01 1.039088e+02 7.205383e+01 5.424764e+01 3.901564e+01 3.155302e+01 2.905411e+00 9.303012e+00 5.671118e+00 7.375452e+00 6.034663e+00 4.185444e+00 6.287602e+00 7.562256e+00 4.442374e+00 3.980498e+00 3.141027e+00 2.558341e+00 5.043028e+00
<GCONST> 1.193229e+02
<STATE> 3
<MEAN> 25
 1.221414e+01 -1.793960e+00 1.479418e+00 -3.585375e+00 -3.052311e+00 -1.431793e+00 -3.005340e+00 -2.765838e+00 -2.783395e+00 1.995309e+00 -1.121496e+00 -1.769007e+00 -2.681699e-01 2.582693e-01 -2.652450e-02 6.316745e-02 3.796831e-02 9.426441e-02 -3.503183e-02 -7.181968e-02 6.277391e-02 -8.772124e-02 2.960653e-02 4.759470e-02 -3.753293e-01
<VARIANCE> 25
 1.116915e+02 1.705508e+02 9.245769e+01 1.454304e+02 9.435087e+01 6.318671e+01 9.465044e+01 9.752895e+01 6.943498e+01 5.424857e+01 3.810913e+01 3.053590e+01 2.904608e+00 8.889106e+00 5.484092e+00 7.083576e+00 5.723284e+00 3.949322e+00 5.942460e+00 7.200982e+00 4.271504e+00 3.848662e+00 3.077625e+00 2.490503e+00 4.940432e+00
<GCONST> 1.186439e+02
<STATE> 4
<MEAN> 25
 1.050091e+01 -5.618114e-01 1.573036e+00 -3.117879e+00 -2.934765e+00 -8.618596e-01 -2.970291e+00 -3.037331e+00 -2.478021e+00 1.610577e+00 -9.568295e-01 -1.464582e+00 -3.107246e-01 2.332004e-01 -3.501770e-02 1.007681e-01 4.125093e-02 8.539040e-02 1.560924e-02 -3.691455e-02 5.840182e-02 -1.109175e-01 2.387130e-02 4.120407e-02 -4.015352e-01
<VARIANCE> 25
 1.303213e+02 1.656274e+02 8.945460e+01 1.471028e+02 8.527400e+01 6.157570e+01 8.402100e+01 9.277843e+01 6.466464e+01 5.440108e+01 3.739067e+01 2.844690e+01 2.810172e+00 7.989839e+00 4.976520e+00 6.500970e+00 5.014363e+00 3.601167e+00 5.206589e+00 6.767641e+00 3.934937e+00 3.626707e+00 2.908807e+00 2.344734e+00 4.652519e+00
<GCONST> 1.172333e+02
<TRANSP> 5
 0.000000e+00 1.000000e+00 0.000000e+00 0.000000e+00 0.000000e+00
 0.000000e+00 7.442552e-01 2.557448e-01 0.000000e+00 0.000000e+00
 0.000000e+00 0.000000e+00 7.442551e-01 2.557449e-01 0.000000e+00
 0.000000e+00 0.000000e+00 0.000000e+00 8.733653e-01 1.266346e-01
 0.000000e+00 0.000000e+00 0.000000e+00 0.000000e+00 0.000000e+00
<ENDHMM>
~h "k"
<BEGINHMM>
<NUMSTATES> 5
<STATE> 2
<MEAN> 25
 9.385444e+00 -5.440575e+00 1.289747e+00 -6.302992e+00 2.011478e+00 -4.295562e+00 -3.642466e+00 7.779217e-01 -3.808401e-01 1.884277e+00 -5.172740e-01 -6.729698e-01 1.270658e-01 -1.188768e-02 -1.317323e-01 -5.125852e-03 1.426839e-02 2.865438e-02 -2.663631e-02 -4.756991e-02 -2.363061e-02 3.378589e-02 1.453375e-03 -2.940363e-02 2.675283e-02
<VARIANCE> 25
 1.970018e+02 1.050651e+02 1.057871e+02 1.193728e+02 1.132000e+02 7.996397e+01 7.964024e+01 7.146403e+01 6.200338e+01 5.470145e+01 4.896214e+01 3.877089e+01 9.938324e+00 6.748776e+00 6.470035e+00 6.682956e+00 7.029356e+00 6.030032e+00 6.227514e+00 5.611822e+00 5.425428e+00 4.523646e+00 4.195286e+00 3.314713e+00 6.932041e+00
<GCONST> 1.218057e+02
<STATE> 3
<MEAN> 25
 9.927573e+00 -5.504313e+00 7.370663e-01 -6.280099e+00 2.003752e+00 -4.142469e+00 -3.713756e+00 5.666656e-01 -4.848734e-01 2.023247e+00 -5.058069e-01 -8.121053e-01 1.270578e-01 -8.602505e-03 -1.361733e-01 2.163391e-02 -1.985269e-02 4.822421e-02 -6.323214e-03 -6.076878e-02 -2.475809e-02 2.916450e-02 -8.514803e-04 -3.870596e-02 -1.866437e-02
<VARIANCE> 25
 1.919718e+02 1.050994e+02 1.052421e+02 1.196656e+02 1.147260e+02 8.129332e+01 7.746561e+01 7.352413e+01 6.375820e+01 5.487612e+01 5.004958e+01 3.931842e+01 9.639223e+00 6.848094e+00 6.512646e+00 6.822965e+00 7.218300e+00 6.093790e+00 6.186682e+00 5.798281e+00 5.502043e+00 4.538553e+00 4.281978e+00 3.347575e+00 7.114063e+00
<GCONST> 1.220232e+02
<STATE> 4
<MEAN> 25
 1.089555e+01 -5.761391e+00 2.513497e-01 -6.316532e+00 1.540536e+00 -3.913589e+00 -3.456998e+00 2.422103e-01 -6.836060e-01 2.130908e+00 -3.190727e-01 -1.060265e+00 1.217816e-01 -2.305209e-03 -1.111751e-01 4.760125e-02 -6.873944e-02 6.623317e-02 1.974395e-02 -7.283221e-02 -2.752176e-02 2.263449e-02 -4.698955e-03 -4.389653e-02 -5.750195e-02
<VARIANCE> 25
 1.797686e+02 1.084486e+02 1.044656e+02 1.236273e+02 1.141751e+02 8.247350e+01 7.495476e+01 7.687699e+01 6.540791e+01 5.411279e+01 5.114065e+01 3.973765e+01 8.614552e+00 6.748452e+00 6.439824e+00 6.807355e+00 7.145287e+00 6.033285e+00 6.032829e+00 5.956380e+00 5.400783e+00 4.507875e+00 4.363710e+00 3.336088e+00 7.259205e+00
<GCONST> 1.219304e+02
<TRANSP> 5
 0.000000e+00 1.000000e+00 0.000000e+00 0.000000e+00 0.000000e+00
 0.000000e+00 7.661407e-01 2.338593e-01 0.000000e+00 0.000000e+00
 0.000000e+00 0.000000e+00 7.661412e-01 2.338588e-01 0.000000e+00
 0.000000e+00 0.000000e+00 0.000000e+00 8.968514e-01 1.031486e-01
 0.000000e+00 0.000000e+00 0.000000e+00 0.000000e+00 0.000000e+00
<ENDHMM>
~h "l"
<BEGINHMM>
<NUMSTATES> 5
<STATE> 2
<MEAN> 25
 1.958171e+00 1.127313e+00 -4.459946e-01 -4.198173e-01 -5.283780e-01 3.296833e-01 -8.714203e-01 -1.670992e+00 -8.094636e-01 -1.674987e-01 -2.107475e-01 -1.596509e-01 -5.941377e-02 1.700642e-02 7.826132e-02 8.810343e-02 -3.895527e-02 -5.802950e-02 3.200471e-02 4.021695e-02 -3.411251e-02 -6.186274e-02 -1.404588e-02 -4.616155e-03 -5.074660e-02
<VARIANCE> 25
 2.102346e+02 9.998495e+01 7.081432e+01 9.870622e+01 6.262239e+01 5.943200e+01 5.770406e+01 6.747427e+01 4.752498e+01 4.183021e+01 3.254591e+01 2.622762e+01 3.723448e+00 4.879442e+00 3.558822e+00 4.146754e+00 4.295637e+00 3.461305e+00 3.693877e+00 3.933352e+00 3.338221e+00 2.821673e+00 2.630444e+00 2.142320e+00 4.790229e+00
<GCONST> 1.120910e+02
<STATE> 3
<MEAN> 25
 1.764883e+00 1.175897e+00 -1.042412e-01 -1.021776e-01 -6.690371e-01 7.059097e-02 -7.825758e-01 -1.499338e+00 -9.507121e-01 -4.020425e-01 -2.715991e-01 -1.818984e-01 -5.847124e-02 5.027268e-03 8.941919e-02 7.564547e-02 -2.469131e-02 -6.959256e-02 2.087307e-02 5.101257e-02 -3.145485e-02 -5.318207e-02 -1.508947e-02 -3.164587e-03 -2.653989e-02
<VARIANCE> 25
 2.026639e+02 1.014621e+02 7.324884e+01 9.561707e+01 6.292076e+01 5.953791e+01 5.587080e+01 6.575497e+01 4.745428e+01 4.111746e+01 3.167536e+01 2.562131e+01 3.764169e+00 4.757619e+00 3.504902e+00 4.042285e+00 4.166978e+00 3.445207e+00 3.651274e+00 3.790611e+00 3.408956e+00 2.801214e+00 2.592915e+00 2.094436e+00 4.783510e+00
<GCONST> 1.117867e+02
<STATE> 4
<MEAN> 25
 1.987106e+00 1.046760e+00 5.182982e-01 -2.602398e-02 -7.798371e-01 -4.577318e-01 -9.726939e-01 -1.251892e+00 -1.252336e+00 -6.078011e-01 -3.835309e-01 -2.431419e-01 -5.976097e-02 4.942489e-04 7.836077e-02 4.471752e-02 -2.448652e-03 -6.536433e-02 4.931509e-03 5.445076e-02 -2.066645e-02 -3.932240e-02 -1.269583e-02 -1.323595e-03 -9.883104e-03
<VARIANCE> 25
 1.904771e+02 1.064815e+02 8.164410e+01 9.599106e+01 6.343087e+01 5.955581e+01 5.553957e+01 6.474750e+01 4.725783e+01 4.120459e+01 3.171143e+01 2.481276e+01 3.727756e+00 4.476344e+00 3.561901e+00 3.993010e+00 3.944124e+00 3.401073e+00 3.640294e+00 3.652951e+00 3.459406e+00 2.820947e+00 2.588976e+00 2.016568e+00 4.534560e+00
<GCONST> 1.115936e+02
<TRANSP> 5
 0.000000e+00 1.000000e+00 0.000000e+00 0.000000e+00 0.000000e+00
 0.000000e+00 7.532794e-01 2.467207e-01 0.000000e+00 0.000000e+00
 0.000000e+00 0.000000e+00 7.532794e-01 2.467206e-01 0.000000e+00
 0.000000e+00 0.000000e+00 0.000000e+00 8.829765e-01 1.170234e-01
 0.000000e+00 0.000000e+00 0.000000e+00 0.000000e+00 0.000000e+00
<ENDHMM>
~h "m"
<BEGINHMM>
<NUMSTATES> 5
<STATE> 2
<MEAN> 25
 8.984267e+00 -1.391524e+00 2.521726e+00 -4.671004e+00 5.574754e-01 -1.662133e+00 -2.267402e+00 -3.118500e+00 -2.811592e+00 4.440079e-01 -5.766492e-01 -4.505948e-01 3.350947e-01 -1.006658e-01 6.656727e-02 -7.824899e-02 -1.115755e-01 -4.424062e-05 1.882827e-02 -6.485644e-02 -1.185929e-01 3.751132e-02 3.136632e-02 -3.760962e-02 2.985891e-01
<VARIANCE> 25
 1.909927e+02 9.587643e+01 9.607638e+01 1.268305e+02 8.134704e+01 1.141658e+02 9.295891e+01 9.770722e+01 6.367339e+01 5.038050e+01 3.666785e+01 2.520584e+01 4.779445e+00 5.790533e+00 5.424785e+00 6.684899e+00 5.441728e+00 6.030604e+00 5.713105e+00 6.732268e+00 5.304166e+00 5.540415e+00 3.015453e+00 2.801999e+00 5.985187e+00
<GCONST> 1.196790e+02
<STATE> 3
<MEAN> 25
 1.055642e+01 -1.881010e+00 2.804314e+00 -5.024721e+00 -3.219818e-02 -1.610503e+00 -2.161078e+00 -3.381081e+00 -3.342033e+00 6.115136e-01 -4.005890e-01 -6.427675e-01 2.554527e-01 -7.970394e-02 4.991555e-02 -4.028049e-02 -1.199675e-01 8.007213e-03 2.986434e-02 -2.795266e-02 -9.084339e-02 2.412758e-02 2.874073e-02 -3.345783e-02 1.833634e-01
<VARIANCE> 25
 1.829311e+02 1.046656e+02 1.075357e+02 1.322153e+02 8.569813e+01 1.148893e+02 9.548141e+01 1.029217e+02 6.600582e+01 5.323274e+01 3.717461e+01 2.620672e+01 4.723379e+00 6.130986e+00 5.834144e+00 7.149698e+00 5.499059e+00 5.979919e+00 5.851918e+00 7.134363e+00 5.391634e+00 5.813602e+00 3.044462e+00 2.903171e+00 6.185834e+00
<GCONST> 1.205706e+02
<STATE> 4
<MEAN> 25
 1.240046e+01 -2.405022e+00 2.842228e+00 -5.690765e+00 -9.374455e-01 -1.238377e+00 -2.450679e+00 -3.562983e+00 -3.781105e+00 5.723159e-01 4.077236e-02 -9.784098e-01 5.154517e-02 -1.273664e-02 -9.108806e-03 3.261379e-02 -9.857524e-02 3.421542e-02 2.816097e-02 2.176334e-02 -2.104779e-02 -3.580347e-03 2.747621e-02 -3.097950e-02 -6.486650e-02
<VARIANCE> 25
 1.695950e+02 1.215504e+02 1.203322e+02 1.411601e+02 8.529850e+01 1.153482e+02 9.178217e+01 9.850248e+01 6.506420e+01 5.191376e+01 3.806855e+01 2.626227e+01 4.343871e+00 6.519760e+00 6.059990e+00 7.351463e+00 4.841184e+00 5.533844e+00 5.666851e+00 7.019103e+00 4.974190e+00 5.747631e+00 3.089055e+00 2.851309e+00 6.221159e+00
<GCONST> 1.204251e+02
<TRANSP> 5
 0.000000e+00 1.000000e+00 0.000000e+00 0.000000e+00 0.000000e+00
 0.000000e+00 8.083670e-01 1.916330e-01 0.000000e+00 0.000000e+00
 0.000000e+00 0.000000e+00 8.083672e-01 1.916328e-01 0.000000e+00
 0.000000e+00 0.000000e+00 0.000000e+00 9.425363e-01 5.746374e-02
 0.000000e+00 0.000000e+00 0.000000e+00 0.000000e+00 0.000000e+00
<ENDHMM>
~h "n"
<BEGINHMM>
<NUMSTATES> 5
<STATE> 2
<MEAN> 25
 -7.145232e+00 4.535668e+00 -5.102003e-01 4.388111e+00 4.062020e-01 1.998368e+00 9.842059e-01 -1.393772e+00 -2.937877e-01 -2.199597e+00 -6.724009e-01 -2.794687e-02 -1.876686e-01 -2.864953e-02 -9.019967e-02 -1.839180e-03 4.736503e-02 4.095408e-02 3.214746e-02 5.183518e-02 5.792171e-02 3.742914e-03 2.269619e-02 1.667498e-02 -1.620679e-01
<VARIANCE> 25
 6.075533e+01 3.048812e+01 3.212719e+01 3.085457e+01 2.208626e+01 2.110711e+01 1.814788e+01 2.472253e+01 2.309079e+01 1.920430e+01 1.784028e+01 1.565344e+01 1.032282e+00 1.300779e+00 1.176198e+00 1.308022e+00 1.187637e+00 1.391541e+00 1.447854e+00 1.811930e+00 1.554579e+00 1.957149e+00 1.543071e+00 1.438647e+00 7.615160e-01
<GCONST> 8.817776e+01
<STATE> 3
<MEAN> 25
 -7.927107e+00 4.417095e+00 -9.118013e-01 4.358218e+00 6.101921e-01 2.181145e+00 1.112411e+00 -1.167761e+00 -4.575949e-02 -2.192660e+00 -5.931056e-01 2.723827e-02 -1.549884e-01 -4.129568e-02 -9.232061e-02 -2.878487e-02 2.791765e-02 2.757084e-02 3.267239e-02 5.995366e-02 5.216921e-02 3.825062e-03 1.734141e-02 1.086994e-02 -1.249276e-01
<VARIANCE> 25
 4.708214e+01 2.443231e+01 2.834665e+01 2.758916e+01 1.926151e+01 1.899416e+01 1.714052e+01 2.163075e+01 2.066044e+01 1.744738e+01 1.691545e+01 1.494314e+01 8.932648e-01 1.044947e+00 1.016336e+00 1.135821e+00 1.102844e+00 1.322600e+00 1.364857e+00 1.615747e+00 1.462276e+00 1.809827e+00 1.487108e+00 1.405874e+00 5.944465e-01
<GCONST> 8.532796e+01
<STATE> 4
<MEAN> 25
 -8.068860e+00 3.968830e+00 -1.641222e+00 3.982638e+00 7.926313e-01 2.240418e+00 1.089933e+00 -8.657082e-01 1.388039e-01 -2.077045e+00 -6.880090e-01 -1.251301e-01 -1.150618e-01 -4.336330e-02 -8.259659e-02 -3.740644e-02 2.028137e-02 2.827694e-02 2.505253e-02 6.007908e-02 5.020456e-02 -1.278303e-03 3.735479e-03 7.220947e-03 -8.648020e-02
<VARIANCE> 25
 3.675883e+01 1.967607e+01 2.527517e+01 2.401879e+01 1.720230e+01 1.711282e+01 1.628424e+01 1.932941e+01 1.857306e+01 1.586319e+01 1.579978e+01 1.410366e+01 7.703512e-01 8.240848e-01 8.839349e-01 1.009984e+00 9.991104e-01 1.204637e+00 1.301271e+00 1.500809e+00 1.398776e+00 1.709929e+00 1.420105e+00 1.345900e+00 4.945829e-01
<GCONST> 8.257081e+01
<TRANSP> 5
 0.000000e+00 1.000000e+00 0.000000e+00 0.000000e+00 0.000000e+00
 0.000000e+00 7.663175e-01 2.336824e-01 0.000000e+00 0.000000e+00
 0.000000e+00 0.000000e+00 7.663174e-01 2.336826e-01 0.000000e+00
 0.000000e+00 0.000000e+00 0.000000e+00 9.009901e-01 9.900995e-02
 0.000000e+00 0.000000e+00 0.000000e+00 0.000000e+00 0.000000e+00
<ENDHMM>
~h "r"
<BEGINHMM>
<NUMSTATES> 5
<STATE> 2
<MEAN> 25
 -2.891681e-02 3.817951e-01 1.104844e-01 1.381671e+00 -1.065637e+00 -2.388091e-01 5.342296e-01 -1.837649e-01 1.461928e-01 -2.408803e-01 -1.466872e-01 2.340916e-01 -1.392445e-02 4.394126e-02 -1.224013e-03 -3.995912e-02 4.165747e-02 2.831068e-02 -2.414902e-02 -2.046761e-02 -2.056729e-02 -2.927915e-02 -2.517052e-02 -1.799198e-02 -2.754946e-02
<VARIANCE> 25
 2.148094e+02 1.104310e+02 6.537405e+01 7.975948e+01 6.097005e+01 5.131768e+01 4.666140e+01 5.265458e+01 4.834726e+01 3.233188e+01 3.099621e+01 2.598003e+01 3.133704e+00 4.140850e+00 3.279992e+00 3.449314e+00 3.249820e+00 3.279127e+00 3.288981e+00 3.231497e+00 3.250274e+00 2.623841e+00 2.296752e+00 1.911402e+00 4.059339e+00
<GCONST> 1.092235e+02
<STATE> 3
<MEAN> 25
 -8.073746e-02 5.449768e-01 1.257846e-01 1.230167e+00 -9.085820e-01 -1.323310e-01 4.390139e-01 -2.565942e-01 6.109128e-02 -3.458012e-01 -2.390245e-01 1.514397e-01 -7.782729e-03 2.753880e-02 6.274480e-03 -3.977819e-02 3.855995e-02 2.486495e-02 -2.233722e-02 -1.343088e-02 -1.806807e-02 -2.043081e-02 -1.985864e-02 -2.091279e-02 -9.401971e-03
<VARIANCE> 25
 2.085357e+02 1.100111e+02 6.571320e+01 8.047970e+01 5.837168e+01 5.013440e+01 4.705877e+01 5.220011e+01 4.701971e+01 3.210571e+01 3.023446e+01 2.550929e+01 3.181373e+00 4.136633e+00 3.344738e+00 3.468162e+00 3.178779e+00 3.288475e+00 3.308612e+00 3.189925e+00 3.189407e+00 2.624769e+00 2.278919e+00 1.903493e+00 4.074757e+00
<GCONST> 1.090452e+02
<STATE> 4
<MEAN> 25
 2.466637e-01 6.120026e-01 2.253174e-01 9.629101e-01 -8.297901e-01 -5.144190e-02 2.278102e-01 -3.984405e-01 -2.366077e-01 -4.802800e-01 -4.142905e-01 -9.184982e-02 1.482961e-02 -6.582856e-03 1.758900e-02 -4.190866e-02 2.837475e-02 1.010534e-02 -2.149760e-02 -3.435031e-03 -1.813842e-02 -1.186916e-02 -1.670826e-02 -2.809219e-02 3.663243e-02
<VARIANCE> 25
 1.956275e+02 1.099112e+02 6.940716e+01 8.334900e+01 5.570900e+01 4.848029e+01 4.650975e+01 5.220793e+01 4.565347e+01 3.213370e+01 2.919710e+01 2.484274e+01 3.261099e+00 4.045409e+00 3.438164e+00 3.458867e+00 3.055552e+00 3.295848e+00 3.307459e+00 3.162173e+00 3.079930e+00 2.638937e+00 2.278590e+00 1.903410e+00 4.133917e+00
<GCONST> 1.088540e+02
<TRANSP> 5
 0.000000e+00 1.000000e+00 0.000000e+00 0.000000e+00 0.000000e+00
 0.000000e+00 7.568087e-01 2.431913e-01 0.000000e+00 0.000000e+00
 0.000000e+00 0.000000e+00 7.568078e-01 2.431921e-01 0.000000e+00
 0.000000e+00 0.000000e+00 0.000000e+00 8.880106e-01 1.119894e-01
 0.000000e+00 0.000000e+00 0.000000e+00 0.000000e+00 0.000000e+00
<ENDHMM>
~h "s"
<BEGINHMM>
<NUMSTATES> 5
<STATE> 2
<MEAN> 25
 4.781948e+00 -3.982551e+00 3.512118e+00 -3.410365e+00 -3.478470e-02 -3.214978e+00 -1.853415e+00 1.790991e+00 -3.894978e-01 3.470704e-01 -2.325083e-01 -2.254760e-02 3.253038e-01 -1.703949e-01 1.450632e-02 -2.270261e-01 6.832098e-02 -1.470363e-01 -1.032476e-01 6.592341e-03 -2.879320e-02 6.406012e-02 -2.832185e-02 -3.382244e-02 5.846706e-01
<VARIANCE> 25
 2.169368e+02 1.203633e+02 1.062229e+02 1.076678e+02 9.137391e+01 7.195133e+01 6.951756e+01 5.814965e+01 5.612851e+01 4.260252e+01 3.688643e+01 3.252834e+01 7.824869e+00 5.808874e+00 5.406880e+00 5.083606e+00 5.036595e+00 4.825140e+00 4.851655e+00 4.092235e+00 4.793874e+00 3.692398e+00 3.190814e+00 2.692528e+00 6.306863e+00
<GCONST> 1.176021e+02
<STATE> 3
<MEAN> 25
 5.943563e+00 -4.586031e+00 3.466543e+00 -4.284746e+00 2.860136e-01 -3.761240e+00 -2.208010e+00 1.794733e+00 -4.737062e-01 6.100189e-01 -3.026409e-01 -1.393154e-01 2.562372e-01 -1.272729e-01 -2.414170e-02 -1.948415e-01 7.983060e-02 -1.219497e-01 -8.061350e-02 -2.885789e-03 -2.232246e-02 6.095246e-02 -1.816539e-02 -2.452188e-02 4.794033e-01
<VARIANCE> 25
 2.145043e+02 1.202062e+02 1.086346e+02 1.102645e+02 1.001863e+02 7.410065e+01 7.375477e+01 6.200863e+01 5.768268e+01 4.533884e+01 3.918511e+01 3.472767e+01 8.490519e+00 6.039448e+00 5.618933e+00 5.349565e+00 5.436471e+00 5.098172e+00 5.188742e+00 4.418674e+00 5.010798e+00 3.903785e+00 3.386988e+00 2.846699e+00 6.244930e+00
<GCONST> 1.187869e+02
<STATE> 4
<MEAN> 25
 7.262134e+00 -5.167542e+00 3.082349e+00 -5.373685e+00 7.440864e-01 -4.350198e+00 -2.447968e+00 1.650514e+00 -4.857130e-01 9.028047e-01 -2.526713e-01 -3.036986e-01 1.635266e-01 -7.193177e-02 -7.537830e-02 -1.221355e-01 7.217461e-02 -7.513393e-02 -3.789718e-02 -1.941520e-02 -7.038975e-03 5.162224e-02 -3.315233e-03 -1.559261e-02 2.987598e-01
<VARIANCE> 25
 2.087897e+02 1.192679e+02 1.116266e+02 1.120517e+02 1.086303e+02 7.451587e+01 7.779964e+01 6.681283e+01 5.875717e+01 4.767435e+01 4.271457e+01 3.690544e+01 8.908497e+00 6.084035e+00 5.759050e+00 5.492760e+00 5.799870e+00 5.366792e+00 5.544960e+00 4.824237e+00 5.080764e+00 4.102747e+00 3.590746e+00 2.980224e+00 5.925803e+00
<GCONST> 1.197177e+02
<TRANSP> 5
 0.000000e+00 1.000000e+00 0.000000e+00 0.000000e+00 0.000000e+00
 0.000000e+00 7.651964e-01 2.348035e-01 0.000000e+00 0.000000e+00
 0.000000e+00 0.000000e+00 7.651966e-01 2.348034e-01 0.000000e+00
 0.000000e+00 0.000000e+00 0.000000e+00 8.951668e-01 1.048332e-01
 0.000000e+00 0.000000e+00 0.000000e+00 0.000000e+00 0.000000e+00
<ENDHMM>
~h "t"
<BEGINHMM>
<NUMSTATES> 5
<STATE> 2
<MEAN> 25
 2.856703e-01 -5.204289e-02 4.852259e-01 -1.642095e-01 -1.733940e-01 -7.294646e-01 -4.232186e-01 -1.434843e-01 -4.384037e-01 -4.673558e-01 -9.532826e-02 6.042812e-01 2.059074e-01 -1.475704e-01 5.706205e-02 -8.661721e-02 -4.273550e-03 -1.066788e-01 -7.236929e-02 2.034308e-02 -9.668445e-03 1.776076e-02 -5.916730e-02 -3.557204e-02 3.050597e-01
<VARIANCE> 25
 1.978064e+02 1.055320e+02 7.062765e+01 9.737086e+01 5.053131e+01 5.952014e+01 5.276863e+01 5.884468e+01 4.798162e+01 3.225086e+01 2.764069e+01 2.534068e+01 4.780566e+00 3.866744e+00 3.728435e+00 3.493079e+00 3.372098e+00 3.849293e+00 3.552028e+00 3.236709e+00 3.646263e+00 2.388234e+00 2.346055e+00 2.004180e+00 5.447697e+00
<GCONST> 1.105716e+02
<STATE> 3
<MEAN> 25
 9.247347e-01 -5.790424e-01 6.633900e-01 -4.803827e-01 -1.483235e-01 -1.085736e+00 -6.784828e-01 -3.180788e-02 -4.372766e-01 -4.057287e-01 -3.126697e-01 4.632035e-01 2.083166e-01 -1.506385e-01 3.780114e-02 -1.110704e-01 1.346865e-02 -8.658593e-02 -7.512543e-02 2.240583e-02 1.901265e-03 2.495444e-02 -5.407213e-02 -4.187777e-02 3.114529e-01
<VARIANCE> 25
 1.920961e+02 1.110982e+02 7.212457e+01 1.018650e+02 5.203272e+01 6.099334e+01 5.554528e+01 5.996918e+01 4.745764e+01 3.329852e+01 2.788343e+01 2.619302e+01 4.774442e+00 4.009310e+00 3.787356e+00 3.625275e+00 3.453342e+00 4.001845e+00 3.664686e+00 3.287535e+00 3.703565e+00 2.465098e+00 2.411505e+00 2.039854e+00 5.384745e+00
<GCONST> 1.111246e+02
<STATE> 4
<MEAN> 25
 1.572305e+00 -9.179942e-01 5.693755e-01 -8.634001e-01 -1.518662e-01 -1.152376e+00 -1.027228e+00 -2.695279e-02 -5.947426e-01 -4.237449e-01 -5.591177e-01 -9.970916e-03 1.145943e-01 -1.082290e-01 1.567356e-02 -7.171030e-02 2.516680e-02 -4.121302e-02 -3.797377e-02 2.699097e-02 1.843302e-02 1.892778e-02 -3.896783e-02 -3.897427e-02 1.888181e-01
<VARIANCE> 25
 1.714867e+02 1.096341e+02 6.938663e+01 1.081328e+02 4.767029e+01 5.761391e+01 5.557544e+01 5.702151e+01 4.275229e+01 3.339637e+01 2.712164e+01 2.662784e+01 4.062998e+00 3.809953e+00 3.659399e+00 3.579441e+00 3.195072e+00 3.737084e+00 3.591817e+00 3.175291e+00 3.358273e+00 2.444720e+00 2.385077e+00 2.028459e+00 4.701062e+00
<GCONST> 1.099927e+02
<TRANSP> 5
 0.000000e+00 1.000000e+00 0.000000e+00 0.000000e+00 0.000000e+00
 0.000000e+00 7.562112e-01 2.437889e-01 0.000000e+00 0.000000e+00
 0.000000e+00 0.000000e+00 7.562117e-01 2.437883e-01 0.000000e+00
 0.000000e+00 0.000000e+00 0.000000e+00 8.916838e-01 1.083163e-01
 0.000000e+00 0.000000e+00 0.000000e+00 0.000000e+00 0.000000e+00
<ENDHMM>
~h "w"
<BEGINHMM>
<NUMSTATES> 5
<STATE> 2
<MEAN> 25
 9.118799e+00 -3.836096e+00 -1.103708e+00 -4.010678e+00 7.893146e-01 -2.111756e+00 -2.242489e+00 -2.889220e-01 -1.296191e+00 9.649822e-01 -4.257127e-01 -2.095224e+00 -5.428235e-02 -2.323386e-03 -1.852805e-02 1.806979e-01 -1.263259e-01 1.025927e-02 8.740790e-02 -2.624128e-02 4.979763e-04 -9.362649e-03 -2.228479e-02 -1.240802e-02 -1.997643e-01
<VARIANCE> 25
 2.105458e+02 1.215674e+02 7.844217e+01 1.258098e+02 1.005406e+02 6.940959e+01 6.094531e+01 6.560854e+01 6.365918e+01 4.726771e+01 4.892308e+01 3.959304e+01 6.388962e+00 5.745152e+00 5.209511e+00 5.191468e+00 5.010076e+00 5.136654e+00 4.698747e+00 4.945815e+00 4.944129e+00 3.812357e+00 3.768725e+00 2.979634e+00 5.843473e+00
<GCONST> 1.184312e+02
<STATE> 3
<MEAN> 25
 8.883484e+00 -3.822581e+00 -1.141596e+00 -3.247132e+00 2.377292e-01 -2.061146e+00 -1.882652e+00 -4.136290e-01 -1.287166e+00 9.203622e-01 -5.426908e-01 -2.120242e+00 -6.477743e-02 8.803995e-03 -9.203050e-04 1.820244e-01 -1.359493e-01 1.309114e-02 9.083695e-02 -3.601187e-02 3.202707e-03 -1.140370e-02 -2.795705e-02 3.590534e-03 -2.173699e-01
<VARIANCE> 25
 2.102632e+02 1.228774e+02 7.491662e+01 1.238909e+02 9.751189e+01 6.719970e+01 5.792984e+01 6.512719e+01 6.293878e+01 4.679395e+01 4.845513e+01 3.923980e+01 5.937501e+00 5.577786e+00 5.066223e+00 5.042425e+00 4.920969e+00 5.012481e+00 4.535602e+00 4.894529e+00 4.837925e+00 3.769651e+00 3.721265e+00 2.924044e+00 5.705287e+00
<GCONST> 1.178817e+02
<STATE> 4
<MEAN> 25
 8.752414e+00 -3.839596e+00 -9.157800e-01 -2.561578e+00 -6.236026e-01 -2.057456e+00 -1.251469e+00 -6.208144e-01 -1.324110e+00 8.694771e-01 -5.812482e-01 -1.930808e+00 -8.120418e-02 4.820022e-02 2.307606e-02 1.644296e-01 -1.229495e-01 2.154328e-02 7.236626e-02 -4.701490e-02 -1.481200e-03 -2.558375e-02 -3.097489e-02 2.539643e-02 -2.328113e-01
<VARIANCE> 25
 2.042607e+02 1.236163e+02 7.283637e+01 1.263616e+02 9.281458e+01 6.457359e+01 5.468383e+01 6.499015e+01 6.159230e+01 4.550482e+01 4.728590e+01 3.766163e+01 5.110794e+00 5.208298e+00 4.766741e+00 4.868389e+00 4.741602e+00 4.737029e+00 4.306192e+00 4.728985e+00 4.588477e+00 3.735076e+00 3.624580e+00 2.816283e+00 5.374572e+00
<GCONST> 1.169060e+02
<TRANSP> 5
 0.000000e+00 1.000000e+00 0.000000e+00 0.000000e+00 0.000000e+00
 0.000000e+00 7.668287e-01 2.331713e-01 0.000000e+00 0.000000e+00
 0.000000e+00 0.000000e+00 7.668285e-01 2.331716e-01 0.000000e+00
 0.000000e+00 0.000000e+00 0.000000e+00 8.998235e-01 1.001765e-01
 0.000000e+00 0.000000e+00 0.000000e+00 0.000000e+00 0.000000e+00
<ENDHMM>
~h "z"
<BEGINHMM>
<NUMSTATES> 5
<STATE> 2
<MEAN> 25
 -9.300780e+00 6.232984e-01 -1.704633e+00 3.238947e+00 1.266964e+00 1.481239e+00 2.313087e+00 3.571147e+00 4.147552e+00 1.087515e+00 1.207725e+00 1.786398e+00 1.665215e-01 1.329085e-02 4.718826e-02 -1.036598e-01 9.094643e-04 -8.504774e-02 -1.060322e-01 -7.726523e-02 -1.069438e-01 -6.617343e-02 -9.757514e-02 -3.568454e-02 2.015484e-01
<VARIANCE> 25
 3.017953e+01 9.731339e+00 1.430981e+01 2.368621e+01 1.631600e+01 1.908638e+01 2.779471e+01 1.817416e+01 2.501395e+01 1.328696e+01 1.548950e+01 9.713699e+00 1.217944e+00 7.074659e-01 1.088100e+00 1.016668e+00 1.161440e+00 1.441174e+00 1.569712e+00 1.528746e+00 2.227400e+00 1.322317e+00 1.212533e+00 1.016178e+00 1.705949e+00
<GCONST> 8.340678e+01
<STATE> 3
<MEAN> 25
 -8.366945e+00 7.320443e-01 -1.448482e+00 2.689087e+00 1.304643e+00 1.080890e+00 1.739965e+00 3.155910e+00 3.599453e+00 7.435417e-01 7.437865e-01 1.593620e+00 1.973427e-01 2.232075e-02 5.353430e-02 -1.169036e-01 1.039204e-02 -7.938169e-02 -1.174444e-01 -8.589371e-02 -1.080087e-01 -6.414076e-02 -8.973087e-02 -3.786456e-02 2.425689e-01
<VARIANCE> 25
 3.941811e+01 1.274387e+01 1.685422e+01 2.839857e+01 1.901368e+01 2.282944e+01 3.139807e+01 2.169034e+01 2.686985e+01 1.472839e+01 1.716246e+01 1.044249e+01 1.519811e+00 9.294566e-01 1.301768e+00 1.218942e+00 1.430607e+00 1.661323e+00 1.794818e+00 1.711642e+00 2.466698e+00 1.488124e+00 1.333755e+00 1.094387e+00 1.966050e+00
<GCONST> 8.725318e+01
<STATE> 4
<MEAN> 25
 -5.197601e+00 8.362728e-01 -5.740089e-01 1.387646e+00 1.396637e+00 -9.705777e-02 4.704862e-01 1.713640e+00 2.019259e+00 8.647260e-02 -1.847417e-01 1.089300e+00 2.800631e-01 3.088629e-03 7.401974e-02 -1.380736e-01 1.858125e-02 -8.081190e-02 -1.152257e-01 -1.225317e-01 -1.200791e-01 -4.029167e-02 -6.419913e-02 -4.350530e-02 3.584558e-01
<VARIANCE> 25
 8.359011e+01 2.446985e+01 2.741960e+01 5.016137e+01 2.838942e+01 4.554447e+01 4.298244e+01 3.507722e+01 3.330362e+01 2.127324e+01 2.183621e+01 1.347794e+01 2.372361e+00 1.804904e+00 1.722981e+00 2.086627e+00 2.234172e+00 2.720224e+00 2.519958e+00 2.484281e+00 2.769349e+00 2.257812e+00 1.720692e+00 1.397778e+00 2.760201e+00
<GCONST> 9.762631e+01
<TRANSP> 5
 0.000000e+00 1.000000e+00 0.000000e+00 0.000000e+00 0.000000e+00
 0.000000e+00 8.083657e-01 1.916343e-01 0.000000e+00 0.000000e+00
 0.000000e+00 0.000000e+00 8.083656e-01 1.916344e-01 0.000000e+00
 0.000000e+00 0.000000e+00 0.000000e+00 9.425411e-01 5.745896e-02
 0.000000e+00 0.000000e+00 0.000000e+00 0.000000e+00 0.000000e+00
<ENDHMM>
~h "ae"
<BEGINHMM>
<NUMSTATES> 5
<STATE> 2
<MEAN> 25
 1.393160e+01 -9.847889e+00 1.983410e+00 -5.954566e+00 -2.009308e+00 -3.021178e+00 -6.065012e-01 1.576989e+00 -2.279776e+00 2.057085e+00 -1.231868e+00 -2.614341e+00 1.455228e-01 1.147109e-03 1.937356e-02 3.960426e-02 -1.342869e-01 1.364783e-02 7.013005e-02 -1.670770e-02 -1.603141e-01 1.770305e-02 -1.039135e-02 -7.733361e-02 3.840814e-02
<VARIANCE> 25
 7.776237e+01 1.583972e+02 1.117051e+02 1.208152e+02 9.769370e+01 6.689124e+01 1.093655e+02 1.157541e+02 7.816370e+01 4.539297e+01 4.024853e+01 3.270241e+01 4.826222e+00 7.835391e+00 6.990106e+00 7.463694e+00 6.546559e+00 5.918755e+00 7.541128e+00 7.132527e+00 5.031639e+00 4.038521e+00 3.500728e+00 2.532862e+00 5.866453e+00
<GCONST> 1.206561e+02
<STATE> 3
<MEAN> 25
 1.446679e+01 -9.753462e+00 2.076407e+00 -5.869156e+00 -2.483479e+00 -2.934271e+00 -4.533100e-01 1.444922e+00 -2.850262e+00 2.173587e+00 -1.262291e+00 -2.879577e+00 1.300579e-01 6.470437e-02 5.441926e-03 1.000988e-02 -1.034868e-01 3.348549e-02 1.492499e-02 -5.592145e-02 -1.390683e-01 3.765519e-02 -9.358285e-03 -6.024722e-02 -1.390204e-03
<VARIANCE> 25
 6.920607e+01 1.600240e+02 1.118491e+02 1.213340e+02 9.930569e+01 6.388129e+01 1.122863e+02 1.211561e+02 7.969056e+01 4.597331e+01 4.065707e+01 3.197204e+01 4.372752e+00 8.024973e+00 6.879293e+00 7.591164e+00 6.659397e+00 5.666655e+00 7.662670e+00 7.572844e+00 5.011041e+00 3.965323e+00 3.449820e+00 2.493208e+00 5.526711e+00
<GCONST> 1.204804e+02
<STATE> 4
<MEAN> 25
 1.500436e+01 -9.500953e+00 2.685205e+00 -6.298922e+00 -3.181659e+00 -2.551135e+00 -7.952417e-01 1.211991e+00 -3.440664e+00 2.677644e+00 -9.939446e-01 -3.075440e+00 8.741281e-02 1.394680e-01 -1.622697e-02 -3.437607e-02 -4.004546e-02 6.446508e-02 -6.919782e-02 -1.054539e-01 -7.877415e-02 6.169384e-02 -9.115010e-03 -2.874999e-02 -5.794121e-02
<VARIANCE> 25
 5.861923e+01 1.605309e+02 1.158639e+02 1.281712e+02 9.936162e+01 6.078645e+01 1.130431e+02 1.338317e+02 7.994687e+01 4.709264e+01 4.159933e+01 3.119329e+01 3.629878e+00 7.987014e+00 6.500084e+00 7.651513e+00 6.533003e+00 5.229513e+00 7.456676e+00 8.477499e+00 4.925849e+00 3.871425e+00 3.336792e+00 2.494984e+00 5.146545e+00
<GCONST> 1.200917e+02
<TRANSP> 5
 0.000000e+00 1.000000e+00 0.000000e+00 0.000000e+00 0.000000e+00
 0.000000e+00 7.402623e-01 2.597376e-01 0.000000e+00 0.000000e+00
 0.000000e+00 0.000000e+00 7.402623e-01 2.597378e-01 0.000000e+00
 0.000000e+00 0.000000e+00 0.000000e+00 8.683668e-01 1.316332e-01
 0.000000e+00 0.000000e+00 0.000000e+00 0.000000e+00 0.000000e+00
<ENDHMM>
~h "ah"
<BEGINHMM>
<NUMSTATES> 5
<STATE> 2
<MEAN> 25
 8.451035e+00 -1.642103e+00 1.505332e-02 -3.170952e+00 -4.639798e-01 -1.285662e+00 -3.263150e+00 -2.194240e+00 -1.185000e+00 1.398779e+00 -1.200335e+00 -1.154481e+00 -1.525775e-01 1.259105e-01 -4.021112e-02 1.134279e-01 -4.211983e-02 7.495411e-02 3.729337e-02 -6.479248e-02 -4.218771e-03 -5.307441e-02 3.304563e-02 1.827017e-02 -2.821967e-01
<VARIANCE> 25
 1.711375e+02 1.207029e+02 8.461378e+01 1.377491e+02 8.329193e+01 6.993777e+01 7.598882e+01 7.870083e+01 5.392882e+01 5.489320e+01 4.084569e+01 3.316670e+01 5.032852e+00 6.787957e+00 5.154290e+00 6.307994e+00 6.266748e+00 4.327510e+00 5.268739e+00 5.779200e+00 3.916210e+00 3.703612e+00 3.437557e+00 2.777407e+00 5.492863e+00
<GCONST> 1.181801e+02
<STATE> 3
<MEAN> 25
 7.836771e+00 -1.116329e+00 -1.316429e-01 -2.706182e+00 -6.504868e-01 -9.775432e-01 -3.091794e+00 -2.442806e+00 -1.231899e+00 1.169601e+00 -1.071937e+00 -1.088668e+00 -1.650759e-01 1.321925e-01 -2.233111e-02 1.300072e-01 -5.749465e-02 6.713470e-02 6.219403e-02 -5.163131e-02 -1.597058e-02 -6.653158e-02 3.429053e-02 1.471110e-02 -2.873582e-01
<VARIANCE> 25
 1.755054e+02 1.189709e+02 8.302367e+01 1.346794e+02 8.131239e+01 6.843053e+01 7.173418e+01 7.672506e+01 5.236513e+01 5.346788e+01 3.951665e+01 3.224280e+01 4.689767e+00 6.571388e+00 4.899709e+00 5.965607e+00 6.032363e+00 4.168777e+00 5.002651e+00 5.534477e+00 3.813476e+00 3.580139e+00 3.361504e+00 2.707951e+00 5.407705e+00
<GCONST> 1.173995e+02
<STATE> 4
<MEAN> 25
 6.876556e+00 -4.774826e-01 -9.177580e-02 -2.012957e+00 -1.007997e+00 -6.114854e-01 -2.688193e+00 -2.562064e+00 -1.432724e+00 8.421528e-01 -8.429529e-01 -9.908524e-01 -1.850484e-01 1.410981e-01 -6.404353e-03 1.377684e-01 -5.788824e-02 5.679660e-02 7.743116e-02 -3.056559e-02 -2.497880e-02 -7.384501e-02 2.925152e-02 1.278197e-02 -2.962354e-01
<VARIANCE> 25
 1.785186e+02 1.166056e+02 8.229691e+01 1.299618e+02 7.458212e+01 6.570950e+01 6.498574e+01 7.319277e+01 5.014127e+01 5.066723e+01 3.756746e+01 3.043062e+01 4.129347e+00 6.049316e+00 4.495097e+00 5.427619e+00 5.377601e+00 3.860925e+00 4.573183e+00 5.087503e+00 3.597188e+00 3.397753e+00 3.206818e+00 2.556391e+00 5.124543e+00
<GCONST> 1.158480e+02
<TRANSP> 5
 0.000000e+00 1.000000e+00 0.000000e+00 0.000000e+00 0.000000e+00
 0.000000e+00 7.553254e-01 2.446745e-01 0.000000e+00 0.000000e+00
 0.000000e+00 0.000000e+00 7.553251e-01 2.446748e-01 0.000000e+00
 0.000000e+00 0.000000e+00 0.000000e+00 8.853712e-01 1.146287e-01
 0.000000e+00 0.000000e+00 0.000000e+00 0.000000e+00 0.000000e+00
<ENDHMM>
~h "ao"
<BEGINHMM>
<NUMSTATES> 5
<STATE> 2
<MEAN> 25
 -5.053249e+00 1.510167e+00 -1.790304e-01 2.342584e+00 9.101285e-01 8.634813e-01 7.568865e-01 7.904083e-01 1.902982e+00 -2.930008e-01 2.396521e-01 9.170160e-01 5.279050e-01 -1.749929e-01 6.500028e-02 -2.392228e-01 -6.529633e-03 -8.533122e-02 -1.435744e-01 -6.745380e-02 -3.909562e-02 3.555015e-02 -8.669735e-02 -1.068217e-01 6.556839e-01
<VARIANCE> 25
 1.835423e+02 7.125677e+01 4.031345e+01 7.875524e+01 2.998290e+01 3.462402e+01 4.609059e+01 3.514896e+01 2.979993e+01 2.533800e+01 2.429673e+01 2.452514e+01 4.554741e+00 4.004966e+00 3.011692e+00 2.853850e+00 2.182732e+00 3.156277e+00 3.260664e+00 2.361209e+00 2.541015e+00 2.358677e+00 2.013639e+00 1.965753e+00 5.437166e+00
<GCONST> 1.047266e+02
<STATE> 3
<MEAN> 25
 -2.777339e+00 6.943713e-01 7.024554e-02 1.225495e+00 9.044486e-01 5.105280e-01 1.476950e-01 5.197372e-01 1.734140e+00 -1.269056e-01 -1.075950e-01 4.438962e-01 5.691712e-01 -2.067553e-01 5.808331e-02 -2.844546e-01 3.697357e-03 -8.543488e-02 -1.530515e-01 -6.184318e-02 -4.058638e-02 4.697962e-02 -8.093670e-02 -1.140809e-01 7.334658e-01
<VARIANCE> 25
 2.092041e+02 8.732039e+01 4.752786e+01 9.512252e+01 3.682865e+01 4.039362e+01 5.229014e+01 4.054576e+01 3.278722e+01 2.867492e+01 2.580086e+01 2.792169e+01 5.401437e+00 4.756672e+00 3.586496e+00 3.299805e+00 2.591391e+00 3.697363e+00 3.711983e+00 2.710502e+00 2.863374e+00 2.638699e+00 2.227346e+00 2.220238e+00 6.005746e+00
<GCONST> 1.082656e+02
<STATE> 4
<MEAN> 25
 1.052081e+00 -8.392863e-01 3.824385e-01 -9.614443e-01 9.501743e-01 -1.606968e-01 -7.949574e-01 1.540024e-01 1.245363e+00 1.268637e-01 -6.587895e-01 -4.408680e-01 5.005636e-01 -2.171539e-01 3.774962e-02 -3.029866e-01 2.347514e-02 -7.623011e-02 -1.234272e-01 -3.474806e-02 -4.360359e-02 5.823791e-02 -4.398800e-02 -9.965237e-02 7.100799e-01
<VARIANCE> 25
 2.205781e+02 1.052674e+02 5.539667e+01 1.206336e+02 4.787897e+01 4.944595e+01 5.798869e+01 4.830867e+01 3.730344e+01 3.361220e+01 2.718610e+01 3.276993e+01 6.259430e+00 5.261263e+00 4.086920e+00 3.750138e+00 3.320303e+00 4.349181e+00 4.245979e+00 3.246071e+00 3.334314e+00 3.031666e+00 2.508358e+00 2.597839e+00 6.057659e+00
<GCONST> 1.119471e+02
<TRANSP> 5
 0.000000e+00 1.000000e+00 0.000000e+00 0.000000e+00 0.000000e+00
 0.000000e+00 7.620339e-01 2.379661e-01 0.000000e+00 0.000000e+00
 0.000000e+00 0.000000e+00 7.620337e-01 2.379663e-01 0.000000e+00
 0.000000e+00 0.000000e+00 0.000000e+00 8.944232e-01 1.055768e-01
 0.000000e+00 0.000000e+00 0.000000e+00 0.000000e+00 0.000000e+00
<ENDHMM>
~h "aw"
<BEGINHMM>
<NUMSTATES> 5
<STATE> 2
<MEAN> 25
 1.186178e+01 -2.458457e+00 -1.703252e+00 -6.231166e+00 8.402285e-01 1.358988e+00 -2.598869e+00 -3.405522e+00 -2.711507e+00 1.236494e+00 4.830825e-01 -1.710082e+00 -2.237407e-01 2.508812e-02 -6.370531e-02 8.080659e-02 -5.494695e-02 4.310449e-02 1.413974e-02 7.866195e-02 6.496404e-02 -1.599802e-02 4.608875e-02 -1.042364e-02 -3.075448e-01
<VARIANCE> 25
 2.050265e+02 1.057233e+02 8.753266e+01 1.187310e+02 6.352407e+01 8.891432e+01 8.705216e+01 6.482278e+01 5.407589e+01 3.564919e+01 3.393166e+01 2.829030e+01 4.250075e+00 5.894123e+00 4.991180e+00 5.351068e+00 4.641321e+00 3.503285e+00 5.686142e+00 4.840904e+00 4.121355e+00 3.967786e+00 3.159683e+00 2.649559e+00 5.191452e+00
<GCONST> 1.160640e+02
<STATE> 3
<MEAN> 25
 1.047775e+01 -2.288414e+00 -1.963380e+00 -5.685442e+00 4.874620e-01 1.534062e+00 -2.480731e+00 -2.946601e+00 -2.350662e+00 1.109445e+00 6.915933e-01 -1.757025e+00 -2.992961e-01 4.605277e-02 -2.604568e-02 1.134810e-01 -6.254350e-02 1.497449e-02 2.062250e-02 9.121218e-02 6.612328e-02 -3.701110e-02 2.637753e-02 1.015178e-03 -3.634698e-01
<VARIANCE> 25
 2.112242e+02 1.009121e+02 7.987080e+01 1.129440e+02 5.650522e+01 7.889035e+01 7.710790e+01 5.842092e+01 4.850775e+01 3.259720e+01 3.145674e+01 2.699296e+01 3.897625e+00 5.446106e+00 4.694254e+00 4.870734e+00 4.140102e+00 3.136885e+00 5.267401e+00 4.365231e+00 3.718692e+00 3.542308e+00 2.894499e+00 2.551436e+00 4.854033e+00
<GCONST> 1.139883e+02
<STATE> 4
<MEAN> 25
 7.434172e+00 -1.902542e+00 -1.848914e+00 -4.464688e+00 -4.911608e-01 1.613757e+00 -2.233872e+00 -2.002446e+00 -1.783504e+00 6.227184e-01 9.260027e-01 -1.824812e+00 -3.495186e-01 7.573488e-02 1.805057e-02 1.762129e-01 -7.066654e-02 -3.111679e-02 5.535601e-02 8.684266e-02 5.565990e-02 -5.615867e-02 -1.162999e-02 5.874009e-03 -3.948766e-01
<VARIANCE> 25
 2.040170e+02 9.566851e+01 6.433571e+01 1.038709e+02 4.268512e+01 6.368380e+01 5.922929e+01 4.606389e+01 3.646118e+01 2.621377e+01 2.830463e+01 2.357790e+01 2.997428e+00 4.676211e+00 4.160240e+00 4.046219e+00 3.031083e+00 2.550520e+00 4.408066e+00 3.474742e+00 2.871972e+00 2.740541e+00 2.391064e+00 2.247738e+00 4.184939e+00
<GCONST> 1.092325e+02
<TRANSP> 5
 0.000000e+00 1.000000e+00 0.000000e+00 0.000000e+00 0.000000e+00
 0.000000e+00 8.150753e-01 1.849247e-01 0.000000e+00 0.000000e+00
 0.000000e+00 0.000000e+00 8.150753e-01 1.849247e-01 0.000000e+00
 0.000000e+00 0.000000e+00 0.000000e+00 9.486259e-01 5.137410e-02
 0.000000e+00 0.000000e+00 0.000000e+00 0.000000e+00 0.000000e+00
<ENDHMM>
~h "ay"
<BEGINHMM>
<NUMSTATES> 5
<STATE> 2
<MEAN> 25
 1.146129e+01 -8.394307e+00 1.467043e+00 -6.564823e+00 1.828180e-01 -2.896437e+00 -2.217529e+00 1.136035e+00 -1.785022e-01 1.976085e+00 -1.080290e+00 -1.287829e+00 1.903345e-01 -1.405718e-01 -1.069254e-02 -3.518379e-03 -9.301451e-02 -3.640829e-03 9.889764e-02 3.650105e-02 -9.773852e-02 2.524885e-03 -2.084916e-02 -9.295318e-02 1.752593e-01
<VARIANCE> 25
 1.219466e+02 1.529860e+02 1.099856e+02 1.273047e+02 8.824219e+01 8.062306e+01 1.021721e+02 9.622021e+01 6.677956e+01 4.438581e+01 3.860604e+01 3.646928e+01 6.105220e+00 7.199686e+00 6.884179e+00 6.975716e+00 6.107730e+00 6.510574e+00 6.818271e+00 5.648782e+00 5.037452e+00 4.125247e+00 3.576034e+00 2.734594e+00 7.076901e+00
<GCONST> 1.208951e+02
<STATE> 3
<MEAN> 25
 1.213780e+01 -8.914340e+00 1.501434e+00 -6.477352e+00 -2.763778e-01 -2.936057e+00 -1.782507e+00 1.299738e+00 -6.049449e-01 1.976108e+00 -1.137002e+00 -1.637437e+00 1.699138e-01 -1.210624e-01 7.023904e-03 3.992170e-02 -1.268438e-01 -9.100818e-03 1.246511e-01 4.165721e-02 -1.289679e-01 -6.486652e-03 -1.719515e-02 -9.439047e-02 1.306233e-01
<VARIANCE> 25
 1.091894e+02 1.546939e+02 1.101064e+02 1.247533e+02 9.062970e+01 7.735842e+01 1.043173e+02 9.993988e+01 6.970964e+01 4.459480e+01 3.896904e+01 3.562558e+01 5.876892e+00 7.352261e+00 7.022949e+00 7.116739e+00 6.217769e+00 6.429558e+00 7.050690e+00 5.932283e+00 5.024850e+00 4.150274e+00 3.586010e+00 2.690964e+00 6.825642e+00
<GCONST> 1.209190e+02
<STATE> 4
<MEAN> 25
 1.297330e+01 -9.625516e+00 2.048217e+00 -6.446026e+00 -1.367921e+00 -2.901743e+00 -1.220267e+00 1.683121e+00 -1.441121e+00 2.116292e+00 -9.019215e-01 -2.104886e+00 1.542308e-01 -7.861848e-02 3.627968e-02 4.975963e-02 -1.489871e-01 -7.147253e-03 1.070907e-01 2.488096e-02 -1.485311e-01 3.676509e-03 -9.642903e-03 -8.590514e-02 9.318819e-02
<VARIANCE> 25
 9.147168e+01 1.593969e+02 1.159458e+02 1.219386e+02 9.230225e+01 7.124824e+01 1.034889e+02 1.088471e+02 7.257033e+01 4.437408e+01 3.980950e+01 3.381825e+01 5.192560e+00 7.410583e+00 6.994125e+00 7.061331e+00 6.127969e+00 6.088043e+00 7.108780e+00 6.524907e+00 4.883255e+00 4.043761e+00 3.541690e+00 2.611926e+00 6.486000e+00
<GCONST> 1.205773e+02
<TRANSP> 5
 0.000000e+00 1.000000e+00 0.000000e+00 0.000000e+00 0.000000e+00
 0.000000e+00 7.402677e-01 2.597324e-01 0.000000e+00 0.000000e+00
 0.000000e+00 0.000000e+00 7.402670e-01 2.597330e-01 0.000000e+00
 0.000000e+00 0.000000e+00 0.000000e+00 8.683766e-01 1.316234e-01
 0.000000e+00 0.000000e+00 0.000000e+00 0.000000e+00 0.000000e+00
<ENDHMM>
~h "eh"
<BEGINHMM>
<NUMSTATES> 5
<STATE> 2
<MEAN> 25
 8.406500e+00 -3.389608e+00 -1.642395e+00 -1.774818e+00 -1.484051e+00 -1.805502e+00 -6.540315e-01 -4.836913e-01 -9.396219e-01 7.784587e-01 -8.168354e-01 -1.820552e+00 -1.331592e-01 1.446487e-01 5.458578e-02 1.387650e-01 -9.488817e-02 5.894377e-02 6.233098e-02 -9.046690e-02 -1.615544e-02 -6.776685e-02 -2.426304e-02 4.020964e-02 -2.980480e-01
<VARIANCE> 25
 2.122031e+02 1.363885e+02 7.028655e+01 1.005760e+02 8.588937e+01 6.463130e+01 4.890735e+01 6.567393e+01 5.962604e+01 4.589558e+01 4.471601e+01 3.484384e+01 4.515775e+00 5.356297e+00 4.621009e+00 4.716922e+00 4.618452e+00 4.669994e+00 4.068346e+00 4.829792e+00 4.492332e+00 3.696226e+00 3.446522e+00 2.659275e+00 5.372447e+00
<GCONST> 1.160688e+02
<STATE> 3
<MEAN> 25
 7.805860e+00 -2.718005e+00 -1.399990e+00 -1.194408e+00 -1.850373e+00 -1.550558e+00 -4.138437e-01 -8.787650e-01 -1.029505e+00 4.770854e-01 -9.176370e-01 -1.640399e+00 -1.529061e-01 1.668613e-01 6.899563e-02 1.295148e-01 -8.091231e-02 6.254099e-02 5.059280e-02 -9.649833e-02 -1.921684e-02 -7.569160e-02 -2.006838e-02 4.816480e-02 -3.069752e-01
<VARIANCE> 25
 2.141579e+02 1.368423e+02 6.881419e+01 9.648979e+01 8.177960e+01 6.330817e+01 4.670803e+01 6.377242e+01 5.808753e+01 4.501990e+01 4.303053e+01 3.394413e+01 4.023585e+00 5.246588e+00 4.402443e+00 4.548690e+00 4.463149e+00 4.514552e+00 3.945447e+00 4.619725e+00 4.329537e+00 3.586511e+00 3.293594e+00 2.601785e+00 5.041360e+00
<GCONST> 1.152016e+02
<STATE> 4
<MEAN> 25
 7.310398e+00 -1.823829e+00 -8.292744e-01 -7.635383e-01 -2.331942e+00 -1.261875e+00 -1.751104e-01 -1.473715e+00 -1.356587e+00 5.476025e-02 -9.171105e-01 -1.353718e+00 -1.848212e-01 1.895883e-01 6.705180e-02 1.216325e-01 -5.014290e-02 6.791288e-02 3.608269e-02 -8.934958e-02 -2.940938e-02 -7.491031e-02 -1.301976e-02 4.443359e-02 -3.267921e-01
<VARIANCE> 25
 2.105529e+02 1.354701e+02 7.110419e+01 9.865220e+01 7.810255e+01 6.220503e+01 4.550993e+01 6.281995e+01 5.678016e+01 4.365581e+01 4.122583e+01 3.172438e+01 3.378770e+00 5.009172e+00 4.134104e+00 4.430291e+00 4.192879e+00 4.280871e+00 3.802505e+00 4.381133e+00 4.023053e+00 3.458538e+00 3.098378e+00 2.495061e+00 4.485340e+00
<GCONST> 1.141154e+02
<TRANSP> 5
 0.000000e+00 1.000000e+00 0.000000e+00 0.000000e+00 0.000000e+00
 0.000000e+00 7.629827e-01 2.370173e-01 0.000000e+00 0.000000e+00
 0.000000e+00 0.000000e+00 7.629828e-01 2.370172e-01 0.000000e+00
 0.000000e+00 0.000000e+00 0.000000e+00 8.950684e-01 1.049316e-01
 0.000000e+00 0.000000e+00 0.000000e+00 0.000000e+00 0.000000e+00
<ENDHMM>
~h "er"
<BEGINHMM>
<NUMSTATES> 5
<STATE> 2
<MEAN> 25
 8.978205e+00 -5.999871e+00 3.840315e+00 -5.411827e+00 3.043511e-01 -5.463828e+00 -2.560510e+00 1.458594e+00 -1.501620e-01 9.341198e-01 -7.077248e-01 -4.030938e-01 1.252892e-01 -3.192301e-02 -3.630668e-02 -5.450140e-02 2.455911e-02 -6.597117e-02 -4.477445e-02 -3.045267e-02 3.336819e-03 4.956413e-02 -2.989004e-02 9.851684e-03 1.529893e-01
<VARIANCE> 25
 1.884177e+02 1.140181e+02 1.039828e+02 1.258691e+02 1.010923e+02 8.047841e+01 9.471036e+01 7.272942e+01 5.170698e+01 5.765013e+01 4.855730e+01 4.432453e+01 1.098703e+01 6.983567e+00 6.304356e+00 6.555047e+00 7.296567e+00 6.050074e+00 6.946365e+00 5.784317e+00 5.123579e+00 4.949029e+00 4.233497e+00 3.718535e+00 5.471798e+00
<GCONST> 1.221489e+02
<STATE> 3
<MEAN> 25
 9.431904e+00 -6.092376e+00 3.636544e+00 -5.539104e+00 4.003581e-01 -5.680039e+00 -2.723694e+00 1.313277e+00 -1.276625e-01 1.130886e+00 -8.264945e-01 -3.582035e-01 9.529407e-02 -6.868262e-03 -6.858423e-02 -1.198675e-02 2.574387e-02 -3.256912e-02 -4.007231e-02 -3.926364e-02 9.042036e-03 4.576821e-02 -3.312558e-02 1.166222e-02 5.483907e-02
<VARIANCE> 25
 1.835157e+02 1.109353e+02 1.055873e+02 1.262221e+02 1.044155e+02 7.947996e+01 9.486510e+01 7.316977e+01 5.223650e+01 5.941553e+01 5.010620e+01 4.380973e+01 1.121429e+01 7.083362e+00 6.528096e+00 6.833667e+00 7.649976e+00 6.116320e+00 7.061284e+00 5.936585e+00 5.150948e+00 5.021452e+00 4.352458e+00 3.757571e+00 5.595881e+00
<GCONST> 1.224930e+02
<STATE> 4
<MEAN> 25
 1.004508e+01 -6.154871e+00 3.239394e+00 -5.501900e+00 4.189999e-01 -5.823487e+00 -2.755922e+00 9.313992e-01 -1.473806e-01 1.306193e+00 -8.758935e-01 -3.560251e-01 7.671816e-02 1.480939e-02 -1.000245e-01 2.228261e-02 2.531942e-02 1.286863e-02 -4.082894e-02 -5.213895e-02 1.463814e-03 4.224043e-02 -2.994714e-02 4.580858e-03 -4.093888e-02
<VARIANCE> 25
 1.752229e+02 1.087281e+02 1.072812e+02 1.282089e+02 1.043497e+02 7.909810e+01 9.346898e+01 7.509190e+01 5.231713e+01 6.091934e+01 5.134070e+01 4.229676e+01 1.075335e+01 7.153905e+00 6.789927e+00 7.167534e+00 7.808698e+00 6.162418e+00 7.080325e+00 6.195541e+00 5.048336e+00 5.024526e+00 4.460882e+00 3.710535e+00 5.967223e+00
<GCONST> 1.226647e+02
<TRANSP> 5
 0.000000e+00 1.000000e+00 0.000000e+00 0.000000e+00 0.000000e+00
 0.000000e+00 7.647572e-01 2.352428e-01 0.000000e+00 0.000000e+00
 0.000000e+00 0.000000e+00 7.647573e-01 2.352427e-01 0.000000e+00
 0.000000e+00 0.000000e+00 0.000000e+00 8.931958e-01 1.068042e-01
 0.000000e+00 0.000000e+00 0.000000e+00 0.000000e+00 0.000000e+00
<ENDHMM>
~h "ey"
<BEGINHMM>
<NUMSTATES> 5
<STATE> 2
<MEAN> 25
 -1.015425e+00 3.280429e-01 5.337310e+00 4.355567e-01 -2.688973e+00 -2.761723e-01 -1.325683e-01 1.735531e+00 -1.475897e+00 -8.198382e-01 1.660275e+00 8.432050e-01 5.158252e-01 -3.320332e-01 3.144183e-01 -2.027348e-01 -2.108817e-01 -2.759139e-01 -7.114697e-02 1.278119e-01 -1.431114e-01 8.795097e-03 -3.049887e-02 -1.244496e-02 7.991644e-01
<VARIANCE> 25
 1.783813e+02 1.064954e+02 1.480827e+02 6.603316e+01 7.032972e+01 5.519046e+01 3.511892e+01 3.285213e+01 7.130704e+01 2.893616e+01 2.714351e+01 1.726827e+01 4.128305e+00 3.569444e+00 5.840594e+00 3.427920e+00 4.088443e+00 3.028873e+00 2.595499e+00 2.418925e+00 4.515859e+00 2.615181e+00 2.302565e+00 1.631231e+00 4.842587e+00
<GCONST> 1.094940e+02
<STATE> 3
<MEAN> 25
 1.154897e+00 -1.189728e+00 6.588992e+00 -4.307305e-01 -3.509629e+00 -1.508589e+00 -4.307171e-01 2.302755e+00 -2.018410e+00 -7.743807e-01 1.498997e+00 8.136666e-01 5.114436e-01 -3.643008e-01 2.755370e-01 -2.033442e-01 -1.835816e-01 -3.007149e-01 -6.232938e-02 1.294627e-01 -1.196704e-01 1.359888e-02 -4.912880e-02 -4.850556e-03 8.471852e-01
<VARIANCE> 25
 1.919517e+02 1.243768e+02 1.554199e+02 7.127333e+01 7.973872e+01 6.180157e+01 3.899613e+01 3.699091e+01 7.503664e+01 3.145743e+01 2.926384e+01 1.851994e+01 4.781871e+00 4.146203e+00 6.513748e+00 3.945926e+00 4.692774e+00 3.337359e+00 2.920571e+00 2.784729e+00 5.012911e+00 2.867018e+00 2.542460e+00 1.794035e+00 5.380602e+00
<GCONST> 1.121252e+02
<STATE> 4
<MEAN> 25
 4.479553e+00 -3.924468e+00 8.147872e+00 -1.941945e+00 -4.356754e+00 -3.719252e+00 -8.615058e-01 3.320281e+00 -2.631562e+00 -6.930963e-01 1.042527e+00 8.316005e-01 3.700843e-01 -3.200420e-01 1.203420e-01 -1.748911e-01 -6.894649e-02 -2.844737e-01 -2.066158e-02 1.052034e-01 -4.326192e-02 2.682476e-02 -6.491552e-02 1.407021e-02 7.562329e-01
<VARIANCE> 25
 1.980971e+02 1.436187e+02 1.590888e+02 7.514290e+01 9.638910e+01 6.582910e+01 4.681923e+01 4.502138e+01 7.648087e+01 3.472236e+01 3.338053e+01 2.122582e+01 5.855901e+00 4.998420e+00 7.046847e+00 4.597678e+00 5.442484e+00 3.679379e+00 3.449574e+00 3.462883e+00 5.597780e+00 3.217155e+00 2.888805e+00 2.072830e+00 5.714774e+00
<GCONST> 1.152039e+02
<TRANSP> 5
 0.000000e+00 1.000000e+00 0.000000e+00 0.000000e+00 0.000000e+00
 0.000000e+00 7.606628e-01 2.393372e-01 0.000000e+00 0.000000e+00
 0.000000e+00 0.000000e+00 7.606629e-01 2.393371e-01 0.000000e+00
 0.000000e+00 0.000000e+00 0.000000e+00 8.864530e-01 1.135470e-01
 0.000000e+00 0.000000e+00 0.000000e+00 0.000000e+00 0.000000e+00
<ENDHMM>
~h "ih"
<BEGINHMM>
<NUMSTATES> 5
<STATE> 2
<MEAN> 25
 -1.045195e+01 3.625999e+00 -1.035504e+00 3.382833e+00 1.272159e+00 3.386287e+00 2.720003e+00 8.481044e-01 1.996689e+00 -7.541693e-01 1.835434e+00 1.674695e+00 1.418594e-01 -2.659574e-02 2.962931e-02 -2.236117e-02 -3.012845e-02 -8.488794e-02 -6.617776e-02 -4.340439e-02 -8.347309e-02 -4.705387e-02 -7.598124e-02 -3.412470e-02 1.339059e-01
<VARIANCE> 25
 9.589983e+01 3.145308e+01 3.420839e+01 3.488364e+01 2.354428e+01 2.850011e+01 2.375690e+01 3.359819e+01 3.301712e+01 2.107196e+01 2.118016e+01 1.536189e+01 1.375302e+00 1.407373e+00 1.322916e+00 1.602326e+00 1.392497e+00 1.747347e+00 1.574808e+00 2.069377e+00 1.896005e+00 1.834288e+00 1.305192e+00 1.371763e+00 2.250983e+00
<GCONST> 9.268676e+01
<STATE> 3
<MEAN> 25
 -9.803106e+00 3.477088e+00 -8.939798e-01 3.286509e+00 1.141482e+00 2.997760e+00 2.431114e+00 7.024589e-01 1.673390e+00 -9.235566e-01 1.511143e+00 1.521569e+00 1.664167e-01 -5.525678e-02 3.660353e-02 -3.132978e-02 -2.841964e-02 -9.942885e-02 -7.110126e-02 -2.640361e-02 -6.824410e-02 -3.135448e-02 -7.613701e-02 -3.336562e-02 1.788692e-01
<VARIANCE> 25
 9.901514e+01 3.556174e+01 3.647355e+01 3.517986e+01 2.453661e+01 3.032190e+01 2.465792e+01 3.315042e+01 3.242842e+01 2.102038e+01 2.196849e+01 1.548244e+01 1.594118e+00 1.613842e+00 1.441303e+00 1.682535e+00 1.493184e+00 1.835460e+00 1.638102e+00 2.078385e+00 1.998232e+00 1.876336e+00 1.380131e+00 1.405797e+00 2.482048e+00
<GCONST> 9.390013e+01
<STATE> 4
<MEAN> 25
 -7.158258e+00 2.758317e+00 -1.963844e-01 2.778656e+00 6.573543e-01 1.769106e+00 1.583750e+00 3.538131e-01 8.205999e-01 -1.115735e+00 7.917048e-01 1.053238e+00 2.179448e-01 -1.070734e-01 7.384422e-02 -5.451058e-02 -2.635494e-02 -1.257136e-01 -8.866109e-02 1.345133e-02 -5.409110e-02 -5.633058e-03 -5.697690e-02 -2.936864e-02 2.760187e-01
<VARIANCE> 25
 1.251167e+02 5.149330e+01 5.377739e+01 4.307332e+01 3.254203e+01 3.877029e+01 3.077317e+01 3.669566e+01 3.642064e+01 2.358529e+01 2.461018e+01 1.669362e+01 2.170695e+00 2.115088e+00 2.022188e+00 2.109313e+00 1.889162e+00 2.234604e+00 1.992004e+00 2.306685e+00 2.381344e+00 2.130230e+00 1.613142e+00 1.496454e+00 3.114126e+00
<GCONST> 9.898978e+01
<TRANSP> 5
 0.000000e+00 1.000000e+00 0.000000e+00 0.000000e+00 0.000000e+00
 0.000000e+00 7.593746e-01 2.406254e-01 0.000000e+00 0.000000e+00
 0.000000e+00 0.000000e+00 7.593751e-01 2.406249e-01 0.000000e+00
 0.000000e+00 0.000000e+00 0.000000e+00 8.907735e-01 1.092265e-01
 0.000000e+00 0.000000e+00 0.000000e+00 0.000000e+00 0.000000e+00
<ENDHMM>
~h "iy"
<BEGINHMM>
<NUMSTATES> 5
<STATE> 2
<MEAN> 25
 -7.354064e+00 5.632704e+00 -1.465845e+00 4.206507e+00 9.494389e-01 2.104594e+00 1.415410e+00 -1.731428e+00 -4.752197e-01 -2.173862e+00 -6.436747e-01 -3.769003e-01 -2.334514e-01 -3.036481e-02 -1.134006e-01 2.525525e-02 1.622560e-01 1.177392e-01 1.896674e-02 3.291749e-02 9.369849e-02 2.507166e-02 1.906805e-02 1.996974e-02 -1.981639e-01
<VARIANCE> 25
 5.832781e+01 3.464744e+01 3.505131e+01 2.124402e+01 3.386737e+01 2.138546e+01 1.611778e+01 2.372723e+01 2.398003e+01 2.045354e+01 1.562665e+01 1.404202e+01 7.564241e-01 1.504923e+00 1.288953e+00 1.415878e+00 1.326133e+00 1.127791e+00 1.349684e+00 1.750987e+00 1.629753e+00 1.667422e+00 1.415040e+00 1.225767e+00 5.751498e-01
<GCONST> 8.728030e+01
<STATE> 3
<MEAN> 25
 -8.202059e+00 5.476389e+00 -1.901255e+00 4.296718e+00 1.561661e+00 2.553295e+00 1.479483e+00 -1.619336e+00 -1.350619e-01 -2.066684e+00 -5.594544e-01 -3.015769e-01 -1.817939e-01 -4.073970e-02 -8.796532e-02 1.802583e-02 1.246487e-01 9.222463e-02 1.861244e-02 2.819049e-02 6.939459e-02 2.302000e-02 1.892072e-02 2.166757e-02 -1.450482e-01
<VARIANCE> 25
 4.359400e+01 2.740886e+01 2.999075e+01 1.975497e+01 2.869305e+01 1.945267e+01 1.519036e+01 2.210829e+01 2.069259e+01 1.986707e+01 1.502046e+01 1.357843e+01 7.009597e-01 1.174961e+00 1.090166e+00 1.184896e+00 1.212239e+00 1.101400e+00 1.222054e+00 1.601784e+00 1.471305e+00 1.592805e+00 1.359955e+00 1.169371e+00 4.331216e-01
<GCONST> 8.439643e+01
<STATE> 4
<MEAN> 25
 -8.798203e+00 5.076175e+00 -2.774425e+00 4.441517e+00 2.439775e+00 3.170826e+00 1.464121e+00 -1.758729e+00 1.889903e-01 -1.771540e+00 -4.874468e-01 -3.604538e-01 -1.175744e-01 -3.787928e-02 -6.185603e-02 4.321404e-03 7.908048e-02 5.631289e-02 1.791758e-02 2.214866e-02 3.874556e-02 2.039271e-02 1.785135e-02 1.291237e-02 -8.787602e-02
<VARIANCE> 25
 2.812284e+01 1.958438e+01 2.600113e+01 1.810386e+01 2.714163e+01 1.928873e+01 1.483646e+01 2.191129e+01 1.712389e+01 2.057543e+01 1.482528e+01 1.309635e+01 5.858496e-01 8.575143e-01 9.457436e-01 9.666945e-01 1.160735e+00 1.148198e+00 1.158633e+00 1.470835e+00 1.303259e+00 1.534361e+00 1.327020e+00 1.103151e+00 2.878569e-01
<GCONST> 8.146149e+01
<TRANSP> 5
 0.000000e+00 1.000000e+00 0.000000e+00 0.000000e+00 0.000000e+00
 0.000000e+00 7.543085e-01 2.456915e-01 0.000000e+00 0.000000e+00
 0.000000e+00 0.000000e+00 7.543080e-01 2.456920e-01 0.000000e+00
 0.000000e+00 0.000000e+00 0.000000e+00 8.854043e-01 1.145957e-01
 0.000000e+00 0.000000e+00 0.000000e+00 0.000000e+00 0.000000e+00
<ENDHMM>
~h "ng"
<BEGINHMM>
<NUMSTATES> 5
<STATE> 2
<MEAN> 25
 1.547028e+01 -8.206773e+00 1.937566e+00 -6.267998e+00 -2.954294e+00 -2.184126e+00 -1.246501e+00 2.467491e-01 -3.741505e+00 2.889268e+00 -1.366086e+00 -3.216562e+00 3.031241e-02 2.292622e-01 -6.105949e-02 -6.292339e-02 2.599947e-02 9.116620e-02 -1.463632e-01 -1.537200e-01 -1.355458e-02 7.049761e-02 -7.162284e-03 6.353938e-03 -1.454124e-01
<VARIANCE> 25
 5.510600e+01 1.620226e+02 1.094441e+02 1.307960e+02 1.027511e+02 5.942170e+01 1.231181e+02 1.329401e+02 8.116761e+01 4.888426e+01 4.166916e+01 3.137743e+01 3.300890e+00 8.460634e+00 6.401184e+00 7.979470e+00 6.853413e+00 4.959711e+00 7.745872e+00 8.676715e+00 4.884860e+00 3.834280e+00 3.306901e+00 2.478831e+00 4.807669e+00
<GCONST> 1.200958e+02
<STATE> 3
<MEAN> 25
 1.549608e+01 -7.282811e+00 1.679091e+00 -6.525623e+00 -2.779565e+00 -1.802065e+00 -1.868885e+00 -3.705153e-01 -3.698344e+00 3.155994e+00 -1.393321e+00 -3.153190e+00 -1.956437e-02 2.583111e-01 -7.476551e-02 -6.438139e-02 5.741443e-02 9.988534e-02 -1.765227e-01 -1.660867e-01 3.258670e-02 6.141626e-02 -6.935410e-04 2.863564e-02 -1.933080e-01
<VARIANCE> 25
 5.617853e+01 1.618005e+02 1.077856e+02 1.342607e+02 1.027818e+02 5.897977e+01 1.254624e+02 1.325931e+02 8.073582e+01 4.974279e+01 4.186310e+01 3.160567e+01 3.105241e+00 8.562744e+00 6.257242e+00 8.024990e+00 6.839116e+00 4.756368e+00 7.676414e+00 8.788535e+00 4.780344e+00 3.809810e+00 3.283764e+00 2.496918e+00 4.749578e+00
<GCONST> 1.200114e+02
<STATE> 4
<MEAN> 25
 1.516914e+01 -6.288812e+00 1.843382e+00 -7.115756e+00 -2.659409e+00 -1.085747e+00 -2.890068e+00 -1.030844e+00 -3.360349e+00 3.658536e+00 -1.165672e+00 -2.901805e+00 -8.823061e-02 2.605031e-01 -8.151724e-02 -3.295439e-02 7.439895e-02 9.853988e-02 -1.655961e-01 -1.557592e-01 7.598143e-02 2.779318e-02 5.217228e-03 5.013773e-02 -2.420421e-01
<VARIANCE> 25
 6.157599e+01 1.585299e+02 1.069029e+02 1.455856e+02 9.832861e+01 5.939701e+01 1.194770e+02 1.356700e+02 7.906812e+01 5.109426e+01 4.254823e+01 3.168064e+01 2.919743e+00 8.319915e+00 5.853638e+00 7.934239e+00 6.447176e+00 4.433525e+00 7.120796e+00 9.133727e+00 4.589393e+00 3.774694e+00 3.178559e+00 2.507811e+00 4.718621e+00
<GCONST> 1.196977e+02
<TRANSP> 5
 0.000000e+00 1.000000e+00 0.000000e+00 0.000000e+00 0.000000e+00
 0.000000e+00 7.402553e-01 2.597447e-01 0.000000e+00 0.000000e+00
 0.000000e+00 0.000000e+00 7.402555e-01 2.597445e-01 0.000000e+00
 0.000000e+00 0.000000e+00 0.000000e+00 8.683529e-01 1.316470e-01
 0.000000e+00 0.000000e+00 0.000000e+00 0.000000e+00 0.000000e+00
<ENDHMM>
~h "th"
<BEGINHMM>
<NUMSTATES> 5
<STATE> 2
<MEAN> 25
 2.859076e+00 2.495175e+00 6.204427e+00 1.886073e+00 -7.645699e+00 -2.856624e+00 5.196123e-01 -2.739575e+00 -4.140007e+00 -1.733344e+00 -2.840293e-01 2.719997e-01 -5.501637e-01 2.605951e-01 -2.497912e-01 1.495899e-01 2.174945e-01 1.440324e-01 9.340478e-02 2.593180e-02 3.142870e-02 -7.045207e-02 4.720161e-03 -1.397620e-02 -6.860814e-01
<VARIANCE> 25
 1.399780e+02 1.063342e+02 1.373545e+02 5.772530e+01 1.385953e+02 4.722370e+01 6.444675e+01 4.275800e+01 6.853970e+01 3.427404e+01 2.919652e+01 2.465032e+01 3.482549e+00 5.472810e+00 4.580459e+00 3.598788e+00 6.598527e+00 3.998547e+00 6.290293e+00 3.253733e+00 5.215486e+00 2.944999e+00 2.995247e+00 2.515072e+00 4.165653e+00
<GCONST> 1.138012e+02
<STATE> 3
<MEAN> 25
 6.359511e-01 3.471361e+00 5.076873e+00 2.469593e+00 -6.625229e+00 -2.237370e+00 8.702347e-01 -2.604563e+00 -3.926369e+00 -2.002389e+00 -2.928151e-01 2.137196e-01 -5.638403e-01 2.016957e-01 -3.195905e-01 1.220092e-01 3.104785e-01 1.652792e-01 6.754100e-02 5.816172e-02 8.488169e-02 -5.874923e-02 -5.689828e-03 -1.159266e-02 -6.656526e-01
<VARIANCE> 25
 1.357143e+02 8.869623e+01 1.267365e+02 4.981231e+01 1.290732e+02 4.305259e+01 5.576509e+01 3.855254e+01 5.947122e+01 3.047350e+01 2.655748e+01 2.201223e+01 2.840390e+00 4.588475e+00 3.898730e+00 3.088705e+00 5.642816e+00 3.378334e+00 5.512144e+00 2.818672e+00 4.476592e+00 2.638616e+00 2.667782e+00 2.208751e+00 3.243279e+00
<GCONST> 1.104286e+02
<STATE> 4
<MEAN> 25
 -2.201599e+00 4.354484e+00 3.020377e+00 3.126222e+00 -4.526278e+00 -1.047055e+00 9.622504e-01 -2.199726e+00 -3.289303e+00 -2.318363e+00 -4.107065e-01 1.002951e-01 -4.845972e-01 1.099552e-01 -3.279200e-01 9.314857e-02 3.425115e-01 1.635272e-01 4.585956e-02 7.035612e-02 1.232379e-01 -3.211121e-02 -1.467933e-02 -1.534325e-02 -5.426676e-01
<VARIANCE> 25
 1.122705e+02 6.220303e+01 1.116928e+02 3.941069e+01 1.083309e+02 3.726067e+01 4.292531e+01 3.202945e+01 4.693175e+01 2.602480e+01 2.340269e+01 1.829252e+01 1.954413e+00 3.193102e+00 2.964030e+00 2.347518e+00 4.165273e+00 2.581919e+00 4.122188e+00 2.255152e+00 3.303021e+00 2.284799e+00 2.344982e+00 1.763244e+00 2.150535e+00
<GCONST> 1.044665e+02
<TRANSP> 5
 0.000000e+00 1.000000e+00 0.000000e+00 0.000000e+00 0.000000e+00
 0.000000e+00 7.555381e-01 2.444619e-01 0.000000e+00 0.000000e+00
 0.000000e+00 0.000000e+00 7.555382e-01 2.444618e-01 0.000000e+00
 0.000000e+00 0.000000e+00 0.000000e+00 8.872309e-01 1.127691e-01
 0.000000e+00 0.000000e+00 0.000000e+00 0.000000e+00 0.000000e+00
<ENDHMM>
~h "uw"
<BEGINHMM>
<NUMSTATES> 5
<STATE> 2
<MEAN> 25
 -5.599757e+00 4.051998e+00 -6.136247e-01 2.690119e+00 6.784696e-01 9.877095e-01 1.096771e+00 -2.695435e-01 -4.843416e-01 -2.233337e+00 -9.066627e-01 2.507899e-01 -7.934684e-02 -4.494736e-02 4.689181e-02 5.118797e-02 2.597203e-02 -1.969360e-02 2.887046e-02 3.877494e-02 3.448546e-02 -1.155698e-02 -3.232803e-02 -3.141523e-02 -8.255381e-03
<VARIANCE> 25
 8.661816e+01 2.634190e+01 2.858851e+01 5.425115e+01 2.348179e+01 3.459186e+01 3.231518e+01 3.689022e+01 2.961757e+01 2.534550e+01 1.840658e+01 1.670249e+01 1.756235e+00 1.407442e+00 1.568582e+00 1.763187e+00 1.765487e+00 2.097855e+00 2.103790e+00 2.233451e+00 2.207301e+00 2.020127e+00 1.640380e+00 1.461537e+00 1.620607e+00
<GCONST> 9.478982e+01
<STATE> 3
<MEAN> 25
 -5.711904e+00 3.840910e+00 -3.985818e-01 2.822697e+00 7.634746e-01 8.889229e-01 1.196370e+00 -1.988609e-01 -4.150099e-01 -2.263350e+00 -1.041640e+00 1.052707e-01 -2.249060e-02 -5.801525e-02 3.683925e-02 2.582375e-02 1.345183e-02 -1.779835e-02 2.694314e-02 1.520607e-02 1.429263e-02 8.390906e-03 -2.232639e-02 -2.930115e-02 4.188866e-02
<VARIANCE> 25
 8.845483e+01 2.739302e+01 2.962814e+01 5.498363e+01 2.487173e+01 3.727136e+01 3.415704e+01 3.642986e+01 2.814597e+01 2.496500e+01 1.852999e+01 1.680619e+01 1.698092e+00 1.472853e+00 1.586218e+00 1.815418e+00 1.850110e+00 2.196486e+00 2.158324e+00 2.301339e+00 2.210391e+00 2.079185e+00 1.657817e+00 1.480314e+00 1.620717e+00
<GCONST> 9.527486e+01
<STATE> 4
<MEAN> 25
 -3.446922e+00 2.961501e+00 1.361000e-01 1.820423e+00 8.146260e-01 2.037215e-01 6.026559e-01 -7.469949e-01 -8.267203e-01 -1.934901e+00 -1.283496e+00 -1.587838e-01 7.911785e-02 -6.729916e-02 3.072289e-02 -1.783042e-02 -1.405803e-02 -1.390081e-02 1.322596e-02 -1.479695e-02 -1.694237e-02 2.220688e-02 -1.799221e-03 -2.175006e-02 1.193859e-01
<VARIANCE> 25
 1.334056e+02 4.231169e+01 4.043291e+01 7.674931e+01 3.298836e+01 5.411760e+01 4.577463e+01 4.425260e+01 3.206697e+01 2.867692e+01 2.147269e+01 1.768958e+01 2.051037e+00 2.170660e+00 2.110039e+00 2.609057e+00 2.332070e+00 2.877516e+00 2.691905e+00 2.939450e+00 2.567279e+00 2.627683e+00 1.898123e+00 1.658677e+00 2.186990e+00
<GCONST> 1.014998e+02
<TRANSP> 5
 0.000000e+00 1.000000e+00 0.000000e+00 0.000000e+00 0.000000e+00
 0.000000e+00 7.741334e-01 2.258666e-01 0.000000e+00 0.000000e+00
 0.000000e+00 0.000000e+00 7.741330e-01 2.258670e-01 0.000000e+00
 0.000000e+00 0.000000e+00 0.000000e+00 9.110755e-01 8.892450e-02
 0.000000e+00 0.000000e+00 0.000000e+00 0.000000e+00 0.000000e+00
<ENDHMM>
~h "sil"
<BEGINHMM>
<NUMSTATES> 5
<STATE> 2
<MEAN> 25
 -1.228549e+01 4.162483e+00 -1.907263e+00 4.635914e+00 1.357400e+00 3.666098e+00 3.301660e+00 1.320952e+00 2.200834e+00 -1.115370e+00 1.378887e+00 1.644791e+00 -2.883117e-02 -7.587305e-02 -5.754500e-03 8.116420e-02 1.706004e-01 5.581096e-02 1.173521e-02 9.364128e-02 2.762380e-02 -4.886389e-02 2.769476e-03 9.252694e-03 1.143235e-02
<VARIANCE> 25
 2.630305e+01 9.700840e+00 1.366761e+01 1.581548e+01 1.288781e+01 1.530855e+01 1.660159e+01 2.117923e+01 1.903443e+01 1.486549e+01 1.651679e+01 1.522621e+01 3.688725e-01 4.663130e-01 5.468760e-01 7.407026e-01 1.009442e+00 9.734986e-01 1.010826e+00 1.240368e+00 1.175339e+00 1.145819e+00 1.124470e+00 9.604611e-01 3.465475e-01
<GCONST> 7.604448e+01
<STATE> 3
<MEAN> 25
 -1.219714e+01 4.039114e+00 -1.951132e+00 4.645024e+00 1.482981e+00 3.532570e+00 3.230289e+00 1.603567e+00 2.501235e+00 -9.593986e-01 1.379096e+00 1.647554e+00 5.073693e-02 -8.320708e-03 -2.160850e-03 -1.149224e-02 -7.135673e-03 -5.550946e-02 -3.017931e-02 4.491781e-02 5.527097e-02 4.414411e-02 -8.705314e-04 -1.342638e-03 4.947052e-02
<VARIANCE> 25
 2.518478e+01 1.026687e+01 1.362386e+01 1.548860e+01 1.210834e+01 1.548475e+01 1.661904e+01 2.141129e+01 2.066804e+01 1.583892e+01 1.702304e+01 1.553415e+01 4.577261e-01 5.135764e-01 5.841944e-01 7.291442e-01 8.457580e-01 9.681784e-01 1.029970e+00 1.226325e+00 1.291288e+00 1.142786e+00 1.125801e+00 1.054289e+00 5.480635e-01
<GCONST> 7.702244e+01
<STATE> 4
<MEAN> 25
 -1.131444e+01 3.831731e+00 -1.964558e+00 4.640454e+00 1.345431e+00 3.012739e+00 2.820796e+00 1.411938e+00 2.445628e+00 -7.425212e-01 1.092207e+00 1.438293e+00 7.634732e-02 2.273243e-02 3.036296e-02 4.205127e-03 -2.495988e-02 -5.321288e-02 -4.617066e-02 -4.453792e-02 -4.575847e-02 -9.503826e-03 -1.744324e-02 -2.321778e-02 6.067427e-02
<VARIANCE> 25
 2.693062e+01 1.268401e+01 1.439683e+01 1.602769e+01 1.251733e+01 1.545889e+01 1.700057e+01 2.136318e+01 2.270490e+01 1.697851e+01 1.748708e+01 1.532444e+01 5.865848e-01 6.881454e-01 6.538840e-01 7.682210e-01 9.151226e-01 1.062018e+00 1.165845e+00 1.248162e+00 1.403310e+00 1.297448e+00 1.157578e+00 1.168717e+00 7.445156e-01
<GCONST> 7.928484e+01
<TRANSP> 5
 0.000000e+00 1.000000e+00 0.000000e+00 0.000000e+00 0.000000e+00
 0.000000e+00 7.634550e-01 2.365450e-01 0.000000e+00 0.000000e+00
 0.000000e+00 0.000000e+00 7.634561e-01 2.365438e-01 0.000000e+00
 0.000000e+00 0.000000e+00 0.000000e+00 8.970477e-01 1.029523e-01
 0.000000e+00 0.000000e+00 0.000000e+00 0.000000e+00 0.000000e+00
<ENDHMM>
