~h "b"
<BEGINHMM>
<NUMSTATES> 5
<STATE> 2
<MEAN> 25
 -2.959493e-09 -2.313786e-08 7.264211e-09 -4.080514e-09 6.501917e-08 -5.022171e-09 -7.219370e-09 2.479697e-08 5.739624e-08 9.586965e-08 2.138907e-08 -2.721837e-08 2.841697e-02 2.965606e-03 3.883998e-03 5.395767e-04 1.136024e-03 -1.173908e-02 -1.421193e-02 -1.280373e-02 -1.831957e-02 -1.267222e-02 -1.649122e-02 -1.477355e-02 2.233064e-02
<VARIANCE> 25
 2.119449e+02 9.879247e+01 6.622305e+01 9.393306e+01 5.931681e+01 5.495687e+01 5.539248e+01 5.667927e+01 4.737803e+01 3.584278e+01 3.125154e+01 2.680729e+01 3.614889e+00 3.963429e+00 3.386691e+00 3.651539e+00 3.531701e+00 3.272484e+00 3.525359e+00 3.578388e+00 3.194116e+00 2.739687e+00 2.420523e+00 2.027461e+00 3.817413e+00
<GCONST> 1.102001e+02
<STATE> 3
<MEAN> 25
 -2.959493e-09 -2.313786e-08 7.264211e-09 -4.080514e-09 6.501917e-08 -5.022171e-09 -7.219370e-09 2.479697e-08 5.739624e-08 9.586965e-08 2.138907e-08 -2.721837e-08 2.841697e-02 2.965606e-03 3.883998e-03 5.395767e-04 1.136024e-03 -1.173908e-02 -1.421193e-02 -1.280373e-02 -1.831957e-02 -1.267222e-02 -1.649122e-02 -1.477355e-02 2.233064e-02
<VARIANCE> 25
 2.119449e+02 9.879247e+01 6.622305e+01 9.393306e+01 5.931681e+01 5.495687e+01 5.539248e+01 5.667927e+01 4.737803e+01 3.584278e+01 3.125154e+01 2.680729e+01 3.614889e+00 3.963429e+00 3.386691e+00 3.651539e+00 3.531701e+00 3.272484e+00 3.525359e+00 3.578388e+00 3.194116e+00 2.739687e+00 2.420523e+00 2.027461e+00 3.817413e+00
<GCONST> 1.102001e+02
<STATE> 4
<MEAN> 25
 -2.959493e-09 -2.313786e-08 7.264211e-09 -4.080514e-09 6.501917e-08 -5.022171e-09 -7.219370e-09 2.479697e-08 5.739624e-08 9.586965e-08 2.138907e-08 -2.721837e-08 2.841697e-02 2.965606e-03 3.883998e-03 5.395767e-04 1.136024e-03 -1.173908e-02 -1.421193e-02 -1.280373e-02 -1.831957e-02 -1.267222e-02 -1.649122e-02 -1.477355e-02 2.233064e-02
<VARIANCE> 25
 2.119449e+02 9.879247e+01 6.622305e+01 9.393306e+01 5.931681e+01 5.495687e+01 5.539248e+01 5.667927e+01 4.737803e+01 3.584278e+01 3.125154e+01 2.680729e+01 3.614889e+00 3.963429e+00 3.386691e+00 3.651539e+00 3.531701e+00 3.272484e+00 3.525359e+00 3.578388e+00 3.194116e+00 2.739687e+00 2.420523e+00 2.027461e+00 3.817413e+00
<GCONST> 1.102001e+02
<TRANSP> 5
 0.000000e+00 1.000000e+00 0.000000e+00 0.000000e+00 0.000000e+00
 0.000000e+00 6.000000e-01 4.000000e-01 0.000000e+00 0.000000e+00
 0.000000e+00 0.000000e+00 6.000000e-01 4.000000e-01 0.000000e+00
 0.000000e+00 0.000000e+00 0.000000e+00 7.000000e-01 3.000000e-01
 0.000000e+00 0.000000e+00 0.000000e+00 0.000000e+00 0.000000e+00
<ENDHMM>
~h "l"
<BEGINHMM>
<NUMSTATES> 5
<STATE> 2
<MEAN> 25
 -2.959493e-09 -2.313786e-08 7.264211e-09 -4.080514e-09 6.501917e-08 -5.022171e-09 -7.219370e-09 2.479697e-08 5.739624e-08 9.586965e-08 2.138907e-08 -2.721837e-08 2.841697e-02 2.965606e-03 3.883998e-03 5.395767e-04 1.136024e-03 -1.173908e-02 -1.421193e-02 -1.280373e-02 -1.831957e-02 -1.267222e-02 -1.649122e-02 -1.477355e-02 2.233064e-02
<VARIANCE> 25
 2.119449e+02 9.879247e+01 6.622305e+01 9.393306e+01 5.931681e+01 5.495687e+01 5.539248e+01 5.667927e+01 4.737803e+01 3.584278e+01 3.125154e+01 2.680729e+01 3.614889e+00 3.963429e+00 3.386691e+00 3.651539e+00 3.531701e+00 3.272484e+00 3.525359e+00 3.578388e+00 3.194116e+00 2.739687e+00 2.420523e+00 2.027461e+00 3.817413e+00
<GCONST> 1.102001e+02
<STATE> 3
<MEAN> 25
 -2.959493e-09 -2.313786e-08 7.264211e-09 -4.080514e-09 6.501917e-08 -5.022171e-09 -7.219370e-09 2.479697e-08 5.739624e-08 9.586965e-08 2.138907e-08 -2.721837e-08 2.841697e-02 2.965606e-03 3.883998e-03 5.395767e-04 1.136024e-03 -1.173908e-02 -1.421193e-02 -1.280373e-02 -1.831957e-02 -1.267222e-02 -1.649122e-02 -1.477355e-02 2.233064e-02
<VARIANCE> 25
 2.119449e+02 9.879247e+01 6.622305e+01 9.393306e+01 5.931681e+01 5.495687e+01 5.539248e+01 5.667927e+01 4.737803e+01 3.584278e+01 3.125154e+01 2.680729e+01 3.614889e+00 3.963429e+00 3.386691e+00 3.651539e+00 3.531701e+00 3.272484e+00 3.525359e+00 3.578388e+00 3.194116e+00 2.739687e+00 2.420523e+00 2.027461e+00 3.817413e+00
<GCONST> 1.102001e+02
<STATE> 4
<MEAN> 25
 -2.959493e-09 -2.313786e-08 7.264211e-09 -4.080514e-09 6.501917e-08 -5.022171e-09 -7.219370e-09 2.479697e-08 5.739624e-08 9.586965e-08 2.138907e-08 -2.721837e-08 2.841697e-02 2.965606e-03 3.883998e-03 5.395767e-04 1.136024e-03 -1.173908e-02 -1.421193e-02 -1.280373e-02 -1.831957e-02 -1.267222e-02 -1.649122e-02 -1.477355e-02 2.233064e-02
<VARIANCE> 25
 2.119449e+02 9.879247e+01 6.622305e+01 9.393306e+01 5.931681e+01 5.495687e+01 5.539248e+01 5.667927e+01 4.737803e+01 3.584278e+01 3.125154e+01 2.680729e+01 3.614889e+00 3.963429e+00 3.386691e+00 3.651539e+00 3.531701e+00 3.272484e+00 3.525359e+00 3.578388e+00 3.194116e+00 2.739687e+00 2.420523e+00 2.027461e+00 3.817413e+00
<GCONST> 1.102001e+02
<TRANSP> 5
 0.000000e+00 1.000000e+00 0.000000e+00 0.000000e+00 0.000000e+00
 0.000000e+00 6.000000e-01 4.000000e-01 0.000000e+00 0.000000e+00
 0.000000e+00 0.000000e+00 6.000000e-01 4.000000e-01 0.000000e+00
 0.000000e+00 0.000000e+00 0.000000e+00 7.000000e-01 3.000000e-01
 0.000000e+00 0.000000e+00 0.000000e+00 0.000000e+00 0.000000e+00
<ENDHMM>
~h "uw"
<BEGINHMM>
<NUMSTATES> 5
<STATE> 2
<MEAN> 25
 -2.959493e-09 -2.313786e-08 7.264211e-09 -4.080514e-09 6.501917e-08 -5.022171e-09 -7.219370e-09 2.479697e-08 5.739624e-08 9.586965e-08 2.138907e-08 -2.721837e-08 2.841697e-02 2.965606e-03 3.883998e-03 5.395767e-04 1.136024e-03 -1.173908e-02 -1.421193e-02 -1.280373e-02 -1.831957e-02 -1.267222e-02 -1.649122e-02 -1.477355e-02 2.233064e-02
<VARIANCE> 25
 2.119449e+02 9.879247e+01 6.622305e+01 9.393306e+01 5.931681e+01 5.495687e+01 5.539248e+01 5.667927e+01 4.737803e+01 3.584278e+01 3.125154e+01 2.680729e+01 3.614889e+00 3.963429e+00 3.386691e+00 3.651539e+00 3.531701e+00 3.272484e+00 3.525359e+00 3.578388e+00 3.194116e+00 2.739687e+00 2.420523e+00 2.027461e+00 3.817413e+00
<GCONST> 1.102001e+02
<STATE> 3
<MEAN> 25
 -2.959493e-09 -2.313786e-08 7.264211e-09 -4.080514e-09 6.501917e-08 -5.022171e-09 -7.219370e-09 2.479697e-08 5.739624e-08 9.586965e-08 2.138907e-08 -2.721837e-08 2.841697e-02 2.965606e-03 3.883998e-03 5.395767e-04 1.136024e-03 -1.173908e-02 -1.421193e-02 -1.280373e-02 -1.831957e-02 -1.267222e-02 -1.649122e-02 -1.477355e-02 2.233064e-02
<VARIANCE> 25
 2.119449e+02 9.879247e+01 6.622305e+01 9.393306e+01 5.931681e+01 5.495687e+01 5.539248e+01 5.667927e+01 4.737803e+01 3.584278e+01 3.125154e+01 2.680729e+01 3.614889e+00 3.963429e+00 3.386691e+00 3.651539e+00 3.531701e+00 3.272484e+00 3.525359e+00 3.578388e+00 3.194116e+00 2.739687e+00 2.420523e+00 2.027461e+00 3.817413e+00
<GCONST> 1.102001e+02
<STATE> 4
<MEAN> 25
 -2.959493e-09 -2.313786e-08 7.264211e-09 -4.080514e-09 6.501917e-08 -5.022171e-09 -7.219370e-09 2.479697e-08 5.739624e-08 9.586965e-08 2.138907e-08 -2.721837e-08 2.841697e-02 2.965606e-03 3.883998e-03 5.395767e-04 1.136024e-03 -1.173908e-02 -1.421193e-02 -1.280373e-02 -1.831957e-02 -1.267222e-02 -1.649122e-02 -1.477355e-02 2.233064e-02
<VARIANCE> 25
 2.119449e+02 9.879247e+01 6.622305e+01 9.393306e+01 5.931681e+01 5.495687e+01 5.539248e+01 5.667927e+01 4.737803e+01 3.584278e+01 3.125154e+01 2.680729e+01 3.614889e+00 3.963429e+00 3.386691e+00 3.651539e+00 3.531701e+00 3.272484e+00 3.525359e+00 3.578388e+00 3.194116e+00 2.739687e+00 2.420523e+00 2.027461e+00 3.817413e+00
<GCONST> 1.102001e+02
<TRANSP> 5
 0.000000e+00 1.000000e+00 0.000000e+00 0.000000e+00 0.000000e+00
 0.000000e+00 6.000000e-01 4.000000e-01 0.000000e+00 0.000000e+00
 0.000000e+00 0.000000e+00 6.000000e-01 4.000000e-01 0.000000e+00
 0.000000e+00 0.000000e+00 0.000000e+00 7.000000e-01 3.000000e-01
 0.000000e+00 0.000000e+00 0.000000e+00 0.000000e+00 0.000000e+00
<ENDHMM>
~h "s"
<BEGINHMM>
<NUMSTATES> 5
<STATE> 2
<MEAN> 25
 -2.959493e-09 -2.313786e-08 7.264211e-09 -4.080514e-09 6.501917e-08 -5.022171e-09 -7.219370e-09 2.479697e-08 5.739624e-08 9.586965e-08 2.138907e-08 -2.721837e-08 2.841697e-02 2.965606e-03 3.883998e-03 5.395767e-04 1.136024e-03 -1.173908e-02 -1.421193e-02 -1.280373e-02 -1.831957e-02 -1.267222e-02 -1.649122e-02 -1.477355e-02 2.233064e-02
<VARIANCE> 25
 2.119449e+02 9.879247e+01 6.622305e+01 9.393306e+01 5.931681e+01 5.495687e+01 5.539248e+01 5.667927e+01 4.737803e+01 3.584278e+01 3.125154e+01 2.680729e+01 3.614889e+00 3.963429e+00 3.386691e+00 3.651539e+00 3.531701e+00 3.272484e+00 3.525359e+00 3.578388e+00 3.194116e+00 2.739687e+00 2.420523e+00 2.027461e+00 3.817413e+00
<GCONST> 1.102001e+02
<STATE> 3
<MEAN> 25
 -2.959493e-09 -2.313786e-08 7.264211e-09 -4.080514e-09 6.501917e-08 -5.022171e-09 -7.219370e-09 2.479697e-08 5.739624e-08 9.586965e-08 2.138907e-08 -2.721837e-08 2.841697e-02 2.965606e-03 3.883998e-03 5.395767e-04 1.136024e-03 -1.173908e-02 -1.421193e-02 -1.280373e-02 -1.831957e-02 -1.267222e-02 -1.649122e-02 -1.477355e-02 2.233064e-02
<VARIANCE> 25
 2.119449e+02 9.879247e+01 6.622305e+01 9.393306e+01 5.931681e+01 5.495687e+01 5.539248e+01 5.667927e+01 4.737803e+01 3.584278e+01 3.125154e+01 2.680729e+01 3.614889e+00 3.963429e+00 3.386691e+00 3.651539e+00 3.531701e+00 3.272484e+00 3.525359e+00 3.578388e+00 3.194116e+00 2.739687e+00 2.420523e+00 2.027461e+00 3.817413e+00
<GCONST> 1.102001e+02
<STATE> 4
<MEAN> 25
 -2.959493e-09 -2.313786e-08 7.264211e-09 -4.080514e-09 6.501917e-08 -5.022171e-09 -7.219370e-09 2.479697e-08 5.739624e-08 9.586965e-08 2.138907e-08 -2.721837e-08 2.841697e-02 2.965606e-03 3.883998e-03 5.395767e-04 1.136024e-03 -1.173908e-02 -1.421193e-02 -1.280373e-02 -1.831957e-02 -1.267222e-02 -1.649122e-02 -1.477355e-02 2.233064e-02
<VARIANCE> 25
 2.119449e+02 9.879247e+01 6.622305e+01 9.393306e+01 5.931681e+01 5.495687e+01 5.539248e+01 5.667927e+01 4.737803e+01 3.584278e+01 3.125154e+01 2.680729e+01 3.614889e+00 3.963429e+00 3.386691e+00 3.651539e+00 3.531701e+00 3.272484e+00 3.525359e+00 3.578388e+00 3.194116e+00 2.739687e+00 2.420523e+00 2.027461e+00 3.817413e+00
<GCONST> 1.102001e+02
<TRANSP> 5
 0.000000e+00 1.000000e+00 0.000000e+00 0.000000e+00 0.000000e+00
 0.000000e+00 6.000000e-01 4.000000e-01 0.000000e+00 0.000000e+00
 0.000000e+00 0.000000e+00 6.000000e-01 4.000000e-01 0.000000e+00
 0.000000e+00 0.000000e+00 0.000000e+00 7.000000e-01 3.000000e-01
 0.000000e+00 0.000000e+00 0.000000e+00 0.000000e+00 0.000000e+00
<ENDHMM>
~h "er"
<BEGINHMM>
<NUMSTATES> 5
<STATE> 2
<MEAN> 25
 -2.959493e-09 -2.313786e-08 7.264211e-09 -4.080514e-09 6.501917e-08 -5.022171e-09 -7.219370e-09 2.479697e-08 5.739624e-08 9.586965e-08 2.138907e-08 -2.721837e-08 2.841697e-02 2.965606e-03 3.883998e-03 5.395767e-04 1.136024e-03 -1.173908e-02 -1.421193e-02 -1.280373e-02 -1.831957e-02 -1.267222e-02 -1.649122e-02 -1.477355e-02 2.233064e-02
<VARIANCE> 25
 2.119449e+02 9.879247e+01 6.622305e+01 9.393306e+01 5.931681e+01 5.495687e+01 5.539248e+01 5.667927e+01 4.737803e+01 3.584278e+01 3.125154e+01 2.680729e+01 3.614889e+00 3.963429e+00 3.386691e+00 3.651539e+00 3.531701e+00 3.272484e+00 3.525359e+00 3.578388e+00 3.194116e+00 2.739687e+00 2.420523e+00 2.027461e+00 3.817413e+00
<GCONST> 1.102001e+02
<STATE> 3
<MEAN> 25
 -2.959493e-09 -2.313786e-08 7.264211e-09 -4.080514e-09 6.501917e-08 -5.022171e-09 -7.219370e-09 2.479697e-08 5.739624e-08 9.586965e-08 2.138907e-08 -2.721837e-08 2.841697e-02 2.965606e-03 3.883998e-03 5.395767e-04 1.136024e-03 -1.173908e-02 -1.421193e-02 -1.280373e-02 -1.831957e-02 -1.267222e-02 -1.649122e-02 -1.477355e-02 2.233064e-02
<VARIANCE> 25
 2.119449e+02 9.879247e+01 6.622305e+01 9.393306e+01 5.931681e+01 5.495687e+01 5.539248e+01 5.667927e+01 4.737803e+01 3.584278e+01 3.125154e+01 2.680729e+01 3.614889e+00 3.963429e+00 3.386691e+00 3.651539e+00 3.531701e+00 3.272484e+00 3.525359e+00 3.578388e+00 3.194116e+00 2.739687e+00 2.420523e+00 2.027461e+00 3.817413e+00
<GCONST> 1.102001e+02
<STATE> 4
<MEAN> 25
 -2.959493e-09 -2.313786e-08 7.264211e-09 -4.080514e-09 6.501917e-08 -5.022171e-09 -7.219370e-09 2.479697e-08 5.739624e-08 9.586965e-08 2.138907e-08 -2.721837e-08 2.841697e-02 2.965606e-03 3.883998e-03 5.395767e-04 1.136024e-03 -1.173908e-02 -1.421193e-02 -1.280373e-02 -1.831957e-02 -1.267222e-02 -1.649122e-02 -1.477355e-02 2.233064e-02
<VARIANCE> 25
 2.119449e+02 9.879247e+01 6.622305e+01 9.393306e+01 5.931681e+01 5.495687e+01 5.539248e+01 5.667927e+01 4.737803e+01 3.584278e+01 3.125154e+01 2.680729e+01 3.614889e+00 3.963429e+00 3.386691e+00 3.651539e+00 3.531701e+00 3.272484e+00 3.525359e+00 3.578388e+00 3.194116e+00 2.739687e+00 2.420523e+00 2.027461e+00 3.817413e+00
<GCONST> 1.102001e+02
<TRANSP> 5
 0.000000e+00 1.000000e+00 0.000000e+00 0.000000e+00 0.000000e+00
 0.000000e+00 6.000000e-01 4.000000e-01 0.000000e+00 0.000000e+00
 0.000000e+00 0.000000e+00 6.000000e-01 4.000000e-01 0.000000e+00
 0.000000e+00 0.000000e+00 0.000000e+00 7.000000e-01 3.000000e-01
 0.000000e+00 0.000000e+00 0.000000e+00 0.000000e+00 0.000000e+00
<ENDHMM>
~h "k"
<BEGINHMM>
<NUMSTATES> 5
<STATE> 2
<MEAN> 25
 -2.959493e-09 -2.313786e-08 7.264211e-09 -4.080514e-09 6.501917e-08 -5.022171e-09 -7.219370e-09 2.479697e-08 5.739624e-08 9.586965e-08 2.138907e-08 -2.721837e-08 2.841697e-02 2.965606e-03 3.883998e-03 5.395767e-04 1.136024e-03 -1.173908e-02 -1.421193e-02 -1.280373e-02 -1.831957e-02 -1.267222e-02 -1.649122e-02 -1.477355e-02 2.233064e-02
<VARIANCE> 25
 2.119449e+02 9.879247e+01 6.622305e+01 9.393306e+01 5.931681e+01 5.495687e+01 5.539248e+01 5.667927e+01 4.737803e+01 3.584278e+01 3.125154e+01 2.680729e+01 3.614889e+00 3.963429e+00 3.386691e+00 3.651539e+00 3.531701e+00 3.272484e+00 3.525359e+00 3.578388e+00 3.194116e+00 2.739687e+00 2.420523e+00 2.027461e+00 3.817413e+00
<GCONST> 1.102001e+02
<STATE> 3
<MEAN> 25
 -2.959493e-09 -2.313786e-08 7.264211e-09 -4.080514e-09 6.501917e-08 -5.022171e-09 -7.219370e-09 2.479697e-08 5.739624e-08 9.586965e-08 2.138907e-08 -2.721837e-08 2.841697e-02 2.965606e-03 3.883998e-03 5.395767e-04 1.136024e-03 -1.173908e-02 -1.421193e-02 -1.280373e-02 -1.831957e-02 -1.267222e-02 -1.649122e-02 -1.477355e-02 2.233064e-02
<VARIANCE> 25
 2.119449e+02 9.879247e+01 6.622305e+01 9.393306e+01 5.931681e+01 5.495687e+01 5.539248e+01 5.667927e+01 4.737803e+01 3.584278e+01 3.125154e+01 2.680729e+01 3.614889e+00 3.963429e+00 3.386691e+00 3.651539e+00 3.531701e+00 3.272484e+00 3.525359e+00 3.578388e+00 3.194116e+00 2.739687e+00 2.420523e+00 2.027461e+00 3.817413e+00
<GCONST> 1.102001e+02
<STATE> 4
<MEAN> 25
 -2.959493e-09 -2.313786e-08 7.264211e-09 -4.080514e-09 6.501917e-08 -5.022171e-09 -7.219370e-09 2.479697e-08 5.739624e-08 9.586965e-08 2.138907e-08 -2.721837e-08 2.841697e-02 2.965606e-03 3.883998e-03 5.395767e-04 1.136024e-03 -1.173908e-02 -1.421193e-02 -1.280373e-02 -1.831957e-02 -1.267222e-02 -1.649122e-02 -1.477355e-02 2.233064e-02
<VARIANCE> 25
 2.119449e+02 9.879247e+01 6.622305e+01 9.393306e+01 5.931681e+01 5.495687e+01 5.539248e+01 5.667927e+01 4.737803e+01 3.584278e+01 3.125154e+01 2.680729e+01 3.614889e+00 3.963429e+00 3.386691e+00 3.651539e+00 3.531701e+00 3.272484e+00 3.525359e+00 3.578388e+00 3.194116e+00 2.739687e+00 2.420523e+00 2.027461e+00 3.817413e+00
<GCONST> 1.102001e+02
<TRANSP> 5
 0.000000e+00 1.000000e+00 0.000000e+00 0.000000e+00 0.000000e+00
 0.000000e+00 6.000000e-01 4.000000e-01 0.000000e+00 0.000000e+00
 0.000000e+00 0.000000e+00 6.000000e-01 4.000000e-01 0.000000e+00
 0.000000e+00 0.000000e+00 0.000000e+00 7.000000e-01 3.000000e-01
 0.000000e+00 0.000000e+00 0.000000e+00 0.000000e+00 0.000000e+00
<ENDHMM>
~h "ah"
<BEGINHMM>
<NUMSTATES> 5
<STATE> 2
<MEAN> 25
 -2.959493e-09 -2.313786e-08 7.264211e-09 -4.080514e-09 6.501917e-08 -5.022171e-09 -7.219370e-09 2.479697e-08 5.739624e-08 9.586965e-08 2.138907e-08 -2.721837e-08 2.841697e-02 2.965606e-03 3.883998e-03 5.395767e-04 1.136024e-03 -1.173908e-02 -1.421193e-02 -1.280373e-02 -1.831957e-02 -1.267222e-02 -1.649122e-02 -1.477355e-02 2.233064e-02
<VARIANCE> 25
 2.119449e+02 9.879247e+01 6.622305e+01 9.393306e+01 5.931681e+01 5.495687e+01 5.539248e+01 5.667927e+01 4.737803e+01 3.584278e+01 3.125154e+01 2.680729e+01 3.614889e+00 3.963429e+00 3.386691e+00 3.651539e+00 3.531701e+00 3.272484e+00 3.525359e+00 3.578388e+00 3.194116e+00 2.739687e+00 2.420523e+00 2.027461e+00 3.817413e+00
<GCONST> 1.102001e+02
<STATE> 3
<MEAN> 25
 -2.959493e-09 -2.313786e-08 7.264211e-09 -4.080514e-09 6.501917e-08 -5.022171e-09 -7.219370e-09 2.479697e-08 5.739624e-08 9.586965e-08 2.138907e-08 -2.721837e-08 2.841697e-02 2.965606e-03 3.883998e-03 5.395767e-04 1.136024e-03 -1.173908e-02 -1.421193e-02 -1.280373e-02 -1.831957e-02 -1.267222e-02 -1.649122e-02 -1.477355e-02 2.233064e-02
<VARIANCE> 25
 2.119449e+02 9.879247e+01 6.622305e+01 9.393306e+01 5.931681e+01 5.495687e+01 5.539248e+01 5.667927e+01 4.737803e+01 3.584278e+01 3.125154e+01 2.680729e+01 3.614889e+00 3.963429e+00 3.386691e+00 3.651539e+00 3.531701e+00 3.272484e+00 3.525359e+00 3.578388e+00 3.194116e+00 2.739687e+00 2.420523e+00 2.027461e+00 3.817413e+00
<GCONST> 1.102001e+02
<STATE> 4
<MEAN> 25
 -2.959493e-09 -2.313786e-08 7.264211e-09 -4.080514e-09 6.501917e-08 -5.022171e-09 -7.219370e-09 2.479697e-08 5.739624e-08 9.586965e-08 2.138907e-08 -2.721837e-08 2.841697e-02 2.965606e-03 3.883998e-03 5.395767e-04 1.136024e-03 -1.173908e-02 -1.421193e-02 -1.280373e-02 -1.831957e-02 -1.267222e-02 -1.649122e-02 -1.477355e-02 2.233064e-02
<VARIANCE> 25
 2.119449e+02 9.879247e+01 6.622305e+01 9.393306e+01 5.931681e+01 5.495687e+01 5.539248e+01 5.667927e+01 4.737803e+01 3.584278e+01 3.125154e+01 2.680729e+01 3.614889e+00 3.963429e+00 3.386691e+00 3.651539e+00 3.531701e+00 3.272484e+00 3.525359e+00 3.578388e+00 3.194116e+00 2.739687e+00 2.420523e+00 2.027461e+00 3.817413e+00
<GCONST> 1.102001e+02
<TRANSP> 5
 0.000000e+00 1.000000e+00 0.000000e+00 0.000000e+00 0.000000e+00
 0.000000e+00 6.000000e-01 4.000000e-01 0.000000e+00 0.000000e+00
 0.000000e+00 0.000000e+00 6.000000e-01 4.000000e-01 0.000000e+00
 0.000000e+00 0.000000e+00 0.000000e+00 7.000000e-01 3.000000e-01
 0.000000e+00 0.000000e+00 0.000000e+00 0.000000e+00 0.000000e+00
<ENDHMM>
~h "d"
<BEGINHMM>
<NUMSTATES> 5
<STATE> 2
<MEAN> 25
 -2.959493e-09 -2.313786e-08 7.264211e-09 -4.080514e-09 6.501917e-08 -5.022171e-09 -7.219370e-09 2.479697e-08 5.739624e-08 9.586965e-08 2.138907e-08 -2.721837e-08 2.841697e-02 2.965606e-03 3.883998e-03 5.395767e-04 1.136024e-03 -1.173908e-02 -1.421193e-02 -1.280373e-02 -1.831957e-02 -1.267222e-02 -1.649122e-02 -1.477355e-02 2.233064e-02
<VARIANCE> 25
 2.119449e+02 9.879247e+01 6.622305e+01 9.393306e+01 5.931681e+01 5.495687e+01 5.539248e+01 5.667927e+01 4.737803e+01 3.584278e+01 3.125154e+01 2.680729e+01 3.614889e+00 3.963429e+00 3.386691e+00 3.651539e+00 3.531701e+00 3.272484e+00 3.525359e+00 3.578388e+00 3.194116e+00 2.739687e+00 2.420523e+00 2.027461e+00 3.817413e+00
<GCONST> 1.102001e+02
<STATE> 3
<MEAN> 25
 -2.959493e-09 -2.313786e-08 7.264211e-09 -4.080514e-09 6.501917e-08 -5.022171e-09 -7.219370e-09 2.479697e-08 5.739624e-08 9.586965e-08 2.138907e-08 -2.721837e-08 2.841697e-02 2.965606e-03 3.883998e-03 5.395767e-04 1.136024e-03 -1.173908e-02 -1.421193e-02 -1.280373e-02 -1.831957e-02 -1.267222e-02 -1.649122e-02 -1.477355e-02 2.233064e-02
<VARIANCE> 25
 2.119449e+02 9.879247e+01 6.622305e+01 9.393306e+01 5.931681e+01 5.495687e+01 5.539248e+01 5.667927e+01 4.737803e+01 3.584278e+01 3.125154e+01 2.680729e+01 3.614889e+00 3.963429e+00 3.386691e+00 3.651539e+00 3.531701e+00 3.272484e+00 3.525359e+00 3.578388e+00 3.194116e+00 2.739687e+00 2.420523e+00 2.027461e+00 3.817413e+00
<GCONST> 1.102001e+02
<STATE> 4
<MEAN> 25
 -2.959493e-09 -2.313786e-08 7.264211e-09 -4.080514e-09 6.501917e-08 -5.022171e-09 -7.219370e-09 2.479697e-08 5.739624e-08 9.586965e-08 2.138907e-08 -2.721837e-08 2.841697e-02 2.965606e-03 3.883998e-03 5.395767e-04 1.136024e-03 -1.173908e-02 -1.421193e-02 -1.280373e-02 -1.831957e-02 -1.267222e-02 -1.649122e-02 -1.477355e-02 2.233064e-02
<VARIANCE> 25
 2.119449e+02 9.879247e+01 6.622305e+01 9.393306e+01 5.931681e+01 5.495687e+01 5.539248e+01 5.667927e+01 4.737803e+01 3.584278e+01 3.125154e+01 2.680729e+01 3.614889e+00 3.963429e+00 3.386691e+00 3.651539e+00 3.531701e+00 3.272484e+00 3.525359e+00 3.578388e+00 3.194116e+00 2.739687e+00 2.420523e+00 2.027461e+00 3.817413e+00
<GCONST> 1.102001e+02
<TRANSP> 5
 0.000000e+00 1.000000e+00 0.000000e+00 0.000000e+00 0.000000e+00
 0.000000e+00 6.000000e-01 4.000000e-01 0.000000e+00 0.000000e+00
 0.000000e+00 0.000000e+00 6.000000e-01 4.000000e-01 0.000000e+00
 0.000000e+00 0.000000e+00 0.000000e+00 7.000000e-01 3.000000e-01
 0.000000e+00 0.000000e+00 0.000000e+00 0.000000e+00 0.000000e+00
<ENDHMM>
~h "r"
<BEGINHMM>
<NUMSTATES> 5
<STATE> 2
<MEAN> 25
 -2.959493e-09 -2.313786e-08 7.264211e-09 -4.080514e-09 6.501917e-08 -5.022171e-09 -7.219370e-09 2.479697e-08 5.739624e-08 9.586965e-08 2.138907e-08 -2.721837e-08 2.841697e-02 2.965606e-03 3.883998e-03 5.395767e-04 1.136024e-03 -1.173908e-02 -1.421193e-02 -1.280373e-02 -1.831957e-02 -1.267222e-02 -1.649122e-02 -1.477355e-02 2.233064e-02
<VARIANCE> 25
 2.119449e+02 9.879247e+01 6.622305e+01 9.393306e+01 5.931681e+01 5.495687e+01 5.539248e+01 5.667927e+01 4.737803e+01 3.584278e+01 3.125154e+01 2.680729e+01 3.614889e+00 3.963429e+00 3.386691e+00 3.651539e+00 3.531701e+00 3.272484e+00 3.525359e+00 3.578388e+00 3.194116e+00 2.739687e+00 2.420523e+00 2.027461e+00 3.817413e+00
<GCONST> 1.102001e+02
<STATE> 3
<MEAN> 25
 -2.959493e-09 -2.313786e-08 7.264211e-09 -4.080514e-09 6.501917e-08 -5.022171e-09 -7.219370e-09 2.479697e-08 5.739624e-08 9.586965e-08 2.138907e-08 -2.721837e-08 2.841697e-02 2.965606e-03 3.883998e-03 5.395767e-04 1.136024e-03 -1.173908e-02 -1.421193e-02 -1.280373e-02 -1.831957e-02 -1.267222e-02 -1.649122e-02 -1.477355e-02 2.233064e-02
<VARIANCE> 25
 2.119449e+02 9.879247e+01 6.622305e+01 9.393306e+01 5.931681e+01 5.495687e+01 5.539248e+01 5.667927e+01 4.737803e+01 3.584278e+01 3.125154e+01 2.680729e+01 3.614889e+00 3.963429e+00 3.386691e+00 3.651539e+00 3.531701e+00 3.272484e+00 3.525359e+00 3.578388e+00 3.194116e+00 2.739687e+00 2.420523e+00 2.027461e+00 3.817413e+00
<GCONST> 1.102001e+02
<STATE> 4
<MEAN> 25
 -2.959493e-09 -2.313786e-08 7.264211e-09 -4.080514e-09 6.501917e-08 -5.022171e-09 -7.219370e-09 2.479697e-08 5.739624e-08 9.586965e-08 2.138907e-08 -2.721837e-08 2.841697e-02 2.965606e-03 3.883998e-03 5.395767e-04 1.136024e-03 -1.173908e-02 -1.421193e-02 -1.280373e-02 -1.831957e-02 -1.267222e-02 -1.649122e-02 -1.477355e-02 2.233064e-02
<VARIANCE> 25
 2.119449e+02 9.879247e+01 6.622305e+01 9.393306e+01 5.931681e+01 5.495687e+01 5.539248e+01 5.667927e+01 4.737803e+01 3.584278e+01 3.125154e+01 2.680729e+01 3.614889e+00 3.963429e+00 3.386691e+00 3.651539e+00 3.531701e+00 3.272484e+00 3.525359e+00 3.578388e+00 3.194116e+00 2.739687e+00 2.420523e+00 2.027461e+00 3.817413e+00
<GCONST> 1.102001e+02
<TRANSP> 5
 0.000000e+00 1.000000e+00 0.000000e+00 0.000000e+00 0.000000e+00
 0.000000e+00 6.000000e-01 4.000000e-01 0.000000e+00 0.000000e+00
 0.000000e+00 0.000000e+00 6.000000e-01 4.000000e-01 0.000000e+00
 0.000000e+00 0.000000e+00 0.000000e+00 7.000000e-01 3.000000e-01
 0.000000e+00 0.000000e+00 0.000000e+00 0.000000e+00 0.000000e+00
<ENDHMM>
~h "ao"
<BEGINHMM>
<NUMSTATES> 5
<STATE> 2
<MEAN> 25
 -2.959493e-09 -2.313786e-08 7.264211e-09 -4.080514e-09 6.501917e-08 -5.022171e-09 -7.219370e-09 2.479697e-08 5.739624e-08 9.586965e-08 2.138907e-08 -2.721837e-08 2.841697e-02 2.965606e-03 3.883998e-03 5.395767e-04 1.136024e-03 -1.173908e-02 -1.421193e-02 -1.280373e-02 -1.831957e-02 -1.267222e-02 -1.649122e-02 -1.477355e-02 2.233064e-02
<VARIANCE> 25
 2.119449e+02 9.879247e+01 6.622305e+01 9.393306e+01 5.931681e+01 5.495687e+01 5.539248e+01 5.667927e+01 4.737803e+01 3.584278e+01 3.125154e+01 2.680729e+01 3.614889e+00 3.963429e+00 3.386691e+00 3.651539e+00 3.531701e+00 3.272484e+00 3.525359e+00 3.578388e+00 3.194116e+00 2.739687e+00 2.420523e+00 2.027461e+00 3.817413e+00
<GCONST> 1.102001e+02
<STATE> 3
<MEAN> 25
 -2.959493e-09 -2.313786e-08 7.264211e-09 -4.080514e-09 6.501917e-08 -5.022171e-09 -7.219370e-09 2.479697e-08 5.739624e-08 9.586965e-08 2.138907e-08 -2.721837e-08 2.841697e-02 2.965606e-03 3.883998e-03 5.395767e-04 1.136024e-03 -1.173908e-02 -1.421193e-02 -1.280373e-02 -1.831957e-02 -1.267222e-02 -1.649122e-02 -1.477355e-02 2.233064e-02
<VARIANCE> 25
 2.119449e+02 9.879247e+01 6.622305e+01 9.393306e+01 5.931681e+01 5.495687e+01 5.539248e+01 5.667927e+01 4.737803e+01 3.584278e+01 3.125154e+01 2.680729e+01 3.614889e+00 3.963429e+00 3.386691e+00 3.651539e+00 3.531701e+00 3.272484e+00 3.525359e+00 3.578388e+00 3.194116e+00 2.739687e+00 2.420523e+00 2.027461e+00 3.817413e+00
<GCONST> 1.102001e+02
<STATE> 4
<MEAN> 25
 -2.959493e-09 -2.313786e-08 7.264211e-09 -4.080514e-09 6.501917e-08 -5.022171e-09 -7.219370e-09 2.479697e-08 5.739624e-08 9.586965e-08 2.138907e-08 -2.721837e-08 2.841697e-02 2.965606e-03 3.883998e-03 5.395767e-04 1.136024e-03 -1.173908e-02 -1.421193e-02 -1.280373e-02 -1.831957e-02 -1.267222e-02 -1.649122e-02 -1.477355e-02 2.233064e-02
<VARIANCE> 25
 2.119449e+02 9.879247e+01 6.622305e+01 9.393306e+01 5.931681e+01 5.495687e+01 5.539248e+01 5.667927e+01 4.737803e+01 3.584278e+01 3.125154e+01 2.680729e+01 3.614889e+00 3.963429e+00 3.386691e+00 3.651539e+00 3.531701e+00 3.272484e+00 3.525359e+00 3.578388e+00 3.194116e+00 2.739687e+00 2.420523e+00 2.027461e+00 3.817413e+00
<GCONST> 1.102001e+02
<TRANSP> 5
 0.000000e+00 1.000000e+00 0.000000e+00 0.000000e+00 0.000000e+00
 0.000000e+00 6.000000e-01 4.000000e-01 0.000000e+00 0.000000e+00
 0.000000e+00 0.000000e+00 6.000000e-01 4.000000e-01 0.000000e+00
 0.000000e+00 0.000000e+00 0.000000e+00 7.000000e-01 3.000000e-01
 0.000000e+00 0.000000e+00 0.000000e+00 0.000000e+00 0.000000e+00
<ENDHMM>
~h "ih"
<BEGINHMM>
<NUMSTATES> 5
<STATE> 2
<MEAN> 25
 -2.959493e-09 -2.313786e-08 7.264211e-09 -4.080514e-09 6.501917e-08 -5.022171e-09 -7.219370e-09 2.479697e-08 5.739624e-08 9.586965e-08 2.138907e-08 -2.721837e-08 2.841697e-02 2.965606e-03 3.883998e-03 5.395767e-04 1.136024e-03 -1.173908e-02 -1.421193e-02 -1.280373e-02 -1.831957e-02 -1.267222e-02 -1.649122e-02 -1.477355e-02 2.233064e-02
<VARIANCE> 25
 2.119449e+02 9.879247e+01 6.622305e+01 9.393306e+01 5.931681e+01 5.495687e+01 5.539248e+01 5.667927e+01 4.737803e+01 3.584278e+01 3.125154e+01 2.680729e+01 3.614889e+00 3.963429e+00 3.386691e+00 3.651539e+00 3.531701e+00 3.272484e+00 3.525359e+00 3.578388e+00 3.194116e+00 2.739687e+00 2.420523e+00 2.027461e+00 3.817413e+00
<GCONST> 1.102001e+02
<STATE> 3
<MEAN> 25
 -2.959493e-09 -2.313786e-08 7.264211e-09 -4.080514e-09 6.501917e-08 -5.022171e-09 -7.219370e-09 2.479697e-08 5.739624e-08 9.586965e-08 2.138907e-08 -2.721837e-08 2.841697e-02 2.965606e-03 3.883998e-03 5.395767e-04 1.136024e-03 -1.173908e-02 -1.421193e-02 -1.280373e-02 -1.831957e-02 -1.267222e-02 -1.649122e-02 -1.477355e-02 2.233064e-02
<VARIANCE> 25
 2.119449e+02 9.879247e+01 6.622305e+01 9.393306e+01 5.931681e+01 5.495687e+01 5.539248e+01 5.667927e+01 4.737803e+01 3.584278e+01 3.125154e+01 2.680729e+01 3.614889e+00 3.963429e+00 3.386691e+00 3.651539e+00 3.531701e+00 3.272484e+00 3.525359e+00 3.578388e+00 3.194116e+00 2.739687e+00 2.420523e+00 2.027461e+00 3.817413e+00
<GCONST> 1.102001e+02
<STATE> 4
<MEAN> 25
 -2.959493e-09 -2.313786e-08 7.264211e-09 -4.080514e-09 6.501917e-08 -5.022171e-09 -7.219370e-09 2.479697e-08 5.739624e-08 9.586965e-08 2.138907e-08 -2.721837e-08 2.841697e-02 2.965606e-03 3.883998e-03 5.395767e-04 1.136024e-03 -1.173908e-02 -1.421193e-02 -1.280373e-02 -1.831957e-02 -1.267222e-02 -1.649122e-02 -1.477355e-02 2.233064e-02
<VARIANCE> 25
 2.119449e+02 9.879247e+01 6.622305e+01 9.393306e+01 5.931681e+01 5.495687e+01 5.539248e+01 5.667927e+01 4.737803e+01 3.584278e+01 3.125154e+01 2.680729e+01 3.614889e+00 3.963429e+00 3.386691e+00 3.651539e+00 3.531701e+00 3.272484e+00 3.525359e+00 3.578388e+00 3.194116e+00 2.739687e+00 2.420523e+00 2.027461e+00 3.817413e+00
<GCONST> 1.102001e+02
<TRANSP> 5
 0.000000e+00 1.000000e+00 0.000000e+00 0.000000e+00 0.000000e+00
 0.000000e+00 6.000000e-01 4.000000e-01 0.000000e+00 0.000000e+00
 0.000000e+00 0.000000e+00 6.000000e-01 4.000000e-01 0.000000e+00
 0.000000e+00 0.000000e+00 0.000000e+00 7.000000e-01 3.000000e-01
 0.000000e+00 0.000000e+00 0.000000e+00 0.000000e+00 0.000000e+00
<ENDHMM>
~h "ey"
<BEGINHMM>
<NUMSTATES> 5
<STATE> 2
<MEAN> 25
 -2.959493e-09 -2.313786e-08 7.264211e-09 -4.080514e-09 6.501917e-08 -5.022171e-09 -7.219370e-09 2.479697e-08 5.739624e-08 9.586965e-08 2.138907e-08 -2.721837e-08 2.841697e-02 2.965606e-03 3.883998e-03 5.395767e-04 1.136024e-03 -1.173908e-02 -1.421193e-02 -1.280373e-02 -1.831957e-02 -1.267222e-02 -1.649122e-02 -1.477355e-02 2.233064e-02
<VARIANCE> 25
 2.119449e+02 9.879247e+01 6.622305e+01 9.393306e+01 5.931681e+01 5.495687e+01 5.539248e+01 5.667927e+01 4.737803e+01 3.584278e+01 3.125154e+01 2.680729e+01 3.614889e+00 3.963429e+00 3.386691e+00 3.651539e+00 3.531701e+00 3.272484e+00 3.525359e+00 3.578388e+00 3.194116e+00 2.739687e+00 2.420523e+00 2.027461e+00 3.817413e+00
<GCONST> 1.102001e+02
<STATE> 3
<MEAN> 25
 -2.959493e-09 -2.313786e-08 7.264211e-09 -4.080514e-09 6.501917e-08 -5.022171e-09 -7.219370e-09 2.479697e-08 5.739624e-08 9.586965e-08 2.138907e-08 -2.721837e-08 2.841697e-02 2.965606e-03 3.883998e-03 5.395767e-04 1.136024e-03 -1.173908e-02 -1.421193e-02 -1.280373e-02 -1.831957e-02 -1.267222e-02 -1.649122e-02 -1.477355e-02 2.233064e-02
<VARIANCE> 25
 2.119449e+02 9.879247e+01 6.622305e+01 9.393306e+01 5.931681e+01 5.495687e+01 5.539248e+01 5.667927e+01 4.737803e+01 3.584278e+01 3.125154e+01 2.680729e+01 3.614889e+00 3.963429e+00 3.386691e+00 3.651539e+00 3.531701e+00 3.272484e+00 3.525359e+00 3.578388e+00 3.194116e+00 2.739687e+00 2.420523e+00 2.027461e+00 3.817413e+00
<GCONST> 1.102001e+02
<STATE> 4
<MEAN> 25
 -2.959493e-09 -2.313786e-08 7.264211e-09 -4.080514e-09 6.501917e-08 -5.022171e-09 -7.219370e-09 2.479697e-08 5.739624e-08 9.586965e-08 2.138907e-08 -2.721837e-08 2.841697e-02 2.965606e-03 3.883998e-03 5.395767e-04 1.136024e-03 -1.173908e-02 -1.421193e-02 -1.280373e-02 -1.831957e-02 -1.267222e-02 -1.649122e-02 -1.477355e-02 2.233064e-02
<VARIANCE> 25
 2.119449e+02 9.879247e+01 6.622305e+01 9.393306e+01 5.931681e+01 5.495687e+01 5.539248e+01 5.667927e+01 4.737803e+01 3.584278e+01 3.125154e+01 2.680729e+01 3.614889e+00 3.963429e+00 3.386691e+00 3.651539e+00 3.531701e+00 3.272484e+00 3.525359e+00 3.578388e+00 3.194116e+00 2.739687e+00 2.420523e+00 2.027461e+00 3.817413e+00
<GCONST> 1.102001e+02
<TRANSP> 5
 0.000000e+00 1.000000e+00 0.000000e+00 0.000000e+00 0.000000e+00
 0.000000e+00 6.000000e-01 4.000000e-01 0.000000e+00 0.000000e+00
 0.000000e+00 0.000000e+00 6.000000e-01 4.000000e-01 0.000000e+00
 0.000000e+00 0.000000e+00 0.000000e+00 7.000000e-01 3.000000e-01
 0.000000e+00 0.000000e+00 0.000000e+00 0.000000e+00 0.000000e+00
<ENDHMM>
~h "f"
<BEGINHMM>
<NUMSTATES> 5
<STATE> 2
<MEAN> 25
 -2.959493e-09 -2.313786e-08 7.264211e-09 -4.080514e-09 6.501917e-08 -5.022171e-09 -7.219370e-09 2.479697e-08 5.739624e-08 9.586965e-08 2.138907e-08 -2.721837e-08 2.841697e-02 2.965606e-03 3.883998e-03 5.395767e-04 1.136024e-03 -1.173908e-02 -1.421193e-02 -1.280373e-02 -1.831957e-02 -1.267222e-02 -1.649122e-02 -1.477355e-02 2.233064e-02
<VARIANCE> 25
 2.119449e+02 9.879247e+01 6.622305e+01 9.393306e+01 5.931681e+01 5.495687e+01 5.539248e+01 5.667927e+01 4.737803e+01 3.584278e+01 3.125154e+01 2.680729e+01 3.614889e+00 3.963429e+00 3.386691e+00 3.651539e+00 3.531701e+00 3.272484e+00 3.525359e+00 3.578388e+00 3.194116e+00 2.739687e+00 2.420523e+00 2.027461e+00 3.817413e+00
<GCONST> 1.102001e+02
<STATE> 3
<MEAN> 25
 -2.959493e-09 -2.313786e-08 7.264211e-09 -4.080514e-09 6.501917e-08 -5.022171e-09 -7.219370e-09 2.479697e-08 5.739624e-08 9.586965e-08 2.138907e-08 -2.721837e-08 2.841697e-02 2.965606e-03 3.883998e-03 5.395767e-04 1.136024e-03 -1.173908e-02 -1.421193e-02 -1.280373e-02 -1.831957e-02 -1.267222e-02 -1.649122e-02 -1.477355e-02 2.233064e-02
<VARIANCE> 25
 2.119449e+02 9.879247e+01 6.622305e+01 9.393306e+01 5.931681e+01 5.495687e+01 5.539248e+01 5.667927e+01 4.737803e+01 3.584278e+01 3.125154e+01 2.680729e+01 3.614889e+00 3.963429e+00 3.386691e+00 3.651539e+00 3.531701e+00 3.272484e+00 3.525359e+00 3.578388e+00 3.194116e+00 2.739687e+00 2.420523e+00 2.027461e+00 3.817413e+00
<GCONST> 1.102001e+02
<STATE> 4
<MEAN> 25
 -2.959493e-09 -2.313786e-08 7.264211e-09 -4.080514e-09 6.501917e-08 -5.022171e-09 -7.219370e-09 2.479697e-08 5.739624e-08 9.586965e-08 2.138907e-08 -2.721837e-08 2.841697e-02 2.965606e-03 3.883998e-03 5.395767e-04 1.136024e-03 -1.173908e-02 -1.421193e-02 -1.280373e-02 -1.831957e-02 -1.267222e-02 -1.649122e-02 -1.477355e-02 2.233064e-02
<VARIANCE> 25
 2.119449e+02 9.879247e+01 6.622305e+01 9.393306e+01 5.931681e+01 5.495687e+01 5.539248e+01 5.667927e+01 4.737803e+01 3.584278e+01 3.125154e+01 2.680729e+01 3.614889e+00 3.963429e+00 3.386691e+00 3.651539e+00 3.531701e+00 3.272484e+00 3.525359e+00 3.578388e+00 3.194116e+00 2.739687e+00 2.420523e+00 2.027461e+00 3.817413e+00
<GCONST> 1.102001e+02
<TRANSP> 5
 0.000000e+00 1.000000e+00 0.000000e+00 0.000000e+00 0.000000e+00
 0.000000e+00 6.000000e-01 4.000000e-01 0.000000e+00 0.000000e+00
 0.000000e+00 0.000000e+00 6.000000e-01 4.000000e-01 0.000000e+00
 0.000000e+00 0.000000e+00 0.000000e+00 7.000000e-01 3.000000e-01
 0.000000e+00 0.000000e+00 0.000000e+00 0.000000e+00 0.000000e+00
<ENDHMM>
~h "g"
<BEGINHMM>
<NUMSTATES> 5
<STATE> 2
<MEAN> 25
 -2.959493e-09 -2.313786e-08 7.264211e-09 -4.080514e-09 6.501917e-08 -5.022171e-09 -7.219370e-09 2.479697e-08 5.739624e-08 9.586965e-08 2.138907e-08 -2.721837e-08 2.841697e-02 2.965606e-03 3.883998e-03 5.395767e-04 1.136024e-03 -1.173908e-02 -1.421193e-02 -1.280373e-02 -1.831957e-02 -1.267222e-02 -1.649122e-02 -1.477355e-02 2.233064e-02
<VARIANCE> 25
 2.119449e+02 9.879247e+01 6.622305e+01 9.393306e+01 5.931681e+01 5.495687e+01 5.539248e+01 5.667927e+01 4.737803e+01 3.584278e+01 3.125154e+01 2.680729e+01 3.614889e+00 3.963429e+00 3.386691e+00 3.651539e+00 3.531701e+00 3.272484e+00 3.525359e+00 3.578388e+00 3.194116e+00 2.739687e+00 2.420523e+00 2.027461e+00 3.817413e+00
<GCONST> 1.102001e+02
<STATE> 3
<MEAN> 25
 -2.959493e-09 -2.313786e-08 7.264211e-09 -4.080514e-09 6.501917e-08 -5.022171e-09 -7.219370e-09 2.479697e-08 5.739624e-08 9.586965e-08 2.138907e-08 -2.721837e-08 2.841697e-02 2.965606e-03 3.883998e-03 5.395767e-04 1.136024e-03 -1.173908e-02 -1.421193e-02 -1.280373e-02 -1.831957e-02 -1.267222e-02 -1.649122e-02 -1.477355e-02 2.233064e-02
<VARIANCE> 25
 2.119449e+02 9.879247e+01 6.622305e+01 9.393306e+01 5.931681e+01 5.495687e+01 5.539248e+01 5.667927e+01 4.737803e+01 3.584278e+01 3.125154e+01 2.680729e+01 3.614889e+00 3.963429e+00 3.386691e+00 3.651539e+00 3.531701e+00 3.272484e+00 3.525359e+00 3.578388e+00 3.194116e+00 2.739687e+00 2.420523e+00 2.027461e+00 3.817413e+00
<GCONST> 1.102001e+02
<STATE> 4
<MEAN> 25
 -2.959493e-09 -2.313786e-08 7.264211e-09 -4.080514e-09 6.501917e-08 -5.022171e-09 -7.219370e-09 2.479697e-08 5.739624e-08 9.586965e-08 2.138907e-08 -2.721837e-08 2.841697e-02 2.965606e-03 3.883998e-03 5.395767e-04 1.136024e-03 -1.173908e-02 -1.421193e-02 -1.280373e-02 -1.831957e-02 -1.267222e-02 -1.649122e-02 -1.477355e-02 2.233064e-02
<VARIANCE> 25
 2.119449e+02 9.879247e+01 6.622305e+01 9.393306e+01 5.931681e+01 5.495687e+01 5.539248e+01 5.667927e+01 4.737803e+01 3.584278e+01 3.125154e+01 2.680729e+01 3.614889e+00 3.963429e+00 3.386691e+00 3.651539e+00 3.531701e+00 3.272484e+00 3.525359e+00 3.578388e+00 3.194116e+00 2.739687e+00 2.420523e+00 2.027461e+00 3.817413e+00
<GCONST> 1.102001e+02
<TRANSP> 5
 0.000000e+00 1.000000e+00 0.000000e+00 0.000000e+00 0.000000e+00
 0.000000e+00 6.000000e-01 4.000000e-01 0.000000e+00 0.000000e+00
 0.000000e+00 0.000000e+00 6.000000e-01 4.000000e-01 0.000000e+00
 0.000000e+00 0.000000e+00 0.000000e+00 7.000000e-01 3.000000e-01
 0.000000e+00 0.000000e+00 0.000000e+00 0.000000e+00 0.000000e+00
<ENDHMM>
~h "iy"
<BEGINHMM>
<NUMSTATES> 5
<STATE> 2
<MEAN> 25
 -2.959493e-09 -2.313786e-08 7.264211e-09 -4.080514e-09 6.501917e-08 -5.022171e-09 -7.219370e-09 2.479697e-08 5.739624e-08 9.586965e-08 2.138907e-08 -2.721837e-08 2.841697e-02 2.965606e-03 3.883998e-03 5.395767e-04 1.136024e-03 -1.173908e-02 -1.421193e-02 -1.280373e-02 -1.831957e-02 -1.267222e-02 -1.649122e-02 -1.477355e-02 2.233064e-02
<VARIANCE> 25
 2.119449e+02 9.879247e+01 6.622305e+01 9.393306e+01 5.931681e+01 5.495687e+01 5.539248e+01 5.667927e+01 4.737803e+01 3.584278e+01 3.125154e+01 2.680729e+01 3.614889e+00 3.963429e+00 3.386691e+00 3.651539e+00 3.531701e+00 3.272484e+00 3.525359e+00 3.578388e+00 3.194116e+00 2.739687e+00 2.420523e+00 2.027461e+00 3.817413e+00
<GCONST> 1.102001e+02
<STATE> 3
<MEAN> 25
 -2.959493e-09 -2.313786e-08 7.264211e-09 -4.080514e-09 6.501917e-08 -5.022171e-09 -7.219370e-09 2.479697e-08 5.739624e-08 9.586965e-08 2.138907e-08 -2.721837e-08 2.841697e-02 2.965606e-03 3.883998e-03 5.395767e-04 1.136024e-03 -1.173908e-02 -1.421193e-02 -1.280373e-02 -1.831957e-02 -1.267222e-02 -1.649122e-02 -1.477355e-02 2.233064e-02
<VARIANCE> 25
 2.119449e+02 9.879247e+01 6.622305e+01 9.393306e+01 5.931681e+01 5.495687e+01 5.539248e+01 5.667927e+01 4.737803e+01 3.584278e+01 3.125154e+01 2.680729e+01 3.614889e+00 3.963429e+00 3.386691e+00 3.651539e+00 3.531701e+00 3.272484e+00 3.525359e+00 3.578388e+00 3.194116e+00 2.739687e+00 2.420523e+00 2.027461e+00 3.817413e+00
<GCONST> 1.102001e+02
<STATE> 4
<MEAN> 25
 -2.959493e-09 -2.313786e-08 7.264211e-09 -4.080514e-09 6.501917e-08 -5.022171e-09 -7.219370e-09 2.479697e-08 5.739624e-08 9.586965e-08 2.138907e-08 -2.721837e-08 2.841697e-02 2.965606e-03 3.883998e-03 5.395767e-04 1.136024e-03 -1.173908e-02 -1.421193e-02 -1.280373e-02 -1.831957e-02 -1.267222e-02 -1.649122e-02 -1.477355e-02 2.233064e-02
<VARIANCE> 25
 2.119449e+02 9.879247e+01 6.622305e+01 9.393306e+01 5.931681e+01 5.495687e+01 5.539248e+01 5.667927e+01 4.737803e+01 3.584278e+01 3.125154e+01 2.680729e+01 3.614889e+00 3.963429e+00 3.386691e+00 3.651539e+00 3.531701e+00 3.272484e+00 3.525359e+00 3.578388e+00 3.194116e+00 2.739687e+00 2.420523e+00 2.027461e+00 3.817413e+00
<GCONST> 1.102001e+02
<TRANSP> 5
 0.000000e+00 1.000000e+00 0.000000e+00 0.000000e+00 0.000000e+00
 0.000000e+00 6.000000e-01 4.000000e-01 0.000000e+00 0.000000e+00
 0.000000e+00 0.000000e+00 6.000000e-01 4.000000e-01 0.000000e+00
 0.000000e+00 0.000000e+00 0.000000e+00 7.000000e-01 3.000000e-01
 0.000000e+00 0.000000e+00 0.000000e+00 0.000000e+00 0.000000e+00
<ENDHMM>
~h "n"
<BEGINHMM>
<NUMSTATES> 5
<STATE> 2
<MEAN> 25
 -2.959493e-09 -2.313786e-08 7.264211e-09 -4.080514e-09 6.501917e-08 -5.022171e-09 -7.219370e-09 2.479697e-08 5.739624e-08 9.586965e-08 2.138907e-08 -2.721837e-08 2.841697e-02 2.965606e-03 3.883998e-03 5.395767e-04 1.136024e-03 -1.173908e-02 -1.421193e-02 -1.280373e-02 -1.831957e-02 -1.267222e-02 -1.649122e-02 -1.477355e-02 2.233064e-02
<VARIANCE> 25
 2.119449e+02 9.879247e+01 6.622305e+01 9.393306e+01 5.931681e+01 5.495687e+01 5.539248e+01 5.667927e+01 4.737803e+01 3.584278e+01 3.125154e+01 2.680729e+01 3.614889e+00 3.963429e+00 3.386691e+00 3.651539e+00 3.531701e+00 3.272484e+00 3.525359e+00 3.578388e+00 3.194116e+00 2.739687e+00 2.420523e+00 2.027461e+00 3.817413e+00
<GCONST> 1.102001e+02
<STATE> 3
<MEAN> 25
 -2.959493e-09 -2.313786e-08 7.264211e-09 -4.080514e-09 6.501917e-08 -5.022171e-09 -7.219370e-09 2.479697e-08 5.739624e-08 9.586965e-08 2.138907e-08 -2.721837e-08 2.841697e-02 2.965606e-03 3.883998e-03 5.395767e-04 1.136024e-03 -1.173908e-02 -1.421193e-02 -1.280373e-02 -1.831957e-02 -1.267222e-02 -1.649122e-02 -1.477355e-02 2.233064e-02
<VARIANCE> 25
 2.119449e+02 9.879247e+01 6.622305e+01 9.393306e+01 5.931681e+01 5.495687e+01 5.539248e+01 5.667927e+01 4.737803e+01 3.584278e+01 3.125154e+01 2.680729e+01 3.614889e+00 3.963429e+00 3.386691e+00 3.651539e+00 3.531701e+00 3.272484e+00 3.525359e+00 3.578388e+00 3.194116e+00 2.739687e+00 2.420523e+00 2.027461e+00 3.817413e+00
<GCONST> 1.102001e+02
<STATE> 4
<MEAN> 25
 -2.959493e-09 -2.313786e-08 7.264211e-09 -4.080514e-09 6.501917e-08 -5.022171e-09 -7.219370e-09 2.479697e-08 5.739624e-08 9.586965e-08 2.138907e-08 -2.721837e-08 2.841697e-02 2.965606e-03 3.883998e-03 5.395767e-04 1.136024e-03 -1.173908e-02 -1.421193e-02 -1.280373e-02 -1.831957e-02 -1.267222e-02 -1.649122e-02 -1.477355e-02 2.233064e-02
<VARIANCE> 25
 2.119449e+02 9.879247e+01 6.622305e+01 9.393306e+01 5.931681e+01 5.495687e+01 5.539248e+01 5.667927e+01 4.737803e+01 3.584278e+01 3.125154e+01 2.680729e+01 3.614889e+00 3.963429e+00 3.386691e+00 3.651539e+00 3.531701e+00 3.272484e+00 3.525359e+00 3.578388e+00 3.194116e+00 2.739687e+00 2.420523e+00 2.027461e+00 3.817413e+00
<GCONST> 1.102001e+02
<TRANSP> 5
 0.000000e+00 1.000000e+00 0.000000e+00 0.000000e+00 0.000000e+00
 0.000000e+00 6.000000e-01 4.000000e-01 0.000000e+00 0.000000e+00
 0.000000e+00 0.000000e+00 6.000000e-01 4.000000e-01 0.000000e+00
 0.000000e+00 0.000000e+00 0.000000e+00 7.000000e-01 3.000000e-01
 0.000000e+00 0.000000e+00 0.000000e+00 0.000000e+00 0.000000e+00
<ENDHMM>
~h "w"
<BEGINHMM>
<NUMSTATES> 5
<STATE> 2
<MEAN> 25
 -2.959493e-09 -2.313786e-08 7.264211e-09 -4.080514e-09 6.501917e-08 -5.022171e-09 -7.219370e-09 2.479697e-08 5.739624e-08 9.586965e-08 2.138907e-08 -2.721837e-08 2.841697e-02 2.965606e-03 3.883998e-03 5.395767e-04 1.136024e-03 -1.173908e-02 -1.421193e-02 -1.280373e-02 -1.831957e-02 -1.267222e-02 -1.649122e-02 -1.477355e-02 2.233064e-02
<VARIANCE> 25
 2.119449e+02 9.879247e+01 6.622305e+01 9.393306e+01 5.931681e+01 5.495687e+01 5.539248e+01 5.667927e+01 4.737803e+01 3.584278e+01 3.125154e+01 2.680729e+01 3.614889e+00 3.963429e+00 3.386691e+00 3.651539e+00 3.531701e+00 3.272484e+00 3.525359e+00 3.578388e+00 3.194116e+00 2.739687e+00 2.420523e+00 2.027461e+00 3.817413e+00
<GCONST> 1.102001e+02
<STATE> 3
<MEAN> 25
 -2.959493e-09 -2.313786e-08 7.264211e-09 -4.080514e-09 6.501917e-08 -5.022171e-09 -7.219370e-09 2.479697e-08 5.739624e-08 9.586965e-08 2.138907e-08 -2.721837e-08 2.841697e-02 2.965606e-03 3.883998e-03 5.395767e-04 1.136024e-03 -1.173908e-02 -1.421193e-02 -1.280373e-02 -1.831957e-02 -1.267222e-02 -1.649122e-02 -1.477355e-02 2.233064e-02
<VARIANCE> 25
 2.119449e+02 9.879247e+01 6.622305e+01 9.393306e+01 5.931681e+01 5.495687e+01 5.539248e+01 5.667927e+01 4.737803e+01 3.584278e+01 3.125154e+01 2.680729e+01 3.614889e+00 3.963429e+00 3.386691e+00 3.651539e+00 3.531701e+00 3.272484e+00 3.525359e+00 3.578388e+00 3.194116e+00 2.739687e+00 2.420523e+00 2.027461e+00 3.817413e+00
<GCONST> 1.102001e+02
<STATE> 4
<MEAN> 25
 -2.959493e-09 -2.313786e-08 7.264211e-09 -4.080514e-09 6.501917e-08 -5.022171e-09 -7.219370e-09 2.479697e-08 5.739624e-08 9.586965e-08 2.138907e-08 -2.721837e-08 2.841697e-02 2.965606e-03 3.883998e-03 5.395767e-04 1.136024e-03 -1.173908e-02 -1.421193e-02 -1.280373e-02 -1.831957e-02 -1.267222e-02 -1.649122e-02 -1.477355e-02 2.233064e-02
<VARIANCE> 25
 2.119449e+02 9.879247e+01 6.622305e+01 9.393306e+01 5.931681e+01 5.495687e+01 5.539248e+01 5.667927e+01 4.737803e+01 3.584278e+01 3.125154e+01 2.680729e+01 3.614889e+00 3.963429e+00 3.386691e+00 3.651539e+00 3.531701e+00 3.272484e+00 3.525359e+00 3.578388e+00 3.194116e+00 2.739687e+00 2.420523e+00 2.027461e+00 3.817413e+00
<GCONST> 1.102001e+02
<TRANSP> 5
 0.000000e+00 1.000000e+00 0.000000e+00 0.000000e+00 0.000000e+00
 0.000000e+00 6.000000e-01 4.000000e-01 0.000000e+00 0.000000e+00
 0.000000e+00 0.000000e+00 6.000000e-01 4.000000e-01 0.000000e+00
 0.000000e+00 0.000000e+00 0.000000e+00 7.000000e-01 3.000000e-01
 0.000000e+00 0.000000e+00 0.000000e+00 0.000000e+00 0.000000e+00
<ENDHMM>
~h "aw"
<BEGINHMM>
<NUMSTATES> 5
<STATE> 2
<MEAN> 25
 -2.959493e-09 -2.313786e-08 7.264211e-09 -4.080514e-09 6.501917e-08 -5.022171e-09 -7.219370e-09 2.479697e-08 5.739624e-08 9.586965e-08 2.138907e-08 -2.721837e-08 2.841697e-02 2.965606e-03 3.883998e-03 5.395767e-04 1.136024e-03 -1.173908e-02 -1.421193e-02 -1.280373e-02 -1.831957e-02 -1.267222e-02 -1.649122e-02 -1.477355e-02 2.233064e-02
<VARIANCE> 25
 2.119449e+02 9.879247e+01 6.622305e+01 9.393306e+01 5.931681e+01 5.495687e+01 5.539248e+01 5.667927e+01 4.737803e+01 3.584278e+01 3.125154e+01 2.680729e+01 3.614889e+00 3.963429e+00 3.386691e+00 3.651539e+00 3.531701e+00 3.272484e+00 3.525359e+00 3.578388e+00 3.194116e+00 2.739687e+00 2.420523e+00 2.027461e+00 3.817413e+00
<GCONST> 1.102001e+02
<STATE> 3
<MEAN> 25
 -2.959493e-09 -2.313786e-08 7.264211e-09 -4.080514e-09 6.501917e-08 -5.022171e-09 -7.219370e-09 2.479697e-08 5.739624e-08 9.586965e-08 2.138907e-08 -2.721837e-08 2.841697e-02 2.965606e-03 3.883998e-03 5.395767e-04 1.136024e-03 -1.173908e-02 -1.421193e-02 -1.280373e-02 -1.831957e-02 -1.267222e-02 -1.649122e-02 -1.477355e-02 2.233064e-02
<VARIANCE> 25
 2.119449e+02 9.879247e+01 6.622305e+01 9.393306e+01 5.931681e+01 5.495687e+01 5.539248e+01 5.667927e+01 4.737803e+01 3.584278e+01 3.125154e+01 2.680729e+01 3.614889e+00 3.963429e+00 3.386691e+00 3.651539e+00 3.531701e+00 3.272484e+00 3.525359e+00 3.578388e+00 3.194116e+00 2.739687e+00 2.420523e+00 2.027461e+00 3.817413e+00
<GCONST> 1.102001e+02
<STATE> 4
<MEAN> 25
 -2.959493e-09 -2.313786e-08 7.264211e-09 -4.080514e-09 6.501917e-08 -5.022171e-09 -7.219370e-09 2.479697e-08 5.739624e-08 9.586965e-08 2.138907e-08 -2.721837e-08 2.841697e-02 2.965606e-03 3.883998e-03 5.395767e-04 1.136024e-03 -1.173908e-02 -1.421193e-02 -1.280373e-02 -1.831957e-02 -1.267222e-02 -1.649122e-02 -1.477355e-02 2.233064e-02
<VARIANCE> 25
 2.119449e+02 9.879247e+01 6.622305e+01 9.393306e+01 5.931681e+01 5.495687e+01 5.539248e+01 5.667927e+01 4.737803e+01 3.584278e+01 3.125154e+01 2.680729e+01 3.614889e+00 3.963429e+00 3.386691e+00 3.651539e+00 3.531701e+00 3.272484e+00 3.525359e+00 3.578388e+00 3.194116e+00 2.739687e+00 2.420523e+00 2.027461e+00 3.817413e+00
<GCONST> 1.102001e+02
<TRANSP> 5
 0.000000e+00 1.000000e+00 0.000000e+00 0.000000e+00 0.000000e+00
 0.000000e+00 6.000000e-01 4.000000e-01 0.000000e+00 0.000000e+00
 0.000000e+00 0.000000e+00 6.000000e-01 4.000000e-01 0.000000e+00
 0.000000e+00 0.000000e+00 0.000000e+00 7.000000e-01 3.000000e-01
 0.000000e+00 0.000000e+00 0.000000e+00 0.000000e+00 0.000000e+00
<ENDHMM>
~h "t"
<BEGINHMM>
<NUMSTATES> 5
<STATE> 2
<MEAN> 25
 -2.959493e-09 -2.313786e-08 7.264211e-09 -4.080514e-09 6.501917e-08 -5.022171e-09 -7.219370e-09 2.479697e-08 5.739624e-08 9.586965e-08 2.138907e-08 -2.721837e-08 2.841697e-02 2.965606e-03 3.883998e-03 5.395767e-04 1.136024e-03 -1.173908e-02 -1.421193e-02 -1.280373e-02 -1.831957e-02 -1.267222e-02 -1.649122e-02 -1.477355e-02 2.233064e-02
<VARIANCE> 25
 2.119449e+02 9.879247e+01 6.622305e+01 9.393306e+01 5.931681e+01 5.495687e+01 5.539248e+01 5.667927e+01 4.737803e+01 3.584278e+01 3.125154e+01 2.680729e+01 3.614889e+00 3.963429e+00 3.386691e+00 3.651539e+00 3.531701e+00 3.272484e+00 3.525359e+00 3.578388e+00 3.194116e+00 2.739687e+00 2.420523e+00 2.027461e+00 3.817413e+00
<GCONST> 1.102001e+02
<STATE> 3
<MEAN> 25
 -2.959493e-09 -2.313786e-08 7.264211e-09 -4.080514e-09 6.501917e-08 -5.022171e-09 -7.219370e-09 2.479697e-08 5.739624e-08 9.586965e-08 2.138907e-08 -2.721837e-08 2.841697e-02 2.965606e-03 3.883998e-03 5.395767e-04 1.136024e-03 -1.173908e-02 -1.421193e-02 -1.280373e-02 -1.831957e-02 -1.267222e-02 -1.649122e-02 -1.477355e-02 2.233064e-02
<VARIANCE> 25
 2.119449e+02 9.879247e+01 6.622305e+01 9.393306e+01 5.931681e+01 5.495687e+01 5.539248e+01 5.667927e+01 4.737803e+01 3.584278e+01 3.125154e+01 2.680729e+01 3.614889e+00 3.963429e+00 3.386691e+00 3.651539e+00 3.531701e+00 3.272484e+00 3.525359e+00 3.578388e+00 3.194116e+00 2.739687e+00 2.420523e+00 2.027461e+00 3.817413e+00
<GCONST> 1.102001e+02
<STATE> 4
<MEAN> 25
 -2.959493e-09 -2.313786e-08 7.264211e-09 -4.080514e-09 6.501917e-08 -5.022171e-09 -7.219370e-09 2.479697e-08 5.739624e-08 9.586965e-08 2.138907e-08 -2.721837e-08 2.841697e-02 2.965606e-03 3.883998e-03 5.395767e-04 1.136024e-03 -1.173908e-02 -1.421193e-02 -1.280373e-02 -1.831957e-02 -1.267222e-02 -1.649122e-02 -1.477355e-02 2.233064e-02
<VARIANCE> 25
 2.119449e+02 9.879247e+01 6.622305e+01 9.393306e+01 5.931681e+01 5.495687e+01 5.539248e+01 5.667927e+01 4.737803e+01 3.584278e+01 3.125154e+01 2.680729e+01 3.614889e+00 3.963429e+00 3.386691e+00 3.651539e+00 3.531701e+00 3.272484e+00 3.525359e+00 3.578388e+00 3.194116e+00 2.739687e+00 2.420523e+00 2.027461e+00 3.817413e+00
<GCONST> 1.102001e+02
<TRANSP> 5
 0.000000e+00 1.000000e+00 0.000000e+00 0.000000e+00 0.000000e+00
 0.000000e+00 6.000000e-01 4.000000e-01 0.000000e+00 0.000000e+00
 0.000000e+00 0.000000e+00 6.000000e-01 4.000000e-01 0.000000e+00
 0.000000e+00 0.000000e+00 0.000000e+00 7.000000e-01 3.000000e-01
 0.000000e+00 0.000000e+00 0.000000e+00 0.000000e+00 0.000000e+00
<ENDHMM>
~h "eh"
<BEGINHMM>
<NUMSTATES> 5
<STATE> 2
<MEAN> 25
 -2.959493e-09 -2.313786e-08 7.264211e-09 -4.080514e-09 6.501917e-08 -5.022171e-09 -7.219370e-09 2.479697e-08 5.739624e-08 9.586965e-08 2.138907e-08 -2.721837e-08 2.841697e-02 2.965606e-03 3.883998e-03 5.395767e-04 1.136024e-03 -1.173908e-02 -1.421193e-02 -1.280373e-02 -1.831957e-02 -1.267222e-02 -1.649122e-02 -1.477355e-02 2.233064e-02
<VARIANCE> 25
 2.119449e+02 9.879247e+01 6.622305e+01 9.393306e+01 5.931681e+01 5.495687e+01 5.539248e+01 5.667927e+01 4.737803e+01 3.584278e+01 3.125154e+01 2.680729e+01 3.614889e+00 3.963429e+00 3.386691e+00 3.651539e+00 3.531701e+00 3.272484e+00 3.525359e+00 3.578388e+00 3.194116e+00 2.739687e+00 2.420523e+00 2.027461e+00 3.817413e+00
<GCONST> 1.102001e+02
<STATE> 3
<MEAN> 25
 -2.959493e-09 -2.313786e-08 7.264211e-09 -4.080514e-09 6.501917e-08 -5.022171e-09 -7.219370e-09 2.479697e-08 5.739624e-08 9.586965e-08 2.138907e-08 -2.721837e-08 2.841697e-02 2.965606e-03 3.883998e-03 5.395767e-04 1.136024e-03 -1.173908e-02 -1.421193e-02 -1.280373e-02 -1.831957e-02 -1.267222e-02 -1.649122e-02 -1.477355e-02 2.233064e-02
<VARIANCE> 25
 2.119449e+02 9.879247e+01 6.622305e+01 9.393306e+01 5.931681e+01 5.495687e+01 5.539248e+01 5.667927e+01 4.737803e+01 3.584278e+01 3.125154e+01 2.680729e+01 3.614889e+00 3.963429e+00 3.386691e+00 3.651539e+00 3.531701e+00 3.272484e+00 3.525359e+00 3.578388e+00 3.194116e+00 2.739687e+00 2.420523e+00 2.027461e+00 3.817413e+00
<GCONST> 1.102001e+02
<STATE> 4
<MEAN> 25
 -2.959493e-09 -2.313786e-08 7.264211e-09 -4.080514e-09 6.501917e-08 -5.022171e-09 -7.219370e-09 2.479697e-08 5.739624e-08 9.586965e-08 2.138907e-08 -2.721837e-08 2.841697e-02 2.965606e-03 3.883998e-03 5.395767e-04 1.136024e-03 -1.173908e-02 -1.421193e-02 -1.280373e-02 -1.831957e-02 -1.267222e-02 -1.649122e-02 -1.477355e-02 2.233064e-02
<VARIANCE> 25
 2.119449e+02 9.879247e+01 6.622305e+01 9.393306e+01 5.931681e+01 5.495687e+01 5.539248e+01 5.667927e+01 4.737803e+01 3.584278e+01 3.125154e+01 2.680729e+01 3.614889e+00 3.963429e+00 3.386691e+00 3.651539e+00 3.531701e+00 3.272484e+00 3.525359e+00 3.578388e+00 3.194116e+00 2.739687e+00 2.420523e+00 2.027461e+00 3.817413e+00
<GCONST> 1.102001e+02
<TRANSP> 5
 0.000000e+00 1.000000e+00 0.000000e+00 0.000000e+00 0.000000e+00
 0.000000e+00 6.000000e-01 4.000000e-01 0.000000e+00 0.000000e+00
 0.000000e+00 0.000000e+00 6.000000e-01 4.000000e-01 0.000000e+00
 0.000000e+00 0.000000e+00 0.000000e+00 7.000000e-01 3.000000e-01
 0.000000e+00 0.000000e+00 0.000000e+00 0.000000e+00 0.000000e+00
<ENDHMM>
~h "sil"
<BEGINHMM>
<NUMSTATES> 5
<STATE> 2
<MEAN> 25
 -2.959493e-09 -2.313786e-08 7.264211e-09 -4.080514e-09 6.501917e-08 -5.022171e-09 -7.219370e-09 2.479697e-08 5.739624e-08 9.586965e-08 2.138907e-08 -2.721837e-08 2.841697e-02 2.965606e-03 3.883998e-03 5.395767e-04 1.136024e-03 -1.173908e-02 -1.421193e-02 -1.280373e-02 -1.831957e-02 -1.267222e-02 -1.649122e-02 -1.477355e-02 2.233064e-02
<VARIANCE> 25
 2.119449e+02 9.879247e+01 6.622305e+01 9.393306e+01 5.931681e+01 5.495687e+01 5.539248e+01 5.667927e+01 4.737803e+01 3.584278e+01 3.125154e+01 2.680729e+01 3.614889e+00 3.963429e+00 3.386691e+00 3.651539e+00 3.531701e+00 3.272484e+00 3.525359e+00 3.578388e+00 3.194116e+00 2.739687e+00 2.420523e+00 2.027461e+00 3.817413e+00
<GCONST> 1.102001e+02
<STATE> 3
<MEAN> 25
 -2.959493e-09 -2.313786e-08 7.264211e-09 -4.080514e-09 6.501917e-08 -5.022171e-09 -7.219370e-09 2.479697e-08 5.739624e-08 9.586965e-08 2.138907e-08 -2.721837e-08 2.841697e-02 2.965606e-03 3.883998e-03 5.395767e-04 1.136024e-03 -1.173908e-02 -1.421193e-02 -1.280373e-02 -1.831957e-02 -1.267222e-02 -1.649122e-02 -1.477355e-02 2.233064e-02
<VARIANCE> 25
 2.119449e+02 9.879247e+01 6.622305e+01 9.393306e+01 5.931681e+01 5.495687e+01 5.539248e+01 5.667927e+01 4.737803e+01 3.584278e+01 3.125154e+01 2.680729e+01 3.614889e+00 3.963429e+00 3.386691e+00 3.651539e+00 3.531701e+00 3.272484e+00 3.525359e+00 3.578388e+00 3.194116e+00 2.739687e+00 2.420523e+00 2.027461e+00 3.817413e+00
<GCONST> 1.102001e+02
<STATE> 4
<MEAN> 25
 -2.959493e-09 -2.313786e-08 7.264211e-09 -4.080514e-09 6.501917e-08 -5.022171e-09 -7.219370e-09 2.479697e-08 5.739624e-08 9.586965e-08 2.138907e-08 -2.721837e-08 2.841697e-02 2.965606e-03 3.883998e-03 5.395767e-04 1.136024e-03 -1.173908e-02 -1.421193e-02 -1.280373e-02 -1.831957e-02 -1.267222e-02 -1.649122e-02 -1.477355e-02 2.233064e-02
<VARIANCE> 25
 2.119449e+02 9.879247e+01 6.622305e+01 9.393306e+01 5.931681e+01 5.495687e+01 5.539248e+01 5.667927e+01 4.737803e+01 3.584278e+01 3.125154e+01 2.680729e+01 3.614889e+00 3.963429e+00 3.386691e+00 3.651539e+00 3.531701e+00 3.272484e+00 3.525359e+00 3.578388e+00 3.194116e+00 2.739687e+00 2.420523e+00 2.027461e+00 3.817413e+00
<GCONST> 1.102001e+02
<TRANSP> 5
 0.000000e+00 1.000000e+00 0.000000e+00 0.000000e+00 0.000000e+00
 0.000000e+00 6.000000e-01 4.000000e-01 0.000000e+00 0.000000e+00
 0.000000e+00 0.000000e+00 6.000000e-01 4.000000e-01 0.000000e+00
 0.000000e+00 0.000000e+00 0.000000e+00 7.000000e-01 3.000000e-01
 0.000000e+00 0.000000e+00 0.000000e+00 0.000000e+00 0.000000e+00
<ENDHMM>
~h "th"
<BEGINHMM>
<NUMSTATES> 5
<STATE> 2
<MEAN> 25
 -2.959493e-09 -2.313786e-08 7.264211e-09 -4.080514e-09 6.501917e-08 -5.022171e-09 -7.219370e-09 2.479697e-08 5.739624e-08 9.586965e-08 2.138907e-08 -2.721837e-08 2.841697e-02 2.965606e-03 3.883998e-03 5.395767e-04 1.136024e-03 -1.173908e-02 -1.421193e-02 -1.280373e-02 -1.831957e-02 -1.267222e-02 -1.649122e-02 -1.477355e-02 2.233064e-02
<VARIANCE> 25
 2.119449e+02 9.879247e+01 6.622305e+01 9.393306e+01 5.931681e+01 5.495687e+01 5.539248e+01 5.667927e+01 4.737803e+01 3.584278e+01 3.125154e+01 2.680729e+01 3.614889e+00 3.963429e+00 3.386691e+00 3.651539e+00 3.531701e+00 3.272484e+00 3.525359e+00 3.578388e+00 3.194116e+00 2.739687e+00 2.420523e+00 2.027461e+00 3.817413e+00
<GCONST> 1.102001e+02
<STATE> 3
<MEAN> 25
 -2.959493e-09 -2.313786e-08 7.264211e-09 -4.080514e-09 6.501917e-08 -5.022171e-09 -7.219370e-09 2.479697e-08 5.739624e-08 9.586965e-08 2.138907e-08 -2.721837e-08 2.841697e-02 2.965606e-03 3.883998e-03 5.395767e-04 1.136024e-03 -1.173908e-02 -1.421193e-02 -1.280373e-02 -1.831957e-02 -1.267222e-02 -1.649122e-02 -1.477355e-02 2.233064e-02
<VARIANCE> 25
 2.119449e+02 9.879247e+01 6.622305e+01 9.393306e+01 5.931681e+01 5.495687e+01 5.539248e+01 5.667927e+01 4.737803e+01 3.584278e+01 3.125154e+01 2.680729e+01 3.614889e+00 3.963429e+00 3.386691e+00 3.651539e+00 3.531701e+00 3.272484e+00 3.525359e+00 3.578388e+00 3.194116e+00 2.739687e+00 2.420523e+00 2.027461e+00 3.817413e+00
<GCONST> 1.102001e+02
<STATE> 4
<MEAN> 25
 -2.959493e-09 -2.313786e-08 7.264211e-09 -4.080514e-09 6.501917e-08 -5.022171e-09 -7.219370e-09 2.479697e-08 5.739624e-08 9.586965e-08 2.138907e-08 -2.721837e-08 2.841697e-02 2.965606e-03 3.883998e-03 5.395767e-04 1.136024e-03 -1.173908e-02 -1.421193e-02 -1.280373e-02 -1.831957e-02 -1.267222e-02 -1.649122e-02 -1.477355e-02 2.233064e-02
<VARIANCE> 25
 2.119449e+02 9.879247e+01 6.622305e+01 9.393306e+01 5.931681e+01 5.495687e+01 5.539248e+01 5.667927e+01 4.737803e+01 3.584278e+01 3.125154e+01 2.680729e+01 3.614889e+00 3.963429e+00 3.386691e+00 3.651539e+00 3.531701e+00 3.272484e+00 3.525359e+00 3.578388e+00 3.194116e+00 2.739687e+00 2.420523e+00 2.027461e+00 3.817413e+00
<GCONST> 1.102001e+02
<TRANSP> 5
 0.000000e+00 1.000000e+00 0.000000e+00 0.000000e+00 0.000000e+00
 0.000000e+00 6.000000e-01 4.000000e-01 0.000000e+00 0.000000e+00
 0.000000e+00 0.000000e+00 6.000000e-01 4.000000e-01 0.000000e+00
 0.000000e+00 0.000000e+00 0.000000e+00 7.000000e-01 3.000000e-01
 0.000000e+00 0.000000e+00 0.000000e+00 0.000000e+00 0.000000e+00
<ENDHMM>
~h "ay"
<BEGINHMM>
<NUMSTATES> 5
<STATE> 2
<MEAN> 25
 -2.959493e-09 -2.313786e-08 7.264211e-09 -4.080514e-09 6.501917e-08 -5.022171e-09 -7.219370e-09 2.479697e-08 5.739624e-08 9.586965e-08 2.138907e-08 -2.721837e-08 2.841697e-02 2.965606e-03 3.883998e-03 5.395767e-04 1.136024e-03 -1.173908e-02 -1.421193e-02 -1.280373e-02 -1.831957e-02 -1.267222e-02 -1.649122e-02 -1.477355e-02 2.233064e-02
<VARIANCE> 25
 2.119449e+02 9.879247e+01 6.622305e+01 9.393306e+01 5.931681e+01 5.495687e+01 5.539248e+01 5.667927e+01 4.737803e+01 3.584278e+01 3.125154e+01 2.680729e+01 3.614889e+00 3.963429e+00 3.386691e+00 3.651539e+00 3.531701e+00 3.272484e+00 3.525359e+00 3.578388e+00 3.194116e+00 2.739687e+00 2.420523e+00 2.027461e+00 3.817413e+00
<GCONST> 1.102001e+02
<STATE> 3
<MEAN> 25
 -2.959493e-09 -2.313786e-08 7.264211e-09 -4.080514e-09 6.501917e-08 -5.022171e-09 -7.219370e-09 2.479697e-08 5.739624e-08 9.586965e-08 2.138907e-08 -2.721837e-08 2.841697e-02 2.965606e-03 3.883998e-03 5.395767e-04 1.136024e-03 -1.173908e-02 -1.421193e-02 -1.280373e-02 -1.831957e-02 -1.267222e-02 -1.649122e-02 -1.477355e-02 2.233064e-02
<VARIANCE> 25
 2.119449e+02 9.879247e+01 6.622305e+01 9.393306e+01 5.931681e+01 5.495687e+01 5.539248e+01 5.667927e+01 4.737803e+01 3.584278e+01 3.125154e+01 2.680729e+01 3.614889e+00 3.963429e+00 3.386691e+00 3.651539e+00 3.531701e+00 3.272484e+00 3.525359e+00 3.578388e+00 3.194116e+00 2.739687e+00 2.420523e+00 2.027461e+00 3.817413e+00
<GCONST> 1.102001e+02
<STATE> 4
<MEAN> 25
 -2.959493e-09 -2.313786e-08 7.264211e-09 -4.080514e-09 6.501917e-08 -5.022171e-09 -7.219370e-09 2.479697e-08 5.739624e-08 9.586965e-08 2.138907e-08 -2.721837e-08 2.841697e-02 2.965606e-03 3.883998e-03 5.395767e-04 1.136024e-03 -1.173908e-02 -1.421193e-02 -1.280373e-02 -1.831957e-02 -1.267222e-02 -1.649122e-02 -1.477355e-02 2.233064e-02
<VARIANCE> 25
 2.119449e+02 9.879247e+01 6.622305e+01 9.393306e+01 5.931681e+01 5.495687e+01 5.539248e+01 5.667927e+01 4.737803e+01 3.584278e+01 3.125154e+01 2.680729e+01 3.614889e+00 3.963429e+00 3.386691e+00 3.651539e+00 3.531701e+00 3.272484e+00 3.525359e+00 3.578388e+00 3.194116e+00 2.739687e+00 2.420523e+00 2.027461e+00 3.817413e+00
<GCONST> 1.102001e+02
<TRANSP> 5
 0.000000e+00 1.000000e+00 0.000000e+00 0.000000e+00 0.000000e+00
 0.000000e+00 6.000000e-01 4.000000e-01 0.000000e+00 0.000000e+00
 0.000000e+00 0.000000e+00 6.000000e-01 4.000000e-01 0.000000e+00
 0.000000e+00 0.000000e+00 0.000000e+00 7.000000e-01 3.000000e-01
 0.000000e+00 0.000000e+00 0.000000e+00 0.000000e+00 0.000000e+00
<ENDHMM>
~h "ae"
<BEGINHMM>
<NUMSTATES> 5
<STATE> 2
<MEAN> 25
 -2.959493e-09 -2.313786e-08 7.264211e-09 -4.080514e-09 6.501917e-08 -5.022171e-09 -7.219370e-09 2.479697e-08 5.739624e-08 9.586965e-08 2.138907e-08 -2.721837e-08 2.841697e-02 2.965606e-03 3.883998e-03 5.395767e-04 1.136024e-03 -1.173908e-02 -1.421193e-02 -1.280373e-02 -1.831957e-02 -1.267222e-02 -1.649122e-02 -1.477355e-02 2.233064e-02
<VARIANCE> 25
 2.119449e+02 9.879247e+01 6.622305e+01 9.393306e+01 5.931681e+01 5.495687e+01 5.539248e+01 5.667927e+01 4.737803e+01 3.584278e+01 3.125154e+01 2.680729e+01 3.614889e+00 3.963429e+00 3.386691e+00 3.651539e+00 3.531701e+00 3.272484e+00 3.525359e+00 3.578388e+00 3.194116e+00 2.739687e+00 2.420523e+00 2.027461e+00 3.817413e+00
<GCONST> 1.102001e+02
<STATE> 3
<MEAN> 25
 -2.959493e-09 -2.313786e-08 7.264211e-09 -4.080514e-09 6.501917e-08 -5.022171e-09 -7.219370e-09 2.479697e-08 5.739624e-08 9.586965e-08 2.138907e-08 -2.721837e-08 2.841697e-02 2.965606e-03 3.883998e-03 5.395767e-04 1.136024e-03 -1.173908e-02 -1.421193e-02 -1.280373e-02 -1.831957e-02 -1.267222e-02 -1.649122e-02 -1.477355e-02 2.233064e-02
<VARIANCE> 25
 2.119449e+02 9.879247e+01 6.622305e+01 9.393306e+01 5.931681e+01 5.495687e+01 5.539248e+01 5.667927e+01 4.737803e+01 3.584278e+01 3.125154e+01 2.680729e+01 3.614889e+00 3.963429e+00 3.386691e+00 3.651539e+00 3.531701e+00 3.272484e+00 3.525359e+00 3.578388e+00 3.194116e+00 2.739687e+00 2.420523e+00 2.027461e+00 3.817413e+00
<GCONST> 1.102001e+02
<STATE> 4
<MEAN> 25
 -2.959493e-09 -2.313786e-08 7.264211e-09 -4.080514e-09 6.501917e-08 -5.022171e-09 -7.219370e-09 2.479697e-08 5.739624e-08 9.586965e-08 2.138907e-08 -2.721837e-08 2.841697e-02 2.965606e-03 3.883998e-03 5.395767e-04 1.136024e-03 -1.173908e-02 -1.421193e-02 -1.280373e-02 -1.831957e-02 -1.267222e-02 -1.649122e-02 -1.477355e-02 2.233064e-02
<VARIANCE> 25
 2.119449e+02 9.879247e+01 6.622305e+01 9.393306e+01 5.931681e+01 5.495687e+01 5.539248e+01 5.667927e+01 4.737803e+01 3.584278e+01 3.125154e+01 2.680729e+01 3.614889e+00 3.963429e+00 3.386691e+00 3.651539e+00 3.531701e+00 3.272484e+00 3.525359e+00 3.578388e+00 3.194116e+00 2.739687e+00 2.420523e+00 2.027461e+00 3.817413e+00
<GCONST> 1.102001e+02
<TRANSP> 5
 0.000000e+00 1.000000e+00 0.000000e+00 0.000000e+00 0.000000e+00
 0.000000e+00 6.000000e-01 4.000000e-01 0.000000e+00 0.000000e+00
 0.000000e+00 0.000000e+00 6.000000e-01 4.000000e-01 0.000000e+00
 0.000000e+00 0.000000e+00 0.000000e+00 7.000000e-01 3.000000e-01
 0.000000e+00 0.000000e+00 0.000000e+00 0.000000e+00 0.000000e+00
<ENDHMM>
~h "ng"
<BEGINHMM>
<NUMSTATES> 5
<STATE> 2
<MEAN> 25
 -2.959493e-09 -2.313786e-08 7.264211e-09 -4.080514e-09 6.501917e-08 -5.022171e-09 -7.219370e-09 2.479697e-08 5.739624e-08 9.586965e-08 2.138907e-08 -2.721837e-08 2.841697e-02 2.965606e-03 3.883998e-03 5.395767e-04 1.136024e-03 -1.173908e-02 -1.421193e-02 -1.280373e-02 -1.831957e-02 -1.267222e-02 -1.649122e-02 -1.477355e-02 2.233064e-02
<VARIANCE> 25
 2.119449e+02 9.879247e+01 6.622305e+01 9.393306e+01 5.931681e+01 5.495687e+01 5.539248e+01 5.667927e+01 4.737803e+01 3.584278e+01 3.125154e+01 2.680729e+01 3.614889e+00 3.963429e+00 3.386691e+00 3.651539e+00 3.531701e+00 3.272484e+00 3.525359e+00 3.578388e+00 3.194116e+00 2.739687e+00 2.420523e+00 2.027461e+00 3.817413e+00
<GCONST> 1.102001e+02
<STATE> 3
<MEAN> 25
 -2.959493e-09 -2.313786e-08 7.264211e-09 -4.080514e-09 6.501917e-08 -5.022171e-09 -7.219370e-09 2.479697e-08 5.739624e-08 9.586965e-08 2.138907e-08 -2.721837e-08 2.841697e-02 2.965606e-03 3.883998e-03 5.395767e-04 1.136024e-03 -1.173908e-02 -1.421193e-02 -1.280373e-02 -1.831957e-02 -1.267222e-02 -1.649122e-02 -1.477355e-02 2.233064e-02
<VARIANCE> 25
 2.119449e+02 9.879247e+01 6.622305e+01 9.393306e+01 5.931681e+01 5.495687e+01 5.539248e+01 5.667927e+01 4.737803e+01 3.584278e+01 3.125154e+01 2.680729e+01 3.614889e+00 3.963429e+00 3.386691e+00 3.651539e+00 3.531701e+00 3.272484e+00 3.525359e+00 3.578388e+00 3.194116e+00 2.739687e+00 2.420523e+00 2.027461e+00 3.817413e+00
<GCONST> 1.102001e+02
<STATE> 4
<MEAN> 25
 -2.959493e-09 -2.313786e-08 7.264211e-09 -4.080514e-09 6.501917e-08 -5.022171e-09 -7.219370e-09 2.479697e-08 5.739624e-08 9.586965e-08 2.138907e-08 -2.721837e-08 2.841697e-02 2.965606e-03 3.883998e-03 5.395767e-04 1.136024e-03 -1.173908e-02 -1.421193e-02 -1.280373e-02 -1.831957e-02 -1.267222e-02 -1.649122e-02 -1.477355e-02 2.233064e-02
<VARIANCE> 25
 2.119449e+02 9.879247e+01 6.622305e+01 9.393306e+01 5.931681e+01 5.495687e+01 5.539248e+01 5.667927e+01 4.737803e+01 3.584278e+01 3.125154e+01 2.680729e+01 3.614889e+00 3.963429e+00 3.386691e+00 3.651539e+00 3.531701e+00 3.272484e+00 3.525359e+00 3.578388e+00 3.194116e+00 2.739687e+00 2.420523e+00 2.027461e+00 3.817413e+00
<GCONST> 1.102001e+02
<TRANSP> 5
 0.000000e+00 1.000000e+00 0.000000e+00 0.000000e+00 0.000000e+00
 0.000000e+00 6.000000e-01 4.000000e-01 0.000000e+00 0.000000e+00
 0.000000e+00 0.000000e+00 6.000000e-01 4.000000e-01 0.000000e+00
 0.000000e+00 0.000000e+00 0.000000e+00 7.000000e-01 3.000000e-01
 0.000000e+00 0.000000e+00 0.000000e+00 0.000000e+00 0.000000e+00
<ENDHMM>
~h "z"
<BEGINHMM>
<NUMSTATES> 5
<STATE> 2
<MEAN> 25
 -2.959493e-09 -2.313786e-08 7.264211e-09 -4.080514e-09 6.501917e-08 -5.022171e-09 -7.219370e-09 2.479697e-08 5.739624e-08 9.586965e-08 2.138907e-08 -2.721837e-08 2.841697e-02 2.965606e-03 3.883998e-03 5.395767e-04 1.136024e-03 -1.173908e-02 -1.421193e-02 -1.280373e-02 -1.831957e-02 -1.267222e-02 -1.649122e-02 -1.477355e-02 2.233064e-02
<VARIANCE> 25
 2.119449e+02 9.879247e+01 6.622305e+01 9.393306e+01 5.931681e+01 5.495687e+01 5.539248e+01 5.667927e+01 4.737803e+01 3.584278e+01 3.125154e+01 2.680729e+01 3.614889e+00 3.963429e+00 3.386691e+00 3.651539e+00 3.531701e+00 3.272484e+00 3.525359e+00 3.578388e+00 3.194116e+00 2.739687e+00 2.420523e+00 2.027461e+00 3.817413e+00
<GCONST> 1.102001e+02
<STATE> 3
<MEAN> 25
 -2.959493e-09 -2.313786e-08 7.264211e-09 -4.080514e-09 6.501917e-08 -5.022171e-09 -7.219370e-09 2.479697e-08 5.739624e-08 9.586965e-08 2.138907e-08 -2.721837e-08 2.841697e-02 2.965606e-03 3.883998e-03 5.395767e-04 1.136024e-03 -1.173908e-02 -1.421193e-02 -1.280373e-02 -1.831957e-02 -1.267222e-02 -1.649122e-02 -1.477355e-02 2.233064e-02
<VARIANCE> 25
 2.119449e+02 9.879247e+01 6.622305e+01 9.393306e+01 5.931681e+01 5.495687e+01 5.539248e+01 5.667927e+01 4.737803e+01 3.584278e+01 3.125154e+01 2.680729e+01 3.614889e+00 3.963429e+00 3.386691e+00 3.651539e+00 3.531701e+00 3.272484e+00 3.525359e+00 3.578388e+00 3.194116e+00 2.739687e+00 2.420523e+00 2.027461e+00 3.817413e+00
<GCONST> 1.102001e+02
<STATE> 4
<MEAN> 25
 -2.959493e-09 -2.313786e-08 7.264211e-09 -4.080514e-09 6.501917e-08 -5.022171e-09 -7.219370e-09 2.479697e-08 5.739624e-08 9.586965e-08 2.138907e-08 -2.721837e-08 2.841697e-02 2.965606e-03 3.883998e-03 5.395767e-04 1.136024e-03 -1.173908e-02 -1.421193e-02 -1.280373e-02 -1.831957e-02 -1.267222e-02 -1.649122e-02 -1.477355e-02 2.233064e-02
<VARIANCE> 25
 2.119449e+02 9.879247e+01 6.622305e+01 9.393306e+01 5.931681e+01 5.495687e+01 5.539248e+01 5.667927e+01 4.737803e+01 3.584278e+01 3.125154e+01 2.680729e+01 3.614889e+00 3.963429e+00 3.386691e+00 3.651539e+00 3.531701e+00 3.272484e+00 3.525359e+00 3.578388e+00 3.194116e+00 2.739687e+00 2.420523e+00 2.027461e+00 3.817413e+00
<GCONST> 1.102001e+02
<TRANSP> 5
 0.000000e+00 1.000000e+00 0.000000e+00 0.000000e+00 0.000000e+00
 0.000000e+00 6.000000e-01 4.000000e-01 0.000000e+00 0.000000e+00
 0.000000e+00 0.000000e+00 6.000000e-01 4.000000e-01 0.000000e+00
 0.000000e+00 0.000000e+00 0.000000e+00 7.000000e-01 3.000000e-01
 0.000000e+00 0.000000e+00 0.000000e+00 0.000000e+00 0.000000e+00
<ENDHMM>
~h "m"
<BEGINHMM>
<NUMSTATES> 5
<STATE> 2
<MEAN> 25
 -2.959493e-09 -2.313786e-08 7.264211e-09 -4.080514e-09 6.501917e-08 -5.022171e-09 -7.219370e-09 2.479697e-08 5.739624e-08 9.586965e-08 2.138907e-08 -2.721837e-08 2.841697e-02 2.965606e-03 3.883998e-03 5.395767e-04 1.136024e-03 -1.173908e-02 -1.421193e-02 -1.280373e-02 -1.831957e-02 -1.267222e-02 -1.649122e-02 -1.477355e-02 2.233064e-02
<VARIANCE> 25
 2.119449e+02 9.879247e+01 6.622305e+01 9.393306e+01 5.931681e+01 5.495687e+01 5.539248e+01 5.667927e+01 4.737803e+01 3.584278e+01 3.125154e+01 2.680729e+01 3.614889e+00 3.963429e+00 3.386691e+00 3.651539e+00 3.531701e+00 3.272484e+00 3.525359e+00 3.578388e+00 3.194116e+00 2.739687e+00 2.420523e+00 2.027461e+00 3.817413e+00
<GCONST> 1.102001e+02
<STATE> 3
<MEAN> 25
 -2.959493e-09 -2.313786e-08 7.264211e-09 -4.080514e-09 6.501917e-08 -5.022171e-09 -7.219370e-09 2.479697e-08 5.739624e-08 9.586965e-08 2.138907e-08 -2.721837e-08 2.841697e-02 2.965606e-03 3.883998e-03 5.395767e-04 1.136024e-03 -1.173908e-02 -1.421193e-02 -1.280373e-02 -1.831957e-02 -1.267222e-02 -1.649122e-02 -1.477355e-02 2.233064e-02
<VARIANCE> 25
 2.119449e+02 9.879247e+01 6.622305e+01 9.393306e+01 5.931681e+01 5.495687e+01 5.539248e+01 5.667927e+01 4.737803e+01 3.584278e+01 3.125154e+01 2.680729e+01 3.614889e+00 3.963429e+00 3.386691e+00 3.651539e+00 3.531701e+00 3.272484e+00 3.525359e+00 3.578388e+00 3.194116e+00 2.739687e+00 2.420523e+00 2.027461e+00 3.817413e+00
<GCONST> 1.102001e+02
<STATE> 4
<MEAN> 25
 -2.959493e-09 -2.313786e-08 7.264211e-09 -4.080514e-09 6.501917e-08 -5.022171e-09 -7.219370e-09 2.479697e-08 5.739624e-08 9.586965e-08 2.138907e-08 -2.721837e-08 2.841697e-02 2.965606e-03 3.883998e-03 5.395767e-04 1.136024e-03 -1.173908e-02 -1.421193e-02 -1.280373e-02 -1.831957e-02 -1.267222e-02 -1.649122e-02 -1.477355e-02 2.233064e-02
<VARIANCE> 25
 2.119449e+02 9.879247e+01 6.622305e+01 9.393306e+01 5.931681e+01 5.495687e+01 5.539248e+01 5.667927e+01 4.737803e+01 3.584278e+01 3.125154e+01 2.680729e+01 3.614889e+00 3.963429e+00 3.386691e+00 3.651539e+00 3.531701e+00 3.272484e+00 3.525359e+00 3.578388e+00 3.194116e+00 2.739687e+00 2.420523e+00 2.027461e+00 3.817413e+00
<GCONST> 1.102001e+02
<TRANSP> 5
 0.000000e+00 1.000000e+00 0.000000e+00 0.000000e+00 0.000000e+00
 0.000000e+00 6.000000e-01 4.000000e-01 0.000000e+00 0.000000e+00
 0.000000e+00 0.000000e+00 6.000000e-01 4.000000e-01 0.000000e+00
 0.000000e+00 0.000000e+00 0.000000e+00 7.000000e-01 3.000000e-01
 0.000000e+00 0.000000e+00 0.000000e+00 0.000000e+00 0.000000e+00
<ENDHMM>
