~o
<STREAMINFO> 1 25
<VECSIZE> 25<NULLD><MFCC_D_N_Z_0><DIAGC>
~s "silst"
<MEAN> 25
 -1.397431e+01 2.820004e+00 -1.849290e+00 5.479215e+00 1.878930e+00 4.419132e+00 4.323472e+00 3.539507e+00 4.949260e+00 1.116172e+00 3.300136e+00 2.896577e+00 6.500333e-03 5.276497e-03 5.763114e-02 5.599068e-02 3.090567e-02 1.227716e-02 -3.452657e-02 -9.541696e-02 -1.107664e-01 -5.648920e-02 1.693366e-02 3.707453e-02 5.655316e-03
<VARIANCE> 25
 1.325324e+01 7.233902e+00 1.008864e+01 9.494369e+00 9.468079e+00 1.148098e+01 1.259642e+01 1.629379e+01 2.044950e+01 1.300314e+01 1.355050e+01 1.013498e+01 8.963583e-02 2.400365e-01 3.097297e-01 4.509484e-01 6.627745e-01 6.125641e-01 8.224244e-01 1.181099e+00 1.401828e+00 1.117094e+00 9.328141e-01 8.867584e-01 7.466207e-02
<GCONST> 6.651653e+01
~h "b"
<BEGINHMM>
<NUMSTATES> 5
<STATE> 2
<MEAN> 25
 2.026285e+01 -2.328168e+00 2.510786e-01 -6.649568e+00 -2.559365e+00 6.215909e+00 -7.572623e+00 -1.603297e+01 -4.507447e+00 6.130628e+00 -1.368777e+00 -2.343273e+00 1.161730e-01 3.757131e-01 -1.809942e-01 -6.248047e-01 1.341897e-02 3.110720e-01 7.201105e-02 -3.535562e-01 -2.075072e-01 2.759041e-01 7.958972e-02 1.218619e-01 -2.707851e-02
<VARIANCE> 25
 1.131437e+01 9.046700e+01 7.005096e+01 1.626592e+02 7.846294e+01 6.492219e+01 7.840471e+01 6.818334e+01 4.695416e+01 3.331610e+01 5.292415e+01 3.027116e+01 7.512070e-01 8.216554e+00 5.229650e+00 7.297102e+00 7.114429e+00 5.158968e+00 5.375324e+00 6.020036e+00 4.048824e+00 3.097839e+00 3.645598e+00 2.181094e+00 3.501436e+00
<GCONST> 1.124704e+02
<STATE> 3
<MEAN> 25
 2.139457e+01 1.197270e+01 -9.728234e+00 -1.136736e+01 5.670701e-01 5.822731e+00 -3.172165e+00 -1.329321e+01 -9.614789e+00 2.347890e+00 3.302114e+00 1.955371e+00 -1.152288e+00 1.951765e+00 -5.593957e-01 7.684389e-01 8.361048e-01 -1.354815e-01 5.439456e-01 1.933949e+00 3.339390e-01 -1.512456e+00 1.136914e+00 8.402277e-01 -2.085431e+00
<VARIANCE> 25
 8.640921e+00 1.325577e+01 1.398787e+01 6.920874e+01 3.586418e+01 2.491804e+01 2.597237e+01 4.777102e+01 2.735004e+01 2.363277e+01 1.698012e+01 1.391200e+01 1.457520e+00 1.326352e+00 4.392702e+00 3.422193e+00 4.014492e+00 3.027061e+00 3.644952e+00 4.820286e+00 2.910342e+00 2.412339e+00 2.982035e+00 1.704252e+00 5.399426e-01
<GCONST> 9.510949e+01
<STATE> 4
<MEAN> 25
 1.525202e+01 1.588871e+01 -6.419340e+00 -8.121946e+00 -1.921627e+00 6.370262e+00 1.352621e+00 -8.684441e+00 -8.060376e+00 -2.287477e+00 3.954552e+00 2.924504e+00 -3.057741e+00 3.075886e-02 1.830038e+00 1.870800e+00 -7.928953e-01 -9.069368e-01 6.322966e-01 1.593226e+00 1.588804e+00 -7.430336e-01 -3.560718e-01 8.797102e-02 -2.231724e+00
<VARIANCE> 25
 2.358870e+01 9.509468e+00 2.091159e+01 5.177684e+01 5.115468e+01 2.716582e+01 2.192413e+01 2.699746e+01 3.351193e+01 3.942473e+01 2.192477e+01 2.472874e+01 1.818325e+00 1.971691e+00 1.801802e+00 1.734935e+00 3.515956e+00 3.766203e+00 1.890301e+00 4.969777e+00 2.357709e+00 2.099842e+00 1.251179e+00 1.050338e+00 6.123563e-01
<GCONST> 9.407161e+01
<TRANSP> 5
 0.000000e+00 1.000000e+00 0.000000e+00 0.000000e+00 0.000000e+00
 0.000000e+00 9.421472e-01 5.785283e-02 0.000000e+00 0.000000e+00
 0.000000e+00 0.000000e+00 7.041702e-01 2.958298e-01 0.000000e+00
 0.000000e+00 0.000000e+00 0.000000e+00 6.421461e-01 3.578540e-01
 0.000000e+00 0.000000e+00 0.000000e+00 0.000000e+00 0.000000e+00
<ENDHMM>
~h "d"
<BEGINHMM>
<NUMSTATES> 5
<STATE> 2
<MEAN> 25
 -1.614301e+01 2.610940e+00 -1.553315e+00 6.795545e+00 1.296251e+00 3.767027e+00 4.971097e+00 4.745491e+00 6.194148e+00 1.832579e+00 4.398463e+00 4.341168e+00 -9.517938e-03 8.876249e-04 -4.293986e-03 1.303689e-02 1.492449e-02 1.509432e-03 -3.397285e-02 -1.038203e-02 6.872790e-02 4.779458e-02 -1.547459e-02 -4.615467e-02 -8.098405e-03
<VARIANCE> 25
 7.129395e+00 5.947314e+00 7.543638e+00 9.295485e+00 8.390661e+00 8.715083e+00 1.051101e+01 1.380660e+01 1.132601e+01 9.980580e+00 9.406180e+00 7.907992e+00 4.535732e-02 1.470279e-01 2.345660e-01 3.742940e-01 4.461696e-01 4.576625e-01 7.452644e-01 1.173091e+00 1.264248e+00 1.069774e+00 8.162580e-01 9.568374e-01 3.817413e-02
<GCONST> 5.987413e+01
<STATE> 3
<MEAN> 25
 -1.338873e+01 5.400998e+00 -1.931448e+00 2.935582e+00 1.397251e+00 3.248204e+00 1.334689e+00 2.105710e+00 1.887902e+00 -1.545850e+00 1.341653e+00 2.293448e+00 -1.871482e-02 1.494184e-02 3.513573e-02 8.708872e-03 2.053573e-02 6.487797e-02 7.783307e-02 -1.334642e-01 -2.215861e-01 -8.898426e-02 1.100256e-02 -1.131362e-02 -1.022111e-02
<VARIANCE> 25
 6.494951e+00 3.609908e+00 1.255088e+01 2.118588e+01 1.055033e+01 1.032210e+01 1.710458e+01 1.271200e+01 1.306982e+01 1.144211e+01 1.024244e+01 1.001175e+01 1.136173e-01 2.318486e-01 3.112624e-01 5.731579e-01 8.011706e-01 8.330920e-01 1.184227e+00 9.219620e-01 1.238364e+00 9.605297e-01 1.095163e+00 1.072880e+00 3.817413e-02
<GCONST> 6.578741e+01
<STATE> 4
<MEAN> 25
 -5.931555e+00 3.071851e+00 -1.220161e-01 2.769596e+00 3.859830e-02 2.386615e-01 6.972217e-01 3.064724e-01 -1.349777e-02 -1.707403e+00 -6.025347e-01 1.721912e-01 1.141509e-01 1.676956e-02 1.950513e-02 -3.856000e-03 8.503092e-03 -4.566848e-02 -8.444489e-02 -6.681616e-02 -6.176940e-02 -2.037822e-02 -8.657970e-02 -8.794896e-02 8.901238e-02
<VARIANCE> 25
 7.160490e+01 3.073145e+01 3.453936e+01 5.338747e+01 3.003887e+01 2.311962e+01 2.607529e+01 2.282184e+01 2.596178e+01 1.757428e+01 2.032763e+01 1.710555e+01 1.585599e+00 9.225621e-01 1.238746e+00 1.527909e+00 1.778788e+00 1.730344e+00 1.943456e+00 1.786861e+00 1.967778e+00 1.560617e+00 1.782306e+00 1.591430e+00 2.525743e+00
<GCONST> 9.254797e+01
<TRANSP> 5
 0.000000e+00 1.000000e+00 0.000000e+00 0.000000e+00 0.000000e+00
 0.000000e+00 9.465897e-01 5.341033e-02 0.000000e+00 0.000000e+00
 0.000000e+00 0.000000e+00 8.709524e-01 1.290476e-01 0.000000e+00
 0.000000e+00 0.000000e+00 0.000000e+00 9.441255e-01 5.587450e-02
 0.000000e+00 0.000000e+00 0.000000e+00 0.000000e+00 0.000000e+00
<ENDHMM>
~h "f"
<BEGINHMM>
<NUMSTATES> 5
<STATE> 2
<MEAN> 25
 -1.799265e+01 3.496605e+00 -2.592970e+00 5.053431e+00 1.953818e+00 5.532362e+00 5.763734e+00 4.489467e+00 6.631672e+00 1.315860e+00 4.458884e+00 4.005062e+00 4.592658e-03 9.186073e-03 3.904984e-03 -3.589652e-03 4.046794e-03 -7.843273e-03 -4.153462e-02 -2.801385e-02 6.247547e-02 4.555435e-02 -5.503258e-03 -1.813348e-02 -1.784011e-03
<VARIANCE> 25
 5.452306e+00 5.063867e+00 9.691955e+00 1.185059e+01 8.602565e+00 8.205421e+00 9.616892e+00 1.567182e+01 1.238330e+01 9.444975e+00 1.007128e+01 8.318901e+00 3.656823e-02 1.361452e-01 2.105716e-01 3.564052e-01 4.532625e-01 4.375983e-01 7.351542e-01 1.157747e+00 1.123317e+00 1.049038e+00 8.288240e-01 9.758013e-01 3.817413e-02
<GCONST> 5.948621e+01
<STATE> 3
<MEAN> 25
 -1.697000e+01 5.137361e+00 -1.860943e+00 4.065786e+00 1.934868e+00 6.179165e+00 4.580316e+00 1.452230e+00 3.809082e+00 -2.002826e-01 3.450143e+00 3.721128e+00 8.089143e-02 -9.652947e-02 1.455175e-01 -4.588913e-03 1.735170e-01 4.132610e-01 5.964051e-01 -1.755452e-01 -1.204724e+00 -5.538996e-01 -1.279935e-01 1.161094e-01 1.389042e-01
<VARIANCE> 25
 1.131403e+01 4.265324e+00 7.203930e+00 1.240048e+01 7.645534e+00 8.868430e+00 1.396574e+01 1.401914e+01 9.204762e+00 8.609754e+00 7.572195e+00 7.452020e+00 1.747261e-01 1.467739e-01 1.691864e-01 2.859040e-01 8.893204e-01 4.072222e-01 8.569601e-01 1.000740e+00 7.830462e-01 7.929671e-01 5.273716e-01 5.206171e-01 1.271240e-01
<GCONST> 6.052180e+01
<STATE> 4
<MEAN> 25
 -1.173433e+01 4.820680e+00 -2.470774e+00 2.017273e+00 2.657801e+00 3.703882e+00 2.563327e+00 7.000336e-02 4.208798e-01 -1.648456e+00 3.430889e-01 1.299080e+00 2.091169e-01 2.319622e-02 1.562118e-02 -4.934372e-02 -3.459262e-02 -1.386590e-01 -1.003813e-01 -7.779152e-02 -1.080941e-01 -6.271371e-02 -1.194287e-01 -9.852358e-02 1.778038e-01
<VARIANCE> 25
 1.049289e+01 8.173632e+00 1.316524e+01 1.639361e+01 1.128961e+01 1.492867e+01 1.506301e+01 2.361699e+01 1.545461e+01 1.285114e+01 1.474165e+01 1.191990e+01 1.159830e+00 5.178883e-01 6.680697e-01 8.721820e-01 1.150011e+00 1.520919e+00 1.389977e+00 1.297058e+00 1.537944e+00 1.148540e+00 1.211754e+00 1.288267e+00 2.251926e+00
<GCONST> 7.915930e+01
<TRANSP> 5
 0.000000e+00 1.000000e+00 0.000000e+00 0.000000e+00 0.000000e+00
 0.000000e+00 9.575059e-01 4.249406e-02 0.000000e+00 0.000000e+00
 0.000000e+00 0.000000e+00 3.911625e-01 6.088375e-01 0.000000e+00
 0.000000e+00 0.000000e+00 0.000000e+00 9.373176e-01 6.268235e-02
 0.000000e+00 0.000000e+00 0.000000e+00 0.000000e+00 0.000000e+00
<ENDHMM>
~h "g"
<BEGINHMM>
<NUMSTATES> 5
<STATE> 2
<MEAN> 25
 1.700728e+01 -1.181796e+01 7.168662e+00 1.227763e+00 -8.577408e+00 -9.494224e+00 -3.729185e+00 -7.584190e-02 -6.291713e+00 2.398173e+00 8.522543e-01 -6.788490e-01 4.037558e-01 -5.781463e-02 2.081189e-01 6.421286e-01 -1.146075e+00 -1.069814e-01 1.024351e+00 -5.464489e-01 -7.206194e-01 -6.921017e-02 3.090799e-01 6.622123e-02 1.490023e-01
<VARIANCE> 25
 2.222681e+01 6.012287e+01 1.255513e+02 1.267119e+02 1.086946e+02 6.904813e+01 6.843732e+01 7.332147e+01 8.732051e+01 5.077386e+01 4.165359e+01 3.127477e+01 2.225721e+00 1.310828e+01 1.057755e+01 1.303548e+01 7.157726e+00 5.423332e+00 7.145171e+00 9.521089e+00 5.688024e+00 6.813559e+00 5.036572e+00 3.755965e+00 7.208605e+00
<GCONST> 1.205837e+02
<STATE> 3
<MEAN> 25
 1.937689e+01 1.244905e+00 7.783453e-01 2.888753e+00 -9.275766e+00 -2.792889e+00 1.493389e+00 -1.021925e+01 -6.685316e+00 2.017334e+00 -1.267745e+00 -2.042211e+00 -1.636973e-01 3.788966e+00 -1.730426e+00 1.028477e+00 7.587932e-01 2.850988e-01 6.467148e-01 -1.257814e+00 5.419432e-01 -7.816659e-01 -9.917596e-02 -3.648920e-01 -2.377926e+00
<VARIANCE> 25
 1.164034e+01 9.307633e+01 9.036625e+01 9.802002e+01 1.260494e+02 4.185977e+01 1.260981e+02 8.561160e+01 8.270139e+01 7.333368e+01 2.906759e+01 3.895383e+01 6.702853e-01 6.962611e+00 5.043537e+00 1.064133e+01 6.435854e+00 3.642697e+00 8.257308e+00 6.932701e+00 5.209265e+00 4.763698e+00 3.851543e+00 2.426913e+00 3.111564e+00
<GCONST> 1.149310e+02
<STATE> 4
<MEAN> 25
 1.901933e+01 7.471937e+00 -4.443285e+00 -2.008336e-01 -2.352470e+00 -1.300042e+00 -3.623639e+00 -1.120969e+01 -2.149858e+00 2.193306e+00 -2.650815e+00 -3.784208e+00 -6.931261e-01 1.662849e+00 3.583504e-01 -1.977697e-03 4.233750e-01 1.384951e-02 -5.755097e-01 2.979677e-01 7.677860e-01 -4.242728e-01 8.148065e-02 2.182025e-01 -1.262567e+00
<VARIANCE> 25
 1.776987e+01 1.392926e+02 8.667400e+01 4.751231e+01 6.385276e+01 2.992624e+01 5.260407e+01 4.807265e+01 2.705318e+01 5.551188e+01 3.082461e+01 2.179310e+01 9.378523e-01 6.168052e+00 4.600524e+00 4.519907e+00 4.635163e+00 2.597126e+00 5.631465e+00 4.214636e+00 2.966558e+00 3.018575e+00 2.296095e+00 1.622582e+00 2.179286e+00
<GCONST> 1.060306e+02
<TRANSP> 5
 0.000000e+00 1.000000e+00 0.000000e+00 0.000000e+00 0.000000e+00
 0.000000e+00 8.236420e-01 1.763580e-01 0.000000e+00 0.000000e+00
 0.000000e+00 0.000000e+00 5.567318e-01 4.432682e-01 0.000000e+00
 0.000000e+00 0.000000e+00 0.000000e+00 6.416018e-01 3.583982e-01
 0.000000e+00 0.000000e+00 0.000000e+00 0.000000e+00 0.000000e+00
<ENDHMM>
~h "k"
<BEGINHMM>
<NUMSTATES> 5
<STATE> 2
<MEAN> 25
 8.916740e-01 1.067847e+00 -2.468558e-01 -6.101363e+00 1.023711e+01 -7.876362e+00 -6.734616e+00 2.260168e+00 4.193893e+00 1.322694e+00 -1.406534e+00 7.513870e-01 -1.852155e+00 2.368627e-01 -4.678345e-02 -3.896743e-01 9.358335e-01 3.394962e-01 -1.848474e-01 2.479345e-01 2.935202e-01 -2.987215e-01 5.376063e-01 2.313634e-01 -6.965651e-01
<VARIANCE> 25
 2.144287e+02 7.447559e+01 5.657653e+01 1.051335e+02 1.025323e+02 7.600781e+01 6.131557e+01 4.064268e+01 4.690715e+01 4.883784e+01 4.216555e+01 3.033403e+01 1.261674e+01 9.824507e+00 7.055397e+00 7.571070e+00 8.078333e+00 6.322704e+00 6.580705e+00 5.579745e+00 4.971613e+00 5.442991e+00 4.228884e+00 3.135958e+00 9.359982e+00
<GCONST> 1.204427e+02
<STATE> 3
<MEAN> 25
 3.626323e+00 -4.080297e+00 -5.107055e+00 -9.927750e+00 1.298297e+01 -7.126207e-01 -8.631216e+00 1.875953e+00 1.292314e+00 2.948427e+00 9.889796e-01 1.244467e+00 2.582300e+00 -4.030028e-01 -1.206855e+00 -1.305696e+00 -2.952424e-01 1.221730e+00 2.427928e-01 -4.525315e-01 -1.334547e+00 5.918907e-01 2.214808e-01 -6.011770e-01 7.473565e-01
<VARIANCE> 25
 1.316470e+02 6.833118e+01 8.067203e+01 1.082546e+02 1.052419e+02 8.801118e+01 8.153277e+01 6.237620e+01 6.058289e+01 5.777160e+01 4.183536e+01 3.651983e+01 1.070082e+01 8.539534e+00 8.933705e+00 1.210433e+01 1.524078e+01 8.091114e+00 9.425295e+00 6.720162e+00 6.314528e+00 5.368332e+00 4.294328e+00 4.785249e+00 2.035331e+01
<GCONST> 1.250074e+02
<STATE> 4
<MEAN> 25
 1.763697e+01 -6.203979e+00 -5.656398e+00 -1.461297e+01 5.434481e+00 1.237242e+00 -5.033295e+00 3.602669e-02 -5.894731e+00 6.790056e+00 1.652768e+00 -2.829432e+00 1.740839e+00 -2.175159e-01 7.194722e-01 -3.682409e-01 -1.167019e+00 1.279428e-01 2.890578e-01 -6.623634e-01 -9.424388e-01 2.326145e-01 4.904177e-01 -4.325760e-01 1.410491e+00
<VARIANCE> 25
 5.550913e+01 7.864816e+01 8.960685e+01 1.040126e+02 5.625568e+01 6.649786e+01 5.337048e+01 5.840831e+01 7.679573e+01 5.036458e+01 6.069522e+01 3.844037e+01 6.433475e+00 5.186421e+00 8.342639e+00 8.971177e+00 6.568443e+00 6.916140e+00 6.569686e+00 7.729581e+00 6.926083e+00 4.165259e+00 5.847406e+00 4.078103e+00 7.697482e+00
<GCONST> 1.198968e+02
<TRANSP> 5
 0.000000e+00 1.000000e+00 0.000000e+00 0.000000e+00 0.000000e+00
 0.000000e+00 8.543866e-01 1.456134e-01 0.000000e+00 0.000000e+00
 0.000000e+00 0.000000e+00 8.295683e-01 1.704317e-01 0.000000e+00
 0.000000e+00 0.000000e+00 0.000000e+00 7.795400e-01 2.204600e-01
 0.000000e+00 0.000000e+00 0.000000e+00 0.000000e+00 0.000000e+00
<ENDHMM>
~h "l"
<BEGINHMM>
<NUMSTATES> 5
<STATE> 2
<MEAN> 25
 2.705395e+00 6.220063e+00 -3.175903e+00 -1.359211e+00 -7.689275e-01 1.858280e+00 -3.049920e-01 -3.309316e+00 1.213453e+00 -2.455799e-01 7.144050e-01 1.215024e+00 -1.061257e+00 -1.252646e+00 5.407341e-01 5.451736e-01 -3.175930e-01 -8.539376e-01 2.178499e-01 7.267812e-01 1.115133e-01 -4.415817e-01 2.029644e-01 4.662449e-01 7.486820e-02
<VARIANCE> 25
 1.421167e+02 8.517931e+01 4.955699e+01 5.704152e+01 4.520645e+01 5.805570e+01 3.155061e+01 3.677610e+01 3.451919e+01 2.749932e+01 2.989508e+01 2.374517e+01 8.179477e+00 5.132618e+00 3.490192e+00 2.507655e+00 3.592405e+00 5.058495e+00 3.241543e+00 2.773643e+00 2.513713e+00 2.176405e+00 2.011161e+00 1.683571e+00 9.219997e+00
<GCONST> 1.077882e+02
<STATE> 3
<MEAN> 25
 1.797142e+00 3.085748e+00 -1.880152e+00 1.556532e-01 -3.847373e-02 -1.912557e-01 -3.787062e-01 -1.736139e+00 6.160845e-01 -1.157770e+00 7.864791e-01 1.722282e+00 1.103016e-01 -2.019348e+00 6.887271e-01 5.048643e-01 -2.692227e-01 -1.231979e+00 2.082040e-01 8.119749e-01 -1.083012e-01 -3.599438e-01 -2.382880e-01 2.139565e-02 1.701521e+00
<VARIANCE> 25
 1.332117e+02 1.177313e+02 5.152731e+01 6.515533e+01 5.226337e+01 6.135379e+01 3.168478e+01 4.113290e+01 4.199116e+01 2.986031e+01 3.424741e+01 2.562327e+01 9.218593e+00 7.099837e+00 2.992852e+00 3.098321e+00 4.498467e+00 6.031731e+00 2.772061e+00 3.035787e+00 3.049024e+00 2.278289e+00 2.227242e+00 2.036491e+00 1.563484e+01
<GCONST> 1.109218e+02
<STATE> 4
<MEAN> 25
 4.933543e+00 -2.943790e+00 1.901714e-01 8.644810e-01 -9.066343e-01 -3.990486e+00 -1.222356e+00 1.092075e-01 1.173447e+00 -1.837996e+00 -1.115795e+00 1.104709e+00 1.444806e+00 -2.061905e+00 1.074478e+00 6.223616e-01 -1.076916e+00 -1.144938e+00 -1.235748e-01 3.621064e-01 -3.291689e-01 -1.593745e-01 -3.879208e-01 -2.766271e-01 2.417575e+00
<VARIANCE> 25
 1.263218e+02 1.314227e+02 5.837955e+01 7.664300e+01 5.464244e+01 8.438707e+01 4.392112e+01 4.974828e+01 4.549483e+01 2.967114e+01 3.400273e+01 3.113585e+01 1.112079e+01 8.805134e+00 5.420461e+00 4.752094e+00 7.329397e+00 5.978802e+00 4.719205e+00 3.902659e+00 4.040429e+00 3.031428e+00 3.777714e+00 3.315360e+00 1.487230e+01
<GCONST> 1.166274e+02
<TRANSP> 5
 0.000000e+00 1.000000e+00 0.000000e+00 0.000000e+00 0.000000e+00
 0.000000e+00 3.621571e-01 6.378429e-01 0.000000e+00 0.000000e+00
 0.000000e+00 0.000000e+00 2.323283e-01 7.676717e-01 0.000000e+00
 0.000000e+00 0.000000e+00 0.000000e+00 3.632824e-01 6.367176e-01
 0.000000e+00 0.000000e+00 0.000000e+00 0.000000e+00 0.000000e+00
<ENDHMM>
~h "m"
<BEGINHMM>
<NUMSTATES> 5
<STATE> 2
<MEAN> 25
 1.736316e+00 8.299071e+00 5.915005e+00 -2.142250e+00 7.466541e+00 -1.562205e+01 -2.331560e-01 1.053655e+00 1.742687e+00 -4.312761e+00 -4.778141e+00 2.811933e+00 1.112960e+00 -5.115049e-01 9.218612e-01 -9.864687e-01 4.956246e-01 -1.120206e+00 -1.411395e+00 1.315842e-01 -2.504754e-01 -6.917793e-02 -2.774451e-01 -7.907562e-03 3.547429e+00
<VARIANCE> 25
 7.342058e+01 8.245647e+01 5.702885e+01 7.683034e+01 1.043183e+02 1.415443e+02 1.091576e+02 6.309029e+01 5.733034e+01 3.967467e+01 4.740470e+01 2.896222e+01 1.307386e+01 9.636267e+00 5.732563e+00 8.184032e+00 1.388451e+01 1.218806e+01 9.217527e+00 8.067636e+00 9.608664e+00 6.179377e+00 5.829798e+00 4.272211e+00 3.605908e+00
<GCONST> 1.231385e+02
<STATE> 3
<MEAN> 25
 1.406137e+01 -8.131719e+00 1.155079e+01 -1.303033e+01 4.994225e+00 -7.614087e+00 -1.399444e+01 -4.251390e+00 1.077850e-01 2.103034e+00 -3.211867e+00 -2.648968e+00 3.023071e+00 -2.247088e+00 -1.628658e-01 -1.000213e+00 -1.306879e+00 2.555834e+00 -3.209454e-01 -1.678543e+00 -3.387675e-01 1.419230e+00 8.601210e-01 -5.997207e-01 6.755114e-01
<VARIANCE> 25
 5.563779e+01 4.114001e+01 3.194412e+01 8.359708e+01 5.797770e+01 9.110080e+01 6.545381e+01 1.327842e+02 4.463944e+01 8.525021e+01 3.181723e+01 2.188655e+01 5.204785e+00 2.672441e+00 4.552028e+00 8.820918e+00 7.810328e+00 8.248661e+00 7.253748e+00 1.040295e+01 6.982257e+00 9.782047e+00 2.070047e+00 3.002027e+00 3.333601e+00
<GCONST> 1.160742e+02
<STATE> 4
<MEAN> 25
 1.964132e+01 -4.192036e+00 6.598431e+00 -5.577171e+00 -7.165157e+00 3.730526e-01 -7.348366e-01 -6.618382e+00 -8.733702e+00 1.718820e+00 1.828860e+00 -1.510430e+00 -1.878803e-01 6.243156e-01 -2.511769e-01 4.807934e-01 -8.666898e-02 -8.206930e-02 4.577463e-01 1.112874e-01 -9.336595e-02 -2.466967e-01 -2.973298e-02 6.749949e-03 -7.529862e-01
<VARIANCE> 25
 5.763551e+01 1.351129e+02 1.477865e+02 1.684206e+02 6.082124e+01 9.405566e+01 1.072394e+02 1.507244e+02 7.169292e+01 6.496317e+01 3.966837e+01 2.849806e+01 2.455749e+00 7.925205e+00 8.566482e+00 8.728857e+00 3.846840e+00 5.356326e+00 5.173897e+00 9.830265e+00 6.237803e+00 6.977419e+00 2.808549e+00 3.220840e+00 6.692464e+00
<GCONST> 1.209625e+02
<TRANSP> 5
 0.000000e+00 1.000000e+00 0.000000e+00 0.000000e+00 0.000000e+00
 0.000000e+00 8.738516e-01 1.261484e-01 0.000000e+00 0.000000e+00
 0.000000e+00 0.000000e+00 8.159847e-01 1.840153e-01 0.000000e+00
 0.000000e+00 0.000000e+00 0.000000e+00 9.641698e-01 3.583021e-02
 0.000000e+00 0.000000e+00 0.000000e+00 0.000000e+00 0.000000e+00
<ENDHMM>
~h "n"
<BEGINHMM>
<NUMSTATES> 5
<STATE> 2
<MEAN> 25
 -2.692633e+00 6.355193e+00 -4.738307e-02 5.040686e+00 -1.106142e+00 -6.575010e-01 -1.323116e+00 -1.859656e+00 -1.651221e+00 -3.547432e+00 -2.488991e+00 -7.314398e-01 -9.345142e-01 -7.797312e-01 -3.946183e-01 5.965522e-02 2.049242e-01 5.435131e-02 5.340968e-02 9.041822e-02 1.807168e-01 1.362031e-01 5.713004e-02 -9.310374e-02 -4.898204e-01
<VARIANCE> 25
 3.916373e+01 3.388716e+01 3.904761e+01 1.947556e+01 1.329583e+01 1.601323e+01 1.780477e+01 2.087707e+01 2.778986e+01 1.685124e+01 1.638899e+01 1.763435e+01 5.162550e+00 2.770484e+00 2.259704e+00 2.227307e+00 1.631019e+00 1.926443e+00 1.655734e+00 1.511270e+00 1.690986e+00 1.874868e+00 1.145810e+00 1.089122e+00 2.495524e+00
<GCONST> 9.149458e+01
<STATE> 3
<MEAN> 25
 -7.684872e+00 6.706867e+00 2.471356e+00 8.468111e+00 2.786994e+00 2.304403e+00 -8.750299e-01 -1.530069e+00 -1.329087e+00 -4.332170e+00 -1.681524e+00 -2.230128e+00 -4.936196e-01 -3.956280e-01 -3.012577e-01 -2.020599e-01 -9.972121e-02 1.903574e-01 2.129101e-01 1.605687e-01 1.307982e-01 1.689639e-01 2.457632e-01 1.857015e-01 -2.606247e-01
<VARIANCE> 25
 1.181455e+01 1.905722e+01 2.212221e+01 1.715041e+01 1.258220e+01 1.267166e+01 1.133143e+01 1.266976e+01 1.351364e+01 1.439445e+01 1.928334e+01 1.454107e+01 3.200362e-01 6.101996e-01 9.071844e-01 8.421801e-01 6.936916e-01 1.041920e+00 1.202193e+00 1.805339e+00 1.267412e+00 1.654140e+00 1.983182e+00 2.022050e+00 8.437604e-02
<GCONST> 7.645187e+01
<STATE> 4
<MEAN> 25
 -8.134205e+00 2.224199e+00 -9.496334e-01 2.291628e+00 7.141250e-01 2.213356e+00 -1.132962e-02 1.612422e-01 -3.977904e-02 -1.543427e+00 -1.250890e+00 -1.630994e-01 -4.957318e-02 2.020404e-03 -2.169781e-02 -3.420048e-02 2.887629e-02 3.283673e-02 1.975122e-02 4.778225e-02 3.128964e-02 -5.126507e-03 4.002378e-02 8.861294e-02 -3.497525e-02
<VARIANCE> 25
 5.246198e+00 7.813352e+00 1.614591e+01 1.035748e+01 8.764506e+00 1.336308e+01 1.436383e+01 1.235060e+01 1.477590e+01 1.341203e+01 1.395404e+01 1.347910e+01 1.505485e-01 3.454566e-01 4.971917e-01 5.916263e-01 6.456667e-01 9.382914e-01 1.176612e+00 1.328312e+00 1.258048e+00 1.460481e+00 1.439581e+00 1.327882e+00 4.284222e-02
<GCONST> 6.911874e+01
<TRANSP> 5
 0.000000e+00 1.000000e+00 0.000000e+00 0.000000e+00 0.000000e+00
 0.000000e+00 8.391412e-01 1.608588e-01 0.000000e+00 0.000000e+00
 0.000000e+00 0.000000e+00 7.416177e-01 2.583823e-01 0.000000e+00
 0.000000e+00 0.000000e+00 0.000000e+00 9.443934e-01 5.560658e-02
 0.000000e+00 0.000000e+00 0.000000e+00 0.000000e+00 0.000000e+00
<ENDHMM>
~h "r"
<BEGINHMM>
<NUMSTATES> 5
<STATE> 2
<MEAN> 25
 1.124227e+00 5.579925e+00 -7.864486e-01 2.188359e+00 -1.121678e+00 -1.534367e+00 7.961125e-01 -1.488938e+00 1.026824e+00 -5.941936e-01 1.782835e-02 6.034409e-01 -6.043758e-01 1.695284e-02 3.479764e-02 -1.167696e-01 -3.483812e-02 1.062369e-01 -2.703103e-01 -3.560789e-02 1.630363e-02 -7.819209e-02 -6.601664e-02 1.401643e-01 -6.828253e-01
<VARIANCE> 25
 1.795423e+02 1.366528e+02 5.871522e+01 3.375077e+01 7.049349e+01 4.881479e+01 3.769884e+01 3.885386e+01 3.624003e+01 3.130796e+01 2.170246e+01 1.961182e+01 4.576272e+00 3.679614e+00 3.354562e+00 2.324548e+00 3.594475e+00 2.617705e+00 3.623714e+00 2.965465e+00 3.154495e+00 3.199013e+00 2.023519e+00 1.535794e+00 2.835503e+00
<GCONST> 1.061486e+02
<STATE> 3
<MEAN> 25
 1.469318e+00 5.777763e+00 -7.409865e-02 2.149812e+00 -2.344589e+00 -8.757123e-01 -5.541251e-01 -2.474133e+00 3.158821e-01 -8.452336e-01 -1.520090e-01 5.238146e-01 -1.476528e-01 -7.226625e-02 2.878348e-01 1.268607e-01 3.795455e-01 2.364756e-01 -3.115037e-01 -2.136856e-01 1.776239e-02 -2.605384e-01 -3.090518e-01 -1.383637e-02 -7.822841e-02
<VARIANCE> 25
 1.571647e+02 1.350830e+02 6.640015e+01 3.321432e+01 4.862250e+01 4.063878e+01 3.752145e+01 3.383944e+01 3.654774e+01 2.969427e+01 2.214278e+01 1.863341e+01 4.709017e+00 4.395612e+00 3.379653e+00 2.363513e+00 2.985224e+00 2.033648e+00 2.300145e+00 2.653453e+00 2.582024e+00 2.098228e+00 1.511081e+00 1.307960e+00 2.698180e+00
<GCONST> 1.034401e+02
<STATE> 4
<MEAN> 25
 8.987451e-01 5.217938e+00 3.853021e-01 2.567717e+00 -8.563532e-01 -4.064714e-01 -4.277489e-01 -2.476642e+00 6.711706e-01 -1.976500e+00 -1.336625e+00 6.167625e-01 7.519779e-01 -7.891591e-01 4.523370e-01 -7.492637e-02 4.939362e-01 -1.337793e-01 6.263845e-02 -7.121501e-03 -1.341372e-02 -6.769966e-03 -1.565036e-01 1.175199e-01 1.371851e+00
<VARIANCE> 25
 1.603017e+02 1.264940e+02 6.991994e+01 4.133260e+01 5.133138e+01 4.114866e+01 4.607438e+01 3.763408e+01 3.481488e+01 2.743096e+01 2.159771e+01 1.863602e+01 6.528130e+00 9.324383e+00 6.349765e+00 3.740425e+00 4.104477e+00 4.191694e+00 4.271379e+00 4.009822e+00 3.259993e+00 2.330936e+00 1.881679e+00 1.877595e+00 7.759248e+00
<GCONST> 1.101075e+02
<TRANSP> 5
 0.000000e+00 1.000000e+00 0.000000e+00 0.000000e+00 0.000000e+00
 0.000000e+00 3.182082e-01 6.817918e-01 0.000000e+00 0.000000e+00
 0.000000e+00 0.000000e+00 2.609872e-01 7.390128e-01 0.000000e+00
 0.000000e+00 0.000000e+00 0.000000e+00 2.847197e-01 7.152802e-01
 0.000000e+00 0.000000e+00 0.000000e+00 0.000000e+00 0.000000e+00
<ENDHMM>
~h "s"
<BEGINHMM>
<NUMSTATES> 5
<STATE> 2
<MEAN> 25
 4.719478e+00 -4.241236e+00 3.240011e+00 1.079888e+00 -6.196786e-01 -9.567618e+00 1.833359e+00 8.055531e-01 1.518221e+00 -7.245061e-01 -2.911580e+00 1.007650e+00 1.817709e+00 -1.309804e+00 6.198535e-01 -1.901141e-01 -6.529950e-01 -9.734477e-01 -5.567219e-01 2.612730e-01 -5.437997e-01 -2.470893e-01 6.624237e-02 -1.057680e-01 2.009005e+00
<VARIANCE> 25
 1.691012e+02 1.170593e+02 5.833650e+01 7.311819e+01 5.649190e+01 5.703782e+01 6.688540e+01 4.792992e+01 5.444932e+01 3.392773e+01 3.497641e+01 3.048282e+01 1.285372e+01 1.466387e+01 1.035780e+01 7.625290e+00 6.870972e+00 8.375742e+00 8.134757e+00 5.216683e+00 7.553527e+00 4.210242e+00 4.402139e+00 3.151817e+00 1.149468e+01
<GCONST> 1.207827e+02
<STATE> 3
<MEAN> 25
 1.693001e+01 -1.408282e+01 9.981258e+00 -6.277142e-01 -6.666089e+00 -1.036559e+01 -5.116756e+00 4.485322e+00 -2.342170e+00 -1.499183e+00 -9.003080e-01 1.363975e-02 8.304658e-01 -1.261245e+00 4.950757e-01 -1.304732e+00 -4.685942e-01 5.759476e-01 -8.793147e-01 4.672988e-01 -2.114184e-01 2.066103e-01 4.874327e-01 -3.095663e-01 1.295172e+00
<VARIANCE> 25
 4.370203e+01 4.507536e+01 1.091865e+02 6.642812e+01 7.086866e+01 6.190012e+01 6.437851e+01 6.722264e+01 9.396568e+01 5.517745e+01 5.152230e+01 2.803386e+01 6.111463e+00 7.061184e+00 1.066797e+01 9.602338e+00 7.745417e+00 7.147079e+00 8.279785e+00 6.663482e+00 9.270382e+00 6.325511e+00 5.652803e+00 4.295517e+00 4.036954e+00
<GCONST> 1.200848e+02
<STATE> 4
<MEAN> 25
 1.535246e+01 -1.129075e+01 4.580672e+00 -1.221810e+01 3.654643e-01 -3.715132e+00 -5.051368e+00 1.059065e+00 -8.296673e-01 4.266629e+00 -3.122999e-01 -2.096136e+00 -5.058398e-01 7.313433e-01 -5.024364e-01 -4.993965e-01 8.826352e-01 2.841231e-01 6.337163e-02 -3.491708e-01 1.716122e-01 3.438590e-01 -1.383664e-01 5.334558e-02 -2.450860e-01
<VARIANCE> 25
 1.303848e+02 7.169024e+01 1.304071e+02 9.462756e+01 9.448659e+01 5.509591e+01 9.980964e+01 9.475282e+01 5.727586e+01 4.752691e+01 4.662329e+01 4.262017e+01 3.230997e+00 2.510221e+00 2.882402e+00 3.332571e+00 3.238395e+00 3.063766e+00 3.838171e+00 3.420833e+00 3.399833e+00 3.142357e+00 2.827280e+00 2.421596e+00 9.197062e-01
<GCONST> 1.111599e+02
<TRANSP> 5
 0.000000e+00 1.000000e+00 0.000000e+00 0.000000e+00 0.000000e+00
 0.000000e+00 6.023434e-01 3.976566e-01 0.000000e+00 0.000000e+00
 0.000000e+00 0.000000e+00 6.989781e-01 3.010220e-01 0.000000e+00
 0.000000e+00 0.000000e+00 0.000000e+00 9.149955e-01 8.500453e-02
 0.000000e+00 0.000000e+00 0.000000e+00 0.000000e+00 0.000000e+00
<ENDHMM>
~h "t"
<BEGINHMM>
<NUMSTATES> 5
<STATE> 2
<MEAN> 25
 8.262057e-01 8.117700e-02 -8.703518e-02 2.691033e+00 7.019274e-01 -5.443876e+00 1.085042e+00 4.743498e-01 3.504467e+00 -1.254092e+00 -1.599138e+00 1.780464e+00 1.156484e+00 -1.809385e+00 1.176398e+00 -1.206417e+00 -5.614807e-01 -8.177214e-01 -4.848981e-01 1.440527e-01 -6.727441e-02 -9.868088e-02 2.541081e-01 -1.237690e-01 2.841896e+00
<VARIANCE> 25
 1.008828e+02 7.786858e+01 5.361344e+01 5.177224e+01 3.747417e+01 8.397272e+01 4.894070e+01 3.813564e+01 3.894519e+01 1.963198e+01 2.922464e+01 2.270310e+01 1.492473e+01 9.325275e+00 1.044717e+01 5.082501e+00 7.838734e+00 7.459021e+00 6.104305e+00 5.695245e+00 4.671443e+00 3.880888e+00 3.864584e+00 2.938424e+00 1.847018e+01
<GCONST> 1.163357e+02
<STATE> 3
<MEAN> 25
 9.791210e+00 -9.524904e+00 6.386908e+00 -4.948561e+00 -1.451328e+00 -7.737578e+00 -4.821351e+00 7.034597e-01 1.411724e+00 6.474566e-02 4.480040e-02 4.344056e-01 2.400437e+00 -8.767658e-01 1.024728e+00 -1.764736e+00 -8.538822e-01 1.243479e+00 -1.143850e+00 -5.979167e-01 -1.561542e+00 7.359063e-01 5.263572e-01 -4.906223e-01 2.368555e+00
<VARIANCE> 25
 1.066986e+02 9.766239e+01 1.042291e+02 7.541015e+01 7.195197e+01 8.642444e+01 8.295831e+01 9.845470e+01 8.164725e+01 3.835027e+01 4.682948e+01 3.229292e+01 1.113462e+01 9.086314e+00 1.300041e+01 1.026653e+01 6.924169e+00 1.313111e+01 1.174877e+01 1.003295e+01 7.855927e+00 4.970451e+00 4.117024e+00 3.917504e+00 1.213440e+01
<GCONST> 1.250135e+02
<STATE> 4
<MEAN> 25
 1.702792e+01 -3.604252e+00 1.033772e+00 -1.346264e+01 -4.556037e-01 4.059680e+00 -6.250756e+00 -3.084740e+00 -4.816570e+00 2.918387e+00 1.292189e+00 4.462076e-01 -5.459785e-01 8.490012e-01 -4.591354e-01 4.185626e-01 7.223833e-02 1.636454e-01 3.203808e-01 -1.361475e-01 5.896730e-02 -9.494690e-02 -1.653042e-02 1.040251e-01 -1.155699e+00
<VARIANCE> 25
 5.064591e+01 1.621291e+02 1.358504e+02 1.173297e+02 6.934342e+01 7.631568e+01 7.432817e+01 1.081629e+02 6.347677e+01 4.321376e+01 3.266790e+01 3.251762e+01 2.643530e+00 2.962372e+00 4.148402e+00 5.110650e+00 3.452647e+00 3.875598e+00 3.481990e+00 3.670088e+00 3.862210e+00 2.565528e+00 2.409990e+00 1.779088e+00 1.817035e+00
<GCONST> 1.116880e+02
<TRANSP> 5
 0.000000e+00 1.000000e+00 0.000000e+00 0.000000e+00 0.000000e+00
 0.000000e+00 3.524083e-01 6.475918e-01 0.000000e+00 0.000000e+00
 0.000000e+00 0.000000e+00 6.548709e-01 3.451290e-01 0.000000e+00
 0.000000e+00 0.000000e+00 0.000000e+00 9.038342e-01 9.616586e-02
 0.000000e+00 0.000000e+00 0.000000e+00 0.000000e+00 0.000000e+00
<ENDHMM>
~h "w"
<BEGINHMM>
<NUMSTATES> 5
<STATE> 2
<MEAN> 25
 2.347046e+01 -3.560997e+00 -5.141975e+00 -1.748672e+01 -2.043508e+00 4.184433e+00 -1.980965e+00 -3.301970e+00 -7.469696e+00 1.533615e+00 7.032583e+00 -9.427733e-01 2.991381e-01 -2.382380e+00 1.182229e-01 9.417379e-01 4.178570e-01 -1.153760e+00 -1.064938e-01 9.716801e-02 4.912046e-01 1.274212e+00 2.841644e-01 -1.552856e+00 1.679104e+00
<VARIANCE> 25
 3.213286e+01 7.849499e+01 8.332204e+01 7.855244e+01 6.828088e+01 6.392510e+01 5.346492e+01 6.049989e+01 5.864153e+01 4.959022e+01 4.312465e+01 3.765411e+01 2.696784e+00 4.939751e+00 4.651221e+00 6.483631e+00 7.522013e+00 7.420797e+00 6.067357e+00 3.668093e+00 6.025198e+00 4.910318e+00 5.575178e+00 4.930435e+00 1.819584e+00
<GCONST> 1.148172e+02
<STATE> 3
<MEAN> 25
 2.189181e+01 -1.410081e+01 -4.303684e+00 -9.411222e+00 8.658441e-01 -3.824559e+00 -2.481746e+00 7.441373e-01 -4.966215e+00 5.871751e+00 3.877623e+00 -8.778196e+00 -7.088630e-01 -2.008212e+00 7.751395e-01 1.790077e+00 -3.649302e-01 -1.789792e+00 2.633994e-01 1.720815e+00 1.873883e+00 -8.947276e-01 -2.074324e+00 -9.204136e-01 8.772193e-01
<VARIANCE> 25
 3.601865e+01 3.956349e+01 6.588261e+01 8.199919e+01 5.572365e+01 5.441487e+01 6.779615e+01 9.641158e+01 6.414205e+01 5.344547e+01 4.951391e+01 3.755707e+01 7.089367e-01 3.146730e+00 2.284690e+00 2.460502e+00 3.734771e+00 3.655573e+00 3.907367e+00 3.042145e+00 4.522243e+00 3.757914e+00 2.777810e+00 3.233224e+00 1.048241e+00
<GCONST> 1.069670e+02
<STATE> 4
<MEAN> 25
 1.948140e+01 -1.586003e+01 -8.312593e-01 -3.323581e+00 -3.409425e+00 -7.987357e+00 1.137761e+00 4.416060e+00 -9.841176e-01 2.297911e+00 -4.096931e+00 -9.057849e+00 -5.694483e-02 1.934752e-01 3.904002e-01 1.214693e+00 -1.011695e+00 1.004429e-01 3.033422e-01 -2.836205e-01 5.966383e-01 -3.989820e-01 -1.322646e+00 3.878289e-01 -6.908796e-01
<VARIANCE> 25
 2.688216e+01 5.831245e+01 5.282061e+01 1.220846e+02 6.156771e+01 4.594133e+01 6.136155e+01 1.229389e+02 4.426744e+01 3.789534e+01 4.568210e+01 2.641236e+01 1.040003e+00 2.715804e+00 1.945897e+00 3.771647e+00 2.500639e+00 3.729357e+00 3.124953e+00 7.046528e+00 4.129624e+00 4.035990e+00 2.584023e+00 2.700592e+00 1.621626e+00
<GCONST> 1.070684e+02
<TRANSP> 5
 0.000000e+00 1.000000e+00 0.000000e+00 0.000000e+00 0.000000e+00
 0.000000e+00 7.306514e-01 2.693486e-01 0.000000e+00 0.000000e+00
 0.000000e+00 0.000000e+00 6.767212e-01 3.232788e-01 0.000000e+00
 0.000000e+00 0.000000e+00 0.000000e+00 8.105844e-01 1.894156e-01
 0.000000e+00 0.000000e+00 0.000000e+00 0.000000e+00 0.000000e+00
<ENDHMM>
~h "z"
<BEGINHMM>
<NUMSTATES> 5
<STATE> 2
<MEAN> 25
 -6.365134e+00 1.045369e+00 -2.173969e+00 1.185530e+00 7.741495e-01 2.926723e-01 -6.943097e-01 1.799518e+00 8.911460e-01 -7.500300e-02 -2.304562e-01 8.176165e-01 7.141910e-02 1.603599e-02 -4.301710e-02 -9.218795e-03 -2.976481e-02 -9.215723e-02 -6.183009e-02 -5.527038e-02 -5.995877e-02 -6.240043e-02 -5.015868e-02 -4.693539e-02 4.045060e-02
<VARIANCE> 25
 4.030879e+00 2.387365e+00 5.546796e+00 1.376227e+01 1.271955e+01 1.116146e+01 1.430596e+01 1.373428e+01 1.189753e+01 1.149920e+01 1.102325e+01 8.012642e+00 5.956874e-01 2.986435e-01 4.328792e-01 9.958685e-01 7.513499e-01 1.438795e+00 1.250990e+00 1.197636e+00 1.193658e+00 1.186005e+00 8.328325e-01 8.731214e-01 1.173905e+00
<GCONST> 7.028566e+01
<STATE> 3
<MEAN> 25
 -8.088727e+00 -9.428512e-01 -2.817345e+00 2.118045e+00 -2.172634e-01 4.246494e-01 6.382987e-01 1.959964e+00 3.103042e+00 -6.210148e-01 -8.148518e-01 1.010702e-01 2.050379e-01 7.420846e-02 1.605198e-01 -1.996778e-02 1.755992e-02 -8.342518e-02 3.307381e-02 5.995598e-02 6.979632e-02 1.253958e-01 -3.494935e-02 -2.888303e-01 1.786503e-01
<VARIANCE> 25
 8.258525e+00 1.301605e+01 2.320119e+01 1.316181e+01 9.752501e+00 1.115811e+01 2.387777e+01 1.234909e+01 2.597337e+01 1.081660e+01 1.475856e+01 1.226455e+01 7.978462e-01 1.469373e+00 3.361271e+00 1.393509e+00 1.041288e+00 1.120892e+00 2.237095e+00 1.598745e+00 4.550803e+00 1.104074e+00 1.396043e+00 1.702479e+00 9.235048e-01
<GCONST> 8.309136e+01
<STATE> 4
<MEAN> 25
 1.196641e+01 -8.732529e-01 -1.327324e-01 -1.037380e+01 7.297958e+00 -5.510889e-01 -4.929546e+00 -2.087610e+00 -1.193593e+00 3.060831e-01 -2.791116e+00 -2.236775e-01 3.687687e-01 1.015039e-01 1.064860e-01 -2.987711e-01 1.041104e-01 -1.551567e-01 -3.335949e-01 -3.275376e-01 -2.281411e-01 -1.014245e-01 -1.649942e-01 -1.906142e-02 4.361272e-01
<VARIANCE> 25
 2.120201e+02 1.231854e+02 8.838954e+01 1.669513e+02 4.423642e+01 1.306338e+02 9.521161e+01 5.414771e+01 3.997697e+01 4.388838e+01 3.938211e+01 2.075155e+01 6.464288e+00 8.935825e+00 6.443405e+00 9.594903e+00 4.854164e+00 6.051959e+00 8.033919e+00 5.473883e+00 4.601276e+00 6.969977e+00 5.966300e+00 2.515696e+00 1.040929e+01
<GCONST> 1.209662e+02
<TRANSP> 5
 0.000000e+00 1.000000e+00 0.000000e+00 0.000000e+00 0.000000e+00
 0.000000e+00 9.599093e-01 4.009074e-02 0.000000e+00 0.000000e+00
 0.000000e+00 0.000000e+00 7.966813e-01 2.033187e-01 0.000000e+00
 0.000000e+00 0.000000e+00 0.000000e+00 8.960973e-01 1.039027e-01
 0.000000e+00 0.000000e+00 0.000000e+00 0.000000e+00 0.000000e+00
<ENDHMM>
~h "ae"
<BEGINHMM>
<NUMSTATES> 5
<STATE> 2
<MEAN> 25
 1.888755e+01 -2.182345e+01 -2.280398e+00 -4.551137e+00 -1.961568e+00 -1.717096e+00 -2.375699e-01 3.247971e+00 3.150662e+00 2.925042e+00 -4.110265e+00 -4.418070e+00 1.870704e-01 -1.709728e+00 8.237004e-02 2.237303e-01 -2.744532e-01 -1.386304e+00 1.605778e+00 9.615712e-01 -7.834359e-01 -1.769217e-01 -1.642403e+00 -2.315583e-01 1.282171e+00
<VARIANCE> 25
 2.680583e+01 1.841491e+01 7.192310e+01 1.172759e+02 7.122465e+01 8.048982e+01 5.182946e+01 3.733699e+01 2.256219e+01 3.642899e+01 3.035939e+01 2.230373e+01 4.492805e+00 3.263842e+00 7.817645e+00 7.030238e+00 9.826550e+00 6.478590e+00 4.377885e+00 5.684495e+00 4.602239e+00 3.047828e+00 2.714872e+00 2.814922e+00 1.358344e+00
<GCONST> 1.096810e+02
<STATE> 3
<MEAN> 25
 1.815412e+01 -2.387724e+01 6.916192e-01 -4.017324e-01 -5.645913e+00 -7.468333e+00 5.662916e+00 7.487455e+00 -2.151757e+00 -1.218889e+00 -7.477353e+00 -2.918875e+00 -5.273992e-01 3.500133e-01 1.123310e+00 -1.836977e-01 -5.078896e-01 -6.572999e-01 9.614331e-01 1.218457e+00 -1.476959e+00 -7.655858e-01 7.491992e-01 -1.178545e-01 -1.897528e-01
<VARIANCE> 25
 1.655876e+01 2.253875e+01 4.623328e+01 1.289283e+02 5.120625e+01 4.057884e+01 5.134163e+01 5.377703e+01 2.455319e+01 2.193312e+01 2.926260e+01 1.946376e+01 6.154355e-01 1.845458e+00 3.588027e+00 2.396981e+00 4.007455e+00 2.056993e+00 2.276152e+00 2.564262e+00 1.631227e+00 1.475008e+00 1.842589e+00 1.712578e+00 8.376085e-01
<GCONST> 9.676082e+01
<STATE> 4
<MEAN> 25
 1.355466e+01 -2.016912e+01 1.502233e+01 -1.051173e+01 -1.058146e+01 -5.542313e+00 2.524953e+00 1.445748e+01 -9.918738e+00 -7.086060e-01 2.519355e+00 -4.712137e+00 -2.056670e-02 1.126489e+00 5.216628e-01 3.036284e-01 -6.201720e-01 3.033266e-01 5.617418e-01 -4.974751e-01 -1.273432e+00 2.086916e-01 5.912126e-01 -2.256596e-01 -6.929159e-01
<VARIANCE> 25
 9.014028e+00 2.212003e+01 5.449238e+01 4.970497e+01 5.167295e+01 2.511596e+01 5.952610e+01 4.232254e+01 4.368195e+01 3.313511e+01 3.504699e+01 2.723835e+01 3.199189e-01 2.209607e+00 2.427047e+00 1.993674e+00 2.488236e+00 1.397606e+00 2.369133e+00 3.062207e+00 2.973156e+00 1.965383e+00 1.903698e+00 1.358623e+00 9.363516e-01
<GCONST> 9.539297e+01
<TRANSP> 5
 0.000000e+00 1.000000e+00 0.000000e+00 0.000000e+00 0.000000e+00
 0.000000e+00 6.879722e-01 3.120278e-01 0.000000e+00 0.000000e+00
 0.000000e+00 0.000000e+00 7.992624e-01 2.007376e-01 0.000000e+00
 0.000000e+00 0.000000e+00 0.000000e+00 8.803500e-01 1.196500e-01
 0.000000e+00 0.000000e+00 0.000000e+00 0.000000e+00 0.000000e+00
<ENDHMM>
~h "ah"
<BEGINHMM>
<NUMSTATES> 5
<STATE> 2
<MEAN> 25
 2.005797e+01 -4.019920e+00 -5.197461e+00 -7.662687e+00 1.425800e+00 1.380665e+00 -6.867081e+00 -7.366853e+00 -5.500345e-01 5.966983e+00 -3.472469e+00 -4.590418e+00 -1.094266e-01 1.479884e+00 -1.084577e-01 7.366300e-01 -8.671645e-01 6.986524e-01 4.239306e-01 -9.496999e-01 4.813586e-02 -4.101045e-01 1.153136e-02 4.164283e-01 -1.443008e+00
<VARIANCE> 25
 2.559068e+01 7.837521e+01 6.449126e+01 1.492423e+02 6.097857e+01 8.745086e+01 8.148579e+01 8.784090e+01 5.741072e+01 5.705390e+01 7.539012e+01 2.930064e+01 2.418372e+00 6.428899e+00 6.088110e+00 8.366438e+00 6.413321e+00 5.433783e+00 7.845067e+00 8.181683e+00 3.853716e+00 6.143935e+00 3.797214e+00 2.216531e+00 4.528058e+00
<GCONST> 1.171671e+02
<STATE> 3
<MEAN> 25
 1.981347e+01 2.139793e+00 -6.550659e+00 -4.696412e+00 1.908034e-01 1.760644e+00 -5.037697e+00 -9.093180e+00 -1.323839e+00 3.503498e+00 -2.468094e+00 -3.397480e+00 -9.489918e-01 2.525950e+00 1.403954e-01 5.448416e-01 -2.056512e-01 6.295956e-02 5.119390e-01 1.911878e-01 -1.113218e-01 -1.037364e+00 5.994143e-01 4.191725e-01 -2.121481e+00
<VARIANCE> 25
 3.171916e+01 9.636135e+01 6.864744e+01 1.129766e+02 6.186183e+01 6.730819e+01 4.486900e+01 6.482553e+01 5.542456e+01 6.210119e+01 4.964736e+01 2.881723e+01 3.265448e+00 6.292761e+00 7.534964e+00 6.711393e+00 8.233628e+00 5.719202e+00 6.005249e+00 6.732948e+00 5.009837e+00 5.045938e+00 5.124396e+00 2.130347e+00 2.814568e+00
<GCONST> 1.158004e+02
<STATE> 4
<MEAN> 25
 1.597314e+01 8.873695e+00 -4.427863e+00 -2.448952e+00 -9.818813e-01 1.540882e+00 -2.603668e+00 -7.351111e+00 -2.834840e+00 -1.992895e-01 -1.843535e+00 -3.177183e+00 -1.786184e+00 6.425790e-01 7.725550e-01 7.615619e-02 -4.505941e-01 3.415692e-01 4.866146e-01 5.232592e-01 1.640012e-01 -4.173451e-01 3.446022e-01 4.735390e-01 -1.548626e+00
<VARIANCE> 25
 7.441660e+01 9.919439e+01 1.160829e+02 8.525091e+01 5.418365e+01 5.815221e+01 4.066240e+01 3.596984e+01 4.738472e+01 4.481005e+01 3.332819e+01 2.227628e+01 3.579925e+00 5.456904e+00 4.567132e+00 4.053403e+00 4.115489e+00 2.944875e+00 4.003713e+00 2.998814e+00 2.868429e+00 3.060007e+00 2.116176e+00 1.648879e+00 1.557930e+00
<GCONST> 1.084038e+02
<TRANSP> 5
 0.000000e+00 1.000000e+00 0.000000e+00 0.000000e+00 0.000000e+00
 0.000000e+00 5.858812e-01 4.141188e-01 0.000000e+00 0.000000e+00
 0.000000e+00 0.000000e+00 5.000935e-01 4.999065e-01 0.000000e+00
 0.000000e+00 0.000000e+00 0.000000e+00 6.850318e-01 3.149682e-01
 0.000000e+00 0.000000e+00 0.000000e+00 0.000000e+00 0.000000e+00
<ENDHMM>
~h "ao"
<BEGINHMM>
<NUMSTATES> 5
<STATE> 2
<MEAN> 25
 -9.723352e+00 8.065488e+00 1.537143e+00 6.644809e+00 2.715463e+00 3.062523e+00 2.482579e+00 9.467385e-01 1.706239e+00 -7.288958e-01 9.749742e-01 2.103405e+00 3.105658e+00 4.544588e-01 1.243250e+00 -2.004021e-01 -4.645042e-01 -1.056496e+00 -4.049584e-01 -2.785790e-01 1.818007e-01 -2.450375e-01 -2.624412e-01 2.093335e-01 3.326663e+00
<VARIANCE> 25
 5.855423e+01 4.443496e+01 4.617987e+01 1.830017e+01 1.747748e+01 1.275219e+01 2.296796e+01 2.004777e+01 1.360779e+01 1.643924e+01 1.631143e+01 1.166483e+01 9.198165e+00 9.413490e+00 7.894266e+00 2.993906e+00 2.407888e+00 2.163757e+00 2.701396e+00 2.322242e+00 1.959548e+00 1.674433e+00 1.896254e+00 1.104255e+00 1.417547e+01
<GCONST> 9.843745e+01
<STATE> 3
<MEAN> 25
 2.333500e+00 1.402209e+01 8.139816e+00 7.208366e+00 1.680236e-01 7.241606e-01 8.145335e-01 -8.227739e-01 1.757473e+00 -2.010083e+00 2.880435e-01 2.188379e+00 5.826350e+00 -1.209840e+00 4.690858e-01 -1.463097e+00 -1.053095e+00 -3.134392e+00 -1.056572e+00 -7.729782e-01 2.019729e-01 1.884317e-01 -1.119956e+00 -1.628526e-01 6.910315e+00
<VARIANCE> 25
 8.854124e+01 1.316159e+02 8.010345e+01 3.021306e+01 2.536480e+01 2.693675e+01 4.582318e+01 2.829949e+01 1.709323e+01 1.406038e+01 1.549215e+01 1.648484e+01 7.536386e+00 1.983799e+01 1.021366e+01 6.482829e+00 3.007115e+00 4.731942e+00 5.450548e+00 3.320492e+00 4.425992e+00 3.750117e+00 3.460878e+00 3.370324e+00 1.866145e+01
<GCONST> 1.107648e+02
<STATE> 4
<MEAN> 25
 1.114497e+01 4.026461e+00 4.959328e+00 2.323694e+00 -3.202659e-01 -8.587593e+00 -1.534542e+00 -1.502937e+00 1.973359e+00 -2.035463e+00 -3.055402e+00 7.862563e-01 4.307478e+00 -5.029810e+00 -1.027980e+00 -2.502234e+00 1.026484e-02 -3.478035e+00 -2.080695e+00 4.918196e-02 3.301151e-01 6.600619e-01 -1.305655e+00 -6.117683e-01 6.642165e+00
<VARIANCE> 25
 3.995581e+01 2.259038e+02 1.117262e+02 8.144401e+01 5.158314e+01 8.263960e+01 6.805168e+01 3.859086e+01 2.999963e+01 2.728088e+01 2.186296e+01 2.980589e+01 1.373723e+01 1.347737e+01 9.189636e+00 7.294611e+00 5.216043e+00 9.508389e+00 1.269300e+01 6.095603e+00 7.569048e+00 3.547554e+00 4.832134e+00 3.886365e+00 1.072135e+01
<GCONST> 1.198628e+02
<TRANSP> 5
 0.000000e+00 1.000000e+00 0.000000e+00 0.000000e+00 0.000000e+00
 0.000000e+00 3.934521e-01 6.065479e-01 0.000000e+00 0.000000e+00
 0.000000e+00 0.000000e+00 1.603219e-01 8.396781e-01 0.000000e+00
 0.000000e+00 0.000000e+00 0.000000e+00 4.572952e-01 5.427048e-01
 0.000000e+00 0.000000e+00 0.000000e+00 0.000000e+00 0.000000e+00
<ENDHMM>
~h "aw"
<BEGINHMM>
<NUMSTATES> 5
<STATE> 2
<MEAN> 25
 2.303995e+01 -1.157155e+01 -6.025970e+00 -1.278159e+01 4.967450e+00 9.707093e+00 -5.508330e+00 -1.548062e+00 6.016919e-02 -4.147654e-01 6.157175e-01 -3.155152e+00 2.078303e-01 -4.965315e-01 -4.826924e-02 -8.422396e-01 2.005550e-01 1.227750e-01 -5.959821e-01 5.568644e-01 4.213781e-01 -6.747315e-02 -9.146028e-02 -1.407011e-01 5.274779e-01
<VARIANCE> 25
 1.738338e+01 1.338043e+02 8.668127e+01 1.271910e+02 4.337709e+01 3.815928e+01 7.496919e+01 5.091299e+01 4.011299e+01 6.195910e+01 1.985358e+01 4.086657e+01 3.070630e+00 9.212486e+00 8.064960e+00 7.042993e+00 7.580556e+00 2.384144e+00 7.600540e+00 5.791281e+00 3.969693e+00 5.543516e+00 3.839159e+00 4.789831e+00 8.511098e+00
<GCONST> 1.153880e+02
<STATE> 3
<MEAN> 25
 2.533010e+01 -1.145775e+01 -3.685686e+00 -9.171482e+00 -1.569087e+00 6.467466e+00 -4.432176e+00 1.084050e-01 -4.752096e-01 2.084036e+00 5.453931e+00 -7.678353e+00 -5.109525e-01 2.136161e+00 -5.674168e-01 7.937946e-01 3.441465e-01 -5.156033e-01 -2.484725e-02 -3.774045e-01 5.789845e-01 2.786445e-01 -1.913673e-01 2.478893e-01 -1.621261e+00
<VARIANCE> 25
 2.089955e+01 1.270453e+02 1.151077e+02 8.104861e+01 4.498599e+01 5.413081e+01 5.604041e+01 4.542622e+01 1.947778e+01 3.003286e+01 3.415578e+01 1.280695e+01 2.762884e+00 4.156292e+00 7.999285e+00 2.889687e+00 6.556356e+00 1.646642e+00 1.057116e+01 2.878084e+00 3.106605e+00 2.472235e+00 2.952855e+00 2.281897e+00 4.485202e+00
<GCONST> 1.078875e+02
<STATE> 4
<MEAN> 25
 1.186397e+01 5.101812e+00 -1.231653e+01 -5.714556e+00 1.584273e+00 5.641580e+00 7.160110e-01 -3.760345e+00 -1.547329e-01 3.220364e+00 2.295059e+00 -9.779472e-01 -3.684779e+00 7.876700e-02 1.068840e+00 -2.173364e-01 -1.822689e+00 -2.407302e-01 5.869021e-01 3.650259e-01 -1.211448e-01 9.807727e-02 9.430156e-01 1.482101e+00 -2.666196e+00
<VARIANCE> 25
 4.482288e+01 6.672516e+00 8.762318e+01 5.639221e+01 3.128357e+01 1.022752e+01 2.623495e+01 1.213530e+01 2.261326e+01 1.645547e+01 3.367084e+01 2.423705e+01 2.125872e+00 1.958453e+00 3.075832e+00 3.294136e+00 1.967332e+00 2.510197e+00 2.093663e+00 1.014549e+00 2.298551e+00 2.129386e+00 2.634672e+00 1.767872e+00 1.680377e+00
<GCONST> 9.404624e+01
<TRANSP> 5
 0.000000e+00 1.000000e+00 0.000000e+00 0.000000e+00 0.000000e+00
 0.000000e+00 8.824496e-01 1.175504e-01 0.000000e+00 0.000000e+00
 0.000000e+00 0.000000e+00 8.442094e-01 1.557906e-01 0.000000e+00
 0.000000e+00 0.000000e+00 0.000000e+00 7.199764e-01 2.800236e-01
 0.000000e+00 0.000000e+00 0.000000e+00 0.000000e+00 0.000000e+00
<ENDHMM>
~h "ay"
<BEGINHMM>
<NUMSTATES> 5
<STATE> 2
<MEAN> 25
 1.211121e+01 -5.295599e+00 -8.372610e-01 -1.136327e+01 5.978990e+00 -2.092949e+00 -8.127414e+00 -1.081819e+00 3.038621e+00 2.465534e+00 -1.596447e+00 -1.702725e+00 -2.859605e-01 -1.124740e-03 -6.136965e-02 -5.687493e-01 8.562587e-01 -3.266533e-01 1.822638e-01 2.714186e-01 3.601247e-01 1.592537e-01 2.488049e-01 1.016330e-01 5.244803e-01
<VARIANCE> 25
 9.648444e+01 1.066636e+02 6.643145e+01 1.351980e+02 6.805048e+01 8.034540e+01 1.207476e+02 1.057323e+02 8.321909e+01 6.383154e+01 3.553840e+01 4.924162e+01 7.881645e+00 1.057902e+01 5.327728e+00 8.031696e+00 5.854701e+00 8.150662e+00 8.858856e+00 6.344617e+00 9.227694e+00 6.306098e+00 3.413243e+00 4.096714e+00 1.311016e+01
<GCONST> 1.237442e+02
<STATE> 3
<MEAN> 25
 5.804636e+00 -7.795899e+00 2.527817e+00 -6.162566e+00 4.378734e+00 -7.185029e+00 -5.704994e-01 1.025551e+00 3.631422e+00 2.073238e+00 -9.898477e-01 7.581296e-01 2.310381e+00 -1.989277e+00 7.966909e-01 2.119506e-01 -1.272753e+00 8.237138e-01 -6.540389e-01 3.911875e-01 -3.645802e-01 4.190238e-01 -3.217140e-01 -8.332208e-01 1.718146e+00
<VARIANCE> 25
 9.813457e+01 6.959858e+01 1.256034e+02 7.002599e+01 7.049822e+01 7.918665e+01 9.281529e+01 4.661234e+01 4.927308e+01 3.029845e+01 3.758730e+01 3.956137e+01 1.373153e+01 6.372431e+00 1.761653e+01 1.322560e+01 1.043535e+01 1.282465e+01 1.482761e+01 6.309532e+00 7.526759e+00 5.511256e+00 5.920339e+00 3.858407e+00 9.836770e+00
<GCONST> 1.239687e+02
<STATE> 4
<MEAN> 25
 1.478645e+01 -1.184722e+01 1.152422e+00 -8.699768e+00 -5.497730e-01 -2.389592e+00 -4.387728e+00 -3.253435e-01 1.788676e+00 3.949538e+00 1.399885e-01 -2.667107e+00 5.623937e-01 -7.317281e-01 -5.770626e-01 2.798184e-01 -5.030411e-01 5.626855e-01 4.514284e-02 -2.409995e-02 2.258714e-01 -1.965207e-01 -2.818435e-02 -1.211302e-01 1.827201e-01
<VARIANCE> 25
 4.400809e+01 7.007386e+01 1.553707e+02 8.517780e+01 6.213118e+01 6.385299e+01 6.703677e+01 7.809473e+01 5.941787e+01 4.630290e+01 3.290729e+01 3.132857e+01 4.992954e+00 6.746732e+00 9.808134e+00 9.597289e+00 6.601914e+00 7.242436e+00 5.981848e+00 5.685500e+00 4.700678e+00 5.619347e+00 4.858200e+00 3.903156e+00 5.937467e+00
<GCONST> 1.186318e+02
<TRANSP> 5
 0.000000e+00 1.000000e+00 0.000000e+00 0.000000e+00 0.000000e+00
 0.000000e+00 8.562716e-01 1.437284e-01 0.000000e+00 0.000000e+00
 0.000000e+00 0.000000e+00 7.796735e-01 2.203265e-01 0.000000e+00
 0.000000e+00 0.000000e+00 0.000000e+00 8.249137e-01 1.750863e-01
 0.000000e+00 0.000000e+00 0.000000e+00 0.000000e+00 0.000000e+00
<ENDHMM>
~h "eh"
<BEGINHMM>
<NUMSTATES> 5
<STATE> 2
<MEAN> 25
 2.145295e+01 -1.758913e+01 -6.247675e-01 2.959711e+00 -1.047278e+01 -5.133015e+00 2.568147e+00 -1.565807e+00 6.727259e-01 4.505784e+00 -6.325142e+00 -3.999285e+00 4.479836e-02 5.785018e-01 -4.184306e-01 9.354129e-01 -5.442281e-02 -5.732324e-01 3.703122e-01 -1.098484e-01 -1.409286e-01 -2.637729e-02 -2.807557e-01 2.510163e-01 -7.040839e-01
<VARIANCE> 25
 2.147711e+01 3.129397e+01 4.713671e+01 5.902882e+01 3.982851e+01 4.604798e+01 4.162830e+01 8.708541e+01 4.640993e+01 5.556195e+01 4.278653e+01 2.611390e+01 2.385244e+00 4.036785e+00 6.032892e+00 6.198340e+00 4.571751e+00 4.042117e+00 4.396582e+00 8.425322e+00 4.871450e+00 5.356655e+00 3.986557e+00 2.561984e+00 3.973238e+00
<GCONST> 1.103521e+02
<STATE> 3
<MEAN> 25
 1.939249e+01 -6.660769e+00 -7.147740e+00 7.414651e+00 -4.779334e+00 -8.539216e+00 1.632589e+00 7.632210e-01 1.697082e+00 5.303793e-01 -5.451724e+00 -2.006619e+00 -1.351474e+00 2.839691e+00 -5.362819e-01 -5.712258e-01 1.414203e+00 6.460587e-01 -6.432306e-01 9.217399e-01 4.538438e-01 -1.255581e+00 5.067314e-01 5.656641e-01 -2.558622e+00
<VARIANCE> 25
 3.276505e+01 6.444529e+01 4.587265e+01 5.025522e+01 6.613895e+01 3.404710e+01 5.403070e+01 7.536187e+01 5.783457e+01 6.159387e+01 4.397483e+01 3.061054e+01 2.820001e+00 4.969641e+00 4.464945e+00 5.415091e+00 6.947941e+00 4.179080e+00 3.863002e+00 6.122720e+00 3.951629e+00 5.170767e+00 4.326484e+00 1.957707e+00 3.818233e+00
<GCONST> 1.116105e+02
<STATE> 4
<MEAN> 25
 8.418249e+00 4.732264e+00 -3.324290e+00 1.383494e+00 -3.088418e+00 -2.343753e+00 2.619916e-01 1.355393e+00 2.815851e+00 -1.612794e+00 -3.455284e+00 -5.848842e-01 -2.250067e+00 1.161021e+00 6.773167e-01 -8.770182e-01 -5.885914e-02 9.697409e-01 -2.731664e-02 -2.146663e-01 3.526488e-02 1.498733e-01 6.971985e-01 3.111076e-01 -1.979369e+00
<VARIANCE> 25
 1.096222e+02 1.255462e+02 8.807327e+01 5.088193e+01 5.691793e+01 3.782893e+01 3.840207e+01 5.722493e+01 4.319014e+01 4.494529e+01 2.189666e+01 2.151985e+01 2.960045e+00 9.185682e+00 6.622938e+00 5.046320e+00 5.627304e+00 3.311059e+00 4.053471e+00 3.842828e+00 2.541343e+00 3.352606e+00 2.445658e+00 1.904187e+00 3.642441e+00
<GCONST> 1.104367e+02
<TRANSP> 5
 0.000000e+00 1.000000e+00 0.000000e+00 0.000000e+00 0.000000e+00
 0.000000e+00 8.729906e-01 1.270094e-01 0.000000e+00 0.000000e+00
 0.000000e+00 0.000000e+00 7.493922e-01 2.506079e-01 0.000000e+00
 0.000000e+00 0.000000e+00 0.000000e+00 7.444538e-01 2.555462e-01
 0.000000e+00 0.000000e+00 0.000000e+00 0.000000e+00 0.000000e+00
<ENDHMM>
~h "er"
<BEGINHMM>
<NUMSTATES> 5
<STATE> 2
<MEAN> 25
 9.851645e+00 -4.693628e+00 3.248893e+00 -1.053715e+01 4.659675e+00 -2.871815e+00 -3.789530e+00 4.298191e-01 1.694105e+00 -2.543926e-01 4.983918e-01 -8.384150e-01 -1.991699e+00 1.044728e+00 -7.525900e-02 4.250251e-01 3.422154e-01 -2.656565e-01 1.005930e+00 3.355584e-01 -7.844992e-02 -9.714774e-01 6.471647e-01 1.199097e-01 -3.302920e-01
<VARIANCE> 25
 1.789932e+02 1.012819e+02 7.797382e+01 8.955645e+01 8.142657e+01 1.071059e+02 1.225995e+02 1.092571e+02 4.993084e+01 9.003317e+01 4.983021e+01 1.009730e+02 1.105326e+01 6.525749e+00 8.709117e+00 7.465866e+00 7.085238e+00 6.714850e+00 1.091528e+01 1.013617e+01 6.710804e+00 8.988246e+00 4.956198e+00 7.243046e+00 1.294519e+00
<GCONST> 1.250741e+02
<STATE> 3
<MEAN> 25
 -2.652980e+00 -1.329233e+00 8.621776e+00 -7.654453e+00 2.538436e+00 -1.020246e+01 3.894489e+00 3.325784e+00 -1.989355e+00 -2.213387e+00 2.256617e+00 2.715282e+00 8.398061e-01 -9.122368e-01 5.898990e-01 6.204184e-01 -1.349872e+00 -6.161310e-01 1.769602e-01 2.728077e-01 -3.664347e-01 -3.586857e-02 1.599607e-01 -7.922341e-02 1.956055e-01
<VARIANCE> 25
 1.778536e+02 9.122843e+01 6.810490e+01 5.075146e+01 1.057780e+02 6.742676e+01 9.654913e+01 8.371556e+01 4.255755e+01 4.840536e+01 3.890297e+01 3.275457e+01 2.364843e+01 8.577902e+00 6.508556e+00 4.442470e+00 7.609496e+00 6.812584e+00 1.134190e+01 7.762686e+00 5.427307e+00 5.172477e+00 4.709567e+00 4.217780e+00 2.291235e+00
<GCONST> 1.206953e+02
<STATE> 4
<MEAN> 25
 1.540249e+01 -1.189774e+01 5.994968e+00 2.866941e+00 -6.912512e+00 -9.767696e+00 -2.992638e+00 1.363235e+00 1.155521e+00 4.932919e-01 -3.367253e+00 6.452491e-01 7.381460e-02 4.722325e-01 -1.125982e+00 8.065001e-01 5.992558e-01 -9.041461e-02 -5.884983e-01 -1.028239e-01 6.155007e-01 2.082879e-01 -5.680547e-01 1.926457e-01 -1.106836e+00
<VARIANCE> 25
 5.783210e+01 5.439433e+01 8.243372e+01 8.215363e+01 6.362865e+01 7.543119e+01 5.602552e+01 6.386859e+01 5.750331e+01 5.007616e+01 5.215004e+01 4.267233e+01 8.377643e+00 6.988139e+00 8.901559e+00 8.447511e+00 8.376623e+00 7.853571e+00 5.383328e+00 6.892901e+00 5.815107e+00 5.742195e+00 5.657718e+00 4.050830e+00 5.614344e+00
<GCONST> 1.197089e+02
<TRANSP> 5
 0.000000e+00 1.000000e+00 0.000000e+00 0.000000e+00 0.000000e+00
 0.000000e+00 8.344189e-01 1.655811e-01 0.000000e+00 0.000000e+00
 0.000000e+00 0.000000e+00 8.916321e-01 1.083679e-01 0.000000e+00
 0.000000e+00 0.000000e+00 0.000000e+00 9.220388e-01 7.796116e-02
 0.000000e+00 0.000000e+00 0.000000e+00 0.000000e+00 0.000000e+00
<ENDHMM>
~h "ey"
<BEGINHMM>
<NUMSTATES> 5
<STATE> 2
<MEAN> 25
 1.004322e+00 1.070674e+01 6.327205e+00 3.512151e+00 -2.063714e+00 2.383543e+00 2.837902e+00 1.261592e-02 2.277383e+00 -1.555052e+00 2.447342e+00 -2.029829e-01 3.956823e+00 -6.499947e-01 4.651894e+00 -1.772532e+00 -4.311114e+00 -1.826700e+00 2.997440e-02 1.353615e+00 -2.651219e+00 -1.224959e-01 1.488504e+00 -7.101464e-02 4.652752e+00
<VARIANCE> 25
 7.164155e+01 4.606286e+01 5.281078e+01 3.660605e+01 5.124635e+01 8.919170e+00 1.290711e+01 1.674637e+01 1.843120e+01 1.094139e+01 1.361800e+01 1.475483e+01 7.982090e+00 9.347799e+00 1.671429e+01 8.961107e+00 6.948481e+00 6.476425e+00 8.565221e+00 5.425925e+00 7.416613e+00 5.729793e+00 1.499161e+00 3.363404e+00 1.583633e+01
<GCONST> 1.088226e+02
<STATE> 3
<MEAN> 25
 8.896523e+00 5.318462e+00 1.758309e+01 -1.963682e+00 -1.479837e+01 -4.698596e+00 1.952356e+00 4.237696e+00 -8.636529e+00 -2.423181e+00 6.286770e+00 -9.138338e-01 2.343417e+00 -3.033306e+00 4.180959e+00 -2.078476e+00 -2.691497e+00 -1.569253e+00 -3.336145e-01 6.007956e-01 -3.853822e+00 2.617823e-01 3.470756e-01 -1.615999e-01 4.570081e+00
<VARIANCE> 25
 3.322049e+01 5.668232e+01 1.305159e+02 7.721123e+01 3.955335e+01 8.122337e+01 8.002232e+01 4.793631e+01 6.700502e+01 7.128049e+01 1.449233e+01 3.814112e+01 8.132590e+00 2.961630e+00 1.626573e+01 9.155040e+00 6.751389e+00 4.771156e+00 7.117776e+00 4.330038e+00 8.381223e+00 5.288719e+00 2.269324e+00 2.496521e+00 1.117849e+01
<GCONST> 1.168444e+02
<STATE> 4
<MEAN> 25
 1.584863e+01 -1.458786e+01 1.942423e+01 -6.755481e+00 -1.286909e+01 -6.034208e+00 -4.368672e+00 6.707965e+00 -8.697186e+00 1.109521e+00 1.602193e+00 1.908449e+00 4.444376e-01 -9.687438e-01 -7.005063e-01 6.975423e-02 3.358161e-01 -2.456717e-01 -1.839077e-01 1.062869e-01 6.447779e-01 2.146266e-01 -4.276506e-01 1.889986e-01 7.512424e-01
<VARIANCE> 25
 2.316878e+01 5.459602e+01 9.141172e+01 7.959834e+01 3.672173e+01 3.522942e+01 3.669535e+01 6.262833e+01 8.292921e+01 4.000254e+01 2.796120e+01 1.323780e+01 1.243050e+00 2.636365e+00 3.100723e+00 4.406044e+00 3.724059e+00 3.555388e+00 2.612009e+00 3.627336e+00 4.832600e+00 2.753237e+00 2.718006e+00 1.915928e+00 2.502053e+00
<GCONST> 1.046969e+02
<TRANSP> 5
 0.000000e+00 1.000000e+00 0.000000e+00 0.000000e+00 0.000000e+00
 0.000000e+00 2.948997e-01 7.051003e-01 0.000000e+00 0.000000e+00
 0.000000e+00 0.000000e+00 6.233638e-01 3.766362e-01 0.000000e+00
 0.000000e+00 0.000000e+00 0.000000e+00 9.393723e-01 6.062768e-02
 0.000000e+00 0.000000e+00 0.000000e+00 0.000000e+00 0.000000e+00
<ENDHMM>
~h "ih"
<BEGINHMM>
<NUMSTATES> 5
<STATE> 2
<MEAN> 25
 -9.901131e+00 6.518303e+00 -2.928463e+00 4.104572e+00 2.138012e+00 2.756821e+00 1.799617e+00 -2.833523e+00 2.860278e-01 -2.805811e+00 3.427144e-01 1.710683e+00 2.499848e-01 1.534209e-02 -5.274250e-02 -1.270912e-01 -1.653154e-01 -1.667027e-01 -1.973737e-01 -5.385211e-02 -9.269227e-02 -7.523973e-03 -7.619818e-02 -8.930607e-02 1.940133e-01
<VARIANCE> 25
 2.588563e+01 1.552587e+01 1.990293e+01 3.362068e+01 1.644380e+01 1.832723e+01 1.622213e+01 1.830176e+01 1.512180e+01 1.682379e+01 1.932229e+01 1.570424e+01 1.872252e+00 8.440951e-01 1.103395e+00 1.660443e+00 1.616070e+00 1.937735e+00 1.697657e+00 1.651100e+00 1.553765e+00 1.224077e+00 1.611414e+00 1.378701e+00 2.439201e+00
<GCONST> 8.667310e+01
<STATE> 3
<MEAN> 25
 -8.587373e+00 3.307331e+00 -1.871660e+00 2.435563e+00 1.382469e+00 1.312710e+00 1.956157e+00 5.775150e-01 7.893610e-01 -1.299014e+00 -1.271466e+00 3.813041e-01 1.536341e-01 -2.925516e-01 1.242762e-01 1.321324e-01 1.911969e-01 6.685145e-04 1.050892e-01 9.859289e-02 3.282986e-02 3.265885e-02 -2.069281e-01 -8.324264e-02 3.368892e-01
<VARIANCE> 25
 2.679475e+01 2.003661e+01 1.243646e+01 2.169276e+01 1.746956e+01 1.897833e+01 1.662853e+01 1.691465e+01 1.460165e+01 1.224585e+01 1.744897e+01 1.154034e+01 1.122892e+00 1.152682e+00 9.087962e-01 1.453297e+00 1.491168e+00 1.407190e+00 1.412417e+00 1.525081e+00 1.391097e+00 1.620107e+00 1.364404e+00 1.086376e+00 8.107243e-01
<GCONST> 8.280584e+01
<STATE> 4
<MEAN> 25
 -6.000823e+00 3.448708e+00 -9.874462e-01 3.985043e+00 1.473197e+00 -8.246033e-01 7.719074e-01 -6.601220e-01 1.554746e+00 -8.783532e-01 -1.892037e+00 2.667863e-01 6.526009e-01 -6.896522e-01 4.420206e-01 1.654246e-01 2.811148e-01 -7.187322e-01 -2.664464e-01 3.860105e-02 8.657852e-02 1.856599e-01 -2.298859e-01 -2.733874e-02 1.226406e+00
<VARIANCE> 25
 3.697417e+01 5.254604e+01 2.168864e+01 1.686941e+01 1.931665e+01 3.545517e+01 2.039736e+01 1.816678e+01 2.007824e+01 1.714512e+01 2.051561e+01 1.203362e+01 3.473295e+00 4.168009e+00 2.086843e+00 2.141930e+00 2.698917e+00 3.614814e+00 2.594086e+00 1.426240e+00 3.268645e+00 1.869131e+00 1.530750e+00 1.535654e+00 3.095744e+00
<GCONST> 9.476625e+01
<TRANSP> 5
 0.000000e+00 1.000000e+00 0.000000e+00 0.000000e+00 0.000000e+00
 0.000000e+00 7.871417e-01 2.128583e-01 0.000000e+00 0.000000e+00
 0.000000e+00 0.000000e+00 7.285910e-01 2.714090e-01 0.000000e+00
 0.000000e+00 0.000000e+00 0.000000e+00 6.326548e-01 3.673452e-01
 0.000000e+00 0.000000e+00 0.000000e+00 0.000000e+00 0.000000e+00
<ENDHMM>
~h "iy"
<BEGINHMM>
<NUMSTATES> 5
<STATE> 2
<MEAN> 25
 -8.663750e-01 1.311053e+01 3.543759e+00 7.920330e+00 -6.965513e-01 4.360054e-01 -9.781076e-01 -6.104170e+00 -2.667140e+00 -4.884858e+00 -2.109715e+00 -9.736806e-01 -1.439227e+00 -1.149111e+00 -9.236849e-01 5.644138e-02 6.974571e-01 4.853387e-01 3.131260e-01 3.351806e-01 1.408836e-01 8.932775e-02 7.759813e-02 -6.085126e-02 -8.137265e-01
<VARIANCE> 25
 3.316266e+01 2.374377e+01 1.918801e+01 1.398075e+01 1.707173e+01 2.090376e+01 1.648178e+01 2.149527e+01 1.179725e+01 1.909385e+01 2.041426e+01 2.196495e+01 1.386531e+00 1.836335e+00 2.001108e+00 1.122010e+00 1.239815e+00 1.246801e+00 1.835209e+00 2.110958e+00 1.462804e+00 1.547298e+00 1.495014e+00 1.458384e+00 3.289056e-01
<GCONST> 8.549557e+01
<STATE> 3
<MEAN> 25
 -8.499776e+00 6.838969e+00 -1.483753e+00 6.054074e+00 1.139893e+00 1.427178e+00 8.002594e-01 -3.776837e+00 -2.308054e+00 -4.069221e+00 -7.660714e-01 -3.851954e-01 -6.869650e-01 -5.156591e-01 -5.227216e-01 -1.866588e-01 2.444578e-01 2.029194e-01 1.908234e-01 4.552760e-01 3.632238e-01 -4.033785e-02 1.418264e-01 1.274932e-01 -3.604839e-01
<VARIANCE> 25
 6.381336e+00 7.317015e+00 9.600697e+00 1.547860e+01 1.094868e+01 1.525543e+01 1.256539e+01 1.680940e+01 1.518666e+01 1.363703e+01 1.968606e+01 1.539505e+01 2.364401e-01 4.963087e-01 3.883663e-01 7.478713e-01 8.440292e-01 1.088486e+00 1.054491e+00 1.116826e+00 1.776780e+00 1.555677e+00 1.008711e+00 1.372514e+00 5.013245e-02
<GCONST> 7.135876e+01
<STATE> 4
<MEAN> 25
 -9.118574e+00 5.076148e+00 -4.606272e+00 5.590018e+00 3.041737e+00 3.351752e+00 1.960977e+00 -2.399162e+00 -3.237762e-02 -2.621717e+00 -9.802444e-01 -1.048445e+00 -5.644245e-02 -3.234785e-02 -2.681537e-02 -2.525389e-02 6.039316e-03 5.732117e-03 1.924116e-02 3.572607e-02 2.731337e-02 2.618272e-02 7.524496e-03 -1.899719e-02 -3.016357e-02
<VARIANCE> 25
 6.192811e+00 5.448782e+00 1.674968e+01 1.256220e+01 1.093773e+01 1.285161e+01 1.105390e+01 1.316799e+01 1.233911e+01 1.302430e+01 1.303796e+01 1.123444e+01 1.564227e-01 3.552499e-01 5.675815e-01 6.677800e-01 8.267530e-01 9.650750e-01 9.921687e-01 1.164379e+00 1.224124e+00 1.176284e+00 1.334879e+00 1.133247e+00 5.052694e-02
<GCONST> 6.865898e+01
<TRANSP> 5
 0.000000e+00 1.000000e+00 0.000000e+00 0.000000e+00 0.000000e+00
 0.000000e+00 7.487327e-01 2.512673e-01 0.000000e+00 0.000000e+00
 0.000000e+00 0.000000e+00 6.494803e-01 3.505197e-01 0.000000e+00
 0.000000e+00 0.000000e+00 0.000000e+00 9.486097e-01 5.139023e-02
 0.000000e+00 0.000000e+00 0.000000e+00 0.000000e+00 0.000000e+00
<ENDHMM>
~h "ng"
<BEGINHMM>
<NUMSTATES> 5
<STATE> 2
<MEAN> 25
 1.859101e+01 -3.405825e+00 4.149670e+00 3.596620e+00 -1.205683e+01 -2.319231e+00 1.100169e+01 -6.133637e+00 -1.504606e+01 3.303041e+00 1.396339e+00 -4.296846e+00 7.307396e-01 3.011721e+00 -1.855450e+00 9.016677e-01 1.946485e-01 9.279079e-01 -2.245038e-01 -3.414920e+00 5.655565e-01 6.879925e-01 2.202548e-03 6.587492e-01 -1.668686e+00
<VARIANCE> 25
 1.094143e+01 6.239199e+01 7.226918e+01 9.680554e+01 6.191564e+01 2.649331e+01 7.103748e+01 1.413617e+02 4.670993e+01 3.905867e+01 2.625495e+01 3.282690e+01 1.162607e+00 4.693121e+00 7.122333e+00 1.135067e+01 5.228745e+00 3.605277e+00 9.994990e+00 9.343128e+00 6.773442e+00 4.297072e+00 3.058753e+00 2.629458e+00 1.745100e+00
<GCONST> 1.117864e+02
<STATE> 3
<MEAN> 25
 1.811134e+01 4.409425e+00 -1.447723e+00 -1.509756e+00 -2.628765e+00 -2.672074e+00 -1.377267e+00 -6.537560e+00 -6.533615e+00 9.321373e-01 -6.901667e-01 -1.148010e+00 -6.561307e-01 -2.397164e+00 5.343232e-01 -2.500052e+00 2.625850e+00 -8.042073e-01 -3.708059e+00 2.992070e+00 2.355255e+00 2.250869e-01 -1.064863e+00 -5.042515e-01 1.717306e+00
<VARIANCE> 25
 1.660220e+01 1.221349e+02 5.679226e+01 8.751235e+01 1.076539e+02 7.836178e+01 1.026845e+02 1.394687e+02 7.071175e+01 3.594921e+01 4.619900e+01 2.787832e+01 1.691161e+00 1.511807e+01 7.160607e+00 1.097865e+01 9.738619e+00 8.606071e+00 7.759174e+00 1.537458e+01 4.030044e+00 6.878053e+00 4.162821e+00 3.263299e+00 5.337708e+00
<GCONST> 1.201059e+02
<STATE> 4
<MEAN> 25
 1.754342e+01 -9.719957e+00 2.900580e+00 -2.155324e+01 4.685557e+00 3.730344e+00 -1.449987e+01 6.987119e-01 1.563679e+00 1.045950e+01 -3.796158e+00 -3.368185e+00 2.109587e-01 1.931698e-01 -3.053257e-01 -2.504328e-01 -5.370250e-02 6.300420e-01 -3.190570e-01 -7.944545e-01 1.848233e-01 3.049030e-01 2.050677e-02 1.255105e-01 -1.054374e-01
<VARIANCE> 25
 6.503906e+00 4.306538e+01 3.848260e+01 6.044524e+01 5.716157e+01 4.192613e+01 4.215821e+01 9.678159e+01 4.056899e+01 3.114723e+01 4.722144e+01 2.978032e+01 3.763861e-01 2.453447e+00 1.623456e+00 6.082178e+00 3.921031e+00 3.710941e+00 2.725656e+00 4.656979e+00 2.425518e+00 2.359624e+00 2.819502e+00 2.072116e+00 1.393536e+00
<GCONST> 1.010906e+02
<TRANSP> 5
 0.000000e+00 1.000000e+00 0.000000e+00 0.000000e+00 0.000000e+00
 0.000000e+00 8.318683e-01 1.681317e-01 0.000000e+00 0.000000e+00
 0.000000e+00 0.000000e+00 8.139512e-01 1.860488e-01 0.000000e+00
 0.000000e+00 0.000000e+00 0.000000e+00 9.032289e-01 9.677109e-02
 0.000000e+00 0.000000e+00 0.000000e+00 0.000000e+00 0.000000e+00
<ENDHMM>
~h "sp"
<BEGINHMM>
<NUMSTATES> 3
<STATE> 2
~s "silst"
<TRANSP> 3
 0.000000e+00 7.000000e-01 3.000000e-01
 0.000000e+00 9.000000e-01 9.999999e-02
 0.000000e+00 0.000000e+00 0.000000e+00
<ENDHMM>
~h "th"
<BEGINHMM>
<NUMSTATES> 5
<STATE> 2
<MEAN> 25
 1.497643e+01 -6.905818e+00 2.010287e+01 7.252563e-01 -1.951103e+01 -6.048471e+00 1.863110e+00 -2.638663e+00 -1.095264e+01 -3.145674e+00 1.446427e+00 1.279593e+00 -7.224649e-02 1.973366e+00 5.256698e-01 2.973691e-01 -1.121595e+00 -1.859467e-02 5.618858e-01 -5.773489e-01 -7.747148e-01 2.853694e-01 2.382562e-01 -3.994156e-01 -1.202532e+00
<VARIANCE> 25
 2.246727e+01 1.096921e+02 6.979347e+01 9.857247e+01 1.196400e+02 6.204958e+01 1.195144e+02 6.752557e+01 1.025581e+02 5.066573e+01 3.815604e+01 3.743498e+01 2.351948e+00 5.951314e+00 5.610635e+00 6.127865e+00 8.496869e+00 7.044736e+00 9.074739e+00 5.071623e+00 1.041352e+01 4.292871e+00 4.942163e+00 4.310804e+00 3.539241e+00
<GCONST> 1.185417e+02
<STATE> 3
<MEAN> 25
 1.035233e+01 1.862099e+01 1.439414e+01 1.975916e+00 -1.531439e+01 -6.811874e+00 6.392514e-01 -6.697152e+00 -4.968660e+00 2.736409e+00 2.044135e-02 -1.775141e+00 -2.256426e+00 5.863241e-01 -2.318013e+00 1.565395e-01 3.249943e+00 4.987223e-01 -1.699087e+00 7.465808e-01 2.089205e+00 -4.722168e-01 2.158868e-01 6.032566e-01 -2.425073e+00
<VARIANCE> 25
 1.291180e+01 1.585772e+01 3.461261e+01 4.383930e+01 6.031822e+01 4.275737e+01 5.378281e+01 3.062551e+01 1.602353e+01 2.356336e+01 2.572566e+01 1.002165e+01 1.255969e+00 4.480339e+00 5.134452e+00 6.554483e+00 7.426707e+00 4.710505e+00 1.073957e+01 1.932631e+00 4.304399e+00 4.079356e+00 2.220919e+00 1.195082e+00 6.273415e-01
<GCONST> 1.005483e+02
<STATE> 4
<MEAN> 25
 1.768928e+00 1.139588e+01 5.930486e+00 8.430301e-01 -1.203387e+01 -2.393265e+00 6.576369e-01 -6.130350e+00 -4.766627e+00 -1.383371e-01 -1.050910e+00 -1.567438e+00 -2.319518e+00 -1.923631e+00 -2.342116e+00 -5.024286e-01 1.484666e+00 1.161626e+00 -1.559389e-02 -2.923971e-02 4.119793e-02 -6.942249e-01 -2.975223e-01 2.314028e-01 -1.374669e+00
<VARIANCE> 25
 2.220486e+01 3.882238e+01 3.845375e+01 1.633415e+01 4.700533e+01 2.873938e+01 2.075948e+01 2.031396e+01 1.496351e+01 1.005234e+01 2.421492e+01 1.219450e+01 2.693960e+00 9.654675e-01 2.175756e+00 1.500154e+00 5.585890e+00 1.759866e+00 5.243444e+00 1.086253e+00 2.573642e+00 1.514376e+00 2.206466e+00 6.183498e-01 1.146958e+00
<GCONST> 9.107529e+01
<TRANSP> 5
 0.000000e+00 1.000000e+00 0.000000e+00 0.000000e+00 0.000000e+00
 0.000000e+00 9.250570e-01 7.494300e-02 0.000000e+00 0.000000e+00
 0.000000e+00 0.000000e+00 6.398817e-01 3.601183e-01 0.000000e+00
 0.000000e+00 0.000000e+00 0.000000e+00 6.174290e-01 3.825710e-01
 0.000000e+00 0.000000e+00 0.000000e+00 0.000000e+00 0.000000e+00
<ENDHMM>
~h "uw"
<BEGINHMM>
<NUMSTATES> 5
<STATE> 2
<MEAN> 25
 -2.722678e+00 6.660704e+00 -1.026335e+00 2.037394e+00 -1.590289e+00 1.500876e-01 9.287594e-01 -2.038153e+00 -4.341491e+00 -4.097235e+00 1.647806e-02 -1.315376e-01 -1.259702e+00 -7.410346e-01 7.552229e-03 5.407900e-01 1.979975e-01 4.690814e-02 2.196482e-01 3.534134e-01 4.209973e-02 -1.827123e-01 -3.780971e-01 -3.553226e-01 -6.247968e-01
<VARIANCE> 25
 1.810283e+01 2.163531e+01 1.517627e+01 2.110414e+01 1.454490e+01 1.855262e+01 2.158096e+01 1.883601e+01 2.020708e+01 2.198029e+01 1.660958e+01 2.085105e+01 1.352168e+00 1.227682e+00 1.241063e+00 1.121300e+00 1.151337e+00 1.470100e+00 1.232548e+00 1.474676e+00 1.701980e+00 1.602676e+00 1.677026e+00 1.406570e+00 3.976187e-01
<GCONST> 8.413597e+01
<STATE> 3
<MEAN> 25
 -5.802785e+00 3.714278e+00 7.138029e-01 4.638420e+00 -1.440153e+00 -1.002395e+00 2.510470e-01 -5.014644e-01 -2.447564e+00 -3.527407e+00 -9.506460e-01 -1.282678e+00 -2.252458e-01 -9.300286e-02 1.384829e-01 2.063517e-01 1.281781e-01 1.013258e-01 1.286283e-01 1.460781e-01 1.675662e-01 3.134035e-03 -1.274060e-01 -4.277166e-02 -9.373638e-02
<VARIANCE> 25
 5.329763e+00 1.012161e+01 1.835112e+01 2.144106e+01 1.485618e+01 1.501807e+01 1.259215e+01 1.600616e+01 1.385631e+01 1.536424e+01 1.241513e+01 1.348668e+01 3.480122e-01 4.667327e-01 6.391022e-01 6.642166e-01 1.068674e+00 1.283438e+00 1.523979e+00 1.530519e+00 1.315801e+00 1.219167e+00 1.202634e+00 9.490052e-01 9.092468e-02
<GCONST> 7.380062e+01
<STATE> 4
<MEAN> 25
 -8.038295e+00 5.048254e+00 3.595535e-01 3.238414e+00 8.837402e-01 2.394472e-01 1.100143e+00 1.582230e-01 -2.144986e-01 -2.523473e+00 -1.056636e+00 4.935715e-02 -9.496938e-02 -1.619485e-01 1.988002e-01 3.451900e-01 4.491294e-01 -4.040495e-01 2.768701e-01 2.904448e-01 5.189953e-01 6.803356e-01 2.411154e-01 -6.221371e-02 2.087074e-01
<VARIANCE> 25
 1.321460e+01 1.358573e+01 2.089994e+01 3.986576e+01 2.848559e+01 3.208718e+01 1.335708e+01 2.630441e+01 1.884353e+01 2.857226e+01 1.720298e+01 1.516848e+01 2.003381e+00 1.938169e+00 2.042948e+00 2.421455e+00 1.549475e+00 2.283995e+00 2.237089e+00 2.244263e+00 2.023735e+00 2.246693e+00 1.724746e+00 2.163143e+00 1.309708e+00
<GCONST> 9.132870e+01
<TRANSP> 5
 0.000000e+00 1.000000e+00 0.000000e+00 0.000000e+00 0.000000e+00
 0.000000e+00 7.195926e-01 2.804074e-01 0.000000e+00 0.000000e+00
 0.000000e+00 0.000000e+00 8.670923e-01 1.329077e-01 0.000000e+00
 0.000000e+00 0.000000e+00 0.000000e+00 2.219290e-01 7.780710e-01
 0.000000e+00 0.000000e+00 0.000000e+00 0.000000e+00 0.000000e+00
<ENDHMM>
~h "sil"
<BEGINHMM>
<NUMSTATES> 5
<STATE> 2
<MEAN> 25
 -1.036565e+01 4.970895e+00 -2.118043e+00 4.393770e+00 8.235071e-01 2.266806e+00 2.049587e+00 -3.468993e-01 6.729084e-01 -2.216733e+00 -7.275581e-03 1.673304e-01 -3.415956e-02 -1.228287e-02 1.342709e-02 4.207543e-02 6.387342e-02 3.380367e-02 2.723050e-02 3.285732e-02 -6.678373e-03 -1.138627e-02 -2.663933e-03 4.818226e-03 -1.944252e-02
<VARIANCE> 25
 8.017652e+00 6.667841e+00 9.380954e+00 1.426924e+01 1.013844e+01 1.260282e+01 1.356580e+01 1.677987e+01 1.426624e+01 1.316698e+01 1.383933e+01 1.348256e+01 1.072113e-01 2.268134e-01 4.038021e-01 6.146614e-01 7.737063e-01 9.133423e-01 1.055996e+00 1.200976e+00 1.166307e+00 1.254262e+00 1.241504e+00 1.182577e+00 4.192188e-02
<GCONST> 6.793794e+01
<STATE> 3
~s "silst"
<STATE> 4
<MEAN> 25
 -8.749023e+00 5.123188e+00 -7.144539e-01 4.410828e+00 1.252337e+00 2.319812e+00 1.478745e+00 -6.776463e-01 -4.926959e-01 -3.043449e+00 -7.362597e-01 1.804092e-01 1.483192e-01 7.457432e-02 6.028475e-02 -7.056054e-03 -8.481029e-02 -1.128397e-01 -1.049672e-01 -6.191057e-02 5.928688e-04 -4.148006e-02 -4.262088e-02 -4.061290e-02 9.351669e-02
<VARIANCE> 25
 2.228447e+01 1.792802e+01 1.868781e+01 1.803523e+01 1.465384e+01 1.736533e+01 1.603366e+01 1.675224e+01 1.460234e+01 1.621060e+01 1.510931e+01 1.332861e+01 9.893667e-01 1.119516e+00 9.085982e-01 1.160438e+00 1.296757e+00 1.521590e+00 1.379755e+00 1.289250e+00 1.316385e+00 1.363120e+00 1.207322e+00 1.143492e+00 1.231390e+00
<GCONST> 8.218790e+01
<TRANSP> 5
 0.000000e+00 1.000000e+00 0.000000e+00 0.000000e+00 0.000000e+00
 0.000000e+00 7.578740e-01 4.212605e-02 2.000000e-01 0.000000e+00
 0.000000e+00 0.000000e+00 7.511153e-01 2.488847e-01 0.000000e+00
 0.000000e+00 2.000000e-01 0.000000e+00 6.691735e-01 1.308265e-01
 0.000000e+00 0.000000e+00 0.000000e+00 0.000000e+00 0.000000e+00
<ENDHMM>
