~o
<STREAMINFO> 1 25
<VECSIZE> 25<NULLD><MFCC_D_N_Z_0><DIAGC>
~t "T_b"
<TRANSP> 5
 0.000000e+00 1.000000e+00 0.000000e+00 0.000000e+00 0.000000e+00
 0.000000e+00 9.173666e-01 8.263342e-02 0.000000e+00 0.000000e+00
 0.000000e+00 0.000000e+00 7.877870e-01 2.122130e-01 0.000000e+00
 0.000000e+00 0.000000e+00 0.000000e+00 7.178704e-01 2.821296e-01
 0.000000e+00 0.000000e+00 0.000000e+00 0.000000e+00 0.000000e+00
~t "T_d"
<TRANSP> 5
 0.000000e+00 1.000000e+00 0.000000e+00 0.000000e+00 0.000000e+00
 0.000000e+00 8.853673e-01 1.146327e-01 0.000000e+00 0.000000e+00
 0.000000e+00 0.000000e+00 8.983837e-01 1.016163e-01 0.000000e+00
 0.000000e+00 0.000000e+00 0.000000e+00 5.023723e-01 4.976277e-01
 0.000000e+00 0.000000e+00 0.000000e+00 0.000000e+00 0.000000e+00
~t "T_f"
<TRANSP> 5
 0.000000e+00 1.000000e+00 0.000000e+00 0.000000e+00 0.000000e+00
 0.000000e+00 9.337536e-01 6.624634e-02 0.000000e+00 0.000000e+00
 0.000000e+00 0.000000e+00 8.026128e-01 1.973872e-01 0.000000e+00
 0.000000e+00 0.000000e+00 0.000000e+00 8.042122e-01 1.957878e-01
 0.000000e+00 0.000000e+00 0.000000e+00 0.000000e+00 0.000000e+00
~t "T_g"
<TRANSP> 5
 0.000000e+00 1.000000e+00 0.000000e+00 0.000000e+00 0.000000e+00
 0.000000e+00 7.629014e-01 2.370986e-01 0.000000e+00 0.000000e+00
 0.000000e+00 0.000000e+00 5.570014e-01 4.429986e-01 0.000000e+00
 0.000000e+00 0.000000e+00 0.000000e+00 7.030817e-01 2.969183e-01
 0.000000e+00 0.000000e+00 0.000000e+00 0.000000e+00 0.000000e+00
~t "T_k"
<TRANSP> 5
 0.000000e+00 1.000000e+00 0.000000e+00 0.000000e+00 0.000000e+00
 0.000000e+00 8.875908e-01 1.124092e-01 0.000000e+00 0.000000e+00
 0.000000e+00 0.000000e+00 8.432361e-01 1.567639e-01 0.000000e+00
 0.000000e+00 0.000000e+00 0.000000e+00 6.727126e-01 3.272874e-01
 0.000000e+00 0.000000e+00 0.000000e+00 0.000000e+00 0.000000e+00
~t "T_l"
<TRANSP> 5
 0.000000e+00 1.000000e+00 0.000000e+00 0.000000e+00 0.000000e+00
 0.000000e+00 5.031297e-01 4.968703e-01 0.000000e+00 0.000000e+00
 0.000000e+00 0.000000e+00 1.718068e-02 9.828193e-01 0.000000e+00
 0.000000e+00 0.000000e+00 0.000000e+00 5.680304e-01 4.319696e-01
 0.000000e+00 0.000000e+00 0.000000e+00 0.000000e+00 0.000000e+00
~t "T_m"
<TRANSP> 5
 0.000000e+00 1.000000e+00 0.000000e+00 0.000000e+00 0.000000e+00
 0.000000e+00 8.949022e-01 1.050978e-01 0.000000e+00 0.000000e+00
 0.000000e+00 0.000000e+00 8.494872e-01 1.505128e-01 0.000000e+00
 0.000000e+00 0.000000e+00 0.000000e+00 9.537903e-01 4.620965e-02
 0.000000e+00 0.000000e+00 0.000000e+00 0.000000e+00 0.000000e+00
~t "T_n"
<TRANSP> 5
 0.000000e+00 1.000000e+00 0.000000e+00 0.000000e+00 0.000000e+00
 0.000000e+00 7.808321e-01 2.191679e-01 0.000000e+00 0.000000e+00
 0.000000e+00 0.000000e+00 8.111247e-01 1.888753e-01 0.000000e+00
 0.000000e+00 0.000000e+00 0.000000e+00 9.517733e-01 4.822668e-02
 0.000000e+00 0.000000e+00 0.000000e+00 0.000000e+00 0.000000e+00
~t "T_r"
<TRANSP> 5
 0.000000e+00 1.000000e+00 0.000000e+00 0.000000e+00 0.000000e+00
 0.000000e+00 5.296506e-01 4.703494e-01 0.000000e+00 0.000000e+00
 0.000000e+00 0.000000e+00 3.699082e-01 6.300918e-01 0.000000e+00
 0.000000e+00 0.000000e+00 0.000000e+00 2.690822e-01 7.309179e-01
 0.000000e+00 0.000000e+00 0.000000e+00 0.000000e+00 0.000000e+00
~t "T_s"
<TRANSP> 5
 0.000000e+00 1.000000e+00 0.000000e+00 0.000000e+00 0.000000e+00
 0.000000e+00 5.395000e-01 4.605001e-01 0.000000e+00 0.000000e+00
 0.000000e+00 0.000000e+00 7.735611e-01 2.264389e-01 0.000000e+00
 0.000000e+00 0.000000e+00 0.000000e+00 8.902639e-01 1.097362e-01
 0.000000e+00 0.000000e+00 0.000000e+00 0.000000e+00 0.000000e+00
~t "T_t"
<TRANSP> 5
 0.000000e+00 1.000000e+00 0.000000e+00 0.000000e+00 0.000000e+00
 0.000000e+00 5.439530e-01 4.560470e-01 0.000000e+00 0.000000e+00
 0.000000e+00 0.000000e+00 7.692131e-01 2.307869e-01 0.000000e+00
 0.000000e+00 0.000000e+00 0.000000e+00 8.961547e-01 1.038453e-01
 0.000000e+00 0.000000e+00 0.000000e+00 0.000000e+00 0.000000e+00
~t "T_w"
<TRANSP> 5
 0.000000e+00 1.000000e+00 0.000000e+00 0.000000e+00 0.000000e+00
 0.000000e+00 6.996415e-01 3.003585e-01 0.000000e+00 0.000000e+00
 0.000000e+00 0.000000e+00 6.913357e-01 3.086643e-01 0.000000e+00
 0.000000e+00 0.000000e+00 0.000000e+00 7.502986e-01 2.497014e-01
 0.000000e+00 0.000000e+00 0.000000e+00 0.000000e+00 0.000000e+00
~t "T_z"
<TRANSP> 5
 0.000000e+00 1.000000e+00 0.000000e+00 0.000000e+00 0.000000e+00
 0.000000e+00 9.519542e-01 4.804580e-02 0.000000e+00 0.000000e+00
 0.000000e+00 0.000000e+00 8.056801e-01 1.943199e-01 0.000000e+00
 0.000000e+00 0.000000e+00 0.000000e+00 9.021026e-01 9.789735e-02
 0.000000e+00 0.000000e+00 0.000000e+00 0.000000e+00 0.000000e+00
~t "T_ae"
<TRANSP> 5
 0.000000e+00 1.000000e+00 0.000000e+00 0.000000e+00 0.000000e+00
 0.000000e+00 7.242699e-01 2.757301e-01 0.000000e+00 0.000000e+00
 0.000000e+00 0.000000e+00 7.730566e-01 2.269434e-01 0.000000e+00
 0.000000e+00 0.000000e+00 0.000000e+00 8.741344e-01 1.258656e-01
 0.000000e+00 0.000000e+00 0.000000e+00 0.000000e+00 0.000000e+00
~t "T_ah"
<TRANSP> 5
 0.000000e+00 1.000000e+00 0.000000e+00 0.000000e+00 0.000000e+00
 0.000000e+00 8.036523e-01 1.963477e-01 0.000000e+00 0.000000e+00
 0.000000e+00 0.000000e+00 6.450054e-01 3.549946e-01 0.000000e+00
 0.000000e+00 0.000000e+00 0.000000e+00 6.962261e-01 3.037739e-01
 0.000000e+00 0.000000e+00 0.000000e+00 0.000000e+00 0.000000e+00
~t "T_ao"
<TRANSP> 5
 0.000000e+00 1.000000e+00 0.000000e+00 0.000000e+00 0.000000e+00
 0.000000e+00 3.981593e-10 1.000000e+00 0.000000e+00 0.000000e+00
 0.000000e+00 0.000000e+00 4.616010e-01 5.383990e-01 0.000000e+00
 0.000000e+00 0.000000e+00 0.000000e+00 3.326734e-01 6.673266e-01
 0.000000e+00 0.000000e+00 0.000000e+00 0.000000e+00 0.000000e+00
~t "T_aw"
<TRANSP> 5
 0.000000e+00 1.000000e+00 0.000000e+00 0.000000e+00 0.000000e+00
 0.000000e+00 8.577348e-01 1.422652e-01 0.000000e+00 0.000000e+00
 0.000000e+00 0.000000e+00 8.620775e-01 1.379225e-01 0.000000e+00
 0.000000e+00 0.000000e+00 0.000000e+00 7.685072e-01 2.314928e-01
 0.000000e+00 0.000000e+00 0.000000e+00 0.000000e+00 0.000000e+00
~t "T_ay"
<TRANSP> 5
 0.000000e+00 1.000000e+00 0.000000e+00 0.000000e+00 0.000000e+00
 0.000000e+00 6.059452e-01 3.940548e-01 0.000000e+00 0.000000e+00
 0.000000e+00 0.000000e+00 7.020371e-01 2.979629e-01 0.000000e+00
 0.000000e+00 0.000000e+00 0.000000e+00 6.957183e-01 3.042817e-01
 0.000000e+00 0.000000e+00 0.000000e+00 0.000000e+00 0.000000e+00
~t "T_eh"
<TRANSP> 5
 0.000000e+00 1.000000e+00 0.000000e+00 0.000000e+00 0.000000e+00
 0.000000e+00 8.859179e-01 1.140821e-01 0.000000e+00 0.000000e+00
 0.000000e+00 0.000000e+00 7.100329e-01 2.899671e-01 0.000000e+00
 0.000000e+00 0.000000e+00 0.000000e+00 7.400628e-01 2.599373e-01
 0.000000e+00 0.000000e+00 0.000000e+00 0.000000e+00 0.000000e+00
~t "T_er"
<TRANSP> 5
 0.000000e+00 1.000000e+00 0.000000e+00 0.000000e+00 0.000000e+00
 0.000000e+00 7.987237e-01 2.012763e-01 0.000000e+00 0.000000e+00
 0.000000e+00 0.000000e+00 9.018546e-01 9.814535e-02 0.000000e+00
 0.000000e+00 0.000000e+00 0.000000e+00 9.042446e-01 9.575538e-02
 0.000000e+00 0.000000e+00 0.000000e+00 0.000000e+00 0.000000e+00
~t "T_ey"
<TRANSP> 5
 0.000000e+00 1.000000e+00 0.000000e+00 0.000000e+00 0.000000e+00
 0.000000e+00 1.077222e-01 8.922778e-01 0.000000e+00 0.000000e+00
 0.000000e+00 0.000000e+00 7.741535e-01 2.258465e-01 0.000000e+00
 0.000000e+00 0.000000e+00 0.000000e+00 8.672688e-01 1.327312e-01
 0.000000e+00 0.000000e+00 0.000000e+00 0.000000e+00 0.000000e+00
~t "T_ih"
<TRANSP> 5
 0.000000e+00 1.000000e+00 0.000000e+00 0.000000e+00 0.000000e+00
 0.000000e+00 4.233104e-01 5.766896e-01 0.000000e+00 0.000000e+00
 0.000000e+00 0.000000e+00 7.154161e-01 2.845839e-01 0.000000e+00
 0.000000e+00 0.000000e+00 0.000000e+00 7.084875e-01 2.915126e-01
 0.000000e+00 0.000000e+00 0.000000e+00 0.000000e+00 0.000000e+00
~t "T_iy"
<TRANSP> 5
 0.000000e+00 1.000000e+00 0.000000e+00 0.000000e+00 0.000000e+00
 0.000000e+00 7.971820e-01 2.028180e-01 0.000000e+00 0.000000e+00
 0.000000e+00 0.000000e+00 8.590073e-01 1.409927e-01 0.000000e+00
 0.000000e+00 0.000000e+00 0.000000e+00 9.555888e-01 4.441123e-02
 0.000000e+00 0.000000e+00 0.000000e+00 0.000000e+00 0.000000e+00
~t "T_ng"
<TRANSP> 5
 0.000000e+00 1.000000e+00 0.000000e+00 0.000000e+00 0.000000e+00
 0.000000e+00 8.733682e-01 1.266318e-01 0.000000e+00 0.000000e+00
 0.000000e+00 0.000000e+00 7.941035e-01 2.058965e-01 0.000000e+00
 0.000000e+00 0.000000e+00 0.000000e+00 8.429205e-01 1.570794e-01
 0.000000e+00 0.000000e+00 0.000000e+00 0.000000e+00 0.000000e+00
~t "T_th"
<TRANSP> 5
 0.000000e+00 1.000000e+00 0.000000e+00 0.000000e+00 0.000000e+00
 0.000000e+00 9.084128e-01 9.158720e-02 0.000000e+00 0.000000e+00
 0.000000e+00 0.000000e+00 8.147596e-01 1.852404e-01 0.000000e+00
 0.000000e+00 0.000000e+00 0.000000e+00 7.516598e-01 2.483402e-01
 0.000000e+00 0.000000e+00 0.000000e+00 0.000000e+00 0.000000e+00
~t "T_uw"
<TRANSP> 5
 0.000000e+00 1.000000e+00 0.000000e+00 0.000000e+00 0.000000e+00
 0.000000e+00 7.813875e-01 2.186125e-01 0.000000e+00 0.000000e+00
 0.000000e+00 0.000000e+00 9.292798e-01 7.072019e-02 0.000000e+00
 0.000000e+00 0.000000e+00 0.000000e+00 5.125979e-01 4.874021e-01
 0.000000e+00 0.000000e+00 0.000000e+00 0.000000e+00 0.000000e+00
~s "ST_f_2_1"
<MEAN> 25
 -1.911916e+01 3.209017e+00 -1.342143e+00 5.237872e+00 1.612808e+00 5.817438e+00 5.639274e+00 4.700566e+00 5.427635e+00 8.263819e-01 5.459775e+00 3.767836e+00 -2.635271e-03 -2.380338e-04 1.010544e-02 7.097513e-03 3.234617e-02 -2.214601e-02 -8.258580e-02 -1.251532e-02 7.219329e-02 5.819544e-02 -6.952346e-05 -1.522870e-02 -6.172528e-03
<VARIANCE> 25
 5.464949e+00 6.244441e+00 6.716295e+00 1.620911e+01 9.349871e+00 9.752856e+00 9.795012e+00 1.700571e+01 1.203662e+01 1.011809e+01 8.317733e+00 8.814528e+00 4.355506e-02 1.460708e-01 2.169969e-01 3.345593e-01 4.530264e-01 4.436800e-01 7.239383e-01 1.086342e+00 1.052086e+00 1.067090e+00 8.217313e-01 9.779125e-01 3.817413e-02
<GCONST> 5.999904e+01
~s "ST_f_3_1"
<MEAN> 25
 -1.313234e+01 6.237316e+00 -1.955881e+00 1.615721e+00 2.696505e+00 5.039398e+00 2.417615e+00 9.395351e-01 1.059075e+00 -1.519572e+00 1.237388e+00 2.220101e+00 1.804847e-02 6.392902e-03 3.916278e-02 -4.004975e-02 -5.155232e-02 -8.835528e-03 1.254012e-01 -5.236345e-02 -1.955741e-01 -6.834247e-02 -5.156277e-02 -7.724296e-04 1.408714e-02
<VARIANCE> 25
 8.175903e+00 9.689068e+00 7.445456e+00 1.856814e+01 8.447083e+00 8.874938e+00 1.206894e+01 1.477400e+01 1.279632e+01 1.077493e+01 1.365527e+01 1.216143e+01 5.642198e-02 2.065475e-01 3.241001e-01 5.644476e-01 7.709207e-01 7.927484e-01 8.042479e-01 1.012716e+00 1.222519e+00 1.162387e+00 1.100638e+00 1.121930e+00 3.817413e-02
<GCONST> 6.523587e+01
~s "ST_f_4_1"
<MEAN> 25
 -1.445436e+01 4.103705e+00 6.879574e-03 -6.410520e-01 2.376764e+00 3.396885e+00 1.308098e+00 2.847248e+00 8.845679e-01 -9.942248e-01 2.846478e+00 3.337158e+00 2.615201e-01 1.448212e-02 -5.575649e-04 -1.492402e-01 -1.456659e-01 -2.568745e-01 -7.816111e-02 -3.430402e-02 -2.101050e-01 -4.206283e-02 -1.017612e-01 -7.794093e-02 2.407311e-01
<VARIANCE> 25
 8.959939e+00 5.636094e+00 7.821262e+00 1.652811e+01 1.169420e+01 1.533003e+01 1.832338e+01 2.357049e+01 1.462734e+01 1.000613e+01 1.104097e+01 9.892184e+00 1.054788e+00 6.209398e-01 7.979350e-01 1.121239e+00 1.365610e+00 1.680582e+00 1.849998e+00 1.312518e+00 1.489624e+00 9.827431e-01 9.662260e-01 1.176735e+00 2.189240e+00
<GCONST> 7.814375e+01
~s "ST_s_2_1"
<MEAN> 25
 1.629684e+01 -1.164556e+01 1.139432e+01 -1.931734e+00 -6.314022e+00 -1.129529e+01 -4.890694e+00 5.537354e+00 -3.586202e+00 -1.191884e+00 -1.503067e-01 8.027241e-01 1.523338e+00 -2.112918e+00 1.214550e+00 -1.686424e+00 -6.165693e-01 5.606762e-01 -2.241978e+00 1.433470e+00 -6.209544e-01 -3.953092e-01 8.876650e-01 -9.621298e-02 2.013702e+00
<VARIANCE> 25
 2.268457e+01 3.906847e+01 7.189756e+01 7.747588e+01 7.097388e+01 5.967858e+01 7.232195e+01 5.972746e+01 9.036729e+01 5.235226e+01 4.887110e+01 3.236453e+01 5.068475e+00 6.951183e+00 1.384910e+01 1.197466e+01 8.709350e+00 8.841262e+00 7.369764e+00 5.629412e+00 1.113859e+01 5.897213e+00 6.605385e+00 4.073620e+00 7.169321e+00
<GCONST> 1.200988e+02
~s "ST_s_3_1"
<MEAN> 25
 1.932959e+01 -1.702563e+01 8.394454e+00 -3.974551e+00 -7.509870e+00 -7.327192e+00 -7.096258e+00 4.402123e+00 5.713800e-01 -1.270356e+00 -1.111428e+00 -8.710774e-01 4.307250e-01 -5.342439e-01 -1.002624e+00 -1.040671e+00 3.747976e-01 5.315570e-01 5.285445e-01 -5.148141e-01 3.371266e-01 7.638438e-01 -3.896278e-01 -8.694298e-01 7.879637e-01
<VARIANCE> 25
 3.195802e+01 2.451203e+01 1.171517e+02 9.158413e+01 8.528706e+01 5.970617e+01 5.912650e+01 9.223208e+01 9.140414e+01 5.489559e+01 4.237415e+01 3.597691e+01 2.677708e+00 2.408005e+00 4.648915e+00 5.685739e+00 6.168141e+00 5.085293e+00 6.111855e+00 5.534425e+00 6.092170e+00 4.865683e+00 3.381530e+00 3.744132e+00 1.204214e+00
<GCONST> 1.130997e+02
~s "ST_s_4_1"
<MEAN> 25
 1.939422e+01 -1.329539e+01 3.757067e+00 -1.473686e+01 -8.771364e-01 -1.544493e+00 -5.362808e+00 -1.968504e-01 -1.537854e+00 5.741909e+00 2.956588e-01 -3.692118e+00 7.362338e-03 6.236190e-01 -2.407068e-01 -4.298296e-01 6.025689e-01 3.392656e-01 -2.731637e-01 -3.696846e-01 -1.629837e-01 6.083114e-01 -2.112592e-01 2.225554e-01 -2.898465e-01
<VARIANCE> 25
 2.552049e+01 3.296250e+01 1.369377e+02 1.006025e+02 8.509138e+01 5.864593e+01 1.022825e+02 1.122061e+02 5.063394e+01 4.006525e+01 4.553205e+01 4.750083e+01 4.784438e-01 1.211458e+00 1.906475e+00 2.243015e+00 2.414561e+00 2.984102e+00 2.822992e+00 2.763603e+00 2.658322e+00 2.124308e+00 2.373099e+00 2.368948e+00 3.940983e-01
<GCONST> 1.028336e+02
~s "ST_l_2_1"
<MEAN> 25
 5.897895e-01 7.273652e+00 -1.236917e+00 -2.530720e-01 -5.541832e-01 -4.597597e-01 -7.415230e-01 -1.611354e+00 1.657472e+00 2.464053e-01 1.129491e+00 1.518009e+00 -8.914905e-01 -2.000214e+00 2.548387e-01 5.745214e-01 -2.207832e-01 -8.291280e-01 4.107976e-01 8.505445e-01 4.088453e-01 -1.830921e-01 -9.385072e-02 2.677837e-01 5.573629e-01
<VARIANCE> 25
 1.302094e+02 7.576434e+01 4.773001e+01 5.653070e+01 3.683410e+01 5.359569e+01 3.173502e+01 3.480939e+01 2.715479e+01 2.528290e+01 2.557569e+01 1.932534e+01 8.520496e+00 5.008127e+00 4.365677e+00 3.018696e+00 4.317059e+00 5.882192e+00 3.434436e+00 3.444010e+00 2.119731e+00 2.092406e+00 2.090008e+00 1.742516e+00 1.131540e+01
<GCONST> 1.076194e+02
~s "ST_l_3_1"
<MEAN> 25
 2.847395e+00 1.298839e+00 -8.307600e-02 6.140319e-01 -2.310465e-01 -8.655795e-01 -6.869388e-01 -1.754347e+00 1.385683e+00 -6.486199e-01 3.214127e-01 1.020597e+00 1.191964e+00 -3.850787e+00 8.790938e-01 2.888288e-01 -7.401453e-01 -2.058458e+00 2.356999e-01 9.250750e-01 -4.906011e-03 -5.023071e-01 -4.746974e-01 1.304286e-01 3.851855e+00
<VARIANCE> 25
 1.183873e+02 1.394429e+02 5.410586e+01 8.313546e+01 6.096243e+01 5.930846e+01 3.799359e+01 4.728699e+01 3.731842e+01 2.408641e+01 2.551277e+01 2.214304e+01 1.265171e+01 8.776858e+00 7.188552e+00 6.203385e+00 8.732263e+00 7.193054e+00 4.795894e+00 4.581390e+00 3.324670e+00 3.474403e+00 3.865990e+00 2.201975e+00 1.885607e+01
<GCONST> 1.161571e+02
~s "ST_l_4_1"
<MEAN> 25
 7.602391e+00 -7.761950e+00 2.081567e+00 2.336076e+00 -4.979956e-01 -6.899627e+00 -1.426783e+00 1.230696e+00 2.128459e+00 -1.795709e+00 -2.055196e+00 1.239265e+00 2.344254e+00 -1.976715e+00 1.391329e+00 3.069272e-01 -1.475570e+00 -1.391387e+00 -2.339236e-01 3.922203e-01 -9.512426e-01 -3.777871e-01 2.309740e-01 -2.186705e-01 3.082734e+00
<VARIANCE> 25
 8.251511e+01 9.914168e+01 8.523742e+01 1.014559e+02 6.051472e+01 8.826320e+01 6.011251e+01 5.122468e+01 4.620945e+01 3.589097e+01 3.609370e+01 3.027258e+01 9.850359e+00 1.170479e+01 8.558172e+00 6.145599e+00 8.708138e+00 6.056354e+00 7.473626e+00 4.942102e+00 7.003943e+00 5.067857e+00 5.164979e+00 3.127881e+00 1.157777e+01
<GCONST> 1.201326e+02
~s "ST_b_2_1"
<MEAN> 25
 2.029773e+01 -5.184218e+00 3.465506e+00 -8.350257e+00 -3.346222e+00 6.986845e+00 -9.637086e+00 -1.601441e+01 -4.060070e+00 6.721637e+00 -1.460629e+00 -1.796321e+00 2.217410e-01 3.846244e-01 -1.387135e-01 -1.396058e+00 -2.162325e-01 4.213864e-01 4.468998e-02 -1.374793e-01 -5.460694e-01 4.574523e-01 2.434763e-01 -1.145273e-01 1.553516e-01
<VARIANCE> 25
 9.538881e+00 4.494257e+01 5.690531e+01 1.975901e+02 6.847768e+01 7.189897e+01 9.469115e+01 7.929992e+01 5.598766e+01 2.877989e+01 6.915374e+01 2.484560e+01 5.533506e-01 4.456809e+00 3.660609e+00 8.335567e+00 6.906511e+00 5.806407e+00 6.427418e+00 7.101725e+00 5.139513e+00 2.668776e+00 4.039255e+00 2.392274e+00 2.185727e+00
<GCONST> 1.110967e+02
~s "ST_b_3_1"
<MEAN> 25
 2.191481e+01 9.450138e+00 -8.131691e+00 -1.349207e+01 -2.502634e-01 6.356036e+00 -4.161352e+00 -1.414661e+01 -1.024002e+01 3.658279e+00 3.071831e+00 9.828100e-01 -5.177798e-01 2.460723e+00 -1.450502e+00 9.076283e-01 8.937273e-01 -4.836052e-01 8.149446e-01 1.645834e+00 1.514000e-02 -1.676779e+00 8.702877e-01 9.868759e-01 -2.104595e+00
<VARIANCE> 25
 7.489832e+00 2.171962e+01 2.242378e+01 9.359833e+01 3.221844e+01 2.077865e+01 3.505862e+01 7.619324e+01 4.218972e+01 2.780423e+01 3.080140e+01 1.184062e+01 1.286736e+00 1.417444e+00 5.004528e+00 7.316746e+00 5.780056e+00 4.022956e+00 4.751280e+00 4.448392e+00 3.008131e+00 2.240354e+00 4.579541e+00 1.860509e+00 6.331791e-01
<GCONST> 1.000433e+02
~s "ST_b_4_1"
<MEAN> 25
 1.679464e+01 1.585833e+01 -6.322389e+00 -1.029317e+01 -4.406660e+00 3.718525e+00 7.708379e-01 -6.712148e+00 -8.611372e+00 -3.427181e+00 2.402607e+00 1.785247e+00 -2.491799e+00 3.435940e-01 1.741482e+00 1.779426e+00 -8.270280e-01 -9.706458e-01 6.008956e-01 1.390057e+00 1.559475e+00 -5.381832e-01 -3.678608e-01 -1.025356e-01 -1.926722e+00
<VARIANCE> 25
 1.714117e+01 9.594019e+00 2.099390e+01 5.674869e+01 6.422852e+01 5.438593e+01 2.102376e+01 5.252540e+01 2.367214e+01 3.843341e+01 3.457964e+01 3.029305e+01 1.936705e+00 1.398343e+00 1.569356e+00 2.320833e+00 2.761370e+00 4.425236e+00 2.177953e+00 5.011142e+00 2.201287e+00 1.558048e+00 1.857107e+00 1.399084e+00 8.035589e-01
<GCONST> 9.621590e+01
~s "ST_aw_2_1"
<MEAN> 25
 2.229486e+01 -1.211346e+01 -8.516132e+00 -1.023559e+01 5.693989e+00 7.295961e+00 -3.576003e+00 1.487005e-01 2.047829e+00 -1.200831e+00 2.504852e-01 -3.025936e+00 1.126009e+00 -2.167887e+00 6.240150e-01 -1.595495e+00 2.644446e-01 8.242073e-01 -1.152083e+00 6.844226e-01 -1.261402e-03 -6.958896e-01 -4.877340e-01 -1.512884e-01 2.293602e+00
<VARIANCE> 25
 3.613337e+01 9.308258e+01 8.398801e+01 1.107826e+02 5.438444e+01 4.587091e+01 6.347833e+01 1.825951e+01 2.131804e+01 4.880978e+01 1.810821e+01 3.466451e+01 3.654112e+00 1.232229e+01 6.117021e+00 2.848489e+00 8.860670e+00 4.789303e+00 5.883436e+00 4.986492e+00 3.328071e+00 5.223312e+00 3.621557e+00 5.246958e+00 8.620241e+00
<GCONST> 1.132189e+02
~s "ST_aw_3_1"
<MEAN> 25
 2.523103e+01 -1.414855e+01 -1.316202e+00 -1.269623e+01 -1.906698e+00 9.347816e+00 -6.752012e+00 -5.259370e-01 -1.518765e+00 2.631316e+00 5.055964e+00 -6.971838e+00 -3.445842e-01 2.145416e+00 -1.217852e+00 1.322898e+00 4.018116e-01 -7.448509e-01 6.932144e-01 -5.149986e-01 2.903302e-01 5.834709e-01 1.773542e-01 3.353633e-02 -1.785742e+00
<VARIANCE> 25
 1.083606e+01 1.228753e+02 9.823797e+01 1.118761e+02 3.162801e+01 5.471386e+01 6.957144e+01 6.858549e+01 2.390631e+01 2.125735e+01 3.210438e+01 2.281632e+01 1.163506e+00 3.631268e+00 8.799868e+00 5.196587e+00 5.269224e+00 1.144764e+00 1.030845e+01 3.786911e+00 2.817930e+00 2.664309e+00 3.209931e+00 2.790238e+00 3.998905e+00
<GCONST> 1.075194e+02
~s "ST_aw_4_1"
<MEAN> 25
 1.161970e+01 4.352577e+00 -1.242294e+01 -5.385363e+00 1.670416e+00 4.248506e+00 1.897867e-01 -3.087597e+00 -2.934731e-01 2.984185e+00 3.104426e+00 -1.325648e+00 -3.839084e+00 2.243221e-01 1.183320e+00 7.803729e-02 -1.562112e+00 -2.024878e-01 6.292630e-01 6.997125e-01 -5.353836e-03 -3.606505e-01 9.124125e-01 1.295815e+00 -2.848341e+00
<VARIANCE> 25
 4.817321e+01 4.989473e+00 4.877906e+01 5.299103e+01 4.013700e+01 1.705675e+01 2.873510e+01 1.103847e+01 2.277824e+01 2.302907e+01 3.041771e+01 1.791883e+01 2.327957e+00 4.255474e+00 2.282233e+00 3.103053e+00 3.493793e+00 2.454106e+00 2.136305e+00 8.935391e-01 2.059907e+00 1.349135e+00 2.284893e+00 1.770397e+00 2.062846e+00
<GCONST> 9.432801e+01
~s "ST_r_2_1"
<MEAN> 25
 4.339614e+00 4.987673e+00 -1.632727e+00 -1.186156e+00 8.666553e-01 -1.278075e+00 5.671861e-01 -2.048713e+00 4.160696e-01 1.700497e+00 1.864434e-01 6.898307e-01 -1.450600e+00 1.083547e+00 1.549067e-02 3.952219e-01 -2.722417e-01 -7.651433e-03 6.411202e-01 6.447025e-04 1.668600e-01 -6.666194e-01 7.427154e-02 1.915229e-01 -1.500510e+00
<VARIANCE> 25
 1.915320e+02 1.007243e+02 5.308948e+01 6.075639e+01 6.790955e+01 5.531103e+01 6.358764e+01 5.349662e+01 4.172794e+01 3.560140e+01 2.725366e+01 2.579107e+01 6.813665e+00 6.774077e+00 7.136447e+00 5.615890e+00 6.778956e+00 3.475344e+00 6.613047e+00 4.971055e+00 4.312597e+00 3.601038e+00 2.957237e+00 2.294415e+00 4.220952e+00
<GCONST> 1.143878e+02
~s "ST_r_3_1"
<MEAN> 25
 1.254164e+00 6.890200e+00 -8.655941e-02 1.564649e+00 -2.511366e+00 -8.381494e-01 -1.003051e-01 -2.274077e+00 -1.475223e-01 -2.298155e+00 -9.068479e-01 5.579374e-01 -2.877366e-01 -1.276815e-02 3.510702e-01 2.277883e-01 2.788900e-01 1.686491e-02 -2.876739e-02 9.849964e-02 8.202969e-02 -3.412236e-01 -2.158525e-01 1.222405e-01 -1.067706e-01
<VARIANCE> 25
 1.557842e+02 1.193050e+02 5.787699e+01 4.066361e+01 4.356119e+01 3.353481e+01 3.988224e+01 3.497952e+01 2.915269e+01 2.575936e+01 2.031307e+01 1.666844e+01 3.321370e+00 4.524429e+00 3.503602e+00 2.221559e+00 2.792923e+00 1.305864e+00 2.172826e+00 2.904944e+00 1.969588e+00 1.651749e+00 1.310533e+00 1.415750e+00 2.411986e+00
<GCONST> 1.010908e+02
~s "ST_r_4_1"
<MEAN> 25
 3.278141e+00 1.784664e+00 -2.559654e-01 1.103260e+00 -1.790243e+00 -2.017860e+00 8.795786e-01 -2.035955e+00 -1.989035e-01 -5.175664e-01 -1.122640e+00 5.068749e-01 1.503770e+00 -1.566694e+00 6.266665e-01 -1.093508e-01 1.604228e-01 -7.787344e-01 -8.037336e-02 -3.309805e-01 4.588015e-01 1.874020e-01 -1.349286e-01 3.298044e-01 2.831074e+00
<VARIANCE> 25
 1.721738e+02 1.427387e+02 5.666999e+01 5.392367e+01 7.014005e+01 7.279005e+01 5.157281e+01 5.282189e+01 3.967051e+01 3.284699e+01 2.315069e+01 1.951249e+01 8.702897e+00 1.425255e+01 9.918139e+00 6.161001e+00 6.474051e+00 6.887142e+00 5.880952e+00 5.888708e+00 5.866849e+00 3.259767e+00 2.920029e+00 2.192330e+00 1.399793e+01
<GCONST> 1.175367e+02
~s "ST_k_2_1"
<MEAN> 25
 1.268046e+01 -2.324895e+00 -2.675074e+00 7.823373e+00 -2.159172e+00 -9.729175e+00 -6.475883e+00 1.665052e-01 6.350286e+00 -1.267746e-01 -4.604612e+00 1.600161e+00 -2.366339e+00 2.265761e+00 -1.214067e+00 -2.697866e-01 9.453741e-01 -3.344371e-01 -1.881205e-01 9.315510e-01 2.407567e-01 -3.109879e-01 1.094379e+00 3.452014e-01 -3.057317e+00
<VARIANCE> 25
 9.372070e+01 7.448417e+01 3.908993e+01 5.190091e+01 4.416614e+01 5.474513e+01 4.043564e+01 5.273672e+01 3.701648e+01 3.021676e+01 3.127929e+01 4.514548e+01 6.114222e+00 7.097076e+00 8.348510e+00 7.007534e+00 7.343154e+00 7.219379e+00 5.281986e+00 5.694820e+00 6.002104e+00 3.729615e+00 3.579055e+00 2.944067e+00 5.322230e+00
<GCONST> 1.144903e+02
~s "ST_k_2_2"
<MEAN> 25
 -3.165977e+00 2.635590e+00 1.815378e+00 -1.039615e+01 1.316103e+01 -7.892673e+00 -3.020245e+00 2.096583e+00 2.265250e+00 1.527671e+00 -8.462960e-02 1.131645e+00 -2.963365e+00 6.761007e-01 1.305283e-01 5.056074e-01 1.173318e+00 -3.321956e-01 -9.897479e-02 3.401989e-01 8.628756e-01 -8.022475e-01 4.842829e-01 3.038906e-01 -4.736308e-01
<VARIANCE> 25
 2.060363e+02 5.606539e+01 5.698294e+01 5.730335e+01 7.174861e+01 7.356651e+01 7.778225e+01 4.376243e+01 3.886164e+01 4.310435e+01 3.584188e+01 3.173771e+01 9.417735e+00 8.277459e+00 7.173332e+00 5.977298e+00 6.140026e+00 6.184575e+00 7.932798e+00 5.661015e+00 3.798111e+00 4.796286e+00 3.769004e+00 2.967942e+00 1.707301e+00
<GCONST> 1.159648e+02
~s "ST_k_3_1"
<MEAN> 25
 5.250375e+00 -7.856675e+00 -5.590653e+00 -1.924814e+00 1.130139e+01 -8.936348e+00 -7.335509e+00 4.774733e+00 3.438111e+00 2.930860e+00 -1.517292e+00 1.090526e+00 2.105812e+00 -2.067282e+00 -4.011668e-01 -2.211922e+00 1.972023e+00 3.484475e-01 1.402254e-01 -3.749079e-01 -8.322366e-01 1.433855e+00 1.405760e-02 -1.447378e+00 3.964259e+00
<VARIANCE> 25
 6.923043e+01 9.444772e+01 7.016959e+01 8.170780e+01 1.484676e+02 8.302320e+01 1.091509e+02 8.626816e+01 4.404850e+01 7.540693e+01 5.327240e+01 4.398824e+01 9.342643e+00 1.091047e+01 1.050687e+01 1.325760e+01 2.756326e+01 8.317842e+00 1.220148e+01 1.041022e+01 5.926163e+00 6.299447e+00 5.697744e+00 5.548904e+00 8.436111e+00
<GCONST> 1.268699e+02
~s "ST_k_3_2"
<MEAN> 25
 -5.147242e+00 -1.830316e+00 -2.215797e+00 -7.602469e+00 1.168628e+01 3.189555e-01 -8.077121e+00 1.079810e+00 2.069235e+00 -1.644605e-02 3.312144e+00 2.108146e+00 2.641968e+00 5.023936e-02 -2.185877e+00 -2.367791e-01 -1.392096e+00 1.525592e+00 6.798360e-01 -3.541401e-01 -1.443130e+00 1.291564e-01 2.869308e-01 -1.771068e-01 -2.250487e+00
<VARIANCE> 25
 5.705221e+01 3.303267e+01 6.364648e+01 6.563178e+01 7.701722e+01 6.575346e+01 5.194427e+01 3.483173e+01 5.213781e+01 2.820259e+01 2.530872e+01 2.934487e+01 7.381932e+00 5.530284e+00 4.604149e+00 8.647388e+00 6.187642e+00 6.236212e+00 6.749718e+00 4.946875e+00 4.978151e+00 4.077376e+00 3.385932e+00 3.413602e+00 1.635462e+01
<GCONST> 1.145671e+02
~s "ST_k_4_1"
<MEAN> 25
 1.674455e+01 -3.192401e+00 -1.060157e+01 -1.545329e+01 7.140210e+00 3.731135e+00 -5.497738e+00 1.543058e-01 -5.374214e+00 4.303370e+00 1.204818e+00 -1.458707e+00 3.752826e+00 -1.684880e-01 8.146564e-01 -2.156860e+00 -1.219191e+00 8.600959e-01 -1.331788e-01 -8.443921e-01 -1.869305e+00 4.358505e-01 5.123554e-01 -3.124586e-01 2.997849e+00
<VARIANCE> 25
 3.188002e+01 5.744978e+01 8.974358e+01 6.094530e+01 5.842164e+01 8.460820e+01 5.807053e+01 6.299915e+01 6.964804e+01 4.638930e+01 5.324804e+01 2.790701e+01 5.395106e+00 5.131068e+00 1.030796e+01 8.634508e+00 7.050563e+00 9.057366e+00 7.347621e+00 8.491673e+00 7.112783e+00 4.996836e+00 6.309696e+00 3.916313e+00 5.698309e+00
<GCONST> 1.187794e+02
~s "ST_uw_2_1"
<MEAN> 25
 1.899570e+00 8.631674e+00 -2.840021e+00 -6.741503e-01 -1.158723e+00 2.110480e+00 -1.975533e-01 -4.663011e+00 -5.335939e+00 -3.574814e+00 2.406354e+00 2.235239e+00 -2.416687e+00 -8.862368e-01 6.349800e-01 1.064410e+00 -3.547826e-02 -4.384279e-01 4.884355e-01 8.992113e-01 1.599358e-01 -3.916149e-01 -5.236378e-01 -2.515316e-01 -1.478603e+00
<VARIANCE> 25
 6.619407e+01 2.469220e+01 2.946153e+01 4.202116e+01 3.031248e+01 2.925983e+01 1.980794e+01 2.909659e+01 2.225048e+01 2.214090e+01 2.064568e+01 2.388864e+01 2.173353e+00 1.640665e+00 2.725124e+00 2.846762e+00 2.795516e+00 2.594275e+00 1.955121e+00 2.006612e+00 2.210860e+00 1.501964e+00 1.755589e+00 1.589356e+00 1.073865e+00
<GCONST> 9.497829e+01
~s "ST_n_2_1"
<MEAN> 25
 1.283182e+00 1.149174e+01 5.404658e+00 7.164616e+00 -1.456240e+00 -1.429466e+00 -1.858560e+00 -3.245774e+00 -1.949121e+00 -4.584634e+00 -4.514020e+00 -2.818732e+00 -1.846476e+00 -1.475698e+00 -6.033767e-01 3.102060e-01 5.162528e-01 2.598059e-01 6.657609e-02 5.786824e-02 1.568572e-01 2.555565e-01 2.579612e-01 -6.761366e-02 -9.636398e-01
<VARIANCE> 25
 5.231110e+01 3.694692e+01 3.518459e+01 1.806736e+01 1.473860e+01 2.298194e+01 1.767720e+01 1.867406e+01 2.767486e+01 2.410594e+01 1.438297e+01 1.425393e+01 2.356307e+00 2.627442e+00 2.883549e+00 2.653031e+00 1.325845e+00 1.977313e+00 1.794581e+00 1.584327e+00 1.654561e+00 2.139926e+00 9.854560e-01 9.611252e-01 6.148995e-01
<GCONST> 9.000925e+01
~s "ST_uw_3_1"
<MEAN> 25
 -5.555615e+00 3.269867e+00 7.096088e-01 5.421879e+00 -1.090889e+00 -1.579817e-01 6.619065e-01 -1.143597e+00 -2.412482e+00 -3.236001e+00 -1.647592e+00 -1.546665e+00 -1.186969e-01 -4.028010e-02 8.306468e-02 1.160913e-01 5.683291e-02 2.563701e-02 5.627983e-02 6.724111e-02 8.252709e-02 3.224877e-02 4.858576e-03 1.576231e-02 -6.033568e-02
<VARIANCE> 25
 3.924920e+00 6.542436e+00 1.171050e+01 1.279302e+01 1.045561e+01 1.134957e+01 1.221224e+01 1.204686e+01 1.271369e+01 1.475557e+01 1.320715e+01 1.230419e+01 1.647772e-01 2.983698e-01 5.105014e-01 5.849531e-01 8.287483e-01 9.976146e-01 1.240136e+00 1.206700e+00 1.075875e+00 1.204147e+00 1.071419e+00 9.390427e-01 4.274438e-02
<GCONST> 6.739872e+01
~s "ST_n_3_1"
<MEAN> 25
 -7.569357e+00 6.034489e+00 9.790217e-01 7.667250e+00 2.583654e+00 2.494199e+00 -7.226198e-01 -2.081660e+00 -1.805140e+00 -4.363340e+00 -8.740854e-01 -1.304974e+00 -4.424936e-01 -3.017853e-01 -1.819691e-01 -9.834673e-02 -9.871842e-02 -3.041660e-02 6.033305e-02 1.832436e-01 2.189362e-01 2.375638e-01 2.014746e-01 1.868284e-01 -2.495922e-01
<VARIANCE> 25
 1.191815e+01 2.216920e+01 2.951733e+01 1.976182e+01 1.061210e+01 1.263089e+01 1.179856e+01 1.536584e+01 2.033688e+01 1.323084e+01 1.839029e+01 1.594340e+01 2.752624e-01 6.223490e-01 1.048718e+00 9.850188e-01 6.451268e-01 1.133587e+00 1.210071e+00 1.535781e+00 1.223205e+00 1.402504e+00 1.850132e+00 1.973292e+00 9.577860e-02
<GCONST> 7.733051e+01
~s "ST_uw_4_1"
<MEAN> 25
 -7.706570e+00 6.103004e+00 -1.259432e+00 3.577395e+00 -2.975444e-01 9.401929e-01 1.897907e+00 9.439659e-01 -3.027393e-01 -3.728986e+00 -1.409888e-01 1.533778e+00 -2.761928e-01 -6.786040e-02 1.202227e-01 1.915891e-01 2.547762e-01 -3.718347e-01 1.615676e-02 4.615441e-01 7.940758e-01 7.653345e-01 -6.538941e-02 -1.387841e-03 -1.582290e-02
<VARIANCE> 25
 1.303154e+01 1.736069e+01 3.297485e+01 4.673161e+01 1.846511e+01 3.989147e+01 1.562799e+01 2.372939e+01 1.289929e+01 1.977797e+01 1.346208e+01 1.699939e+01 1.208743e+00 1.252950e+00 1.792576e+00 1.909684e+00 1.767604e+00 2.441918e+00 1.871287e+00 2.069183e+00 1.893403e+00 1.880547e+00 1.677123e+00 1.998894e+00 8.067765e-01
<GCONST> 8.892807e+01
~s "ST_n_4_1"
<MEAN> 25
 -9.546551e+00 2.093117e+00 6.007616e-01 1.798619e+00 1.858742e-02 1.666628e+00 1.251676e-01 2.781784e-01 -6.317160e-01 -1.056341e+00 -9.084132e-01 4.199410e-02 -1.709482e-02 3.374050e-02 -1.677287e-02 -8.318811e-02 7.210756e-04 4.383794e-02 -3.879006e-03 3.955959e-02 3.459704e-02 -1.367129e-02 2.900998e-02 7.490648e-02 -2.065386e-02
<VARIANCE> 25
 3.543354e+00 6.112515e+00 5.836347e+00 1.187004e+01 6.874566e+00 1.230094e+01 1.463005e+01 1.235269e+01 1.595640e+01 1.396937e+01 1.470263e+01 1.409195e+01 1.536965e-01 3.107323e-01 4.418594e-01 6.447947e-01 7.387416e-01 9.557825e-01 1.175719e+00 1.335749e+00 1.568556e+00 1.465446e+00 1.560900e+00 1.343906e+00 4.323614e-02
<GCONST> 6.787350e+01
~s "ST_n_4_2"
<MEAN> 25
 -6.357519e+00 8.202930e-01 -4.695619e+00 1.816202e+00 1.585553e+00 1.905648e+00 1.080074e+00 1.333203e+00 1.215942e+00 -9.761178e-01 -1.766133e-01 2.298628e-01 -5.122411e-02 -3.394613e-02 -7.335356e-03 1.520750e-02 4.046545e-02 -5.708270e-03 2.560081e-02 3.114268e-02 -4.029884e-03 -4.252655e-02 1.521061e-03 1.006217e-02 -2.187348e-02
<VARIANCE> 25
 2.119449e+00 3.418736e+00 8.206840e+00 8.543539e+00 1.004404e+01 1.198437e+01 1.067042e+01 1.062916e+01 1.393805e+01 1.347998e+01 1.147536e+01 1.204356e+01 9.867591e-02 2.531371e-01 4.264734e-01 5.169832e-01 6.011600e-01 9.616199e-01 1.045194e+00 1.159432e+00 1.181153e+00 1.729911e+00 1.010696e+00 1.203107e+00 3.817413e-02
<GCONST> 6.395063e+01
~s "ST_d_2_1"
<MEAN> 25
 -1.649941e+01 1.383854e+00 -2.585269e-01 7.291112e+00 1.396752e+00 3.863574e+00 4.616126e+00 3.639056e+00 4.802289e+00 1.598302e+00 5.023425e+00 3.673324e+00 -1.790008e-02 6.239648e-03 -1.243781e-06 9.991674e-03 2.424264e-02 -7.718245e-03 -6.346291e-02 -1.169683e-02 8.384870e-02 6.367583e-02 3.781619e-03 -2.550037e-02 -1.542656e-02
<VARIANCE> 25
 7.487134e+00 4.892203e+00 4.141593e+00 6.701890e+00 6.538863e+00 7.626976e+00 1.003094e+01 1.401818e+01 1.118806e+01 9.680034e+00 1.037218e+01 8.709045e+00 4.950342e-02 1.509705e-01 2.399532e-01 3.716641e-01 4.801310e-01 5.022650e-01 6.903623e-01 1.234980e+00 1.225572e+00 1.012356e+00 7.824699e-01 8.753254e-01 3.817413e-02
<GCONST> 5.859146e+01
~s "ST_d_3_1"
<MEAN> 25
 -1.306748e+01 5.591476e+00 -1.533364e+00 2.503679e+00 1.603081e+00 2.298114e+00 6.875575e-01 1.984489e+00 1.265384e+00 -1.948412e+00 6.313521e-01 2.005459e+00 -1.221382e-02 8.800053e-03 1.338251e-02 -4.386511e-04 -1.381309e-02 2.747272e-02 9.621708e-03 -3.507687e-02 -7.468563e-02 -5.658624e-02 4.714783e-02 -8.302517e-03 -1.466906e-02
<VARIANCE> 25
 4.215147e+00 4.529320e+00 1.233853e+01 1.884665e+01 1.014780e+01 1.103973e+01 1.463717e+01 1.530758e+01 1.212747e+01 1.143861e+01 1.110214e+01 1.120718e+01 1.102218e-01 2.616068e-01 4.141175e-01 6.676072e-01 8.043067e-01 8.698080e-01 1.025193e+00 9.246516e-01 1.223363e+00 1.081617e+00 1.185968e+00 1.186944e+00 3.817413e-02
<GCONST> 6.634595e+01
~s "ST_d_4_1"
<MEAN> 25
 -1.058591e+01 4.376071e+00 2.775383e-01 3.095395e+00 8.186770e-01 2.011447e+00 5.933183e-01 8.236831e-01 1.285149e+00 -1.816966e+00 -8.899775e-01 1.242992e-01 3.380553e-02 3.463791e-02 6.325184e-02 9.773971e-02 3.413746e-02 2.950657e-02 1.037403e-01 -2.365914e-01 -2.940543e-01 5.559577e-02 5.623570e-02 -8.929478e-02 4.744074e-02
<VARIANCE> 25
 1.273183e+01 5.930348e+00 1.779529e+01 1.555583e+01 1.104795e+01 1.118086e+01 1.616410e+01 1.889313e+01 2.219715e+01 1.249589e+01 1.911281e+01 1.841848e+01 4.405203e-01 5.370821e-01 5.475069e-01 9.886058e-01 1.046443e+00 1.145386e+00 1.375239e+00 1.904053e+00 2.477466e+00 1.283087e+00 1.349376e+00 1.563000e+00 1.930394e-01
<GCONST> 7.726798e+01
~s "ST_th_2_1"
<MEAN> 25
 1.517098e+01 -1.199253e+01 2.086569e+01 -1.095198e+00 -1.640104e+01 -3.985968e+00 -4.752390e+00 -6.197118e-01 -8.184525e+00 -4.197819e+00 2.178252e+00 1.730235e+00 5.184929e-03 8.675000e-01 1.054652e+00 1.252566e-01 -1.620477e+00 6.032311e-01 7.392856e-01 -8.049108e-01 -1.668188e+00 -1.058339e-01 3.850197e-01 -1.281264e-01 -7.290919e-01
<VARIANCE> 25
 1.756738e+01 2.895789e+01 7.173969e+01 7.095512e+01 6.810976e+01 4.882872e+01 7.285958e+01 3.724895e+01 1.063309e+02 3.629233e+01 5.504703e+01 3.642999e+01 1.719738e+00 3.792546e+00 4.544326e+00 5.463083e+00 4.542282e+00 7.372784e+00 6.513595e+00 3.475651e+00 5.389176e+00 3.540698e+00 5.177311e+00 5.008174e+00 1.574414e+00
<GCONST> 1.109672e+02
~s "ST_th_3_1"
<MEAN> 25
 1.397819e+01 7.172382e+00 1.969985e+01 2.874267e+00 -2.702604e+01 -6.455059e+00 1.002736e+01 -7.977460e+00 -1.483607e+01 1.467240e-02 9.727021e-01 -5.157211e-01 -9.968395e-01 3.856956e+00 -1.558496e+00 3.411837e-01 1.593654e+00 -7.227736e-01 -7.071558e-01 2.560118e-01 1.990042e+00 8.838451e-01 -3.197947e-01 -3.498345e-01 -2.853490e+00
<VARIANCE> 25
 1.111792e+01 6.317693e+01 3.792538e+01 1.214201e+02 2.718752e+01 6.257627e+01 9.805958e+01 6.750578e+01 5.176656e+01 6.485625e+01 2.767689e+01 2.623252e+01 8.034030e-01 1.273277e+00 5.392291e+00 6.301761e+00 1.164317e+01 4.352930e+00 1.367684e+01 5.827975e+00 7.135362e+00 4.914483e+00 4.722850e+00 2.481548e+00 5.079262e-01
<GCONST> 1.090733e+02
~s "ST_th_4_1"
<MEAN> 25
 5.699312e+00 1.480741e+01 1.045026e+01 3.377520e-01 -1.418497e+01 -4.058496e+00 -4.559777e-01 -6.873363e+00 -4.603161e+00 5.254678e-01 -1.677607e+00 -2.097081e+00 -2.208862e+00 -1.105482e+00 -2.168669e+00 1.329763e-01 1.860398e+00 8.016137e-01 -1.272314e-01 3.226615e-01 5.022695e-01 -6.134104e-01 2.957153e-02 2.421763e-01 -1.669736e+00
<VARIANCE> 25
 3.212877e+01 4.247912e+01 4.907693e+01 1.668764e+01 1.770921e+01 2.374854e+01 2.598241e+01 1.536563e+01 1.195579e+01 1.692046e+01 2.007754e+01 9.024816e+00 1.736415e+00 2.415143e+00 2.983274e+00 3.829382e+00 5.539145e+00 3.200943e+00 6.981827e+00 1.210814e+00 3.511793e+00 2.552197e+00 2.519286e+00 9.471090e-01 1.053752e+00
<GCONST> 9.440849e+01
~s "ST_ay_2_1"
<MEAN> 25
 5.816697e+00 1.198789e+00 -6.375646e+00 -4.289135e+00 9.315517e+00 -6.074142e+00 -2.608300e+00 -4.259303e+00 6.166759e+00 2.416015e-02 -6.454173e-01 6.760653e-01 -1.370145e+00 -4.741010e-01 4.908389e-02 7.075752e-01 2.621960e-01 -1.540215e+00 1.791123e+00 4.396040e-01 8.901501e-01 -6.089541e-01 5.309346e-01 9.069300e-01 4.347946e-01
<VARIANCE> 25
 1.047878e+02 6.487998e+01 9.910063e+01 7.410998e+01 6.956173e+01 1.147074e+02 1.215736e+02 5.726675e+01 5.379433e+01 5.968321e+01 3.514164e+01 4.041956e+01 1.243160e+01 1.199680e+01 6.438977e+00 1.228122e+01 1.083214e+01 1.528142e+01 1.475214e+01 9.812748e+00 7.777255e+00 8.486354e+00 4.134990e+00 4.203391e+00 1.910102e+01
<GCONST> 1.262932e+02
~s "ST_ay_3_1"
<MEAN> 25
 1.459654e+00 -7.186743e+00 2.850845e-01 -6.448160e+00 4.259604e+00 -9.647078e+00 2.664052e+00 2.195629e-01 5.101804e+00 9.935832e-01 -6.843357e-01 2.006254e+00 2.508013e+00 -2.586461e+00 2.583581e+00 -2.052626e+00 -4.123618e-02 1.017113e+00 -1.596110e+00 1.396937e+00 -2.221097e-01 1.126855e+00 -7.115540e-01 -1.247269e+00 3.100923e+00
<VARIANCE> 25
 8.115626e+01 5.364240e+01 6.767152e+01 6.280086e+01 4.914953e+01 5.417700e+01 6.412230e+01 3.742770e+01 4.195835e+01 3.224164e+01 4.197157e+01 3.817448e+01 9.141545e+00 5.609113e+00 1.355470e+01 9.104498e+00 7.544576e+00 1.024117e+01 9.062499e+00 3.961104e+00 5.493480e+00 6.630562e+00 5.799965e+00 3.615712e+00 9.187439e+00
<GCONST> 1.184766e+02
~s "ST_ay_4_1"
<MEAN> 25
 1.465367e+01 -1.551596e+01 4.635528e+00 -6.599461e+00 -5.818253e-01 -2.698147e-01 -7.138699e+00 3.626248e+00 4.093964e+00 2.495556e+00 -1.413416e+00 -1.935916e+00 2.854697e+00 -2.137481e+00 -1.764381e+00 2.128659e+00 -2.684561e+00 1.258755e+00 -1.327153e-01 -2.397010e-01 -4.615856e-02 -5.611736e-01 1.894346e-01 -3.752517e-01 5.848857e-01
<VARIANCE> 25
 5.587722e+01 2.915594e+01 1.768584e+02 8.181863e+01 7.719841e+01 4.764714e+01 3.340384e+01 3.191090e+01 3.518031e+01 5.067060e+01 2.447432e+01 2.043044e+01 6.707501e+00 3.266844e+00 1.294201e+01 6.141381e+00 6.026350e+00 1.146583e+01 6.498848e+00 3.462926e+00 5.853396e+00 4.885471e+00 6.330069e+00 2.761304e+00 3.253505e+00
<GCONST> 1.140108e+02
~s "ST_g_2_1"
<MEAN> 25
 1.775116e+01 -1.366010e+01 8.599645e+00 -6.989380e-01 -9.743385e+00 -8.712709e+00 -4.714331e+00 1.505325e-02 -6.128186e+00 3.822887e+00 8.948185e-01 -6.561268e-01 1.834430e-01 -9.089038e-04 1.047081e+00 -4.595203e-01 -1.262839e+00 5.123209e-01 7.888005e-01 -2.835341e-01 -9.244475e-01 3.738002e-01 1.207514e-01 1.683892e-01 1.795350e-01
<VARIANCE> 25
 1.488111e+01 2.839806e+01 8.934282e+01 1.782110e+02 1.187828e+02 7.664082e+01 8.248167e+01 6.499567e+01 8.346077e+01 4.797466e+01 4.926696e+01 3.525604e+01 1.888973e+00 3.112481e+00 5.770070e+00 9.930126e+00 5.869729e+00 4.682331e+00 6.640615e+00 8.262285e+00 4.763474e+00 5.272381e+00 4.933543e+00 4.000309e+00 2.054916e+00
<GCONST> 1.151914e+02
~s "ST_g_3_1"
<MEAN> 25
 1.767430e+01 -4.609203e+00 5.640033e+00 -2.949051e+00 -7.123346e+00 -2.342396e+00 -3.040926e+00 -3.625105e+00 -6.163389e+00 1.328472e+00 -6.220586e-01 2.059904e-01 4.473615e-01 3.797495e+00 -2.893358e+00 3.597249e+00 -5.381536e-01 2.576078e-01 2.340997e+00 -3.089058e+00 5.478300e-01 -1.130579e+00 -2.527933e-01 1.401735e-01 -3.133688e+00
<VARIANCE> 25
 1.944324e+01 7.095359e+01 9.135087e+01 1.692488e+02 1.311693e+02 6.082153e+01 1.582295e+02 7.640445e+01 1.320477e+02 6.214202e+01 3.949389e+01 2.425973e+01 1.193080e+00 7.933534e+00 4.195904e+00 9.189694e+00 8.086162e+00 3.889205e+00 7.294112e+00 7.654959e+00 5.280170e+00 8.884349e+00 2.598003e+00 2.116576e+00 3.405113e+00
<GCONST> 1.172333e+02
~s "ST_g_4_1"
<MEAN> 25
 2.102278e+01 -2.422342e+00 -5.214427e+00 8.907808e-01 -5.465266e+00 -2.220591e+00 -7.361476e-01 -1.264670e+01 -3.606901e+00 6.649222e+00 -2.333032e+00 -6.235902e+00 -4.023265e-02 1.503260e+00 -6.492405e-01 -3.075472e-01 4.121045e-01 3.588370e-01 -4.085788e-01 -7.056165e-01 3.961151e-01 -7.745612e-02 -1.958722e-01 -1.321826e-01 -8.476228e-01
<VARIANCE> 25
 8.466332e+00 7.067702e+01 6.795708e+01 9.581766e+01 7.814651e+01 3.587597e+01 8.078479e+01 6.419901e+01 6.188930e+01 4.532316e+01 3.697638e+01 3.276606e+01 4.072763e-01 5.081899e+00 1.882299e+00 3.702078e+00 3.427982e+00 2.343733e+00 4.247880e+00 2.856233e+00 2.454994e+00 1.926573e+00 2.458583e+00 1.595618e+00 1.808114e+00
<GCONST> 1.034152e+02
~s "ST_t_2_1"
<MEAN> 25
 1.009274e+01 -9.174412e+00 6.043457e+00 -4.417047e+00 -4.366853e-01 -1.137798e+01 -2.615426e+00 4.339774e-01 4.756018e-01 5.886333e-01 -6.348664e-01 1.158521e+00 3.117462e+00 -1.154269e+00 1.653460e+00 -1.412823e+00 -1.056555e+00 1.005202e+00 -1.775436e+00 -8.402238e-01 -1.693336e+00 8.528396e-01 8.749942e-01 -6.520346e-01 3.111964e+00
<VARIANCE> 25
 6.914796e+01 6.500735e+01 7.855239e+01 8.449496e+01 8.234574e+01 9.692199e+01 8.249316e+01 8.969028e+01 9.157402e+01 4.364651e+01 5.796974e+01 3.327366e+01 1.091808e+01 1.222029e+01 1.396698e+01 1.240421e+01 8.300241e+00 1.113590e+01 1.194231e+01 1.186121e+01 1.152172e+01 4.210635e+00 5.384409e+00 4.986618e+00 1.157078e+01
<GCONST> 1.260587e+02
~s "ST_t_3_1"
<MEAN> 25
 1.616792e+01 -1.507814e+01 1.044574e+01 -7.424536e+00 -5.323479e+00 -7.554560e+00 -8.513714e+00 4.465757e+00 -1.532966e+00 6.015573e-01 1.276919e+00 -1.208515e-01 4.511005e-01 -4.822187e-01 -7.306523e-01 -1.485062e+00 4.326301e-01 1.540563e+00 -4.608666e-01 -1.331020e-01 3.520582e-01 7.696700e-01 -6.095501e-01 -6.883623e-01 4.867056e-01
<VARIANCE> 25
 2.447021e+01 3.622649e+01 1.353579e+02 7.603780e+01 4.511760e+01 6.578044e+01 5.980880e+01 1.331067e+02 1.123552e+02 4.138150e+01 4.888661e+01 3.856931e+01 2.095164e+00 1.978460e+00 4.370606e+00 4.983165e+00 3.876982e+00 5.926346e+00 6.310075e+00 5.621859e+00 7.498494e+00 3.978963e+00 3.714922e+00 2.390159e+00 1.109080e+00
<GCONST> 1.118268e+02
~s "ST_ey_2_1"
<MEAN> 25
 6.353689e-01 1.128064e+01 6.102231e+00 4.612335e+00 -2.887583e+00 3.300441e+00 1.048310e+00 8.379686e-01 3.698578e+00 -2.708143e+00 3.740796e+00 1.077081e+00 3.481006e+00 -9.704173e-01 5.718890e+00 -1.772096e+00 -4.285756e+00 -2.015491e+00 3.488152e-01 1.277119e+00 -3.210068e+00 -1.738099e-01 1.503354e+00 -4.494453e-01 5.087396e+00
<VARIANCE> 25
 5.974073e+01 2.317668e+01 3.933332e+01 3.251765e+01 4.585020e+01 6.950562e+00 2.776576e+01 2.310835e+01 1.315584e+01 9.676893e+00 1.195022e+01 1.788580e+01 1.198282e+01 4.486120e+00 1.527166e+01 6.808842e+00 8.629333e+00 5.969509e+00 9.845909e+00 6.459345e+00 7.726201e+00 6.802069e+00 1.927853e+00 3.602120e+00 1.597337e+01
<GCONST> 1.081673e+02
~s "ST_t_4_1"
<MEAN> 25
 1.834497e+01 -1.201795e+01 5.155276e-02 -1.701399e+01 2.686129e+00 3.982008e+00 -7.537799e+00 -1.627238e+00 -3.189505e-01 7.145265e+00 -1.760445e+00 -3.749409e+00 5.612770e-02 1.272971e+00 -4.606561e-01 -1.489580e-01 5.662088e-01 2.770548e-01 -1.447953e-01 -8.288766e-01 -3.043595e-01 4.177101e-01 2.888209e-01 1.873337e-01 -6.557660e-01
<VARIANCE> 25
 2.061031e+01 6.235041e+01 7.520005e+01 1.129664e+02 8.990468e+01 6.385460e+01 1.094767e+02 9.850159e+01 4.783435e+01 2.607104e+01 3.452948e+01 3.741240e+01 4.446773e-01 1.160167e+00 1.586667e+00 3.591733e+00 2.318622e+00 3.043996e+00 3.131906e+00 2.802393e+00 3.048830e+00 2.324209e+00 1.867253e+00 2.173671e+00 6.467179e-01
<GCONST> 1.025141e+02
~s "ST_t_4_2"
<MEAN> 25
 2.135416e+01 3.713048e+00 -2.217741e+00 -1.539519e+01 -2.393519e+00 7.716421e+00 -5.691878e+00 -9.560223e+00 -1.074949e+01 1.382482e+00 2.134818e+00 2.126743e+00 -4.159431e-01 1.304148e+00 -7.850498e-01 4.273102e-01 1.133930e-01 2.166740e-01 5.087104e-01 2.515918e-01 -1.090102e-01 -7.163801e-01 7.634968e-02 4.730309e-01 -1.597435e+00
<VARIANCE> 25
 1.328985e+01 7.220235e+01 1.042768e+02 1.237489e+02 4.048879e+01 2.928987e+01 7.286976e+01 6.269971e+01 4.391166e+01 5.321789e+01 2.276360e+01 2.357504e+01 1.857532e+00 2.628205e+00 4.827424e+00 6.005662e+00 2.979800e+00 3.454621e+00 3.368885e+00 3.419407e+00 5.814166e+00 3.486803e+00 2.540282e+00 2.529534e+00 9.421048e-01
<GCONST> 1.063641e+02
~s "ST_ey_3_1"
<MEAN> 25
 9.343180e+00 8.820387e-01 2.574085e+01 -7.207953e+00 -1.521553e+01 -3.025281e+00 1.077360e+00 3.139779e+00 -1.620003e+01 -1.354264e+00 4.886914e+00 -2.199296e-01 1.594544e+00 -3.332114e+00 2.545294e+00 -1.785514e+00 -5.347033e-01 -1.258317e+00 -1.070898e+00 2.688073e-01 -2.495958e+00 7.702749e-01 -4.546077e-01 3.033622e-01 3.927360e+00
<VARIANCE> 25
 1.865458e+01 5.234578e+01 1.133238e+02 9.153447e+01 3.965891e+01 7.177261e+01 7.320257e+01 4.380146e+01 8.896723e+01 7.913475e+01 1.990085e+01 2.865581e+01 5.423179e+00 1.851177e+00 1.271390e+01 7.925864e+00 1.087560e+01 5.605691e+00 5.198705e+00 3.735209e+00 1.102020e+01 3.732153e+00 2.919475e+00 2.716680e+00 6.775594e+00
<GCONST> 1.150068e+02
~s "ST_ao_2_1"
<MEAN> 25
 -5.801068e+00 8.824474e+00 5.223868e+00 8.066411e+00 4.420887e+00 2.646209e+00 4.379919e+00 2.421812e+00 1.699334e+00 -5.928404e-01 2.238265e+00 3.033599e+00 6.600669e+00 2.000769e-01 2.065200e+00 -1.318408e+00 -1.161793e+00 -2.372731e+00 -1.601539e+00 -1.171340e+00 9.047251e-01 -2.260019e-01 -1.147275e+00 3.084185e-02 7.522652e+00
<VARIANCE> 25
 3.407890e+01 3.410183e+01 3.892867e+01 4.103384e+01 1.867740e+01 1.873357e+01 3.478515e+01 2.442319e+01 2.156841e+01 1.716878e+01 1.014060e+01 1.036768e+01 4.261670e+00 2.137961e+01 1.233903e+01 6.745706e+00 1.968292e+00 5.219584e+00 5.582168e+00 2.380773e+00 3.052241e+00 2.988653e+00 3.230840e+00 1.653639e+00 1.757844e+01
<GCONST> 1.041565e+02
~s "ST_ey_4_1"
<MEAN> 25
 1.577007e+01 -1.542863e+01 2.167243e+01 -7.590725e+00 -1.153590e+01 -7.324446e+00 -6.228098e+00 7.756300e+00 -9.077600e+00 1.474556e+00 2.552503e+00 2.265656e+00 5.258076e-01 -7.656217e-01 -1.241799e+00 2.539509e-01 -1.211074e-01 -1.819769e-01 2.217258e-01 3.949575e-01 1.169812e+00 2.158288e-01 -2.329214e-01 2.350312e-01 4.669630e-01
<VARIANCE> 25
 1.845325e+01 2.459610e+01 6.335054e+01 6.181667e+01 2.902921e+01 2.824400e+01 3.209926e+01 3.363282e+01 5.299307e+01 3.724486e+01 2.461216e+01 1.482135e+01 1.190352e+00 1.213201e+00 2.273434e+00 4.005538e+00 2.733400e+00 3.241810e+00 2.060617e+00 3.631210e+00 3.766124e+00 2.860839e+00 2.555714e+00 1.357043e+00 1.712960e+00
<GCONST> 9.844787e+01
~s "ST_ao_3_1"
<MEAN> 25
 9.149185e+00 1.621457e+01 1.082300e+01 3.953755e+00 -2.275781e+00 -2.031469e+00 -1.417322e+00 -2.772213e+00 3.247220e+00 -3.531006e+00 -2.538749e+00 1.987090e+00 5.269249e+00 -1.705804e+00 -5.116295e-01 -1.404797e+00 -9.370722e-01 -3.167978e+00 -1.269664e+00 -6.137467e-01 -7.784240e-02 1.081250e-01 -1.383736e+00 -4.907395e-01 5.708956e+00
<VARIANCE> 25
 2.044068e+01 2.171689e+02 1.008290e+02 5.681618e+01 2.306989e+01 4.756404e+01 4.249190e+01 2.164965e+01 2.151622e+01 1.367105e+01 1.407829e+01 1.584800e+01 9.511960e+00 2.060008e+01 7.381289e+00 5.842834e+00 4.107902e+00 3.921160e+00 5.920484e+00 3.936640e+00 5.444512e+00 3.716748e+00 3.805240e+00 3.746821e+00 1.357460e+01
<GCONST> 1.111581e+02
~s "ST_ao_4_1"
<MEAN> 25
 1.387435e+01 -5.379081e-01 2.689919e+00 1.566386e+00 8.381923e-02 -1.077402e+01 -1.747796e+00 -2.849403e+00 1.664540e+00 -4.147704e-01 -4.939099e+00 8.735174e-01 2.889200e+00 -6.670400e+00 -7.635306e-01 -2.705321e+00 5.195985e-01 -3.623286e+00 -1.950162e+00 5.024130e-01 -4.248334e-01 1.030734e+00 -9.537098e-01 -5.960674e-01 6.342852e+00
<VARIANCE> 25
 1.708121e+01 1.490854e+02 6.922265e+01 7.624359e+01 5.625840e+01 4.282243e+01 5.719961e+01 4.680461e+01 5.539455e+01 4.746179e+01 2.113713e+01 4.141860e+01 1.074182e+01 8.723089e+00 1.176525e+01 9.192753e+00 6.933682e+00 9.344751e+00 1.254988e+01 7.894670e+00 9.620770e+00 3.816474e+00 4.093785e+00 4.909944e+00 2.367254e+00
<GCONST> 1.181459e+02
~s "ST_sil_2_1"
<MEAN> 25
 -9.841214e+00 5.236686e+00 -2.143026e+00 4.489588e+00 8.862977e-01 2.276028e+00 1.780264e+00 -6.893635e-01 4.116929e-01 -2.502967e+00 -4.447594e-01 2.067293e-02 -2.530907e-02 -4.771594e-03 1.686289e-02 3.298425e-02 3.173539e-02 1.468091e-02 2.365907e-02 8.627465e-03 -1.869317e-02 -2.121205e-02 -4.293709e-03 1.407587e-02 -1.397673e-02
<VARIANCE> 25
 7.687888e+00 5.586689e+00 9.734508e+00 1.386138e+01 1.075757e+01 1.273085e+01 1.401027e+01 1.669117e+01 1.359104e+01 1.333800e+01 1.418666e+01 1.280084e+01 1.151062e-01 2.421857e-01 4.178364e-01 6.248359e-01 7.927473e-01 9.340872e-01 1.063685e+00 1.168872e+00 1.164105e+00 1.236186e+00 1.249515e+00 1.180168e+00 4.212352e-02
<GCONST> 6.796758e+01
~s "silst"
<MEAN> 25
 -1.543452e+01 3.313344e+00 -2.793562e+00 5.764995e+00 1.876662e+00 4.489628e+00 5.118989e+00 4.322137e+00 6.833078e+00 1.718526e+00 3.543510e+00 4.191267e+00 -7.241664e-03 1.787417e-03 1.959779e-02 2.360901e-02 1.922727e-02 1.886854e-02 -1.830392e-03 -5.705779e-02 -5.956296e-02 -3.188469e-02 8.125043e-04 -8.448081e-03 -2.505499e-03
<VARIANCE> 25
 6.481033e+00 5.391506e+00 9.858347e+00 8.601463e+00 9.262084e+00 9.336382e+00 1.131912e+01 1.463968e+01 1.328417e+01 1.024563e+01 9.463579e+00 7.304161e+00 3.829603e-02 1.296194e-01 2.224754e-01 3.594991e-01 4.948500e-01 4.782573e-01 7.987897e-01 1.127566e+00 1.349823e+00 1.009570e+00 7.811664e-01 8.699635e-01 3.817413e-02
<GCONST> 5.994067e+01
~s "ST_sil_3_1"
<MEAN> 25
 -1.549930e+01 3.293667e+00 -2.709774e+00 5.854888e+00 1.820936e+00 4.431044e+00 5.109301e+00 4.278230e+00 6.747335e+00 1.721947e+00 3.580660e+00 4.144887e+00 -7.095351e-03 1.177424e-03 1.964062e-02 2.274631e-02 1.835978e-02 1.902741e-02 -2.755586e-05 -5.876940e-02 -5.973787e-02 -2.980591e-02 -1.386131e-03 -6.458212e-03 -2.703570e-03
<VARIANCE> 25
 6.411446e+00 5.265063e+00 9.786455e+00 8.669300e+00 9.153113e+00 9.325064e+00 1.129935e+01 1.458401e+01 1.334444e+01 1.022377e+01 9.414303e+00 7.389578e+00 3.817493e-02 1.304772e-01 2.217162e-01 3.621907e-01 4.915316e-01 4.780939e-01 8.056098e-01 1.134123e+00 1.349079e+00 1.016568e+00 7.823922e-01 8.698046e-01 3.817413e-02
<GCONST> 5.991929e+01
~s "ST_sil_4_1"
<MEAN> 25
 -8.038342e+00 4.260789e+00 -1.020357e+00 4.514517e+00 2.388880e+00 2.676853e+00 2.011854e+00 -5.835795e-01 8.978979e-02 -1.781421e+00 -1.041053e-01 7.366208e-01 4.177356e-01 5.476081e-02 2.832237e-02 -6.363883e-02 -6.957755e-02 -2.223976e-01 -2.682685e-01 -1.273973e-01 -1.043030e-01 -6.225839e-02 -1.949124e-01 -2.194694e-01 3.186180e-01
<VARIANCE> 25
 3.809964e+01 2.864783e+01 2.889138e+01 2.547526e+01 2.625705e+01 2.725301e+01 2.334896e+01 2.409673e+01 1.866425e+01 2.171145e+01 1.715230e+01 1.458529e+01 3.265678e+00 2.351838e+00 1.859624e+00 2.021901e+00 2.243693e+00 2.613376e+00 2.026781e+00 1.755404e+00 1.697386e+00 1.594880e+00 1.538104e+00 1.275924e+00 4.777233e+00
<GCONST> 9.361074e+01
~s "ST_iy_2_1"
<MEAN> 25
 3.919826e+00 1.682847e+01 5.595316e+00 5.844994e+00 -3.795288e+00 -2.121748e+00 -1.332323e+00 -5.535079e+00 -2.285130e+00 -3.743604e+00 -1.959060e+00 -1.584569e+00 -1.980305e+00 -1.318872e+00 -6.573141e-01 4.544181e-01 1.185368e+00 6.986494e-01 1.715694e-02 1.997489e-01 2.170496e-01 7.170336e-02 8.606061e-02 7.564485e-02 -1.121728e+00
<VARIANCE> 25
 5.700490e+01 3.706504e+01 2.368345e+01 1.132207e+01 1.940772e+01 1.768650e+01 1.575967e+01 2.689891e+01 1.401664e+01 1.768801e+01 2.020810e+01 1.420602e+01 1.088106e+00 1.560868e+00 2.081138e+00 1.091918e+00 1.155588e+00 1.426643e+00 1.705746e+00 2.526160e+00 1.636534e+00 1.501254e+00 1.635616e+00 1.469256e+00 2.680332e-01
<GCONST> 8.602534e+01
~s "ST_iy_3_1"
<MEAN> 25
 -7.694155e+00 7.200876e+00 1.321201e-01 7.648535e+00 1.629496e+00 1.809449e+00 1.479401e+00 -3.148882e+00 -2.658602e+00 -4.526522e+00 -1.096753e+00 -1.803059e-01 -4.157334e-01 -2.938277e-01 -2.878945e-01 -1.223358e-01 7.683066e-02 1.055101e-01 1.908343e-01 3.396673e-01 2.241419e-01 6.213990e-02 3.030236e-02 5.980865e-02 -2.281063e-01
<VARIANCE> 25
 9.084857e+00 1.047564e+01 1.281825e+01 1.838444e+01 1.137693e+01 1.605822e+01 1.163989e+01 1.443382e+01 1.327060e+01 1.360485e+01 1.644503e+01 1.848823e+01 3.494780e-01 6.837127e-01 7.980069e-01 8.433879e-01 1.136925e+00 1.127360e+00 1.033397e+00 1.010961e+00 1.559952e+00 1.677026e+00 1.347120e+00 1.634015e+00 8.596594e-02
<GCONST> 7.497126e+01
~s "ST_iy_4_1"
<MEAN> 25
 -1.004103e+01 4.790120e+00 -6.056490e+00 4.773359e+00 2.422888e+00 3.082578e+00 2.381299e+00 -1.988334e+00 1.136215e+00 -2.001898e+00 -3.585652e-01 -5.658937e-01 -3.693742e-02 -3.861569e-02 -3.012661e-02 -4.420927e-03 3.201790e-02 6.044988e-02 6.576475e-02 4.731411e-02 5.121264e-02 1.211809e-02 -6.571459e-04 -2.958846e-02 -1.694794e-02
<VARIANCE> 25
 5.933043e+00 6.033061e+00 4.827964e+00 8.668049e+00 1.122995e+01 1.281537e+01 1.206173e+01 1.359654e+01 1.136086e+01 1.123861e+01 1.209464e+01 1.142003e+01 1.111966e-01 2.452410e-01 4.017212e-01 6.210470e-01 7.001980e-01 8.988789e-01 1.114977e+00 1.287978e+00 1.166941e+00 1.163571e+00 1.260585e+00 1.049592e+00 3.817413e-02
<GCONST> 6.533440e+01
~s "ST_ae_2_1"
<MEAN> 25
 1.886096e+01 -2.265226e+01 -2.051872e+00 -6.939975e+00 -5.831907e-01 -6.553031e-01 -5.445104e-01 4.465804e+00 2.596022e+00 2.992583e+00 -4.158557e+00 -5.413151e+00 -3.401867e-01 -1.564371e+00 7.661980e-01 -3.477809e-01 1.606379e-01 -1.413690e+00 1.527026e+00 1.298618e+00 -1.075945e+00 -1.785780e-01 -1.657162e+00 -3.203055e-01 1.226029e+00
<VARIANCE> 25
 2.420992e+01 1.585805e+01 6.695398e+01 1.090738e+02 5.623775e+01 8.029137e+01 5.761052e+01 4.056944e+01 2.119716e+01 3.309049e+01 3.067422e+01 1.821063e+01 2.472939e+00 2.936984e+00 4.263123e+00 5.207756e+00 8.184625e+00 5.157337e+00 4.271102e+00 5.228920e+00 4.114926e+00 2.805353e+00 1.844709e+00 2.760384e+00 1.220407e+00
<GCONST> 1.060486e+02
~s "ST_ae_3_1"
<MEAN> 25
 1.849781e+01 -2.346622e+01 7.745992e-01 2.155568e+00 -9.098598e+00 -8.477667e+00 8.668421e+00 5.600144e+00 -3.186575e+00 -1.832922e+00 -8.324002e+00 -1.676392e+00 -4.843048e-01 5.117330e-01 1.123557e+00 -2.955050e-01 -6.003003e-01 -3.664569e-01 9.985082e-01 1.039604e+00 -1.501906e+00 -7.020451e-01 8.646545e-01 -1.545671e-01 -2.760848e-01
<VARIANCE> 25
 1.451694e+01 2.755530e+01 4.547669e+01 9.014458e+01 5.468102e+01 2.838302e+01 5.683676e+01 4.650858e+01 3.016987e+01 2.202335e+01 2.644444e+01 1.569230e+01 5.782489e-01 2.070084e+00 4.135786e+00 2.664831e+00 3.841486e+00 1.830327e+00 2.735211e+00 2.709404e+00 1.522760e+00 1.473364e+00 1.331270e+00 1.589099e+00 1.224587e+00
<GCONST> 9.630428e+01
~s "ST_ae_4_1"
<MEAN> 25
 1.328230e+01 -2.070560e+01 1.534252e+01 -1.169008e+01 -9.516756e+00 -5.517772e+00 1.174371e+00 1.559965e+01 -9.152380e+00 -6.966571e-01 2.854712e+00 -4.890363e+00 -4.471431e-02 9.206043e-01 6.476942e-01 2.853965e-01 -6.376300e-01 1.756334e-01 4.659842e-01 -2.908565e-01 -1.235219e+00 1.673265e-01 6.122572e-01 -2.236566e-01 -5.578849e-01
<VARIANCE> 25
 8.046889e+00 1.759772e+01 4.767379e+01 3.657729e+01 5.271703e+01 2.611517e+01 4.037801e+01 3.135794e+01 4.329038e+01 3.300253e+01 3.055856e+01 2.612563e+01 3.041550e-01 1.875626e+00 2.150620e+00 1.398323e+00 2.651497e+00 1.402189e+00 2.234339e+00 2.513258e+00 2.993274e+00 2.131378e+00 2.150317e+00 1.332169e+00 7.419621e-01
<GCONST> 9.286761e+01
~s "ST_w_2_1"
<MEAN> 25
 2.571440e+01 -1.724190e+00 -6.559728e+00 -1.678123e+01 -2.342890e+00 3.430309e+00 -5.479804e-01 -4.361065e+00 -1.141761e+01 2.191446e+00 8.040923e+00 -1.499645e-01 5.827972e-01 -3.465874e+00 6.835784e-01 1.167945e+00 3.572755e-02 -1.811667e+00 -7.877347e-03 -4.932626e-02 7.007033e-02 1.759140e+00 9.818344e-01 -1.425866e+00 2.405920e+00
<VARIANCE> 25
 1.364187e+01 6.180961e+01 7.351670e+01 7.697653e+01 4.962407e+01 3.837424e+01 4.928172e+01 5.077977e+01 5.050301e+01 4.917874e+01 3.299992e+01 2.856754e+01 2.522092e+00 3.016454e+00 7.441211e+00 7.216728e+00 9.378548e+00 7.970553e+00 6.082052e+00 4.596746e+00 8.040815e+00 4.488442e+00 6.092423e+00 4.780170e+00 1.609671e+00
<GCONST> 1.124594e+02
~s "ST_w_3_1"
<MEAN> 25
 2.278583e+01 -1.448703e+01 -5.066685e+00 -9.805482e+00 1.007344e+00 -4.899480e+00 -2.140146e+00 -6.101990e-01 -4.363448e+00 6.924674e+00 5.148775e+00 -8.450333e+00 -1.046611e+00 -2.017383e+00 6.300238e-01 1.769323e+00 1.671884e-01 -1.982543e+00 1.657588e-01 1.682892e+00 2.684551e+00 -9.048218e-01 -2.527012e+00 -1.569951e+00 1.041428e+00
<VARIANCE> 25
 2.437884e+01 1.993846e+01 5.681929e+01 1.054552e+02 4.832098e+01 5.910008e+01 7.599642e+01 6.286027e+01 6.871307e+01 4.742905e+01 5.156523e+01 3.693680e+01 5.010749e-01 2.048784e+00 2.251164e+00 2.120943e+00 3.726057e+00 2.760001e+00 3.558451e+00 2.980161e+00 3.730110e+00 3.493980e+00 2.342258e+00 3.317140e+00 4.998798e-01
<GCONST> 1.031071e+02
~s "ST_w_4_1"
<MEAN> 25
 1.765510e+01 -1.925682e+01 2.057785e+00 -1.043673e+01 5.524363e-02 -7.668686e+00 -1.144994e+00 1.051691e+01 1.537573e-01 8.412631e-01 -2.134998e+00 -8.736717e+00 8.285001e-02 -3.894871e-01 4.850872e-01 9.410301e-01 -1.094454e+00 3.151774e-02 3.059779e-01 3.371005e-01 3.667248e-01 -5.290111e-01 -1.337682e+00 3.083746e-01 -3.034557e-01
<VARIANCE> 25
 1.850558e+01 1.838034e+01 3.983353e+01 6.803261e+01 4.670251e+01 5.609027e+01 5.362379e+01 6.413524e+01 4.397345e+01 3.584826e+01 2.953869e+01 2.766753e+01 8.807005e-01 1.109420e+00 1.393379e+00 1.514142e+00 1.746425e+00 3.234444e+00 2.986130e+00 4.356075e+00 2.670567e+00 4.303573e+00 2.579754e+00 2.623369e+00 4.868101e-01
<GCONST> 9.841794e+01
~s "ST_ng_2_1"
<MEAN> 25
 1.921910e+01 -5.242050e-01 2.275931e+00 1.803923e+00 -1.048396e+01 -8.537270e-01 9.239408e+00 -7.624177e+00 -1.396069e+01 2.797672e+00 1.464357e+00 -2.886599e+00 5.637814e-01 3.026983e+00 -1.580430e+00 6.156439e-01 3.470024e-01 8.225052e-01 -5.260580e-01 -2.764990e+00 5.558398e-01 3.459214e-01 7.914367e-02 5.761762e-01 -1.652351e+00
<VARIANCE> 25
 1.072749e+01 9.145305e+01 8.771163e+01 1.031077e+02 6.347977e+01 3.825969e+01 6.527219e+01 1.456927e+02 4.740995e+01 3.512566e+01 2.306236e+01 3.083953e+01 9.930578e-01 3.541217e+00 5.746943e+00 9.167190e+00 4.743031e+00 3.179194e+00 7.764887e+00 9.138250e+00 5.968418e+00 3.726837e+00 2.524387e+00 2.418413e+00 1.174130e+00
<GCONST> 1.101542e+02
~s "ST_ng_3_1"
<MEAN> 25
 1.673905e+01 -2.023880e-01 5.332243e-01 -3.789932e+00 6.143237e-01 -5.103575e+00 -6.297391e+00 -1.794781e+00 -3.732697e+00 1.994357e+00 -2.564693e+00 -2.911408e+00 -7.165763e-01 -3.821026e+00 9.202780e-01 -3.529835e+00 3.045536e+00 -6.815877e-01 -4.023511e+00 3.848404e+00 2.475859e+00 8.425497e-01 -1.301599e+00 -9.388857e-01 2.654005e+00
<VARIANCE> 25
 1.520494e+01 1.367233e+02 6.024063e+01 1.317043e+02 1.320507e+02 7.018266e+01 1.316483e+02 1.455172e+02 7.697499e+01 4.089470e+01 5.426520e+01 3.218147e+01 1.967696e+00 7.634079e+00 7.608378e+00 1.239037e+01 1.013679e+01 1.147456e+01 7.642300e+00 1.368282e+01 4.784665e+00 7.364790e+00 5.288890e+00 3.689050e+00 2.900532e+00
<GCONST> 1.213397e+02
~s "ST_m_2_1"
<MEAN> 25
 2.164131e+00 6.234289e+00 7.598461e+00 -4.274233e+00 6.187442e+00 -1.561890e+01 -8.874366e-01 1.905999e+00 1.114027e+00 -4.407656e+00 -5.013044e+00 2.376101e+00 9.122161e-01 -9.020776e-01 1.289028e+00 -1.089258e+00 2.182076e-01 -8.809240e-01 -1.154203e+00 1.286029e-01 -3.438486e-01 -1.729073e-01 -1.333709e-02 -2.043357e-01 3.502522e+00
<VARIANCE> 25
 6.349511e+01 1.011049e+02 7.744386e+01 9.681438e+01 1.550932e+02 1.217203e+02 1.206981e+02 7.110073e+01 6.376902e+01 5.011603e+01 4.852343e+01 2.860580e+01 1.129671e+01 9.606609e+00 7.446363e+00 9.731816e+00 1.506482e+01 1.204236e+01 9.463449e+00 9.337379e+00 9.253783e+00 6.943250e+00 5.414241e+00 4.287781e+00 4.154736e+00
<GCONST> 1.252290e+02
~s "ST_ng_4_1"
<MEAN> 25
 1.678995e+01 -1.160477e+01 4.688934e+00 -2.315165e+01 5.390779e+00 2.991227e+00 -1.470238e+01 4.120591e+00 1.586010e+00 1.132023e+01 -3.045930e+00 -4.054899e+00 2.207972e-01 3.056068e-01 -4.010924e-01 -3.461647e-01 -1.649783e-02 7.237852e-01 -5.023167e-01 -8.453722e-01 1.356295e-01 2.231295e-01 1.944955e-01 3.825572e-01 -1.480704e-01
<VARIANCE> 25
 4.702829e+00 1.970875e+01 2.213951e+01 3.016664e+01 3.861700e+01 2.514906e+01 3.591976e+01 2.960667e+01 2.390478e+01 2.357348e+01 4.035680e+01 2.604242e+01 2.902046e-01 1.295806e+00 1.033243e+00 2.774810e+00 1.753700e+00 2.240091e+00 1.443168e+00 1.762714e+00 1.419126e+00 1.659730e+00 2.210246e+00 1.654867e+00 5.694264e-01
<GCONST> 8.808735e+01
~s "ST_m_3_1"
<MEAN> 25
 1.894696e+01 -1.206113e+01 1.237071e+01 -1.776475e+01 1.065611e+00 -1.354510e+00 -1.476304e+01 -2.168745e+00 -4.951350e+00 4.769416e+00 2.305654e+00 -9.167500e-01 2.275356e+00 -9.145974e-01 -4.122216e-01 -9.528231e-01 -8.554779e-01 2.321438e+00 1.496090e-01 -8.937449e-01 -6.125331e-01 6.496185e-01 5.990629e-01 4.278559e-02 -2.823320e-01
<VARIANCE> 25
 4.603493e+01 3.558614e+01 2.580201e+01 9.296381e+01 2.674380e+01 1.146315e+02 5.096524e+01 7.363005e+01 4.707616e+01 3.531535e+01 4.585280e+01 1.469693e+01 3.410885e+00 3.411443e+00 2.706216e+00 5.428704e+00 5.350633e+00 6.047677e+00 4.879617e+00 5.421679e+00 3.317734e+00 7.377365e+00 1.985574e+00 1.983651e+00 1.609830e+00
<GCONST> 1.082567e+02
~s "ST_er_2_1"
<MEAN> 25
 1.233096e+01 -2.685481e+00 4.142071e+00 -9.419576e+00 8.431126e+00 -5.765562e+00 -6.240360e+00 1.872096e+00 1.283001e+00 2.392350e+00 -3.462351e+00 -5.632123e-01 -4.580347e+00 3.190685e+00 2.558903e-01 1.014763e+00 1.650310e+00 -1.420942e+00 2.469344e+00 7.097713e-01 1.069561e+00 -2.477632e+00 5.978022e-01 1.299717e+00 -9.082550e-01
<VARIANCE> 25
 9.324796e+01 7.418476e+01 8.551649e+01 7.123734e+01 7.152706e+01 8.352924e+01 8.385093e+01 7.978917e+01 6.295708e+01 7.477129e+01 4.855301e+01 5.069876e+01 8.914934e+00 6.537152e+00 1.172344e+01 9.081722e+00 1.093011e+01 5.456586e+00 9.700256e+00 1.120528e+01 7.468388e+00 6.415142e+00 6.000825e+00 6.501078e+00 1.748013e+00
<GCONST> 1.228743e+02
~s "ST_m_4_1"
<MEAN> 25
 2.060450e+01 -3.296110e+00 6.381888e+00 -2.867032e+00 -8.391539e+00 -8.838088e-01 1.545467e+00 -7.772937e+00 -9.048059e+00 1.168234e+00 7.567631e-01 -2.095299e+00 -3.176689e-01 8.836737e-01 -4.727770e-01 7.499068e-01 -1.209557e-02 -2.767459e-01 3.667914e-01 -2.048863e-02 8.452304e-02 -9.006406e-02 -9.077635e-02 -1.002717e-01 -1.019759e+00
<VARIANCE> 25
 4.337152e+01 1.358592e+02 1.584901e+02 1.407838e+02 5.589339e+01 8.437281e+01 9.188550e+01 1.721505e+02 8.256710e+01 7.740224e+01 3.898365e+01 3.154814e+01 2.557789e+00 7.585508e+00 8.510495e+00 9.389949e+00 3.695616e+00 4.908863e+00 6.230864e+00 1.194995e+01 7.267421e+00 8.306134e+00 3.123681e+00 3.291823e+00 5.618051e+00
<GCONST> 1.213577e+02
~s "ST_er_3_1"
<MEAN> 25
 -9.837134e+00 4.280458e+00 4.512967e+00 -6.974430e+00 4.989633e+00 -1.012284e+01 7.771559e+00 1.167228e+00 1.416408e-01 -3.717892e+00 1.391213e+00 4.326646e+00 1.352495e+00 -1.113896e+00 4.576153e-01 4.526291e-01 -1.574448e+00 -3.154534e-01 2.373450e-01 -2.075267e-01 -5.240315e-01 1.259893e-01 2.680998e-01 -3.005681e-01 3.054540e-01
<VARIANCE> 25
 7.977503e+01 4.352674e+01 5.729913e+01 3.975640e+01 6.676034e+01 5.370978e+01 5.426993e+01 7.211651e+01 3.929652e+01 3.946014e+01 3.570102e+01 2.757295e+01 2.130952e+01 5.599992e+00 5.695171e+00 3.999032e+00 4.909009e+00 4.762675e+00 7.611299e+00 5.436305e+00 3.938179e+00 3.948561e+00 4.035340e+00 3.239927e+00 3.126733e+00
<GCONST> 1.137629e+02
~s "ST_ah_2_1"
<MEAN> 25
 1.958660e+01 -2.749124e+00 -3.386147e+00 1.195249e+00 -4.256008e+00 -1.555785e+00 -1.240786e+00 -1.128101e+01 -2.307365e+00 5.813497e+00 -9.631002e+00 -4.764279e+00 -2.188354e-01 1.817234e+00 -2.177298e-01 1.216180e+00 -3.769996e-01 1.085961e-01 5.394319e-02 -4.825758e-01 -3.047210e-01 -4.834128e-01 -1.355687e-02 2.633141e-01 -1.562970e+00
<VARIANCE> 25
 1.636935e+01 6.439800e+01 6.800185e+01 1.955570e+02 8.002329e+01 9.499727e+01 1.013663e+02 1.133220e+02 7.636924e+01 6.908555e+01 5.156628e+01 3.874059e+01 9.432454e-01 3.457249e+00 2.959103e+00 6.767369e+00 7.099844e+00 3.768333e+00 5.379529e+00 9.149548e+00 3.210333e+00 3.915800e+00 3.897505e+00 1.843329e+00 1.419792e+00
<GCONST> 1.130745e+02
~s "ST_ah_2_2"
<MEAN> 25
 2.187409e+01 -1.013206e+01 -3.865080e+00 -1.560106e+01 1.506444e+00 1.090770e+00 -5.014750e+00 -3.830631e+00 -5.277805e+00 9.604047e+00 -5.002923e-01 -4.689258e+00 1.662768e-01 7.868521e-01 -1.714364e-01 -4.805101e-02 -6.147569e-01 1.001921e+00 -2.369795e-01 -9.100479e-01 1.079421e-01 -7.541462e-02 -2.170140e-01 5.368639e-02 -5.626845e-01
<VARIANCE> 25
 1.557779e+01 3.368336e+01 7.285960e+01 1.168525e+02 8.069792e+01 6.383822e+01 5.464689e+01 8.384862e+01 4.524504e+01 3.592192e+01 5.702523e+01 3.962197e+01 3.456766e-01 1.397316e+00 9.977914e-01 2.916519e+00 2.839005e+00 2.337218e+00 2.637284e+00 3.004918e+00 2.160793e+00 2.279858e+00 1.767808e+00 1.379429e+00 4.767215e-01
<GCONST> 9.940060e+01
~s "ST_er_4_1"
<MEAN> 25
 1.642464e+01 -1.515969e+01 1.115579e+01 -9.266375e-01 -8.942751e+00 -8.923884e+00 -4.360031e+00 3.761921e+00 -1.692504e+00 1.049373e+00 -1.198764e+00 -3.985580e-01 6.916469e-01 -6.024881e-01 -5.362182e-01 1.016131e+00 -1.271550e-01 5.405455e-01 -9.442686e-01 -4.002791e-01 6.047945e-01 4.168622e-01 -9.890268e-01 1.481841e-01 -5.289693e-01
<VARIANCE> 25
 3.118139e+01 1.486582e+01 6.325145e+01 5.881911e+01 3.854441e+01 7.385455e+01 4.836751e+01 4.902531e+01 6.010806e+01 5.261949e+01 6.726880e+01 2.570098e+01 5.735427e+00 5.209476e+00 8.212685e+00 7.125280e+00 5.153690e+00 7.253526e+00 6.002079e+00 7.126654e+00 6.482735e+00 6.021649e+00 5.278625e+00 3.411449e+00 3.431234e+00
<GCONST> 1.141788e+02
~s "ST_ah_3_1"
<MEAN> 25
 2.036621e+01 2.354182e+00 -7.215725e+00 -4.993661e+00 2.794227e+00 1.919274e+00 -7.800527e+00 -7.716427e+00 4.409789e-02 2.620565e+00 -3.720399e+00 -3.605525e+00 -6.552401e-01 3.640663e+00 -6.126379e-01 1.337929e+00 4.901418e-01 1.297963e-01 3.030640e-01 -6.306544e-02 2.884345e-02 -1.560558e+00 6.153790e-01 3.168930e-01 -2.826202e+00
<VARIANCE> 25
 2.070226e+01 7.665318e+01 5.814927e+01 1.161778e+02 6.717061e+01 5.674945e+01 4.646595e+01 6.360288e+01 4.112383e+01 6.751343e+01 4.446451e+01 3.212006e+01 1.742523e+00 4.031002e+00 7.815640e+00 1.027854e+01 7.759324e+00 6.907783e+00 7.031683e+00 7.667333e+00 5.410871e+00 5.244063e+00 4.973565e+00 3.147900e+00 2.211133e+00
<GCONST> 1.147593e+02
~s "ST_ah_4_1"
<MEAN> 25
 1.410551e+01 1.120252e+01 -5.428569e+00 -3.853991e+00 1.499061e+00 4.320499e+00 -4.689518e+00 -8.244382e+00 -1.528182e+00 2.200023e-01 -6.245173e-01 -2.516415e+00 -2.157099e+00 6.209667e-01 1.737204e+00 4.068632e-01 -1.229056e+00 -2.390402e-01 1.002242e+00 7.085987e-01 -3.867608e-02 -5.007994e-01 5.546791e-01 6.465929e-01 -1.606735e+00
<VARIANCE> 25
 4.986035e+01 6.248711e+01 9.113099e+01 6.267443e+01 6.402721e+01 5.288482e+01 4.511045e+01 2.957994e+01 3.811985e+01 3.047452e+01 2.673788e+01 1.978674e+01 3.567211e+00 3.704500e+00 4.573915e+00 2.861837e+00 3.759373e+00 2.473877e+00 3.233117e+00 2.995377e+00 2.651312e+00 2.628230e+00 2.159064e+00 1.835230e+00 2.164751e+00
<GCONST> 1.050379e+02
~s "ST_z_2_1"
<MEAN> 25
 -6.437010e+00 1.073162e+00 -2.590188e+00 9.817309e-01 1.035422e+00 8.096116e-01 -8.697082e-01 2.223370e+00 1.144768e+00 2.018116e-02 3.412356e-01 6.902506e-01 -1.350964e-02 -7.458783e-03 -6.497549e-02 -2.374219e-02 2.266227e-02 1.389207e-02 -1.577397e-03 8.135424e-02 6.035425e-02 -1.983052e-02 -4.410435e-02 -6.863097e-03 -2.685437e-02
<VARIANCE> 25
 2.119449e+00 2.025928e+00 5.227987e+00 1.229010e+01 1.452120e+01 9.480119e+00 1.299277e+01 1.131968e+01 1.299321e+01 1.124618e+01 1.085345e+01 8.123403e+00 1.094034e-01 2.490329e-01 3.486144e-01 8.331556e-01 7.326210e-01 7.505851e-01 1.212983e+00 1.195170e+00 1.310192e+00 1.197133e+00 9.214984e-01 8.279004e-01 3.817413e-02
<GCONST> 6.279438e+01
~s "ST_z_3_1"
<MEAN> 25
 -7.262773e+00 -7.043166e-01 -2.687353e+00 1.429260e+00 -8.528490e-01 -4.664737e-02 4.895529e-01 2.561383e+00 3.230283e+00 -7.895275e-02 -1.054265e+00 9.372540e-02 3.917085e-01 3.554924e-01 5.043905e-01 1.425050e-01 2.741495e-01 1.291373e-03 -1.356784e-01 -1.610879e-01 -1.572250e-01 4.634361e-02 -2.888017e-01 -3.438791e-01 2.718231e-01
<VARIANCE> 25
 7.034647e+00 1.352902e+01 2.691955e+01 1.000448e+01 9.755607e+00 1.343370e+01 1.698232e+01 1.173384e+01 3.146267e+01 9.027257e+00 1.354772e+01 1.315277e+01 1.012539e+00 1.720765e+00 3.982348e+00 1.451205e+00 1.420527e+00 1.285861e+00 2.356327e+00 1.419442e+00 4.285515e+00 1.273089e+00 1.589556e+00 1.645514e+00 9.014139e-01
<GCONST> 8.377437e+01
~s "ST_z_4_1"
<MEAN> 25
 1.419616e+01 -8.300763e-01 1.056626e+00 -1.325147e+01 8.082793e+00 1.114578e+00 -8.005510e+00 -4.702642e+00 -1.909772e+00 8.621578e-01 -2.010122e+00 -7.378850e-01 4.337676e-01 -5.306981e-02 -2.712477e-01 -2.471505e-01 6.007048e-02 2.525092e-01 -1.232558e-01 -4.033267e-01 -2.435404e-01 3.558683e-02 2.406507e-01 -3.684387e-02 3.334109e-01
<VARIANCE> 25
 2.029884e+02 1.346874e+02 8.768511e+01 1.303701e+02 3.728758e+01 1.503373e+02 7.565057e+01 6.214616e+01 3.626140e+01 5.384286e+01 4.102296e+01 2.847106e+01 7.056726e+00 9.463657e+00 6.728594e+00 9.570785e+00 4.053282e+00 6.406845e+00 7.989289e+00 6.544867e+00 5.335833e+00 7.145895e+00 5.407114e+00 3.213179e+00 8.929958e+00
<GCONST> 1.214997e+02
~s "ST_eh_2_1"
<MEAN> 25
 2.157292e+01 -1.821086e+01 -5.030237e-01 3.124055e+00 -1.118169e+01 -5.124084e+00 2.951290e+00 -1.450200e+00 9.120274e-01 4.910215e+00 -5.934870e+00 -4.500683e+00 6.774744e-02 6.816895e-01 -3.280686e-01 7.180484e-01 -9.104716e-03 -2.759622e-01 1.931638e-01 -3.742738e-01 -2.343303e-01 2.205051e-01 -2.571320e-01 2.974168e-01 -7.323741e-01
<VARIANCE> 25
 1.746654e+01 2.250826e+01 4.026847e+01 6.270792e+01 2.931600e+01 4.132489e+01 3.913622e+01 8.301889e+01 4.552339e+01 4.936602e+01 4.178800e+01 3.022996e+01 1.828932e+00 2.471240e+00 4.889000e+00 5.869074e+00 3.727313e+00 3.837545e+00 3.537989e+00 7.839211e+00 4.426826e+00 4.278006e+00 3.401082e+00 2.589213e+00 2.777968e+00
<GCONST> 1.067865e+02
~s "ST_eh_3_1"
<MEAN> 25
 1.937177e+01 -5.581085e+00 -6.465621e+00 6.947439e+00 -3.585205e+00 -8.844818e+00 9.969866e-01 1.113003e+00 1.333494e+00 -2.933391e-01 -5.456327e+00 -1.866464e+00 -1.412095e+00 3.908774e+00 -1.475935e+00 -1.465109e-01 2.378057e+00 3.950742e-01 -1.072261e+00 1.697545e+00 1.265707e+00 -2.153816e+00 5.090149e-01 7.383839e-01 -3.403484e+00
<VARIANCE> 25
 2.605801e+01 4.349741e+01 5.804211e+01 6.343838e+01 5.445463e+01 3.321943e+01 4.427094e+01 6.598658e+01 5.342676e+01 5.488734e+01 5.034232e+01 3.634080e+01 1.943960e+00 4.282152e+00 5.015772e+00 8.601143e+00 6.136192e+00 5.614591e+00 5.449041e+00 6.605685e+00 3.709507e+00 4.832737e+00 4.919380e+00 2.372997e+00 2.443006e+00
<GCONST> 1.114103e+02
~s "ST_eh_4_1"
<MEAN> 25
 6.267600e+00 6.130284e+00 -6.190632e+00 9.180490e-01 -1.176972e+00 -3.876628e+00 -1.399928e+00 4.478277e+00 5.286142e+00 -3.260578e+00 -4.362533e+00 -4.646845e-01 -2.468206e+00 8.406829e-01 6.498912e-01 -6.855326e-01 -1.586139e-01 1.190293e+00 -2.759021e-02 -8.303828e-01 -1.039204e-01 5.864958e-01 7.288420e-01 1.623300e-01 -2.014879e+00
<VARIANCE> 25
 1.093422e+02 6.519607e+01 7.743974e+01 3.103485e+01 3.862864e+01 3.094044e+01 4.028401e+01 3.697878e+01 2.755127e+01 3.736296e+01 1.974522e+01 1.715206e+01 3.141489e+00 5.869294e+00 5.256512e+00 4.788888e+00 3.252551e+00 2.575460e+00 2.707468e+00 3.198704e+00 2.710223e+00 3.000299e+00 2.305303e+00 2.057300e+00 3.502220e+00
<GCONST> 1.050877e+02
~s "ST_ih_2_1"
<MEAN> 25
 -1.036052e+01 4.669210e+00 -3.510187e+00 2.764736e+00 6.823114e-01 3.207821e+00 2.054771e+00 -1.366489e+00 3.857468e-01 -1.164799e+00 1.005676e+00 4.138141e-01 4.268677e-01 1.021560e-01 9.023142e-02 -3.848121e-02 -1.815344e-01 -5.563846e-02 -1.869767e-01 -2.278982e-01 -3.666527e-01 -8.467270e-03 -2.637580e-01 -3.047004e-01 2.974388e-01
<VARIANCE> 25
 4.490340e+01 1.482581e+01 1.623110e+01 2.147424e+01 1.819320e+01 1.232108e+01 1.276217e+01 1.776948e+01 1.690365e+01 1.464359e+01 1.565465e+01 1.088996e+01 1.865104e+00 1.060220e+00 7.971807e-01 1.976969e+00 2.072607e+00 1.518327e+00 1.142173e+00 1.988774e+00 1.910819e+00 1.580527e+00 1.500380e+00 1.473611e+00 2.213829e+00
<GCONST> 8.558504e+01
~s "ST_ih_3_1"
<MEAN> 25
 -7.881787e+00 3.747877e+00 -1.942068e+00 2.427158e+00 1.243074e+00 3.700390e-01 2.440403e+00 -4.858435e-02 -4.442330e-01 -1.565410e+00 -2.050554e+00 4.066810e-03 1.742773e-01 -1.879925e-01 1.620160e-01 2.078651e-01 2.260925e-01 -1.090906e-01 8.990171e-02 1.534288e-01 2.446957e-02 1.276505e-03 -1.503565e-01 -5.188873e-02 2.954273e-01
<VARIANCE> 25
 3.068523e+01 1.872499e+01 1.212253e+01 2.215874e+01 1.943666e+01 2.306293e+01 1.611331e+01 1.730688e+01 1.282502e+01 1.353351e+01 1.868572e+01 1.152249e+01 5.676649e-01 7.409878e-01 7.304994e-01 1.234632e+00 1.612257e+00 1.459729e+00 1.415708e+00 1.485866e+00 1.268372e+00 1.576497e+00 1.392093e+00 1.033072e+00 3.103178e-01
<GCONST> 8.067501e+01
~s "ST_ih_4_1"
<MEAN> 25
 -6.346810e+00 2.083379e+00 -1.164048e+00 4.432612e+00 2.391157e+00 -3.490806e-01 1.042392e+00 4.103317e-01 1.946964e+00 -1.399724e+00 -1.128701e+00 9.006258e-01 9.086089e-01 -7.369253e-01 7.750690e-01 1.271252e-01 3.477427e-01 -7.323676e-01 -3.117481e-01 9.451206e-02 2.372822e-01 1.167813e-01 -1.941493e-01 -7.660940e-02 1.678764e+00
<VARIANCE> 25
 4.446207e+01 6.256522e+01 2.690909e+01 1.832905e+01 2.116136e+01 3.979305e+01 2.050958e+01 1.998613e+01 2.383794e+01 1.892411e+01 1.973623e+01 1.611318e+01 5.736173e+00 5.638593e+00 3.046048e+00 2.678727e+00 3.347481e+00 4.059428e+00 2.681705e+00 1.516650e+00 2.958541e+00 1.711208e+00 1.319930e+00 1.913906e+00 5.913888e+00
<GCONST> 9.861808e+01
~h "t+uw"
<BEGINHMM>
<NUMSTATES> 5
<STATE> 2
~s "ST_t_2_1"
<STATE> 3
~s "ST_t_3_1"
<STATE> 4
~s "ST_t_4_2"
~t "T_t"
<ENDHMM>
~h "t-uw"
<BEGINHMM>
<NUMSTATES> 5
<STATE> 2
~s "ST_uw_2_1"
<STATE> 3
~s "ST_uw_3_1"
<STATE> 4
~s "ST_uw_4_1"
~t "T_uw"
<ENDHMM>
~h "sp"
<BEGINHMM>
<NUMSTATES> 3
<STATE> 2
~s "ST_sil_3_1"
<TRANSP> 3
 0.000000e+00 1.222500e-02 9.877750e-01
 0.000000e+00 5.772315e-01 4.227685e-01
 0.000000e+00 0.000000e+00 0.000000e+00
<ENDHMM>
~h "aw+t"
<BEGINHMM>
<NUMSTATES> 5
<STATE> 2
~s "ST_aw_2_1"
<STATE> 3
~s "ST_aw_3_1"
<STATE> 4
~s "ST_aw_4_1"
~t "T_aw"
<ENDHMM>
~h "aw-t"
<BEGINHMM>
<NUMSTATES> 5
<STATE> 2
~s "ST_t_2_1"
<STATE> 3
~s "ST_t_3_1"
<STATE> 4
~s "ST_t_4_1"
~t "T_t"
<ENDHMM>
~h "ay-ae+ng"
<BEGINHMM>
<NUMSTATES> 5
<STATE> 2
~s "ST_ae_2_1"
<STATE> 3
~s "ST_ae_3_1"
<STATE> 4
~s "ST_ae_4_1"
~t "T_ae"
<ENDHMM>
~h "g-ah+l"
<BEGINHMM>
<NUMSTATES> 5
<STATE> 2
~s "ST_ah_2_1"
<STATE> 3
~s "ST_ah_3_1"
<STATE> 4
~s "ST_ah_4_1"
~t "T_ah"
<ENDHMM>
~h "k-ah+l"
<BEGINHMM>
<NUMSTATES> 5
<STATE> 2
~s "ST_ah_2_2"
<STATE> 3
~s "ST_ah_3_1"
<STATE> 4
~s "ST_ah_4_1"
~t "T_ah"
<ENDHMM>
~h "r-eh+d"
<BEGINHMM>
<NUMSTATES> 5
<STATE> 2
~s "ST_eh_2_1"
<STATE> 3
~s "ST_eh_3_1"
<STATE> 4
~s "ST_eh_4_1"
~t "T_eh"
<ENDHMM>
~h "th+r"
<BEGINHMM>
<NUMSTATES> 5
<STATE> 2
~s "ST_th_2_1"
<STATE> 3
~s "ST_th_3_1"
<STATE> 4
~s "ST_th_4_1"
~t "T_th"
<ENDHMM>
~h "th-r+iy"
<BEGINHMM>
<NUMSTATES> 5
<STATE> 2
~s "ST_r_2_1"
<STATE> 3
~s "ST_r_3_1"
<STATE> 4
~s "ST_r_4_1"
~t "T_r"
<ENDHMM>
~h "r-ey+s"
<BEGINHMM>
<NUMSTATES> 5
<STATE> 2
~s "ST_ey_2_1"
<STATE> 3
~s "ST_ey_3_1"
<STATE> 4
~s "ST_ey_4_1"
~t "T_ey"
<ENDHMM>
~h "ng-g+ah"
<BEGINHMM>
<NUMSTATES> 5
<STATE> 2
~s "ST_g_2_1"
<STATE> 3
~s "ST_g_3_1"
<STATE> 4
~s "ST_g_4_1"
~t "T_g"
<ENDHMM>
~h "f+ih"
<BEGINHMM>
<NUMSTATES> 5
<STATE> 2
~s "ST_f_2_1"
<STATE> 3
~s "ST_f_3_1"
<STATE> 4
~s "ST_f_4_1"
~t "T_f"
<ENDHMM>
~h "w+ah"
<BEGINHMM>
<NUMSTATES> 5
<STATE> 2
~s "ST_w_2_1"
<STATE> 3
~s "ST_w_3_1"
<STATE> 4
~s "ST_w_4_1"
~t "T_w"
<ENDHMM>
~h "b+l"
<BEGINHMM>
<NUMSTATES> 5
<STATE> 2
~s "ST_b_2_1"
<STATE> 3
~s "ST_b_3_1"
<STATE> 4
~s "ST_b_4_1"
~t "T_b"
<ENDHMM>
~h "d+r"
<BEGINHMM>
<NUMSTATES> 5
<STATE> 2
~s "ST_d_2_1"
<STATE> 3
~s "ST_d_3_1"
<STATE> 4
~s "ST_d_4_1"
~t "T_d"
<ENDHMM>
~h "uw-m"
<BEGINHMM>
<NUMSTATES> 5
<STATE> 2
~s "ST_m_2_1"
<STATE> 3
~s "ST_m_3_1"
<STATE> 4
~s "ST_m_4_1"
~t "T_m"
<ENDHMM>
~h "r-ay+ae"
<BEGINHMM>
<NUMSTATES> 5
<STATE> 2
~s "ST_ay_2_1"
<STATE> 3
~s "ST_ay_3_1"
<STATE> 4
~s "ST_ay_4_1"
~t "T_ay"
<ENDHMM>
~h "s+k"
<BEGINHMM>
<NUMSTATES> 5
<STATE> 2
~s "ST_s_2_1"
<STATE> 3
~s "ST_s_3_1"
<STATE> 4
~s "ST_s_4_1"
~t "T_s"
<ENDHMM>
~h "sil"
<BEGINHMM>
<NUMSTATES> 5
<STATE> 2
~s "ST_sil_2_1"
<STATE> 3
~s "ST_sil_3_1"
<STATE> 4
~s "ST_sil_4_1"
<TRANSP> 5
 0.000000e+00 1.000000e+00 0.000000e+00 0.000000e+00 0.000000e+00
 0.000000e+00 9.366685e-01 1.239330e-02 5.093820e-02 0.000000e+00
 0.000000e+00 0.000000e+00 9.651963e-01 3.480371e-02 0.000000e+00
 0.000000e+00 9.104678e-02 0.000000e+00 7.220729e-01 1.868803e-01
 0.000000e+00 0.000000e+00 0.000000e+00 0.000000e+00 0.000000e+00
<ENDHMM>
~h "f-ih+l"
<BEGINHMM>
<NUMSTATES> 5
<STATE> 2
~s "ST_ih_2_1"
<STATE> 3
~s "ST_ih_3_1"
<STATE> 4
~s "ST_ih_4_1"
~t "T_ih"
<ENDHMM>
~h "s-k+w"
<BEGINHMM>
<NUMSTATES> 5
<STATE> 2
~s "ST_k_2_2"
<STATE> 3
~s "ST_k_3_2"
<STATE> 4
~s "ST_k_4_1"
~t "T_k"
<ENDHMM>
~h "b-l+uw"
<BEGINHMM>
<NUMSTATES> 5
<STATE> 2
~s "ST_l_2_1"
<STATE> 3
~s "ST_l_3_1"
<STATE> 4
~s "ST_l_4_1"
~t "T_l"
<ENDHMM>
~h "ae-ng+g"
<BEGINHMM>
<NUMSTATES> 5
<STATE> 2
~s "ST_ng_2_1"
<STATE> 3
~s "ST_ng_3_1"
<STATE> 4
~s "ST_ng_4_1"
~t "T_ng"
<ENDHMM>
~h "z+uw"
<BEGINHMM>
<NUMSTATES> 5
<STATE> 2
~s "ST_z_2_1"
<STATE> 3
~s "ST_z_3_1"
<STATE> 4
~s "ST_z_4_1"
~t "T_z"
<ENDHMM>
~h "r-iy+n"
<BEGINHMM>
<NUMSTATES> 5
<STATE> 2
~s "ST_iy_2_1"
<STATE> 3
~s "ST_iy_3_1"
<STATE> 4
~s "ST_iy_4_1"
~t "T_iy"
<ENDHMM>
~h "s-er+k"
<BEGINHMM>
<NUMSTATES> 5
<STATE> 2
~s "ST_er_2_1"
<STATE> 3
~s "ST_er_3_1"
<STATE> 4
~s "ST_er_4_1"
~t "T_er"
<ENDHMM>
~h "r-ao"
<BEGINHMM>
<NUMSTATES> 5
<STATE> 2
~s "ST_ao_2_1"
<STATE> 3
~s "ST_ao_3_1"
<STATE> 4
~s "ST_ao_4_1"
~t "T_ao"
<ENDHMM>
~h "ih-n"
<BEGINHMM>
<NUMSTATES> 5
<STATE> 2
~s "ST_n_2_1"
<STATE> 3
~s "ST_n_3_1"
<STATE> 4
~s "ST_n_4_2"
~t "T_n"
<ENDHMM>
~h "ah-n"
<BEGINHMM>
<NUMSTATES> 5
<STATE> 2
~s "ST_n_2_1"
<STATE> 3
~s "ST_n_3_1"
<STATE> 4
~s "ST_n_4_1"
~t "T_n"
<ENDHMM>
~h "er-k+ah"
<BEGINHMM>
<NUMSTATES> 5
<STATE> 2
~s "ST_k_2_1"
<STATE> 3
~s "ST_k_3_1"
<STATE> 4
~s "ST_k_4_1"
~t "T_k"
<ENDHMM>
