~o
<STREAMINFO> 1 25
<VECSIZE> 25<NULLD><MFCC_D_N_Z_0><DIAGC>
~t "T_b"
<TRANSP> 5
 0.000000e+00 1.000000e+00 0.000000e+00 0.000000e+00 0.000000e+00
 0.000000e+00 9.186343e-01 8.136568e-02 0.000000e+00 0.000000e+00
 0.000000e+00 0.000000e+00 7.844967e-01 2.155033e-01 0.000000e+00
 0.000000e+00 0.000000e+00 0.000000e+00 6.725606e-01 3.274393e-01
 0.000000e+00 0.000000e+00 0.000000e+00 0.000000e+00 0.000000e+00
~t "T_d"
<TRANSP> 5
 0.000000e+00 1.000000e+00 0.000000e+00 0.000000e+00 0.000000e+00
 0.000000e+00 9.049898e-01 9.501023e-02 0.000000e+00 0.000000e+00
 0.000000e+00 0.000000e+00 8.998153e-01 1.001847e-01 0.000000e+00
 0.000000e+00 0.000000e+00 0.000000e+00 5.340693e-01 4.659307e-01
 0.000000e+00 0.000000e+00 0.000000e+00 0.000000e+00 0.000000e+00
~t "T_f"
<TRANSP> 5
 0.000000e+00 1.000000e+00 0.000000e+00 0.000000e+00 0.000000e+00
 0.000000e+00 9.334671e-01 6.653287e-02 0.000000e+00 0.000000e+00
 0.000000e+00 0.000000e+00 7.485982e-01 2.514018e-01 0.000000e+00
 0.000000e+00 0.000000e+00 0.000000e+00 8.057494e-01 1.942506e-01
 0.000000e+00 0.000000e+00 0.000000e+00 0.000000e+00 0.000000e+00
~t "T_g"
<TRANSP> 5
 0.000000e+00 1.000000e+00 0.000000e+00 0.000000e+00 0.000000e+00
 0.000000e+00 7.744462e-01 2.255538e-01 0.000000e+00 0.000000e+00
 0.000000e+00 0.000000e+00 5.768428e-01 4.231572e-01 0.000000e+00
 0.000000e+00 0.000000e+00 0.000000e+00 6.722916e-01 3.277084e-01
 0.000000e+00 0.000000e+00 0.000000e+00 0.000000e+00 0.000000e+00
~t "T_k"
<TRANSP> 5
 0.000000e+00 1.000000e+00 0.000000e+00 0.000000e+00 0.000000e+00
 0.000000e+00 8.899669e-01 1.100331e-01 0.000000e+00 0.000000e+00
 0.000000e+00 0.000000e+00 8.305131e-01 1.694869e-01 0.000000e+00
 0.000000e+00 0.000000e+00 0.000000e+00 6.884004e-01 3.115996e-01
 0.000000e+00 0.000000e+00 0.000000e+00 0.000000e+00 0.000000e+00
~t "T_l"
<TRANSP> 5
 0.000000e+00 1.000000e+00 0.000000e+00 0.000000e+00 0.000000e+00
 0.000000e+00 5.225930e-01 4.774070e-01 0.000000e+00 0.000000e+00
 0.000000e+00 0.000000e+00 1.987849e-02 9.801215e-01 0.000000e+00
 0.000000e+00 0.000000e+00 0.000000e+00 5.610654e-01 4.389346e-01
 0.000000e+00 0.000000e+00 0.000000e+00 0.000000e+00 0.000000e+00
~t "T_m"
<TRANSP> 5
 0.000000e+00 1.000000e+00 0.000000e+00 0.000000e+00 0.000000e+00
 0.000000e+00 8.875473e-01 1.124527e-01 0.000000e+00 0.000000e+00
 0.000000e+00 0.000000e+00 8.338201e-01 1.661799e-01 0.000000e+00
 0.000000e+00 0.000000e+00 0.000000e+00 9.554112e-01 4.458877e-02
 0.000000e+00 0.000000e+00 0.000000e+00 0.000000e+00 0.000000e+00
~t "T_n"
<TRANSP> 5
 0.000000e+00 1.000000e+00 0.000000e+00 0.000000e+00 0.000000e+00
 0.000000e+00 7.891216e-01 2.108784e-01 0.000000e+00 0.000000e+00
 0.000000e+00 0.000000e+00 8.154843e-01 1.845157e-01 0.000000e+00
 0.000000e+00 0.000000e+00 0.000000e+00 9.533588e-01 4.664122e-02
 0.000000e+00 0.000000e+00 0.000000e+00 0.000000e+00 0.000000e+00
~t "T_r"
<TRANSP> 5
 0.000000e+00 1.000000e+00 0.000000e+00 0.000000e+00 0.000000e+00
 0.000000e+00 5.001446e-01 4.998554e-01 0.000000e+00 0.000000e+00
 0.000000e+00 0.000000e+00 3.908882e-01 6.091118e-01 0.000000e+00
 0.000000e+00 0.000000e+00 0.000000e+00 3.834442e-01 6.165558e-01
 0.000000e+00 0.000000e+00 0.000000e+00 0.000000e+00 0.000000e+00
~t "T_s"
<TRANSP> 5
 0.000000e+00 1.000000e+00 0.000000e+00 0.000000e+00 0.000000e+00
 0.000000e+00 4.924307e-01 5.075694e-01 0.000000e+00 0.000000e+00
 0.000000e+00 0.000000e+00 7.636211e-01 2.363789e-01 0.000000e+00
 0.000000e+00 0.000000e+00 0.000000e+00 8.979208e-01 1.020792e-01
 0.000000e+00 0.000000e+00 0.000000e+00 0.000000e+00 0.000000e+00
~t "T_t"
<TRANSP> 5
 0.000000e+00 1.000000e+00 0.000000e+00 0.000000e+00 0.000000e+00
 0.000000e+00 4.819660e-01 5.180340e-01 0.000000e+00 0.000000e+00
 0.000000e+00 0.000000e+00 7.945076e-01 2.054924e-01 0.000000e+00
 0.000000e+00 0.000000e+00 0.000000e+00 9.002590e-01 9.974100e-02
 0.000000e+00 0.000000e+00 0.000000e+00 0.000000e+00 0.000000e+00
~t "T_w"
<TRANSP> 5
 0.000000e+00 1.000000e+00 0.000000e+00 0.000000e+00 0.000000e+00
 0.000000e+00 7.091296e-01 2.908704e-01 0.000000e+00 0.000000e+00
 0.000000e+00 0.000000e+00 7.021791e-01 2.978209e-01 0.000000e+00
 0.000000e+00 0.000000e+00 0.000000e+00 7.548965e-01 2.451035e-01
 0.000000e+00 0.000000e+00 0.000000e+00 0.000000e+00 0.000000e+00
~t "T_z"
<TRANSP> 5
 0.000000e+00 1.000000e+00 0.000000e+00 0.000000e+00 0.000000e+00
 0.000000e+00 9.517682e-01 4.823181e-02 0.000000e+00 0.000000e+00
 0.000000e+00 0.000000e+00 8.103461e-01 1.896539e-01 0.000000e+00
 0.000000e+00 0.000000e+00 0.000000e+00 9.039415e-01 9.605851e-02
 0.000000e+00 0.000000e+00 0.000000e+00 0.000000e+00 0.000000e+00
~t "T_ae"
<TRANSP> 5
 0.000000e+00 1.000000e+00 0.000000e+00 0.000000e+00 0.000000e+00
 0.000000e+00 7.267390e-01 2.732610e-01 0.000000e+00 0.000000e+00
 0.000000e+00 0.000000e+00 7.759393e-01 2.240607e-01 0.000000e+00
 0.000000e+00 0.000000e+00 0.000000e+00 8.740489e-01 1.259511e-01
 0.000000e+00 0.000000e+00 0.000000e+00 0.000000e+00 0.000000e+00
~t "T_ah"
<TRANSP> 5
 0.000000e+00 1.000000e+00 0.000000e+00 0.000000e+00 0.000000e+00
 0.000000e+00 7.926269e-01 2.073731e-01 0.000000e+00 0.000000e+00
 0.000000e+00 0.000000e+00 6.416139e-01 3.583861e-01 0.000000e+00
 0.000000e+00 0.000000e+00 0.000000e+00 6.714318e-01 3.285681e-01
 0.000000e+00 0.000000e+00 0.000000e+00 0.000000e+00 0.000000e+00
~t "T_ao"
<TRANSP> 5
 0.000000e+00 1.000000e+00 0.000000e+00 0.000000e+00 0.000000e+00
 0.000000e+00 8.851754e-09 1.000000e+00 0.000000e+00 0.000000e+00
 0.000000e+00 0.000000e+00 4.291117e-01 5.708883e-01 0.000000e+00
 0.000000e+00 0.000000e+00 0.000000e+00 3.231055e-01 6.768945e-01
 0.000000e+00 0.000000e+00 0.000000e+00 0.000000e+00 0.000000e+00
~t "T_aw"
<TRANSP> 5
 0.000000e+00 1.000000e+00 0.000000e+00 0.000000e+00 0.000000e+00
 0.000000e+00 8.627172e-01 1.372828e-01 0.000000e+00 0.000000e+00
 0.000000e+00 0.000000e+00 8.600442e-01 1.399558e-01 0.000000e+00
 0.000000e+00 0.000000e+00 0.000000e+00 7.624566e-01 2.375434e-01
 0.000000e+00 0.000000e+00 0.000000e+00 0.000000e+00 0.000000e+00
~t "T_ay"
<TRANSP> 5
 0.000000e+00 1.000000e+00 0.000000e+00 0.000000e+00 0.000000e+00
 0.000000e+00 5.708103e-01 4.291897e-01 0.000000e+00 0.000000e+00
 0.000000e+00 0.000000e+00 7.080183e-01 2.919817e-01 0.000000e+00
 0.000000e+00 0.000000e+00 0.000000e+00 7.031973e-01 2.968027e-01
 0.000000e+00 0.000000e+00 0.000000e+00 0.000000e+00 0.000000e+00
~t "T_eh"
<TRANSP> 5
 0.000000e+00 1.000000e+00 0.000000e+00 0.000000e+00 0.000000e+00
 0.000000e+00 8.786314e-01 1.213686e-01 0.000000e+00 0.000000e+00
 0.000000e+00 0.000000e+00 7.194704e-01 2.805296e-01 0.000000e+00
 0.000000e+00 0.000000e+00 0.000000e+00 7.212701e-01 2.787298e-01
 0.000000e+00 0.000000e+00 0.000000e+00 0.000000e+00 0.000000e+00
~t "T_er"
<TRANSP> 5
 0.000000e+00 1.000000e+00 0.000000e+00 0.000000e+00 0.000000e+00
 0.000000e+00 7.954830e-01 2.045170e-01 0.000000e+00 0.000000e+00
 0.000000e+00 0.000000e+00 9.015187e-01 9.848128e-02 0.000000e+00
 0.000000e+00 0.000000e+00 0.000000e+00 9.127347e-01 8.726535e-02
 0.000000e+00 0.000000e+00 0.000000e+00 0.000000e+00 0.000000e+00
~t "T_ey"
<TRANSP> 5
 0.000000e+00 1.000000e+00 0.000000e+00 0.000000e+00 0.000000e+00
 0.000000e+00 2.498001e-01 7.501999e-01 0.000000e+00 0.000000e+00
 0.000000e+00 0.000000e+00 7.806894e-01 2.193106e-01 0.000000e+00
 0.000000e+00 0.000000e+00 0.000000e+00 8.723823e-01 1.276177e-01
 0.000000e+00 0.000000e+00 0.000000e+00 0.000000e+00 0.000000e+00
~t "T_ih"
<TRANSP> 5
 0.000000e+00 1.000000e+00 0.000000e+00 0.000000e+00 0.000000e+00
 0.000000e+00 5.695847e-01 4.304153e-01 0.000000e+00 0.000000e+00
 0.000000e+00 0.000000e+00 7.242054e-01 2.757946e-01 0.000000e+00
 0.000000e+00 0.000000e+00 0.000000e+00 6.986446e-01 3.013554e-01
 0.000000e+00 0.000000e+00 0.000000e+00 0.000000e+00 0.000000e+00
~t "T_iy"
<TRANSP> 5
 0.000000e+00 1.000000e+00 0.000000e+00 0.000000e+00 0.000000e+00
 0.000000e+00 7.525890e-01 2.474110e-01 0.000000e+00 0.000000e+00
 0.000000e+00 0.000000e+00 8.607533e-01 1.392467e-01 0.000000e+00
 0.000000e+00 0.000000e+00 0.000000e+00 9.559279e-01 4.407210e-02
 0.000000e+00 0.000000e+00 0.000000e+00 0.000000e+00 0.000000e+00
~t "T_ng"
<TRANSP> 5
 0.000000e+00 1.000000e+00 0.000000e+00 0.000000e+00 0.000000e+00
 0.000000e+00 8.731904e-01 1.268096e-01 0.000000e+00 0.000000e+00
 0.000000e+00 0.000000e+00 7.940038e-01 2.059962e-01 0.000000e+00
 0.000000e+00 0.000000e+00 0.000000e+00 8.440727e-01 1.559273e-01
 0.000000e+00 0.000000e+00 0.000000e+00 0.000000e+00 0.000000e+00
~t "T_th"
<TRANSP> 5
 0.000000e+00 1.000000e+00 0.000000e+00 0.000000e+00 0.000000e+00
 0.000000e+00 9.158136e-01 8.418642e-02 0.000000e+00 0.000000e+00
 0.000000e+00 0.000000e+00 7.909418e-01 2.090582e-01 0.000000e+00
 0.000000e+00 0.000000e+00 0.000000e+00 7.364047e-01 2.635954e-01
 0.000000e+00 0.000000e+00 0.000000e+00 0.000000e+00 0.000000e+00
~t "T_uw"
<TRANSP> 5
 0.000000e+00 1.000000e+00 0.000000e+00 0.000000e+00 0.000000e+00
 0.000000e+00 7.817714e-01 2.182286e-01 0.000000e+00 0.000000e+00
 0.000000e+00 0.000000e+00 9.276141e-01 7.238585e-02 0.000000e+00
 0.000000e+00 0.000000e+00 0.000000e+00 5.387301e-01 4.612699e-01
 0.000000e+00 0.000000e+00 0.000000e+00 0.000000e+00 0.000000e+00
~s "ST_f_2_1"
<MEAN> 25
 -1.910916e+01 3.191017e+00 -1.354801e+00 5.237212e+00 1.587351e+00 5.800535e+00 5.664246e+00 4.721210e+00 5.424671e+00 8.148431e-01 5.472475e+00 3.775014e+00 -1.690062e-04 -2.075768e-03 1.134083e-02 9.161865e-03 3.152410e-02 -2.755175e-02 -8.590379e-02 -9.754254e-03 8.488332e-02 7.608376e-02 8.551469e-03 -1.868389e-02 -4.691576e-03
<VARIANCE> 25
 5.522125e+00 6.225803e+00 6.659578e+00 1.612496e+01 9.418635e+00 9.803108e+00 9.761253e+00 1.689408e+01 1.216820e+01 1.013352e+01 8.218025e+00 8.811419e+00 4.258760e-02 1.466295e-01 2.174052e-01 3.346399e-01 4.487782e-01 4.432403e-01 7.123048e-01 1.079732e+00 1.048692e+00 1.069319e+00 8.245088e-01 9.776446e-01 3.817413e-02
<GCONST> 5.994790e+01
~s "ST_f_3_1"
<MEAN> 25
 -1.392522e+01 6.648800e+00 -1.784976e+00 2.323127e+00 3.237805e+00 5.245483e+00 2.398179e+00 9.665672e-01 1.357812e+00 -1.443504e+00 1.421360e+00 2.533713e+00 1.795088e-02 1.897312e-02 3.647209e-02 -4.292165e-02 -5.580558e-02 3.513172e-02 1.643205e-01 -8.794047e-02 -2.577183e-01 -1.317156e-01 -1.301326e-01 -2.271127e-03 1.066920e-02
<VARIANCE> 25
 8.240540e+00 1.024526e+01 7.829097e+00 1.744446e+01 7.503095e+00 9.283813e+00 1.187070e+01 1.580124e+01 1.304906e+01 1.182945e+01 1.348665e+01 1.232862e+01 5.536855e-02 2.087743e-01 2.880504e-01 5.341236e-01 6.811085e-01 7.389421e-01 7.721576e-01 9.904704e-01 1.183428e+00 1.206817e+00 9.329559e-01 1.033713e+00 3.817413e-02
<GCONST> 6.469822e+01
~s "ST_f_4_1"
<MEAN> 25
 -1.445512e+01 4.144746e+00 1.106862e-02 -6.511210e-01 2.365970e+00 3.458735e+00 1.399534e+00 2.877135e+00 9.213304e-01 -9.979487e-01 2.810305e+00 3.328703e+00 2.493841e-01 2.420899e-02 1.255145e-03 -1.435105e-01 -1.379871e-01 -2.499641e-01 -7.391589e-02 -2.253460e-02 -1.951648e-01 -3.918761e-02 -9.525036e-02 -7.821286e-02 2.276650e-01
<VARIANCE> 25
 8.906403e+00 5.934217e+00 7.765100e+00 1.647026e+01 1.164027e+01 1.528883e+01 1.873000e+01 2.319739e+01 1.454368e+01 1.002396e+01 1.129196e+01 9.725864e+00 1.025977e+00 6.070507e-01 7.926602e-01 1.098124e+00 1.375040e+00 1.678385e+00 1.845901e+00 1.329469e+00 1.494497e+00 9.753593e-01 9.786012e-01 1.192142e+00 2.157434e+00
<GCONST> 7.812408e+01
~s "ST_s_2_1"
<MEAN> 25
 1.607998e+01 -1.064227e+01 1.051342e+01 -6.677148e-01 -6.602515e+00 -1.104431e+01 -4.104491e+00 5.052211e+00 -3.384459e+00 -1.693446e+00 3.054355e-03 7.636687e-01 1.892778e+00 -2.259008e+00 1.407273e+00 -1.651710e+00 -6.830953e-01 6.220443e-02 -2.180555e+00 1.444646e+00 -1.128989e+00 -3.115467e-01 8.895419e-01 -3.995164e-02 2.322710e+00
<VARIANCE> 25
 2.734119e+01 4.649830e+01 7.757435e+01 9.336970e+01 7.237905e+01 5.898528e+01 7.791422e+01 5.917627e+01 8.730540e+01 4.790207e+01 4.613697e+01 3.201480e+01 4.458848e+00 8.626353e+00 1.294842e+01 1.159289e+01 7.948484e+00 8.641375e+00 8.171103e+00 5.488469e+00 1.216134e+01 5.702034e+00 6.827487e+00 3.742381e+00 7.427182e+00
<GCONST> 1.205930e+02
~s "ST_s_3_1"
<MEAN> 25
 1.883533e+01 -1.661456e+01 8.498787e+00 -4.427060e+00 -6.395745e+00 -7.545576e+00 -7.276896e+00 4.948418e+00 4.526174e-01 -1.082278e+00 -1.060646e+00 -9.529068e-01 4.313408e-01 -6.864208e-01 -8.509062e-01 -1.061762e+00 2.594569e-01 7.264326e-01 3.474500e-01 -3.733412e-01 4.574256e-01 6.412528e-01 -3.042528e-01 -7.869759e-01 8.468843e-01
<VARIANCE> 25
 3.421854e+01 2.568243e+01 1.120122e+02 8.232428e+01 8.065398e+01 6.179696e+01 5.721493e+01 9.075410e+01 9.772058e+01 5.957518e+01 3.963581e+01 3.500199e+01 3.160281e+00 2.651832e+00 6.170336e+00 6.723366e+00 6.807003e+00 5.853727e+00 7.075699e+00 6.227645e+00 6.530876e+00 5.663704e+00 3.686281e+00 4.106514e+00 1.521644e+00
<GCONST> 1.148978e+02
~s "ST_s_4_1"
<MEAN> 25
 1.955721e+01 -1.361144e+01 4.023925e+00 -1.378477e+01 -1.649285e+00 -2.010286e+00 -5.309629e+00 -2.591701e-01 -1.523884e+00 5.413229e+00 -7.359963e-02 -3.351743e+00 3.952760e-03 6.130367e-01 -3.070863e-01 -4.251410e-01 6.412786e-01 3.140752e-01 -2.474688e-01 -3.618274e-01 -1.259103e-01 5.914510e-01 -2.255089e-01 1.525434e-01 -2.731561e-01
<VARIANCE> 25
 2.420056e+01 3.507118e+01 1.355528e+02 1.129394e+02 9.309101e+01 6.200118e+01 1.002564e+02 1.052015e+02 5.076509e+01 4.167745e+01 4.729519e+01 4.910601e+01 5.024325e-01 1.277475e+00 2.037206e+00 2.349143e+00 2.453043e+00 2.992735e+00 2.899279e+00 2.805553e+00 2.809513e+00 2.117648e+00 2.350794e+00 2.477441e+00 4.365298e-01
<GCONST> 1.035870e+02
~s "ST_l_2_1"
<MEAN> 25
 8.244478e-01 7.265862e+00 -1.393818e+00 -3.382378e-01 -4.755878e-01 -1.519224e-01 -6.632095e-01 -1.728305e+00 1.519211e+00 7.888306e-02 9.407499e-01 1.558193e+00 -1.048889e+00 -1.766711e+00 3.884807e-01 6.154612e-01 -3.100754e-01 -8.472241e-01 4.105860e-01 8.485646e-01 3.864040e-01 -1.824318e-01 -4.421723e-02 2.319356e-01 3.114078e-01
<VARIANCE> 25
 1.278620e+02 7.721448e+01 4.587509e+01 5.786160e+01 3.850723e+01 5.302882e+01 3.190228e+01 3.568924e+01 2.815593e+01 2.628874e+01 2.749593e+01 1.867264e+01 8.349339e+00 4.480756e+00 4.288707e+00 3.018840e+00 4.248361e+00 5.574346e+00 3.439838e+00 3.394946e+00 2.207183e+00 1.916045e+00 1.949837e+00 1.779503e+00 1.067088e+01
<GCONST> 1.073945e+02
~s "ST_l_3_1"
<MEAN> 25
 2.712193e+00 2.122071e+00 -2.542434e-01 3.594748e-01 -1.718284e-01 -6.455622e-01 -9.996975e-01 -1.754524e+00 1.411669e+00 -4.077284e-01 3.134289e-01 9.920796e-01 1.096568e+00 -3.782669e+00 9.015450e-01 4.268562e-01 -7.626975e-01 -1.957163e+00 2.494411e-01 8.553855e-01 -1.006156e-02 -4.688053e-01 -3.748720e-01 1.426826e-01 3.617778e+00
<VARIANCE> 25
 1.255534e+02 1.443138e+02 5.283534e+01 8.172513e+01 5.406987e+01 5.394783e+01 3.699635e+01 4.510165e+01 3.546886e+01 2.594874e+01 2.633249e+01 2.167579e+01 1.235788e+01 8.198541e+00 6.902663e+00 5.860631e+00 8.510622e+00 7.168875e+00 4.669849e+00 4.708334e+00 3.442520e+00 3.510442e+00 3.678881e+00 2.241286e+00 1.718696e+01
<GCONST> 1.156577e+02
~s "ST_l_4_1"
<MEAN> 25
 6.925280e+00 -7.100498e+00 1.552784e+00 1.873842e+00 -9.578588e-02 -6.067729e+00 -1.662785e+00 9.590350e-01 1.964301e+00 -1.694086e+00 -1.439505e+00 1.336027e+00 2.231650e+00 -2.108695e+00 1.279447e+00 3.756624e-01 -1.457428e+00 -1.374417e+00 -1.494765e-01 2.897029e-01 -7.455485e-01 -4.304973e-01 1.274937e-01 -2.643633e-01 3.091677e+00
<VARIANCE> 25
 8.505566e+01 1.037357e+02 8.100225e+01 9.669641e+01 6.049598e+01 9.281422e+01 6.490513e+01 5.355975e+01 4.797520e+01 3.503351e+01 3.884485e+01 3.058800e+01 1.014893e+01 1.194095e+01 8.025915e+00 6.143930e+00 8.795949e+00 6.149647e+00 6.967080e+00 4.789357e+00 5.952381e+00 4.852435e+00 5.264962e+00 3.071172e+00 1.242209e+01
<GCONST> 1.201518e+02
~s "ST_b_2_1"
<MEAN> 25
 2.026552e+01 -5.024863e+00 3.502651e+00 -8.486802e+00 -3.463462e+00 7.160731e+00 -9.515979e+00 -1.612127e+01 -4.184877e+00 6.790341e+00 -1.403092e+00 -1.818938e+00 2.139660e-01 4.485387e-01 -1.750931e-01 -1.386398e+00 -1.806856e-01 4.133475e-01 2.728616e-02 -9.515810e-02 -5.333835e-01 4.077612e-01 2.589825e-01 -1.019729e-01 1.053416e-01
<VARIANCE> 25
 9.735565e+00 4.490160e+01 5.574778e+01 1.972104e+02 6.795821e+01 7.081616e+01 9.522834e+01 8.113730e+01 5.815028e+01 2.841568e+01 6.841133e+01 2.452280e+01 5.465784e-01 4.539267e+00 3.855396e+00 8.555278e+00 6.804741e+00 5.770308e+00 6.690437e+00 6.945307e+00 5.020188e+00 2.705283e+00 3.887132e+00 2.387645e+00 2.260333e+00
<GCONST> 1.111648e+02
~s "ST_b_3_1"
<MEAN> 25
 2.199512e+01 9.893755e+00 -8.602205e+00 -1.357056e+01 -8.380605e-02 6.119160e+00 -4.049594e+00 -1.371959e+01 -1.025214e+01 3.171161e+00 3.218879e+00 1.229012e+00 -5.760716e-01 2.368767e+00 -1.300914e+00 9.280086e-01 8.419477e-01 -4.466920e-01 7.990818e-01 1.645862e+00 4.684399e-02 -1.640957e+00 8.204995e-01 9.503621e-01 -2.073906e+00
<VARIANCE> 25
 6.645294e+00 2.007768e+01 1.838177e+01 8.930623e+01 2.975702e+01 1.879382e+01 3.081880e+01 7.241582e+01 3.767912e+01 2.722519e+01 2.842981e+01 1.116828e+01 1.272913e+00 1.419343e+00 4.968312e+00 6.884951e+00 5.848549e+00 3.979787e+00 4.590518e+00 4.328815e+00 2.987571e+00 2.265414e+00 4.756992e+00 1.926567e+00 6.298347e-01
<GCONST> 9.890069e+01
~s "ST_b_4_1"
<MEAN> 25
 1.702351e+01 1.566560e+01 -6.195633e+00 -1.075170e+01 -4.492615e+00 4.083324e+00 6.981869e-01 -7.092220e+00 -9.288891e+00 -4.373993e+00 1.755180e+00 1.644624e+00 -2.441885e+00 3.901044e-01 1.722222e+00 1.650647e+00 -7.439702e-01 -7.974503e-01 6.183580e-01 1.305199e+00 1.470738e+00 -6.363274e-01 -3.860241e-01 -1.665774e-01 -1.891636e+00
<VARIANCE> 25
 1.660052e+01 9.409576e+00 1.895959e+01 5.681329e+01 7.526330e+01 6.546973e+01 2.231633e+01 5.817038e+01 2.030008e+01 3.574485e+01 3.408207e+01 3.348645e+01 2.051521e+00 1.389017e+00 1.550468e+00 2.309691e+00 2.433083e+00 4.212338e+00 2.143507e+00 5.301654e+00 2.351703e+00 1.670185e+00 1.863665e+00 1.454113e+00 8.971303e-01
<GCONST> 9.661534e+01
~s "ST_aw_2_1"
<MEAN> 25
 2.232867e+01 -1.177973e+01 -8.419341e+00 -1.041149e+01 5.620901e+00 7.364480e+00 -3.487848e+00 -1.128780e-01 2.015321e+00 -5.790235e-01 4.165455e-01 -3.088037e+00 1.071728e+00 -2.036424e+00 5.710200e-01 -1.489898e+00 3.631922e-01 7.684846e-01 -1.233570e+00 5.699342e-01 6.460308e-02 -5.961109e-01 -5.350131e-01 -1.747806e-01 2.166247e+00
<VARIANCE> 25
 3.513843e+01 8.977739e+01 8.466959e+01 1.212151e+02 5.302874e+01 4.567221e+01 6.894804e+01 1.949910e+01 2.093027e+01 6.219659e+01 2.035570e+01 4.008645e+01 3.609698e+00 1.242305e+01 5.976383e+00 2.995284e+00 9.045793e+00 4.694256e+00 6.128464e+00 5.312343e+00 3.596090e+00 5.739020e+00 3.546173e+00 5.102195e+00 8.741507e+00
<GCONST> 1.141222e+02
~s "ST_aw_3_1"
<MEAN> 25
 2.520079e+01 -1.430149e+01 -1.374656e+00 -1.229620e+01 -2.078429e+00 9.289976e+00 -6.571612e+00 -4.594554e-01 -1.644888e+00 2.612525e+00 5.193620e+00 -7.292203e+00 -3.307073e-01 2.117026e+00 -1.227635e+00 1.304315e+00 3.956921e-01 -7.340828e-01 7.163628e-01 -3.985637e-01 3.125170e-01 4.972460e-01 2.117660e-01 6.093762e-02 -1.761222e+00
<VARIANCE> 25
 1.108563e+01 1.264105e+02 9.787911e+01 1.039762e+02 3.059301e+01 5.429160e+01 6.860629e+01 6.947021e+01 2.370999e+01 2.161984e+01 3.139043e+01 1.908045e+01 1.179312e+00 3.725880e+00 8.928576e+00 5.364575e+00 5.279901e+00 1.179594e+00 1.039163e+01 3.623744e+00 2.807665e+00 2.228091e+00 3.189238e+00 2.777759e+00 4.151308e+00
<GCONST> 1.071843e+02
~s "ST_aw_4_1"
<MEAN> 25
 1.202719e+01 4.373288e+00 -1.276949e+01 -5.909758e+00 1.710404e+00 4.282119e+00 2.918921e-01 -2.933149e+00 -3.431904e-01 3.066900e+00 3.182307e+00 -8.353721e-01 -3.924765e+00 2.960472e-01 1.356548e+00 1.167970e-01 -1.657614e+00 -2.668536e-01 4.303452e-01 5.531985e-01 -1.450780e-01 -2.973346e-01 9.957173e-01 1.340702e+00 -2.929482e+00
<VARIANCE> 25
 4.404240e+01 5.185740e+00 4.973929e+01 5.412181e+01 4.156458e+01 1.760141e+01 3.014564e+01 1.066182e+01 2.320352e+01 2.428160e+01 3.524012e+01 2.406508e+01 2.129819e+00 4.353516e+00 2.711896e+00 3.315025e+00 3.422156e+00 2.613721e+00 2.654128e+00 1.134797e+00 2.015610e+00 1.562081e+00 2.066527e+00 1.741143e+00 1.908359e+00
<GCONST> 9.551128e+01
~s "ST_r_2_1"
<MEAN> 25
 3.059547e+00 5.826251e+00 -1.685532e+00 -5.614554e-01 1.409626e-02 -8.661486e-01 1.320890e+00 -1.939365e+00 -7.746737e-03 1.099324e+00 5.994498e-01 5.045225e-01 -1.366571e+00 6.879998e-01 3.991293e-01 1.720010e-01 -4.188474e-01 -6.717768e-02 4.382118e-01 6.640312e-02 2.731641e-02 -5.442194e-01 1.058040e-01 2.067508e-01 -1.259555e+00
<VARIANCE> 25
 1.900951e+02 1.072285e+02 5.403505e+01 5.428849e+01 6.156455e+01 5.036098e+01 4.887551e+01 4.760325e+01 4.021188e+01 3.706862e+01 2.269340e+01 2.371470e+01 6.514912e+00 5.798920e+00 5.586228e+00 3.997446e+00 5.599913e+00 3.183933e+00 6.169732e+00 4.716365e+00 4.094354e+00 3.509550e+00 2.675401e+00 2.234857e+00 3.627117e+00
<GCONST> 1.119710e+02
~s "ST_r_3_1"
<MEAN> 25
 1.696655e+00 6.434773e+00 6.591432e-02 1.226950e+00 -2.759404e+00 -9.973496e-01 -1.443629e-02 -2.349264e+00 -7.765083e-02 -2.272561e+00 -9.408271e-01 5.515217e-01 -2.873474e-01 -1.141370e-01 4.213389e-01 1.960599e-01 3.108301e-01 3.095382e-02 5.059172e-03 6.592450e-02 8.303119e-02 -2.520511e-01 -2.292529e-01 1.281601e-01 -3.665270e-02
<VARIANCE> 25
 1.602761e+02 1.341282e+02 5.816491e+01 4.728007e+01 4.377433e+01 3.473964e+01 3.986633e+01 3.600497e+01 3.167300e+01 2.610570e+01 2.086029e+01 1.647117e+01 3.122330e+00 4.143115e+00 3.068128e+00 2.136708e+00 2.238027e+00 1.605496e+00 2.103484e+00 2.807114e+00 1.916508e+00 1.705796e+00 1.341391e+00 1.488733e+00 2.120576e+00
<GCONST> 1.011182e+02
~s "ST_r_4_1"
<MEAN> 25
 4.615971e+00 2.436560e+00 4.556458e-01 1.474217e+00 -2.654654e+00 -2.296803e+00 7.364152e-01 -2.885800e+00 -2.750355e-01 -1.761942e-01 -1.475271e+00 1.770462e-01 1.322788e+00 -1.495215e+00 6.163707e-01 1.001094e-01 1.820026e-01 -6.595517e-01 -1.019906e-01 -3.604715e-01 4.611283e-01 3.221498e-01 -1.124345e-01 2.641179e-01 2.506258e+00
<VARIANCE> 25
 1.666672e+02 1.699333e+02 5.776192e+01 5.539343e+01 6.931759e+01 6.601476e+01 5.011102e+01 5.406668e+01 3.515067e+01 3.688588e+01 2.281597e+01 2.011301e+01 7.985510e+00 1.273879e+01 9.147296e+00 5.798115e+00 6.125197e+00 6.843901e+00 5.275459e+00 5.594528e+00 5.226794e+00 3.455053e+00 2.908031e+00 2.092608e+00 1.316547e+01
<GCONST> 1.168895e+02
~s "ST_k_2_1"
<MEAN> 25
 1.136433e+01 -2.021453e-01 -3.516082e+00 7.371290e+00 -1.378222e+00 -1.007312e+01 -6.968533e+00 8.024828e-01 6.540701e+00 -1.440289e-01 -3.922266e+00 1.212578e+00 -2.564570e+00 2.007341e+00 -7.715280e-01 -8.402913e-01 7.727048e-01 -6.095514e-02 -3.150320e-01 9.060193e-01 1.065306e-01 -1.984297e-01 1.092471e+00 1.796107e-01 -2.847300e+00
<VARIANCE> 25
 1.032573e+02 6.309092e+01 3.483210e+01 5.072126e+01 3.715054e+01 4.819004e+01 3.639344e+01 4.690019e+01 3.612056e+01 2.625652e+01 3.041352e+01 4.205740e+01 6.360290e+00 8.662338e+00 7.323822e+00 5.615001e+00 7.131199e+00 7.059102e+00 4.781406e+00 5.547190e+00 5.798965e+00 3.467530e+00 3.629327e+00 2.567766e+00 6.751935e+00
<GCONST> 1.132123e+02
~s "ST_k_2_2"
<MEAN> 25
 -3.941788e+00 2.078233e+00 1.930940e+00 -9.834124e+00 1.272101e+01 -7.488599e+00 -3.623167e+00 2.139757e+00 2.256659e+00 1.293180e+00 1.930147e-01 9.293686e-01 -2.489634e+00 6.174189e-01 -1.916283e-02 5.366737e-01 9.217243e-01 -2.438152e-01 -7.198156e-02 2.321139e-01 7.630384e-01 -7.310438e-01 5.033385e-01 2.716064e-01 -6.628727e-01
<VARIANCE> 25
 1.917262e+02 5.506394e+01 5.361233e+01 5.651995e+01 6.937344e+01 6.982481e+01 7.622308e+01 4.127584e+01 3.697594e+01 4.170222e+01 3.475817e+01 3.047753e+01 1.090965e+01 7.821768e+00 6.826810e+00 5.557714e+00 6.323854e+00 5.813304e+00 7.384586e+00 5.423412e+00 3.785052e+00 4.585143e+00 3.612587e+00 2.884391e+00 2.062385e+00
<GCONST> 1.153722e+02
~s "ST_k_3_1"
<MEAN> 25
 5.498216e+00 -8.033267e+00 -5.888066e+00 -2.214544e+00 1.181385e+01 -8.575201e+00 -7.618683e+00 4.667847e+00 3.712193e+00 3.009790e+00 -1.458037e+00 9.884368e-01 2.261620e+00 -1.959746e+00 -3.332292e-01 -2.237866e+00 1.866716e+00 2.464136e-01 1.645814e-01 -3.797495e-01 -9.046373e-01 1.472981e+00 6.439541e-03 -1.475791e+00 4.044843e+00
<VARIANCE> 25
 6.930028e+01 8.966224e+01 7.064428e+01 8.221375e+01 1.429762e+02 8.324522e+01 1.087523e+02 8.788486e+01 4.346799e+01 7.440414e+01 5.347028e+01 4.508234e+01 9.804698e+00 1.104462e+01 1.072303e+01 1.325135e+01 2.915439e+01 8.662287e+00 1.239881e+01 1.096249e+01 6.319459e+00 6.309176e+00 5.908659e+00 5.355615e+00 8.288349e+00
<GCONST> 1.271071e+02
~s "ST_k_3_2"
<MEAN> 25
 -3.116489e+00 -1.470279e+00 -4.067477e+00 -8.584792e+00 1.231084e+01 1.555590e+00 -7.678406e+00 1.204569e+00 1.376764e+00 4.348426e-01 3.326372e+00 2.784487e+00 2.895818e+00 8.566508e-02 -2.411108e+00 -5.952292e-01 -1.373919e+00 1.791592e+00 7.935932e-01 -1.710639e-01 -1.791492e+00 2.329065e-01 8.726028e-02 -2.012103e-01 -1.839405e+00
<VARIANCE> 25
 6.521779e+01 3.694874e+01 7.251540e+01 7.420897e+01 8.236137e+01 7.287963e+01 5.756992e+01 4.160017e+01 6.747730e+01 3.076127e+01 2.838275e+01 2.969526e+01 7.984934e+00 6.312207e+00 5.234488e+00 1.088475e+01 7.064716e+00 7.532982e+00 7.724162e+00 5.859563e+00 5.507316e+00 4.553617e+00 4.006378e+00 3.821266e+00 2.110541e+01
<GCONST> 1.179302e+02
~s "ST_k_4_1"
<MEAN> 25
 1.732160e+01 -5.120850e+00 -8.185017e+00 -1.677254e+01 7.037472e+00 2.379521e+00 -5.502944e+00 4.346024e-01 -5.032536e+00 5.702572e+00 3.623818e-01 -1.596519e+00 3.244183e+00 -2.154403e-01 7.775903e-01 -2.021201e+00 -9.391943e-01 9.668605e-01 -1.757079e-01 -8.115363e-01 -1.577681e+00 3.755487e-01 5.786362e-01 -2.820809e-01 2.430031e+00
<VARIANCE> 25
 2.647885e+01 6.878124e+01 1.125008e+02 6.444949e+01 5.442084e+01 8.638585e+01 5.393774e+01 5.387083e+01 5.587585e+01 5.793497e+01 5.195055e+01 2.500394e+01 5.604608e+00 3.930427e+00 7.992524e+00 7.288602e+00 5.849621e+00 6.884591e+00 6.239994e+00 6.610166e+00 5.633280e+00 4.426431e+00 5.126012e+00 3.331310e+00 5.318609e+00
<GCONST> 1.163224e+02
~s "ST_uw_2_1"
<MEAN> 25
 1.771857e+00 8.706587e+00 -2.622009e+00 -2.381121e-01 -1.306294e+00 1.903435e+00 7.038428e-02 -4.528637e+00 -5.441418e+00 -3.875935e+00 1.769670e+00 1.820727e+00 -2.268127e+00 -8.585535e-01 5.935940e-01 1.028592e+00 1.592349e-02 -3.958333e-01 4.170777e-01 8.713301e-01 2.341962e-01 -3.522929e-01 -4.755505e-01 -1.758971e-01 -1.383909e+00
<VARIANCE> 25
 6.139623e+01 2.480334e+01 2.623495e+01 3.704988e+01 2.667176e+01 2.634109e+01 2.011674e+01 2.688844e+01 2.021989e+01 2.208875e+01 2.159735e+01 2.557377e+01 2.231066e+00 1.567401e+00 2.517419e+00 2.633764e+00 2.660437e+00 2.611826e+00 1.873123e+00 1.972902e+00 2.106137e+00 1.490958e+00 1.761498e+00 1.643882e+00 1.107215e+00
<GCONST> 9.411703e+01
~s "ST_n_2_1"
<MEAN> 25
 2.278333e-01 1.096711e+01 4.722616e+00 7.346653e+00 -1.073161e+00 -1.144824e+00 -1.391192e+00 -3.132439e+00 -1.754556e+00 -4.555760e+00 -4.232203e+00 -2.594083e+00 -1.716062e+00 -1.417310e+00 -6.330476e-01 2.543587e-01 4.562908e-01 1.749199e-01 7.625474e-02 6.363148e-02 1.642377e-01 2.581130e-01 1.979891e-01 -1.046479e-01 -8.877630e-01
<VARIANCE> 25
 5.331146e+01 3.559454e+01 3.988208e+01 1.851717e+01 1.492336e+01 2.381898e+01 1.932235e+01 1.811237e+01 2.630399e+01 2.334795e+01 1.445415e+01 1.440845e+01 2.686489e+00 2.726522e+00 2.681628e+00 2.463849e+00 1.283410e+00 2.013855e+00 1.748518e+00 1.589820e+00 1.550232e+00 2.177309e+00 1.053138e+00 9.734000e-01 7.143335e-01
<GCONST> 9.034648e+01
~s "ST_uw_3_1"
<MEAN> 25
 -5.616652e+00 3.260620e+00 7.749758e-01 5.430022e+00 -1.033043e+00 -1.956827e-01 5.026985e-01 -1.182957e+00 -2.375201e+00 -3.273159e+00 -1.593351e+00 -1.456814e+00 -1.098319e-01 -3.395806e-02 8.715555e-02 1.202937e-01 6.211200e-02 4.210805e-02 7.435360e-02 6.894591e-02 8.655296e-02 1.596449e-02 -1.634475e-02 -7.423380e-03 -5.628823e-02
<VARIANCE> 25
 3.856028e+00 6.325015e+00 1.171916e+01 1.261392e+01 1.098809e+01 1.110879e+01 1.119275e+01 1.197813e+01 1.298639e+01 1.473554e+01 1.305749e+01 1.218870e+01 1.555734e-01 2.865148e-01 5.017029e-01 5.712687e-01 8.144722e-01 9.649296e-01 1.263021e+00 1.187461e+00 1.116901e+00 1.222827e+00 1.086619e+00 9.489060e-01 4.324789e-02
<GCONST> 6.716972e+01
~s "ST_n_3_1"
<MEAN> 25
 -7.573686e+00 6.027786e+00 9.720715e-01 7.538573e+00 2.506832e+00 2.465833e+00 -6.777014e-01 -1.961297e+00 -1.667358e+00 -4.188522e+00 -7.762952e-01 -1.347633e+00 -4.778577e-01 -3.373626e-01 -2.452086e-01 -1.431078e-01 -1.033009e-01 1.607404e-02 1.005879e-01 1.689742e-01 1.852039e-01 2.562135e-01 2.305559e-01 1.675445e-01 -2.682648e-01
<VARIANCE> 25
 1.226484e+01 2.183720e+01 2.823407e+01 1.978441e+01 1.094740e+01 1.198850e+01 1.259028e+01 1.522617e+01 2.050067e+01 1.338569e+01 1.881135e+01 1.622147e+01 2.663300e-01 6.291766e-01 1.029078e+00 1.002903e+00 6.975877e-01 1.080475e+00 1.159847e+00 1.527889e+00 1.163990e+00 1.455310e+00 1.814773e+00 2.046100e+00 9.167320e-02
<GCONST> 7.731522e+01
~s "ST_uw_4_1"
<MEAN> 25
 -7.666595e+00 5.870303e+00 -1.430331e+00 3.130397e+00 -2.147648e-01 1.103158e+00 2.112830e+00 1.389392e+00 -2.078369e-01 -3.590157e+00 -2.638018e-01 1.641961e+00 -2.559953e-01 -4.278588e-02 1.439313e-01 1.656877e-01 2.106949e-01 -4.731361e-01 -7.346287e-03 4.498048e-01 7.432259e-01 7.893243e-01 -9.552357e-02 -2.990494e-02 9.856648e-03
<VARIANCE> 25
 1.302348e+01 1.710604e+01 3.297722e+01 4.933300e+01 1.804391e+01 4.164125e+01 1.717688e+01 2.543336e+01 1.155159e+01 1.966993e+01 1.454735e+01 1.737666e+01 1.374666e+00 1.341696e+00 1.817212e+00 2.101614e+00 1.706169e+00 2.433393e+00 1.807075e+00 2.199214e+00 1.826709e+00 1.769163e+00 1.800077e+00 1.990606e+00 9.598575e-01
<GCONST> 8.957132e+01
~s "ST_n_4_1"
<MEAN> 25
 -9.532184e+00 2.197466e+00 5.471604e-01 1.745363e+00 -1.209303e-02 1.858880e+00 1.898499e-01 2.055857e-01 -6.139483e-01 -1.109649e+00 -8.228068e-01 1.097840e-01 -8.501586e-03 4.107852e-02 -6.010318e-04 -6.641709e-02 1.584276e-03 3.664068e-02 -1.773898e-02 4.463318e-02 4.944550e-02 -9.087423e-03 2.242959e-02 7.657441e-02 -1.573937e-02
<VARIANCE> 25
 3.699371e+00 6.241859e+00 7.120912e+00 1.163772e+01 6.917027e+00 1.309041e+01 1.442075e+01 1.227558e+01 1.608301e+01 1.395987e+01 1.481151e+01 1.400247e+01 1.537952e-01 3.036827e-01 4.361345e-01 6.375112e-01 7.205608e-01 9.554069e-01 1.171558e+00 1.328335e+00 1.601622e+00 1.461047e+00 1.571460e+00 1.313639e+00 4.327211e-02
<GCONST> 6.809415e+01
~s "ST_n_4_2"
<MEAN> 25
 -6.348580e+00 8.334658e-01 -4.675176e+00 1.799203e+00 1.619121e+00 1.925958e+00 1.039773e+00 1.349748e+00 1.218725e+00 -9.676725e-01 -1.733914e-01 2.528661e-01 -3.664081e-02 -1.704569e-02 1.071748e-02 3.221374e-02 5.603836e-02 3.859293e-03 2.333500e-02 3.092934e-02 4.054174e-03 -4.166415e-02 -3.231666e-03 3.520373e-03 -1.586288e-02
<VARIANCE> 25
 2.119450e+00 3.463305e+00 8.367533e+00 8.551086e+00 1.003209e+01 1.197789e+01 1.107658e+01 1.063286e+01 1.397984e+01 1.348390e+01 1.145134e+01 1.208553e+01 1.033842e-01 2.572320e-01 4.428492e-01 5.476096e-01 6.066858e-01 9.694539e-01 1.058725e+00 1.180968e+00 1.188644e+00 1.691571e+00 9.980639e-01 1.192059e+00 3.817413e-02
<GCONST> 6.419305e+01
~s "ST_d_2_1"
<MEAN> 25
 -1.598708e+01 1.769957e+00 -5.908781e-01 7.000150e+00 1.031400e+00 3.459299e+00 4.457455e+00 3.561242e+00 4.707434e+00 1.354722e+00 4.520278e+00 3.113416e+00 -6.442536e-02 1.713998e-02 4.832533e-02 4.728813e-02 6.526882e-02 3.746512e-02 -4.539060e-02 -3.391669e-02 2.131760e-02 3.042200e-02 1.344791e-02 -5.183488e-02 -4.391539e-02
<VARIANCE> 25
 1.141112e+01 5.537689e+00 5.323467e+00 8.927345e+00 7.407427e+00 8.535159e+00 1.030591e+01 1.373386e+01 1.104733e+01 1.055798e+01 1.290117e+01 1.142655e+01 8.731737e-02 1.662853e-01 2.849007e-01 4.312076e-01 5.257994e-01 5.638252e-01 7.650560e-01 1.247038e+00 1.288789e+00 1.033238e+00 8.219759e-01 9.339836e-01 5.181594e-02
<GCONST> 6.227600e+01
~s "ST_d_3_1"
<MEAN> 25
 -1.304588e+01 5.588693e+00 -1.498452e+00 2.499104e+00 1.565522e+00 2.353817e+00 7.846990e-01 1.960392e+00 1.134179e+00 -2.037823e+00 6.857671e-01 2.013666e+00 -1.998097e-03 7.462994e-03 1.216049e-02 5.651871e-03 1.673085e-04 8.963249e-03 -8.624385e-04 -3.477782e-02 -6.206667e-02 -3.475104e-02 3.989910e-02 5.410148e-04 -9.300400e-03
<VARIANCE> 25
 4.082626e+00 4.484087e+00 1.205500e+01 1.868556e+01 1.006382e+01 1.099532e+01 1.538354e+01 1.514384e+01 1.182511e+01 1.170146e+01 1.099894e+01 1.094928e+01 1.037051e-01 2.677353e-01 4.116288e-01 6.564066e-01 8.032670e-01 8.853893e-01 1.019525e+00 9.222869e-01 1.192046e+00 1.082329e+00 1.201461e+00 1.183624e+00 3.852351e-02
<GCONST> 6.620525e+01
~s "ST_d_4_1"
<MEAN> 25
 -1.064788e+01 4.424682e+00 7.475879e-01 3.497997e+00 1.142877e+00 1.872442e+00 5.796794e-01 6.877944e-01 1.042746e+00 -1.467816e+00 -1.000638e+00 2.783862e-01 1.548259e-01 3.208197e-02 7.675806e-02 1.247009e-01 1.923398e-02 6.757519e-03 4.174795e-02 -2.032895e-01 -1.316579e-01 6.161618e-02 -1.262790e-01 -1.978003e-01 1.248044e-01
<VARIANCE> 25
 1.613881e+01 6.792488e+00 1.641178e+01 1.691128e+01 1.136174e+01 1.089284e+01 1.896508e+01 1.790365e+01 2.195101e+01 1.183153e+01 2.419781e+01 1.894870e+01 1.271154e+00 5.186862e-01 6.533206e-01 9.168038e-01 1.237304e+00 1.108623e+00 1.283267e+00 1.928672e+00 2.477085e+00 1.206203e+00 1.415956e+00 1.670168e+00 1.295788e+00
<GCONST> 8.111111e+01
~s "ST_th_2_1"
<MEAN> 25
 1.522746e+01 -1.129834e+01 2.096639e+01 -7.330955e-01 -1.714098e+01 -3.920557e+00 -3.736731e+00 -1.007761e+00 -8.875130e+00 -4.218451e+00 2.096590e+00 1.797996e+00 -4.668513e-02 1.076324e+00 9.336425e-01 2.287562e-01 -1.687610e+00 4.195732e-01 9.760466e-01 -8.106495e-01 -1.615598e+00 -6.916004e-02 4.081582e-01 -9.720325e-02 -8.569684e-01
<VARIANCE> 25
 1.650732e+01 3.464131e+01 6.802209e+01 7.290432e+01 7.207263e+01 4.604253e+01 8.571221e+01 3.874350e+01 1.089945e+02 3.949894e+01 5.279751e+01 3.681116e+01 1.718312e+00 4.150178e+00 4.417392e+00 5.537587e+00 4.632160e+00 7.034523e+00 6.833888e+00 3.958584e+00 5.610276e+00 3.731977e+00 5.395055e+00 5.013800e+00 1.838912e+00
<GCONST> 1.118514e+02
~s "ST_th_3_1"
<MEAN> 25
 1.364402e+01 9.625576e+00 1.906643e+01 2.263318e+00 -2.643384e+01 -7.061935e+00 9.291524e+00 -8.197705e+00 -1.364396e+01 1.104998e+00 5.070733e-01 -1.206038e+00 -1.092025e+00 3.762094e+00 -1.754963e+00 2.772394e-01 2.402597e+00 -6.579995e-01 -1.495223e+00 4.698772e-01 2.523158e+00 8.953516e-01 -3.193735e-01 -3.227287e-01 -2.857410e+00
<VARIANCE> 25
 1.113179e+01 5.464106e+01 3.684366e+01 1.256871e+02 3.412933e+01 6.563313e+01 1.111030e+02 7.164111e+01 5.143343e+01 5.903482e+01 3.017698e+01 2.171451e+01 8.527908e-01 1.576873e+00 5.590047e+00 6.502112e+00 9.042789e+00 4.008087e+00 1.079271e+01 4.819791e+00 5.041981e+00 5.294791e+00 4.145795e+00 2.148657e+00 4.882879e-01
<GCONST> 1.081836e+02
~s "ST_th_4_1"
<MEAN> 25
 4.839769e+00 1.417686e+01 9.924122e+00 5.132345e-01 -1.410911e+01 -3.487124e+00 2.020642e-01 -6.919706e+00 -4.673843e+00 4.092907e-01 -1.442237e+00 -2.035763e+00 -2.215362e+00 -1.300997e+00 -2.168123e+00 -1.244782e-02 1.757685e+00 9.292532e-01 8.481918e-02 3.416673e-01 3.167352e-01 -7.298157e-01 -9.356599e-02 1.927000e-01 -1.583875e+00
<VARIANCE> 25
 3.278304e+01 4.598422e+01 4.669680e+01 1.480719e+01 1.609784e+01 2.397465e+01 2.387520e+01 1.630287e+01 1.277305e+01 1.580908e+01 1.952804e+01 8.882351e+00 1.679791e+00 1.890073e+00 3.047441e+00 3.198506e+00 5.574919e+00 3.160069e+00 6.847630e+00 1.257660e+00 3.500237e+00 2.399251e+00 2.529875e+00 8.285210e-01 1.098825e+00
<GCONST> 9.360423e+01
~s "ST_ay_2_1"
<MEAN> 25
 6.747163e+00 4.535512e-01 -5.280282e+00 -4.897321e+00 1.032464e+01 -5.649636e+00 -3.744192e+00 -3.893079e+00 5.869907e+00 6.438194e-01 -1.165111e+00 1.119632e+00 -1.411768e+00 1.108682e-01 -3.446156e-01 1.219927e+00 7.959989e-01 -1.357429e+00 1.778527e+00 3.045464e-01 1.490711e+00 -1.082440e+00 3.705024e-01 8.209338e-01 4.962388e-02
<VARIANCE> 25
 9.831047e+01 6.882732e+01 8.008108e+01 8.818517e+01 6.935090e+01 1.098279e+02 1.221180e+02 6.004395e+01 5.307778e+01 6.292160e+01 3.161233e+01 4.153428e+01 1.317112e+01 1.286589e+01 7.297776e+00 1.319450e+01 1.118241e+01 1.606079e+01 1.534824e+01 1.051898e+01 6.299167e+00 6.281683e+00 3.637426e+00 4.379217e+00 2.106849e+01
<GCONST> 1.262299e+02
~s "ST_ay_3_1"
<MEAN> 25
 7.050409e-01 -6.149702e+00 4.056751e-01 -5.744948e+00 4.366603e+00 -1.003740e+01 3.293812e+00 -4.127885e-01 5.584563e+00 6.227745e-01 -3.909731e-01 2.345612e+00 2.113893e+00 -2.467896e+00 2.460786e+00 -1.789235e+00 -3.719463e-01 9.337022e-01 -1.302379e+00 1.434256e+00 -3.926916e-01 1.058293e+00 -5.922893e-01 -1.072735e+00 2.792890e+00
<VARIANCE> 25
 7.394747e+01 6.098993e+01 6.357821e+01 6.401704e+01 5.670945e+01 5.972166e+01 6.433758e+01 4.205794e+01 4.541360e+01 3.381008e+01 4.597565e+01 3.668958e+01 1.062549e+01 5.394914e+00 1.364459e+01 1.074649e+01 8.311325e+00 1.052798e+01 1.055979e+01 3.912318e+00 5.674770e+00 7.342658e+00 6.052629e+00 4.110549e+00 1.041900e+01
<GCONST> 1.199873e+02
~s "ST_ay_4_1"
<MEAN> 25
 1.468517e+01 -1.500017e+01 4.573530e+00 -7.154125e+00 -3.670803e-02 -2.163143e-01 -7.388678e+00 3.502671e+00 4.069928e+00 2.764945e+00 -1.503900e+00 -2.170025e+00 2.885351e+00 -2.150975e+00 -1.634162e+00 1.871411e+00 -2.497169e+00 1.267958e+00 -2.250471e-01 -1.392712e-01 -1.595089e-01 -4.292074e-01 2.038918e-01 -4.446110e-01 6.909761e-01
<VARIANCE> 25
 5.182222e+01 3.256680e+01 1.739206e+02 7.706512e+01 7.402833e+01 4.487915e+01 3.042915e+01 3.326763e+01 3.503011e+01 4.901586e+01 2.303426e+01 2.046763e+01 6.931643e+00 3.378116e+00 1.373018e+01 6.793005e+00 6.476022e+00 1.138211e+01 6.554467e+00 3.689602e+00 5.874679e+00 5.239744e+00 6.227734e+00 2.948911e+00 3.364470e+00
<GCONST> 1.142392e+02
~s "ST_g_2_1"
<MEAN> 25
 1.758720e+01 -1.345725e+01 8.497312e+00 -2.137887e+00 -8.986671e+00 -7.743443e+00 -5.421013e+00 -4.796246e-01 -5.455399e+00 4.376028e+00 3.751730e-01 -7.683904e-01 2.671921e-01 2.122437e-02 8.092510e-01 -2.006126e-01 -1.378179e+00 4.359105e-01 8.566024e-01 -4.204195e-01 -8.708992e-01 3.112170e-01 7.728974e-02 1.921370e-01 1.069782e-01
<VARIANCE> 25
 1.548016e+01 2.735136e+01 8.905238e+01 2.062463e+02 1.222279e+02 9.069281e+01 7.955312e+01 6.492177e+01 8.855214e+01 4.921041e+01 5.159263e+01 3.356928e+01 2.017554e+00 2.816103e+00 6.396228e+00 1.095218e+01 5.802970e+00 4.594689e+00 6.562041e+00 8.533148e+00 4.877663e+00 5.104129e+00 4.855569e+00 3.777580e+00 2.155225e+00
<GCONST> 1.157000e+02
~s "ST_g_3_1"
<MEAN> 25
 1.813602e+01 -4.507845e+00 5.626213e+00 -6.762796e-01 -8.873667e+00 -3.242537e+00 -1.234231e+00 -4.342639e+00 -7.052285e+00 1.324365e+00 -4.617595e-01 2.480171e-01 3.601689e-01 3.862225e+00 -2.810832e+00 3.143007e+00 -1.655730e-01 1.978821e-01 2.229896e+00 -2.653404e+00 3.566757e-01 -1.042424e+00 -1.674252e-01 -9.574524e-02 -3.046044e+00
<VARIANCE> 25
 1.984610e+01 6.672115e+01 8.973964e+01 1.543324e+02 1.144834e+02 6.567920e+01 1.513666e+02 8.591340e+01 1.301078e+02 6.243000e+01 3.882808e+01 2.424252e+01 1.130341e+00 7.403547e+00 3.986331e+00 9.544246e+00 6.866584e+00 3.456946e+00 6.599591e+00 7.771845e+00 5.499457e+00 8.449222e+00 3.065950e+00 2.428094e+00 3.478845e+00
<GCONST> 1.168801e+02
~s "ST_g_4_1"
<MEAN> 25
 2.089927e+01 -2.195132e+00 -5.777865e+00 1.142462e+00 -5.348932e+00 -2.716323e+00 -1.616031e-01 -1.245721e+01 -3.429357e+00 6.434309e+00 -2.654956e+00 -6.492944e+00 -3.270651e-02 1.574585e+00 -7.598540e-01 -3.003204e-01 5.652112e-01 2.398064e-01 -5.439583e-01 -5.746669e-01 4.622923e-01 -1.710651e-01 -8.032992e-02 -3.376820e-02 -8.694854e-01
<VARIANCE> 25
 9.156677e+00 7.953322e+01 6.871689e+01 7.794913e+01 7.756512e+01 2.573606e+01 6.626089e+01 6.617708e+01 5.563857e+01 4.734291e+01 3.160057e+01 3.384054e+01 4.462575e-01 5.506626e+00 2.103955e+00 4.035909e+00 3.607711e+00 2.505626e+00 4.475633e+00 3.018592e+00 2.839894e+00 1.954877e+00 2.842230e+00 1.545291e+00 1.994394e+00
<GCONST> 1.036871e+02
~s "ST_t_2_1"
<MEAN> 25
 8.638365e+00 -9.183143e+00 4.959800e+00 -2.664363e+00 -5.753750e-01 -1.313694e+01 3.166566e-01 1.646208e+00 1.681350e-01 -1.751506e-02 -1.473530e+00 2.234564e+00 2.185376e+00 -1.803054e+00 2.290504e+00 -1.818923e+00 -3.057121e-01 -1.880267e-02 -1.783396e+00 -1.571086e-01 -1.186449e+00 6.327392e-01 6.860685e-01 -3.669135e-01 3.927222e+00
<VARIANCE> 25
 7.186590e+01 6.360237e+01 7.675494e+01 7.880389e+01 8.699654e+01 8.869911e+01 7.042891e+01 7.881769e+01 9.345084e+01 4.225143e+01 6.177335e+01 3.671621e+01 1.581189e+01 9.783902e+00 9.643783e+00 9.694858e+00 9.001671e+00 8.851219e+00 8.506126e+00 6.748558e+00 1.077887e+01 3.640292e+00 5.812013e+00 4.590345e+00 1.221999e+01
<GCONST> 1.241267e+02
~s "ST_t_3_1"
<MEAN> 25
 1.547298e+01 -1.414110e+01 1.027084e+01 -7.738395e+00 -4.534431e+00 -7.282606e+00 -8.765854e+00 3.903854e+00 -1.255419e+00 9.221617e-01 1.147448e+00 -4.017408e-01 8.097578e-01 -2.299348e-01 -7.437238e-01 -1.396823e+00 2.511168e-01 1.785072e+00 -5.335976e-01 -3.918624e-01 1.404767e-01 7.922795e-01 -3.790396e-01 -7.552822e-01 4.459006e-01
<VARIANCE> 25
 3.391516e+01 4.302899e+01 1.244794e+02 7.401441e+01 4.686939e+01 6.556546e+01 6.129869e+01 1.326064e+02 1.051205e+02 4.093529e+01 4.837496e+01 3.834763e+01 4.135496e+00 3.934214e+00 5.675380e+00 6.322996e+00 5.059871e+00 6.601897e+00 7.816790e+00 7.889433e+00 8.634785e+00 4.312807e+00 4.205233e+00 2.637765e+00 1.369934e+00
<GCONST> 1.156260e+02
~s "ST_ey_2_1"
<MEAN> 25
 1.539759e+00 9.818469e+00 6.940220e+00 3.607221e+00 -2.003153e+00 2.827940e+00 2.345686e+00 5.856331e-01 2.775273e+00 -1.613724e+00 3.851546e+00 7.885298e-01 4.443571e+00 8.885048e-02 5.483177e+00 -2.391696e+00 -4.656626e+00 -1.801439e+00 1.315736e-01 1.068269e+00 -2.764373e+00 -1.221231e-01 1.263529e+00 -5.527782e-01 5.223432e+00
<VARIANCE> 25
 6.386020e+01 2.881716e+01 3.668129e+01 3.821850e+01 5.044084e+01 9.906010e+00 2.455060e+01 1.997742e+01 1.787843e+01 1.220620e+01 1.088516e+01 1.670916e+01 8.971939e+00 5.405618e+00 1.258873e+01 6.455888e+00 7.882826e+00 5.944346e+00 8.752359e+00 5.645015e+00 7.287021e+00 5.737401e+00 1.885257e+00 3.196924e+00 1.939294e+01
<GCONST> 1.082292e+02
~s "ST_t_4_1"
<MEAN> 25
 1.787653e+01 -1.076445e+01 -5.410731e-01 -1.591585e+01 3.063125e+00 3.994974e+00 -7.434677e+00 -2.180933e+00 1.050901e-01 6.879583e+00 -1.676182e+00 -3.607104e+00 -3.387031e-02 1.401582e+00 -7.088640e-01 8.474679e-02 5.072444e-01 3.220646e-01 1.004970e-01 -8.265012e-01 -2.307551e-01 2.867973e-01 2.836149e-01 1.314589e-01 -8.413472e-01
<VARIANCE> 25
 2.929318e+01 7.099512e+01 7.726510e+01 1.218543e+02 8.360078e+01 6.277972e+01 1.101215e+02 9.593893e+01 4.776861e+01 2.690356e+01 3.526279e+01 3.762505e+01 7.148440e-01 1.844941e+00 2.977073e+00 4.503231e+00 2.482919e+00 3.102041e+00 3.921515e+00 3.297035e+00 3.213748e+00 2.708296e+00 2.095271e+00 2.038719e+00 1.295191e+00
<GCONST> 1.062650e+02
~s "ST_t_4_2"
<MEAN> 25
 2.129865e+01 3.626965e+00 -2.226686e+00 -1.532287e+01 -2.313308e+00 7.672624e+00 -5.775689e+00 -9.591481e+00 -1.062737e+01 1.477487e+00 2.171340e+00 2.044990e+00 -3.827125e-01 1.308008e+00 -8.123475e-01 3.844284e-01 6.849468e-02 2.063937e-01 5.155432e-01 2.393792e-01 -1.699842e-01 -7.070963e-01 6.148266e-02 4.826722e-01 -1.582385e+00
<VARIANCE> 25
 1.406918e+01 7.084404e+01 1.048469e+02 1.262882e+02 4.145164e+01 2.929815e+01 7.270396e+01 6.282716e+01 4.465904e+01 5.303799e+01 2.270008e+01 2.334974e+01 2.003329e+00 2.623639e+00 4.864708e+00 6.018456e+00 3.024832e+00 3.530833e+00 3.332343e+00 3.399917e+00 5.878393e+00 3.445447e+00 2.533856e+00 2.544904e+00 9.863417e-01
<GCONST> 1.066048e+02
~s "ST_ey_3_1"
<MEAN> 25
 9.513885e+00 1.495320e+00 2.550918e+01 -7.357284e+00 -1.534736e+01 -2.686931e+00 9.967521e-01 3.036207e+00 -1.574323e+01 -1.264521e+00 4.985831e+00 -2.486335e-01 1.465443e+00 -3.292359e+00 2.488843e+00 -1.752824e+00 -5.509429e-01 -1.241928e+00 -1.120118e+00 2.841764e-01 -2.519578e+00 7.269217e-01 -4.201419e-01 2.669641e-01 3.741845e+00
<VARIANCE> 25
 1.896970e+01 5.790237e+01 1.114230e+02 9.064407e+01 4.025159e+01 7.098074e+01 7.171287e+01 4.315792e+01 9.244234e+01 7.680635e+01 1.941098e+01 2.778395e+01 5.719464e+00 1.972933e+00 1.243285e+01 7.729095e+00 1.057363e+01 5.448349e+00 5.113459e+00 3.596339e+00 1.067009e+01 3.603217e+00 2.871285e+00 2.671109e+00 7.606494e+00
<GCONST> 1.149918e+02
~s "ST_ao_2_1"
<MEAN> 25
 -5.412752e+00 9.091443e+00 5.380845e+00 8.022375e+00 4.425014e+00 2.515406e+00 4.130497e+00 2.287895e+00 1.890725e+00 -5.835823e-01 2.077889e+00 3.053577e+00 6.641156e+00 2.145745e-01 2.111591e+00 -1.291432e+00 -1.131218e+00 -2.372999e+00 -1.644712e+00 -1.196071e+00 8.965368e-01 -2.319690e-01 -1.193039e+00 2.410249e-02 7.557693e+00
<VARIANCE> 25
 3.143885e+01 3.582703e+01 4.559822e+01 4.211990e+01 1.885399e+01 1.873253e+01 3.649236e+01 2.452742e+01 2.122452e+01 1.683360e+01 1.068058e+01 1.071822e+01 4.217598e+00 2.120853e+01 1.185014e+01 6.826224e+00 1.987812e+00 5.333247e+00 5.455490e+00 2.359095e+00 3.067215e+00 2.977109e+00 3.233086e+00 1.617977e+00 1.760593e+01
<GCONST> 1.043541e+02
~s "ST_ey_4_1"
<MEAN> 25
 1.553129e+01 -1.588681e+01 2.203132e+01 -7.891469e+00 -1.163216e+01 -7.203394e+00 -6.369509e+00 9.039837e+00 -8.863191e+00 1.078581e+00 3.563625e+00 1.879806e+00 4.482256e-01 -7.727515e-01 -9.646446e-01 2.451514e-02 -1.089953e-01 -1.975207e-01 2.160469e-01 5.323280e-01 9.094484e-01 3.631173e-01 -1.397921e-01 1.636724e-01 5.550766e-01
<VARIANCE> 25
 1.731763e+01 2.542911e+01 5.708356e+01 5.482797e+01 2.774741e+01 2.812755e+01 3.004592e+01 4.472551e+01 5.205885e+01 3.515879e+01 2.045036e+01 1.362131e+01 1.124333e+00 1.438925e+00 2.609867e+00 3.688867e+00 2.939104e+00 3.064327e+00 1.978734e+00 4.019790e+00 3.691252e+00 2.684444e+00 2.913510e+00 1.536198e+00 1.606444e+00
<GCONST> 9.837177e+01
~s "ST_ao_3_1"
<MEAN> 25
 9.075246e+00 1.584471e+01 1.098794e+01 3.921653e+00 -2.276717e+00 -1.938226e+00 -1.343964e+00 -2.798576e+00 3.297240e+00 -3.464715e+00 -2.479803e+00 1.984324e+00 5.406147e+00 -1.493625e+00 -4.570990e-01 -1.451048e+00 -1.079511e+00 -3.189414e+00 -1.273605e+00 -6.397595e-01 -3.363512e-02 9.978950e-02 -1.416036e+00 -5.623518e-01 5.730262e+00
<VARIANCE> 25
 1.982516e+01 2.214405e+02 1.014592e+02 5.869390e+01 2.271601e+01 4.898290e+01 4.442527e+01 2.134033e+01 2.240024e+01 1.447707e+01 1.437692e+01 1.537805e+01 9.342064e+00 1.951923e+01 7.021420e+00 5.865997e+00 3.773639e+00 3.882777e+00 6.131178e+00 3.944436e+00 5.330147e+00 3.696157e+00 3.878006e+00 3.456605e+00 1.402835e+01
<GCONST> 1.110869e+02
~s "ST_ao_4_1"
<MEAN> 25
 1.361640e+01 1.223041e+00 3.088482e+00 1.904053e+00 -8.021325e-03 -1.038624e+01 -1.726106e+00 -2.841954e+00 1.954958e+00 -6.503102e-01 -4.916414e+00 5.061600e-01 2.968791e+00 -6.626873e+00 -1.077722e+00 -2.635557e+00 6.317411e-01 -3.737600e+00 -1.796943e+00 3.450685e-01 -4.482342e-01 1.054146e+00 -1.086405e+00 -5.012363e-01 6.330408e+00
<VARIANCE> 25
 1.617801e+01 1.842999e+02 7.158916e+01 7.771362e+01 5.424483e+01 4.537343e+01 5.278616e+01 4.327774e+01 5.096606e+01 4.593614e+01 1.891577e+01 3.174561e+01 1.075707e+01 8.741932e+00 1.142353e+01 9.243491e+00 7.089283e+00 8.352362e+00 1.240742e+01 7.718648e+00 9.687604e+00 3.932600e+00 3.802198e+00 5.371737e+00 2.562511e+00
<GCONST> 1.177138e+02
~s "ST_sil_2_1"
<MEAN> 25
 -9.855078e+00 5.227824e+00 -2.106089e+00 4.481080e+00 8.723230e-01 2.264764e+00 1.769590e+00 -6.822016e-01 4.107609e-01 -2.489551e+00 -4.541308e-01 1.985605e-02 -2.203257e-02 -5.538173e-03 1.453250e-02 3.032529e-02 3.345791e-02 1.523295e-02 2.365051e-02 4.660057e-03 -2.450666e-02 -2.786063e-02 -7.032279e-03 1.522201e-02 -1.165991e-02
<VARIANCE> 25
 7.693039e+00 5.650394e+00 9.483133e+00 1.412780e+01 1.062650e+01 1.273431e+01 1.393149e+01 1.662679e+01 1.360357e+01 1.329575e+01 1.411235e+01 1.271218e+01 1.144668e-01 2.409601e-01 4.174764e-01 6.231933e-01 7.963730e-01 9.350340e-01 1.063240e+00 1.171742e+00 1.163931e+00 1.229035e+00 1.233778e+00 1.174056e+00 4.164873e-02
<GCONST> 6.789485e+01
~s "silst"
<MEAN> 25
 -1.543452e+01 3.313344e+00 -2.793562e+00 5.764995e+00 1.876662e+00 4.489628e+00 5.118989e+00 4.322137e+00 6.833078e+00 1.718526e+00 3.543510e+00 4.191267e+00 -7.241664e-03 1.787417e-03 1.959779e-02 2.360901e-02 1.922727e-02 1.886854e-02 -1.830392e-03 -5.705779e-02 -5.956296e-02 -3.188469e-02 8.125043e-04 -8.448081e-03 -2.505499e-03
<VARIANCE> 25
 6.481033e+00 5.391506e+00 9.858347e+00 8.601463e+00 9.262084e+00 9.336382e+00 1.131912e+01 1.463968e+01 1.328417e+01 1.024563e+01 9.463579e+00 7.304161e+00 3.829603e-02 1.296194e-01 2.224754e-01 3.594991e-01 4.948500e-01 4.782573e-01 7.987897e-01 1.127566e+00 1.349823e+00 1.009570e+00 7.811664e-01 8.699635e-01 3.817413e-02
<GCONST> 5.994067e+01
~s "ST_sil_3_1"
<MEAN> 25
 -1.543452e+01 3.313344e+00 -2.793562e+00 5.764995e+00 1.876662e+00 4.489628e+00 5.118989e+00 4.322137e+00 6.833078e+00 1.718526e+00 3.543510e+00 4.191267e+00 -7.241664e-03 1.787417e-03 1.959779e-02 2.360901e-02 1.922727e-02 1.886854e-02 -1.830392e-03 -5.705779e-02 -5.956296e-02 -3.188469e-02 8.125043e-04 -8.448081e-03 -2.505499e-03
<VARIANCE> 25
 6.481033e+00 5.391506e+00 9.858347e+00 8.601463e+00 9.262084e+00 9.336382e+00 1.131912e+01 1.463968e+01 1.328417e+01 1.024563e+01 9.463579e+00 7.304161e+00 3.829603e-02 1.296194e-01 2.224754e-01 3.594991e-01 4.948500e-01 4.782573e-01 7.987897e-01 1.127566e+00 1.349823e+00 1.009570e+00 7.811664e-01 8.699635e-01 3.817413e-02
<GCONST> 5.994067e+01
~s "ST_sil_4_1"
<MEAN> 25
 -8.053294e+00 4.242245e+00 -1.044451e+00 4.521818e+00 2.404655e+00 2.685186e+00 1.986495e+00 -5.858365e-01 6.013405e-02 -1.843206e+00 -7.793295e-02 7.165434e-01 4.204776e-01 5.621757e-02 2.750556e-02 -7.883636e-02 -9.141032e-02 -2.352183e-01 -2.806902e-01 -1.394002e-01 -1.124036e-01 -6.402012e-02 -1.848380e-01 -2.095926e-01 3.211985e-01
<VARIANCE> 25
 3.854912e+01 2.901333e+01 2.859658e+01 2.575824e+01 2.650584e+01 2.749072e+01 2.345325e+01 2.439353e+01 1.881222e+01 2.192959e+01 1.686910e+01 1.459750e+01 3.236720e+00 2.378444e+00 1.870361e+00 2.034046e+00 2.228476e+00 2.635566e+00 2.028006e+00 1.726122e+00 1.670521e+00 1.613524e+00 1.527510e+00 1.261500e+00 4.773993e+00
<GCONST> 9.364908e+01
~s "ST_iy_2_1"
<MEAN> 25
 8.573538e-01 1.485082e+01 4.766500e+00 6.811948e+00 -2.317126e+00 -1.196720e+00 -1.518347e+00 -5.255487e+00 -2.225177e+00 -3.747801e+00 -1.513623e+00 -1.117184e+00 -2.017052e+00 -1.534045e+00 -9.624930e-01 3.864647e-01 1.221599e+00 8.108593e-01 9.084811e-02 2.109817e-01 3.679989e-02 -1.400708e-01 3.461159e-02 1.080498e-01 -1.119079e+00
<VARIANCE> 25
 4.509078e+01 3.542186e+01 2.855899e+01 1.061700e+01 1.442313e+01 1.580452e+01 1.604327e+01 2.704990e+01 1.412457e+01 1.758085e+01 2.158927e+01 1.679246e+01 1.265009e+00 1.499106e+00 1.859074e+00 1.115173e+00 1.273918e+00 1.268657e+00 1.755317e+00 2.406303e+00 1.636078e+00 1.661151e+00 1.838979e+00 1.533070e+00 3.049743e-01
<GCONST> 8.608591e+01
~s "ST_iy_3_1"
<MEAN> 25
 -7.818474e+00 7.048683e+00 7.375600e-02 7.449791e+00 1.824223e+00 1.837228e+00 1.301313e+00 -2.967968e+00 -2.615455e+00 -4.482822e+00 -1.163112e+00 -2.959339e-01 -4.163342e-01 -2.954264e-01 -2.933749e-01 -1.868108e-01 5.695294e-02 1.197688e-01 2.054528e-01 3.100992e-01 2.924765e-01 2.322828e-01 1.029646e-01 2.687730e-02 -2.178440e-01
<VARIANCE> 25
 8.575768e+00 9.407524e+00 1.228281e+01 1.805911e+01 1.103805e+01 1.496547e+01 1.198105e+01 1.492092e+01 1.361704e+01 1.369217e+01 1.592867e+01 1.809984e+01 3.403711e-01 6.879124e-01 8.036531e-01 8.405799e-01 1.141627e+00 1.050991e+00 1.042819e+00 9.990516e-01 1.589250e+00 1.571967e+00 1.369461e+00 1.706758e+00 7.985248e-02
<GCONST> 7.454072e+01
~s "ST_iy_4_1"
<MEAN> 25
 -1.011179e+01 4.781237e+00 -6.067398e+00 4.731799e+00 2.466492e+00 3.142214e+00 2.414596e+00 -1.916770e+00 1.213570e+00 -2.021554e+00 -3.431762e-01 -5.743892e-01 -3.127682e-02 -3.399734e-02 -2.390099e-02 -6.413342e-03 1.730341e-02 5.472112e-02 7.039866e-02 5.021574e-02 4.285362e-02 -1.012020e-02 -7.101247e-03 -2.413977e-02 -1.527255e-02
<VARIANCE> 25
 6.021408e+00 5.931753e+00 4.814739e+00 8.780352e+00 1.079576e+01 1.289790e+01 1.188863e+01 1.382265e+01 1.160617e+01 1.116487e+01 1.220314e+01 1.158073e+01 1.057885e-01 2.411694e-01 3.938425e-01 6.153626e-01 6.949647e-01 8.926757e-01 1.096203e+00 1.300464e+00 1.137494e+00 1.143152e+00 1.253033e+00 1.054080e+00 4.113033e-02
<GCONST> 6.526129e+01
~s "ST_ae_2_1"
<MEAN> 25
 1.896012e+01 -2.249387e+01 -2.267555e+00 -6.615301e+00 -6.859769e-01 -8.113986e-01 -5.303845e-01 4.300250e+00 2.636093e+00 2.975541e+00 -4.060760e+00 -5.308764e+00 -2.545217e-01 -1.639221e+00 6.892788e-01 -2.536240e-01 8.514513e-02 -1.408768e+00 1.564374e+00 1.254602e+00 -1.043032e+00 -1.539119e-01 -1.691447e+00 -3.239677e-01 1.257200e+00
<VARIANCE> 25
 2.441153e+01 1.637378e+01 6.805980e+01 1.099295e+02 5.833198e+01 8.234878e+01 5.625636e+01 4.000759e+01 2.117691e+01 3.304550e+01 3.022982e+01 1.835120e+01 2.714487e+00 3.120706e+00 4.490097e+00 5.612327e+00 8.374290e+00 5.165804e+00 4.312397e+00 5.225523e+00 4.198328e+00 2.787386e+00 1.881397e+00 2.724635e+00 1.246547e+00
<GCONST> 1.064836e+02
~s "ST_ae_3_1"
<MEAN> 25
 1.846007e+01 -2.351297e+01 7.933584e-01 1.996612e+00 -8.953869e+00 -8.399561e+00 8.552652e+00 5.647023e+00 -3.113365e+00 -1.791531e+00 -8.322489e+00 -1.712538e+00 -4.896115e-01 4.954875e-01 1.129891e+00 -2.987374e-01 -5.914448e-01 -3.881133e-01 9.999852e-01 1.055248e+00 -1.502236e+00 -7.035049e-01 8.425729e-01 -1.461861e-01 -2.629431e-01
<VARIANCE> 25
 1.459811e+01 2.730859e+01 4.537369e+01 9.185832e+01 5.574371e+01 2.847579e+01 5.729642e+01 4.674818e+01 3.002512e+01 2.204436e+01 2.638673e+01 1.575334e+01 5.775080e-01 2.060710e+00 4.111166e+00 2.633439e+00 3.849519e+00 1.840533e+00 2.719057e+00 2.699791e+00 1.531514e+00 1.458737e+00 1.368017e+00 1.596310e+00 1.219346e+00
<GCONST> 9.634870e+01
~s "ST_ae_4_1"
<MEAN> 25
 1.328623e+01 -2.071037e+01 1.534707e+01 -1.170500e+01 -9.512468e+00 -5.503044e+00 1.148218e+00 1.560206e+01 -9.161125e+00 -7.010118e-01 2.853594e+00 -4.899496e+00 -4.493761e-02 9.182485e-01 6.476320e-01 2.879949e-01 -6.357490e-01 1.761587e-01 4.678561e-01 -2.907408e-01 -1.234354e+00 1.645929e-01 6.105028e-01 -2.249229e-01 -5.569875e-01
<VARIANCE> 25
 8.034058e+00 1.755212e+01 4.759743e+01 3.665277e+01 5.281193e+01 2.625080e+01 4.047695e+01 3.131033e+01 4.312376e+01 3.300116e+01 3.064469e+01 2.615390e+01 3.044045e-01 1.873265e+00 2.146526e+00 1.401636e+00 2.645571e+00 1.397678e+00 2.236309e+00 2.505022e+00 2.996453e+00 2.140173e+00 2.146945e+00 1.333169e+00 7.418091e-01
<GCONST> 9.286810e+01
~s "ST_w_2_1"
<MEAN> 25
 2.551900e+01 -1.651519e+00 -6.120333e+00 -1.697469e+01 -2.385214e+00 3.408066e+00 -5.685972e-01 -4.193259e+00 -1.155243e+01 2.217113e+00 8.160004e+00 -1.294804e-01 6.464440e-01 -3.492112e+00 7.621465e-01 1.090431e+00 1.472853e-02 -1.904954e+00 -8.675683e-02 3.640032e-02 -1.569421e-02 1.757199e+00 9.734762e-01 -1.399797e+00 2.484279e+00
<VARIANCE> 25
 1.457166e+01 6.310506e+01 7.280775e+01 7.476477e+01 5.081283e+01 3.903904e+01 4.734299e+01 5.180230e+01 4.867493e+01 5.143627e+01 3.223639e+01 2.875341e+01 2.673685e+00 2.932927e+00 7.874432e+00 7.008525e+00 9.244301e+00 7.404066e+00 5.993763e+00 4.781925e+00 8.305330e+00 4.658798e+00 6.083980e+00 4.887305e+00 1.939090e+00
<GCONST> 1.127899e+02
~s "ST_w_3_1"
<MEAN> 25
 2.261370e+01 -1.462740e+01 -4.977539e+00 -9.401917e+00 1.016116e+00 -5.395451e+00 -1.687200e+00 -4.895034e-01 -4.127699e+00 6.828154e+00 4.965457e+00 -8.560477e+00 -1.074187e+00 -1.915582e+00 5.919204e-01 1.757052e+00 1.081985e-01 -1.969407e+00 2.935510e-01 1.609985e+00 2.713589e+00 -1.041550e+00 -2.499317e+00 -1.482278e+00 1.015793e+00
<VARIANCE> 25
 2.414581e+01 2.068712e+01 5.792080e+01 1.047577e+02 4.814087e+01 5.619630e+01 7.886117e+01 6.733332e+01 6.930496e+01 4.716766e+01 4.932192e+01 3.721604e+01 5.162237e-01 2.167492e+00 2.313684e+00 2.126925e+00 3.778649e+00 2.791624e+00 3.681010e+00 3.239509e+00 3.675575e+00 3.497444e+00 2.410244e+00 3.444708e+00 4.903786e-01
<GCONST> 1.034571e+02
~s "ST_w_4_1"
<MEAN> 25
 1.773939e+01 -1.916866e+01 1.887877e+00 -1.029336e+01 -1.031958e-01 -7.470673e+00 -1.026404e+00 1.020638e+01 2.870621e-01 6.314600e-01 -2.394783e+00 -8.713306e+00 1.397390e-01 -3.646217e-01 4.805927e-01 9.538360e-01 -1.079126e+00 5.873253e-02 2.102605e-01 3.263532e-01 2.721391e-01 -4.469592e-01 -1.340079e+00 3.209500e-01 -3.756301e-01
<VARIANCE> 25
 1.865945e+01 2.069153e+01 4.145928e+01 7.126991e+01 4.907140e+01 6.254659e+01 5.968706e+01 6.692133e+01 4.221933e+01 3.468081e+01 2.986643e+01 2.699469e+01 8.252494e-01 1.145992e+00 1.436570e+00 1.550103e+00 1.773283e+00 3.227705e+00 2.983667e+00 4.650651e+00 2.701631e+00 4.328666e+00 2.620364e+00 2.674103e+00 5.348612e-01
<GCONST> 9.909729e+01
~s "ST_ng_2_1"
<MEAN> 25
 1.921777e+01 -5.758629e-01 2.281514e+00 1.810651e+00 -1.049078e+01 -8.712102e-01 9.259115e+00 -7.584967e+00 -1.396700e+01 2.798609e+00 1.457077e+00 -2.899665e+00 5.667040e-01 3.037122e+00 -1.582625e+00 6.157772e-01 3.403361e-01 8.314937e-01 -5.171721e-01 -2.777002e+00 5.469331e-01 3.523133e-01 8.375277e-02 5.773464e-01 -1.657216e+00
<VARIANCE> 25
 1.075729e+01 9.146618e+01 8.791311e+01 1.031047e+02 6.355181e+01 3.841063e+01 6.522527e+01 1.457844e+02 4.739130e+01 3.507329e+01 2.310654e+01 3.082122e+01 9.896848e-01 3.507483e+00 5.744525e+00 9.171315e+00 4.734048e+00 3.157444e+00 7.759381e+00 9.069536e+00 5.969685e+00 3.708300e+00 2.522322e+00 2.416199e+00 1.165923e+00
<GCONST> 1.101203e+02
~s "ST_ng_3_1"
<MEAN> 25
 1.680936e+01 -6.110188e-02 3.627889e-01 -3.642359e+00 6.171098e-01 -5.216653e+00 -6.271400e+00 -1.889205e+00 -3.779647e+00 1.883781e+00 -2.550254e+00 -2.862120e+00 -7.260304e-01 -3.820499e+00 9.175910e-01 -3.510256e+00 3.070282e+00 -7.117068e-01 -4.036186e+00 3.853585e+00 2.494207e+00 8.352121e-01 -1.342836e+00 -9.310851e-01 2.643243e+00
<VARIANCE> 25
 1.549597e+01 1.360255e+02 6.106273e+01 1.292975e+02 1.342388e+02 6.930199e+01 1.335938e+02 1.464122e+02 7.765668e+01 4.009888e+01 5.460814e+01 3.205799e+01 1.955379e+00 7.639277e+00 7.575563e+00 1.247150e+01 9.735922e+00 1.131232e+01 7.590797e+00 1.372431e+01 4.754169e+00 7.396559e+00 4.985789e+00 3.689710e+00 2.934502e+00
<GCONST> 1.212539e+02
~s "ST_m_2_1"
<MEAN> 25
 2.142385e+00 6.829798e+00 7.439209e+00 -3.898594e+00 6.145118e+00 -1.583609e+01 -2.746656e-01 2.122667e+00 1.187102e+00 -4.351803e+00 -5.195313e+00 2.596779e+00 6.783934e-01 -8.003317e-01 1.357596e+00 -1.208751e+00 3.952324e-01 -9.610757e-01 -1.163259e+00 3.210050e-01 -4.114241e-01 -3.030669e-01 -2.840373e-02 -1.029658e-01 3.615001e+00
<VARIANCE> 25
 6.569792e+01 1.013415e+02 7.839362e+01 9.790407e+01 1.638202e+02 1.269190e+02 1.194974e+02 7.400387e+01 6.630235e+01 5.044483e+01 5.028996e+01 2.917379e+01 1.105465e+01 9.607045e+00 7.668454e+00 9.409419e+00 1.529614e+01 1.187277e+01 9.115200e+00 8.529731e+00 9.504675e+00 7.009301e+00 5.622090e+00 4.147314e+00 4.166681e+00
<GCONST> 1.254070e+02
~s "ST_ng_4_1"
<MEAN> 25
 1.675973e+01 -1.162791e+01 4.780234e+00 -2.314793e+01 5.397085e+00 2.977579e+00 -1.465844e+01 4.101829e+00 1.547690e+00 1.137284e+01 -3.151741e+00 -4.096986e+00 2.192983e-01 2.972901e-01 -3.737100e-01 -3.705866e-01 -4.529865e-02 7.703615e-01 -4.927576e-01 -8.518770e-01 1.317277e-01 2.369784e-01 2.047147e-01 3.691147e-01 -1.350501e-01
<VARIANCE> 25
 4.604126e+00 1.954034e+01 2.086559e+01 3.005280e+01 3.812457e+01 2.374640e+01 3.567137e+01 3.014019e+01 2.400135e+01 2.316264e+01 4.121217e+01 2.595025e+01 2.901270e-01 1.310099e+00 1.106131e+00 2.795660e+00 2.080479e+00 2.511111e+00 1.490544e+00 1.833141e+00 1.402356e+00 1.704032e+00 2.356276e+00 1.686620e+00 5.879646e-01
<GCONST> 8.851144e+01
~s "ST_m_3_1"
<MEAN> 25
 1.662733e+01 -1.136019e+01 1.247520e+01 -1.521366e+01 2.458692e+00 -5.467145e+00 -1.462264e+01 -2.384895e+00 -3.537387e+00 4.369490e+00 9.051825e-01 -1.624606e+00 2.810166e+00 -1.552717e+00 -2.738439e-01 -9.110327e-01 -1.071065e+00 2.336073e+00 -5.646427e-02 -1.159847e+00 -6.790723e-01 1.263224e+00 7.332364e-01 -1.191487e-01 3.055947e-02
<VARIANCE> 25
 5.775085e+01 4.417397e+01 2.891312e+01 7.561559e+01 2.826758e+01 7.284094e+01 5.909283e+01 8.141689e+01 4.402099e+01 4.793880e+01 4.411786e+01 1.287492e+01 3.364294e+00 3.016172e+00 3.088961e+00 6.766689e+00 6.302034e+00 7.548429e+00 6.807392e+00 7.202724e+00 3.928359e+00 6.460546e+00 1.859448e+00 2.475271e+00 1.706808e+00
<GCONST> 1.099935e+02
~s "ST_er_2_1"
<MEAN> 25
 1.187564e+01 -2.241452e+00 4.129380e+00 -9.271952e+00 8.700901e+00 -6.045405e+00 -5.899271e+00 1.860456e+00 1.397964e+00 2.199637e+00 -3.543392e+00 -3.780482e-01 -4.703498e+00 3.230073e+00 2.317586e-01 9.731160e-01 1.632820e+00 -1.407207e+00 2.519946e+00 7.516415e-01 1.049410e+00 -2.525328e+00 6.707515e-01 1.319906e+00 -9.007426e-01
<VARIANCE> 25
 9.802998e+01 7.175230e+01 8.393909e+01 6.966043e+01 6.871952e+01 8.093761e+01 8.406174e+01 7.908468e+01 6.399573e+01 7.485840e+01 4.714752e+01 4.951896e+01 8.707932e+00 6.499568e+00 1.176681e+01 9.133816e+00 1.115045e+01 5.505699e+00 9.668386e+00 1.107602e+01 7.538133e+00 6.280954e+00 5.840915e+00 6.432214e+00 1.779562e+00
<GCONST> 1.226992e+02
~s "ST_m_4_1"
<MEAN> 25
 2.084970e+01 -4.014340e+00 6.717982e+00 -4.230807e+00 -8.113697e+00 -1.135223e-02 7.717425e-01 -7.397833e+00 -9.127672e+00 1.186647e+00 1.139388e+00 -1.758458e+00 -2.689534e-01 9.261897e-01 -4.990806e-01 7.167348e-01 -6.612082e-02 -1.795408e-01 4.053224e-01 -4.924801e-02 5.013237e-02 -2.107343e-01 -8.429191e-02 -1.124826e-01 -1.030851e+00
<VARIANCE> 25
 4.271756e+01 1.285178e+02 1.539119e+02 1.683371e+02 5.531416e+01 9.281823e+01 1.002786e+02 1.687070e+02 8.083466e+01 7.304121e+01 3.968288e+01 3.070159e+01 2.500033e+00 7.313726e+00 8.258531e+00 9.150134e+00 3.552344e+00 4.981505e+00 5.906078e+00 1.154395e+01 6.909967e+00 8.184214e+00 3.092400e+00 3.239007e+00 5.456585e+00
<GCONST> 1.211512e+02
~s "ST_er_3_1"
<MEAN> 25
 -9.807114e+00 4.212141e+00 4.527861e+00 -6.952545e+00 4.929935e+00 -1.013341e+01 7.792588e+00 1.150374e+00 9.887135e-02 -3.713481e+00 1.415962e+00 4.316370e+00 1.414719e+00 -1.150162e+00 4.728522e-01 4.606800e-01 -1.588877e+00 -3.136843e-01 2.139612e-01 -1.956750e-01 -5.346961e-01 1.333752e-01 2.668163e-01 -3.205916e-01 3.139386e-01
<VARIANCE> 25
 8.041134e+01 4.413326e+01 5.756362e+01 3.972612e+01 6.689949e+01 5.391595e+01 5.404329e+01 7.199716e+01 3.906038e+01 3.943508e+01 3.579110e+01 2.762476e+01 2.110309e+01 5.558605e+00 5.669755e+00 4.036611e+00 4.887800e+00 4.743513e+00 7.684997e+00 5.495719e+00 3.929677e+00 3.931439e+00 4.016537e+00 3.209831e+00 3.127536e+00
<GCONST> 1.137659e+02
~s "ST_ah_2_1"
<MEAN> 25
 2.006784e+01 -2.018017e+00 -3.878519e+00 8.257997e-01 -4.501766e+00 -6.323245e-01 -2.724832e+00 -1.176042e+01 -2.212551e+00 5.582969e+00 -8.291198e+00 -4.600676e+00 -2.067730e-01 1.740128e+00 -1.813160e-01 1.180559e+00 -4.099601e-01 4.840708e-02 1.066820e-01 -5.784939e-01 -3.553433e-01 -4.764018e-01 -2.445094e-02 3.019330e-01 -1.496061e+00
<VARIANCE> 25
 1.468469e+01 6.422777e+01 7.241704e+01 1.737407e+02 7.941408e+01 8.719914e+01 9.178846e+01 1.058579e+02 7.054057e+01 6.092777e+01 6.583594e+01 3.334556e+01 8.108914e-01 3.309583e+00 2.522373e+00 6.269252e+00 6.502550e+00 2.988119e+00 4.518554e+00 8.544062e+00 2.674637e+00 3.530993e+00 3.264258e+00 1.725876e+00 1.424079e+00
<GCONST> 1.110166e+02
~s "ST_ah_2_2"
<MEAN> 25
 2.223615e+01 -9.610905e+00 -4.735683e+00 -1.432524e+01 4.047043e-01 1.465298e+00 -4.977094e+00 -4.687781e+00 -5.188885e+00 8.908250e+00 -1.630546e-01 -5.143302e+00 8.981001e-02 9.438888e-01 -1.215979e-01 2.246239e-01 -7.347752e-01 8.538866e-01 -2.214080e-01 -1.040433e+00 2.386968e-01 -2.033025e-01 -3.280967e-01 1.831889e-01 -6.565619e-01
<VARIANCE> 25
 1.503589e+01 3.269543e+01 6.750468e+01 1.177064e+02 7.923444e+01 6.696490e+01 5.674057e+01 8.580879e+01 4.992958e+01 3.481556e+01 6.084217e+01 3.966319e+01 3.493674e-01 1.405805e+00 1.077849e+00 3.388980e+00 3.232730e+00 3.078812e+00 2.673161e+00 3.588885e+00 2.331187e+00 2.462719e+00 1.761675e+00 1.404151e+00 5.062213e-01
<GCONST> 1.005576e+02
~s "ST_er_4_1"
<MEAN> 25
 1.656797e+01 -1.487318e+01 1.023384e+01 2.672762e-02 -8.719242e+00 -8.836043e+00 -4.251297e+00 3.111904e+00 -1.137564e+00 9.481838e-01 -1.780299e+00 -4.628312e-02 5.294047e-01 -2.890118e-01 -8.260325e-01 1.156473e+00 5.985874e-02 3.741800e-01 -8.205577e-01 -2.909848e-01 6.291521e-01 2.855635e-01 -8.111129e-01 2.160310e-01 -7.859764e-01
<VARIANCE> 25
 3.091321e+01 1.638281e+01 6.925185e+01 6.731232e+01 4.029927e+01 7.509899e+01 4.888940e+01 5.465294e+01 6.173896e+01 5.229091e+01 6.659229e+01 2.949630e+01 5.609876e+00 5.916202e+00 8.786477e+00 7.026580e+00 5.521318e+00 7.501827e+00 6.276195e+00 7.166239e+00 6.414128e+00 6.030541e+00 5.480743e+00 3.654925e+00 3.977929e+00
<GCONST> 1.153782e+02
~s "ST_ah_3_1"
<MEAN> 25
 2.013508e+01 3.171983e+00 -7.451417e+00 -4.212408e+00 3.036430e+00 1.790276e+00 -7.413293e+00 -7.946837e+00 -3.097832e-01 2.458580e+00 -3.967234e+00 -3.523371e+00 -8.367951e-01 3.742496e+00 -3.593739e-01 1.136711e+00 4.669600e-01 3.031104e-01 2.506218e-01 7.180139e-02 8.202493e-02 -1.602346e+00 6.274738e-01 2.856879e-01 -2.938930e+00
<VARIANCE> 25
 2.169492e+01 7.284663e+01 5.577316e+01 1.196780e+02 6.762619e+01 5.637674e+01 5.275428e+01 6.352880e+01 4.370298e+01 6.572970e+01 4.396078e+01 3.412714e+01 2.130655e+00 3.722620e+00 9.025843e+00 9.792423e+00 8.032658e+00 6.467349e+00 7.586255e+00 7.635586e+00 5.159575e+00 5.282408e+00 4.644117e+00 2.971907e+00 2.008179e+00
<GCONST> 1.149473e+02
~s "ST_ah_4_1"
<MEAN> 25
 1.424499e+01 1.150384e+01 -5.240535e+00 -3.437120e+00 1.534246e+00 4.279939e+00 -4.591232e+00 -8.107930e+00 -1.514722e+00 1.163493e-01 -8.604319e-01 -2.737265e+00 -2.086633e+00 6.331880e-01 1.678035e+00 4.022198e-01 -1.152039e+00 -2.452964e-01 9.310225e-01 6.344686e-01 -3.786051e-02 -3.867496e-01 5.670635e-01 6.738158e-01 -1.572299e+00
<VARIANCE> 25
 4.863812e+01 6.284683e+01 9.103806e+01 6.433943e+01 6.379373e+01 5.443511e+01 4.297691e+01 2.776435e+01 3.725194e+01 3.108179e+01 2.779388e+01 1.876275e+01 3.553715e+00 3.446396e+00 4.302425e+00 3.278459e+00 3.888449e+00 2.551797e+00 3.230919e+00 2.863181e+00 2.728626e+00 2.330244e+00 2.227751e+00 1.811939e+00 2.064131e+00
<GCONST> 1.048368e+02
~s "ST_z_2_1"
<MEAN> 25
 -6.439454e+00 1.074646e+00 -2.591503e+00 9.761062e-01 1.048803e+00 8.219334e-01 -8.704860e-01 2.224825e+00 1.135918e+00 3.362797e-02 3.570044e-01 7.062811e-01 -1.275926e-02 -6.830093e-03 -6.392067e-02 -2.308462e-02 2.212778e-02 1.424018e-02 -2.275279e-03 8.193749e-02 5.988228e-02 -2.144224e-02 -4.412672e-02 -3.387793e-03 -2.659605e-02
<VARIANCE> 25
 2.119453e+00 2.031338e+00 5.230160e+00 1.232256e+01 1.449162e+01 9.457906e+00 1.302390e+01 1.131094e+01 1.295403e+01 1.121378e+01 1.079144e+01 8.062070e+00 1.094863e-01 2.496826e-01 3.491156e-01 8.340433e-01 7.340036e-01 7.532054e-01 1.216195e+00 1.191054e+00 1.305748e+00 1.195574e+00 9.209777e-01 8.267345e-01 3.817413e-02
<GCONST> 6.278188e+01
~s "ST_z_3_1"
<MEAN> 25
 -7.201517e+00 -5.261110e-01 -2.405879e+00 1.519651e+00 -6.978951e-01 9.954231e-02 4.980141e-01 2.532211e+00 3.230564e+00 -2.180407e-01 -1.220926e+00 -2.048150e-02 3.949214e-01 3.618763e-01 4.895902e-01 1.373487e-01 2.690190e-01 -1.658844e-04 -1.221133e-01 -1.641024e-01 -1.857872e-01 3.812093e-02 -2.917945e-01 -3.651957e-01 2.671129e-01
<VARIANCE> 25
 6.996040e+00 1.441965e+01 2.927684e+01 1.016202e+01 1.087444e+01 1.400007e+01 1.668539e+01 1.166584e+01 3.102457e+01 9.481520e+00 1.459917e+01 1.348627e+01 9.898525e-01 1.686739e+00 3.912156e+00 1.434384e+00 1.406814e+00 1.254074e+00 2.308671e+00 1.407938e+00 4.294131e+00 1.273109e+00 1.554932e+00 1.627760e+00 8.810621e-01
<GCONST> 8.400439e+01
~s "ST_z_4_1"
<MEAN> 25
 1.433607e+01 -7.328727e-01 8.011795e-01 -1.322138e+01 7.991961e+00 1.307671e+00 -7.921080e+00 -4.910426e+00 -2.008125e+00 8.816506e-01 -1.752503e+00 -7.401580e-01 3.541386e-01 -6.632930e-02 -2.282284e-01 -1.952058e-01 3.159695e-02 2.114353e-01 -1.270496e-01 -4.119785e-01 -2.504467e-01 5.034324e-02 2.497381e-01 -1.742676e-02 2.819071e-01
<VARIANCE> 25
 2.004060e+02 1.328519e+02 8.956292e+01 1.287893e+02 3.722458e+01 1.502759e+02 7.444341e+01 6.261647e+01 3.567491e+01 5.268410e+01 4.189019e+01 2.808242e+01 7.232576e+00 9.286392e+00 6.819994e+00 9.648557e+00 4.012443e+00 6.350803e+00 7.895159e+00 6.436832e+00 5.223557e+00 7.019404e+00 5.307741e+00 3.167250e+00 8.898070e+00
<GCONST> 1.213449e+02
~s "ST_eh_2_1"
<MEAN> 25
 2.167435e+01 -1.824029e+01 -5.572588e-01 3.195099e+00 -1.112374e+01 -5.358138e+00 2.915208e+00 -1.104341e+00 9.693958e-01 4.861721e+00 -6.085834e+00 -4.536384e+00 2.512863e-02 7.552131e-01 -3.271051e-01 7.326040e-01 2.105774e-02 -3.088211e-01 1.811254e-01 -3.543783e-01 -2.698469e-01 1.825027e-01 -2.258143e-01 3.278241e-01 -8.097894e-01
<VARIANCE> 25
 1.685336e+01 2.308273e+01 4.057489e+01 6.497923e+01 3.014416e+01 3.855820e+01 3.926816e+01 8.160618e+01 4.534216e+01 4.865119e+01 4.327480e+01 3.016964e+01 1.661257e+00 2.508333e+00 4.720945e+00 5.978649e+00 3.838507e+00 3.814537e+00 3.669310e+00 8.077353e+00 4.578793e+00 4.139199e+00 3.357100e+00 2.623592e+00 2.772623e+00
<GCONST> 1.067693e+02
~s "ST_eh_3_1"
<MEAN> 25
 1.921325e+01 -5.311686e+00 -6.604942e+00 6.904643e+00 -3.355206e+00 -8.927547e+00 8.037131e-01 1.360372e+00 1.398827e+00 -4.924980e-01 -5.421683e+00 -1.616852e+00 -1.393027e+00 3.840673e+00 -1.465803e+00 -1.761439e-01 2.286646e+00 4.026098e-01 -1.105755e+00 1.604352e+00 1.250622e+00 -2.135222e+00 5.037980e-01 7.663828e-01 -3.369924e+00
<VARIANCE> 25
 2.689355e+01 4.379281e+01 5.675982e+01 6.215407e+01 5.332095e+01 3.285987e+01 4.559168e+01 6.851552e+01 5.293253e+01 5.775768e+01 4.868036e+01 3.637262e+01 2.217268e+00 4.458891e+00 4.865519e+00 8.605338e+00 6.520527e+00 5.673227e+00 5.286303e+00 6.850320e+00 3.687447e+00 4.790547e+00 4.835870e+00 2.368598e+00 2.603930e+00
<GCONST> 1.116993e+02
~s "ST_eh_4_1"
<MEAN> 25
 7.719927e+00 6.197690e+00 -6.419484e+00 7.498933e-01 -9.116791e-01 -3.755963e+00 -1.827193e+00 4.135645e+00 5.260742e+00 -2.913121e+00 -4.305156e+00 -5.301938e-01 -2.569880e+00 9.621413e-01 6.443595e-01 -8.513818e-01 -3.705145e-01 1.246681e+00 1.018355e-01 -8.022560e-01 -6.780131e-02 6.591642e-01 7.872536e-01 2.346018e-01 -2.135394e+00
<VARIANCE> 25
 1.092008e+02 6.908293e+01 8.032149e+01 3.098504e+01 4.237615e+01 3.395116e+01 4.376096e+01 3.973843e+01 2.965724e+01 3.924337e+01 2.093148e+01 1.894004e+01 3.092260e+00 6.327191e+00 5.850679e+00 4.812793e+00 3.642322e+00 2.631362e+00 2.913443e+00 3.432232e+00 2.954234e+00 3.136963e+00 2.308713e+00 2.109376e+00 3.637131e+00
<GCONST> 1.064446e+02
~s "ST_ih_2_1"
<MEAN> 25
 -9.788401e+00 5.416917e+00 -4.511395e+00 3.656689e+00 1.639320e+00 3.239381e+00 2.632182e+00 -2.414137e+00 4.516715e-02 -1.307362e+00 5.677310e-01 9.340417e-01 2.653785e-01 -1.221544e-03 1.397759e-02 -7.736360e-02 -1.593631e-01 -3.040754e-02 -1.672786e-01 -1.522255e-01 -1.916541e-01 1.095240e-01 -1.575475e-01 -1.191407e-01 2.046029e-01
<VARIANCE> 25
 4.838947e+01 1.612928e+01 2.074616e+01 1.780062e+01 2.141176e+01 1.390338e+01 1.318181e+01 1.736900e+01 1.649498e+01 1.383446e+01 1.720479e+01 1.281978e+01 1.620717e+00 9.076887e-01 7.459897e-01 1.586970e+00 1.803947e+00 1.297247e+00 1.151080e+00 1.786080e+00 1.988224e+00 1.442041e+00 1.947299e+00 1.510387e+00 1.744217e+00
<GCONST> 8.528859e+01
~s "ST_ih_3_1"
<MEAN> 25
 -7.901021e+00 3.746996e+00 -1.964966e+00 2.350873e+00 1.139160e+00 4.521554e-01 2.287856e+00 1.534859e-01 -2.242207e-01 -1.421642e+00 -1.943864e+00 1.143491e-01 1.601396e-01 -1.853745e-01 1.632826e-01 2.322149e-01 2.157613e-01 -1.103372e-01 1.021013e-01 1.604894e-01 3.403389e-02 2.173156e-02 -1.406637e-01 -3.369085e-02 2.812102e-01
<VARIANCE> 25
 2.971819e+01 1.817867e+01 1.185275e+01 2.294797e+01 1.931124e+01 2.269591e+01 1.616274e+01 1.692546e+01 1.351447e+01 1.377687e+01 1.841655e+01 1.201907e+01 5.800392e-01 7.723802e-01 7.133206e-01 1.250736e+00 1.613528e+00 1.484290e+00 1.433148e+00 1.456857e+00 1.294965e+00 1.662031e+00 1.396887e+00 1.007893e+00 3.156822e-01
<GCONST> 8.081371e+01
~s "ST_ih_4_1"
<MEAN> 25
 -6.209706e+00 2.247370e+00 -1.251555e+00 4.357792e+00 2.123406e+00 -5.761207e-01 9.647403e-01 3.665515e-01 1.929525e+00 -1.359834e+00 -1.202865e+00 9.059439e-01 7.066031e-01 -7.777469e-01 6.857619e-01 1.829633e-01 4.127012e-01 -6.801586e-01 -2.627031e-01 1.238757e-01 2.598292e-01 1.629463e-01 -1.878679e-01 -7.135944e-02 1.484041e+00
<VARIANCE> 25
 4.642106e+01 6.332123e+01 2.791338e+01 1.798361e+01 2.059696e+01 3.940567e+01 2.064784e+01 2.026591e+01 2.459933e+01 1.923542e+01 1.908882e+01 1.565310e+01 5.281230e+00 5.647825e+00 3.014111e+00 2.447170e+00 3.265278e+00 4.027045e+00 2.769299e+00 1.490881e+00 2.976500e+00 1.877416e+00 1.265814e+00 1.863589e+00 5.233071e+00
<GCONST> 9.836820e+01
~h "t+uw"
<BEGINHMM>
<NUMSTATES> 5
<STATE> 2
~s "ST_t_2_1"
<STATE> 3
~s "ST_t_3_1"
<STATE> 4
~s "ST_t_4_2"
~t "T_t"
<ENDHMM>
~h "t-uw"
<BEGINHMM>
<NUMSTATES> 5
<STATE> 2
~s "ST_uw_2_1"
<STATE> 3
~s "ST_uw_3_1"
<STATE> 4
~s "ST_uw_4_1"
~t "T_uw"
<ENDHMM>
~h "sp"
<BEGINHMM>
<NUMSTATES> 3
<STATE> 2
~s "ST_sil_3_1"
<TRANSP> 3
 0.000000e+00 1.105619e-02 9.889438e-01
 0.000000e+00 5.622684e-01 4.377316e-01
 0.000000e+00 0.000000e+00 0.000000e+00
<ENDHMM>
~h "aw+t"
<BEGINHMM>
<NUMSTATES> 5
<STATE> 2
~s "ST_aw_2_1"
<STATE> 3
~s "ST_aw_3_1"
<STATE> 4
~s "ST_aw_4_1"
~t "T_aw"
<ENDHMM>
~h "aw-t"
<BEGINHMM>
<NUMSTATES> 5
<STATE> 2
~s "ST_t_2_1"
<STATE> 3
~s "ST_t_3_1"
<STATE> 4
~s "ST_t_4_1"
~t "T_t"
<ENDHMM>
~h "ay-ae+ng"
<BEGINHMM>
<NUMSTATES> 5
<STATE> 2
~s "ST_ae_2_1"
<STATE> 3
~s "ST_ae_3_1"
<STATE> 4
~s "ST_ae_4_1"
~t "T_ae"
<ENDHMM>
~h "g-ah+l"
<BEGINHMM>
<NUMSTATES> 5
<STATE> 2
~s "ST_ah_2_1"
<STATE> 3
~s "ST_ah_3_1"
<STATE> 4
~s "ST_ah_4_1"
~t "T_ah"
<ENDHMM>
~h "k-ah+l"
<BEGINHMM>
<NUMSTATES> 5
<STATE> 2
~s "ST_ah_2_2"
<STATE> 3
~s "ST_ah_3_1"
<STATE> 4
~s "ST_ah_4_1"
~t "T_ah"
<ENDHMM>
~h "r-eh+d"
<BEGINHMM>
<NUMSTATES> 5
<STATE> 2
~s "ST_eh_2_1"
<STATE> 3
~s "ST_eh_3_1"
<STATE> 4
~s "ST_eh_4_1"
~t "T_eh"
<ENDHMM>
~h "th+r"
<BEGINHMM>
<NUMSTATES> 5
<STATE> 2
~s "ST_th_2_1"
<STATE> 3
~s "ST_th_3_1"
<STATE> 4
~s "ST_th_4_1"
~t "T_th"
<ENDHMM>
~h "th-r+iy"
<BEGINHMM>
<NUMSTATES> 5
<STATE> 2
~s "ST_r_2_1"
<STATE> 3
~s "ST_r_3_1"
<STATE> 4
~s "ST_r_4_1"
~t "T_r"
<ENDHMM>
~h "r-ey+s"
<BEGINHMM>
<NUMSTATES> 5
<STATE> 2
~s "ST_ey_2_1"
<STATE> 3
~s "ST_ey_3_1"
<STATE> 4
~s "ST_ey_4_1"
~t "T_ey"
<ENDHMM>
~h "ng-g+ah"
<BEGINHMM>
<NUMSTATES> 5
<STATE> 2
~s "ST_g_2_1"
<STATE> 3
~s "ST_g_3_1"
<STATE> 4
~s "ST_g_4_1"
~t "T_g"
<ENDHMM>
~h "f+ih"
<BEGINHMM>
<NUMSTATES> 5
<STATE> 2
~s "ST_f_2_1"
<STATE> 3
~s "ST_f_3_1"
<STATE> 4
~s "ST_f_4_1"
~t "T_f"
<ENDHMM>
~h "w+ah"
<BEGINHMM>
<NUMSTATES> 5
<STATE> 2
~s "ST_w_2_1"
<STATE> 3
~s "ST_w_3_1"
<STATE> 4
~s "ST_w_4_1"
~t "T_w"
<ENDHMM>
~h "b+l"
<BEGINHMM>
<NUMSTATES> 5
<STATE> 2
~s "ST_b_2_1"
<STATE> 3
~s "ST_b_3_1"
<STATE> 4
~s "ST_b_4_1"
~t "T_b"
<ENDHMM>
~h "d+r"
<BEGINHMM>
<NUMSTATES> 5
<STATE> 2
~s "ST_d_2_1"
<STATE> 3
~s "ST_d_3_1"
<STATE> 4
~s "ST_d_4_1"
~t "T_d"
<ENDHMM>
~h "uw-m"
<BEGINHMM>
<NUMSTATES> 5
<STATE> 2
~s "ST_m_2_1"
<STATE> 3
~s "ST_m_3_1"
<STATE> 4
~s "ST_m_4_1"
~t "T_m"
<ENDHMM>
~h "r-ay+ae"
<BEGINHMM>
<NUMSTATES> 5
<STATE> 2
~s "ST_ay_2_1"
<STATE> 3
~s "ST_ay_3_1"
<STATE> 4
~s "ST_ay_4_1"
~t "T_ay"
<ENDHMM>
~h "s+k"
<BEGINHMM>
<NUMSTATES> 5
<STATE> 2
~s "ST_s_2_1"
<STATE> 3
~s "ST_s_3_1"
<STATE> 4
~s "ST_s_4_1"
~t "T_s"
<ENDHMM>
~h "sil"
<BEGINHMM>
<NUMSTATES> 5
<STATE> 2
~s "ST_sil_2_1"
<STATE> 3
~s "ST_sil_3_1"
<STATE> 4
~s "ST_sil_4_1"
<TRANSP> 5
 0.000000e+00 1.000000e+00 0.000000e+00 0.000000e+00 0.000000e+00
 0.000000e+00 9.365627e-01 1.225087e-02 5.118650e-02 0.000000e+00
 0.000000e+00 0.000000e+00 9.647714e-01 3.522864e-02 0.000000e+00
 0.000000e+00 8.988745e-02 0.000000e+00 7.183641e-01 1.917485e-01
 0.000000e+00 0.000000e+00 0.000000e+00 0.000000e+00 0.000000e+00
<ENDHMM>
~h "f-ih+l"
<BEGINHMM>
<NUMSTATES> 5
<STATE> 2
~s "ST_ih_2_1"
<STATE> 3
~s "ST_ih_3_1"
<STATE> 4
~s "ST_ih_4_1"
~t "T_ih"
<ENDHMM>
~h "s-k+w"
<BEGINHMM>
<NUMSTATES> 5
<STATE> 2
~s "ST_k_2_2"
<STATE> 3
~s "ST_k_3_2"
<STATE> 4
~s "ST_k_4_1"
~t "T_k"
<ENDHMM>
~h "b-l+uw"
<BEGINHMM>
<NUMSTATES> 5
<STATE> 2
~s "ST_l_2_1"
<STATE> 3
~s "ST_l_3_1"
<STATE> 4
~s "ST_l_4_1"
~t "T_l"
<ENDHMM>
~h "ae-ng+g"
<BEGINHMM>
<NUMSTATES> 5
<STATE> 2
~s "ST_ng_2_1"
<STATE> 3
~s "ST_ng_3_1"
<STATE> 4
~s "ST_ng_4_1"
~t "T_ng"
<ENDHMM>
~h "z+uw"
<BEGINHMM>
<NUMSTATES> 5
<STATE> 2
~s "ST_z_2_1"
<STATE> 3
~s "ST_z_3_1"
<STATE> 4
~s "ST_z_4_1"
~t "T_z"
<ENDHMM>
~h "r-iy+n"
<BEGINHMM>
<NUMSTATES> 5
<STATE> 2
~s "ST_iy_2_1"
<STATE> 3
~s "ST_iy_3_1"
<STATE> 4
~s "ST_iy_4_1"
~t "T_iy"
<ENDHMM>
~h "s-er+k"
<BEGINHMM>
<NUMSTATES> 5
<STATE> 2
~s "ST_er_2_1"
<STATE> 3
~s "ST_er_3_1"
<STATE> 4
~s "ST_er_4_1"
~t "T_er"
<ENDHMM>
~h "r-ao"
<BEGINHMM>
<NUMSTATES> 5
<STATE> 2
~s "ST_ao_2_1"
<STATE> 3
~s "ST_ao_3_1"
<STATE> 4
~s "ST_ao_4_1"
~t "T_ao"
<ENDHMM>
~h "ih-n"
<BEGINHMM>
<NUMSTATES> 5
<STATE> 2
~s "ST_n_2_1"
<STATE> 3
~s "ST_n_3_1"
<STATE> 4
~s "ST_n_4_2"
~t "T_n"
<ENDHMM>
~h "ah-n"
<BEGINHMM>
<NUMSTATES> 5
<STATE> 2
~s "ST_n_2_1"
<STATE> 3
~s "ST_n_3_1"
<STATE> 4
~s "ST_n_4_1"
~t "T_n"
<ENDHMM>
~h "er-k+ah"
<BEGINHMM>
<NUMSTATES> 5
<STATE> 2
~s "ST_k_2_1"
<STATE> 3
~s "ST_k_3_1"
<STATE> 4
~s "ST_k_4_1"
~t "T_k"
<ENDHMM>
