~o
<STREAMINFO> 1 25
<VECSIZE> 25<NULLD><MFCC_D_N_Z_0><DIAGC>
~s "silst"
<MEAN> 25
 -1.542707e+01 3.317762e+00 -2.789340e+00 5.755856e+00 1.874229e+00 4.480870e+00 5.103986e+00 4.310758e+00 6.812623e+00 1.707972e+00 3.540650e+00 4.188094e+00 -7.350682e-03 1.947334e-03 1.899851e-02 2.192584e-02 1.725155e-02 1.813140e-02 -6.163807e-04 -5.638823e-02 -6.119673e-02 -3.238543e-02 6.040123e-04 -7.353051e-03 -2.779835e-03
<VARIANCE> 25
 6.481353e+00 5.395525e+00 9.911016e+00 8.631660e+00 9.254570e+00 9.355383e+00 1.135670e+01 1.466441e+01 1.337214e+01 1.026249e+01 9.500107e+00 7.355150e+00 3.849140e-02 1.298221e-01 2.232444e-01 3.620935e-01 4.972966e-01 4.790435e-01 8.001738e-01 1.127080e+00 1.348527e+00 1.010321e+00 7.860645e-01 8.714182e-01 3.817413e-02
<GCONST> 6.000843e+01
~h "b"
<BEGINHMM>
<NUMSTATES> 5
<STATE> 2
<MEAN> 25
 2.026584e+01 -4.878106e+00 3.167596e+00 -8.314905e+00 -3.348532e+00 7.056293e+00 -9.283725e+00 -1.607174e+01 -4.265859e+00 6.668745e+00 -1.359097e+00 -1.812840e+00 2.402895e-01 3.704079e-01 -1.774608e-01 -1.341595e+00 -2.232694e-01 4.025641e-01 8.083014e-02 -1.665151e-01 -5.427049e-01 3.826704e-01 2.286257e-01 -6.755152e-02 1.565080e-01
<VARIANCE> 25
 9.660788e+00 4.759735e+01 5.873537e+01 1.975250e+02 6.917375e+01 6.999230e+01 9.654372e+01 8.110774e+01 5.907058e+01 2.901114e+01 6.902779e+01 2.485821e+01 5.849653e-01 5.030960e+00 4.117714e+00 8.487443e+00 6.919871e+00 5.693470e+00 6.650282e+00 7.063195e+00 5.203514e+00 2.811448e+00 4.192629e+00 2.377309e+00 2.492389e+00
<GCONST> 1.118337e+02
<STATE> 3
<MEAN> 25
 2.205230e+01 1.037029e+01 -8.972065e+00 -1.338197e+01 -5.730909e-02 6.083901e+00 -3.862297e+00 -1.366427e+01 -1.019106e+01 2.834597e+00 3.213453e+00 1.467233e+00 -6.691720e-01 2.297158e+00 -1.180189e+00 1.039039e+00 8.357085e-01 -4.577879e-01 8.082822e-01 1.661191e+00 1.126620e-01 -1.585325e+00 8.036303e-01 8.994761e-01 -2.079024e+00
<VARIANCE> 25
 6.124917e+00 1.847281e+01 1.581562e+01 8.434796e+01 2.809440e+01 1.771212e+01 2.757356e+01 6.522329e+01 3.482566e+01 2.546688e+01 2.509710e+01 1.045680e+01 1.314260e+00 1.426980e+00 5.064631e+00 6.489946e+00 5.736033e+00 3.907169e+00 4.415975e+00 4.259317e+00 2.956783e+00 2.272864e+00 4.745086e+00 1.971422e+00 6.146187e-01
<GCONST> 9.775333e+01
<STATE> 4
<MEAN> 25
 1.593173e+01 1.575065e+01 -5.743068e+00 -9.723108e+00 -4.023782e+00 3.956521e+00 8.562410e-01 -6.562399e+00 -8.078195e+00 -3.662716e+00 2.029973e+00 1.818900e+00 -2.703780e+00 1.409714e-01 1.695361e+00 1.686781e+00 -7.504973e-01 -1.002303e+00 5.450506e-01 1.478437e+00 1.585634e+00 -5.779164e-01 -3.949034e-01 -8.504163e-02 -1.993626e+00
<VARIANCE> 25
 1.906543e+01 1.019951e+01 2.053028e+01 5.745373e+01 7.774116e+01 6.180522e+01 2.139078e+01 5.279953e+01 2.591594e+01 4.010223e+01 3.570407e+01 3.390616e+01 2.198125e+00 1.644901e+00 1.680501e+00 2.207928e+00 2.757638e+00 4.083307e+00 2.092252e+00 5.145147e+00 2.232196e+00 1.808143e+00 1.786070e+00 1.388761e+00 8.768981e-01
<GCONST> 9.740836e+01
<TRANSP> 5
 0.000000e+00 1.000000e+00 0.000000e+00 0.000000e+00 0.000000e+00
 0.000000e+00 9.222338e-01 7.776618e-02 0.000000e+00 0.000000e+00
 0.000000e+00 0.000000e+00 7.815387e-01 2.184614e-01 0.000000e+00
 0.000000e+00 0.000000e+00 0.000000e+00 7.067140e-01 2.932860e-01
 0.000000e+00 0.000000e+00 0.000000e+00 0.000000e+00 0.000000e+00
<ENDHMM>
~h "d"
<BEGINHMM>
<NUMSTATES> 5
<STATE> 2
<MEAN> 25
 -1.663108e+01 1.501357e+00 -2.810538e-01 7.411840e+00 1.245968e+00 3.724140e+00 4.723657e+00 3.659237e+00 4.780010e+00 1.681132e+00 4.999856e+00 3.610211e+00 -1.419707e-02 7.908221e-03 -2.317298e-03 6.159270e-03 2.076145e-02 -1.195004e-02 -5.377312e-02 5.854413e-03 7.522274e-02 5.316653e-02 1.473513e-03 -2.834092e-02 -1.285690e-02
<VARIANCE> 25
 6.672791e+00 4.688191e+00 3.870964e+00 6.446295e+00 6.275146e+00 7.605411e+00 9.475392e+00 1.354402e+01 1.105006e+01 9.570958e+00 9.921130e+00 8.548468e+00 4.700947e-02 1.517953e-01 2.344750e-01 3.766783e-01 4.662427e-01 4.959406e-01 7.187498e-01 1.187547e+00 1.247933e+00 1.055200e+00 7.861335e-01 8.666027e-01 3.817413e-02
<GCONST> 5.806244e+01
<STATE> 3
<MEAN> 25
 -1.303492e+01 5.626086e+00 -1.437926e+00 2.310153e+00 1.612509e+00 2.431729e+00 5.499505e-01 2.035017e+00 1.181337e+00 -2.013575e+00 7.075866e-01 2.001223e+00 -1.081769e-02 1.071234e-02 1.545436e-02 1.177979e-02 4.896596e-04 3.158051e-02 2.651085e-03 -4.827631e-02 -7.363141e-02 -6.045857e-02 3.826125e-02 -2.605047e-03 -1.510512e-02
<VARIANCE> 25
 4.352589e+00 4.424855e+00 1.244125e+01 1.882952e+01 1.036629e+01 1.071584e+01 1.465664e+01 1.493693e+01 1.184489e+01 1.127573e+01 1.085404e+01 1.075884e+01 1.108057e-01 2.627206e-01 4.205989e-01 6.817200e-01 8.046286e-01 8.748901e-01 1.028333e+00 9.488913e-01 1.238638e+00 1.085818e+00 1.185130e+00 1.173250e+00 3.817413e-02
<GCONST> 6.631418e+01
<STATE> 4
<MEAN> 25
 -1.048190e+01 4.252148e+00 3.480268e-01 3.388633e+00 1.071159e+00 1.856955e+00 8.407532e-01 1.096482e+00 1.378798e+00 -1.563807e+00 -1.142113e+00 1.963741e-01 1.072787e-01 1.512679e-02 6.720050e-02 1.101227e-01 4.119186e-02 1.419471e-02 3.196027e-02 -2.240559e-01 -1.953126e-01 1.344382e-01 7.520263e-03 -1.503802e-01 1.057688e-01
<VARIANCE> 25
 1.520861e+01 6.574432e+00 1.699380e+01 1.548968e+01 1.239401e+01 1.122423e+01 1.870634e+01 1.893321e+01 2.179508e+01 1.289481e+01 2.348551e+01 2.029806e+01 1.256635e+00 6.019140e-01 6.727539e-01 9.846480e-01 1.220927e+00 1.178674e+00 1.247543e+00 1.987993e+00 2.525985e+00 1.217781e+00 1.548170e+00 1.753612e+00 1.255448e+00
<GCONST> 8.166665e+01
<TRANSP> 5
 0.000000e+00 1.000000e+00 0.000000e+00 0.000000e+00 0.000000e+00
 0.000000e+00 8.965419e-01 1.034581e-01 0.000000e+00 0.000000e+00
 0.000000e+00 0.000000e+00 8.950664e-01 1.049335e-01 0.000000e+00
 0.000000e+00 0.000000e+00 0.000000e+00 5.614046e-01 4.385954e-01
 0.000000e+00 0.000000e+00 0.000000e+00 0.000000e+00 0.000000e+00
<ENDHMM>
~h "f"
<BEGINHMM>
<NUMSTATES> 5
<STATE> 2
<MEAN> 25
 -1.907406e+01 3.182307e+00 -1.374159e+00 5.208315e+00 1.550843e+00 5.744482e+00 5.669215e+00 4.767686e+00 5.431765e+00 8.316537e-01 5.442054e+00 3.768149e+00 7.660724e-04 -5.256688e-03 1.584305e-03 2.063842e-02 4.548822e-02 -3.166850e-02 -8.075580e-02 -2.739902e-03 1.081174e-01 8.105522e-02 1.460467e-03 -1.375319e-02 -4.239992e-03
<VARIANCE> 25
 5.546731e+00 6.140747e+00 6.700841e+00 1.626005e+01 9.343880e+00 9.774784e+00 9.694561e+00 1.673495e+01 1.215119e+01 1.006538e+01 8.340195e+00 8.922898e+00 4.142491e-02 1.460317e-01 2.153475e-01 3.386891e-01 4.563114e-01 4.440984e-01 6.979191e-01 1.092180e+00 1.050405e+00 1.068745e+00 8.197377e-01 9.883635e-01 3.817413e-02
<GCONST> 5.993170e+01
<STATE> 3
<MEAN> 25
 -1.518198e+01 4.987230e+00 -1.751837e+00 3.393707e+00 3.338225e+00 5.513588e+00 2.749670e+00 9.932871e-01 2.702510e+00 -2.721647e-01 2.714255e+00 2.982140e+00 2.533976e-03 9.362576e-02 1.865573e-01 -6.185880e-02 -6.358808e-02 1.691219e-01 2.660285e-01 -3.542315e-01 -8.428360e-01 -3.819359e-01 -4.775967e-02 -6.978021e-03 8.486610e-03
<VARIANCE> 25
 1.654637e+01 9.158279e+00 8.549053e+00 1.576991e+01 9.020524e+00 1.145507e+01 1.030748e+01 1.664272e+01 1.181517e+01 9.615048e+00 1.283281e+01 1.089514e+01 5.952186e-02 1.595212e-01 2.183226e-01 3.116703e-01 6.109554e-01 6.155410e-01 8.632339e-01 8.679464e-01 8.362152e-01 9.455982e-01 6.209528e-01 6.479486e-01 3.817413e-02
<GCONST> 6.230537e+01
<STATE> 4
<MEAN> 25
 -1.431099e+01 4.501783e+00 -2.055464e-01 -4.747384e-01 2.521837e+00 3.769029e+00 1.430832e+00 2.849192e+00 6.886483e-01 -1.103607e+00 2.659396e+00 3.089765e+00 2.193638e-01 1.815821e-02 2.969398e-03 -1.314687e-01 -1.294887e-01 -2.195615e-01 -6.535533e-02 -7.066656e-02 -1.879177e-01 -2.806721e-02 -6.424152e-02 -6.290108e-02 2.004222e-01
<VARIANCE> 25
 8.383458e+00 7.782259e+00 9.155912e+00 1.554279e+01 1.105640e+01 1.448844e+01 1.660754e+01 2.230060e+01 1.484367e+01 1.063606e+01 1.213386e+01 1.035655e+01 8.930385e-01 5.763227e-01 7.018526e-01 9.671360e-01 1.283765e+00 1.548873e+00 1.596508e+00 1.271269e+00 1.411429e+00 1.074419e+00 1.072861e+00 1.199345e+00 1.838089e+00
<GCONST> 7.759000e+01
<TRANSP> 5
 0.000000e+00 1.000000e+00 0.000000e+00 0.000000e+00 0.000000e+00
 0.000000e+00 9.329844e-01 6.701568e-02 0.000000e+00 0.000000e+00
 0.000000e+00 0.000000e+00 4.024345e-01 5.975654e-01 0.000000e+00
 0.000000e+00 0.000000e+00 0.000000e+00 8.347744e-01 1.652256e-01
 0.000000e+00 0.000000e+00 0.000000e+00 0.000000e+00 0.000000e+00
<ENDHMM>
~h "g"
<BEGINHMM>
<NUMSTATES> 5
<STATE> 2
<MEAN> 25
 1.748950e+01 -1.335396e+01 8.447134e+00 9.218717e-02 -9.775172e+00 -8.722648e+00 -4.505262e+00 -4.503566e-01 -5.678793e+00 3.421756e+00 8.628379e-01 -6.191371e-01 2.836339e-01 1.000493e-01 8.924606e-01 -1.585862e-02 -1.344489e+00 1.725395e-01 9.768358e-01 -2.815164e-01 -9.538721e-01 2.496555e-01 1.755821e-01 9.339983e-02 1.534363e-01
<VARIANCE> 25
 1.679140e+01 3.062669e+01 1.008584e+02 1.505050e+02 9.313551e+01 8.235699e+01 7.014713e+01 7.006522e+01 8.925855e+01 5.072540e+01 4.671175e+01 3.479062e+01 2.308924e+00 4.090000e+00 8.342926e+00 1.161159e+01 6.005352e+00 4.451366e+00 7.201258e+00 7.209276e+00 4.690097e+00 5.813710e+00 5.024664e+00 3.843813e+00 2.726503e+00
<GCONST> 1.163976e+02
<STATE> 3
<MEAN> 25
 1.864388e+01 -1.779296e+00 5.546366e+00 1.488692e+00 -1.075107e+01 -3.621547e+00 1.209475e+00 -6.593290e+00 -8.911746e+00 1.072176e+00 -5.639246e-01 -5.746708e-01 1.704712e-01 3.914021e+00 -2.351246e+00 2.233063e+00 2.180547e-01 2.781197e-01 1.451411e+00 -2.213335e+00 5.690078e-01 -9.314635e-01 -2.993288e-01 -2.453188e-01 -2.779177e+00
<VARIANCE> 25
 1.510577e+01 8.779353e+01 7.781846e+01 1.443580e+02 1.099946e+02 5.635584e+01 1.400764e+02 1.177159e+02 1.005228e+02 7.288601e+01 3.452781e+01 3.214999e+01 6.214690e-01 7.396201e+00 4.129874e+00 1.231465e+01 6.740530e+00 3.451062e+00 8.257352e+00 9.016562e+00 5.478576e+00 7.660015e+00 3.226355e+00 2.631104e+00 3.380057e+00
<GCONST> 1.168225e+02
<STATE> 4
<MEAN> 25
 2.055470e+01 -1.132172e+00 -6.662664e+00 -9.071829e-01 -3.676276e+00 -1.866253e+00 -1.916547e+00 -1.277791e+01 -2.551219e+00 6.201658e+00 -2.538677e+00 -6.068783e+00 -8.718529e-02 1.726001e+00 -7.266411e-01 -1.929583e-01 7.227669e-01 1.749325e-01 -6.444122e-01 -3.071527e-01 4.220201e-01 -4.536873e-01 1.313523e-01 1.763842e-01 -1.019093e+00
<VARIANCE> 25
 1.213239e+01 9.280831e+01 5.786057e+01 7.039447e+01 6.231320e+01 2.469590e+01 6.260369e+01 4.435508e+01 3.792011e+01 4.447672e+01 3.236315e+01 3.020373e+01 4.341826e-01 4.261206e+00 2.722816e+00 5.004178e+00 2.995726e+00 2.130226e+00 3.778777e+00 3.454049e+00 3.182769e+00 2.151925e+00 2.915852e+00 1.456204e+00 1.941438e+00
<GCONST> 1.025519e+02
<TRANSP> 5
 0.000000e+00 1.000000e+00 0.000000e+00 0.000000e+00 0.000000e+00
 0.000000e+00 7.830732e-01 2.169267e-01 0.000000e+00 0.000000e+00
 0.000000e+00 0.000000e+00 5.916546e-01 4.083454e-01 0.000000e+00
 0.000000e+00 0.000000e+00 0.000000e+00 6.401439e-01 3.598561e-01
 0.000000e+00 0.000000e+00 0.000000e+00 0.000000e+00 0.000000e+00
<ENDHMM>
~h "k"
<BEGINHMM>
<NUMSTATES> 5
<STATE> 2
<MEAN> 25
 -1.874616e+00 2.288142e+00 6.148826e-01 -5.998922e+00 9.698600e+00 -7.857073e+00 -4.579984e+00 2.167614e+00 3.439778e+00 6.626831e-01 -1.986461e-01 1.075259e+00 -2.485234e+00 7.459203e-01 -1.033323e-01 6.896123e-02 6.955575e-01 -6.838839e-02 -4.128217e-02 3.426850e-01 4.869843e-01 -5.712810e-01 6.495208e-01 2.583641e-01 -1.215917e+00
<VARIANCE> 25
 1.854167e+02 5.100218e+01 5.304213e+01 9.597910e+01 9.533335e+01 6.628339e+01 6.959318e+01 3.846638e+01 3.943173e+01 3.521289e+01 3.375315e+01 3.065361e+01 1.067657e+01 8.632476e+00 6.667076e+00 6.078668e+00 6.626654e+00 6.055975e+00 6.744731e+00 5.414386e+00 4.316418e+00 4.318636e+00 3.680681e+00 2.715074e+00 4.867318e+00
<GCONST> 1.167835e+02
<STATE> 3
<MEAN> 25
 1.539425e+00 -4.192247e+00 -5.745785e+00 -6.425934e+00 1.220873e+01 -2.378900e+00 -7.348105e+00 2.791361e+00 2.040947e+00 1.751403e+00 1.199854e+00 2.046068e+00 2.822795e+00 -8.878915e-01 -1.409411e+00 -1.513751e+00 2.024633e-01 1.151466e+00 4.507889e-01 -2.901931e-01 -1.454562e+00 8.619087e-01 5.362676e-02 -8.462225e-01 1.278246e+00
<VARIANCE> 25
 7.989503e+01 7.375422e+01 7.512872e+01 9.367439e+01 1.089820e+02 1.146036e+02 8.292657e+01 6.943843e+01 6.004362e+01 5.315765e+01 4.702660e+01 3.631551e+01 9.383002e+00 9.472375e+00 9.626492e+00 1.264880e+01 1.973192e+01 8.743575e+00 9.684781e+00 8.161994e+00 6.370790e+00 5.851463e+00 5.061428e+00 5.006576e+00 2.372171e+01
<GCONST> 1.259169e+02
<STATE> 4
<MEAN> 25
 1.812099e+01 -7.639964e+00 -5.238841e+00 -1.803849e+01 7.536688e+00 1.374794e+00 -6.112854e+00 1.535981e+00 -5.982311e+00 7.730660e+00 4.023905e-01 -2.155979e+00 2.523864e+00 -1.546737e-01 7.898878e-01 -1.554151e+00 -9.823244e-01 6.768662e-01 -2.250447e-01 -5.219354e-01 -1.330393e+00 2.450081e-01 5.646609e-01 -3.958624e-01 1.819760e+00
<VARIANCE> 25
 1.793341e+01 6.336140e+01 1.092070e+02 7.185880e+01 4.746219e+01 7.293970e+01 4.548948e+01 4.409294e+01 5.404315e+01 5.927182e+01 5.219122e+01 2.700004e+01 5.030256e+00 3.764687e+00 6.444880e+00 7.375040e+00 4.912954e+00 6.401290e+00 5.755553e+00 5.696495e+00 5.099012e+00 4.057577e+00 4.434208e+00 2.992135e+00 4.962701e+00
<GCONST> 1.139843e+02
<TRANSP> 5
 0.000000e+00 1.000000e+00 0.000000e+00 0.000000e+00 0.000000e+00
 0.000000e+00 8.819396e-01 1.180604e-01 0.000000e+00 0.000000e+00
 0.000000e+00 0.000000e+00 8.267748e-01 1.732252e-01 0.000000e+00
 0.000000e+00 0.000000e+00 0.000000e+00 7.208196e-01 2.791804e-01
 0.000000e+00 0.000000e+00 0.000000e+00 0.000000e+00 0.000000e+00
<ENDHMM>
~h "l"
<BEGINHMM>
<NUMSTATES> 5
<STATE> 2
<MEAN> 25
 8.137541e-01 7.248390e+00 -1.784547e+00 -6.873786e-01 -2.790562e-01 1.470041e-02 -8.404900e-01 -1.872034e+00 1.592847e+00 3.900369e-01 1.368279e+00 1.675686e+00 -1.316253e+00 -1.651976e+00 4.309876e-01 5.843224e-01 -3.339685e-01 -8.204296e-01 4.884962e-01 9.243374e-01 2.835797e-01 -2.101052e-01 1.155304e-01 3.130216e-01 5.930296e-02
<VARIANCE> 25
 1.257163e+02 7.448705e+01 4.912804e+01 5.734232e+01 3.835772e+01 5.734988e+01 3.215005e+01 3.470930e+01 2.743187e+01 2.544543e+01 2.560267e+01 1.992332e+01 8.448817e+00 4.224577e+00 4.155376e+00 2.847066e+00 4.325659e+00 5.344484e+00 3.479816e+00 3.143520e+00 2.363733e+00 1.888585e+00 2.083689e+00 1.766398e+00 1.006618e+01
<GCONST> 1.072183e+02
<STATE> 3
<MEAN> 25
 2.234734e+00 2.833532e+00 -4.028687e-01 1.507323e-01 1.263503e-01 -2.591057e-01 -9.385588e-01 -1.867449e+00 1.291862e+00 -7.250175e-01 6.252908e-01 8.718667e-01 9.060082e-01 -3.567484e+00 7.560657e-01 5.503404e-01 -6.640392e-01 -1.937574e+00 3.687366e-01 8.392705e-01 -2.514495e-02 -3.989688e-01 -4.510719e-01 1.628634e-01 3.382426e+00
<VARIANCE> 25
 1.308407e+02 1.385891e+02 5.031034e+01 7.661076e+01 5.630888e+01 5.087447e+01 3.590206e+01 4.408943e+01 3.798246e+01 2.551174e+01 2.888829e+01 2.176315e+01 1.143546e+01 8.387498e+00 6.365028e+00 5.852333e+00 7.572921e+00 7.469333e+00 4.048323e+00 4.442084e+00 3.194790e+00 3.318991e+00 3.231132e+00 2.024401e+00 1.753041e+01
<GCONST> 1.148657e+02
<STATE> 4
<MEAN> 25
 6.512434e+00 -6.527637e+00 8.925422e-01 1.609597e+00 7.490748e-02 -5.848956e+00 -1.029560e+00 7.098390e-01 1.947725e+00 -1.184310e+00 -1.426810e+00 1.420300e+00 2.137477e+00 -2.669160e+00 1.280050e+00 3.610645e-01 -1.326413e+00 -1.345145e+00 -2.216704e-01 2.460245e-01 -4.880639e-01 -2.651871e-01 -1.498683e-01 -2.919016e-01 3.391427e+00
<VARIANCE> 25
 9.750559e+01 1.030418e+02 7.712236e+01 9.232562e+01 6.477196e+01 9.344357e+01 5.566062e+01 5.468416e+01 4.746785e+01 3.286267e+01 3.300127e+01 2.864018e+01 1.025893e+01 1.114859e+01 7.799459e+00 5.581413e+00 9.467655e+00 5.982198e+00 6.794241e+00 4.703207e+00 5.438588e+00 4.634782e+00 5.144178e+00 3.137159e+00 1.302549e+01
<GCONST> 1.195547e+02
<TRANSP> 5
 0.000000e+00 1.000000e+00 0.000000e+00 0.000000e+00 0.000000e+00
 0.000000e+00 5.092300e-01 4.907700e-01 0.000000e+00 0.000000e+00
 0.000000e+00 0.000000e+00 2.119790e-02 9.788021e-01 0.000000e+00
 0.000000e+00 0.000000e+00 0.000000e+00 4.868996e-01 5.131004e-01
 0.000000e+00 0.000000e+00 0.000000e+00 0.000000e+00 0.000000e+00
<ENDHMM>
~h "m"
<BEGINHMM>
<NUMSTATES> 5
<STATE> 2
<MEAN> 25
 2.046748e+00 6.933856e+00 7.250574e+00 -3.729804e+00 6.044447e+00 -1.568367e+01 -1.558816e-01 2.134924e+00 1.192000e+00 -4.199757e+00 -5.182325e+00 2.606858e+00 6.777544e-01 -7.269487e-01 1.359676e+00 -1.268137e+00 4.454967e-01 -1.028220e+00 -1.123554e+00 3.058820e-01 -3.949413e-01 -3.311209e-01 -6.641124e-02 -6.870797e-02 3.645077e+00
<VARIANCE> 25
 6.615390e+01 9.990900e+01 7.765391e+01 9.710210e+01 1.634124e+02 1.287916e+02 1.184450e+02 7.402231e+01 6.614098e+01 4.959966e+01 5.028119e+01 2.915740e+01 1.110879e+01 9.632463e+00 7.654162e+00 9.369509e+00 1.498000e+01 1.172857e+01 9.088013e+00 8.547236e+00 9.485631e+00 6.904438e+00 5.645300e+00 4.189427e+00 4.143779e+00
<GCONST> 1.253244e+02
<STATE> 3
<MEAN> 25
 1.509014e+01 -1.034717e+01 1.211400e+01 -1.356707e+01 3.059237e+00 -7.625252e+00 -1.406963e+01 -3.045830e+00 -1.819593e+00 3.588488e+00 -8.575780e-01 -2.011400e+00 3.261206e+00 -1.992840e+00 -3.364559e-01 -7.742592e-01 -1.105909e+00 2.339927e+00 -2.697476e-01 -1.383638e+00 -6.362864e-01 1.657692e+00 8.791912e-01 -3.173171e-01 1.479241e-01
<VARIANCE> 25
 5.657594e+01 4.478279e+01 3.374184e+01 7.454412e+01 3.261386e+01 5.935023e+01 6.752062e+01 9.189300e+01 3.157947e+01 5.956276e+01 3.222422e+01 1.210590e+01 2.579188e+00 2.641753e+00 3.581941e+00 7.753304e+00 7.471996e+00 8.519942e+00 7.887316e+00 8.175811e+00 4.455360e+00 6.418018e+00 1.960690e+00 2.574897e+00 1.886250e+00
<GCONST> 1.105915e+02
<STATE> 4
<MEAN> 25
 2.102585e+01 -4.334732e+00 7.071523e+00 -4.965547e+00 -7.903486e+00 9.853716e-02 4.519363e-02 -7.124241e+00 -9.354055e+00 1.330387e+00 1.390791e+00 -1.723782e+00 -2.418801e-01 9.121340e-01 -4.638318e-01 6.414068e-01 -1.184360e-01 -9.437675e-02 4.356061e-01 -3.462954e-02 2.568309e-02 -2.091049e-01 -8.957542e-02 -7.446241e-02 -1.002907e+00
<VARIANCE> 25
 4.029771e+01 1.342615e+02 1.491822e+02 1.756823e+02 5.537289e+01 9.139248e+01 1.079502e+02 1.634783e+02 7.746194e+01 7.109356e+01 4.154877e+01 2.971673e+01 2.304672e+00 6.991337e+00 7.917956e+00 8.935870e+00 3.438572e+00 5.040068e+00 5.587705e+00 1.104246e+01 6.717025e+00 7.946604e+00 2.964539e+00 3.143307e+00 5.182860e+00
<GCONST> 1.206252e+02
<TRANSP> 5
 0.000000e+00 1.000000e+00 0.000000e+00 0.000000e+00 0.000000e+00
 0.000000e+00 8.874746e-01 1.125254e-01 0.000000e+00 0.000000e+00
 0.000000e+00 0.000000e+00 8.085628e-01 1.914372e-01 0.000000e+00
 0.000000e+00 0.000000e+00 0.000000e+00 9.573352e-01 4.266484e-02
 0.000000e+00 0.000000e+00 0.000000e+00 0.000000e+00 0.000000e+00
<ENDHMM>
~h "n"
<BEGINHMM>
<NUMSTATES> 5
<STATE> 2
<MEAN> 25
 -5.761561e-01 9.956686e+00 3.573818e+00 6.405457e+00 -1.285784e+00 -1.241678e+00 -1.089992e+00 -2.548810e+00 -1.865332e+00 -4.509011e+00 -3.843061e+00 -2.064398e+00 -1.696042e+00 -1.411288e+00 -7.141079e-01 1.347992e-01 4.187813e-01 2.252377e-01 1.152430e-01 1.154480e-01 2.004245e-01 2.184538e-01 1.929620e-01 -6.437930e-02 -8.822985e-01
<VARIANCE> 25
 5.302830e+01 4.019141e+01 4.555255e+01 2.466509e+01 1.561532e+01 2.173952e+01 2.099706e+01 2.117856e+01 2.893362e+01 2.261756e+01 1.503276e+01 1.759785e+01 4.169883e+00 3.036583e+00 2.586825e+00 2.730932e+00 1.892521e+00 2.415766e+00 1.784519e+00 1.723628e+00 1.695793e+00 2.324018e+00 1.026352e+00 9.757140e-01 1.209105e+00
<GCONST> 9.332211e+01
<STATE> 3
<MEAN> 25
 -7.724323e+00 6.412340e+00 1.438240e+00 8.004791e+00 2.671217e+00 2.483222e+00 -7.351650e-01 -1.961018e+00 -1.618711e+00 -4.207191e+00 -1.105525e+00 -1.672860e+00 -4.526981e-01 -3.286407e-01 -2.113898e-01 -1.242933e-01 -1.026237e-01 4.158160e-02 1.057808e-01 1.320281e-01 1.740398e-01 2.638059e-01 1.961461e-01 1.480284e-01 -2.460480e-01
<VARIANCE> 25
 1.174445e+01 1.954267e+01 2.586568e+01 1.781112e+01 1.078705e+01 1.270231e+01 1.097961e+01 1.467105e+01 1.849160e+01 1.358087e+01 1.876631e+01 1.688939e+01 2.587355e-01 5.854126e-01 9.789672e-01 9.661666e-01 6.607138e-01 1.082845e+00 1.116932e+00 1.642080e+00 1.185963e+00 1.515279e+00 1.936892e+00 2.129285e+00 7.754017e-02
<GCONST> 7.657713e+01
<STATE> 4
<MEAN> 25
 -8.561228e+00 1.795586e+00 -8.161831e-01 2.089163e+00 4.837277e-01 1.805120e+00 3.152209e-01 4.982624e-01 -7.799557e-02 -1.037257e+00 -6.644071e-01 1.122261e-01 -2.067038e-02 2.111758e-02 3.947329e-03 -3.724973e-02 6.277201e-03 1.921879e-02 4.287560e-03 4.194012e-02 3.886467e-02 -1.016316e-02 6.808460e-03 4.410671e-02 -1.646639e-02
<VARIANCE> 25
 5.520536e+00 5.685894e+00 1.314656e+01 9.748453e+00 8.459799e+00 1.233098e+01 1.389454e+01 1.240385e+01 1.608128e+01 1.349584e+01 1.365281e+01 1.329568e+01 1.310647e-01 2.829193e-01 4.209474e-01 5.953563e-01 6.822785e-01 9.427655e-01 1.138182e+00 1.311621e+00 1.412420e+00 1.466970e+00 1.414113e+00 1.307044e+00 3.817413e-02
<GCONST> 6.798315e+01
<TRANSP> 5
 0.000000e+00 1.000000e+00 0.000000e+00 0.000000e+00 0.000000e+00
 0.000000e+00 7.897431e-01 2.102570e-01 0.000000e+00 0.000000e+00
 0.000000e+00 0.000000e+00 7.964197e-01 2.035803e-01 0.000000e+00
 0.000000e+00 0.000000e+00 0.000000e+00 9.535770e-01 4.642299e-02
 0.000000e+00 0.000000e+00 0.000000e+00 0.000000e+00 0.000000e+00
<ENDHMM>
~h "r"
<BEGINHMM>
<NUMSTATES> 5
<STATE> 2
<MEAN> 25
 9.603225e-01 6.230345e+00 -1.530559e+00 -2.133934e-01 -4.818608e-01 -1.060607e+00 2.045939e+00 -1.173712e+00 -6.028563e-02 3.953251e-01 9.358799e-01 8.460903e-01 -1.152700e+00 1.590463e-01 3.585418e-01 1.834124e-01 -4.381806e-01 -1.443810e-01 1.646564e-01 4.013628e-04 -1.891665e-04 -4.593834e-01 -7.246514e-02 1.925543e-01 -1.082025e+00
<VARIANCE> 25
 1.762418e+02 1.062500e+02 4.994382e+01 5.068498e+01 5.619456e+01 4.610678e+01 3.957129e+01 3.947648e+01 4.109624e+01 3.394019e+01 2.127600e+01 2.241520e+01 5.708731e+00 4.349494e+00 4.054868e+00 2.970754e+00 4.486277e+00 2.875458e+00 4.764670e+00 4.246751e+00 3.739822e+00 3.077601e+00 2.065457e+00 1.849209e+00 3.386806e+00
<GCONST> 1.085111e+02
<STATE> 3
<MEAN> 25
 9.926546e-01 6.487840e+00 1.453181e-01 1.505121e+00 -2.672459e+00 -9.152380e-01 -9.340556e-02 -2.555095e+00 -2.485482e-01 -1.885133e+00 -7.703519e-01 3.910485e-01 -1.943275e-01 -1.716069e-01 4.253769e-01 1.761234e-01 2.892026e-01 1.081070e-01 6.691357e-03 1.821464e-02 4.485440e-02 -2.199277e-01 -2.446278e-01 3.421040e-02 2.663683e-02
<VARIANCE> 25
 1.561444e+02 1.274589e+02 5.558434e+01 4.352832e+01 3.813599e+01 3.121700e+01 3.339454e+01 3.150245e+01 2.895407e+01 2.772625e+01 2.011236e+01 1.710279e+01 3.086896e+00 3.738565e+00 3.101377e+00 1.960795e+00 1.937764e+00 1.349461e+00 1.929240e+00 2.720540e+00 2.149573e+00 1.552422e+00 1.265812e+00 1.347711e+00 1.825672e+00
<GCONST> 9.941748e+01
<STATE> 4
<MEAN> 25
 2.484763e+00 2.623021e+00 -5.159262e-01 1.312428e+00 -1.618119e+00 -1.366623e+00 1.082372e+00 -2.147898e+00 9.148477e-02 -4.948198e-01 -1.161975e+00 4.461262e-01 1.303781e+00 -1.755106e+00 7.548455e-01 -1.422940e-01 3.556226e-01 -6.608197e-01 -7.154970e-02 -1.193087e-01 3.084154e-01 1.899788e-01 -9.445327e-02 3.410150e-01 2.704527e+00
<VARIANCE> 25
 1.727012e+02 1.350386e+02 5.142836e+01 5.218383e+01 5.494041e+01 5.374753e+01 4.551122e+01 4.592504e+01 3.333552e+01 3.328870e+01 2.144416e+01 1.924918e+01 7.551933e+00 1.361278e+01 8.521499e+00 4.984682e+00 4.543587e+00 6.292362e+00 5.523198e+00 5.172353e+00 4.838945e+00 2.614037e+00 2.461435e+00 1.840436e+00 1.215559e+01
<GCONST> 1.142025e+02
<TRANSP> 5
 0.000000e+00 1.000000e+00 0.000000e+00 0.000000e+00 0.000000e+00
 0.000000e+00 4.051726e-01 5.948275e-01 0.000000e+00 0.000000e+00
 0.000000e+00 0.000000e+00 3.257646e-01 6.742355e-01 0.000000e+00
 0.000000e+00 0.000000e+00 0.000000e+00 2.092513e-01 7.907487e-01
 0.000000e+00 0.000000e+00 0.000000e+00 0.000000e+00 0.000000e+00
<ENDHMM>
~h "s"
<BEGINHMM>
<NUMSTATES> 5
<STATE> 2
<MEAN> 25
 1.473505e+01 -9.443810e+00 7.663452e+00 2.294665e+00 -5.668831e+00 -1.048099e+01 -2.008895e+00 3.152945e+00 -8.016674e-01 -1.376284e+00 -2.300384e+00 8.486022e-01 2.325766e+00 -1.694377e+00 1.021112e+00 -7.989217e-01 -8.758042e-01 -7.233028e-01 -1.449817e+00 1.229734e+00 -1.291511e+00 -3.618869e-01 8.632939e-01 -4.054713e-02 2.325378e+00
<VARIANCE> 25
 4.028416e+01 5.808105e+01 6.667209e+01 9.557358e+01 7.429172e+01 5.736098e+01 7.077078e+01 5.288781e+01 6.768144e+01 4.079421e+01 4.603058e+01 3.437550e+01 5.852334e+00 1.311180e+01 1.312720e+01 1.039701e+01 7.181883e+00 8.924674e+00 8.450924e+00 4.729864e+00 1.190797e+01 4.417310e+00 5.706701e+00 3.166286e+00 9.150880e+00
<GCONST> 1.205153e+02
<STATE> 3
<MEAN> 25
 1.831589e+01 -1.625234e+01 9.152750e+00 -3.142562e+00 -6.584349e+00 -8.426847e+00 -7.258357e+00 5.037560e+00 -2.146166e-01 -1.577865e+00 -7.885947e-01 -4.065963e-01 6.976930e-01 -1.130400e+00 -4.291582e-01 -1.281368e+00 -8.885548e-02 7.458657e-01 -1.337169e-01 3.173393e-02 2.518790e-01 4.669572e-01 -3.104053e-02 -7.291740e-01 1.112360e+00
<VARIANCE> 25
 3.410311e+01 2.755665e+01 9.948570e+01 6.922800e+01 7.591837e+01 6.385356e+01 5.767045e+01 9.006178e+01 1.096887e+02 6.231618e+01 4.136690e+01 3.201995e+01 3.334603e+00 2.940706e+00 7.881151e+00 8.196616e+00 7.213008e+00 6.865926e+00 8.503640e+00 6.863740e+00 7.153045e+00 6.478108e+00 4.514108e+00 4.388336e+00 1.968120e+00
<GCONST> 1.166098e+02
<STATE> 4
<MEAN> 25
 1.959491e+01 -1.373231e+01 4.294291e+00 -1.377065e+01 -1.637794e+00 -2.182431e+00 -5.496200e+00 7.027643e-02 -1.576957e+00 5.291011e+00 -1.121504e-01 -3.432302e+00 -4.973097e-02 6.817246e-01 -3.715392e-01 -4.607202e-01 7.557515e-01 3.155554e-01 -1.696998e-01 -4.163829e-01 -8.068641e-02 6.046144e-01 -2.652827e-01 1.002095e-01 -2.590259e-01
<VARIANCE> 25
 2.440081e+01 3.517747e+01 1.399992e+02 1.110257e+02 9.290685e+01 6.242625e+01 9.883840e+01 1.064143e+02 5.185604e+01 4.313379e+01 4.753589e+01 4.821414e+01 6.257018e-01 1.391876e+00 2.138984e+00 2.574720e+00 2.768656e+00 2.991287e+00 3.183215e+00 3.011604e+00 3.092497e+00 2.210711e+00 2.419535e+00 2.587051e+00 4.707688e-01
<GCONST> 1.046749e+02
<TRANSP> 5
 0.000000e+00 1.000000e+00 0.000000e+00 0.000000e+00 0.000000e+00
 0.000000e+00 4.554202e-01 5.445798e-01 0.000000e+00 0.000000e+00
 0.000000e+00 0.000000e+00 7.584292e-01 2.415708e-01 0.000000e+00
 0.000000e+00 0.000000e+00 0.000000e+00 9.043624e-01 9.563757e-02
 0.000000e+00 0.000000e+00 0.000000e+00 0.000000e+00 0.000000e+00
<ENDHMM>
~h "t"
<BEGINHMM>
<NUMSTATES> 5
<STATE> 2
<MEAN> 25
 7.322471e+00 -7.314680e+00 2.066568e+00 -4.173851e-02 -3.065326e-01 -1.346462e+01 2.605687e+00 5.680779e-01 2.709748e+00 -6.911740e-01 -3.447731e+00 2.954217e+00 1.428251e+00 -1.577371e+00 1.956139e+00 -2.190481e+00 5.601586e-01 -8.499807e-01 -1.444947e+00 2.062524e-01 -8.402831e-01 1.143530e-01 5.641413e-01 -1.447042e-01 4.110147e+00
<VARIANCE> 25
 7.991142e+01 6.633071e+01 4.832863e+01 7.576626e+01 7.272562e+01 8.975895e+01 6.482410e+01 6.845766e+01 7.386040e+01 3.719431e+01 4.954992e+01 3.430713e+01 2.218569e+01 1.631392e+01 1.037359e+01 6.325980e+00 9.909228e+00 6.534420e+00 8.975116e+00 6.404577e+00 8.910054e+00 4.786228e+00 5.768790e+00 4.101969e+00 1.792351e+01
<GCONST> 1.233669e+02
<STATE> 3
<MEAN> 25
 1.415191e+01 -1.293990e+01 8.880901e+00 -5.740562e+00 -3.933802e+00 -8.478804e+00 -7.193095e+00 2.504346e+00 -1.978225e-01 1.034522e-01 9.075596e-01 -3.564464e-01 1.362131e+00 -5.391818e-01 -1.054703e-01 -1.499810e+00 -3.305597e-01 1.806624e+00 -7.586544e-01 -4.070315e-01 -6.012112e-01 8.541767e-01 1.565837e-01 -8.941641e-01 1.124950e+00
<VARIANCE> 25
 5.383344e+01 4.941979e+01 1.120607e+02 6.955642e+01 6.355051e+01 7.013939e+01 6.680400e+01 1.328713e+02 1.096581e+02 4.772905e+01 5.309462e+01 4.001853e+01 7.872542e+00 6.202486e+00 9.513974e+00 8.647619e+00 6.355463e+00 8.435337e+00 9.833426e+00 9.778161e+00 1.046442e+01 5.455799e+00 4.922939e+00 3.514701e+00 3.937265e+00
<GCONST> 1.216242e+02
<STATE> 4
<MEAN> 25
 1.876244e+01 -5.199015e+00 2.086172e-01 -1.494523e+01 8.429798e-01 4.491997e+00 -7.526958e+00 -3.623426e+00 -3.921414e+00 4.335713e+00 8.743072e-02 -9.086273e-01 -3.511238e-01 1.270692e+00 -6.534277e-01 2.121455e-01 3.074871e-01 3.228553e-01 3.664964e-01 -3.552107e-01 -3.948499e-02 -1.245917e-02 1.228117e-01 2.035433e-01 -1.095366e+00
<VARIANCE> 25
 2.756005e+01 1.398477e+02 1.162558e+02 1.145683e+02 7.728297e+01 6.071252e+01 8.994673e+01 1.113755e+02 7.344862e+01 4.302992e+01 3.399961e+01 3.603178e+01 1.800347e+00 2.291521e+00 3.965115e+00 5.369280e+00 3.318575e+00 3.417434e+00 3.915908e+00 3.574412e+00 4.401327e+00 3.044243e+00 2.498342e+00 1.901798e+00 1.580539e+00
<GCONST> 1.106898e+02
<TRANSP> 5
 0.000000e+00 1.000000e+00 0.000000e+00 0.000000e+00 0.000000e+00
 0.000000e+00 3.483387e-01 6.516612e-01 0.000000e+00 0.000000e+00
 0.000000e+00 0.000000e+00 7.667552e-01 2.332447e-01 0.000000e+00
 0.000000e+00 0.000000e+00 0.000000e+00 9.101545e-01 8.984552e-02
 0.000000e+00 0.000000e+00 0.000000e+00 0.000000e+00 0.000000e+00
<ENDHMM>
~h "w"
<BEGINHMM>
<NUMSTATES> 5
<STATE> 2
<MEAN> 25
 2.556017e+01 -1.730046e+00 -6.570062e+00 -1.680067e+01 -2.466743e+00 3.764708e+00 -5.889069e-01 -4.473948e+00 -1.086817e+01 1.949238e+00 8.062897e+00 -2.014396e-01 5.703759e-01 -3.261830e+00 5.835876e-01 1.177775e+00 1.255491e-01 -1.731013e+00 4.161319e-02 -1.148086e-01 1.489766e-01 1.680485e+00 9.296890e-01 -1.415131e+00 2.317951e+00
<VARIANCE> 25
 1.431711e+01 6.598804e+01 7.420754e+01 7.556986e+01 5.242509e+01 4.004202e+01 4.908511e+01 4.993299e+01 5.009489e+01 4.857051e+01 3.503474e+01 2.985645e+01 2.761796e+00 3.426501e+00 7.061956e+00 7.282323e+00 9.324446e+00 7.746533e+00 6.461851e+00 4.416315e+00 7.996891e+00 4.481063e+00 5.965722e+00 4.953325e+00 1.405735e+00
<GCONST> 1.127573e+02
<STATE> 3
<MEAN> 25
 2.241057e+01 -1.490110e+01 -4.532130e+00 -9.819354e+00 1.388229e+00 -5.627673e+00 -2.232487e+00 2.819526e-01 -4.090971e+00 6.892426e+00 4.364927e+00 -8.621070e+00 -1.053943e+00 -1.862125e+00 6.476247e-01 1.741311e+00 -2.325161e-02 -1.961124e+00 3.004362e-01 1.772537e+00 2.582160e+00 -1.173396e+00 -2.567113e+00 -1.322841e+00 9.800894e-01
<VARIANCE> 25
 2.538901e+01 2.052487e+01 5.634434e+01 1.013681e+02 4.834703e+01 5.774739e+01 7.652955e+01 7.117426e+01 7.029964e+01 4.685564e+01 5.047273e+01 3.586479e+01 4.972848e-01 2.222117e+00 2.124354e+00 2.024067e+00 3.492980e+00 2.763826e+00 3.792177e+00 2.842692e+00 3.707111e+00 3.410043e+00 2.169584e+00 3.012023e+00 5.082906e-01
<GCONST> 1.029324e+02
<STATE> 4
<MEAN> 25
 1.803696e+01 -1.899663e+01 1.720778e+00 -9.121771e+00 -9.671469e-01 -7.831440e+00 -5.561972e-01 9.546715e+00 4.531811e-01 8.317444e-01 -2.617766e+00 -8.582580e+00 2.079280e-01 -1.665275e-01 4.188853e-01 1.004253e+00 -1.073324e+00 2.641353e-01 7.631916e-02 4.257473e-02 2.818585e-01 -2.871919e-01 -1.236951e+00 4.391812e-01 -5.494890e-01
<VARIANCE> 25
 2.081989e+01 2.097046e+01 4.243166e+01 7.246041e+01 4.875195e+01 5.636987e+01 5.673512e+01 6.665788e+01 3.934452e+01 3.591850e+01 3.426517e+01 2.635865e+01 8.968428e-01 1.583465e+00 1.454615e+00 1.821022e+00 1.754152e+00 3.218891e+00 3.195722e+00 5.202165e+00 3.060855e+00 3.913485e+00 2.637642e+00 2.910560e+00 8.886122e-01
<GCONST> 1.005431e+02
<TRANSP> 5
 0.000000e+00 1.000000e+00 0.000000e+00 0.000000e+00 0.000000e+00
 0.000000e+00 7.186421e-01 2.813579e-01 0.000000e+00 0.000000e+00
 0.000000e+00 0.000000e+00 7.059705e-01 2.940295e-01 0.000000e+00
 0.000000e+00 0.000000e+00 0.000000e+00 7.716584e-01 2.283416e-01
 0.000000e+00 0.000000e+00 0.000000e+00 0.000000e+00 0.000000e+00
<ENDHMM>
~h "z"
<BEGINHMM>
<NUMSTATES> 5
<STATE> 2
<MEAN> 25
 -6.438596e+00 1.070718e+00 -2.560383e+00 9.453528e-01 9.760910e-01 7.663171e-01 -8.679570e-01 2.242020e+00 1.081228e+00 5.078130e-02 4.000890e-01 7.474952e-01 -5.659116e-03 1.766842e-03 -5.236956e-02 -1.530914e-02 2.806546e-02 1.579053e-02 -4.350223e-03 6.984605e-02 3.962985e-02 -2.988832e-02 -6.402413e-02 -5.856759e-03 -2.271013e-02
<VARIANCE> 25
 2.119449e+00 2.028077e+00 5.123308e+00 1.231653e+01 1.478705e+01 9.684467e+00 1.302872e+01 1.125427e+01 1.278435e+01 1.103833e+01 1.049011e+01 8.051887e+00 1.121918e-01 2.517006e-01 3.520181e-01 8.316153e-01 7.316368e-01 7.671735e-01 1.219968e+00 1.172626e+00 1.278168e+00 1.182595e+00 9.462336e-01 8.297175e-01 3.817413e-02
<GCONST> 6.277866e+01
<STATE> 3
<MEAN> 25
 -7.298209e+00 -7.461592e-01 -2.858208e+00 1.547288e+00 -6.572726e-01 1.521729e-01 5.063403e-01 2.517241e+00 3.516597e+00 -1.690072e-01 -1.252175e+00 -7.433267e-02 3.660572e-01 3.134772e-01 4.500659e-01 1.038411e-01 2.514846e-01 2.734321e-03 -1.201070e-01 -9.380312e-02 -4.941744e-02 8.781826e-02 -2.056115e-01 -3.291903e-01 2.615688e-01
<VARIANCE> 25
 6.968553e+00 1.340563e+01 2.695604e+01 9.892041e+00 9.478573e+00 1.293600e+01 1.714229e+01 1.206978e+01 3.123870e+01 9.702963e+00 1.418397e+01 1.285353e+01 1.042240e+00 1.751874e+00 4.049451e+00 1.480268e+00 1.453225e+00 1.240802e+00 2.355083e+00 1.511430e+00 4.456856e+00 1.331669e+00 1.534369e+00 1.646663e+00 9.291294e-01
<GCONST> 8.401734e+01
<STATE> 4
<MEAN> 25
 1.426731e+01 -6.140548e-01 5.788756e-01 -1.293513e+01 7.842554e+00 1.568631e+00 -7.755099e+00 -5.107515e+00 -2.128797e+00 9.634412e-01 -1.496583e+00 -6.944630e-01 2.312686e-01 -5.462603e-02 -9.153214e-02 -1.008908e-01 2.043512e-02 1.571311e-01 -9.882526e-02 -3.694044e-01 -3.022942e-01 2.267795e-02 2.252624e-01 -9.741597e-04 1.777913e-01
<VARIANCE> 25
 1.956012e+02 1.290017e+02 8.837415e+01 1.265327e+02 3.673690e+01 1.471515e+02 7.295280e+01 6.278937e+01 3.714252e+01 5.154017e+01 4.410611e+01 2.793769e+01 7.587004e+00 8.995916e+00 6.989079e+00 9.574651e+00 3.948909e+00 6.278480e+00 7.773333e+00 6.313807e+00 5.147387e+00 6.825208e+00 5.141716e+00 3.126817e+00 9.006168e+00
<GCONST> 1.211685e+02
<TRANSP> 5
 0.000000e+00 1.000000e+00 0.000000e+00 0.000000e+00 0.000000e+00
 0.000000e+00 9.519469e-01 4.805310e-02 0.000000e+00 0.000000e+00
 0.000000e+00 0.000000e+00 8.034649e-01 1.965350e-01 0.000000e+00
 0.000000e+00 0.000000e+00 0.000000e+00 9.071522e-01 9.284779e-02
 0.000000e+00 0.000000e+00 0.000000e+00 0.000000e+00 0.000000e+00
<ENDHMM>
~h "ae"
<BEGINHMM>
<NUMSTATES> 5
<STATE> 2
<MEAN> 25
 1.913826e+01 -2.227553e+01 -2.435584e+00 -5.549482e+00 -1.484057e+00 -1.032407e+00 -4.852718e-01 3.727865e+00 2.921262e+00 2.876823e+00 -3.975426e+00 -4.990418e+00 5.360216e-03 -1.735131e+00 3.842635e-01 -1.139938e-02 -8.036667e-02 -1.409261e+00 1.585240e+00 1.093786e+00 -8.972723e-01 -1.058790e-01 -1.805740e+00 -2.884100e-01 1.304438e+00
<VARIANCE> 25
 2.500028e+01 1.602690e+01 6.767282e+01 1.170234e+02 6.596745e+01 8.292940e+01 5.445351e+01 4.010279e+01 2.118574e+01 3.388353e+01 2.919183e+01 1.909418e+01 3.708669e+00 3.116514e+00 6.147775e+00 6.893560e+00 9.029369e+00 5.276992e+00 4.343904e+00 5.620165e+00 4.652356e+00 2.786399e+00 1.940993e+00 2.759198e+00 1.228911e+00
<GCONST> 1.078121e+02
<STATE> 3
<MEAN> 25
 1.819551e+01 -2.367412e+01 1.056915e+00 9.832171e-01 -8.152669e+00 -8.019267e+00 7.940325e+00 6.165869e+00 -2.978654e+00 -1.682116e+00 -8.148160e+00 -2.003437e+00 -5.082184e-01 4.635815e-01 1.127960e+00 -2.726139e-01 -5.978136e-01 -4.917173e-01 1.013647e+00 1.094935e+00 -1.478683e+00 -7.298554e-01 8.091717e-01 -1.257433e-01 -2.252070e-01
<VARIANCE> 25
 1.524577e+01 2.635200e+01 4.518164e+01 1.028615e+02 6.066016e+01 2.997844e+01 5.916946e+01 4.903672e+01 2.903657e+01 2.212318e+01 2.616460e+01 1.665883e+01 5.665170e-01 1.959511e+00 3.990544e+00 2.546882e+00 3.847253e+00 1.938133e+00 2.646409e+00 2.623595e+00 1.542134e+00 1.436991e+00 1.432284e+00 1.607394e+00 1.163426e+00
<GCONST> 9.655916e+01
<STATE> 4
<MEAN> 25
 1.329501e+01 -2.065495e+01 1.548093e+01 -1.167086e+01 -9.693136e+00 -5.497116e+00 1.098393e+00 1.559838e+01 -9.235666e+00 -6.912413e-01 2.995723e+00 -4.901230e+00 -3.743006e-02 9.184303e-01 6.422575e-01 2.874444e-01 -6.115940e-01 2.018183e-01 4.585527e-01 -3.148346e-01 -1.227323e+00 1.794755e-01 5.933946e-01 -2.269813e-01 -5.642833e-01
<VARIANCE> 25
 8.076265e+00 1.731515e+01 4.721504e+01 3.712340e+01 5.132186e+01 2.665409e+01 4.076885e+01 3.148032e+01 4.269992e+01 3.323174e+01 3.007186e+01 2.645592e+01 2.983043e-01 1.886470e+00 2.131848e+00 1.409499e+00 2.610657e+00 1.361003e+00 2.235869e+00 2.469467e+00 3.029545e+00 2.122259e+00 2.126005e+00 1.327548e+00 7.461300e-01
<GCONST> 9.277885e+01
<TRANSP> 5
 0.000000e+00 1.000000e+00 0.000000e+00 0.000000e+00 0.000000e+00
 0.000000e+00 7.249556e-01 2.750444e-01 0.000000e+00 0.000000e+00
 0.000000e+00 0.000000e+00 7.907134e-01 2.092866e-01 0.000000e+00
 0.000000e+00 0.000000e+00 0.000000e+00 8.714527e-01 1.285473e-01
 0.000000e+00 0.000000e+00 0.000000e+00 0.000000e+00 0.000000e+00
<ENDHMM>
~h "ah"
<BEGINHMM>
<NUMSTATES> 5
<STATE> 2
<MEAN> 25
 2.187327e+01 -6.492450e+00 -5.289607e+00 -6.577202e+00 -2.356668e+00 -7.065824e-02 -3.623713e+00 -7.614959e+00 -3.583176e+00 6.537409e+00 -3.406670e+00 -5.333896e+00 -2.168813e-02 1.396563e+00 -1.832232e-01 7.723706e-01 -7.006016e-01 7.124494e-01 2.970584e-03 -1.183862e+00 1.018417e-01 -3.088594e-01 -3.692492e-01 2.945651e-01 -1.164044e+00
<VARIANCE> 25
 1.655076e+01 4.876524e+01 6.800777e+01 1.833999e+02 7.549992e+01 8.107715e+01 8.103133e+01 8.964400e+01 5.791092e+01 4.086547e+01 7.502056e+01 4.101423e+01 7.183412e-01 2.967105e+00 2.232035e+00 5.804603e+00 4.786674e+00 4.042234e+00 4.486669e+00 6.252929e+00 2.956062e+00 3.516649e+00 2.420607e+00 1.769453e+00 1.605088e+00
<GCONST> 1.093671e+02
<STATE> 3
<MEAN> 25
 2.002591e+01 4.773764e+00 -8.253484e+00 -3.615151e+00 3.724324e+00 1.959184e+00 -7.368911e+00 -8.800846e+00 -3.585080e-02 2.149473e+00 -4.132275e+00 -3.187839e+00 -9.387835e-01 3.796719e+00 -3.585982e-01 8.983527e-01 5.137095e-01 1.983865e-01 2.838789e-01 3.172782e-01 4.206970e-02 -1.484753e+00 8.916256e-01 2.530159e-01 -2.943272e+00
<VARIANCE> 25
 2.241933e+01 5.723424e+01 5.181054e+01 1.131762e+02 6.509804e+01 5.180495e+01 4.427845e+01 6.040558e+01 4.897480e+01 6.363766e+01 4.370221e+01 2.945449e+01 2.207270e+00 4.108276e+00 9.614428e+00 9.482769e+00 8.905643e+00 6.128212e+00 7.303006e+00 6.738553e+00 5.364110e+00 5.497282e+00 4.626969e+00 2.868507e+00 2.099154e+00
<GCONST> 1.143247e+02
<STATE> 4
<MEAN> 25
 1.432251e+01 1.159346e+01 -4.548479e+00 -3.398264e+00 8.328102e-01 4.071300e+00 -4.517241e+00 -8.064365e+00 -1.813520e+00 -4.895169e-01 -1.216166e+00 -2.814561e+00 -1.911964e+00 6.386056e-01 1.649647e+00 3.698529e-01 -9.850417e-01 -1.420193e-01 8.516456e-01 5.698616e-01 1.116627e-03 -3.813237e-01 4.749567e-01 5.533041e-01 -1.419858e+00
<VARIANCE> 25
 4.793460e+01 7.028039e+01 1.025243e+02 7.013721e+01 6.631007e+01 5.584666e+01 4.354519e+01 2.642385e+01 4.020003e+01 3.372070e+01 2.718346e+01 1.832458e+01 3.023580e+00 3.287065e+00 4.062398e+00 3.227557e+00 3.672290e+00 2.330103e+00 3.273658e+00 2.792146e+00 2.561629e+00 2.392625e+00 1.953313e+00 1.826796e+00 1.866556e+00
<GCONST> 1.045762e+02
<TRANSP> 5
 0.000000e+00 1.000000e+00 0.000000e+00 0.000000e+00 0.000000e+00
 0.000000e+00 7.786017e-01 2.213983e-01 0.000000e+00 0.000000e+00
 0.000000e+00 0.000000e+00 5.952172e-01 4.047827e-01 0.000000e+00
 0.000000e+00 0.000000e+00 0.000000e+00 6.723871e-01 3.276129e-01
 0.000000e+00 0.000000e+00 0.000000e+00 0.000000e+00 0.000000e+00
<ENDHMM>
~h "ao"
<BEGINHMM>
<NUMSTATES> 5
<STATE> 2
<MEAN> 25
 -7.389305e+00 8.470327e+00 4.738968e+00 8.072771e+00 4.720020e+00 3.302110e+00 3.975013e+00 2.049609e+00 1.372554e+00 -7.342191e-01 2.344072e+00 2.703954e+00 6.158488e+00 4.201122e-01 2.139784e+00 -1.072748e+00 -1.030377e+00 -2.045130e+00 -1.177144e+00 -1.045464e+00 7.379380e-01 -3.632491e-01 -9.466572e-01 6.817606e-02 6.974737e+00
<VARIANCE> 25
 4.026274e+01 3.615559e+01 3.654949e+01 3.383382e+01 1.817091e+01 1.689109e+01 2.970569e+01 2.343108e+01 2.003024e+01 1.642261e+01 1.299582e+01 9.964759e+00 3.611485e+00 2.053959e+01 1.219419e+01 5.884665e+00 2.073314e+00 4.110955e+00 5.335954e+00 2.299445e+00 2.709000e+00 2.729196e+00 2.597553e+00 1.533664e+00 1.398827e+01
<GCONST> 1.025327e+02
<STATE> 3
<MEAN> 25
 7.600048e+00 1.598620e+01 1.029373e+01 5.146870e+00 -1.799742e+00 -6.290747e-01 -1.030612e+00 -2.419506e+00 3.449449e+00 -3.507898e+00 -1.687505e+00 2.470631e+00 5.597062e+00 -8.572492e-01 1.131105e-02 -1.398133e+00 -1.087177e+00 -3.205979e+00 -1.276810e+00 -6.986272e-01 -1.466334e-01 9.850518e-02 -1.268392e+00 -6.367782e-01 5.820199e+00
<VARIANCE> 25
 3.815749e+01 1.951918e+02 1.023043e+02 4.675500e+01 2.545128e+01 4.074130e+01 4.026558e+01 2.396287e+01 2.047745e+01 1.258727e+01 1.736716e+01 1.441495e+01 7.690896e+00 1.769175e+01 5.873110e+00 5.904735e+00 3.096832e+00 4.007619e+00 5.494396e+00 3.656637e+00 5.074864e+00 3.647504e+00 3.048491e+00 3.138427e+00 1.616525e+01
<GCONST> 1.101641e+02
<STATE> 4
<MEAN> 25
 1.262052e+01 3.330389e+00 4.876866e+00 1.637934e+00 -7.738322e-01 -9.484499e+00 -1.198705e+00 -2.716830e+00 1.978132e+00 -1.060117e+00 -4.460823e+00 5.728403e-01 3.696584e+00 -6.291813e+00 -1.435144e+00 -2.584268e+00 3.952346e-01 -4.019071e+00 -1.888901e+00 6.887117e-02 -1.446289e-02 1.034440e+00 -1.500821e+00 -2.347509e-01 6.746096e+00
<VARIANCE> 25
 1.998776e+01 2.225951e+02 8.780565e+01 8.900754e+01 4.394136e+01 4.844579e+01 5.934053e+01 3.592916e+01 4.429010e+01 4.485067e+01 1.862451e+01 2.585934e+01 1.290688e+01 8.413539e+00 1.019119e+01 9.019796e+00 7.274594e+00 6.843047e+00 1.294843e+01 7.668553e+00 9.478752e+00 3.689974e+00 4.787026e+00 5.238747e+00 5.218638e+00
<GCONST> 1.185538e+02
<TRANSP> 5
 0.000000e+00 1.000000e+00 0.000000e+00 0.000000e+00 0.000000e+00
 0.000000e+00 3.421265e-03 9.965788e-01 0.000000e+00 0.000000e+00
 0.000000e+00 0.000000e+00 3.893891e-01 6.106108e-01 0.000000e+00
 0.000000e+00 0.000000e+00 0.000000e+00 3.640927e-01 6.359072e-01
 0.000000e+00 0.000000e+00 0.000000e+00 0.000000e+00 0.000000e+00
<ENDHMM>
~h "aw"
<BEGINHMM>
<NUMSTATES> 5
<STATE> 2
<MEAN> 25
 2.237098e+01 -1.116321e+01 -7.668796e+00 -1.166417e+01 5.291329e+00 8.141010e+00 -4.717016e+00 -1.330314e+00 1.865133e+00 6.059677e-02 2.907327e-01 -2.718402e+00 9.701537e-01 -1.507871e+00 8.170062e-02 -8.740698e-01 4.295268e-01 5.843406e-01 -9.261202e-01 3.582048e-01 7.866545e-02 -4.808316e-01 -3.842770e-01 -3.636500e-01 1.599234e+00
<VARIANCE> 25
 3.298773e+01 8.781747e+01 8.345381e+01 1.406661e+02 5.067757e+01 4.663394e+01 8.737521e+01 3.344373e+01 2.036280e+01 6.526706e+01 2.086355e+01 3.945358e+01 3.596422e+00 1.483641e+01 8.534790e+00 7.293731e+00 8.507446e+00 4.842532e+00 7.805399e+00 6.106212e+00 3.563913e+00 5.746999e+00 3.791868e+00 5.321854e+00 1.171986e+01
<GCONST> 1.171184e+02
<STATE> 3
<MEAN> 25
 2.524489e+01 -1.477699e+01 -1.814176e+00 -1.082969e+01 -2.249875e+00 8.477781e+00 -5.253628e+00 7.910650e-01 -1.783256e+00 2.161357e+00 5.717135e+00 -8.046571e+00 -3.656424e-01 1.840372e+00 -7.570682e-01 7.662474e-01 3.467030e-01 -6.037433e-01 4.388624e-01 -1.936410e-01 3.939080e-01 4.592965e-01 8.070502e-02 2.985103e-01 -1.424157e+00
<VARIANCE> 25
 1.316910e+01 1.331141e+02 1.080523e+02 8.199784e+01 3.249256e+01 5.524345e+01 5.262794e+01 5.513266e+01 2.474126e+01 2.279709e+01 2.807804e+01 1.361362e+01 1.269610e+00 3.717617e+00 7.473075e+00 3.273956e+00 5.738192e+00 1.172343e+00 9.877943e+00 2.908343e+00 2.951607e+00 2.138418e+00 3.035590e+00 2.133932e+00 3.842542e+00
<GCONST> 1.053223e+02
<STATE> 4
<MEAN> 25
 1.060498e+01 4.189762e+00 -1.208719e+01 -5.485813e+00 1.032175e+00 4.086437e+00 2.901838e-01 -3.175549e+00 -5.626217e-01 3.425912e+00 3.777763e+00 -5.997268e-01 -3.648399e+00 2.455286e-01 1.417777e+00 2.797824e-01 -1.440786e+00 -2.947799e-01 4.366336e-01 5.823239e-01 4.764646e-04 -3.396073e-01 7.041476e-01 1.086901e+00 -2.667209e+00
<VARIANCE> 25
 5.212387e+01 5.486139e+00 4.944953e+01 4.788223e+01 3.987610e+01 1.565899e+01 2.675811e+01 1.024331e+01 2.118143e+01 2.097411e+01 3.357336e+01 2.189865e+01 2.473965e+00 3.644342e+00 2.559494e+00 3.173108e+00 3.315418e+00 2.323823e+00 2.382227e+00 1.028590e+00 1.978334e+00 1.463429e+00 2.699850e+00 2.076888e+00 2.091242e+00
<GCONST> 9.487573e+01
<TRANSP> 5
 0.000000e+00 1.000000e+00 0.000000e+00 0.000000e+00 0.000000e+00
 0.000000e+00 8.719206e-01 1.280794e-01 0.000000e+00 0.000000e+00
 0.000000e+00 0.000000e+00 8.514456e-01 1.485544e-01 0.000000e+00
 0.000000e+00 0.000000e+00 0.000000e+00 7.904502e-01 2.095498e-01
 0.000000e+00 0.000000e+00 0.000000e+00 0.000000e+00 0.000000e+00
<ENDHMM>
~h "ay"
<BEGINHMM>
<NUMSTATES> 5
<STATE> 2
<MEAN> 25
 9.302572e+00 -4.023876e+00 -2.683246e+00 -9.242345e+00 7.981706e+00 -3.187765e+00 -5.756682e+00 -2.441572e+00 4.527198e+00 1.681637e+00 -1.031125e+00 -1.298202e+00 -8.711293e-01 8.424066e-01 -5.052985e-01 4.899381e-01 1.578271e+00 -5.695367e-01 3.721782e-01 -2.289447e-02 1.812318e+00 -1.002280e+00 2.284094e-01 9.097469e-01 -3.483818e-01
<VARIANCE> 25
 1.027002e+02 9.534317e+01 6.777086e+01 1.366960e+02 6.036184e+01 8.161166e+01 1.375753e+02 8.387860e+01 4.811441e+01 5.485306e+01 3.250162e+01 5.654577e+01 9.098817e+00 1.142507e+01 4.542222e+00 1.171914e+01 7.187210e+00 9.539080e+00 1.089291e+01 9.341579e+00 3.781664e+00 5.372179e+00 3.633058e+00 5.507195e+00 1.743375e+01
<GCONST> 1.238554e+02
<STATE> 3
<MEAN> 25
 1.133959e+00 -6.225563e+00 1.023732e+00 -6.553030e+00 5.514728e+00 -9.533626e+00 2.694511e+00 -8.235235e-01 5.550989e+00 1.216786e+00 -4.589261e-01 2.317150e+00 1.908599e+00 -2.335405e+00 2.134638e+00 -1.207521e+00 -7.034196e-01 5.291471e-01 -9.092144e-01 1.126540e+00 -5.044948e-01 8.975484e-01 -4.958591e-01 -9.612258e-01 2.525826e+00
<VARIANCE> 25
 7.642709e+01 6.359286e+01 8.229524e+01 6.670976e+01 6.561758e+01 7.809794e+01 7.494650e+01 4.422529e+01 4.229384e+01 3.405627e+01 4.499561e+01 3.376945e+01 1.365227e+01 5.362481e+00 1.435713e+01 1.260773e+01 9.781017e+00 1.473603e+01 1.514019e+01 4.921559e+00 6.029571e+00 6.257165e+00 5.669964e+00 4.156031e+00 1.124260e+01
<GCONST> 1.222765e+02
<STATE> 4
<MEAN> 25
 1.501526e+01 -1.259008e+01 1.659470e+00 -8.253877e+00 1.078548e+00 -4.251770e-01 -7.540314e+00 2.781435e+00 3.834267e+00 3.388410e+00 -1.288019e+00 -2.381281e+00 2.222477e+00 -1.753261e+00 -1.333766e+00 1.490020e+00 -1.934024e+00 1.109493e+00 -2.335621e-01 1.425724e-01 -2.348849e-01 -4.074252e-01 2.956123e-01 -3.897188e-01 4.417479e-01
<VARIANCE> 25
 4.079106e+01 5.473102e+01 2.012092e+02 7.318328e+01 6.236737e+01 5.130706e+01 2.795765e+01 3.725555e+01 3.514381e+01 5.417377e+01 2.259615e+01 2.425270e+01 6.534679e+00 4.988645e+00 1.398735e+01 7.435637e+00 6.173074e+00 1.115810e+01 6.183422e+00 3.987720e+00 5.052093e+00 6.713193e+00 5.802901e+00 3.326574e+00 4.911335e+00
<GCONST> 1.157743e+02
<TRANSP> 5
 0.000000e+00 1.000000e+00 0.000000e+00 0.000000e+00 0.000000e+00
 0.000000e+00 6.678962e-01 3.321038e-01 0.000000e+00 0.000000e+00
 0.000000e+00 0.000000e+00 7.429079e-01 2.570921e-01 0.000000e+00
 0.000000e+00 0.000000e+00 0.000000e+00 7.277519e-01 2.722482e-01
 0.000000e+00 0.000000e+00 0.000000e+00 0.000000e+00 0.000000e+00
<ENDHMM>
~h "eh"
<BEGINHMM>
<NUMSTATES> 5
<STATE> 2
<MEAN> 25
 2.154010e+01 -1.816940e+01 -4.843355e-01 3.442423e+00 -1.141848e+01 -4.906327e+00 2.961673e+00 -1.625513e+00 8.472992e-01 4.785662e+00 -5.935577e+00 -4.311949e+00 9.060426e-02 6.879445e-01 -4.513246e-01 7.641245e-01 3.105316e-02 -4.043607e-01 2.698486e-01 -3.125957e-01 -2.664794e-01 2.149917e-01 -2.423256e-01 2.559812e-01 -7.334477e-01
<VARIANCE> 25
 1.747974e+01 2.201654e+01 4.130780e+01 6.037300e+01 2.887869e+01 4.131687e+01 3.739056e+01 8.581236e+01 4.563126e+01 5.269921e+01 4.077124e+01 3.018319e+01 1.975845e+00 2.635065e+00 5.503346e+00 6.175153e+00 3.881158e+00 3.870003e+00 3.694154e+00 7.748493e+00 4.385390e+00 4.363973e+00 3.449957e+00 2.593347e+00 3.040550e+00
<GCONST> 1.072742e+02
<STATE> 3
<MEAN> 25
 1.946097e+01 -5.060762e+00 -7.033302e+00 7.010502e+00 -2.902485e+00 -8.865177e+00 5.473154e-01 1.035658e+00 1.498780e+00 -9.975018e-02 -5.560169e+00 -1.587363e+00 -1.394424e+00 3.827063e+00 -1.272942e+00 -3.917362e-01 2.373606e+00 5.510216e-01 -1.183437e+00 1.604617e+00 1.202238e+00 -2.104866e+00 5.648416e-01 7.794142e-01 -3.265362e+00
<VARIANCE> 25
 2.658037e+01 4.198853e+01 5.623136e+01 5.946305e+01 5.491952e+01 3.238516e+01 4.861964e+01 6.611247e+01 5.650885e+01 5.336196e+01 4.798111e+01 3.476128e+01 2.184127e+00 4.485150e+00 4.527375e+00 7.936650e+00 6.262860e+00 5.702062e+00 4.725838e+00 7.043264e+00 3.831344e+00 4.968757e+00 4.905958e+00 2.342748e+00 2.783929e+00
<GCONST> 1.114253e+02
<STATE> 4
<MEAN> 25
 6.073527e+00 6.550172e+00 -6.005552e+00 5.860439e-01 -1.450201e+00 -3.253285e+00 -1.274292e+00 3.946791e+00 5.120206e+00 -3.068095e+00 -4.057023e+00 -5.626529e-01 -2.515536e+00 8.974540e-01 7.796164e-01 -7.395332e-01 -3.898862e-01 1.126149e+00 1.566523e-01 -7.388425e-01 -1.180443e-01 4.968570e-01 6.824777e-01 1.225757e-01 -2.023661e+00
<VARIANCE> 25
 1.114025e+02 6.160260e+01 7.485880e+01 3.106461e+01 3.847155e+01 2.987993e+01 4.042607e+01 3.918842e+01 2.783880e+01 3.665434e+01 2.042096e+01 1.754239e+01 2.816582e+00 6.199353e+00 5.649011e+00 4.502556e+00 3.617145e+00 2.307598e+00 2.872311e+00 3.111835e+00 2.665115e+00 2.969224e+00 2.253082e+00 2.052242e+00 3.599360e+00
<GCONST> 1.050454e+02
<TRANSP> 5
 0.000000e+00 1.000000e+00 0.000000e+00 0.000000e+00 0.000000e+00
 0.000000e+00 8.830528e-01 1.169471e-01 0.000000e+00 0.000000e+00
 0.000000e+00 0.000000e+00 7.173962e-01 2.826038e-01 0.000000e+00
 0.000000e+00 0.000000e+00 0.000000e+00 7.463929e-01 2.536070e-01
 0.000000e+00 0.000000e+00 0.000000e+00 0.000000e+00 0.000000e+00
<ENDHMM>
~h "er"
<BEGINHMM>
<NUMSTATES> 5
<STATE> 2
<MEAN> 25
 1.142621e+01 -2.009497e+00 4.089035e+00 -9.117932e+00 8.676384e+00 -6.105350e+00 -5.632069e+00 1.891448e+00 1.564203e+00 1.982835e+00 -3.333910e+00 -3.665720e-01 -4.771145e+00 3.215475e+00 2.253656e-01 9.546328e-01 1.596183e+00 -1.406139e+00 2.539601e+00 7.253379e-01 1.039733e+00 -2.510818e+00 6.699539e-01 1.356998e+00 -8.771596e-01
<VARIANCE> 25
 1.031597e+02 7.308194e+01 8.093332e+01 6.667136e+01 6.899344e+01 8.213950e+01 8.596971e+01 7.625412e+01 6.415108e+01 7.250564e+01 4.892865e+01 5.121581e+01 8.386400e+00 6.518632e+00 1.181355e+01 9.002378e+00 1.110096e+01 5.545694e+00 9.545751e+00 1.106105e+01 7.485885e+00 6.308905e+00 6.002815e+00 6.491434e+00 1.774052e+00
<GCONST> 1.227085e+02
<STATE> 3
<MEAN> 25
 -9.130790e+00 3.738067e+00 4.850181e+00 -6.804293e+00 4.435097e+00 -1.018605e+01 7.589165e+00 1.161727e+00 -1.314914e-01 -3.776685e+00 1.586990e+00 4.163671e+00 1.617846e+00 -1.301399e+00 5.298054e-01 4.803302e-01 -1.660299e+00 -3.243009e-01 6.331473e-02 -1.018436e-01 -6.154404e-01 1.772922e-01 2.584479e-01 -3.616856e-01 3.862298e-01
<VARIANCE> 25
 9.443598e+01 4.903220e+01 6.111301e+01 4.025495e+01 7.191925e+01 5.465205e+01 5.545602e+01 7.085182e+01 3.938180e+01 4.034947e+01 3.624162e+01 2.828484e+01 2.082305e+01 5.680721e+00 5.686822e+00 4.205778e+00 4.923931e+00 4.700045e+00 8.267199e+00 5.925739e+00 4.097579e+00 4.010644e+00 4.182277e+00 3.152783e+00 3.201176e+00
<GCONST> 1.145744e+02
<STATE> 4
<MEAN> 25
 1.687752e+01 -1.399862e+01 8.414467e+00 1.270598e+00 -7.789909e+00 -8.927036e+00 -4.595618e+00 2.501100e+00 -1.016051e-01 1.036320e+00 -2.654264e+00 1.329543e-01 1.661971e-01 2.096296e-01 -1.034101e+00 1.070559e+00 3.454612e-01 2.356669e-01 -7.809967e-01 -1.866496e-01 7.532538e-01 1.777072e-01 -6.004571e-01 2.472040e-01 -1.108242e+00
<VARIANCE> 25
 3.351868e+01 2.425065e+01 8.564304e+01 7.699613e+01 4.560696e+01 7.173991e+01 4.813652e+01 5.808589e+01 6.389280e+01 4.843846e+01 6.288807e+01 3.394090e+01 5.009899e+00 6.152973e+00 8.712490e+00 6.595509e+00 5.575868e+00 7.671993e+00 5.724922e+00 6.901814e+00 6.090142e+00 5.772519e+00 5.480993e+00 3.584090e+00 4.182265e+00
<GCONST> 1.160545e+02
<TRANSP> 5
 0.000000e+00 1.000000e+00 0.000000e+00 0.000000e+00 0.000000e+00
 0.000000e+00 7.977797e-01 2.022203e-01 0.000000e+00 0.000000e+00
 0.000000e+00 0.000000e+00 9.036343e-01 9.636576e-02 0.000000e+00
 0.000000e+00 0.000000e+00 0.000000e+00 9.218772e-01 7.812279e-02
 0.000000e+00 0.000000e+00 0.000000e+00 0.000000e+00 0.000000e+00
<ENDHMM>
~h "ey"
<BEGINHMM>
<NUMSTATES> 5
<STATE> 2
<MEAN> 25
 1.241847e+00 9.909429e+00 6.269361e+00 3.764385e+00 -1.925043e+00 2.906274e+00 2.191341e+00 2.420259e-01 2.994379e+00 -2.002192e+00 3.515047e+00 6.961247e-01 4.332491e+00 4.480722e-02 5.436414e+00 -2.337276e+00 -4.688908e+00 -1.624745e+00 1.270304e-01 1.013387e+00 -2.681001e+00 -1.354703e-01 1.346306e+00 -4.840079e-01 5.085198e+00
<VARIANCE> 25
 6.568863e+01 2.894249e+01 3.992188e+01 3.529094e+01 4.921140e+01 9.462444e+00 2.277908e+01 2.061248e+01 1.710670e+01 1.318762e+01 1.102771e+01 1.546797e+01 8.662749e+00 5.503907e+00 1.155572e+01 5.933344e+00 7.288851e+00 5.723548e+00 8.037468e+00 5.259290e+00 6.765839e+00 5.340785e+00 1.925691e+00 3.006292e+00 1.779612e+01
<GCONST> 1.073904e+02
<STATE> 3
<MEAN> 25
 9.232425e+00 2.677233e+00 2.446691e+01 -6.165918e+00 -1.563516e+01 -3.210732e+00 1.440357e+00 3.441560e+00 -1.466562e+01 -1.735968e+00 5.250991e+00 -7.506821e-01 1.644337e+00 -3.362627e+00 3.048966e+00 -2.025159e+00 -9.943710e-01 -1.055782e+00 -9.537898e-01 2.595038e-01 -3.201367e+00 6.398906e-01 -3.237609e-01 3.058262e-01 4.035393e+00
<VARIANCE> 25
 2.015568e+01 5.545473e+01 1.178308e+02 9.305398e+01 3.186437e+01 7.348322e+01 7.601944e+01 4.434184e+01 9.418862e+01 7.571432e+01 1.800277e+01 2.968911e+01 6.372297e+00 2.176330e+00 1.201997e+01 7.699284e+00 9.978621e+00 5.552877e+00 5.499629e+00 3.922772e+00 8.454355e+00 3.842365e+00 3.193882e+00 3.002629e+00 8.160915e+00
<GCONST> 1.153878e+02
<STATE> 4
<MEAN> 25
 1.535647e+01 -1.519650e+01 2.203821e+01 -8.296690e+00 -1.169173e+01 -6.822376e+00 -5.650414e+00 8.361147e+00 -9.587241e+00 1.477831e+00 2.960680e+00 2.202689e+00 4.836092e-01 -8.889001e-01 -9.781469e-01 1.068014e-01 5.933259e-02 -2.756318e-01 -2.253322e-02 4.691889e-01 9.665869e-01 3.073777e-01 -2.166750e-01 1.646081e-01 6.020285e-01
<VARIANCE> 25
 1.765183e+01 3.027539e+01 6.216175e+01 6.137207e+01 3.146880e+01 3.197895e+01 3.132968e+01 4.748482e+01 5.821309e+01 3.724253e+01 2.439848e+01 1.324289e+01 1.052278e+00 1.549780e+00 2.366652e+00 3.831405e+00 3.272110e+00 3.338242e+00 2.329844e+00 3.694600e+00 3.680801e+00 2.779597e+00 2.648592e+00 1.371367e+00 1.755596e+00
<GCONST> 9.956879e+01
<TRANSP> 5
 0.000000e+00 1.000000e+00 0.000000e+00 0.000000e+00 0.000000e+00
 0.000000e+00 3.245405e-01 6.754595e-01 0.000000e+00 0.000000e+00
 0.000000e+00 0.000000e+00 7.453644e-01 2.546355e-01 0.000000e+00
 0.000000e+00 0.000000e+00 0.000000e+00 8.952665e-01 1.047335e-01
 0.000000e+00 0.000000e+00 0.000000e+00 0.000000e+00 0.000000e+00
<ENDHMM>
~h "ih"
<BEGINHMM>
<NUMSTATES> 5
<STATE> 2
<MEAN> 25
 -9.837298e+00 5.794133e+00 -4.593278e+00 4.282807e+00 2.162872e+00 3.221239e+00 2.655853e+00 -2.910703e+00 -2.076395e-03 -1.409192e+00 5.917555e-01 1.495554e+00 3.583670e-01 1.404028e-01 1.693796e-02 -1.937161e-01 -2.986355e-01 -5.553662e-02 -1.426699e-01 -1.292386e-01 -1.835608e-01 6.460670e-03 -2.340997e-01 -1.412069e-01 2.203362e-01
<VARIANCE> 25
 3.761209e+01 1.353774e+01 2.059758e+01 1.858088e+01 1.687747e+01 1.220679e+01 1.335398e+01 1.648799e+01 1.444458e+01 1.293807e+01 1.781995e+01 1.251340e+01 1.837027e+00 9.102711e-01 7.666511e-01 1.684723e+00 1.722041e+00 1.331887e+00 1.450336e+00 1.793777e+00 1.922187e+00 1.221764e+00 1.895219e+00 1.427238e+00 2.008040e+00
<GCONST> 8.458931e+01
<STATE> 3
<MEAN> 25
 -8.007327e+00 3.692258e+00 -1.961849e+00 1.951505e+00 1.033409e+00 4.231281e-01 2.192369e+00 3.063817e-01 -2.455318e-01 -1.418226e+00 -1.953196e+00 9.678696e-02 1.595847e-01 -2.515157e-01 1.332797e-01 2.216705e-01 2.156947e-01 -9.958566e-02 4.422515e-02 1.640489e-01 3.146340e-02 3.995428e-02 -1.550744e-01 -5.661798e-02 2.962183e-01
<VARIANCE> 25
 2.995168e+01 1.848568e+01 1.207666e+01 2.457279e+01 2.089647e+01 2.208674e+01 1.562155e+01 1.725881e+01 1.348602e+01 1.343944e+01 1.809630e+01 1.241063e+01 6.951284e-01 8.905775e-01 8.190797e-01 1.459914e+00 1.784008e+00 1.515106e+00 1.429712e+00 1.482625e+00 1.350672e+00 1.601035e+00 1.368423e+00 1.059141e+00 4.133297e-01
<GCONST> 8.200583e+01
<STATE> 4
<MEAN> 25
 -6.110989e+00 2.277824e+00 -1.265505e+00 4.455554e+00 2.064630e+00 -4.028108e-01 9.962716e-01 2.495195e-01 2.025583e+00 -1.440815e+00 -1.351310e+00 7.450458e-01 7.274386e-01 -7.146448e-01 6.841365e-01 1.319118e-01 3.790576e-01 -6.810035e-01 -2.775874e-01 1.044185e-01 1.912096e-01 1.176527e-01 -1.996721e-01 -8.038189e-02 1.451109e+00
<VARIANCE> 25
 4.585646e+01 6.582754e+01 2.790592e+01 1.713926e+01 2.014650e+01 3.951596e+01 2.123434e+01 1.942778e+01 2.413806e+01 1.932585e+01 1.898817e+01 1.521502e+01 5.292530e+00 5.794634e+00 3.009646e+00 2.423508e+00 3.290676e+00 3.966093e+00 2.698960e+00 1.565736e+00 3.026831e+00 1.862177e+00 1.382351e+00 1.910381e+00 4.829048e+00
<GCONST> 9.833845e+01
<TRANSP> 5
 0.000000e+00 1.000000e+00 0.000000e+00 0.000000e+00 0.000000e+00
 0.000000e+00 5.559977e-01 4.440024e-01 0.000000e+00 0.000000e+00
 0.000000e+00 0.000000e+00 7.307251e-01 2.692749e-01 0.000000e+00
 0.000000e+00 0.000000e+00 0.000000e+00 6.897237e-01 3.102763e-01
 0.000000e+00 0.000000e+00 0.000000e+00 0.000000e+00 0.000000e+00
<ENDHMM>
~h "iy"
<BEGINHMM>
<NUMSTATES> 5
<STATE> 2
<MEAN> 25
 2.314474e+00 1.571490e+01 5.351347e+00 6.942243e+00 -2.493229e+00 -9.083626e-01 -1.103636e+00 -5.463248e+00 -2.408834e+00 -4.299175e+00 -1.905664e+00 -1.118757e+00 -1.718063e+00 -1.182318e+00 -6.622674e-01 3.720164e-01 1.003537e+00 6.101897e-01 4.284936e-02 1.332531e-01 1.033406e-01 1.773044e-02 8.939822e-02 3.722190e-02 -9.793979e-01
<VARIANCE> 25
 4.891673e+01 3.280557e+01 2.237073e+01 1.326121e+01 2.082750e+01 2.162764e+01 1.657424e+01 2.382760e+01 1.343448e+01 1.803832e+01 1.907601e+01 1.943857e+01 1.464103e+00 1.797115e+00 2.101857e+00 1.123842e+00 1.316805e+00 1.215834e+00 1.702491e+00 2.262260e+00 1.521607e+00 1.760044e+00 1.597527e+00 1.428817e+00 3.500445e-01
<GCONST> 8.692200e+01
<STATE> 3
<MEAN> 25
 -8.139065e+00 7.038116e+00 -3.248445e-01 7.488853e+00 1.537267e+00 1.683906e+00 1.488992e+00 -3.251250e+00 -2.336473e+00 -4.331939e+00 -1.034098e+00 -3.161758e-01 -4.471694e-01 -3.582504e-01 -3.266044e-01 -1.582192e-01 1.065352e-01 1.411115e-01 1.948102e-01 3.488417e-01 2.935647e-01 1.274128e-01 5.174515e-02 1.998473e-02 -2.255763e-01
<VARIANCE> 25
 7.474490e+00 6.252948e+00 1.341524e+01 1.737634e+01 1.110147e+01 1.528735e+01 1.270463e+01 1.431963e+01 1.416849e+01 1.254054e+01 1.603306e+01 1.495343e+01 3.276301e-01 6.789644e-01 7.857339e-01 7.986162e-01 1.085510e+00 1.196347e+00 1.023549e+00 1.003975e+00 1.611654e+00 1.555941e+00 1.319066e+00 1.550202e+00 8.077553e-02
<GCONST> 7.367834e+01
<STATE> 4
<MEAN> 25
 -9.893259e+00 5.049884e+00 -6.116921e+00 4.847279e+00 2.748545e+00 3.454160e+00 2.345990e+00 -2.303881e+00 1.059206e+00 -2.051311e+00 -4.177402e-01 -7.183577e-01 -3.088492e-02 -3.227394e-02 -2.308126e-02 -1.167160e-02 1.519430e-02 4.385461e-02 6.667628e-02 3.890149e-02 3.445426e-02 -3.407051e-03 -1.985030e-02 -3.859593e-02 -1.341223e-02
<VARIANCE> 25
 5.995624e+00 4.341506e+00 5.113230e+00 8.487787e+00 1.082766e+01 1.233164e+01 1.131332e+01 1.300953e+01 1.163849e+01 1.148319e+01 1.264149e+01 1.171787e+01 1.130169e-01 2.527924e-01 4.105195e-01 6.219587e-01 7.184053e-01 9.042045e-01 1.042830e+00 1.289114e+00 1.173009e+00 1.145976e+00 1.255954e+00 1.100785e+00 3.817413e-02
<GCONST> 6.505387e+01
<TRANSP> 5
 0.000000e+00 1.000000e+00 0.000000e+00 0.000000e+00 0.000000e+00
 0.000000e+00 8.097627e-01 1.902373e-01 0.000000e+00 0.000000e+00
 0.000000e+00 0.000000e+00 8.416878e-01 1.583122e-01 0.000000e+00
 0.000000e+00 0.000000e+00 0.000000e+00 9.491323e-01 5.086766e-02
 0.000000e+00 0.000000e+00 0.000000e+00 0.000000e+00 0.000000e+00
<ENDHMM>
~h "ng"
<BEGINHMM>
<NUMSTATES> 5
<STATE> 2
<MEAN> 25
 1.904743e+01 -1.659841e+00 2.949706e+00 2.544094e+00 -1.112844e+01 -1.518246e+00 1.009333e+01 -6.910361e+00 -1.438731e+01 3.075490e+00 1.429750e+00 -3.254199e+00 6.484723e-01 3.220625e+00 -1.785552e+00 6.999841e-01 3.247647e-01 9.634518e-01 -4.120299e-01 -3.064234e+00 5.295381e-01 4.342144e-01 9.457776e-02 6.344846e-01 -1.774271e+00
<VARIANCE> 25
 1.123041e+01 8.592078e+01 8.825831e+01 9.966344e+01 6.149670e+01 3.474386e+01 5.970186e+01 1.485235e+02 4.750106e+01 3.575039e+01 2.463935e+01 3.073303e+01 9.640244e-01 3.267834e+00 5.568518e+00 9.536695e+00 4.823854e+00 3.081627e+00 8.120803e+00 8.585181e+00 6.378115e+00 3.802109e+00 2.658787e+00 2.491356e+00 1.060113e+00
<GCONST> 1.099259e+02
<STATE> 3
<MEAN> 25
 1.733198e+01 1.511555e+00 -4.240155e-01 -3.730315e+00 6.584257e-02 -3.911821e+00 -5.360424e+00 -3.655455e+00 -4.552151e+00 1.480726e+00 -2.045334e+00 -2.383231e+00 -7.116734e-01 -3.327212e+00 9.219553e-01 -3.134200e+00 2.794863e+00 -7.762992e-01 -3.819995e+00 3.533494e+00 2.303993e+00 6.569551e-01 -1.183284e+00 -8.164464e-01 2.326441e+00
<VARIANCE> 25
 1.589367e+01 1.327069e+02 5.908295e+01 1.188805e+02 1.255843e+02 7.861214e+01 1.253724e+02 1.512979e+02 7.420923e+01 3.736715e+01 5.138890e+01 3.170091e+01 1.765210e+00 9.203931e+00 6.930589e+00 1.259344e+01 9.777652e+00 1.008991e+01 7.445584e+00 1.352008e+01 4.722595e+00 6.991103e+00 4.521004e+00 3.415484e+00 3.550440e+00
<GCONST> 1.207911e+02
<STATE> 4
<MEAN> 25
 1.689734e+01 -1.116977e+01 4.230399e+00 -2.309988e+01 5.277387e+00 3.446401e+00 -1.506207e+01 2.811866e+00 1.785868e+00 1.159519e+01 -3.483959e+00 -4.037710e+00 2.577054e-01 3.253511e-01 -3.570381e-01 -1.812504e-01 -2.960900e-01 9.007431e-01 -2.979804e-01 -1.174762e+00 2.150346e-01 2.863595e-01 1.363035e-01 3.357880e-01 -2.046047e-01
<VARIANCE> 25
 4.871939e+00 2.151683e+01 2.342840e+01 3.670081e+01 4.897835e+01 2.938482e+01 3.753350e+01 5.628252e+01 2.974032e+01 2.743262e+01 4.480437e+01 2.541568e+01 2.917683e-01 1.263557e+00 1.175526e+00 3.327963e+00 3.098555e+00 2.878484e+00 1.920095e+00 3.195353e+00 1.603424e+00 1.920439e+00 2.482821e+00 1.662722e+00 6.330529e-01
<GCONST> 9.247922e+01
<TRANSP> 5
 0.000000e+00 1.000000e+00 0.000000e+00 0.000000e+00 0.000000e+00
 0.000000e+00 8.628446e-01 1.371554e-01 0.000000e+00 0.000000e+00
 0.000000e+00 0.000000e+00 8.141090e-01 1.858910e-01 0.000000e+00
 0.000000e+00 0.000000e+00 0.000000e+00 8.652264e-01 1.347736e-01
 0.000000e+00 0.000000e+00 0.000000e+00 0.000000e+00 0.000000e+00
<ENDHMM>
~h "sp"
<BEGINHMM>
<NUMSTATES> 3
<STATE> 2
~s "silst"
<TRANSP> 3
 0.000000e+00 1.506722e-02 9.849328e-01
 0.000000e+00 6.046367e-01 3.953634e-01
 0.000000e+00 0.000000e+00 0.000000e+00
<ENDHMM>
~h "th"
<BEGINHMM>
<NUMSTATES> 5
<STATE> 2
<MEAN> 25
 1.496597e+01 -9.951009e+00 2.013779e+01 -4.854805e-01 -1.740312e+01 -4.829133e+00 -1.586714e+00 -1.331527e+00 -9.472832e+00 -3.688641e+00 1.703417e+00 1.633507e+00 1.999744e-02 1.270808e+00 8.036515e-01 3.711725e-01 -1.664175e+00 2.396244e-01 9.448106e-01 -8.045832e-01 -1.207091e+00 4.894212e-04 2.631860e-01 -1.167082e-01 -9.095391e-01
<VARIANCE> 25
 2.025917e+01 4.834275e+01 7.150668e+01 7.900851e+01 1.007908e+02 5.812778e+01 1.118350e+02 5.275608e+01 1.131481e+02 4.535989e+01 4.876316e+01 3.529681e+01 2.307086e+00 5.101361e+00 4.493454e+00 5.532189e+00 5.594842e+00 7.098808e+00 6.921369e+00 4.653831e+00 7.309861e+00 4.349219e+00 5.575222e+00 4.887138e+00 2.634736e+00
<GCONST> 1.153914e+02
<STATE> 3
<MEAN> 25
 1.254988e+01 1.473819e+01 1.739824e+01 2.027440e+00 -2.290172e+01 -7.602669e+00 6.021879e+00 -7.661203e+00 -1.003684e+01 2.261165e+00 -9.947363e-02 -1.994445e+00 -1.481822e+00 2.927198e+00 -2.291635e+00 1.497879e-01 3.637068e+00 -4.200463e-01 -2.569044e+00 9.702894e-01 2.935383e+00 3.646348e-01 -3.223635e-02 2.238451e-02 -2.838813e+00
<VARIANCE> 25
 1.008247e+01 3.699854e+01 3.150915e+01 1.075612e+02 5.057462e+01 5.036461e+01 1.003956e+02 6.381668e+01 4.250302e+01 4.391715e+01 3.090643e+01 1.732129e+01 1.343488e+00 3.427026e+00 5.839378e+00 6.431999e+00 4.770763e+00 4.012979e+00 9.106652e+00 2.784443e+00 3.145384e+00 6.065613e+00 2.942172e+00 1.587548e+00 4.712320e-01
<GCONST> 1.054950e+02
<STATE> 4
<MEAN> 25
 3.160433e+00 1.256394e+01 8.286636e+00 6.619762e-01 -1.324278e+01 -2.913205e+00 4.691849e-01 -6.741130e+00 -4.464996e+00 3.077021e-01 -1.101606e+00 -1.714308e+00 -2.302194e+00 -1.704762e+00 -2.219956e+00 -1.594979e-01 1.602755e+00 1.145560e+00 2.706165e-01 1.460037e-01 7.124066e-02 -7.729493e-01 -2.055673e-01 1.881088e-01 -1.458120e+00
<VARIANCE> 25
 2.786164e+01 4.246843e+01 4.692865e+01 1.303972e+01 1.654427e+01 2.589693e+01 2.321689e+01 1.861190e+01 1.492730e+01 1.254773e+01 2.309609e+01 1.086225e+01 2.109744e+00 1.773048e+00 2.462510e+00 2.426970e+00 5.368919e+00 2.275338e+00 5.055964e+00 1.431045e+00 2.805845e+00 1.834810e+00 2.486613e+00 5.726557e-01 1.044635e+00
<GCONST> 9.195069e+01
<TRANSP> 5
 0.000000e+00 1.000000e+00 0.000000e+00 0.000000e+00 0.000000e+00
 0.000000e+00 9.306418e-01 6.935825e-02 0.000000e+00 0.000000e+00
 0.000000e+00 0.000000e+00 7.530676e-01 2.469325e-01 0.000000e+00
 0.000000e+00 0.000000e+00 0.000000e+00 7.081227e-01 2.918773e-01
 0.000000e+00 0.000000e+00 0.000000e+00 0.000000e+00 0.000000e+00
<ENDHMM>
~h "uw"
<BEGINHMM>
<NUMSTATES> 5
<STATE> 2
<MEAN> 25
 -7.462609e-01 7.897671e+00 -2.159472e+00 1.178114e+00 -1.335196e+00 1.234062e+00 1.483762e-01 -3.906779e+00 -4.898081e+00 -4.009956e+00 1.322819e+00 1.562704e+00 -1.943419e+00 -9.930705e-01 2.115289e-01 7.090896e-01 8.549982e-02 -2.436185e-01 4.798522e-01 7.210863e-01 1.516057e-01 -4.686313e-01 -5.579210e-01 -2.779529e-01 -1.089735e+00
<VARIANCE> 25
 3.742453e+01 2.225197e+01 2.245600e+01 2.535600e+01 1.967532e+01 2.289151e+01 1.998625e+01 2.477803e+01 2.026685e+01 2.211079e+01 2.125365e+01 2.729054e+01 1.962478e+00 1.422482e+00 2.087705e+00 1.769736e+00 2.116678e+00 2.419637e+00 1.431573e+00 1.896350e+00 1.871579e+00 1.510179e+00 1.499239e+00 1.583978e+00 7.188696e-01
<GCONST> 9.033904e+01
<STATE> 3
<MEAN> 25
 -5.596564e+00 3.236285e+00 8.384398e-01 5.445864e+00 -1.101681e+00 -2.611430e-01 4.462820e-01 -1.180462e+00 -2.352876e+00 -3.211889e+00 -1.615353e+00 -1.452271e+00 -8.882402e-02 -8.980089e-03 1.028188e-01 1.174441e-01 5.179072e-02 3.620682e-02 5.451764e-02 6.229864e-02 6.269701e-02 2.348294e-02 -8.389616e-03 9.221386e-03 -4.789810e-02
<VARIANCE> 25
 3.539542e+00 6.285694e+00 1.166860e+01 1.206743e+01 1.076273e+01 1.102779e+01 1.124517e+01 1.164991e+01 1.290059e+01 1.412266e+01 1.287012e+01 1.187616e+01 1.437272e-01 2.643431e-01 4.787967e-01 5.641177e-01 8.350613e-01 9.649541e-01 1.278761e+00 1.191620e+00 1.072041e+00 1.149318e+00 1.093788e+00 9.358528e-01 3.857231e-02
<GCONST> 6.648567e+01
<STATE> 4
<MEAN> 25
 -7.527888e+00 5.932864e+00 -1.442111e+00 3.326620e+00 -2.787868e-01 1.362647e+00 2.326839e+00 1.309231e+00 -9.768735e-02 -3.610932e+00 -1.684761e-01 1.414068e+00 -2.740958e-01 -7.887354e-02 1.502921e-01 2.297305e-01 2.288426e-01 -4.394768e-01 6.861573e-03 4.541294e-01 7.933429e-01 8.474933e-01 -5.676570e-02 9.854745e-03 5.025055e-03
<VARIANCE> 25
 1.353679e+01 1.629441e+01 3.517400e+01 5.189332e+01 1.865485e+01 4.163624e+01 1.777664e+01 2.527121e+01 1.224038e+01 1.983093e+01 1.487791e+01 1.776896e+01 1.273391e+00 1.297285e+00 1.816810e+00 1.939263e+00 1.773501e+00 2.468342e+00 1.882549e+00 2.146752e+00 1.997157e+00 1.872354e+00 1.693149e+00 1.928384e+00 8.501557e-01
<GCONST> 8.965889e+01
<TRANSP> 5
 0.000000e+00 1.000000e+00 0.000000e+00 0.000000e+00 0.000000e+00
 0.000000e+00 7.717500e-01 2.282500e-01 0.000000e+00 0.000000e+00
 0.000000e+00 0.000000e+00 9.255009e-01 7.449911e-02 0.000000e+00
 0.000000e+00 0.000000e+00 0.000000e+00 5.065939e-01 4.934062e-01
 0.000000e+00 0.000000e+00 0.000000e+00 0.000000e+00 0.000000e+00
<ENDHMM>
~h "sil"
<BEGINHMM>
<NUMSTATES> 5
<STATE> 2
<MEAN> 25
 -9.945074e+00 5.226596e+00 -2.169835e+00 4.418993e+00 8.864467e-01 2.280358e+00 1.822457e+00 -6.419610e-01 4.353858e-01 -2.485827e+00 -4.217114e-01 3.965384e-02 -2.480543e-02 -4.906526e-03 1.504870e-02 2.966667e-02 3.253280e-02 1.718031e-02 2.445842e-02 9.194305e-03 -1.928883e-02 -2.423970e-02 -3.554134e-03 1.484310e-02 -1.430650e-02
<VARIANCE> 25
 7.597413e+00 5.888600e+00 9.380530e+00 1.440360e+01 1.055412e+01 1.281291e+01 1.395662e+01 1.634593e+01 1.357015e+01 1.322699e+01 1.404169e+01 1.271290e+01 1.132265e-01 2.394329e-01 4.149095e-01 6.244188e-01 7.911407e-01 9.325776e-01 1.065990e+00 1.162870e+00 1.157541e+00 1.236179e+00 1.241252e+00 1.180710e+00 4.098685e-02
<GCONST> 6.786385e+01
<STATE> 3
~s "silst"
<STATE> 4
<MEAN> 25
 -8.074998e+00 4.174518e+00 -9.551601e-01 4.514124e+00 2.455996e+00 2.713071e+00 1.949932e+00 -5.434558e-01 4.881529e-02 -1.813805e+00 -8.998106e-02 6.609933e-01 4.195239e-01 4.550092e-02 2.133089e-02 -7.134165e-02 -7.267469e-02 -2.343033e-01 -2.876129e-01 -1.336945e-01 -1.009582e-01 -5.026242e-02 -1.778529e-01 -1.957030e-01 3.244570e-01
<VARIANCE> 25
 3.774080e+01 2.831409e+01 2.830901e+01 2.542458e+01 2.578290e+01 2.736007e+01 2.334949e+01 2.437593e+01 1.884521e+01 2.197456e+01 1.700767e+01 1.460910e+01 3.001939e+00 2.313170e+00 1.837083e+00 1.945074e+00 2.147892e+00 2.578946e+00 2.014258e+00 1.724904e+00 1.699843e+00 1.594492e+00 1.517148e+00 1.260608e+00 4.681684e+00
<GCONST> 9.330215e+01
<TRANSP> 5
 0.000000e+00 1.000000e+00 0.000000e+00 0.000000e+00 0.000000e+00
 0.000000e+00 9.379016e-01 1.191533e-02 5.018316e-02 0.000000e+00
 0.000000e+00 0.000000e+00 9.643598e-01 3.564022e-02 0.000000e+00
 0.000000e+00 9.608840e-02 0.000000e+00 7.117812e-01 1.921304e-01
 0.000000e+00 0.000000e+00 0.000000e+00 0.000000e+00 0.000000e+00
<ENDHMM>
