~o
<STREAMINFO> 1 25
<VECSIZE> 25<NULLD><MFCC_D_N_Z_0><DIAGC>
~t "T_b"
<TRANSP> 5
 0.000000e+00 1.000000e+00 0.000000e+00 0.000000e+00 0.000000e+00
 0.000000e+00 9.182584e-01 8.174162e-02 0.000000e+00 0.000000e+00
 0.000000e+00 0.000000e+00 7.838883e-01 2.161117e-01 0.000000e+00
 0.000000e+00 0.000000e+00 0.000000e+00 7.092262e-01 2.907738e-01
 0.000000e+00 0.000000e+00 0.000000e+00 0.000000e+00 0.000000e+00
~t "T_d"
<TRANSP> 5
 0.000000e+00 1.000000e+00 0.000000e+00 0.000000e+00 0.000000e+00
 0.000000e+00 8.868701e-01 1.131298e-01 0.000000e+00 0.000000e+00
 0.000000e+00 0.000000e+00 8.992763e-01 1.007237e-01 0.000000e+00
 0.000000e+00 0.000000e+00 0.000000e+00 5.218373e-01 4.781627e-01
 0.000000e+00 0.000000e+00 0.000000e+00 0.000000e+00 0.000000e+00
~t "T_f"
<TRANSP> 5
 0.000000e+00 1.000000e+00 0.000000e+00 0.000000e+00 0.000000e+00
 0.000000e+00 9.336974e-01 6.630255e-02 0.000000e+00 0.000000e+00
 0.000000e+00 0.000000e+00 7.739413e-01 2.260588e-01 0.000000e+00
 0.000000e+00 0.000000e+00 0.000000e+00 8.049769e-01 1.950231e-01
 0.000000e+00 0.000000e+00 0.000000e+00 0.000000e+00 0.000000e+00
~t "T_g"
<TRANSP> 5
 0.000000e+00 1.000000e+00 0.000000e+00 0.000000e+00 0.000000e+00
 0.000000e+00 7.642108e-01 2.357892e-01 0.000000e+00 0.000000e+00
 0.000000e+00 0.000000e+00 5.656821e-01 4.343178e-01 0.000000e+00
 0.000000e+00 0.000000e+00 0.000000e+00 6.974559e-01 3.025441e-01
 0.000000e+00 0.000000e+00 0.000000e+00 0.000000e+00 0.000000e+00
~t "T_k"
<TRANSP> 5
 0.000000e+00 1.000000e+00 0.000000e+00 0.000000e+00 0.000000e+00
 0.000000e+00 8.873301e-01 1.126699e-01 0.000000e+00 0.000000e+00
 0.000000e+00 0.000000e+00 8.422570e-01 1.577430e-01 0.000000e+00
 0.000000e+00 0.000000e+00 0.000000e+00 6.550738e-01 3.449262e-01
 0.000000e+00 0.000000e+00 0.000000e+00 0.000000e+00 0.000000e+00
~t "T_l"
<TRANSP> 5
 0.000000e+00 1.000000e+00 0.000000e+00 0.000000e+00 0.000000e+00
 0.000000e+00 5.046264e-01 4.953737e-01 0.000000e+00 0.000000e+00
 0.000000e+00 0.000000e+00 1.725418e-02 9.827458e-01 0.000000e+00
 0.000000e+00 0.000000e+00 0.000000e+00 5.646765e-01 4.353235e-01
 0.000000e+00 0.000000e+00 0.000000e+00 0.000000e+00 0.000000e+00
~t "T_m"
<TRANSP> 5
 0.000000e+00 1.000000e+00 0.000000e+00 0.000000e+00 0.000000e+00
 0.000000e+00 8.902659e-01 1.097341e-01 0.000000e+00 0.000000e+00
 0.000000e+00 0.000000e+00 8.448080e-01 1.551920e-01 0.000000e+00
 0.000000e+00 0.000000e+00 0.000000e+00 9.548758e-01 4.512421e-02
 0.000000e+00 0.000000e+00 0.000000e+00 0.000000e+00 0.000000e+00
~t "T_n"
<TRANSP> 5
 0.000000e+00 1.000000e+00 0.000000e+00 0.000000e+00 0.000000e+00
 0.000000e+00 7.808107e-01 2.191893e-01 0.000000e+00 0.000000e+00
 0.000000e+00 0.000000e+00 8.110502e-01 1.889498e-01 0.000000e+00
 0.000000e+00 0.000000e+00 0.000000e+00 9.522764e-01 4.772362e-02
 0.000000e+00 0.000000e+00 0.000000e+00 0.000000e+00 0.000000e+00
~t "T_r"
<TRANSP> 5
 0.000000e+00 1.000000e+00 0.000000e+00 0.000000e+00 0.000000e+00
 0.000000e+00 5.130966e-01 4.869034e-01 0.000000e+00 0.000000e+00
 0.000000e+00 0.000000e+00 3.736279e-01 6.263722e-01 0.000000e+00
 0.000000e+00 0.000000e+00 0.000000e+00 2.841283e-01 7.158716e-01
 0.000000e+00 0.000000e+00 0.000000e+00 0.000000e+00 0.000000e+00
~t "T_s"
<TRANSP> 5
 0.000000e+00 1.000000e+00 0.000000e+00 0.000000e+00 0.000000e+00
 0.000000e+00 5.125415e-01 4.874586e-01 0.000000e+00 0.000000e+00
 0.000000e+00 0.000000e+00 7.695655e-01 2.304345e-01 0.000000e+00
 0.000000e+00 0.000000e+00 0.000000e+00 8.933259e-01 1.066741e-01
 0.000000e+00 0.000000e+00 0.000000e+00 0.000000e+00 0.000000e+00
~t "T_t"
<TRANSP> 5
 0.000000e+00 1.000000e+00 0.000000e+00 0.000000e+00 0.000000e+00
 0.000000e+00 5.023301e-01 4.976699e-01 0.000000e+00 0.000000e+00
 0.000000e+00 0.000000e+00 7.772174e-01 2.227826e-01 0.000000e+00
 0.000000e+00 0.000000e+00 0.000000e+00 8.977833e-01 1.022167e-01
 0.000000e+00 0.000000e+00 0.000000e+00 0.000000e+00 0.000000e+00
~t "T_w"
<TRANSP> 5
 0.000000e+00 1.000000e+00 0.000000e+00 0.000000e+00 0.000000e+00
 0.000000e+00 7.059502e-01 2.940498e-01 0.000000e+00 0.000000e+00
 0.000000e+00 0.000000e+00 6.946618e-01 3.053382e-01 0.000000e+00
 0.000000e+00 0.000000e+00 0.000000e+00 7.502979e-01 2.497021e-01
 0.000000e+00 0.000000e+00 0.000000e+00 0.000000e+00 0.000000e+00
~t "T_z"
<TRANSP> 5
 0.000000e+00 1.000000e+00 0.000000e+00 0.000000e+00 0.000000e+00
 0.000000e+00 9.519469e-01 4.805315e-02 0.000000e+00 0.000000e+00
 0.000000e+00 0.000000e+00 8.085036e-01 1.914964e-01 0.000000e+00
 0.000000e+00 0.000000e+00 0.000000e+00 9.030870e-01 9.691298e-02
 0.000000e+00 0.000000e+00 0.000000e+00 0.000000e+00 0.000000e+00
~t "T_ae"
<TRANSP> 5
 0.000000e+00 1.000000e+00 0.000000e+00 0.000000e+00 0.000000e+00
 0.000000e+00 7.253904e-01 2.746096e-01 0.000000e+00 0.000000e+00
 0.000000e+00 0.000000e+00 7.740967e-01 2.259033e-01 0.000000e+00
 0.000000e+00 0.000000e+00 0.000000e+00 8.741609e-01 1.258391e-01
 0.000000e+00 0.000000e+00 0.000000e+00 0.000000e+00 0.000000e+00
~t "T_ah"
<TRANSP> 5
 0.000000e+00 1.000000e+00 0.000000e+00 0.000000e+00 0.000000e+00
 0.000000e+00 8.040390e-01 1.959610e-01 0.000000e+00 0.000000e+00
 0.000000e+00 0.000000e+00 6.443574e-01 3.556426e-01 0.000000e+00
 0.000000e+00 0.000000e+00 0.000000e+00 6.899759e-01 3.100241e-01
 0.000000e+00 0.000000e+00 0.000000e+00 0.000000e+00 0.000000e+00
~t "T_ao"
<TRANSP> 5
 0.000000e+00 1.000000e+00 0.000000e+00 0.000000e+00 0.000000e+00
 0.000000e+00 2.420863e-09 1.000000e+00 0.000000e+00 0.000000e+00
 0.000000e+00 0.000000e+00 4.490402e-01 5.509598e-01 0.000000e+00
 0.000000e+00 0.000000e+00 0.000000e+00 3.285269e-01 6.714731e-01
 0.000000e+00 0.000000e+00 0.000000e+00 0.000000e+00 0.000000e+00
~t "T_aw"
<TRANSP> 5
 0.000000e+00 1.000000e+00 0.000000e+00 0.000000e+00 0.000000e+00
 0.000000e+00 8.610144e-01 1.389856e-01 0.000000e+00 0.000000e+00
 0.000000e+00 0.000000e+00 8.606202e-01 1.393798e-01 0.000000e+00
 0.000000e+00 0.000000e+00 0.000000e+00 7.695481e-01 2.304519e-01
 0.000000e+00 0.000000e+00 0.000000e+00 0.000000e+00 0.000000e+00
~t "T_ay"
<TRANSP> 5
 0.000000e+00 1.000000e+00 0.000000e+00 0.000000e+00 0.000000e+00
 0.000000e+00 6.119965e-01 3.880036e-01 0.000000e+00 0.000000e+00
 0.000000e+00 0.000000e+00 7.073841e-01 2.926159e-01 0.000000e+00
 0.000000e+00 0.000000e+00 0.000000e+00 7.005175e-01 2.994825e-01
 0.000000e+00 0.000000e+00 0.000000e+00 0.000000e+00 0.000000e+00
~t "T_eh"
<TRANSP> 5
 0.000000e+00 1.000000e+00 0.000000e+00 0.000000e+00 0.000000e+00
 0.000000e+00 8.850667e-01 1.149333e-01 0.000000e+00 0.000000e+00
 0.000000e+00 0.000000e+00 7.124725e-01 2.875275e-01 0.000000e+00
 0.000000e+00 0.000000e+00 0.000000e+00 7.403958e-01 2.596042e-01
 0.000000e+00 0.000000e+00 0.000000e+00 0.000000e+00 0.000000e+00
~t "T_er"
<TRANSP> 5
 0.000000e+00 1.000000e+00 0.000000e+00 0.000000e+00 0.000000e+00
 0.000000e+00 7.980664e-01 2.019335e-01 0.000000e+00 0.000000e+00
 0.000000e+00 0.000000e+00 9.015808e-01 9.841920e-02 0.000000e+00
 0.000000e+00 0.000000e+00 0.000000e+00 9.078205e-01 9.217950e-02
 0.000000e+00 0.000000e+00 0.000000e+00 0.000000e+00 0.000000e+00
~t "T_ey"
<TRANSP> 5
 0.000000e+00 1.000000e+00 0.000000e+00 0.000000e+00 0.000000e+00
 0.000000e+00 1.134024e-01 8.865976e-01 0.000000e+00 0.000000e+00
 0.000000e+00 0.000000e+00 7.739389e-01 2.260610e-01 0.000000e+00
 0.000000e+00 0.000000e+00 0.000000e+00 8.734418e-01 1.265582e-01
 0.000000e+00 0.000000e+00 0.000000e+00 0.000000e+00 0.000000e+00
~t "T_ih"
<TRANSP> 5
 0.000000e+00 1.000000e+00 0.000000e+00 0.000000e+00 0.000000e+00
 0.000000e+00 4.424023e-01 5.575977e-01 0.000000e+00 0.000000e+00
 0.000000e+00 0.000000e+00 7.119755e-01 2.880245e-01 0.000000e+00
 0.000000e+00 0.000000e+00 0.000000e+00 7.080604e-01 2.919396e-01
 0.000000e+00 0.000000e+00 0.000000e+00 0.000000e+00 0.000000e+00
~t "T_iy"
<TRANSP> 5
 0.000000e+00 1.000000e+00 0.000000e+00 0.000000e+00 0.000000e+00
 0.000000e+00 7.876736e-01 2.123264e-01 0.000000e+00 0.000000e+00
 0.000000e+00 0.000000e+00 8.604372e-01 1.395629e-01 0.000000e+00
 0.000000e+00 0.000000e+00 0.000000e+00 9.557928e-01 4.420727e-02
 0.000000e+00 0.000000e+00 0.000000e+00 0.000000e+00 0.000000e+00
~t "T_ng"
<TRANSP> 5
 0.000000e+00 1.000000e+00 0.000000e+00 0.000000e+00 0.000000e+00
 0.000000e+00 8.733233e-01 1.266767e-01 0.000000e+00 0.000000e+00
 0.000000e+00 0.000000e+00 7.940970e-01 2.059030e-01 0.000000e+00
 0.000000e+00 0.000000e+00 0.000000e+00 8.441666e-01 1.558333e-01
 0.000000e+00 0.000000e+00 0.000000e+00 0.000000e+00 0.000000e+00
~t "T_th"
<TRANSP> 5
 0.000000e+00 1.000000e+00 0.000000e+00 0.000000e+00 0.000000e+00
 0.000000e+00 9.116773e-01 8.832268e-02 0.000000e+00 0.000000e+00
 0.000000e+00 0.000000e+00 8.050020e-01 1.949979e-01 0.000000e+00
 0.000000e+00 0.000000e+00 0.000000e+00 7.489955e-01 2.510045e-01
 0.000000e+00 0.000000e+00 0.000000e+00 0.000000e+00 0.000000e+00
~t "T_uw"
<TRANSP> 5
 0.000000e+00 1.000000e+00 0.000000e+00 0.000000e+00 0.000000e+00
 0.000000e+00 7.818240e-01 2.181760e-01 0.000000e+00 0.000000e+00
 0.000000e+00 0.000000e+00 9.286342e-01 7.136579e-02 0.000000e+00
 0.000000e+00 0.000000e+00 0.000000e+00 5.166864e-01 4.833136e-01
 0.000000e+00 0.000000e+00 0.000000e+00 0.000000e+00 0.000000e+00
~s "ST_f_2_1"
<MEAN> 25
 -1.911653e+01 3.202802e+00 -1.345501e+00 5.234379e+00 1.604522e+00 5.805179e+00 5.640285e+00 4.703195e+00 5.422359e+00 8.258790e-01 5.466497e+00 3.778297e+00 -1.993870e-03 -3.343024e-04 1.248031e-02 6.152188e-03 3.195658e-02 -2.504849e-02 -8.507113e-02 -1.168667e-02 7.551832e-02 6.548343e-02 3.444154e-03 -1.555291e-02 -5.484259e-03
<VARIANCE> 25
 5.484239e+00 6.254662e+00 6.708242e+00 1.614478e+01 9.385260e+00 9.761169e+00 9.810553e+00 1.697486e+01 1.209778e+01 1.012245e+01 8.244360e+00 8.772164e+00 4.337033e-02 1.462294e-01 2.178374e-01 3.327841e-01 4.516913e-01 4.425074e-01 7.193718e-01 1.083035e+00 1.048836e+00 1.063209e+00 8.277972e-01 9.790336e-01 3.817413e-02
<GCONST> 5.997742e+01
~s "ST_f_3_1"
<MEAN> 25
 -1.355968e+01 6.523494e+00 -1.959359e+00 2.041590e+00 3.021457e+00 5.164061e+00 2.460028e+00 9.179310e-01 1.244591e+00 -1.517224e+00 1.252013e+00 2.354045e+00 1.745630e-02 1.159158e-02 4.257514e-02 -2.648771e-02 -4.035230e-02 2.262152e-02 1.570340e-01 -5.090247e-02 -2.007491e-01 -9.131308e-02 -9.363051e-02 -2.076003e-02 1.038701e-02
<VARIANCE> 25
 7.903146e+00 9.954727e+00 7.728003e+00 1.768700e+01 7.825996e+00 9.183786e+00 1.197243e+01 1.553269e+01 1.299568e+01 1.120695e+01 1.360729e+01 1.225463e+01 5.568447e-02 2.070956e-01 3.029217e-01 5.576367e-01 7.082672e-01 7.643638e-01 7.858599e-01 9.761066e-01 1.217825e+00 1.196578e+00 1.017711e+00 1.048993e+00 3.817413e-02
<GCONST> 6.488456e+01
~s "ST_f_4_1"
<MEAN> 25
 -1.444668e+01 4.110117e+00 6.374689e-04 -6.382748e-01 2.371106e+00 3.412202e+00 1.328508e+00 2.850967e+00 9.088585e-01 -9.952441e-01 2.811291e+00 3.310967e+00 2.637773e-01 1.518624e-02 -2.931871e-03 -1.545352e-01 -1.532626e-01 -2.606565e-01 -7.854649e-02 -3.080337e-02 -2.122941e-01 -4.509710e-02 -9.955447e-02 -7.392385e-02 2.431773e-01
<VARIANCE> 25
 8.978518e+00 5.722291e+00 7.806267e+00 1.657559e+01 1.164095e+01 1.529606e+01 1.840672e+01 2.346977e+01 1.471111e+01 1.000137e+01 1.122406e+01 9.827417e+00 1.061100e+00 6.245439e-01 7.988514e-01 1.130049e+00 1.386341e+00 1.693575e+00 1.857596e+00 1.329454e+00 1.482334e+00 9.787278e-01 9.704666e-01 1.182335e+00 2.197109e+00
<GCONST> 7.823469e+01
~s "ST_s_2_1"
<MEAN> 25
 1.616326e+01 -1.116334e+01 1.117756e+01 -1.242603e+00 -6.464912e+00 -1.119588e+01 -4.612738e+00 5.407713e+00 -3.541684e+00 -1.363456e+00 -9.017155e-02 8.623009e-01 1.712964e+00 -2.129345e+00 1.296623e+00 -1.718086e+00 -6.195335e-01 2.806598e-01 -2.265851e+00 1.456776e+00 -9.172761e-01 -3.592632e-01 9.351541e-01 -8.412383e-02 2.161272e+00
<VARIANCE> 25
 2.426364e+01 4.002254e+01 7.418597e+01 8.624991e+01 7.182102e+01 5.910577e+01 7.429243e+01 5.890865e+01 8.895831e+01 4.956797e+01 4.840839e+01 3.297066e+01 4.946483e+00 7.940893e+00 1.359547e+01 1.177781e+01 8.584224e+00 9.174929e+00 7.462479e+00 5.384180e+00 1.169773e+01 5.802603e+00 6.526761e+00 3.880309e+00 7.466656e+00
<GCONST> 1.203599e+02
~s "ST_s_3_1"
<MEAN> 25
 1.909331e+01 -1.688954e+01 8.480271e+00 -4.262507e+00 -6.979501e+00 -7.320707e+00 -7.319968e+00 4.627345e+00 5.879081e-01 -1.296886e+00 -1.029635e+00 -9.314072e-01 4.420238e-01 -6.276264e-01 -9.336274e-01 -1.024699e+00 2.751855e-01 6.148378e-01 4.943072e-01 -4.398785e-01 3.761496e-01 7.145956e-01 -3.460073e-01 -8.292274e-01 8.192337e-01
<VARIANCE> 25
 3.301767e+01 2.588595e+01 1.167996e+02 8.656023e+01 8.296857e+01 5.921409e+01 5.752897e+01 9.140319e+01 9.457920e+01 5.745305e+01 4.156189e+01 3.521803e+01 2.899946e+00 2.565924e+00 5.345387e+00 6.234610e+00 6.520795e+00 5.369595e+00 6.487295e+00 5.945587e+00 6.335625e+00 5.292903e+00 3.571966e+00 3.917782e+00 1.330942e+00
<GCONST> 1.140340e+02
~s "ST_s_4_1"
<MEAN> 25
 1.948591e+01 -1.337592e+01 3.792157e+00 -1.429773e+01 -1.173693e+00 -1.777257e+00 -5.293987e+00 -2.830531e-01 -1.524097e+00 5.623800e+00 1.262135e-01 -3.579201e+00 5.997689e-03 6.217883e-01 -2.714205e-01 -4.393548e-01 6.274765e-01 3.414398e-01 -2.776760e-01 -3.810574e-01 -1.293962e-01 5.976621e-01 -2.235757e-01 1.924386e-01 -2.797023e-01
<VARIANCE> 25
 2.496223e+01 3.316741e+01 1.346768e+02 1.080856e+02 8.900039e+01 6.160812e+01 1.017556e+02 1.088159e+02 5.044078e+01 4.055856e+01 4.598530e+01 4.805940e+01 4.887281e-01 1.211493e+00 1.962118e+00 2.282641e+00 2.428600e+00 2.996824e+00 2.876071e+00 2.758162e+00 2.746582e+00 2.120968e+00 2.376116e+00 2.431805e+00 4.016787e-01
<GCONST> 1.031330e+02
~s "ST_l_2_1"
<MEAN> 25
 6.698235e-01 7.279868e+00 -1.334960e+00 -3.525052e-01 -5.768010e-01 -3.798417e-01 -7.441546e-01 -1.693087e+00 1.640056e+00 2.106399e-01 1.109848e+00 1.550633e+00 -9.641898e-01 -1.921109e+00 2.916832e-01 5.959045e-01 -2.488164e-01 -8.293599e-01 4.167356e-01 8.628551e-01 3.954872e-01 -1.974062e-01 -6.200191e-02 2.639907e-01 4.548028e-01
<VARIANCE> 25
 1.295098e+02 7.585075e+01 4.727309e+01 5.739362e+01 3.757536e+01 5.437539e+01 3.162659e+01 3.500355e+01 2.708024e+01 2.560808e+01 2.585301e+01 1.910849e+01 8.492005e+00 4.799708e+00 4.335496e+00 2.984884e+00 4.306156e+00 5.820860e+00 3.459501e+00 3.408034e+00 2.120782e+00 1.996266e+00 2.041540e+00 1.750795e+00 1.113640e+01
<GCONST> 1.075052e+02
~s "ST_l_3_1"
<MEAN> 25
 2.784197e+00 1.574652e+00 -1.272179e-01 5.092766e-01 -1.613056e-01 -7.930101e-01 -7.749020e-01 -1.753050e+00 1.404039e+00 -6.079801e-01 4.037858e-01 9.994151e-01 1.139252e+00 -3.830033e+00 8.575613e-01 3.509160e-01 -7.406340e-01 -2.023784e+00 2.764706e-01 9.017262e-01 -1.680618e-02 -4.893923e-01 -4.503925e-01 1.232324e-01 3.764558e+00
<VARIANCE> 25
 1.203191e+02 1.405478e+02 5.370412e+01 8.218108e+01 5.935764e+01 5.670437e+01 3.731939e+01 4.666478e+01 3.617656e+01 2.492640e+01 2.604285e+01 2.258006e+01 1.240969e+01 8.678434e+00 7.046479e+00 6.098222e+00 8.629680e+00 7.193481e+00 4.757169e+00 4.593971e+00 3.359038e+00 3.470302e+00 3.806701e+00 2.174392e+00 1.833780e+01
<GCONST> 1.159711e+02
~s "ST_l_4_1"
<MEAN> 25
 7.396267e+00 -7.666869e+00 1.999826e+00 2.182594e+00 -3.854728e-01 -6.673800e+00 -1.472714e+00 1.145717e+00 2.121064e+00 -1.736194e+00 -1.926794e+00 1.218688e+00 2.305676e+00 -2.032583e+00 1.355171e+00 3.523942e-01 -1.475723e+00 -1.383435e+00 -1.959370e-01 3.499456e-01 -8.509316e-01 -3.896295e-01 1.827194e-01 -2.340074e-01 3.092944e+00
<VARIANCE> 25
 8.429990e+01 9.980965e+01 8.560133e+01 9.900521e+01 6.068578e+01 8.926541e+01 6.092146e+01 5.094747e+01 4.666479e+01 3.591830e+01 3.625415e+01 3.025140e+01 9.834554e+00 1.173225e+01 8.559010e+00 6.082757e+00 8.775047e+00 6.044043e+00 7.314771e+00 4.900718e+00 6.484794e+00 5.073027e+00 5.163654e+00 3.099309e+00 1.171289e+01
<GCONST> 1.200694e+02
~s "ST_b_2_1"
<MEAN> 25
 2.029626e+01 -5.101370e+00 3.448214e+00 -8.409100e+00 -3.421884e+00 7.076178e+00 -9.550702e+00 -1.608477e+01 -4.140632e+00 6.758695e+00 -1.429853e+00 -1.804587e+00 2.211152e-01 4.156828e-01 -1.671924e-01 -1.376326e+00 -1.989522e-01 4.109368e-01 4.503853e-02 -1.240683e-01 -5.411015e-01 4.290107e-01 2.466916e-01 -1.016733e-01 1.284979e-01
<VARIANCE> 25
 9.617105e+00 4.504545e+01 5.665089e+01 1.975878e+02 6.813384e+01 7.138719e+01 9.546152e+01 7.996628e+01 5.719556e+01 2.869640e+01 6.883876e+01 2.462568e+01 5.529721e-01 4.551172e+00 3.767833e+00 8.479561e+00 6.874062e+00 5.811656e+00 6.507245e+00 7.043167e+00 5.103179e+00 2.691691e+00 4.034510e+00 2.392532e+00 2.243243e+00
<GCONST> 1.112048e+02
~s "ST_b_3_1"
<MEAN> 25
 2.195052e+01 9.692245e+00 -8.388986e+00 -1.348970e+01 -8.982535e-02 6.196860e+00 -4.140713e+00 -1.391573e+01 -1.022472e+01 3.424829e+00 3.155578e+00 1.109805e+00 -5.512246e-01 2.412848e+00 -1.379480e+00 9.150906e-01 8.820544e-01 -4.712192e-01 8.066131e-01 1.671826e+00 3.236135e-02 -1.665560e+00 8.554000e-01 9.758191e-01 -2.089841e+00
<VARIANCE> 25
 7.134434e+00 2.066472e+01 2.005592e+01 9.202764e+01 3.117533e+01 1.948854e+01 3.246761e+01 7.411153e+01 3.991667e+01 2.710695e+01 2.970210e+01 1.148254e+01 1.292841e+00 1.422812e+00 4.980664e+00 7.071472e+00 5.810269e+00 3.991699e+00 4.673496e+00 4.401038e+00 3.003282e+00 2.261701e+00 4.663747e+00 1.879174e+00 6.369048e-01
<GCONST> 9.944884e+01
~s "ST_b_4_1"
<MEAN> 25
 1.682136e+01 1.582461e+01 -6.322429e+00 -1.033666e+01 -4.406003e+00 3.826032e+00 8.136907e-01 -6.799113e+00 -8.739570e+00 -3.634563e+00 2.281207e+00 1.781441e+00 -2.498295e+00 3.549483e-01 1.738879e+00 1.743730e+00 -8.125464e-01 -9.392269e-01 6.034971e-01 1.391350e+00 1.548263e+00 -5.517170e-01 -3.594467e-01 -1.210410e-01 -1.931949e+00
<VARIANCE> 25
 1.666566e+01 9.700849e+00 2.041862e+01 5.661319e+01 6.655910e+01 5.634804e+01 2.104615e+01 5.314137e+01 2.249630e+01 3.822731e+01 3.450265e+01 3.101887e+01 1.979110e+00 1.399748e+00 1.580303e+00 2.312208e+00 2.728603e+00 4.412704e+00 2.142020e+00 5.104933e+00 2.247219e+00 1.604755e+00 1.817277e+00 1.408381e+00 8.274339e-01
<GCONST> 9.629503e+01
~s "ST_aw_2_1"
<MEAN> 25
 2.230224e+01 -1.195234e+01 -8.409581e+00 -1.035354e+01 5.634657e+00 7.367321e+00 -3.527609e+00 5.084887e-03 2.018335e+00 -8.302537e-01 3.639923e-01 -3.074408e+00 1.091208e+00 -2.087136e+00 5.960937e-01 -1.537397e+00 3.306545e-01 7.910108e-01 -1.203423e+00 6.257785e-01 3.794317e-02 -6.293503e-01 -5.174461e-01 -1.646717e-01 2.218064e+00
<VARIANCE> 25
 3.543028e+01 9.162388e+01 8.475198e+01 1.169742e+02 5.355268e+01 4.582022e+01 6.666512e+01 1.893904e+01 2.111826e+01 5.704862e+01 1.943019e+01 3.810386e+01 3.624469e+00 1.235725e+01 6.009355e+00 2.908274e+00 8.955935e+00 4.722158e+00 6.018650e+00 5.173986e+00 3.496385e+00 5.558311e+00 3.570277e+00 5.147399e+00 8.667377e+00
<GCONST> 1.137650e+02
~s "ST_aw_3_1"
<MEAN> 25
 2.523168e+01 -1.420438e+01 -1.381337e+00 -1.244880e+01 -2.009664e+00 9.283270e+00 -6.646981e+00 -5.050347e-01 -1.592396e+00 2.639488e+00 5.138485e+00 -7.155689e+00 -3.364388e-01 2.134503e+00 -1.228138e+00 1.324597e+00 3.965443e-01 -7.410133e-01 7.065372e-01 -4.568255e-01 3.078905e-01 5.268039e-01 1.984795e-01 4.930360e-02 -1.778580e+00
<VARIANCE> 25
 1.096976e+01 1.246202e+02 9.816467e+01 1.074131e+02 3.108747e+01 5.458127e+01 6.921510e+01 6.929163e+01 2.380557e+01 2.147043e+01 3.182137e+01 2.057924e+01 1.173442e+00 3.685313e+00 8.880725e+00 5.271150e+00 5.304561e+00 1.160629e+00 1.037943e+01 3.684553e+00 2.814435e+00 2.398038e+00 3.203525e+00 2.795252e+00 4.071877e+00
<GCONST> 1.073413e+02
~s "ST_aw_4_1"
<MEAN> 25
 1.163221e+01 4.326226e+00 -1.252163e+01 -5.496920e+00 1.628014e+00 4.219973e+00 2.210171e-01 -3.044837e+00 -3.092142e-01 3.007225e+00 3.247152e+00 -1.140779e+00 -3.842926e+00 2.326303e-01 1.220025e+00 1.104008e-01 -1.569917e+00 -2.211363e-01 5.864499e-01 6.653048e-01 -2.678537e-02 -3.302863e-01 9.390706e-01 1.302712e+00 -2.851105e+00
<VARIANCE> 25
 4.758023e+01 5.109272e+00 4.860246e+01 5.306181e+01 4.039747e+01 1.713484e+01 2.874666e+01 1.086816e+01 2.270757e+01 2.303486e+01 3.266942e+01 2.013142e+01 2.282142e+00 4.232306e+00 2.363149e+00 3.182706e+00 3.462319e+00 2.475379e+00 2.244938e+00 9.538606e-01 2.056319e+00 1.406878e+00 2.188072e+00 1.727793e+00 2.036378e+00
<GCONST> 9.462688e+01
~s "ST_r_2_1"
<MEAN> 25
 3.735055e+00 5.453202e+00 -1.640375e+00 -9.828721e-01 6.405159e-01 -1.242122e+00 1.102104e+00 -1.832847e+00 1.644428e-01 1.420897e+00 3.060385e-01 6.283926e-01 -1.474754e+00 9.287766e-01 1.524344e-01 2.640670e-01 -3.033026e-01 -7.018746e-02 5.620990e-01 5.212380e-02 1.291692e-01 -6.385133e-01 9.357275e-02 2.036638e-01 -1.381335e+00
<VARIANCE> 25
 1.900587e+02 1.031988e+02 5.226255e+01 5.827449e+01 6.330764e+01 5.370646e+01 5.625900e+01 5.098302e+01 4.052902e+01 3.625647e+01 2.639003e+01 2.493723e+01 7.003323e+00 6.433012e+00 6.771401e+00 4.785049e+00 6.502522e+00 3.255228e+00 6.465432e+00 4.823555e+00 4.185747e+00 3.615162e+00 2.856041e+00 2.287741e+00 3.886302e+00
<GCONST> 1.134571e+02
~s "ST_r_3_1"
<MEAN> 25
 1.440889e+00 6.883709e+00 1.065738e-01 1.400624e+00 -2.709661e+00 -9.935583e-01 -9.390960e-02 -2.237751e+00 -2.270909e-01 -2.279029e+00 -9.364268e-01 4.946757e-01 -2.702970e-01 -3.395700e-02 3.778471e-01 2.128984e-01 3.043298e-01 2.200283e-02 -3.510555e-02 7.532603e-02 8.128219e-02 -3.188967e-01 -2.252462e-01 1.349541e-01 -9.603858e-02
<VARIANCE> 25
 1.573254e+02 1.254284e+02 5.714254e+01 4.474929e+01 4.384412e+01 3.349166e+01 3.880363e+01 3.493001e+01 2.885899e+01 2.579205e+01 2.028056e+01 1.635503e+01 3.160423e+00 4.219642e+00 3.311152e+00 2.133004e+00 2.487255e+00 1.383354e+00 2.083565e+00 2.753643e+00 1.900301e+00 1.581802e+00 1.307838e+00 1.487791e+00 2.277535e+00
<GCONST> 1.007214e+02
~s "ST_r_4_1"
<MEAN> 25
 3.510004e+00 1.443019e+00 3.391236e-02 1.023887e+00 -1.988801e+00 -1.947825e+00 8.368810e-01 -2.147562e+00 -1.763755e-01 -3.649085e-01 -1.166818e+00 5.102588e-01 1.517402e+00 -1.562717e+00 5.751433e-01 -6.609170e-02 2.028535e-01 -7.659561e-01 -1.114682e-01 -3.409213e-01 4.836388e-01 2.310264e-01 -1.467852e-01 3.331581e-01 2.755697e+00
<VARIANCE> 25
 1.721069e+02 1.463183e+02 5.930083e+01 5.815081e+01 7.021989e+01 7.107356e+01 5.186781e+01 5.403426e+01 3.853215e+01 3.460358e+01 2.312907e+01 1.925897e+01 8.404380e+00 1.411884e+01 9.739607e+00 6.054956e+00 6.305636e+00 6.733212e+00 5.619586e+00 5.790435e+00 5.718681e+00 3.285735e+00 2.862364e+00 2.177246e+00 1.382281e+01
<GCONST> 1.174483e+02
~s "ST_k_2_1"
<MEAN> 25
 1.203418e+01 -1.392844e+00 -3.066543e+00 7.561805e+00 -1.755351e+00 -9.872470e+00 -6.718969e+00 5.066863e-01 6.503041e+00 -1.448867e-01 -4.338657e+00 1.466805e+00 -2.430595e+00 2.134973e+00 -1.031455e+00 -5.478933e-01 9.139600e-01 -2.420652e-01 -2.953301e-01 9.663572e-01 1.646872e-01 -2.499283e-01 1.120909e+00 2.417419e-01 -2.937098e+00
<VARIANCE> 25
 9.792565e+01 6.996121e+01 3.679918e+01 5.106297e+01 4.031353e+01 5.308189e+01 3.921257e+01 5.028119e+01 3.557277e+01 2.887482e+01 3.090122e+01 4.390386e+01 6.255470e+00 7.833317e+00 7.891171e+00 6.282403e+00 7.414389e+00 7.332705e+00 5.038272e+00 5.670024e+00 6.080040e+00 3.756979e+00 3.615035e+00 2.676465e+00 6.020262e+00
<GCONST> 1.140568e+02
~s "ST_k_2_2"
<MEAN> 25
 -3.528186e+00 2.468830e+00 1.936195e+00 -1.026796e+01 1.312341e+01 -7.833422e+00 -3.158720e+00 2.166376e+00 2.291437e+00 1.424809e+00 -3.350388e-02 1.092227e+00 -2.809217e+00 6.207340e-01 9.056881e-02 5.170684e-01 1.117567e+00 -3.052141e-01 -1.102500e-01 3.113002e-01 8.394560e-01 -7.899590e-01 4.856713e-01 2.809404e-01 -5.031223e-01
<VARIANCE> 25
 2.026585e+02 5.590169e+01 5.608333e+01 5.654764e+01 6.962629e+01 7.225304e+01 7.718140e+01 4.293500e+01 3.819025e+01 4.233868e+01 3.532303e+01 3.116249e+01 1.012239e+01 8.189662e+00 7.087886e+00 5.873100e+00 6.111033e+00 6.067128e+00 7.770615e+00 5.604187e+00 3.790497e+00 4.719104e+00 3.742275e+00 2.948478e+00 1.738070e+00
<GCONST> 1.157363e+02
~s "ST_k_3_1"
<MEAN> 25
 5.488277e+00 -8.055819e+00 -5.738976e+00 -1.986784e+00 1.153784e+01 -8.901441e+00 -7.335909e+00 4.706509e+00 3.426183e+00 2.987566e+00 -1.506861e+00 1.084718e+00 2.162794e+00 -1.995450e+00 -3.891674e-01 -2.184787e+00 1.861224e+00 3.262771e-01 1.546475e-01 -3.782620e-01 -8.663905e-01 1.444749e+00 3.484892e-02 -1.472113e+00 3.960557e+00
<VARIANCE> 25
 7.002419e+01 9.082162e+01 7.019869e+01 8.237144e+01 1.457917e+02 8.466728e+01 1.111212e+02 8.775483e+01 4.477376e+01 7.536680e+01 5.410044e+01 4.624907e+01 9.360020e+00 1.101931e+01 1.073843e+01 1.335316e+01 2.847940e+01 8.533527e+00 1.253985e+01 1.091177e+01 6.095683e+00 6.293015e+00 5.857877e+00 5.554743e+00 8.561371e+00
<GCONST> 1.272125e+02
~s "ST_k_3_2"
<MEAN> 25
 -4.201559e+00 -1.637711e+00 -3.046887e+00 -7.895387e+00 1.166757e+01 8.432954e-01 -7.874751e+00 1.079271e+00 1.713606e+00 1.441778e-01 3.410746e+00 2.246195e+00 2.715605e+00 1.324098e-01 -2.273911e+00 -4.160868e-01 -1.384132e+00 1.609442e+00 7.305180e-01 -2.965849e-01 -1.578421e+00 1.790018e-01 1.935704e-01 -1.456657e-01 -2.037431e+00
<VARIANCE> 25
 6.069996e+01 3.411172e+01 6.670264e+01 6.865001e+01 7.989246e+01 6.722342e+01 5.438911e+01 3.678306e+01 5.632571e+01 2.887867e+01 2.606395e+01 2.975059e+01 7.777249e+00 5.777183e+00 4.814519e+00 9.519384e+00 6.437588e+00 6.702756e+00 6.945245e+00 5.178671e+00 5.202011e+00 4.179207e+00 3.674329e+00 3.594128e+00 1.828617e+01
<GCONST> 1.157927e+02
~s "ST_k_4_1"
<MEAN> 25
 1.708010e+01 -3.689475e+00 -1.018246e+01 -1.569609e+01 7.056961e+00 3.209668e+00 -5.642490e+00 2.439975e-01 -5.306324e+00 4.594871e+00 9.428048e-01 -1.660632e+00 3.657475e+00 -1.997840e-01 9.098746e-01 -2.163746e+00 -1.127396e+00 8.771002e-01 -1.695834e-01 -8.834245e-01 -1.755302e+00 4.361176e-01 5.783232e-01 -2.929946e-01 2.843896e+00
<VARIANCE> 25
 2.961133e+01 6.054023e+01 9.671611e+01 5.891810e+01 5.695250e+01 8.796754e+01 5.747746e+01 6.080617e+01 6.665512e+01 4.909681e+01 5.186922e+01 2.652598e+01 5.275405e+00 4.655447e+00 9.123419e+00 8.004052e+00 6.716685e+00 8.215607e+00 6.949027e+00 7.803319e+00 6.513066e+00 4.952420e+00 5.853001e+00 3.588963e+00 5.425294e+00
<GCONST> 1.177900e+02
~s "ST_uw_2_1"
<MEAN> 25
 1.646714e+00 8.637843e+00 -2.698067e+00 -4.510499e-01 -1.199799e+00 1.942209e+00 -1.719428e-01 -4.581024e+00 -5.353271e+00 -3.636457e+00 2.204028e+00 2.086358e+00 -2.382593e+00 -8.999251e-01 6.002380e-01 1.029317e+00 -2.149444e-02 -4.165609e-01 4.731371e-01 8.817334e-01 1.613197e-01 -3.955830e-01 -5.236958e-01 -2.346645e-01 -1.449602e+00
<VARIANCE> 25
 6.331262e+01 2.471471e+01 2.765907e+01 3.948651e+01 2.916451e+01 2.787296e+01 1.949427e+01 2.801193e+01 2.169611e+01 2.203688e+01 2.121462e+01 2.485831e+01 2.172485e+00 1.611768e+00 2.645349e+00 2.805737e+00 2.779423e+00 2.587461e+00 1.906637e+00 1.972408e+00 2.177818e+00 1.479876e+00 1.752154e+00 1.613487e+00 1.068831e+00
<GCONST> 9.457070e+01
~s "ST_n_2_1"
<MEAN> 25
 1.067675e+00 1.134987e+01 5.290967e+00 7.230076e+00 -1.377694e+00 -1.403556e+00 -1.800568e+00 -3.215547e+00 -1.926885e+00 -4.544938e+00 -4.466227e+00 -2.791501e+00 -1.820184e+00 -1.482922e+00 -6.319045e-01 2.907700e-01 5.059052e-01 2.476315e-01 6.449080e-02 5.022524e-02 1.561109e-01 2.470956e-01 2.535427e-01 -7.290816e-02 -9.454390e-01
<VARIANCE> 25
 5.150875e+01 3.659544e+01 3.665733e+01 1.798947e+01 1.446410e+01 2.309025e+01 1.779462e+01 1.866824e+01 2.742340e+01 2.378452e+01 1.437076e+01 1.428413e+01 2.411708e+00 2.599307e+00 2.770015e+00 2.561186e+00 1.315731e+00 1.996282e+00 1.805931e+00 1.568267e+00 1.638990e+00 2.142511e+00 9.982532e-01 9.602305e-01 6.307165e-01
<GCONST> 8.995604e+01
~s "ST_uw_3_1"
<MEAN> 25
 -5.558797e+00 3.261454e+00 7.189276e-01 5.414401e+00 -1.102651e+00 -1.723486e-01 6.268024e-01 -1.153974e+00 -2.400914e+00 -3.238513e+00 -1.623214e+00 -1.510571e+00 -1.133137e-01 -3.399350e-02 8.691595e-02 1.193347e-01 6.119019e-02 3.141736e-02 6.113265e-02 6.929757e-02 8.527943e-02 2.658427e-02 1.646778e-03 1.045734e-02 -5.807489e-02
<VARIANCE> 25
 3.854913e+00 6.514703e+00 1.177568e+01 1.278675e+01 1.051891e+01 1.137547e+01 1.199761e+01 1.195645e+01 1.277372e+01 1.476613e+01 1.319652e+01 1.218779e+01 1.606428e-01 2.928707e-01 5.080302e-01 5.805660e-01 8.236185e-01 9.886573e-01 1.249336e+00 1.206363e+00 1.078887e+00 1.202527e+00 1.073942e+00 9.350128e-01 4.139179e-02
<GCONST> 6.726254e+01
~s "ST_n_3_1"
<MEAN> 25
 -7.609515e+00 6.040258e+00 1.025502e+00 7.667296e+00 2.559237e+00 2.507041e+00 -7.064586e-01 -2.051846e+00 -1.767303e+00 -4.317921e+00 -8.387666e-01 -1.300515e+00 -4.517395e-01 -3.085013e-01 -1.911528e-01 -1.145155e-01 -1.053280e-01 -2.050115e-02 7.785074e-02 1.836242e-01 2.085243e-01 2.410485e-01 2.064441e-01 1.889642e-01 -2.540238e-01
<VARIANCE> 25
 1.191227e+01 2.200832e+01 2.886128e+01 1.977070e+01 1.069285e+01 1.238239e+01 1.204645e+01 1.531122e+01 2.044833e+01 1.335553e+01 1.855853e+01 1.603999e+01 2.731687e-01 6.255522e-01 1.055252e+00 9.916400e-01 6.539710e-01 1.098009e+00 1.187301e+00 1.540208e+00 1.206611e+00 1.424879e+00 1.850446e+00 1.984201e+00 9.327795e-02
<GCONST> 7.729305e+01
~s "ST_uw_4_1"
<MEAN> 25
 -7.623701e+00 6.053306e+00 -1.373937e+00 3.360916e+00 -3.344727e-01 1.047084e+00 2.047457e+00 1.110511e+00 -2.116774e-01 -3.672993e+00 -1.480221e-01 1.573092e+00 -2.848593e-01 -6.974184e-02 1.316806e-01 1.917392e-01 2.301728e-01 -4.164689e-01 4.308193e-03 4.625741e-01 7.931944e-01 7.869841e-01 -7.331781e-02 -1.450694e-02 -1.459399e-02
<VARIANCE> 25
 1.313507e+01 1.721818e+01 3.384383e+01 4.902606e+01 1.839683e+01 4.135815e+01 1.686047e+01 2.475853e+01 1.241191e+01 1.981050e+01 1.383722e+01 1.721298e+01 1.215309e+00 1.257361e+00 1.790471e+00 1.908796e+00 1.768865e+00 2.449191e+00 1.874273e+00 2.127234e+00 1.907522e+00 1.875110e+00 1.705239e+00 1.994778e+00 8.223469e-01
<GCONST> 8.923400e+01
~s "ST_n_4_1"
<MEAN> 25
 -9.537042e+00 2.132284e+00 6.276553e-01 1.797375e+00 1.622844e-02 1.726455e+00 1.416407e-01 2.618998e-01 -6.332358e-01 -1.078649e+00 -8.842355e-01 7.095107e-02 -1.395113e-02 3.717493e-02 -1.032495e-02 -7.829905e-02 1.276623e-03 4.262988e-02 -9.081652e-03 3.689084e-02 3.919146e-02 -1.150976e-02 2.944647e-02 7.698984e-02 -1.889100e-02
<VARIANCE> 25
 3.590210e+00 6.184268e+00 6.348459e+00 1.181925e+01 6.878139e+00 1.255793e+01 1.459266e+01 1.235527e+01 1.597814e+01 1.402489e+01 1.472262e+01 1.404157e+01 1.544788e-01 3.083522e-01 4.416513e-01 6.432056e-01 7.319538e-01 9.584417e-01 1.178522e+00 1.336244e+00 1.587212e+00 1.473609e+00 1.563289e+00 1.331408e+00 4.340133e-02
<GCONST> 6.800422e+01
~s "ST_n_4_2"
<MEAN> 25
 -6.355986e+00 8.234862e-01 -4.689625e+00 1.806764e+00 1.591546e+00 1.909093e+00 1.061232e+00 1.334697e+00 1.211317e+00 -9.746740e-01 -1.782960e-01 2.339027e-01 -4.870724e-02 -3.130230e-02 -3.166691e-03 2.052276e-02 4.397507e-02 -3.555844e-03 2.425299e-02 3.028644e-02 -2.205173e-03 -4.093334e-02 1.001966e-03 9.248776e-03 -2.080484e-02
<VARIANCE> 25
 2.119449e+00 3.418990e+00 8.217278e+00 8.558894e+00 1.002015e+01 1.196161e+01 1.080571e+01 1.060954e+01 1.393807e+01 1.346306e+01 1.145419e+01 1.203192e+01 9.982862e-02 2.536546e-01 4.292260e-01 5.248085e-01 6.028100e-01 9.614927e-01 1.046989e+00 1.159860e+00 1.181678e+00 1.726901e+00 1.006718e+00 1.199465e+00 3.817413e-02
<GCONST> 6.398772e+01
~s "ST_d_2_1"
<MEAN> 25
 -1.647462e+01 1.404518e+00 -2.609324e-01 7.276759e+00 1.369256e+00 3.808848e+00 4.596930e+00 3.632376e+00 4.822349e+00 1.598950e+00 4.959249e+00 3.625367e+00 -2.065753e-02 5.624813e-03 4.706275e-03 1.546193e-02 2.843953e-02 -7.964235e-03 -6.045950e-02 -1.361264e-02 8.293089e-02 6.285607e-02 3.513805e-03 -2.958306e-02 -1.660020e-02
<VARIANCE> 25
 7.687875e+00 4.861161e+00 4.236818e+00 6.904799e+00 6.523412e+00 7.773673e+00 1.019486e+01 1.407148e+01 1.111307e+01 9.641923e+00 1.093551e+01 9.030555e+00 5.268623e-02 1.523817e-01 2.469505e-01 3.791072e-01 4.887713e-01 5.038224e-01 6.919349e-01 1.235243e+00 1.223952e+00 1.005737e+00 7.828353e-01 8.713540e-01 3.817413e-02
<GCONST> 5.891093e+01
~s "ST_d_3_1"
<MEAN> 25
 -1.306580e+01 5.589573e+00 -1.551523e+00 2.481058e+00 1.612249e+00 2.299138e+00 6.781758e-01 1.944609e+00 1.218597e+00 -1.984417e+00 6.408625e-01 2.037015e+00 -1.303003e-02 5.030670e-03 1.491722e-02 4.561076e-03 -1.138448e-02 2.710232e-02 1.031473e-02 -3.651896e-02 -7.341675e-02 -4.810520e-02 4.430652e-02 -2.116258e-03 -1.435380e-02
<VARIANCE> 25
 4.176878e+00 4.530013e+00 1.230091e+01 1.900001e+01 1.012900e+01 1.103475e+01 1.452378e+01 1.527682e+01 1.209618e+01 1.146015e+01 1.097257e+01 1.094268e+01 1.101574e-01 2.632893e-01 4.153754e-01 6.708214e-01 8.047513e-01 8.716289e-01 1.018668e+00 9.238117e-01 1.218987e+00 1.074246e+00 1.190735e+00 1.186101e+00 3.817413e-02
<GCONST> 6.629548e+01
~s "ST_d_4_1"
<MEAN> 25
 -1.042683e+01 4.515399e+00 4.807164e-01 3.154115e+00 7.684847e-01 1.852050e+00 3.902402e-01 8.685699e-01 1.409944e+00 -1.679836e+00 -1.365367e+00 3.497028e-02 5.505519e-02 3.860009e-02 7.958216e-02 1.372700e-01 6.957594e-02 6.797738e-02 6.725749e-02 -2.099249e-01 -2.352748e-01 4.121854e-02 -4.849207e-02 -1.508587e-01 6.446259e-02
<VARIANCE> 25
 1.512631e+01 6.336628e+00 1.696554e+01 1.506248e+01 1.169823e+01 1.122510e+01 1.730475e+01 1.801119e+01 2.199967e+01 1.086843e+01 2.278048e+01 1.867433e+01 1.044206e+00 6.089492e-01 6.142584e-01 9.847781e-01 1.242765e+00 1.171284e+00 1.380439e+00 2.072313e+00 2.622719e+00 1.356554e+00 1.474844e+00 1.694839e+00 5.157226e-01
<GCONST> 8.019679e+01
~s "ST_th_2_1"
<MEAN> 25
 1.520866e+01 -1.170015e+01 2.091220e+01 -8.781304e-01 -1.683042e+01 -3.981799e+00 -4.265312e+00 -8.371083e-01 -8.560105e+00 -4.249180e+00 2.147125e+00 1.760803e+00 -1.066767e-02 9.641299e-01 1.001849e+00 1.811756e-01 -1.677716e+00 5.552417e-01 8.592396e-01 -8.269438e-01 -1.646723e+00 -7.785999e-02 3.794653e-01 -1.085148e-01 -7.927899e-01
<VARIANCE> 25
 1.714958e+01 3.097647e+01 6.996349e+01 7.217794e+01 6.877432e+01 4.751669e+01 7.774708e+01 3.792673e+01 1.075779e+02 3.651830e+01 5.373593e+01 3.684861e+01 1.685781e+00 3.993492e+00 4.496079e+00 5.530394e+00 4.597801e+00 7.344037e+00 6.841678e+00 3.743065e+00 5.464096e+00 3.507788e+00 5.256385e+00 4.955245e+00 1.680140e+00
<GCONST> 1.113119e+02
~s "ST_th_3_1"
<MEAN> 25
 1.381324e+01 8.336693e+00 1.949124e+01 2.572984e+00 -2.679057e+01 -6.771668e+00 9.742476e+00 -8.058297e+00 -1.433776e+01 5.479853e-01 8.174575e-01 -8.001113e-01 -1.051564e+00 3.818416e+00 -1.646196e+00 3.157027e-01 1.992353e+00 -7.071028e-01 -1.102949e+00 3.702745e-01 2.232788e+00 9.065380e-01 -2.972472e-01 -3.634794e-01 -2.859964e+00
<VARIANCE> 25
 1.103375e+01 5.896916e+01 3.780746e+01 1.236193e+02 3.069796e+01 6.390071e+01 1.066787e+02 6.969635e+01 5.117971e+01 6.326057e+01 2.878651e+01 2.422277e+01 8.176143e-01 1.408740e+00 5.425097e+00 6.408082e+00 1.039810e+01 4.163937e+00 1.217677e+01 5.268679e+00 6.317185e+00 5.033405e+00 4.539243e+00 2.423455e+00 4.983427e-01
<GCONST> 1.087801e+02
~s "ST_th_4_1"
<MEAN> 25
 5.159970e+00 1.438405e+01 9.995097e+00 5.105361e-01 -1.404852e+01 -3.702869e+00 -8.108224e-02 -6.879972e+00 -4.673196e+00 3.718730e-01 -1.542968e+00 -2.004896e+00 -2.210090e+00 -1.207537e+00 -2.170481e+00 5.426525e-02 1.837423e+00 8.478348e-01 -3.403679e-02 3.379270e-01 4.060439e-01 -6.612478e-01 -2.080426e-02 2.095478e-01 -1.619676e+00
<VARIANCE> 25
 3.284028e+01 4.531735e+01 4.849861e+01 1.558903e+01 1.730661e+01 2.440326e+01 2.510366e+01 1.556937e+01 1.240938e+01 1.634299e+01 1.992408e+01 8.870173e+00 1.739239e+00 2.127083e+00 2.996476e+00 3.438390e+00 5.513685e+00 3.198493e+00 6.918275e+00 1.267425e+00 3.429482e+00 2.516707e+00 2.454731e+00 8.787567e-01 1.061329e+00
<GCONST> 9.404672e+01
~s "ST_ay_2_1"
<MEAN> 25
 6.782248e+00 9.956181e-01 -6.375679e+00 -4.924875e+00 9.972327e+00 -5.484076e+00 -3.227787e+00 -4.143775e+00 6.011309e+00 7.584217e-01 -9.122178e-01 7.787311e-01 -1.398514e+00 -9.112680e-02 -2.053704e-01 1.048514e+00 4.536316e-01 -1.365630e+00 1.675149e+00 3.198308e-01 1.190286e+00 -7.864089e-01 4.891297e-01 8.445484e-01 1.402211e-01
<VARIANCE> 25
 9.928698e+01 6.370757e+01 9.634782e+01 8.378603e+01 6.915234e+01 1.139094e+02 1.176098e+02 5.779641e+01 5.237720e+01 6.104340e+01 3.227422e+01 4.191500e+01 1.225124e+01 1.258575e+01 7.223694e+00 1.296285e+01 1.105745e+01 1.571443e+01 1.460227e+01 9.913465e+00 6.667250e+00 7.502396e+00 3.829670e+00 4.337790e+00 1.997268e+01
<GCONST> 1.261988e+02
~s "ST_ay_3_1"
<MEAN> 25
 9.794689e-01 -6.642991e+00 2.696302e-01 -6.105860e+00 4.238152e+00 -9.769316e+00 2.951996e+00 -1.458033e-01 5.352028e+00 7.986895e-01 -5.288353e-01 2.164187e+00 2.298521e+00 -2.521852e+00 2.496845e+00 -1.952611e+00 -2.126381e-01 9.372149e-01 -1.420821e+00 1.409448e+00 -3.145454e-01 1.083015e+00 -6.526111e-01 -1.177088e+00 2.988288e+00
<VARIANCE> 25
 7.735684e+01 5.809702e+01 6.505109e+01 6.289922e+01 5.188417e+01 5.649562e+01 6.489155e+01 3.927680e+01 4.238148e+01 3.276697e+01 4.400720e+01 3.729153e+01 9.920194e+00 5.490602e+00 1.347942e+01 9.821256e+00 7.975676e+00 1.053500e+01 1.000649e+01 3.911805e+00 5.729484e+00 6.891893e+00 5.966373e+00 3.731996e+00 9.788617e+00
<GCONST> 1.191819e+02
~s "ST_ay_4_1"
<MEAN> 25
 1.467391e+01 -1.530701e+01 4.607839e+00 -6.827924e+00 -3.372162e-01 -2.481549e-01 -7.261428e+00 3.581152e+00 4.093523e+00 2.595971e+00 -1.473786e+00 -2.010087e+00 2.870840e+00 -2.148085e+00 -1.696295e+00 2.003679e+00 -2.593752e+00 1.249852e+00 -1.700795e-01 -1.879174e-01 -9.717521e-02 -4.956245e-01 1.900058e-01 -4.033251e-01 6.407325e-01
<VARIANCE> 25
 5.404027e+01 3.064577e+01 1.755193e+02 8.028102e+01 7.634956e+01 4.614566e+01 3.198387e+01 3.239450e+01 3.540819e+01 5.032389e+01 2.386183e+01 2.048756e+01 6.760300e+00 3.318724e+00 1.331345e+01 6.534287e+00 6.208995e+00 1.141075e+01 6.533944e+00 3.562893e+00 5.898393e+00 5.076759e+00 6.286323e+00 2.861198e+00 3.287784e+00
<GCONST> 1.141641e+02
~s "ST_g_2_1"
<MEAN> 25
 1.772041e+01 -1.360742e+01 8.557924e+00 -1.052462e+00 -9.534284e+00 -8.491863e+00 -4.903515e+00 -1.044706e-01 -6.020638e+00 3.970250e+00 8.062636e-01 -7.048151e-01 1.950347e-01 -1.102011e-02 1.027614e+00 -4.204876e-01 -1.318291e+00 5.294534e-01 8.216118e-01 -3.459705e-01 -9.175704e-01 3.756965e-01 1.182462e-01 1.736585e-01 1.733690e-01
<VARIANCE> 25
 1.483657e+01 2.853962e+01 8.949747e+01 1.866777e+02 1.211850e+02 7.967641e+01 8.213811e+01 6.537293e+01 8.456848e+01 4.861026e+01 4.969526e+01 3.536646e+01 1.883061e+00 3.049719e+00 5.774867e+00 1.006135e+01 5.942390e+00 4.680994e+00 6.644835e+00 8.626912e+00 4.804269e+00 5.317225e+00 4.928636e+00 3.956345e+00 2.058813e+00
<GCONST> 1.153933e+02
~s "ST_g_3_1"
<MEAN> 25
 1.780412e+01 -4.538136e+00 5.663558e+00 -2.162726e+00 -7.817638e+00 -2.619012e+00 -2.311515e+00 -3.731138e+00 -6.457928e+00 1.160964e+00 -5.333435e-01 2.452731e-01 4.208688e-01 3.840178e+00 -2.886374e+00 3.474842e+00 -3.883138e-01 1.983992e-01 2.274484e+00 -2.924279e+00 5.082823e-01 -1.103262e+00 -2.294810e-01 7.222467e-02 -3.123146e+00
<VARIANCE> 25
 1.960815e+01 7.167429e+01 8.900805e+01 1.664804e+02 1.242019e+02 6.426365e+01 1.584340e+02 7.881346e+01 1.302727e+02 6.370367e+01 3.951725e+01 2.405490e+01 1.193655e+00 7.875312e+00 3.998199e+00 9.354255e+00 7.787520e+00 3.632278e+00 7.391526e+00 7.713221e+00 5.332081e+00 8.685257e+00 2.727558e+00 2.228375e+00 3.373975e+00
<GCONST> 1.172011e+02
~s "ST_g_4_1"
<MEAN> 25
 2.097331e+01 -2.148446e+00 -5.273637e+00 9.992579e-01 -5.465672e+00 -2.410437e+00 -5.507565e-01 -1.259853e+01 -3.670800e+00 6.586062e+00 -2.418746e+00 -6.354688e+00 -4.419155e-02 1.535785e+00 -6.799944e-01 -3.358407e-01 4.749680e-01 3.159924e-01 -4.742119e-01 -6.444003e-01 4.474780e-01 -1.109779e-01 -1.687425e-01 -9.115458e-02 -8.576207e-01
<VARIANCE> 25
 8.652552e+00 7.688442e+01 6.924312e+01 8.981860e+01 7.798457e+01 3.292632e+01 7.504790e+01 6.491943e+01 5.914472e+01 4.594600e+01 3.568451e+01 3.225546e+01 4.239448e-01 5.105073e+00 1.959716e+00 3.922795e+00 3.456177e+00 2.395561e+00 4.420016e+00 2.969890e+00 2.620457e+00 2.003849e+00 2.565918e+00 1.634288e+00 1.817333e+00
<GCONST> 1.036699e+02
~s "ST_t_2_1"
<MEAN> 25
 9.042932e+00 -9.316934e+00 6.077902e+00 -3.918322e+00 -2.344565e-01 -1.254568e+01 -1.583222e+00 1.256640e+00 5.486975e-01 1.101193e-01 -8.980026e-01 1.858771e+00 2.977060e+00 -1.498540e+00 2.048322e+00 -1.698205e+00 -8.337785e-01 5.981442e-01 -1.900850e+00 -4.848911e-01 -1.627279e+00 7.991830e-01 8.880035e-01 -5.490834e-01 3.599194e+00
<VARIANCE> 25
 6.659866e+01 6.358026e+01 7.873454e+01 8.428913e+01 8.496285e+01 9.059759e+01 7.986835e+01 8.289719e+01 9.627798e+01 4.277414e+01 5.940023e+01 3.377634e+01 1.133974e+01 1.163058e+01 1.267884e+01 1.113393e+01 8.102571e+00 1.057041e+01 1.057643e+01 9.114050e+00 1.159925e+01 4.038213e+00 5.323863e+00 5.145943e+00 1.230753e+01
<GCONST> 1.252900e+02
~s "ST_t_3_1"
<MEAN> 25
 1.614335e+01 -1.483706e+01 1.037889e+01 -7.316446e+00 -5.177801e+00 -7.410489e+00 -8.655649e+00 4.149168e+00 -1.437755e+00 7.206199e-01 1.219351e+00 -2.778763e-01 6.596963e-01 -4.340734e-01 -7.099307e-01 -1.394675e+00 2.986277e-01 1.652892e+00 -5.400597e-01 -2.721885e-01 2.740425e-01 8.094842e-01 -5.568878e-01 -7.314495e-01 4.877595e-01
<VARIANCE> 25
 2.414142e+01 3.731906e+01 1.299395e+02 7.482449e+01 4.484386e+01 6.470892e+01 5.881918e+01 1.347117e+02 1.097350e+02 4.177938e+01 4.882612e+01 3.832949e+01 3.060935e+00 2.575375e+00 4.896495e+00 5.788323e+00 4.526728e+00 6.462500e+00 7.035183e+00 7.289152e+00 7.895675e+00 4.092774e+00 3.948985e+00 2.459156e+00 1.140325e+00
<GCONST> 1.134508e+02
~s "ST_ey_2_1"
<MEAN> 25
 6.368056e-01 1.123734e+01 6.104981e+00 4.592108e+00 -2.874054e+00 3.283928e+00 1.063167e+00 8.249730e-01 3.661620e+00 -2.689853e+00 3.738303e+00 1.064729e+00 3.495458e+00 -9.572380e-01 5.712910e+00 -1.786322e+00 -4.298506e+00 -2.006755e+00 3.422534e-01 1.271613e+00 -3.202286e+00 -1.697558e-01 1.502865e+00 -4.500291e-01 5.087885e+00
<VARIANCE> 25
 5.981409e+01 2.339643e+01 3.945516e+01 3.264214e+01 4.603337e+01 7.064138e+00 2.763034e+01 2.303245e+01 1.350041e+01 9.914419e+00 1.197534e+01 1.782311e+01 1.191164e+01 4.529997e+00 1.518329e+01 6.796728e+00 8.564393e+00 5.968094e+00 9.805655e+00 6.426133e+00 7.708776e+00 6.767626e+00 1.925099e+00 3.584018e+00 1.599152e+01
<GCONST> 1.082121e+02
~s "ST_t_4_1"
<MEAN> 25
 1.836164e+01 -1.175050e+01 -2.571642e-02 -1.666380e+01 2.704848e+00 3.982119e+00 -7.700834e+00 -1.851995e+00 -2.002539e-01 7.035091e+00 -1.706633e+00 -3.689148e+00 3.231120e-02 1.337122e+00 -5.192936e-01 -5.220141e-02 5.419090e-01 3.225908e-01 -2.642515e-02 -8.571476e-01 -2.907136e-01 3.916907e-01 2.739158e-01 1.393467e-01 -7.102385e-01
<VARIANCE> 25
 2.067243e+01 6.505000e+01 7.506757e+01 1.130308e+02 8.859779e+01 6.472707e+01 1.100142e+02 9.804886e+01 4.817201e+01 2.621677e+01 3.496497e+01 3.803070e+01 5.119241e-01 1.378392e+00 1.889088e+00 4.078769e+00 2.341533e+00 3.005167e+00 3.407403e+00 2.946016e+00 3.160119e+00 2.416647e+00 1.995181e+00 2.016999e+00 8.692351e-01
<GCONST> 1.037072e+02
~s "ST_t_4_2"
<MEAN> 25
 2.133405e+01 3.720820e+00 -2.276988e+00 -1.534432e+01 -2.339004e+00 7.689761e+00 -5.695738e+00 -9.629642e+00 -1.064435e+01 1.438118e+00 2.169097e+00 2.083857e+00 -3.797915e-01 1.306738e+00 -8.096452e-01 3.993886e-01 9.019449e-02 2.140606e-01 5.184860e-01 2.403987e-01 -1.581515e-01 -7.091992e-01 7.111832e-02 4.828357e-01 -1.579983e+00
<VARIANCE> 25
 1.363301e+01 7.166774e+01 1.037700e+02 1.243242e+02 4.064371e+01 2.916921e+01 7.267457e+01 6.282877e+01 4.410518e+01 5.312917e+01 2.281374e+01 2.340771e+01 2.034222e+00 2.651380e+00 4.918781e+00 6.016576e+00 2.979616e+00 3.494813e+00 3.360955e+00 3.438082e+00 5.917819e+00 3.447475e+00 2.533280e+00 2.533167e+00 9.821742e-01
<GCONST> 1.065602e+02
~s "ST_ey_3_1"
<MEAN> 25
 9.348990e+00 8.955271e-01 2.574321e+01 -7.211775e+00 -1.521574e+01 -3.020037e+00 1.075434e+00 3.136902e+00 -1.620304e+01 -1.357164e+00 4.887412e+00 -2.230948e-01 1.594275e+00 -3.331578e+00 2.547597e+00 -1.786091e+00 -5.378256e-01 -1.254549e+00 -1.073246e+00 2.690264e-01 -2.497502e+00 7.678146e-01 -4.538947e-01 3.021043e-01 3.925856e+00
<VARIANCE> 25
 1.863030e+01 5.240403e+01 1.133472e+02 9.157826e+01 3.967464e+01 7.182799e+01 7.323319e+01 4.382161e+01 8.905306e+01 7.911763e+01 1.988208e+01 2.865340e+01 5.425145e+00 1.854130e+00 1.270718e+01 7.923535e+00 1.085748e+01 5.599518e+00 5.198184e+00 3.729216e+00 1.101562e+01 3.727680e+00 2.919323e+00 2.717799e+00 6.784986e+00
<GCONST> 1.150059e+02
~s "ST_ao_2_1"
<MEAN> 25
 -5.811119e+00 8.869828e+00 5.232316e+00 8.060178e+00 4.424525e+00 2.633957e+00 4.335253e+00 2.409536e+00 1.695213e+00 -6.011014e-01 2.217093e+00 3.008453e+00 6.603573e+00 1.972188e-01 2.063452e+00 -1.317290e+00 -1.161458e+00 -2.371159e+00 -1.599809e+00 -1.168869e+00 9.066349e-01 -2.245823e-01 -1.150065e+00 2.826034e-02 7.523932e+00
<VARIANCE> 25
 3.333157e+01 3.362293e+01 3.923577e+01 4.108853e+01 1.848307e+01 1.876210e+01 3.503466e+01 2.454940e+01 2.142481e+01 1.707992e+01 1.026930e+01 1.027039e+01 4.240746e+00 2.138832e+01 1.232688e+01 6.742764e+00 1.957716e+00 5.223346e+00 5.575963e+00 2.371998e+00 3.053508e+00 2.985292e+00 3.229712e+00 1.643180e+00 1.755213e+01
<GCONST> 1.040997e+02
~s "ST_ey_4_1"
<MEAN> 25
 1.566765e+01 -1.571822e+01 2.172493e+01 -7.778839e+00 -1.154747e+01 -7.340868e+00 -6.244379e+00 8.446256e+00 -8.952193e+00 1.412140e+00 2.840075e+00 2.142586e+00 4.870183e-01 -7.544972e-01 -1.104994e+00 1.637950e-01 -1.120713e-01 -1.769016e-01 2.063189e-01 4.644663e-01 1.038072e+00 2.700029e-01 -1.911123e-01 2.000493e-01 4.930155e-01
<VARIANCE> 25
 1.746871e+01 2.483154e+01 5.932333e+01 5.834395e+01 2.815108e+01 2.780109e+01 3.055828e+01 3.956179e+01 5.114136e+01 3.613842e+01 2.493049e+01 1.453034e+01 1.165305e+00 1.312035e+00 2.458435e+00 3.871341e+00 2.776622e+00 3.095688e+00 2.041903e+00 3.771065e+00 3.708936e+00 2.704406e+00 2.729288e+00 1.447953e+00 1.668273e+00
<GCONST> 9.840503e+01
~s "ST_ao_3_1"
<MEAN> 25
 9.077500e+00 1.607727e+01 1.088293e+01 3.947970e+00 -2.263367e+00 -1.958334e+00 -1.410855e+00 -2.741254e+00 3.291010e+00 -3.509249e+00 -2.482369e+00 2.012031e+00 5.335516e+00 -1.594880e+00 -4.710545e-01 -1.416448e+00 -9.994186e-01 -3.168241e+00 -1.265677e+00 -6.323305e-01 -5.368407e-02 1.020520e-01 -1.399239e+00 -5.020535e-01 5.718215e+00
<VARIANCE> 25
 2.040737e+01 2.170355e+02 1.021486e+02 5.766776e+01 2.306083e+01 4.774751e+01 4.317008e+01 2.173756e+01 2.182990e+01 1.392389e+01 1.409756e+01 1.583686e+01 9.404813e+00 2.032908e+01 7.283942e+00 5.885904e+00 3.923732e+00 3.930902e+00 6.026321e+00 3.948429e+00 5.330266e+00 3.723148e+00 3.835515e+00 3.643356e+00 1.378233e+01
<GCONST> 1.111629e+02
~s "ST_ao_4_1"
<MEAN> 25
 1.376678e+01 2.464235e-01 2.821314e+00 1.740071e+00 3.941368e-02 -1.060661e+01 -1.692696e+00 -2.867109e+00 1.792623e+00 -5.245183e-01 -4.955586e+00 7.343984e-01 2.936440e+00 -6.660837e+00 -9.148154e-01 -2.675148e+00 5.922240e-01 -3.697473e+00 -1.878377e+00 4.263639e-01 -4.533455e-01 1.046188e+00 -1.016437e+00 -5.648421e-01 6.351373e+00
<VARIANCE> 25
 1.685818e+01 1.659199e+02 7.042960e+01 7.692325e+01 5.520194e+01 4.395345e+01 5.505315e+01 4.515945e+01 5.321761e+01 4.654010e+01 2.006409e+01 3.722124e+01 1.081428e+01 8.707702e+00 1.153857e+01 9.224874e+00 6.957850e+00 8.838825e+00 1.244426e+01 7.804717e+00 9.739503e+00 3.827945e+00 3.959546e+00 5.073383e+00 2.450029e+00
<GCONST> 1.179463e+02
~s "ST_sil_2_1"
<MEAN> 25
 -9.838559e+00 5.231205e+00 -2.143855e+00 4.470178e+00 8.823562e-01 2.278857e+00 1.784107e+00 -6.788446e-01 4.124014e-01 -2.492407e+00 -4.399966e-01 1.914735e-02 -2.501865e-02 -4.264280e-03 1.633733e-02 3.269402e-02 3.223763e-02 1.458009e-02 2.367641e-02 7.146360e-03 -2.074882e-02 -2.220521e-02 -3.612864e-03 1.425810e-02 -1.391292e-02
<VARIANCE> 25
 7.662355e+00 5.592383e+00 9.687867e+00 1.401152e+01 1.074285e+01 1.269938e+01 1.399531e+01 1.669036e+01 1.356368e+01 1.333672e+01 1.419472e+01 1.279374e+01 1.150434e-01 2.416869e-01 4.176858e-01 6.239761e-01 7.950356e-01 9.361928e-01 1.064158e+00 1.169459e+00 1.165453e+00 1.233977e+00 1.249748e+00 1.180593e+00 4.204861e-02
<GCONST> 6.796408e+01
~s "silst"
<MEAN> 25
 -1.543452e+01 3.313344e+00 -2.793562e+00 5.764995e+00 1.876662e+00 4.489628e+00 5.118989e+00 4.322137e+00 6.833078e+00 1.718526e+00 3.543510e+00 4.191267e+00 -7.241664e-03 1.787417e-03 1.959779e-02 2.360901e-02 1.922727e-02 1.886854e-02 -1.830392e-03 -5.705779e-02 -5.956296e-02 -3.188469e-02 8.125043e-04 -8.448081e-03 -2.505499e-03
<VARIANCE> 25
 6.481033e+00 5.391506e+00 9.858347e+00 8.601463e+00 9.262084e+00 9.336382e+00 1.131912e+01 1.463968e+01 1.328417e+01 1.024563e+01 9.463579e+00 7.304161e+00 3.829603e-02 1.296194e-01 2.224754e-01 3.594991e-01 4.948500e-01 4.782573e-01 7.987897e-01 1.127566e+00 1.349823e+00 1.009570e+00 7.811664e-01 8.699635e-01 3.817413e-02
<GCONST> 5.994067e+01
~s "ST_sil_3_1"
<MEAN> 25
 -1.549596e+01 3.294419e+00 -2.714366e+00 5.850458e+00 1.826130e+00 4.438782e+00 5.112216e+00 4.280624e+00 6.754814e+00 1.723310e+00 3.578775e+00 4.149436e+00 -7.132145e-03 1.155639e-03 1.968665e-02 2.314441e-02 1.853918e-02 1.900322e-02 -3.457183e-04 -5.881176e-02 -5.978572e-02 -2.953647e-02 -1.396024e-03 -6.712814e-03 -2.689794e-03
<VARIANCE> 25
 6.414985e+00 5.273904e+00 9.789430e+00 8.662409e+00 9.158971e+00 9.322525e+00 1.130209e+01 1.459294e+01 1.332908e+01 1.021933e+01 9.418459e+00 7.380787e+00 3.816793e-02 1.303591e-01 2.217406e-01 3.616248e-01 4.916694e-01 4.780973e-01 8.048663e-01 1.134206e+00 1.349101e+00 1.015845e+00 7.816300e-01 8.699806e-01 3.817413e-02
<GCONST> 5.991534e+01
~s "ST_sil_4_1"
<MEAN> 25
 -8.038556e+00 4.244725e+00 -1.053887e+00 4.539621e+00 2.405804e+00 2.683792e+00 2.053507e+00 -6.089781e-01 5.450694e-02 -1.788403e+00 -5.763932e-02 7.364852e-01 4.192529e-01 5.211008e-02 2.569266e-02 -7.294932e-02 -7.692976e-02 -2.299836e-01 -2.720462e-01 -1.298228e-01 -1.095800e-01 -6.642254e-02 -1.893390e-01 -2.155942e-01 3.206912e-01
<VARIANCE> 25
 3.818518e+01 2.883917e+01 2.888121e+01 2.559353e+01 2.631869e+01 2.731489e+01 2.327075e+01 2.422456e+01 1.857873e+01 2.184208e+01 1.672865e+01 1.455606e+01 3.236920e+00 2.364146e+00 1.866185e+00 2.028009e+00 2.225638e+00 2.614785e+00 2.030192e+00 1.731032e+00 1.677135e+00 1.595952e+00 1.522591e+00 1.266604e+00 4.797855e+00
<GCONST> 9.356345e+01
~s "ST_iy_2_1"
<MEAN> 25
 3.125806e+00 1.632328e+01 5.369435e+00 6.092038e+00 -3.425715e+00 -1.898621e+00 -1.409806e+00 -5.573453e+00 -2.198896e+00 -3.694430e+00 -1.936017e+00 -1.532308e+00 -2.001455e+00 -1.395679e+00 -7.583362e-01 4.246050e-01 1.209510e+00 7.687024e-01 5.490796e-02 2.044759e-01 1.564849e-01 2.989434e-02 9.327246e-02 8.219965e-02 -1.120712e+00
<VARIANCE> 25
 5.445780e+01 3.689755e+01 2.491796e+01 1.075481e+01 1.838905e+01 1.723043e+01 1.582718e+01 2.700470e+01 1.382195e+01 1.768852e+01 2.077992e+01 1.493087e+01 1.093174e+00 1.526526e+00 1.979932e+00 1.095843e+00 1.172769e+00 1.327316e+00 1.698438e+00 2.509949e+00 1.598392e+00 1.550809e+00 1.638500e+00 1.446810e+00 2.650983e-01
<GCONST> 8.581864e+01
~s "ST_iy_3_1"
<MEAN> 25
 -7.727476e+00 7.170202e+00 1.210408e-01 7.598731e+00 1.710306e+00 1.805097e+00 1.405573e+00 -3.053060e+00 -2.652241e+00 -4.512693e+00 -1.086275e+00 -1.932625e-01 -4.074145e-01 -2.856057e-01 -2.763948e-01 -1.328298e-01 5.613085e-02 1.053773e-01 1.937187e-01 3.133992e-01 2.296526e-01 1.040369e-01 5.417851e-02 5.208737e-02 -2.208140e-01
<VARIANCE> 25
 9.067948e+00 1.012255e+01 1.265743e+01 1.824251e+01 1.128765e+01 1.582930e+01 1.161920e+01 1.452123e+01 1.338808e+01 1.351748e+01 1.634252e+01 1.830656e+01 3.333294e-01 6.634610e-01 7.965341e-01 8.488290e-01 1.139478e+00 1.105292e+00 1.018489e+00 1.000998e+00 1.581317e+00 1.654725e+00 1.372555e+00 1.658234e+00 8.170526e-02
<GCONST> 7.475105e+01
~s "ST_iy_4_1"
<MEAN> 25
 -1.007563e+01 4.780353e+00 -6.050633e+00 4.747744e+00 2.429724e+00 3.121613e+00 2.388865e+00 -1.964593e+00 1.176342e+00 -2.008847e+00 -3.432764e-01 -5.627658e-01 -3.481732e-02 -3.608214e-02 -2.872963e-02 -6.401842e-03 2.726664e-02 5.866221e-02 6.673321e-02 4.828349e-02 4.921865e-02 5.598295e-03 -5.076205e-03 -3.150926e-02 -1.611269e-02
<VARIANCE> 25
 5.950047e+00 5.984951e+00 4.837027e+00 8.730738e+00 1.113009e+01 1.286881e+01 1.197035e+01 1.367267e+01 1.147422e+01 1.121367e+01 1.213504e+01 1.149526e+01 1.095075e-01 2.427250e-01 3.993507e-01 6.206311e-01 6.972173e-01 8.954498e-01 1.103177e+00 1.289844e+00 1.151263e+00 1.156802e+00 1.257924e+00 1.056562e+00 3.817413e-02
<GCONST> 6.528480e+01
~s "ST_ae_2_1"
<MEAN> 25
 1.890954e+01 -2.257363e+01 -2.170770e+00 -6.826042e+00 -5.845324e-01 -7.520504e-01 -5.338492e-01 4.422023e+00 2.595788e+00 2.987521e+00 -4.110817e+00 -5.375910e+00 -3.058273e-01 -1.603503e+00 7.414488e-01 -3.067987e-01 1.240908e-01 -1.412490e+00 1.547222e+00 1.282457e+00 -1.069897e+00 -1.655062e-01 -1.668594e+00 -3.249007e-01 1.242009e+00
<VARIANCE> 25
 2.428742e+01 1.615478e+01 6.777486e+01 1.088456e+02 5.681202e+01 8.150586e+01 5.699084e+01 4.007535e+01 2.122875e+01 3.304414e+01 3.043155e+01 1.822654e+01 2.557263e+00 3.050677e+00 4.309273e+00 5.367892e+00 8.295983e+00 5.159441e+00 4.296291e+00 5.221353e+00 4.124848e+00 2.798043e+00 1.853203e+00 2.741929e+00 1.234304e+00
<GCONST> 1.062155e+02
~s "ST_ae_3_1"
<MEAN> 25
 1.848835e+01 -2.348352e+01 7.741536e-01 2.108687e+00 -9.050390e+00 -8.448284e+00 8.628778e+00 5.607957e+00 -3.156689e+00 -1.813134e+00 -8.328200e+00 -1.688114e+00 -4.868757e-01 5.047839e-01 1.126938e+00 -2.980506e-01 -5.959688e-01 -3.742743e-01 9.988385e-01 1.045062e+00 -1.502764e+00 -7.026826e-01 8.549682e-01 -1.509519e-01 -2.709148e-01
<VARIANCE> 25
 1.453140e+01 2.746463e+01 4.544595e+01 9.062064e+01 5.498425e+01 2.842543e+01 5.700069e+01 4.660988e+01 3.009221e+01 2.205542e+01 2.644114e+01 1.569556e+01 5.789996e-01 2.068377e+00 4.129298e+00 2.651577e+00 3.845244e+00 1.834998e+00 2.728468e+00 2.706893e+00 1.525293e+00 1.467467e+00 1.347236e+00 1.591998e+00 1.222956e+00
<GCONST> 9.632170e+01
~s "ST_ae_4_1"
<MEAN> 25
 1.328367e+01 -2.070923e+01 1.534087e+01 -1.169769e+01 -9.509322e+00 -5.510787e+00 1.163351e+00 1.560021e+01 -9.154466e+00 -6.990331e-01 2.850492e+00 -4.894576e+00 -4.504440e-02 9.195014e-01 6.476892e-01 2.867242e-01 -6.372194e-01 1.753429e-01 4.670978e-01 -2.901734e-01 -1.234960e+00 1.656088e-01 6.118323e-01 -2.243904e-01 -5.572662e-01
<VARIANCE> 25
 8.040310e+00 1.758332e+01 4.765145e+01 3.660702e+01 5.281260e+01 2.617406e+01 4.042816e+01 3.133083e+01 4.323030e+01 3.299330e+01 3.061305e+01 2.613306e+01 3.043965e-01 1.874225e+00 2.148838e+00 1.399828e+00 2.649190e+00 1.400607e+00 2.235097e+00 2.510474e+00 2.993811e+00 2.135676e+00 2.148637e+00 1.332624e+00 7.418058e-01
<GCONST> 9.287022e+01
~s "ST_w_2_1"
<MEAN> 25
 2.559979e+01 -1.705926e+00 -6.510055e+00 -1.676335e+01 -2.170321e+00 3.524097e+00 -6.491122e-01 -4.324777e+00 -1.147453e+01 2.226081e+00 8.133910e+00 -1.390895e-01 6.432642e-01 -3.463460e+00 7.736047e-01 1.140703e+00 -5.531467e-03 -1.853795e+00 -2.280507e-02 -3.973892e-02 -7.960949e-03 1.757898e+00 9.942006e-01 -1.438319e+00 2.464524e+00
<VARIANCE> 25
 1.406981e+01 6.156419e+01 7.379101e+01 7.670600e+01 5.003588e+01 3.966137e+01 4.870339e+01 5.115804e+01 4.968225e+01 4.909216e+01 3.304374e+01 2.880635e+01 2.676469e+00 3.033558e+00 7.839858e+00 7.262513e+00 9.374434e+00 7.926798e+00 6.090439e+00 4.768153e+00 8.456501e+00 4.567891e+00 6.159964e+00 4.840753e+00 1.823579e+00
<GCONST> 1.128868e+02
~s "ST_w_3_1"
<MEAN> 25
 2.273546e+01 -1.457425e+01 -4.982570e+00 -9.739033e+00 1.010761e+00 -5.107000e+00 -2.026154e+00 -4.846748e-01 -4.302136e+00 6.917181e+00 5.055705e+00 -8.471189e+00 -1.053129e+00 -1.985530e+00 6.196087e-01 1.770150e+00 1.334165e-01 -1.979848e+00 2.006235e-01 1.685735e+00 2.683606e+00 -9.660696e-01 -2.523545e+00 -1.533753e+00 1.036526e+00
<VARIANCE> 25
 2.446515e+01 2.016514e+01 5.708479e+01 1.047748e+02 4.832299e+01 5.789093e+01 7.492365e+01 6.410728e+01 6.911959e+01 4.717648e+01 5.091280e+01 3.676768e+01 5.040603e-01 2.072865e+00 2.254957e+00 2.111760e+00 3.744462e+00 2.751032e+00 3.586931e+00 3.003735e+00 3.703792e+00 3.496932e+00 2.350580e+00 3.336868e+00 4.948047e-01
<GCONST> 1.031137e+02
~s "ST_w_4_1"
<MEAN> 25
 1.768882e+01 -1.924661e+01 2.018638e+00 -1.036923e+01 -9.664237e-03 -7.614978e+00 -1.119563e+00 1.045850e+01 1.746049e-01 7.955806e-01 -2.228662e+00 -8.740834e+00 1.082102e-01 -3.824966e-01 4.865028e-01 9.449115e-01 -1.085130e+00 4.090814e-02 2.709358e-01 3.247474e-01 3.306878e-01 -4.898447e-01 -1.330324e+00 3.138185e-01 -3.294722e-01
<VARIANCE> 25
 1.875612e+01 1.855230e+01 4.002804e+01 6.875547e+01 4.709948e+01 5.774843e+01 5.500526e+01 6.411371e+01 4.343903e+01 3.553099e+01 2.981624e+01 2.740886e+01 8.667660e-01 1.120970e+00 1.393979e+00 1.527193e+00 1.763380e+00 3.275170e+00 3.000295e+00 4.495711e+00 2.700079e+00 4.290666e+00 2.596442e+00 2.655259e+00 5.001768e-01
<GCONST> 9.861314e+01
~s "ST_ng_2_1"
<MEAN> 25
 1.921895e+01 -5.416547e-01 2.276861e+00 1.805544e+00 -1.048571e+01 -8.602846e-01 9.245107e+00 -7.609127e+00 -1.396185e+01 2.796636e+00 1.461917e+00 -2.890907e+00 5.646936e-01 3.030365e+00 -1.580777e+00 6.154224e-01 3.445659e-01 8.256460e-01 -5.231171e-01 -2.768985e+00 5.526332e-01 3.484148e-01 8.097590e-02 5.762036e-01 -1.653897e+00
<VARIANCE> 25
 1.073883e+01 9.146800e+01 8.778621e+01 1.031165e+02 6.350948e+01 3.831766e+01 6.526312e+01 1.457058e+02 4.740913e+01 3.511094e+01 2.307810e+01 3.083565e+01 9.917817e-01 3.529271e+00 5.746387e+00 9.168518e+00 4.739058e+00 3.171409e+00 7.762589e+00 9.111608e+00 5.967658e+00 3.718582e+00 2.523154e+00 2.417900e+00 1.171325e+00
<GCONST> 1.101419e+02
~s "ST_ng_3_1"
<MEAN> 25
 1.676809e+01 -1.460032e-01 4.548960e-01 -3.745956e+00 6.370257e-01 -5.141366e+00 -6.299720e+00 -1.833600e+00 -3.748609e+00 1.958444e+00 -2.569093e+00 -2.896755e+00 -7.198376e-01 -3.823688e+00 9.229979e-01 -3.520930e+00 3.045512e+00 -6.879126e-01 -4.027090e+00 3.847279e+00 2.483016e+00 8.376805e-01 -1.311026e+00 -9.339806e-01 2.650739e+00
<VARIANCE> 25
 1.532469e+01 1.362221e+02 6.052680e+01 1.310392e+02 1.330171e+02 6.997922e+01 1.325022e+02 1.457449e+02 7.717329e+01 4.063895e+01 5.441508e+01 3.210838e+01 1.963047e+00 7.620759e+00 7.593899e+00 1.241721e+01 1.006710e+01 1.144935e+01 7.626787e+00 1.372614e+01 4.771832e+00 7.372628e+00 5.203851e+00 3.688335e+00 2.910548e+00
<GCONST> 1.213263e+02
~s "ST_m_2_1"
<MEAN> 25
 2.094920e+00 6.634948e+00 7.470231e+00 -3.996655e+00 6.164551e+00 -1.571282e+01 -4.053174e-01 2.035280e+00 1.164717e+00 -4.405103e+00 -5.154370e+00 2.541307e+00 7.523426e-01 -8.115146e-01 1.338904e+00 -1.189250e+00 3.308328e-01 -9.401488e-01 -1.148236e+00 2.558113e-01 -4.052620e-01 -2.557877e-01 -2.875190e-02 -1.122923e-01 3.586471e+00
<VARIANCE> 25
 6.490064e+01 1.009908e+02 7.926429e+01 9.797874e+01 1.611344e+02 1.257793e+02 1.187343e+02 7.287486e+01 6.520233e+01 5.126739e+01 4.946432e+01 2.871218e+01 1.107483e+01 9.742944e+00 7.549427e+00 9.589135e+00 1.529016e+01 1.188034e+01 9.097506e+00 8.636314e+00 9.370631e+00 7.015209e+00 5.567516e+00 4.186636e+00 4.151012e+00
<GCONST> 1.253351e+02
~s "ST_ng_4_1"
<MEAN> 25
 1.679181e+01 -1.159738e+01 4.711423e+00 -2.315060e+01 5.380953e+00 3.014759e+00 -1.472401e+01 4.086072e+00 1.585371e+00 1.132590e+01 -3.062452e+00 -4.046962e+00 2.229885e-01 3.103861e-01 -3.958157e-01 -3.459656e-01 -2.964927e-02 7.456754e-01 -4.999438e-01 -8.555380e-01 1.366941e-01 2.215036e-01 1.955778e-01 3.747005e-01 -1.509599e-01
<VARIANCE> 25
 4.681488e+00 1.967937e+01 2.162371e+01 3.020162e+01 3.840274e+01 2.472333e+01 3.611977e+01 2.995422e+01 2.408148e+01 2.340842e+01 4.076192e+01 2.605140e+01 2.912772e-01 1.292600e+00 1.055838e+00 2.796221e+00 1.872894e+00 2.339062e+00 1.457709e+00 1.798967e+00 1.411958e+00 1.696593e+00 2.250025e+00 1.668949e+00 5.805215e-01
<GCONST> 8.829655e+01
~s "ST_m_3_1"
<MEAN> 25
 1.756697e+01 -1.166029e+01 1.248100e+01 -1.640518e+01 1.750355e+00 -3.605980e+00 -1.468725e+01 -2.165176e+00 -4.317525e+00 4.505527e+00 1.674262e+00 -1.239822e+00 2.579213e+00 -1.268640e+00 -3.315694e-01 -9.431352e-01 -9.749746e-01 2.311921e+00 1.999483e-02 -1.077401e+00 -5.872363e-01 9.693988e-01 6.476526e-01 -6.579252e-02 -7.038900e-02
<VARIANCE> 25
 5.508013e+01 4.072051e+01 2.632890e+01 8.502568e+01 2.736986e+01 9.501755e+01 5.445198e+01 7.666827e+01 4.612554e+01 3.980729e+01 4.552610e+01 1.400153e+01 3.568181e+00 3.189460e+00 2.903205e+00 6.086645e+00 5.726110e+00 7.014967e+00 6.150993e+00 6.621920e+00 3.685699e+00 6.736434e+00 1.829102e+00 2.273031e+00 1.622619e+00
<GCONST> 1.093741e+02
~s "ST_er_2_1"
<MEAN> 25
 1.211837e+01 -2.502603e+00 4.137792e+00 -9.361200e+00 8.529400e+00 -5.885870e+00 -6.089854e+00 1.861213e+00 1.335830e+00 2.303403e+00 -3.478227e+00 -4.899545e-01 -4.629580e+00 3.202691e+00 2.457095e-01 9.954573e-01 1.641284e+00 -1.415423e+00 2.487886e+00 7.271984e-01 1.057582e+00 -2.492627e+00 6.251651e-01 1.309739e+00 -9.031708e-01
<VARIANCE> 25
 9.557529e+01 7.329298e+01 8.464523e+01 7.058713e+01 7.050635e+01 8.283292e+01 8.446590e+01 7.967410e+01 6.338753e+01 7.480500e+01 4.821436e+01 5.041076e+01 8.826540e+00 6.516709e+00 1.173922e+01 9.083531e+00 1.101273e+01 5.485113e+00 9.685544e+00 1.113786e+01 7.484924e+00 6.358119e+00 5.947993e+00 6.484012e+00 1.760658e+00
<GCONST> 1.228278e+02
~s "ST_m_4_1"
<MEAN> 25
 2.072522e+01 -3.497958e+00 6.525435e+00 -3.544869e+00 -8.265264e+00 -4.659991e-01 1.118948e+00 -7.610930e+00 -9.065915e+00 1.116904e+00 8.911057e-01 -1.951628e+00 -2.970389e-01 9.026874e-01 -4.850081e-01 7.412517e-01 -3.787110e-02 -2.334252e-01 3.848369e-01 -2.544200e-02 7.634460e-02 -1.432934e-01 -8.545390e-02 -1.053566e-01 -1.034184e+00
<VARIANCE> 25
 4.292659e+01 1.343630e+02 1.548464e+02 1.549326e+02 5.563522e+01 8.995816e+01 9.586894e+01 1.691526e+02 8.149878e+01 7.491185e+01 3.914332e+01 3.091858e+01 2.529444e+00 7.425547e+00 8.345695e+00 9.199594e+00 3.592408e+00 4.890325e+00 6.032523e+00 1.169263e+01 7.084457e+00 8.276313e+00 3.122631e+00 3.272943e+00 5.513043e+00
<GCONST> 1.212186e+02
~s "ST_er_3_1"
<MEAN> 25
 -9.838445e+00 4.255754e+00 4.516721e+00 -6.969178e+00 4.965340e+00 -1.012213e+01 7.782468e+00 1.161950e+00 1.205182e-01 -3.714651e+00 1.402649e+00 4.323667e+00 1.382728e+00 -1.131078e+00 4.657230e-01 4.549726e-01 -1.579971e+00 -3.154250e-01 2.267998e-01 -2.045230e-01 -5.289147e-01 1.308401e-01 2.651524e-01 -3.090093e-01 3.085946e-01
<VARIANCE> 25
 7.991163e+01 4.372153e+01 5.739926e+01 3.972533e+01 6.672395e+01 5.382676e+01 5.418689e+01 7.208650e+01 3.916436e+01 3.943271e+01 3.571335e+01 2.758539e+01 2.118433e+01 5.560854e+00 5.680148e+00 4.010931e+00 4.895288e+00 4.757085e+00 7.623070e+00 5.450530e+00 3.932050e+00 3.939374e+00 4.025118e+00 3.222990e+00 3.127483e+00
<GCONST> 1.137426e+02
~s "ST_ah_2_1"
<MEAN> 25
 1.965646e+01 -2.487603e+00 -3.554645e+00 9.606109e-01 -4.330362e+00 -1.240262e+00 -1.687746e+00 -1.171498e+01 -2.179452e+00 5.754030e+00 -9.285954e+00 -4.544168e+00 -2.038209e-01 1.782501e+00 -2.412467e-01 1.213554e+00 -3.668298e-01 6.731534e-02 9.022232e-02 -4.941871e-01 -3.106292e-01 -4.745694e-01 1.010634e-02 2.730641e-01 -1.526554e+00
<VARIANCE> 25
 1.594645e+01 6.385138e+01 6.979208e+01 1.896288e+02 8.046549e+01 9.350082e+01 1.014240e+02 1.088791e+02 7.732644e+01 6.712317e+01 5.628550e+01 3.692907e+01 8.627726e-01 3.417426e+00 2.797220e+00 6.618645e+00 7.027766e+00 3.433044e+00 5.055899e+00 8.892713e+00 3.058714e+00 3.756664e+00 3.800573e+00 1.779231e+00 1.417526e+00
<GCONST> 1.124833e+02
~s "ST_ah_2_2"
<MEAN> 25
 2.190583e+01 -1.001782e+01 -3.944024e+00 -1.550722e+01 1.330504e+00 1.226753e+00 -5.045148e+00 -3.996743e+00 -5.173209e+00 9.484883e+00 -5.341557e-01 -4.700510e+00 1.430930e-01 8.362992e-01 -1.664123e-01 4.176955e-02 -6.553074e-01 9.692135e-01 -2.366002e-01 -9.394939e-01 1.567504e-01 -1.419748e-01 -2.307339e-01 7.509151e-02 -5.873946e-01
<VARIANCE> 25
 1.559596e+01 3.376907e+01 7.178314e+01 1.167971e+02 8.036782e+01 6.389648e+01 5.475669e+01 8.371918e+01 4.683417e+01 3.588629e+01 5.809406e+01 3.964608e+01 3.465538e-01 1.387890e+00 1.023367e+00 3.089526e+00 2.935687e+00 2.532836e+00 2.621683e+00 3.185519e+00 2.226682e+00 2.327537e+00 1.776228e+00 1.449331e+00 4.895154e-01
<GCONST> 9.981531e+01
~s "ST_er_4_1"
<MEAN> 25
 1.651842e+01 -1.508753e+01 1.084279e+01 -4.917668e-01 -8.931733e+00 -8.827616e+00 -4.332324e+00 3.459610e+00 -1.470137e+00 1.008789e+00 -1.430758e+00 -2.858731e-01 6.201563e-01 -4.691785e-01 -6.587430e-01 1.103412e+00 -5.046935e-02 4.701898e-01 -8.587125e-01 -3.833558e-01 6.277685e-01 3.575444e-01 -9.382473e-01 2.094165e-01 -6.427491e-01
<VARIANCE> 25
 3.116976e+01 1.517018e+01 6.438314e+01 6.342950e+01 3.881190e+01 7.310182e+01 4.762422e+01 5.166368e+01 6.076108e+01 5.244897e+01 6.701911e+01 2.651688e+01 5.712878e+00 5.596241e+00 8.511880e+00 7.182025e+00 5.275475e+00 7.262654e+00 6.173232e+00 7.027956e+00 6.373838e+00 5.983840e+00 5.251565e+00 3.534081e+00 3.706071e+00
<GCONST> 1.145947e+02
~s "ST_ah_3_1"
<MEAN> 25
 2.031194e+01 2.673530e+00 -7.265460e+00 -4.628128e+00 2.858259e+00 1.780762e+00 -7.612843e+00 -7.741938e+00 -7.366560e-02 2.506433e+00 -3.810480e+00 -3.648757e+00 -7.279810e-01 3.673022e+00 -4.832068e-01 1.264858e+00 4.627309e-01 1.870985e-01 2.850737e-01 -8.422568e-03 3.422641e-02 -1.571770e+00 6.245546e-01 3.119242e-01 -2.866417e+00
<VARIANCE> 25
 2.082501e+01 7.443235e+01 5.664539e+01 1.176311e+02 6.701971e+01 5.682376e+01 4.966062e+01 6.368907e+01 4.168638e+01 6.684239e+01 4.313560e+01 3.329502e+01 1.898967e+00 3.978551e+00 8.433093e+00 1.015741e+01 7.830086e+00 6.878338e+00 7.211249e+00 7.639546e+00 5.352122e+00 5.274920e+00 4.891648e+00 3.108850e+00 2.160283e+00
<GCONST> 1.149042e+02
~s "ST_ah_4_1"
<MEAN> 25
 1.409997e+01 1.129148e+01 -5.328772e+00 -3.728271e+00 1.461105e+00 4.354547e+00 -4.638806e+00 -8.177980e+00 -1.502942e+00 1.113560e-01 -7.092103e-01 -2.558843e+00 -2.127871e+00 5.996566e-01 1.703313e+00 4.077821e-01 -1.184698e+00 -2.332293e-01 9.866986e-01 6.832443e-01 -3.808169e-02 -4.560412e-01 5.515313e-01 6.445847e-01 -1.578657e+00
<VARIANCE> 25
 4.878765e+01 6.351973e+01 9.278883e+01 6.289376e+01 6.436444e+01 5.334005e+01 4.416862e+01 2.921933e+01 3.787683e+01 3.077338e+01 2.689420e+01 1.941608e+01 3.517163e+00 3.593763e+00 4.424470e+00 2.930919e+00 3.741481e+00 2.453978e+00 3.212531e+00 2.931254e+00 2.649053e+00 2.521276e+00 2.157319e+00 1.841074e+00 2.130063e+00
<GCONST> 1.048740e+02
~s "ST_z_2_1"
<MEAN> 25
 -6.437088e+00 1.073087e+00 -2.590299e+00 9.811704e-01 1.035348e+00 8.100871e-01 -8.691199e-01 2.224681e+00 1.144472e+00 2.157790e-02 3.426892e-01 6.915169e-01 -1.341537e-02 -7.380029e-03 -6.498690e-02 -2.393865e-02 2.259226e-02 1.389127e-02 -1.548094e-03 8.138274e-02 6.025744e-02 -1.998564e-02 -4.421178e-02 -6.710636e-03 -2.681196e-02
<VARIANCE> 25
 2.119449e+00 2.026169e+00 5.226015e+00 1.229073e+01 1.452215e+01 9.477794e+00 1.299369e+01 1.131888e+01 1.299031e+01 1.123796e+01 1.084643e+01 8.118240e+00 1.093808e-01 2.490850e-01 3.486475e-01 8.330534e-01 7.325291e-01 7.507458e-01 1.213194e+00 1.194510e+00 1.309536e+00 1.196843e+00 9.215205e-01 8.276945e-01 3.817413e-02
<GCONST> 6.279048e+01
~s "ST_z_3_1"
<MEAN> 25
 -7.228351e+00 -5.986847e-01 -2.522058e+00 1.497597e+00 -7.415419e-01 3.129981e-02 4.925889e-01 2.530976e+00 3.205632e+00 -1.595305e-01 -1.135064e+00 1.338772e-02 3.931226e-01 3.599174e-01 5.000021e-01 1.436788e-01 2.685501e-01 -3.946815e-03 -1.343724e-01 -1.734760e-01 -1.853892e-01 4.235566e-02 -2.894098e-01 -3.552614e-01 2.691918e-01
<VARIANCE> 25
 7.019681e+00 1.409811e+01 2.844383e+01 1.016788e+01 1.044613e+01 1.374045e+01 1.682782e+01 1.171277e+01 3.119920e+01 9.315391e+00 1.400584e+01 1.340380e+01 9.986867e-01 1.698467e+00 3.938476e+00 1.439389e+00 1.417103e+00 1.270895e+00 2.326071e+00 1.413051e+00 4.284788e+00 1.271203e+00 1.568707e+00 1.634603e+00 8.888345e-01
<GCONST> 8.392675e+01
~s "ST_z_4_1"
<MEAN> 25
 1.429148e+01 -7.675462e-01 9.151582e-01 -1.324675e+01 8.030035e+00 1.224870e+00 -7.953897e+00 -4.814134e+00 -1.976085e+00 8.830533e-01 -1.862405e+00 -7.240025e-01 3.936575e-01 -6.035164e-02 -2.486894e-01 -2.162061e-01 4.697832e-02 2.325500e-01 -1.295621e-01 -4.085133e-01 -2.452964e-01 4.470519e-02 2.478790e-01 -2.377254e-02 3.075174e-01
<VARIANCE> 25
 2.017397e+02 1.337715e+02 8.874693e+01 1.294792e+02 3.724013e+01 1.504327e+02 7.508836e+01 6.241361e+01 3.601013e+01 5.318673e+01 4.162217e+01 2.820639e+01 7.131186e+00 9.368553e+00 6.776531e+00 9.623583e+00 4.028473e+00 6.378290e+00 7.928224e+00 6.485487e+00 5.274032e+00 7.073883e+00 5.352715e+00 3.187419e+00 8.906504e+00
<GCONST> 1.214171e+02
~s "ST_eh_2_1"
<MEAN> 25
 2.161385e+01 -1.821423e+01 -5.557894e-01 3.166446e+00 -1.117301e+01 -5.180128e+00 2.917843e+00 -1.374833e+00 9.345999e-01 4.895784e+00 -6.007727e+00 -4.506547e+00 4.691630e-02 7.029780e-01 -3.200631e-01 7.102184e-01 6.141836e-03 -2.821535e-01 1.807420e-01 -3.759090e-01 -2.407907e-01 2.118278e-01 -2.509758e-01 3.020090e-01 -7.482271e-01
<VARIANCE> 25
 1.722596e+01 2.261959e+01 3.979940e+01 6.296537e+01 2.926031e+01 4.084296e+01 3.954342e+01 8.284272e+01 4.565160e+01 4.948106e+01 4.171819e+01 3.028528e+01 1.776557e+00 2.509011e+00 4.835546e+00 5.940241e+00 3.771770e+00 3.832488e+00 3.590703e+00 7.857417e+00 4.443523e+00 4.251915e+00 3.404343e+00 2.595834e+00 2.793699e+00
<GCONST> 1.067915e+02
~s "ST_eh_3_1"
<MEAN> 25
 1.926092e+01 -5.425455e+00 -6.464324e+00 6.883881e+00 -3.379696e+00 -8.875757e+00 9.042643e-01 1.070737e+00 1.435255e+00 -3.094563e-01 -5.434216e+00 -1.774585e+00 -1.387043e+00 3.872788e+00 -1.480484e+00 -1.396585e-01 2.359063e+00 3.839137e-01 -1.069043e+00 1.679574e+00 1.272450e+00 -2.155782e+00 5.022034e-01 7.631567e-01 -3.408779e+00
<VARIANCE> 25
 2.665935e+01 4.296893e+01 5.792883e+01 6.345129e+01 5.476384e+01 3.266281e+01 4.456993e+01 6.686385e+01 5.332293e+01 5.498876e+01 4.940787e+01 3.653463e+01 2.022319e+00 4.402246e+00 4.992518e+00 8.553553e+00 6.313484e+00 5.647869e+00 5.486014e+00 6.724529e+00 3.714260e+00 4.767931e+00 4.898611e+00 2.364582e+00 2.508573e+00
<GCONST> 1.115368e+02
~s "ST_eh_4_1"
<MEAN> 25
 6.598024e+00 6.233240e+00 -6.292500e+00 8.678696e-01 -1.085337e+00 -3.814533e+00 -1.544375e+00 4.407701e+00 5.312627e+00 -3.191770e+00 -4.330926e+00 -4.676130e-01 -2.497378e+00 8.901177e-01 6.565298e-01 -7.315564e-01 -2.455792e-01 1.202386e+00 2.953964e-02 -8.090912e-01 -1.229607e-01 5.777172e-01 7.380556e-01 1.632368e-01 -2.049113e+00
<VARIANCE> 25
 1.105864e+02 6.457230e+01 7.739382e+01 3.099324e+01 3.940277e+01 3.139564e+01 4.112103e+01 3.744229e+01 2.817309e+01 3.719983e+01 1.984635e+01 1.762515e+01 3.072788e+00 6.055593e+00 5.489624e+00 4.771715e+00 3.428992e+00 2.567725e+00 2.798196e+00 3.284013e+00 2.792662e+00 3.049974e+00 2.326859e+00 2.078213e+00 3.578528e+00
<GCONST> 1.054506e+02
~s "ST_ih_2_1"
<MEAN> 25
 -1.028427e+01 4.750210e+00 -3.584851e+00 2.993149e+00 9.245604e-01 3.272811e+00 2.157392e+00 -1.514664e+00 3.087069e-01 -1.309247e+00 9.711311e-01 4.382739e-01 4.298280e-01 9.557135e-02 9.759746e-02 -9.174055e-02 -2.070050e-01 -6.385739e-02 -1.730654e-01 -2.152844e-01 -3.526126e-01 9.683937e-03 -2.390743e-01 -2.730069e-01 3.088126e-01
<VARIANCE> 25
 4.376611e+01 1.440736e+01 1.630556e+01 1.989785e+01 1.831958e+01 1.229989e+01 1.260750e+01 1.736587e+01 1.635919e+01 1.478813e+01 1.590684e+01 1.105756e+01 1.800779e+00 1.038577e+00 7.934599e-01 1.841542e+00 1.964835e+00 1.442702e+00 1.116290e+00 1.939224e+00 1.897774e+00 1.524653e+00 1.598758e+00 1.491928e+00 2.119184e+00
<GCONST> 8.514279e+01
~s "ST_ih_3_1"
<MEAN> 25
 -7.898530e+00 3.740584e+00 -1.909221e+00 2.308440e+00 1.135853e+00 3.238630e-01 2.410991e+00 2.566327e-02 -4.407216e-01 -1.514652e+00 -2.036131e+00 3.671508e-02 1.688509e-01 -1.880824e-01 1.559960e-01 2.330332e-01 2.373037e-01 -1.086681e-01 9.282159e-02 1.619206e-01 3.058857e-02 2.798179e-03 -1.527760e-01 -5.589956e-02 2.863329e-01
<VARIANCE> 25
 3.100589e+01 1.886208e+01 1.205541e+01 2.290557e+01 1.948151e+01 2.282668e+01 1.619722e+01 1.719900e+01 1.287613e+01 1.349858e+01 1.868700e+01 1.163962e+01 5.815871e-01 7.516381e-01 7.318230e-01 1.268544e+00 1.637806e+00 1.490989e+00 1.430304e+00 1.497559e+00 1.273919e+00 1.601514e+00 1.358047e+00 1.026789e+00 3.143106e-01
<GCONST> 8.084727e+01
~s "ST_ih_4_1"
<MEAN> 25
 -6.286209e+00 2.141136e+00 -1.137977e+00 4.379015e+00 2.325764e+00 -3.847749e-01 1.016818e+00 4.093019e-01 1.942057e+00 -1.369508e+00 -1.140944e+00 9.073508e-01 8.863471e-01 -7.524605e-01 7.549953e-01 1.227085e-01 3.632067e-01 -7.235544e-01 -3.013222e-01 1.055277e-01 2.379820e-01 1.375439e-01 -2.013948e-01 -8.332904e-02 1.663610e+00
<VARIANCE> 25
 4.472652e+01 6.257677e+01 2.740725e+01 1.824386e+01 2.101788e+01 3.951746e+01 2.063305e+01 2.002219e+01 2.382993e+01 1.888570e+01 1.963415e+01 1.594228e+01 5.732131e+00 5.646054e+00 3.045650e+00 2.642680e+00 3.329981e+00 4.025471e+00 2.664357e+00 1.520417e+00 2.958992e+00 1.779544e+00 1.312487e+00 1.898519e+00 5.884626e+00
<GCONST> 9.860362e+01
~h "t+uw"
<BEGINHMM>
<NUMSTATES> 5
<STATE> 2
~s "ST_t_2_1"
<STATE> 3
~s "ST_t_3_1"
<STATE> 4
~s "ST_t_4_2"
~t "T_t"
<ENDHMM>
~h "t-uw"
<BEGINHMM>
<NUMSTATES> 5
<STATE> 2
~s "ST_uw_2_1"
<STATE> 3
~s "ST_uw_3_1"
<STATE> 4
~s "ST_uw_4_1"
~t "T_uw"
<ENDHMM>
~h "sp"
<BEGINHMM>
<NUMSTATES> 3
<STATE> 2
~s "ST_sil_3_1"
<TRANSP> 3
 0.000000e+00 1.126308e-02 9.887369e-01
 0.000000e+00 5.756956e-01 4.243045e-01
 0.000000e+00 0.000000e+00 0.000000e+00
<ENDHMM>
~h "aw+t"
<BEGINHMM>
<NUMSTATES> 5
<STATE> 2
~s "ST_aw_2_1"
<STATE> 3
~s "ST_aw_3_1"
<STATE> 4
~s "ST_aw_4_1"
~t "T_aw"
<ENDHMM>
~h "aw-t"
<BEGINHMM>
<NUMSTATES> 5
<STATE> 2
~s "ST_t_2_1"
<STATE> 3
~s "ST_t_3_1"
<STATE> 4
~s "ST_t_4_1"
~t "T_t"
<ENDHMM>
~h "ay-ae+ng"
<BEGINHMM>
<NUMSTATES> 5
<STATE> 2
~s "ST_ae_2_1"
<STATE> 3
~s "ST_ae_3_1"
<STATE> 4
~s "ST_ae_4_1"
~t "T_ae"
<ENDHMM>
~h "g-ah+l"
<BEGINHMM>
<NUMSTATES> 5
<STATE> 2
~s "ST_ah_2_1"
<STATE> 3
~s "ST_ah_3_1"
<STATE> 4
~s "ST_ah_4_1"
~t "T_ah"
<ENDHMM>
~h "k-ah+l"
<BEGINHMM>
<NUMSTATES> 5
<STATE> 2
~s "ST_ah_2_2"
<STATE> 3
~s "ST_ah_3_1"
<STATE> 4
~s "ST_ah_4_1"
~t "T_ah"
<ENDHMM>
~h "r-eh+d"
<BEGINHMM>
<NUMSTATES> 5
<STATE> 2
~s "ST_eh_2_1"
<STATE> 3
~s "ST_eh_3_1"
<STATE> 4
~s "ST_eh_4_1"
~t "T_eh"
<ENDHMM>
~h "th+r"
<BEGINHMM>
<NUMSTATES> 5
<STATE> 2
~s "ST_th_2_1"
<STATE> 3
~s "ST_th_3_1"
<STATE> 4
~s "ST_th_4_1"
~t "T_th"
<ENDHMM>
~h "th-r+iy"
<BEGINHMM>
<NUMSTATES> 5
<STATE> 2
~s "ST_r_2_1"
<STATE> 3
~s "ST_r_3_1"
<STATE> 4
~s "ST_r_4_1"
~t "T_r"
<ENDHMM>
~h "r-ey+s"
<BEGINHMM>
<NUMSTATES> 5
<STATE> 2
~s "ST_ey_2_1"
<STATE> 3
~s "ST_ey_3_1"
<STATE> 4
~s "ST_ey_4_1"
~t "T_ey"
<ENDHMM>
~h "ng-g+ah"
<BEGINHMM>
<NUMSTATES> 5
<STATE> 2
~s "ST_g_2_1"
<STATE> 3
~s "ST_g_3_1"
<STATE> 4
~s "ST_g_4_1"
~t "T_g"
<ENDHMM>
~h "f+ih"
<BEGINHMM>
<NUMSTATES> 5
<STATE> 2
~s "ST_f_2_1"
<STATE> 3
~s "ST_f_3_1"
<STATE> 4
~s "ST_f_4_1"
~t "T_f"
<ENDHMM>
~h "w+ah"
<BEGINHMM>
<NUMSTATES> 5
<STATE> 2
~s "ST_w_2_1"
<STATE> 3
~s "ST_w_3_1"
<STATE> 4
~s "ST_w_4_1"
~t "T_w"
<ENDHMM>
~h "b+l"
<BEGINHMM>
<NUMSTATES> 5
<STATE> 2
~s "ST_b_2_1"
<STATE> 3
~s "ST_b_3_1"
<STATE> 4
~s "ST_b_4_1"
~t "T_b"
<ENDHMM>
~h "d+r"
<BEGINHMM>
<NUMSTATES> 5
<STATE> 2
~s "ST_d_2_1"
<STATE> 3
~s "ST_d_3_1"
<STATE> 4
~s "ST_d_4_1"
~t "T_d"
<ENDHMM>
~h "uw-m"
<BEGINHMM>
<NUMSTATES> 5
<STATE> 2
~s "ST_m_2_1"
<STATE> 3
~s "ST_m_3_1"
<STATE> 4
~s "ST_m_4_1"
~t "T_m"
<ENDHMM>
~h "r-ay+ae"
<BEGINHMM>
<NUMSTATES> 5
<STATE> 2
~s "ST_ay_2_1"
<STATE> 3
~s "ST_ay_3_1"
<STATE> 4
~s "ST_ay_4_1"
~t "T_ay"
<ENDHMM>
~h "s+k"
<BEGINHMM>
<NUMSTATES> 5
<STATE> 2
~s "ST_s_2_1"
<STATE> 3
~s "ST_s_3_1"
<STATE> 4
~s "ST_s_4_1"
~t "T_s"
<ENDHMM>
~h "sil"
<BEGINHMM>
<NUMSTATES> 5
<STATE> 2
~s "ST_sil_2_1"
<STATE> 3
~s "ST_sil_3_1"
<STATE> 4
~s "ST_sil_4_1"
<TRANSP> 5
 0.000000e+00 1.000000e+00 0.000000e+00 0.000000e+00 0.000000e+00
 0.000000e+00 9.369261e-01 1.234966e-02 5.072431e-02 0.000000e+00
 0.000000e+00 0.000000e+00 9.651437e-01 3.485630e-02 0.000000e+00
 0.000000e+00 9.167582e-02 0.000000e+00 7.192473e-01 1.890769e-01
 0.000000e+00 0.000000e+00 0.000000e+00 0.000000e+00 0.000000e+00
<ENDHMM>
~h "f-ih+l"
<BEGINHMM>
<NUMSTATES> 5
<STATE> 2
~s "ST_ih_2_1"
<STATE> 3
~s "ST_ih_3_1"
<STATE> 4
~s "ST_ih_4_1"
~t "T_ih"
<ENDHMM>
~h "s-k+w"
<BEGINHMM>
<NUMSTATES> 5
<STATE> 2
~s "ST_k_2_2"
<STATE> 3
~s "ST_k_3_2"
<STATE> 4
~s "ST_k_4_1"
~t "T_k"
<ENDHMM>
~h "b-l+uw"
<BEGINHMM>
<NUMSTATES> 5
<STATE> 2
~s "ST_l_2_1"
<STATE> 3
~s "ST_l_3_1"
<STATE> 4
~s "ST_l_4_1"
~t "T_l"
<ENDHMM>
~h "ae-ng+g"
<BEGINHMM>
<NUMSTATES> 5
<STATE> 2
~s "ST_ng_2_1"
<STATE> 3
~s "ST_ng_3_1"
<STATE> 4
~s "ST_ng_4_1"
~t "T_ng"
<ENDHMM>
~h "z+uw"
<BEGINHMM>
<NUMSTATES> 5
<STATE> 2
~s "ST_z_2_1"
<STATE> 3
~s "ST_z_3_1"
<STATE> 4
~s "ST_z_4_1"
~t "T_z"
<ENDHMM>
~h "r-iy+n"
<BEGINHMM>
<NUMSTATES> 5
<STATE> 2
~s "ST_iy_2_1"
<STATE> 3
~s "ST_iy_3_1"
<STATE> 4
~s "ST_iy_4_1"
~t "T_iy"
<ENDHMM>
~h "s-er+k"
<BEGINHMM>
<NUMSTATES> 5
<STATE> 2
~s "ST_er_2_1"
<STATE> 3
~s "ST_er_3_1"
<STATE> 4
~s "ST_er_4_1"
~t "T_er"
<ENDHMM>
~h "r-ao"
<BEGINHMM>
<NUMSTATES> 5
<STATE> 2
~s "ST_ao_2_1"
<STATE> 3
~s "ST_ao_3_1"
<STATE> 4
~s "ST_ao_4_1"
~t "T_ao"
<ENDHMM>
~h "ih-n"
<BEGINHMM>
<NUMSTATES> 5
<STATE> 2
~s "ST_n_2_1"
<STATE> 3
~s "ST_n_3_1"
<STATE> 4
~s "ST_n_4_2"
~t "T_n"
<ENDHMM>
~h "ah-n"
<BEGINHMM>
<NUMSTATES> 5
<STATE> 2
~s "ST_n_2_1"
<STATE> 3
~s "ST_n_3_1"
<STATE> 4
~s "ST_n_4_1"
~t "T_n"
<ENDHMM>
~h "er-k+ah"
<BEGINHMM>
<NUMSTATES> 5
<STATE> 2
~s "ST_k_2_1"
<STATE> 3
~s "ST_k_3_1"
<STATE> 4
~s "ST_k_4_1"
~t "T_k"
<ENDHMM>
